<?xml version="1.0"?>
<opencv_storage>
<my_svm type_id="opencv-ml-svm">
  <svm_type>C_SVC</svm_type>
  <kernel><type>LINEAR</type></kernel>
  <C>100000.</C>
  <term_criteria><epsilon>1.0000000474974513e-03</epsilon>
    <iterations>100000</iterations></term_criteria>
  <var_all>23</var_all>
  <var_count>23</var_count>
  <class_count>2</class_count>
  <class_labels type_id="opencv-matrix">
    <rows>1</rows>
    <cols>2</cols>
    <dt>i</dt>
    <data>
      -1 1</data></class_labels>
  <sv_total>1</sv_total>
  <support_vectors>
    <_>
      7.46890488e+01 4.59457664e+01 8.54492035e+01 5.30250130e+01
      5.61888046e+01 6.31217098e+00 8.76787186e+01 -2.12158859e+02
      -1.19806061e+02 1.70139755e+02 7.61410294e+01 -1.65136673e+02
      6.74753418e+01 5.79745255e+01 5.73766670e+01 5.70590477e+01
      -1.75359482e+02 -7.81992874e+01 -5.12663803e+01 -2.10527020e+01
      1.40412964e+02 -1.09369408e+02 -1.03522186e+02</_></support_vectors>
  <decision_functions>
    <_>
      <sv_count>1</sv_count>
      <rho>5.5046111678120056e+01</rho>
      <alpha>
        1.</alpha>
      <index>
        0</index></_></decision_functions></my_svm>
</opencv_storage>
