<?xml version="1.0"?>
<opencv_storage>
<my_svm type_id="opencv-ml-svm">
  <svm_type>C_SVC</svm_type>
  <kernel><type>RBF</type>
    <gamma>10.</gamma></kernel>
  <C>100000.</C>
  <term_criteria><epsilon>9.9999999747524271e-07</epsilon>
    <iterations>1000000</iterations></term_criteria>
  <var_all>180</var_all>
  <var_count>180</var_count>
  <class_count>2</class_count>
  <class_labels type_id="opencv-matrix">
    <rows>1</rows>
    <cols>2</cols>
    <dt>i</dt>
    <data>
      -1 1</data></class_labels>
  <sv_total>551</sv_total>
  <support_vectors>
    <_>
      3.03871045e-03 0. 0. 0. 0. 0. 0. 0. 0. 0. 0. 0. 0. 3.96353542e-04
      0. 0. 0. 0. 0. 6.60589256e-04 2.64235685e-04 1.71753205e-03
      3.17082833e-03 1.18906063e-03 2.90659280e-03 2.64235702e-03
      2.04782672e-02 2.64235685e-04 4.09565354e-03 1.98176783e-03
      1.59862600e-02 1.32117842e-04 1.37402564e-02 2.90659280e-03
      1.87607352e-02 3.35579328e-02 6.60589244e-03 1.03051923e-02
      2.80089844e-02 1.00409565e-02 2.80089844e-02 7.92707130e-03
      2.47060377e-02 4.25419472e-02 8.58766027e-03 1.45329637e-02
      2.36490946e-02 3.96353542e-04 4.05601785e-02 6.87012821e-03
      1.74395554e-02 3.31615806e-02 1.84964985e-02 5.54894982e-03
      1.29475491e-02 2.28563882e-02 3.26331072e-02 1.55899059e-02
      2.37812125e-03 5.28471370e-04 3.58039364e-02 2.64235685e-04
      6.07742090e-03 1.63826142e-02 2.64235685e-04 9.11613181e-03
      4.58448939e-02 7.92707130e-03 1.57220233e-02 1.84964985e-02
      2.72162762e-02 5.28471405e-03 5.54894982e-03 2.78768670e-02
      4.17492390e-02 6.87012821e-03 1.12300171e-02 3.03871045e-03
      2.64235685e-04 2.45739203e-02 5.57537340e-02 1.32117851e-03
      1.05694274e-03 6.07742090e-03 6.73801033e-03 8.98401346e-03
      3.96353542e-04 1.94213241e-02 7.92707084e-04 2.64235685e-04
      1.21548418e-02 1.32117842e-04 1.18906063e-03 6.20953878e-03
      2.64235685e-04 5.28471405e-03 9.24824923e-03 1.32117842e-04
      2.37812125e-03 5.28471370e-04 0. 3.30294622e-03 0. 1.71753205e-03
      3.96353542e-04 1.32117842e-04 2.64235685e-04 0. 0. 1.32117842e-04
      1.98176783e-03 1.32117842e-04 0. 0. 3.96353542e-04 2.64235685e-04
      0. 0. 0. 0. 1.18906063e-03 0. 0. 0. 0. 0. 0. 0. 0. 0. 0. 0. 0. 0.
      0. 0. 0. 0. 0. 0. 0. 0. 0. 0. 0. 0. 0. 0. 0. 0. 0. 0. 0. 0. 0. 0.
      0. 0. 0. 0. 0. 0. 0. 0. 0. 0. 0. 0. 0. 0. 0. 0. 0. 0. 0. 0. 0. 0.
      0. 0.</_>
    <_>
      7.73891956e-02 0. 0. 1.90443208e-03 0. 4.15512454e-03
      7.73891956e-02 0. 1.24653736e-02 6.92520756e-04 0. 5.45360111e-02
      1.73130189e-04 8.91620517e-02 6.57894742e-03 3.46260378e-04
      2.38919668e-02 1.73130189e-04 1.21191132e-03 5.00346273e-02
      3.98199446e-02 3.91274244e-02 8.13711900e-03 2.00831033e-02
      4.06855941e-02 3.09903044e-02 1.73130203e-02 3.46260378e-04
      1.03878113e-03 6.92520756e-04 6.40581697e-02 1.73130189e-04
      4.32825508e-03 1.03878113e-03 1.21191135e-02 2.21606642e-02
      2.00831033e-02 6.92520756e-04 2.07756227e-03 1.03878113e-03
      3.46260378e-03 6.92520756e-04 1.36772851e-02 9.52216052e-03
      5.19390567e-04 8.65650945e-04 0. 0. 0. 0. 1.48891965e-02
      2.59695295e-03 5.19390567e-04 0. 0. 4.32825508e-03 1.38504151e-03
      0. 0. 0. 6.92520756e-04 0. 0. 6.92520756e-04 0. 0. 5.36703598e-03
      0. 0. 0. 1.38504151e-03 0. 0. 0. 0. 8.82964022e-03 0. 0. 0. 0.
      1.03878113e-03 0. 0. 5.54016605e-03 0. 0. 0. 0. 0. 0. 0. 0. 0. 0.
      0. 0. 8.65650945e-04 0. 0. 0. 0. 0. 0. 1.73130189e-04 0. 0. 0. 0.
      0. 0. 1.55817170e-03 0. 0. 0. 5.19390567e-04 0. 0. 0. 0. 0.
      2.94321333e-03 0. 0. 0. 0. 1.73130189e-04 8.65650945e-04 0. 0. 0.
      0. 0. 1.03878113e-03 1.73130189e-04 0. 0. 0. 0. 0. 0.
      7.27146817e-03 5.19390567e-04 0. 0. 0. 2.07756227e-03 0. 0. 0. 0.
      5.19390567e-04 0. 0. 3.46260378e-04 0. 6.92520756e-04
      6.05955673e-03 3.46260378e-04 1.55817170e-03 0. 5.71329659e-03 0.
      0. 4.50138515e-03 1.90443208e-03 3.46260406e-02 1.73130189e-04 0.
      0. 5.88642666e-03 5.19390590e-02 0. 0. 4.06855941e-02 0.
      8.65650945e-04 0. 2.38919668e-02 0. 0.</_>
    <_>
      5.45841195e-02 0. 9.45179607e-04 2.71739135e-03 0. 6.49810955e-03
      2.45746691e-02 0. 4.25330829e-03 1.41776935e-03 8.27032141e-04
      9.92438570e-03 1.41776935e-03 1.44139882e-02 2.71739135e-03
      2.48109642e-03 3.66257085e-03 1.77221175e-03 1.65406428e-03
      6.37996197e-03 2.26843096e-02 6.37996197e-03 2.00850656e-03
      1.77221175e-03 1.09877130e-02 2.36294908e-03 3.54442338e-04 0. 0.
      0. 1.96124762e-02 0. 0. 0. 5.90737269e-04 7.08884676e-04
      4.48960299e-03 0. 0. 0. 2.36294902e-04 0. 1.65406428e-03
      7.08884676e-04 0. 0. 0. 0. 0. 0. 3.54442350e-03 0. 0. 0. 0.
      5.90737269e-04 1.18147451e-04 0. 0. 0. 3.54442338e-04 0. 0. 0. 0.
      0. 1.65406428e-03 0. 0. 0. 3.54442338e-04 0. 0. 0. 0.
      1.73676740e-02 0. 0. 0. 0. 8.27032141e-04 0. 0. 4.72589815e-03 0.
      0. 0. 1.53591682e-03 0. 0. 3.66257085e-03 0. 0. 1.18147451e-04 0.
      2.36294902e-04 1.54773155e-02 0. 7.08884676e-04 0. 0.
      5.67107741e-03 0. 1.71313807e-02 4.72589803e-04 0. 3.54442350e-03
      0. 0. 1.52410204e-02 3.18998098e-02 1.08695654e-02 1.06332707e-03
      6.26181485e-03 4.11153138e-02 3.66257094e-02 1.07514178e-02 0. 0.
      0. 7.52599239e-02 0. 2.83553870e-03 0. 2.16209833e-02
      4.43052948e-02 4.78497148e-02 0. 1.00425333e-02 1.29962189e-03
      1.79584119e-02 0. 2.76465025e-02 2.84735356e-02 0. 3.18998098e-03
      5.90737269e-04 0. 8.15217383e-03 0. 4.32419665e-02 1.19328918e-02
      2.00850656e-03 0. 5.90737269e-04 1.77221168e-02 4.37145540e-03
      1.29962189e-03 0. 0. 8.27032141e-03 0. 0. 2.95368629e-03 0.
      1.18147451e-04 3.98156904e-02 0. 1.18147451e-04 1.18147451e-04
      1.31143667e-02 0. 0. 5.08034043e-03 4.25330829e-03 3.75708900e-02
      0. 0. 0. 2.36294908e-03 2.78827976e-02 1.18147451e-04 0.
      3.37901711e-02 2.36294902e-04 4.72589803e-04 0. 6.49810955e-03
      1.18147451e-04 0.</_>
    <_>
      4.55332398e-02 0. 0. 0. 0. 3.46260378e-04 1.05609419e-02 0.
      1.73130189e-04 0. 0. 1.03878113e-03 0. 5.54016605e-03 0. 0.
      1.55817170e-03 0. 0. 6.40581734e-03 2.37188358e-02 1.90443208e-03
      8.65650945e-04 1.03878113e-03 1.71398893e-02 7.79085886e-03
      8.65650945e-04 0. 0. 0. 4.01662067e-02 0. 0. 0. 3.80886416e-03
      7.79085886e-03 1.71398893e-02 0. 5.19390567e-04 1.73130189e-04
      2.59695295e-03 0. 6.23268681e-03 3.98199446e-03 0. 0. 0. 0.
      1.73130189e-04 0. 1.00415517e-02 1.55817170e-03 0. 0. 0.
      3.80886416e-03 3.46260378e-04 0. 0. 0. 2.25069257e-03 0. 0.
      3.46260378e-04 0. 0. 8.82964022e-03 0. 0. 0. 5.54016605e-03 0. 0.
      2.07756227e-03 8.65650945e-04 2.59695295e-02 0. 0. 0.
      5.36703598e-03 2.45844871e-02 0. 0. 1.95637122e-02 6.92520756e-04
      1.73130189e-03 0. 1.93905812e-02 1.73130189e-04 0. 2.12950148e-02
      0. 0. 7.27146817e-03 0. 9.34903044e-03 5.36703616e-02 0.
      3.02977841e-02 1.73130189e-04 0. 3.42797786e-02 6.92520756e-04
      5.38434908e-02 2.31994465e-02 3.98199446e-03 2.82202214e-02
      2.59695295e-03 2.42382265e-03 2.66620498e-02 3.09903044e-02
      3.15096937e-02 4.84764529e-03 1.48891965e-02 2.02562325e-02
      1.66204982e-02 1.02146817e-02 0. 5.19390567e-04 0. 5.85180074e-02
      0. 2.42382265e-03 0. 1.19459834e-02 2.90858727e-02 1.66204982e-02
      0. 3.46260378e-04 1.21191132e-03 4.84764529e-03 0. 9.69529059e-03
      5.71329659e-03 0. 0. 0. 0. 3.46260378e-04 0. 2.52770092e-02
      1.55817170e-03 0. 0. 0. 3.28947371e-03 6.92520756e-04 0. 0. 0.
      1.73130189e-03 0. 0. 1.73130189e-04 0. 0. 7.61772832e-03 0.
      1.73130189e-04 0. 2.42382265e-03 1.73130189e-04 0. 1.73130189e-04
      1.73130189e-04 2.92590037e-02 0. 0. 0. 1.73130189e-04
      2.94321333e-03 0. 0. 1.45429363e-02 0. 1.73130189e-04 0.
      6.92520756e-04 0. 0.</_>
    <_>
      4.34018373e-02 0. 1.35208218e-04 2.29853974e-03 0. 8.65332596e-03
      3.94808017e-02 0. 2.55543534e-02 1.35208218e-04 1.35208218e-04
      5.04326671e-02 1.75770686e-03 9.47809592e-02 2.69064363e-02
      1.32504059e-02 5.97620346e-02 8.38290993e-03 1.55489454e-02
      5.21903746e-02 3.47485133e-02 8.51811767e-02 1.96051914e-02
      3.71822603e-02 4.50243391e-02 2.89345589e-02 2.20389403e-02 0.
      2.70416436e-04 4.05624654e-04 7.95024335e-02 0. 3.10978899e-03 0.
      1.05462410e-02 2.29853969e-02 2.73120608e-02 1.35208218e-04
      1.48729037e-03 1.08166575e-03 4.73228795e-03 0. 1.60897784e-02
      5.94916148e-03 0. 6.76041120e-04 0. 0. 1.21687399e-03 0.
      9.59978346e-03 2.70416448e-03 0. 0. 0. 2.97458074e-03
      4.05624654e-04 0. 0. 0. 2.70416436e-04 0. 0. 0. 0. 0.
      3.65062198e-03 0. 0. 0. 2.56895623e-03 0. 0. 8.11249309e-04 0.
      9.87020042e-03 0. 0. 0. 2.70416436e-04 6.76041120e-04 0. 0.
      2.02812324e-03 0. 0. 0. 4.05624654e-04 0. 0. 0. 0. 0. 0. 0. 0. 0.
      0. 0. 0. 0. 0. 0. 0. 0. 0. 0. 0. 0. 0. 2.56895623e-03 0. 0. 0. 0.
      0. 0. 0. 0. 0. 4.32666298e-03 0. 0. 0. 0. 0. 1.35208218e-04 0. 0.
      0. 0. 0. 1.35208224e-03 0. 0. 0. 0. 0. 0. 0. 4.19145497e-03
      2.70416436e-04 0. 0. 0. 1.08166575e-03 0. 0. 0. 0. 1.35208218e-04
      0. 0. 0. 0. 0. 4.59707947e-03 0. 0. 0. 2.43374798e-03 0. 0.
      4.05624654e-04 0. 2.17685234e-02 0. 0. 0. 0. 4.73228795e-03 0. 0.
      1.75770689e-02 2.70416436e-04 1.62249862e-03 0. 5.27312048e-03 0.
      0.</_>
    <_>
      2.10333783e-02 0. 0. 0. 0. 0. 3.50556313e-03 0. 6.09663140e-04 0.
      0. 1.52415794e-03 0. 3.20073171e-03 7.62078969e-04 0.
      1.82898948e-03 0. 0. 2.28623697e-03 1.02118580e-02 1.82898948e-03
      0. 1.52415785e-04 5.79180010e-03 6.09663175e-03 9.14494740e-04 0.
      0. 0. 3.32266428e-02 0. 1.67657365e-03 0. 5.48696844e-03
      1.41746681e-02 1.20408470e-02 2.13382114e-03 8.99253134e-03
      2.74348422e-03 4.72488953e-03 0. 2.27099527e-02 1.06691057e-02
      1.52415785e-04 2.59106839e-03 2.43865256e-03 0. 5.02972119e-03
      4.57247370e-04 5.28882779e-02 1.23456791e-02 5.63938404e-03
      4.57247370e-04 1.98140531e-03 2.89590005e-02 1.79850627e-02
      2.89590005e-03 0. 0. 2.56058536e-02 0. 4.57247370e-04
      9.14494786e-03 0. 5.79180010e-03 8.23045298e-02 3.20073171e-03
      1.61560737e-02 1.11263525e-02 4.83158045e-02 5.33455284e-03
      4.11522621e-03 3.29218097e-02 2.81969216e-02 4.60295677e-02
      6.55387901e-03 9.14494740e-04 0. 3.35314721e-02 1.35954887e-01
      4.57247370e-04 3.04831570e-04 6.32525533e-02 4.26764227e-03
      5.02972119e-03 0. 2.31672004e-02 6.09663140e-04 0. 2.27099527e-02
      0. 1.52415794e-03 1.67657365e-03 0. 1.98140531e-03 2.24051215e-02
      0. 1.67657365e-03 0. 0. 4.42005787e-03 0. 6.85871067e-03 0. 0. 0.
      0. 0. 2.74348422e-03 1.26505103e-02 0. 0. 0. 1.98140531e-03
      1.06691057e-03 0. 0. 0. 0. 3.35314730e-03 0. 0. 0. 0.
      4.57247370e-04 4.57247370e-04 0. 0. 0. 0. 0. 1.52415785e-04 0. 0.
      0. 0. 0. 0. 0. 7.62078969e-04 0. 0. 0. 0. 1.52415785e-04 0. 0. 0.
      0. 0. 0. 0. 0. 0. 0. 1.52415785e-04 0. 0. 0. 3.04831570e-04 0. 0.
      0. 0. 6.09663175e-03 0. 0. 0. 0. 1.52415785e-04 0. 0.
      1.37174211e-03 0. 0. 0. 0. 0. 0.</_>
    <_>
      3.99926938e-02 0. 0. 0. 0. 0. 2.73922575e-03 0. 0. 0. 0. 0. 0. 0.
      0. 0. 0. 0. 0. 0. 4.38276120e-03 0. 0. 0. 5.47845149e-04 0. 0. 0.
      0. 0. 6.75675692e-03 0. 0. 0. 5.47845149e-04 1.09569030e-03
      2.00876547e-03 0. 0. 0. 0. 0. 1.64353545e-03 7.30460219e-04 0. 0.
      0. 0. 0. 0. 8.58290680e-03 1.82615055e-04 0. 0. 0. 1.09569030e-03
      0. 0. 0. 0. 0. 0. 0. 0. 0. 0. 5.47845149e-03 0. 0. 0.
      1.09569030e-03 0. 0. 1.82615055e-04 3.65230109e-04 4.29145359e-02
      0. 0. 0. 3.65230109e-04 1.24178231e-02 0. 0. 2.08181161e-02 0. 0.
      0. 5.11322124e-03 0. 0. 1.44265890e-02 0. 0. 2.55661062e-03 0.
      9.13075230e-04 3.83491591e-02 0. 6.39152667e-03 1.82615055e-04 0.
      1.51570486e-02 3.65230109e-04 6.04455806e-02 4.20014607e-03
      7.30460219e-04 1.95398107e-02 3.65230109e-04 2.92184087e-03
      3.96274664e-02 4.91234474e-02 3.83491591e-02 8.21767747e-03
      2.15485748e-02 4.27319221e-02 3.79839316e-02 7.85244722e-03 0. 0.
      0. 9.69685912e-02 0. 1.09569030e-03 0. 3.10445577e-02
      6.15412705e-02 4.62016053e-02 0. 6.02629641e-03 7.30460219e-04
      8.76552239e-03 0. 3.21402475e-02 1.77136604e-02 0. 3.65230109e-04
      0. 0. 1.09569030e-03 0. 3.34185548e-02 5.11322124e-03
      3.65230109e-04 0. 0. 1.91745795e-02 7.30460219e-04 0. 0. 0.
      4.56537632e-03 0. 0. 0. 0. 0. 1.38787432e-02 0. 1.46092044e-03 0.
      3.10445577e-03 0. 0. 2.37399573e-03 1.46092044e-03 2.68444121e-02
      0. 0. 0. 0. 2.00876547e-03 0. 0. 1.07742874e-02 0. 0. 0. 0. 0. 0.</_>
    <_>
      2.08809637e-02 0. 0. 2.28623697e-03 0. 6.40146341e-03
      9.60219465e-03 0. 8.07803683e-03 1.06691057e-03 9.14494740e-04
      1.64609049e-02 2.89590005e-03 2.62155160e-02 1.15836002e-02
      1.50891636e-02 1.98140536e-02 8.84011574e-03 9.90702678e-03
      1.99664682e-02 1.88995581e-02 4.57247384e-02 2.43865270e-02
      2.11857948e-02 1.99664682e-02 2.11857948e-02 3.38363051e-02
      1.98140531e-03 5.79180010e-03 3.35314730e-03 4.08474319e-02 0.
      7.62078958e-03 3.04831588e-03 1.11263525e-02 1.81374792e-02
      1.31077580e-02 2.89590005e-03 9.29736346e-03 2.28623697e-03
      4.42005787e-03 6.09663140e-04 1.11263525e-02 3.65797896e-03 0.
      6.09663140e-04 4.57247370e-04 0. 2.89590005e-03 3.04831570e-04
      2.13382114e-02 2.74348422e-03 7.62078969e-04 1.52415785e-04
      1.52415785e-04 4.26764227e-03 2.74348422e-03 4.57247370e-04 0. 0.
      3.04831588e-03 0. 0. 1.82898948e-03 0. 7.62078969e-04
      1.44795002e-02 3.04831570e-04 1.21932628e-03 0. 7.92562123e-03
      1.52415785e-04 0. 3.81039479e-03 1.06691057e-03 1.96616370e-02
      1.52415785e-04 0. 0. 3.65797896e-03 2.36244481e-02 0. 0.
      1.75278150e-02 7.62078969e-04 7.62078969e-04 0. 1.53939947e-02
      1.52415785e-04 0. 2.01188847e-02 0. 3.04831570e-04 5.33455284e-03
      0. 6.70629460e-03 2.81969216e-02 0. 1.34125892e-02 6.09663140e-04
      0. 2.71300115e-02 3.04831570e-04 3.55128795e-02 1.12787681e-02
      3.35314730e-03 1.79850627e-02 1.37174211e-03 3.81039479e-03
      1.47843314e-02 1.72229838e-02 1.53939947e-02 3.35314730e-03
      5.94421569e-03 1.17360158e-02 1.14311846e-02 4.87730512e-03 0. 0.
      0. 2.46913582e-02 0. 6.09663140e-04 0. 2.74348422e-03
      4.26764227e-03 6.55387901e-03 0. 3.04831570e-04 3.04831570e-04
      1.52415785e-04 0. 4.26764227e-03 1.52415794e-03 0. 1.52415785e-04
      0. 0. 1.52415785e-04 0. 6.70629460e-03 6.09663140e-04 0. 0. 0.
      2.13382114e-03 4.57247370e-04 0. 0. 0. 1.98140531e-03 0. 0. 0. 0.
      0. 3.20073171e-03 0. 0. 0. 1.06691057e-03 0. 0. 1.52415785e-04 0.
      8.23045243e-03 3.04831570e-04 0. 0. 1.52415785e-04 2.28623697e-03
      3.04831570e-04 0. 5.02972119e-03 1.52415785e-04 4.57247370e-04 0.
      3.20073171e-03 0. 0.</_>
    <_>
      1.55817170e-03 0. 0. 0. 0. 0. 1.73130189e-04 0. 0. 0. 0.
      3.46260378e-04 0. 3.46260378e-04 1.73130189e-04 1.73130189e-04
      1.73130189e-04 0. 0. 5.19390567e-04 1.55817170e-03 3.46260378e-04
      0. 8.65650945e-04 1.03878113e-03 1.55817170e-03 6.92520756e-04 0.
      0. 1.73130189e-04 6.57894742e-03 0. 1.03878113e-03 3.46260378e-04
      3.11634340e-03 5.19390590e-03 2.94321333e-03 3.63573409e-03
      9.17590037e-03 4.15512454e-03 7.79085886e-03 4.32825508e-03
      6.57894742e-03 1.90443210e-02 5.36703598e-03 1.00415517e-02
      1.55817177e-02 3.98199446e-03 2.56232694e-02 5.19390590e-03
      1.35041550e-02 2.23337952e-02 1.43698063e-02 1.07340720e-02
      1.47160664e-02 2.07756236e-02 2.23337952e-02 1.76592804e-02
      1.29847648e-02 1.02146817e-02 2.51038782e-02 8.48337915e-03
      1.85249299e-02 2.51038782e-02 8.82964022e-03 1.73130203e-02
      3.44529077e-02 2.51038782e-02 1.50623266e-02 3.89542952e-02
      2.49307472e-02 1.92174520e-02 2.12950148e-02 2.12950148e-02
      4.93421070e-02 1.88711919e-02 2.09487528e-02 2.57963985e-02
      6.75207749e-03 1.83518007e-02 5.59210517e-02 7.96398893e-03
      7.61772832e-03 1.28116347e-02 1.74861494e-02 9.69529059e-03
      3.80886416e-03 2.11218838e-02 3.11634340e-03 2.77008303e-03
      1.85249299e-02 6.92520756e-04 2.07756227e-03 6.40581734e-03
      8.65650945e-04 7.61772832e-03 1.10803321e-02 0. 5.36703598e-03
      1.03878113e-03 1.73130189e-04 9.00277030e-03 8.65650945e-04
      7.96398893e-03 1.38504151e-03 1.73130189e-03 2.07756227e-03
      3.46260378e-04 3.46260378e-04 2.94321333e-03 3.28947371e-03
      2.25069257e-03 6.92520756e-04 1.03878113e-03 1.55817170e-03
      1.55817170e-03 6.92520756e-04 1.73130189e-04 0. 3.46260378e-04
      2.94321333e-03 0. 3.46260378e-04 1.73130189e-04 5.19390567e-04
      1.21191132e-03 3.46260378e-04 0. 0. 1.73130189e-04 1.73130189e-04
      0. 3.46260378e-04 1.73130189e-04 0. 3.46260378e-04 3.46260378e-04
      0. 1.73130189e-04 0. 6.92520756e-04 3.46260378e-04 0. 0. 0.
      1.73130189e-04 3.46260378e-04 3.46260378e-04 1.73130189e-04 0.
      1.73130189e-04 0. 0. 1.73130189e-04 0. 0. 1.73130189e-04 0. 0. 0.
      0. 0. 0. 0. 0. 1.73130189e-03 0. 0. 0. 0. 0. 0. 0. 3.46260378e-04
      0. 1.73130189e-04 0. 6.92520756e-04 0. 0.</_>
    <_>
      7.70635530e-02 0. 5.47845149e-04 7.30460219e-04 0. 4.74799145e-03
      1.51570486e-02 0. 3.83491605e-03 1.82615055e-04 1.82615055e-04
      1.05916727e-02 1.46092044e-03 1.46092037e-02 4.38276120e-03
      1.82615046e-03 7.48721696e-03 7.30460219e-04 1.64353545e-03
      8.76552239e-03 2.77574863e-02 1.00438278e-02 1.82615046e-03
      3.83491605e-03 1.22352084e-02 6.93937158e-03 4.74799145e-03
      1.82615055e-04 7.30460219e-04 1.82615046e-03 5.66106662e-02 0.
      9.13075230e-04 9.13075230e-04 2.00876547e-03 7.66983209e-03
      1.71658136e-02 3.65230109e-04 9.13075230e-04 0. 2.19138060e-03 0.
      1.24178231e-02 4.20014607e-03 0. 1.82615055e-04 0. 0.
      9.13075230e-04 0. 3.32359374e-02 2.37399573e-03 0. 0. 0.
      4.56537632e-03 1.82615055e-04 0. 0. 0. 1.46092044e-03 0. 0. 0. 0.
      0. 2.13659611e-02 0. 7.30460219e-04 0. 6.39152667e-03 0. 0.
      1.09569030e-03 0. 5.91672771e-02 9.13075230e-04 0. 0.
      9.13075230e-04 2.42878012e-02 0. 0. 4.32797670e-02 1.82615055e-04
      5.47845149e-04 0. 1.46092037e-02 1.82615055e-04 0. 1.71658136e-02
      0. 5.47845149e-04 1.46092044e-03 0. 3.83491605e-03 4.78451438e-02
      0. 4.38276120e-03 0. 0. 1.22352084e-02 0. 2.88531780e-02
      9.13075230e-04 1.27830531e-03 6.93937158e-03 0. 1.64353545e-03
      1.05916727e-02 4.96712923e-02 6.39152667e-03 1.46092044e-03
      7.30460219e-04 2.44704168e-02 6.20891154e-03 9.13075230e-04 0. 0.
      0. 5.36888242e-02 0. 7.30460219e-04 0. 1.64353545e-03
      1.47918193e-02 1.66179687e-02 0. 9.13075230e-04 0. 2.00876547e-03
      0. 7.85244722e-03 2.92184087e-03 0. 3.65230109e-04 1.82615055e-04
      0. 2.19138060e-03 0. 2.99488679e-02 2.19138060e-03 1.82615046e-03
      0. 0. 2.92184087e-03 1.64353545e-03 0. 0. 0. 1.09569030e-03 0. 0.
      0. 0. 0. 8.76552239e-03 0. 0. 0. 2.37399573e-03 0. 0.
      1.09569030e-03 0. 4.01753113e-02 0. 0. 0. 7.30460219e-04
      8.21767747e-03 0. 0. 1.64353549e-02 3.65230109e-04 1.82615055e-04
      0. 4.01753094e-03 5.47845149e-04 0.</_>
    <_>
      4.60775057e-03 0. 0. 0. 0. 0. 1.53591682e-03 0. 4.72589803e-04 0.
      0. 8.27032141e-04 1.18147451e-04 2.95368629e-03 3.54442338e-04
      5.90737269e-04 8.27032141e-04 2.36294902e-04 4.72589803e-04
      2.00850656e-03 4.72589815e-03 1.18147454e-03 3.54442338e-04
      9.45179607e-04 2.48109642e-03 2.36294908e-03 2.36294908e-03 0.
      1.41776935e-03 2.36294902e-04 1.22873345e-02 1.18147451e-04
      2.12665414e-03 1.41776935e-03 7.44328927e-03 1.59499049e-02
      6.97069941e-03 4.84404527e-03 9.09735356e-03 3.89886578e-03
      1.32325143e-02 4.13516071e-03 1.27599239e-02 1.89035926e-02
      3.54442350e-03 1.03969751e-02 1.29962191e-02 3.18998098e-03
      2.55198479e-02 6.85255183e-03 1.57136098e-02 2.29206048e-02
      1.47684310e-02 1.02788284e-02 1.27599239e-02 2.10302453e-02
      2.58742906e-02 1.33506618e-02 1.50047261e-02 8.50661658e-03
      2.81190928e-02 4.13516071e-03 1.84310023e-02 2.42202263e-02
      5.43478271e-03 1.28780715e-02 3.87523621e-02 2.77646501e-02
      1.46502834e-02 3.20179574e-02 2.49291118e-02 1.50047261e-02
      1.64224952e-02 2.28024572e-02 4.01701331e-02 1.97306238e-02
      1.79584119e-02 1.87854450e-02 3.89886578e-03 1.47684310e-02
      4.56049144e-02 4.25330829e-03 5.31663513e-03 1.48865785e-02
      1.38232512e-02 7.91587867e-03 1.89035921e-03 2.00850666e-02
      3.54442350e-03 1.53591682e-03 1.54773155e-02 2.24480149e-03
      2.48109642e-03 5.78922499e-03 3.54442338e-04 7.32514169e-03
      1.15784500e-02 3.54442338e-04 6.37996197e-03 7.08884676e-04
      2.36294902e-04 8.74291081e-03 2.36294902e-04 8.27032141e-03
      1.53591682e-03 2.36294902e-04 2.00850656e-03 1.18147451e-04
      5.90737269e-04 2.00850656e-03 5.31663513e-03 1.89035921e-03
      3.54442338e-04 5.90737269e-04 3.54442350e-03 2.83553870e-03
      2.36294902e-04 0. 0. 0. 4.60775057e-03 0. 0. 0. 2.36294902e-04
      1.53591682e-03 2.71739135e-03 0. 3.54442338e-04 1.18147451e-04
      4.72589803e-04 0. 4.72589803e-04 4.72589803e-04 0. 2.36294902e-04
      1.18147451e-04 0. 4.72589803e-04 0. 1.77221175e-03 2.36294902e-04
      0. 0. 0. 4.72589803e-04 0. 1.18147451e-04 0. 0. 1.18147451e-04 0.
      0. 1.18147451e-04 0. 0. 7.08884676e-04 0. 0. 0. 8.27032141e-04 0.
      0. 0. 1.18147451e-04 2.24480149e-03 0. 0. 0. 0. 1.41776935e-03 0.
      0. 1.65406428e-03 0. 0. 0. 2.36294902e-04 0. 0.</_>
    <_>
      5.74422404e-02 0. 1.26246683e-04 2.27244035e-03 0. 3.66115384e-03
      2.17144303e-02 0. 7.70104770e-03 3.78740049e-04 1.76745362e-03
      1.69170555e-02 3.53490724e-03 3.68640311e-02 1.40133826e-02
      1.36346417e-02 2.92892307e-02 7.44855450e-03 1.28771616e-02
      3.18141654e-02 5.95884360e-02 5.93359433e-02 3.37078646e-02
      2.68905442e-02 3.90102267e-02 3.42128538e-02 3.39603573e-02
      1.26246689e-03 4.41863388e-03 1.00997346e-03 6.43858090e-02 0.
      1.14884488e-02 2.52493366e-04 1.24984216e-02 2.89104916e-02
      2.90367380e-02 5.04986732e-04 2.01994693e-03 7.57480098e-04
      2.77742720e-03 0. 1.54020954e-02 7.57480133e-03 0. 1.38871360e-03
      1.13622018e-03 0. 2.01994693e-03 0. 2.41131168e-02 1.89370033e-03
      1.64120691e-03 0. 2.52493366e-04 3.28241382e-03 1.26246689e-03 0.
      0. 0. 1.00997346e-03 0. 0. 0. 0. 0. 1.33821489e-02 0. 0. 0.
      2.77742720e-03 0. 0. 1.00997346e-03 2.52493366e-04 4.06514332e-02
      0. 0. 0. 7.57480098e-04 4.79737390e-03 0. 0. 2.25981567e-02 0. 0.
      0. 1.89370033e-03 0. 0. 7.32230768e-03 0. 0. 1.26246683e-04 0.
      1.26246683e-04 1.65383164e-02 0. 6.31233444e-04 0. 0.
      5.17611392e-03 0. 6.81732083e-03 2.52493366e-04 0. 1.26246683e-04
      0. 0. 2.27244035e-03 1.32559016e-02 0. 0. 0. 4.54488071e-03
      1.76745362e-03 0. 0. 0. 0. 1.86845101e-02 0. 0. 0. 0.
      7.57480098e-04 3.91364750e-03 0. 0. 0. 1.26246683e-04 0.
      1.89370033e-03 1.13622018e-03 0. 0. 0. 0. 0. 0. 1.13622015e-02 0.
      0. 0. 0. 6.31233444e-04 0. 0. 0. 0. 0. 0. 0. 0. 0. 0.
      2.27244035e-03 0. 0. 0. 6.31233444e-04 0. 0. 3.78740049e-04 0.
      2.76480243e-02 0. 0. 0. 5.04986732e-04 2.90367380e-03 0. 0.
      7.70104770e-03 2.52493366e-04 8.83726811e-04 0. 2.77742720e-03 0.
      0.</_>
    <_>
      9.36791375e-02 1.41723358e-04 2.83446716e-04 4.25170059e-04
      2.83446716e-04 1.13378686e-03 1.51643995e-02 1.41723358e-04
      4.25170059e-04 5.66893432e-04 1.41723358e-04 7.22789112e-03
      2.83446716e-04 1.60147399e-02 1.55895692e-03 4.25170059e-04
      3.68480734e-03 1.41723358e-04 5.66893432e-04 3.40136047e-03
      2.39512473e-02 5.38548734e-03 1.41723358e-04 3.11791385e-03
      1.89909302e-02 5.95238106e-03 1.41723361e-03 0. 0. 0.
      4.84693870e-02 0. 0. 0. 2.83446722e-03 1.04875285e-02
      1.58730168e-02 0. 1.27551018e-03 2.83446716e-04 3.25963716e-03 0.
      1.75736956e-02 1.19047621e-02 1.41723358e-04 1.41723361e-03
      8.50340119e-04 0. 2.83446722e-03 0. 3.20294797e-02 3.54308379e-03
      1.27551018e-03 0. 1.41723358e-04 5.10204071e-03 1.55895692e-03 0.
      0. 0. 2.40929704e-03 0. 0. 1.41723358e-04 0. 0. 1.45975053e-02 0.
      1.41723358e-04 0. 4.25170083e-03 0. 0. 1.41723361e-03
      4.25170059e-04 4.39342409e-02 4.25170059e-04 0. 0. 9.92063549e-04
      1.00623583e-02 0. 0. 2.04081628e-02 2.83446716e-04 8.50340119e-04
      0. 7.93650839e-03 2.83446716e-04 1.41723358e-04 1.41723352e-02 0.
      4.25170059e-04 2.69274367e-03 0. 6.80272095e-03 2.39512473e-02
      5.66893432e-04 5.38548734e-03 2.12585041e-03 1.84240367e-03
      1.40306121e-02 1.84240367e-03 2.14002263e-02 4.81859408e-03
      5.24376426e-03 6.51927432e-03 4.96031763e-03 1.55895692e-03
      4.96031763e-03 4.12414968e-02 4.25170083e-03 1.70068024e-03
      2.12585041e-03 1.28968256e-02 5.24376426e-03 1.13378686e-03 0.
      5.66893432e-04 4.25170059e-04 1.06717683e-01 0. 4.25170059e-04
      2.83446716e-04 2.26757373e-03 9.07029491e-03 2.25340128e-02
      2.83446716e-04 7.08616804e-04 5.66893432e-04 1.55895692e-03
      1.41723358e-04 1.79988667e-02 5.10204071e-03 0. 1.41723358e-04
      5.66893432e-04 0. 9.92063549e-04 2.83446716e-04 4.54931967e-02
      1.27551018e-03 1.41723358e-04 0. 1.41723358e-04 6.66099787e-03
      5.66893432e-04 1.41723358e-04 0. 0. 1.41723361e-03 0. 0. 0. 0.
      1.41723358e-04 1.38888890e-02 0. 2.83446716e-04 0. 2.97619053e-03
      0. 0. 1.27551018e-03 2.83446716e-04 5.66893406e-02 0.
      1.41723358e-04 0. 5.66893432e-04 8.78684781e-03 1.41723358e-04 0.
      1.74319725e-02 4.25170059e-04 4.25170059e-04 4.25170059e-04
      2.55102036e-03 7.08616804e-04 2.83446716e-04</_>
    <_>
      4.14089113e-02 0. 0. 7.57480098e-04 0. 2.52493366e-04
      9.34225507e-03 0. 1.00997346e-03 0. 0. 4.41863388e-03 0.
      1.76745355e-02 5.04986732e-04 1.89370033e-03 5.55485440e-03
      1.89370033e-03 2.52493378e-03 1.91894956e-02 3.14354263e-02
      1.61595754e-02 8.58477503e-03 8.20603501e-03 4.89837155e-02
      3.76215130e-02 1.96944829e-02 3.15616722e-03 4.54488071e-03
      4.29238752e-03 1.19681858e-01 1.38871360e-03 9.08976141e-03
      3.78740067e-03 4.64587808e-02 9.07713696e-02 7.70104751e-02
      2.14619376e-03 1.40133826e-02 4.79737390e-03 1.79270301e-02
      7.57480098e-04 3.34553719e-02 3.15616727e-02 2.52493366e-04
      4.03989386e-03 1.89370033e-03 0. 9.84724145e-03 1.26246683e-04
      5.55485412e-02 9.97348782e-03 1.38871360e-03 0. 1.26246683e-04
      9.97348782e-03 2.52493378e-03 5.04986732e-04 1.26246683e-04 0.
      2.39868695e-03 0. 1.26246683e-04 8.83726811e-04 0. 2.52493366e-04
      1.86845101e-02 0. 2.52493366e-04 0. 5.68110077e-03 0. 0.
      7.57480098e-04 0. 6.57745227e-02 0. 0. 0. 3.78740049e-04
      1.00997351e-02 0. 0. 2.03257166e-02 0. 0. 0. 0. 0. 0.
      6.31233444e-04 0. 0. 0. 0. 0. 2.90367380e-03 0. 0. 0. 0. 0. 0.
      3.78740049e-04 0. 0. 0. 0. 0. 0. 5.55485440e-03 0. 0. 0. 0. 0. 0.
      0. 0. 0. 4.67112754e-03 0. 0. 0. 0. 0. 1.26246683e-04 0. 0. 0. 0.
      0. 5.04986732e-04 0. 0. 0. 0. 0. 0. 0. 2.39868695e-03
      2.52493366e-04 0. 0. 0. 1.26246683e-04 2.52493366e-04
      1.26246683e-04 0. 0. 2.52493366e-04 0. 0. 0. 0. 0. 1.13622018e-03
      0. 0. 0. 2.52493366e-04 0. 0. 2.52493366e-04 0. 1.22459289e-02 0.
      0. 0. 0. 1.00997346e-03 0. 0. 1.89370033e-03 0. 0. 0.
      1.13622018e-03 0. 0.</_>
    <_>
      7.90304244e-02 0. 5.04986732e-04 1.24984216e-02 0. 1.24984216e-02
      9.32963043e-02 0. 1.80532765e-02 1.26246683e-04 2.52493366e-04
      5.52960485e-02 0. 8.35753083e-02 1.42658753e-02 1.51496020e-03
      1.47708626e-02 1.13622018e-03 5.04986732e-04 2.20931694e-02
      5.22661284e-02 1.32559016e-02 5.04986732e-04 2.27244035e-03
      3.15616727e-02 1.54020954e-02 7.57480098e-04 0. 0. 0.
      3.37078646e-02 0. 2.52493366e-04 0. 3.78740067e-03 8.96351505e-03
      9.46850143e-03 0. 1.13622018e-03 8.83726811e-04 1.38871360e-03 0.
      5.55485440e-03 1.26246689e-03 0. 3.78740049e-04 0. 0.
      7.57480098e-04 0. 1.02259815e-02 6.31233444e-04 2.52493366e-04 0.
      2.52493366e-04 1.51496020e-03 0. 0. 0. 0. 8.83726811e-04 0. 0. 0.
      0. 0. 4.03989386e-03 0. 0. 0. 1.13622018e-03 0. 0. 1.26246683e-04
      0. 1.84320156e-02 0. 0. 0. 0. 1.38871360e-03 0. 0. 5.30236075e-03
      0. 0. 0. 0. 0. 0. 1.26246683e-04 0. 0. 0. 0. 0. 1.38871360e-03 0.
      0. 0. 0. 0. 0. 0. 0. 0. 0. 0. 0. 0. 5.04986756e-03 0. 0. 0.
      1.26246689e-03 0. 0. 0. 0. 0. 1.27509153e-02 0. 0. 0. 0.
      1.26246683e-04 3.28241382e-03 0. 0. 0. 0. 0. 4.54488071e-03
      5.04986732e-04 0. 0. 0. 0. 1.26246683e-04 0. 2.48705968e-02
      1.26246689e-03 1.26246683e-04 0. 0. 6.18608762e-03 1.26246683e-04
      0. 0. 0. 4.29238752e-03 0. 0. 0. 0. 0. 2.62593105e-02 0.
      8.83726811e-04 0. 1.30034089e-02 0. 0. 4.54488071e-03
      6.81732083e-03 5.26448674e-02 1.64120691e-03 0. 0. 7.70104770e-03
      6.69107437e-02 0. 0. 7.66317397e-02 1.89370033e-03 4.54488071e-03
      0. 3.26978900e-02 6.31233444e-04 0.</_>
    <_>
      2.44918577e-02 1.26246683e-04 3.78740049e-04 3.53490724e-03
      1.26246683e-04 9.46850143e-03 3.66115384e-02 0. 2.70167906e-02
      1.26246689e-03 1.38871360e-03 4.69637662e-02 2.39868695e-03
      9.32963043e-02 3.40866037e-02 1.69170555e-02 6.86782002e-02
      9.34225507e-03 1.85582619e-02 5.07511683e-02 3.10566854e-02
      9.11501050e-02 2.80267652e-02 4.45650816e-02 2.63855569e-02
      2.86579970e-02 4.35551070e-02 1.26246689e-03 3.28241382e-03
      2.77742720e-03 4.27976251e-02 1.26246683e-04 1.09834615e-02
      2.01994693e-03 1.67908091e-02 2.00732239e-02 7.32230768e-03
      1.89370033e-03 6.43858081e-03 1.89370033e-03 4.29238752e-03
      2.52493366e-04 3.78740067e-03 4.54488071e-03 0. 3.78740049e-04 0.
      0. 3.78740049e-04 0. 4.41863388e-03 1.26246689e-03 5.04986732e-04
      0. 0. 1.76745362e-03 5.04986732e-04 0. 0. 0. 1.00997346e-03 0. 0.
      2.52493366e-04 0. 0. 2.01994693e-03 0. 3.78740049e-04 0.
      6.31233444e-04 0. 0. 2.52493366e-04 1.26246683e-04 3.53490724e-03
      0. 0. 0. 1.26246683e-04 2.01994693e-03 0. 0. 2.39868695e-03 0.
      3.78740049e-04 0. 1.00997346e-03 0. 0. 2.39868695e-03 0.
      6.31233444e-04 1.38871360e-03 0. 5.68110077e-03 3.53490724e-03
      2.52493366e-04 2.01994693e-03 6.31233444e-04 1.00997346e-03
      3.28241382e-03 6.31233444e-04 3.02992039e-03 1.76745362e-03
      1.38871360e-03 2.01994693e-03 6.31233444e-04 3.78740049e-04
      1.89370033e-03 3.40866041e-03 2.65118037e-03 8.83726811e-04
      1.51496020e-03 2.90367380e-03 1.13622018e-03 2.65118037e-03 0.
      2.52493366e-04 0. 7.06981448e-03 0. 0. 0. 5.04986732e-04
      1.51496020e-03 8.83726811e-04 0. 5.04986732e-04 0. 1.26246683e-04
      0. 3.78740049e-04 2.52493366e-04 0. 2.52493366e-04 0. 0.
      6.31233444e-04 0. 2.90367380e-03 5.04986732e-04 3.78740049e-04 0.
      0. 8.83726811e-04 1.26246683e-04 0. 0. 0. 2.52493366e-04 0. 0.
      1.26246683e-04 0. 0. 2.14619376e-03 0. 1.26246683e-04 0.
      1.51496020e-03 1.26246683e-04 0. 1.51496020e-03 1.26246683e-04
      6.43858081e-03 0. 0. 0. 2.52493366e-04 8.33228137e-03 0. 0.
      8.33228137e-03 5.04986732e-04 1.13622018e-03 0. 1.09834615e-02
      3.78740049e-04 1.26246683e-04</_>
    <_>
      1.10714756e-01 0. 0. 5.28471370e-04 0. 0. 1.32117849e-02 0.
      1.71753205e-03 0. 0. 3.83141753e-03 0. 1.25511959e-02
      5.28471370e-04 1.32117842e-04 2.90659280e-03 0. 0. 4.75624250e-03
      3.50112282e-02 4.75624250e-03 7.92707084e-04 1.84964994e-03
      2.15352103e-02 6.34165667e-03 2.11388548e-03 0. 1.32117842e-04
      2.64235685e-04 4.47879508e-02 0. 1.32117851e-03 2.64235685e-04
      5.54894982e-03 1.13621354e-02 9.64460336e-03 1.71753205e-03
      3.83141753e-03 1.18906063e-03 3.17082833e-03 3.96353542e-04
      8.71977769e-03 4.49200673e-03 0. 1.18906063e-03 3.96353542e-04 0.
      9.24824970e-04 2.64235685e-04 2.89338082e-02 2.37812125e-03
      3.96353542e-04 2.64235685e-04 2.64235685e-04 5.28471405e-03
      2.37812125e-03 3.96353542e-04 1.32117842e-04 0. 4.35988884e-03 0.
      1.32117842e-04 9.24824970e-04 0. 5.28471370e-04 1.49293169e-02 0.
      1.45329640e-03 1.32117842e-04 3.17082833e-03 3.96353542e-04
      2.64235685e-04 4.22777096e-03 7.92707084e-04 7.14757591e-02
      1.32117842e-04 0. 0. 6.60589256e-04 1.05694281e-02 1.32117842e-04
      0. 2.48381551e-02 3.96353542e-04 5.28471370e-04 0. 6.60589244e-03
      0. 0. 1.17584886e-02 0. 0. 6.60589256e-04 0. 3.96353542e-04
      2.39133313e-02 0. 7.92707084e-04 0. 0. 4.49200673e-03 0.
      1.12300171e-02 0. 0. 6.60589256e-04 0. 0. 3.03871045e-03
      5.66785559e-02 2.37812125e-03 0. 7.92707084e-04 1.59862600e-02
      1.10978996e-02 1.32117842e-04 0. 0. 0. 7.21363425e-02 0.
      5.28471370e-04 0. 2.37812125e-03 6.47377456e-03 1.94213241e-02 0.
      6.60589256e-04 1.32117842e-04 9.24824970e-04 0. 1.18906060e-02
      4.75624250e-03 0. 1.32117842e-04 0. 0. 6.60589256e-04 0.
      4.28061821e-02 2.24600337e-03 3.96353542e-04 0. 0. 4.62412462e-03
      1.58541417e-03 0. 0. 0. 2.24600337e-03 0. 0. 3.96353542e-04 0. 0.
      1.24190776e-02 0. 0. 0. 3.83141753e-03 0. 0. 3.96353542e-04
      3.96353542e-04 9.76350904e-02 0. 0. 0. 1.98176783e-03
      1.83643810e-02 0. 0. 3.27652283e-02 0. 2.64235685e-04 0.
      3.56718199e-03 0. 0.</_>
    <_>
      3.32266428e-02 0. 1.52415785e-04 1.52415785e-04 0. 1.98140531e-03
      1.55464103e-02 0. 1.06691057e-03 0. 0. 5.48696844e-03 0.
      9.29736346e-03 3.04831570e-04 0. 7.62078969e-04 0. 1.52415785e-04
      1.98140531e-03 1.38698369e-02 2.74348422e-03 6.09663140e-04
      1.06691057e-03 6.24904735e-03 4.87730512e-03 4.57247370e-04 0. 0.
      0. 2.01188847e-02 0. 6.09663140e-04 0. 1.37174211e-03
      8.53528455e-03 1.14311846e-02 1.52415785e-04 1.52415794e-03
      9.14494740e-04 3.35314730e-03 1.52415785e-04 1.00594424e-02
      6.85871067e-03 0. 2.13382114e-03 6.09663140e-04 0. 4.72488953e-03
      1.52415785e-04 2.04237159e-02 6.24904735e-03 2.89590005e-03
      1.52415785e-04 3.04831570e-04 8.99253134e-03 3.04831588e-03
      1.67657365e-03 1.06691057e-03 0. 9.60219465e-03 0. 9.14494740e-04
      2.74348422e-03 0. 1.37174211e-03 2.97210794e-02 3.04831570e-04
      1.82898948e-03 2.89590005e-03 1.34125892e-02 4.57247370e-04
      7.62078969e-04 6.55387901e-03 6.09663175e-03 3.06355730e-02
      1.98140531e-03 1.67657365e-03 1.52415785e-04 8.23045243e-03
      4.34385017e-02 2.28623697e-03 3.50556313e-03 3.32266428e-02
      8.99253134e-03 5.79180010e-03 2.89590005e-03 2.02712994e-02
      2.28623697e-03 1.52415794e-03 2.49961894e-02 1.21932628e-03
      2.59106839e-03 7.16354232e-03 7.62078969e-04 1.38698369e-02
      3.24645638e-02 9.14494740e-04 1.11263525e-02 3.35314730e-03
      3.04831588e-03 1.85947269e-02 2.43865256e-03 2.57582683e-02
      5.79180010e-03 5.33455284e-03 1.05166892e-02 4.42005787e-03
      2.74348422e-03 1.31077580e-02 3.68846208e-02 1.14311846e-02
      5.33455284e-03 5.63938404e-03 1.78326480e-02 1.15836002e-02
      5.18213678e-03 7.62078969e-04 4.57247370e-04 9.14494740e-04
      4.38957475e-02 3.04831570e-04 1.37174211e-03 3.04831570e-04
      4.87730512e-03 1.20408470e-02 1.72229838e-02 6.09663140e-04
      2.28623697e-03 4.57247370e-04 3.20073171e-03 1.52415785e-04
      2.04237159e-02 6.70629460e-03 0. 1.21932628e-03 9.14494740e-04 0.
      3.04831588e-03 1.52415785e-04 2.42341105e-02 4.26764227e-03
      2.43865256e-03 0. 6.09663140e-04 7.92562123e-03 2.43865256e-03
      1.21932628e-03 0. 0. 5.48696844e-03 0. 1.52415785e-04
      1.67657365e-03 0. 1.06691057e-03 9.44977906e-03 6.09663140e-04
      1.82898948e-03 4.57247370e-04 3.50556313e-03 1.52415785e-04 0.
      3.04831588e-03 3.96281062e-03 2.53010206e-02 1.52415785e-04 0. 0.
      3.65797896e-03 1.12787681e-02 0. 0. 1.50891636e-02 0.
      1.52415785e-04 0. 3.35314730e-03 0. 0.</_>
    <_>
      2.12709736e-02 0. 0. 0. 0. 0. 1.10978996e-02 0. 1.05694274e-03 0.
      0. 1.32117842e-04 0. 7.53071718e-03 0. 0. 6.60589256e-04 0. 0.
      7.79495295e-03 1.83643810e-02 5.15259616e-03 0. 1.98176783e-03
      1.26833133e-02 1.57220233e-02 1.32117842e-04 0. 0. 0.
      4.62412462e-02 0. 2.64235685e-04 0. 8.71977769e-03 1.94213241e-02
      2.66878046e-02 3.96353542e-04 3.03871045e-03 1.84964994e-03
      8.98401346e-03 0. 3.62002924e-02 1.73074380e-02 0. 9.24824970e-04
      7.92707084e-04 0. 5.28471405e-03 2.64235685e-04 4.90157232e-02
      5.81318559e-03 2.37812125e-03 0. 3.96353542e-04 2.33848598e-02
      5.41683193e-03 1.71753205e-03 3.96353542e-04 0. 1.53256701e-02 0.
      5.28471370e-04 5.81318559e-03 0. 3.69929988e-03 6.01136200e-02
      1.58541417e-03 7.13436399e-03 4.88836039e-03 3.14440466e-02
      1.71753205e-03 1.18906063e-03 3.18404026e-02 1.81001462e-02
      3.50112282e-02 1.03051923e-02 2.24600337e-03 0. 3.55397016e-02
      9.92205068e-02 7.92707084e-04 0. 3.92390005e-02 7.00224610e-03
      1.01730740e-02 0. 4.55806591e-02 1.32117842e-04 0. 3.06513403e-02
      0. 7.92707084e-04 5.54894982e-03 0. 6.87012821e-03 2.82732192e-02
      0. 3.43506411e-03 2.64235685e-04 2.64235685e-04 1.32117849e-02 0.
      1.36081381e-02 2.24600337e-03 2.64235685e-04 1.18906063e-03 0.
      3.96353542e-04 2.64235702e-03 1.37402564e-02 1.32117851e-03 0.
      1.32117842e-04 4.62412462e-03 2.11388548e-03 2.64235685e-04 0. 0.
      0. 7.39859976e-03 0. 0. 0. 1.32117842e-04 0. 1.98176783e-03 0. 0.
      0. 0. 0. 5.28471370e-04 0. 0. 0. 0. 0. 0. 0. 4.49200673e-03 0. 0.
      0. 0. 2.64235685e-04 0. 0. 0. 0. 0. 0. 0. 0. 0. 0. 1.98176783e-03
      0. 0. 0. 1.32117842e-04 0. 0. 0. 0. 9.51248500e-03 0. 0. 0. 0.
      7.92707084e-04 0. 0. 3.83141753e-03 0. 0. 0. 0. 0. 0.</_>
    <_>
      9.77531001e-02 0. 0. 1.29132229e-03 0. 2.45351251e-03
      3.52531001e-02 0. 4.39049583e-03 9.03925626e-04 1.29132226e-04
      1.67871900e-02 0. 2.41477266e-02 3.09917354e-03 1.03305781e-03
      6.84400834e-03 3.87396693e-04 7.74793385e-04 7.87706580e-03
      4.13223132e-02 1.12345042e-02 1.29132226e-04 2.71177688e-03
      2.29855366e-02 8.00619833e-03 1.42045459e-03 0. 0. 0.
      4.11931835e-02 0. 6.45661145e-04 0. 4.13223123e-03 6.71487581e-03
      8.78099166e-03 0. 1.03305781e-03 5.16528904e-04 2.58264458e-03 0.
      2.71177688e-03 1.80785125e-03 0. 9.03925626e-04 6.45661145e-04 0.
      1.67871895e-03 0. 1.63997933e-02 9.03925626e-04 3.87396693e-04 0.
      7.74793385e-04 6.45661145e-04 5.16528904e-04 0. 0. 0.
      9.03925626e-04 0. 1.29132226e-04 2.58264452e-04 0. 0.
      6.84400834e-03 1.29132226e-04 1.03305781e-03 7.74793385e-04
      1.03305781e-03 3.87396693e-04 2.58264452e-04 6.45661145e-04
      1.03305781e-03 4.88119833e-02 5.16528904e-04 1.29132226e-04 0.
      1.42045459e-03 5.81095042e-03 2.58264452e-04 0. 1.58832651e-02
      7.74793385e-04 3.87396693e-04 0. 3.09917354e-03 0. 0.
      5.16528916e-03 0. 0. 2.58264452e-04 0. 0. 2.24690083e-02 0.
      6.45661145e-04 0. 0. 8.52272753e-03 0. 2.27272734e-02
      6.45661145e-04 0. 1.80785125e-03 0. 0. 5.81095042e-03
      4.58419435e-02 2.32438021e-03 0. 6.45661145e-04 2.81508267e-02
      9.03925579e-03 6.45661145e-04 0. 0. 0. 6.97314069e-02 0. 0. 0.
      3.87396687e-03 1.27840908e-02 1.44628100e-02 0. 0. 0.
      7.74793385e-04 0. 8.78099166e-03 3.61570250e-03 0. 0. 0. 0.
      6.45661145e-04 0. 6.88274801e-02 1.03305781e-03 0. 0. 0.
      1.93698343e-03 0. 0. 0. 0. 1.42045459e-03 0. 0. 0. 0. 0.
      1.67871900e-02 0. 0. 0. 7.61880167e-03 0. 0. 1.80785125e-03 0.
      9.09090936e-02 0. 0. 0. 0. 2.45351233e-02 0. 0. 3.96435969e-02 0.
      0. 0. 1.67871895e-03 0. 0.</_>
    <_>
      8.83726811e-04 0. 0. 1.26246683e-04 0. 1.26246683e-04
      1.00997346e-03 0. 2.52493366e-04 0. 0. 0. 0. 1.76745362e-03
      5.04986732e-04 0. 1.00997346e-03 2.52493366e-04 5.04986732e-04
      1.26246689e-03 8.83726811e-04 2.90367380e-03 1.26246689e-03
      1.64120691e-03 1.76745362e-03 3.40866041e-03 5.68110077e-03
      2.52493366e-04 1.26246689e-03 1.26246689e-03 1.27509153e-02
      6.31233444e-04 6.56482764e-03 3.02992039e-03 1.18671888e-02
      2.75217779e-02 3.91364750e-03 1.42658753e-02 2.09569503e-02
      1.23721752e-02 1.98207293e-02 1.17409416e-02 1.66645627e-02
      4.58275452e-02 1.33821489e-02 2.53755841e-02 4.51963134e-02
      9.72099509e-03 5.54222949e-02 1.41396290e-02 2.70167906e-02
      3.91364731e-02 2.55018305e-02 2.29768977e-02 3.00467107e-02
      3.26978900e-02 3.28241400e-02 2.84055043e-02 2.55018305e-02
      1.32559016e-02 2.65118033e-02 6.05984079e-03 2.36081295e-02
      2.63855569e-02 5.93359442e-03 1.12359552e-02 2.56280769e-02
      2.20931694e-02 1.06047215e-02 2.52493378e-02 1.48971090e-02
      1.03522278e-02 8.58477503e-03 9.21600778e-03 1.50233554e-02
      4.03989386e-03 7.95354135e-03 3.66115384e-03 3.78740049e-04
      3.78740067e-03 1.41396290e-02 1.38871360e-03 1.26246689e-03
      3.40866041e-03 4.54488071e-03 1.89370033e-03 3.78740049e-04
      5.55485440e-03 1.38871360e-03 3.78740049e-04 4.54488071e-03 0.
      3.78740049e-04 7.57480098e-04 0. 1.26246689e-03 2.14619376e-03 0.
      7.57480098e-04 0. 0. 2.14619376e-03 0. 1.38871360e-03
      5.04986732e-04 0. 1.26246689e-03 0. 1.26246683e-04 3.78740049e-04
      6.31233444e-04 6.31233444e-04 3.78740049e-04 2.52493366e-04
      1.26246683e-04 2.52493366e-04 0. 0. 0. 0. 1.64120691e-03 0.
      1.26246683e-04 0. 2.52493366e-04 3.78740049e-04 1.00997346e-03 0.
      1.26246683e-04 1.26246683e-04 0. 0. 7.57480098e-04 5.04986732e-04
      0. 2.52493366e-04 3.78740049e-04 0. 2.52493366e-04 0.
      1.13622018e-03 2.52493366e-04 2.52493366e-04 0. 0. 7.57480098e-04
      1.26246683e-04 0. 0. 0. 0. 0. 0. 0. 0. 0. 3.78740049e-04 0. 0. 0.
      2.52493366e-04 0. 0. 0. 0. 3.78740049e-04 0. 0. 0. 1.26246683e-04
      1.26246683e-04 0. 0. 2.52493366e-04 0. 0. 0. 1.26246683e-04 0. 0.</_>
    <_>
      3.33049893e-02 0. 1.41723358e-04 2.83446716e-04 0. 4.10997728e-03
      6.94444450e-03 1.41723358e-04 6.80272095e-03 1.70068024e-03
      8.50340119e-04 1.43140592e-02 1.70068024e-03 2.79195011e-02
      1.16213150e-02 1.64399091e-02 3.78401354e-02 1.74319725e-02
      1.92743763e-02 3.84070277e-02 3.11791375e-02 8.78684819e-02
      4.16666679e-02 4.79024947e-02 2.45181397e-02 4.32256237e-02
      6.50510192e-02 2.26757373e-03 1.04875285e-02 1.84240367e-03
      6.70351461e-02 0. 1.78571437e-02 1.70068024e-03 1.53061226e-02
      3.37301604e-02 1.64399091e-02 8.50340119e-04 3.40136047e-03
      1.41723361e-03 3.96825420e-03 5.66893432e-04 1.57312918e-02
      8.21995456e-03 2.83446716e-04 2.83446716e-04 2.83446716e-04 0.
      1.98412710e-03 1.41723358e-04 3.04705221e-02 1.70068024e-03
      4.25170059e-04 0. 0. 4.10997728e-03 2.83446716e-04 7.08616804e-04
      0. 0. 4.25170059e-04 0. 0. 0. 0. 0. 1.50226755e-02 0. 0. 0.
      8.07823148e-03 0. 0. 1.41723361e-03 0. 5.07369600e-02 0. 0. 0. 0.
      1.20464852e-02 0. 0. 3.38718817e-02 0. 1.41723358e-04 0.
      2.83446722e-03 0. 0. 8.21995456e-03 0. 0. 0. 0. 4.25170059e-04
      8.92857183e-03 0. 2.55102036e-03 0. 0. 4.10997728e-03 0.
      3.54308379e-03 2.83446716e-04 0. 4.25170059e-04 0. 0.
      7.08616804e-04 6.94444450e-03 0. 0. 0. 9.92063549e-04 0. 0. 0. 0.
      0. 2.12585041e-03 0. 0. 0. 0. 0. 9.92063549e-04 0. 0. 0. 0. 0.
      1.41723358e-04 0. 0. 0. 0. 0. 0. 0. 1.27551018e-03 0. 0. 0. 0. 0.
      0. 0. 0. 0. 0. 0. 0. 0. 0. 0. 5.66893432e-04 0. 0. 0. 0. 0. 0. 0.
      0. 7.08616758e-03 0. 0. 0. 0. 7.08616804e-04 0. 0. 1.55895692e-03
      2.83446716e-04 1.41723358e-04 0. 1.27551018e-03 0. 0.</_>
    <_>
      1.55899059e-02 0. 6.60589256e-04 6.34165667e-03 0. 1.28154317e-02
      3.71251144e-02 1.32117842e-04 3.19725201e-02 9.24824970e-04
      5.28471370e-04 4.35988903e-02 1.05694274e-03 7.58356452e-02
      5.39040826e-02 1.08336639e-02 9.84277949e-02 5.81318559e-03
      2.66878046e-02 4.28061821e-02 4.22777124e-02 1.20887831e-01
      2.76126303e-02 4.58448939e-02 2.69520413e-02 4.21455950e-02
      2.53666267e-02 7.92707084e-04 1.84964994e-03 7.92707084e-04
      7.67604709e-02 0. 4.09565354e-03 0. 1.10978996e-02 2.28563882e-02
      9.51248500e-03 7.92707084e-04 2.37812125e-03 0. 2.90659280e-03 0.
      1.84964994e-03 2.37812125e-03 0. 1.32117842e-04 0. 0. 0. 0.
      2.51023914e-03 2.64235685e-04 0. 0. 0. 0. 0. 0. 0. 0. 0. 0. 0. 0.
      0. 0. 0. 0. 0. 0. 0. 0. 0. 0. 0. 1.05694274e-03 0. 0. 0. 0. 0. 0.
      0. 0. 0. 0. 0. 0. 0. 0. 0. 0. 0. 0. 0. 0. 0. 0. 0. 0. 0. 0. 0. 0.
      0. 0. 0. 0. 0. 0. 2.64235685e-04 0. 0. 0. 2.64235685e-04
      2.64235685e-04 0. 0. 0. 0. 1.98176783e-03 0. 0. 0. 0.
      2.64235685e-04 1.32117842e-04 0. 0. 0. 0. 0. 3.96353542e-04 0. 0.
      0. 0. 0. 0. 0. 3.30294622e-03 1.32117842e-04 0. 0. 0.
      1.32117842e-04 2.64235685e-04 0. 0. 0. 9.24824970e-04 0. 0.
      1.32117842e-04 0. 0. 7.53071718e-03 0. 0. 0. 2.51023914e-03 0. 0.
      9.24824970e-04 2.64235685e-04 1.16263712e-02 0. 0. 0.
      5.28471370e-04 8.71977769e-03 0. 0. 1.41366096e-02 0.
      1.32117842e-04 0. 7.00224610e-03 0. 0.</_>
    <_>
      1.85950417e-02 0. 0. 0. 0. 0. 2.58264458e-03 0. 0. 0. 0.
      1.29132229e-03 0. 5.16528916e-03 0. 0. 5.16528904e-04 0. 0.
      5.29442169e-03 7.61880167e-03 5.29442169e-03 6.45661145e-04
      6.97314041e-03 1.34297516e-02 1.52376033e-02 2.84090918e-03 0.
      1.29132226e-04 3.87396693e-04 5.39772734e-02 0. 2.06611562e-03
      1.29132226e-04 1.16219008e-02 3.11208684e-02 3.75774801e-02
      1.16219011e-03 6.45661168e-03 1.54958677e-03 1.58832651e-02
      5.16528904e-04 6.03047535e-02 3.43491733e-02 2.06611562e-03
      9.03925579e-03 5.55268582e-03 0. 2.09194217e-02 1.42045459e-03
      5.39772734e-02 2.90547516e-02 1.11053716e-02 1.29132229e-03
      4.13223123e-03 5.16528934e-02 2.02737600e-02 7.74793373e-03
      2.97004124e-03 0. 3.08626033e-02 0. 7.74793385e-04 7.23140500e-03
      0. 5.16528916e-03 7.45093003e-02 2.58264458e-03 9.16838832e-03
      5.68181835e-03 4.42923568e-02 9.03925626e-04 1.03305781e-03
      2.68595032e-02 1.65289249e-02 2.71177683e-02 6.45661145e-04 0. 0.
      6.19834708e-03 5.51394634e-02 0. 0. 3.71900834e-02 2.58264458e-03
      9.03925626e-04 0. 8.52272753e-03 7.74793385e-04 0. 1.74328517e-02
      0. 6.45661145e-04 7.74793385e-04 0. 2.58264452e-04 1.30423550e-02
      0. 2.58264452e-04 0. 0. 4.77789249e-03 0. 3.35743790e-03 0. 0. 0.
      0. 0. 2.58264452e-04 1.30423550e-02 7.74793385e-04 0. 0.
      1.16219011e-03 1.29132226e-04 0. 0. 0. 0. 8.52272753e-03 0. 0. 0.
      2.58264452e-04 0. 9.03925626e-04 0. 0. 0. 0. 0. 0. 0. 0. 0. 0. 0.
      0. 0. 1.29132229e-03 0. 0. 0. 0. 0. 0. 0. 0. 0. 0. 0. 0. 0. 0. 0.
      3.87396693e-04 0. 0. 0. 0. 0. 0. 0. 0. 3.35743790e-03 0. 0. 0. 0.
      0. 0. 0. 7.74793385e-04 0. 0. 0. 0. 0. 0.</_>
    <_>
      4.06746045e-02 0. 4.39342391e-03 8.64512473e-03 0. 1.96995456e-02
      6.80272132e-02 1.41723358e-04 4.03911583e-02 3.68480734e-03
      1.41723358e-04 6.43424019e-02 1.41723361e-03 9.45294797e-02
      3.21712010e-02 1.28968256e-02 5.64058945e-02 7.65306130e-03
      1.41723352e-02 4.35090698e-02 4.33673486e-02 6.06575981e-02
      2.15419494e-02 3.31632644e-02 2.73526069e-02 3.13208625e-02
      3.71315181e-02 2.40929704e-03 2.69274367e-03 4.10997728e-03
      5.93820848e-02 0. 7.36961467e-03 1.55895692e-03 9.21201799e-03
      1.50226755e-02 8.36167764e-03 0. 1.70068024e-03 8.50340119e-04
      7.08616804e-04 0. 9.92063549e-04 1.41723361e-03 1.41723358e-04 0.
      1.41723358e-04 0. 0. 0. 1.70068024e-03 0. 0. 0. 0. 0. 0. 0. 0. 0.
      0. 0. 0. 0. 0. 0. 0. 0. 0. 0. 0. 0. 0. 0. 0. 2.26757373e-03 0. 0.
      0. 0. 0. 0. 0. 4.25170059e-04 0. 0. 0. 0. 0. 0. 0. 0. 0. 0. 0. 0.
      8.50340119e-04 0. 0. 0. 0. 0. 0. 0. 0. 0. 0. 0. 0. 0. 0. 0. 0. 0.
      0. 0. 0. 0. 0. 0. 5.66893432e-04 0. 0. 0. 0. 0. 0. 0. 0. 0. 0. 0.
      4.25170059e-04 0. 0. 0. 0. 0. 0. 0. 1.84240367e-03 0. 0. 0. 0.
      4.25170059e-04 0. 0. 0. 0. 0. 0. 0. 0. 0. 0. 3.96825420e-03 0. 0.
      1.41723358e-04 9.92063549e-04 0. 0. 1.98412710e-03 5.66893432e-04
      1.24716554e-02 1.41723358e-04 0. 0. 2.83446722e-03 2.90532876e-02
      0. 0. 3.21712010e-02 2.69274367e-03 2.40929704e-03 0.
      1.77154187e-02 8.50340119e-04 0.</_>
    <_>
      4.05405387e-02 0. 0. 0. 0. 0. 1.64353545e-03 0. 0. 0. 0. 0. 0. 0.
      0. 0. 0. 0. 0. 0. 9.13075230e-04 0. 0. 0. 7.30460219e-04 0. 0. 0.
      0. 0. 6.75675692e-03 0. 0. 0. 0. 1.82615055e-04 1.27830531e-03 0.
      0. 0. 0. 0. 5.47845149e-03 1.82615046e-03 0. 0. 0. 0. 0. 0.
      1.82615053e-02 5.47845149e-04 3.65230109e-04 0. 0. 5.11322124e-03
      1.64353545e-03 0. 0. 0. 5.47845149e-04 0. 0. 0. 0. 0.
      2.94010229e-02 0. 0. 0. 9.49598290e-03 0. 0. 3.10445577e-03 0.
      5.29583655e-02 0. 0. 0. 5.47845149e-04 2.26442665e-02 0. 0.
      5.14974445e-02 0. 3.65230109e-04 0. 8.58290680e-03 0. 0.
      2.19138060e-02 0. 0. 2.73922575e-03 0. 1.64353545e-03
      9.02118310e-02 0. 4.20014607e-03 0. 0. 2.94010229e-02 0.
      6.79327995e-02 4.20014607e-03 1.82615055e-04 1.46092037e-02 0.
      1.82615055e-04 4.60189916e-02 8.36376920e-02 2.41051856e-02
      3.65230109e-04 9.86121222e-03 6.22717328e-02 5.00365235e-02
      2.55661062e-03 0. 0. 0. 8.40029195e-02 0. 5.47845149e-04 0.
      5.29583637e-03 2.13659611e-02 3.41490135e-02 0. 0. 0.
      3.65230109e-04 0. 1.55222788e-02 4.01753094e-03 0. 1.82615055e-04
      0. 0. 1.27830531e-03 0. 2.70270277e-02 7.30460219e-04
      1.82615055e-04 0. 0. 1.46092044e-03 0. 0. 0. 0. 3.65230109e-04 0.
      0. 0. 0. 0. 4.38276120e-03 0. 0. 0. 1.46092044e-03 0. 0. 0. 0.
      1.11395177e-02 0. 0. 0. 0. 5.47845149e-04 0. 0. 5.47845149e-03 0.
      0. 0. 0. 0. 0.</_>
    <_>
      4.10640500e-02 0. 0. 1.29132226e-04 0. 1.29132226e-04
      1.09762400e-02 0. 7.74793385e-04 0. 0. 6.45661168e-03
      2.58264452e-04 1.84659082e-02 1.03305781e-03 2.32438021e-03
      5.55268582e-03 2.06611562e-03 2.58264458e-03 2.68595032e-02
      4.10640500e-02 3.25413235e-02 1.45919425e-02 1.33006200e-02
      5.61725199e-02 4.51962799e-02 2.18233466e-02 1.03305781e-03
      3.61570250e-03 3.22830584e-03 1.49018601e-01 6.45661145e-04
      7.61880167e-03 5.29442169e-03 2.18233466e-02 6.18543401e-02
      8.49690065e-02 2.58264458e-03 8.00619833e-03 2.32438021e-03
      8.00619833e-03 5.16528904e-04 3.92562002e-02 2.18233466e-02
      9.03925626e-04 3.22830584e-03 1.29132229e-03 0. 4.90702502e-03 0.
      4.98450398e-02 7.87706580e-03 3.35743790e-03 2.58264452e-04
      1.42045459e-03 8.39359500e-03 3.09917354e-03 2.19524791e-03
      1.29132226e-04 0. 4.00309917e-03 0. 1.29132226e-04 1.93698343e-03
      0. 3.87396693e-04 1.29132234e-02 5.16528904e-04 1.16219011e-03
      1.93698343e-03 5.03615709e-03 1.29132226e-04 1.29132226e-04
      2.06611562e-03 1.29132229e-03 2.72468999e-02 2.58264452e-04 0. 0.
      1.80785125e-03 9.68491752e-03 1.29132226e-04 0. 1.21384300e-02
      1.03305781e-03 5.16528904e-04 0. 4.64876043e-03 0. 0.
      5.16528916e-03 0. 1.29132226e-04 9.03925626e-04 0. 1.29132226e-04
      3.74483480e-03 0. 5.16528904e-04 0. 0. 0. 0. 1.16219011e-03 0. 0.
      2.58264452e-04 0. 0. 1.42045459e-03 2.84090918e-03 9.03925626e-04
      0. 0. 5.16528904e-04 5.16528904e-04 0. 0. 0. 0. 1.00723142e-02 0.
      0. 0. 0. 0. 5.16528904e-04 0. 0. 0. 0. 0. 2.58264452e-04
      1.29132226e-04 0. 0. 0. 0. 0. 0. 3.74483480e-03 0. 0. 0. 0.
      2.58264452e-04 0. 0. 0. 0. 2.58264452e-04 0. 0. 0. 0. 0.
      3.87396693e-04 0. 0. 0. 6.45661145e-04 0. 0. 6.45661145e-04
      1.29132226e-04 1.56250000e-02 0. 0. 0. 0. 2.58264458e-03 0. 0.
      4.90702502e-03 0. 0. 0. 6.45661145e-04 0. 0.</_>
    <_>
      5.37810884e-02 2.14619376e-03 2.14619376e-03 8.96351505e-03
      6.31233444e-04 2.52493378e-02 5.03724292e-02 2.01994693e-03
      2.70167906e-02 8.58477503e-03 1.36346417e-02 6.75419793e-02
      2.39868704e-02 9.38012898e-02 3.33291255e-02 5.25186211e-02
      5.21398820e-02 4.59537953e-02 2.67642979e-02 4.93624546e-02
      5.08774146e-02 4.02726941e-02 2.01994702e-02 1.75482891e-02
      1.69170555e-02 1.24984216e-02 1.02259815e-02 5.04986732e-04
      8.83726811e-04 8.83726811e-04 2.56280769e-02 1.26246683e-04
      3.78740049e-04 6.31233444e-04 1.89370033e-03 3.02992039e-03
      7.32230768e-03 0. 3.78740049e-04 0. 6.31233444e-04 0.
      8.83726811e-04 6.31233444e-04 0. 1.26246683e-04 0. 0.
      3.78740049e-04 0. 3.78740067e-03 1.26246683e-04 2.52493366e-04 0.
      0. 0. 0. 0. 0. 0. 0. 0. 0. 0. 0. 0. 2.52493366e-04 0. 0. 0.
      1.26246683e-04 0. 0. 0. 0. 2.27244035e-03 0. 0. 0. 0. 0. 0. 0. 0.
      0. 0. 0. 0. 0. 0. 0. 0. 0. 0. 0. 0. 2.52493366e-04 0. 0. 0. 0. 0.
      0. 0. 0. 0. 0. 0. 0. 0. 2.90367380e-03 0. 0. 0. 1.26246683e-04 0.
      0. 0. 0. 0. 6.05984079e-03 0. 0. 0. 0. 0. 5.04986732e-04 0. 0. 0.
      0. 0. 1.00997346e-03 5.04986732e-04 0. 1.26246683e-04 0. 0.
      1.26246683e-04 0. 3.78740067e-03 7.57480098e-04 2.52493366e-04 0.
      0. 1.13622018e-03 1.26246683e-04 0. 0. 0. 7.57480098e-04 0. 0.
      1.26246683e-04 0. 0. 7.95354135e-03 0. 0. 0. 4.03989386e-03 0. 0.
      1.76745362e-03 1.00997346e-03 2.66380515e-02 0. 0. 0.
      1.13622018e-03 2.75217779e-02 0. 0. 2.84055043e-02 2.39868695e-03
      2.27244035e-03 0. 1.71695501e-02 7.57480098e-04 7.57480098e-04</_>
    <_>
      9.00051668e-02 0. 1.29132226e-04 1.03305781e-03 0. 6.97314041e-03
      4.53254133e-02 0. 6.84400834e-03 1.67871895e-03 1.54958677e-03
      2.18233466e-02 1.80785125e-03 4.06766534e-02 8.78099166e-03
      8.00619833e-03 1.47210741e-02 5.29442169e-03 1.93698343e-03
      2.19524801e-02 5.75929768e-02 1.70454551e-02 5.55268582e-03
      7.10227294e-03 3.34452465e-02 2.02737600e-02 7.48966960e-03
      9.03925626e-04 1.42045459e-03 7.74793385e-04 4.68750000e-02
      1.29132226e-04 9.03925626e-04 5.16528904e-04 1.93698343e-03
      8.91012419e-03 1.43336775e-02 0. 0. 2.58264452e-04 1.54958677e-03
      0. 6.32747915e-03 1.80785125e-03 0. 3.87396693e-04 0. 0.
      1.67871895e-03 0. 1.83367766e-02 7.74793385e-04 7.74793385e-04 0.
      0. 3.09917354e-03 1.29132229e-03 3.87396693e-04 2.58264452e-04 0.
      2.06611562e-03 0. 0. 9.03925626e-04 0. 1.29132226e-04
      5.81095042e-03 0. 6.45661145e-04 0. 2.58264458e-03 0. 0.
      1.03305781e-03 5.16528904e-04 4.40340899e-02 0. 0. 0.
      6.45661145e-04 5.55268582e-03 0. 0. 1.43336775e-02 0. 0. 0.
      2.32438021e-03 0. 0. 3.87396687e-03 0. 0. 0. 0. 0. 1.65289249e-02
      0. 3.87396693e-04 0. 0. 1.03305781e-03 0. 9.29752085e-03
      3.87396693e-04 2.58264452e-04 1.03305781e-03 7.74793385e-04
      9.03925626e-04 4.90702502e-03 3.64152901e-02 5.42355375e-03
      9.03925626e-04 1.93698343e-03 1.16219008e-02 4.26136376e-03
      3.87396693e-04 0. 0. 0. 4.20971066e-02 0. 0. 0. 5.16528904e-04
      3.22830584e-03 1.08471075e-02 0. 0. 0. 3.87396693e-04 0.
      1.23966942e-02 1.54958677e-03 0. 0. 0. 0. 0. 0. 3.82231399e-02
      1.29132229e-03 0. 0. 0. 4.39049583e-03 3.87396693e-04 0. 0. 0.
      2.19524791e-03 0. 0. 0. 0. 0. 2.35020667e-02 0. 0. 0.
      8.65185913e-03 0. 0. 1.54958677e-03 1.29132226e-04 6.09504133e-02
      2.58264452e-04 0. 0. 7.74793385e-04 2.23398767e-02 0. 0.
      3.34452465e-02 0. 9.03925626e-04 0. 8.39359500e-03 0. 0.</_>
    <_>
      6.52662143e-02 1.78359095e-02 1.47971995e-02 2.33848598e-02
      9.11613181e-03 4.66376022e-02 2.95943990e-02 4.22777096e-03
      3.31615806e-02 1.25511959e-02 1.12300171e-02 3.83141749e-02
      9.90883913e-03 3.38221677e-02 1.25511959e-02 1.33439023e-02
      1.62504949e-02 8.19130708e-03 5.81318559e-03 1.18906060e-02
      8.45554192e-03 1.69110838e-02 5.68106771e-03 7.26648187e-03
      8.45554192e-03 6.34165667e-03 7.00224610e-03 6.60589256e-04
      1.45329640e-03 1.71753205e-03 1.29475491e-02 0. 4.75624250e-03
      1.45329640e-03 6.47377456e-03 1.09657813e-02 4.49200673e-03
      7.92707084e-04 1.84964994e-03 6.60589256e-04 2.51023914e-03 0.
      3.17082833e-03 3.56718199e-03 0. 7.92707084e-04 5.28471370e-04 0.
      1.71753205e-03 0. 1.18906063e-03 1.84964994e-03 1.05694274e-03 0.
      2.64235685e-04 1.45329640e-03 5.28471370e-04 3.96353542e-04
      1.32117842e-04 0. 1.05694274e-03 0. 0. 1.32117842e-04 0. 0.
      6.60589256e-04 0. 0. 0. 5.28471370e-04 0. 0. 2.64235685e-04 0.
      1.98176783e-03 0. 0. 0. 0. 1.32117842e-04 0. 0. 3.96353542e-04 0.
      0. 0. 0. 0. 0. 5.28471370e-04 0. 0. 1.32117842e-04 0. 0.
      7.92707084e-04 0. 1.32117842e-04 0. 0. 3.96353542e-04 0.
      6.60589256e-04 0. 0. 0. 0. 0. 2.64235685e-04 1.71753205e-03 0. 0.
      0. 7.92707084e-04 7.92707084e-04 0. 0. 0. 0. 3.69929988e-03 0. 0.
      0. 1.32117842e-04 7.92707084e-04 1.71753205e-03 3.96353542e-04
      2.64235685e-04 0. 1.32117842e-04 0. 2.90659280e-03 1.71753205e-03
      0. 2.64235685e-04 5.28471370e-04 0. 1.58541417e-03 0.
      5.28471405e-03 2.77447491e-03 1.18906063e-03 2.64235685e-04
      6.60589256e-04 4.88836039e-03 2.90659280e-03 1.32117851e-03
      1.32117851e-03 0. 4.09565354e-03 1.32117842e-04 2.64235702e-03
      3.43506411e-03 0. 1.98176783e-03 1.34760207e-02 5.02047827e-03
      5.28471405e-03 1.04373097e-02 1.10978996e-02 4.75624250e-03
      3.83141753e-03 7.79495295e-03 2.76126303e-02 7.00224610e-03
      1.46650812e-02 9.51248500e-03 9.24824970e-04 2.64235698e-02
      7.06830472e-02 7.00224610e-03 4.75624250e-03 1.82322636e-02
      3.80499400e-02 2.10067388e-02 7.13436399e-03 5.76033816e-02
      1.25511959e-02 1.13621354e-02</_>
    <_>
      5.90737269e-04 0. 0. 0. 0. 0. 0. 0. 0. 0. 0. 0. 0. 0. 0. 0. 0. 0.
      0. 0. 0. 0. 0. 0. 0. 0. 0. 0. 0. 0. 0. 0. 0. 0. 2.36294902e-04 0.
      2.36294902e-04 0. 0. 0. 0. 0. 0. 0. 0. 0. 2.36294902e-04 0. 0. 0.
      2.36294902e-04 1.18147451e-04 0. 0. 2.36294902e-04 5.90737269e-04
      4.72589803e-04 3.54442338e-04 1.18147451e-04 1.18147451e-04
      4.72589803e-04 2.36294902e-04 1.18147451e-04 1.18147451e-04 0.
      1.18147451e-04 1.29962189e-03 3.54442338e-04 5.90737269e-04
      8.27032141e-04 1.89035921e-03 8.27032141e-04 4.72589803e-04
      1.29962189e-03 5.19848755e-03 2.00850656e-03 2.71739135e-03
      4.84404527e-03 9.45179607e-04 3.66257085e-03 2.42202263e-02
      3.07183363e-03 7.08884699e-03 1.31143667e-02 2.52835546e-02
      1.42958416e-02 1.89035926e-02 4.84404527e-02 1.47684310e-02
      1.74858216e-02 6.25000000e-02 3.39083187e-02 2.62287334e-02
      2.67013237e-02 3.40264663e-02 9.34546292e-02 3.34357284e-02
      3.28449905e-02 7.34877139e-02 4.89130430e-02 3.98156904e-02
      6.87618181e-02 3.87523621e-02 4.35964093e-02 2.28024572e-02
      2.74102073e-02 2.19754260e-02 8.86105839e-03 2.59924377e-03
      9.92438570e-03 3.78071843e-03 9.80623811e-03 3.54442350e-03
      1.41776935e-03 1.06332707e-03 2.00850656e-03 2.71739135e-03 0. 0.
      0. 2.95368629e-03 0. 7.08884676e-04 0. 1.41776935e-03
      1.53591682e-03 0. 0. 3.54442338e-04 0. 0. 0. 0. 4.72589803e-04 0.
      0. 0. 0. 0. 0. 0. 0. 0. 0. 0. 0. 0. 0. 0. 0. 0. 0. 0. 0. 0. 0. 0.
      0. 0. 0. 0. 0. 0. 0. 0. 0. 0. 0. 0. 0. 0. 0. 0. 0. 0. 0. 0. 0. 0.
      0.</_>
    <_>
      1.30796675e-02 0. 0. 0. 0. 0. 9.24824970e-04 0. 0. 0. 0.
      5.28471370e-04 0. 1.32117851e-03 0. 0. 5.28471370e-04 0.
      9.24824970e-04 3.69929988e-03 9.90883913e-03 5.41683193e-03
      3.43506411e-03 7.00224610e-03 8.05918872e-03 1.46650812e-02
      1.78359095e-02 3.96353542e-04 3.17082833e-03 3.17082833e-03
      3.83141749e-02 2.64235685e-04 1.90249700e-02 2.77447491e-03
      2.21957993e-02 4.09565344e-02 1.21548418e-02 9.24824923e-03
      2.24600341e-02 1.05694281e-02 1.05694281e-02 5.28471370e-04
      2.40454488e-02 2.07425021e-02 1.32117851e-03 6.73801033e-03
      3.69929988e-03 0. 1.05694281e-02 1.45329640e-03 2.85374559e-02
      1.65147316e-02 5.54894982e-03 5.28471370e-04 1.45329640e-03
      1.92892067e-02 9.24824923e-03 3.69929988e-03 5.28471370e-04
      5.28471370e-04 1.21548418e-02 0. 7.92707084e-04 3.96353565e-03 0.
      2.37812125e-03 3.54075842e-02 1.58541417e-03 2.37812125e-03
      1.98176783e-03 2.24600341e-02 1.32117842e-04 2.64235685e-04
      1.38723738e-02 5.68106771e-03 2.58950982e-02 2.24600337e-03
      1.84964994e-03 0. 7.92707130e-03 4.92799580e-02 2.64235685e-04
      9.24824970e-04 4.50521857e-02 2.51023914e-03 2.37812125e-03
      1.32117842e-04 2.86695734e-02 2.64235685e-04 1.84964994e-03
      4.18813564e-02 0. 7.92707084e-04 1.65147316e-02 0. 1.98176783e-02
      5.60179688e-02 0. 1.96855590e-02 1.05694274e-03 0. 2.72162762e-02
      3.96353542e-04 2.41775662e-02 8.71977769e-03 1.18906063e-03
      9.51248500e-03 1.32117842e-04 2.90659280e-03 2.24600337e-03
      1.71753205e-02 2.77447491e-03 1.45329640e-03 1.71753205e-03
      4.09565354e-03 1.18906063e-03 2.11388548e-03 0. 0. 0.
      7.66283507e-03 0. 1.32117842e-04 0. 3.96353542e-04 9.24824970e-04
      5.68106771e-03 0. 0. 0. 1.32117842e-04 0. 1.98176783e-03
      6.60589256e-04 0. 0. 0. 0. 0. 0. 1.18906063e-03 2.64235685e-04
      1.32117842e-04 0. 0. 0. 2.64235685e-04 0. 0. 0. 1.32117842e-04 0.
      0. 0. 0. 0. 5.28471370e-04 0. 0. 0. 1.32117842e-04 0. 0. 0. 0.
      5.41683193e-03 0. 0. 0. 0. 3.96353542e-04 0. 0. 1.05694274e-03 0.
      0. 0. 2.64235685e-04 0. 0.</_>
    <_>
      1.40133826e-02 0. 2.52493366e-04 6.31233444e-04 0. 6.31233444e-04
      8.58477503e-03 0. 1.13622018e-03 0. 0. 3.15616722e-03
      1.26246683e-04 7.44855450e-03 8.83726811e-04 1.26246683e-04
      1.64120691e-03 0. 2.52493366e-04 4.92362073e-03 9.21600778e-03
      4.16614069e-03 7.57480098e-04 2.77742720e-03 8.71102139e-03
      7.44855450e-03 1.13622018e-03 1.26246683e-04 6.31233444e-04
      3.78740049e-04 2.52493378e-02 6.31233444e-04 3.66115384e-03
      1.51496020e-03 1.42658753e-02 2.95417253e-02 1.48971090e-02
      2.27244035e-03 1.00997351e-02 4.29238752e-03 1.08572152e-02
      1.13622018e-03 2.34818831e-02 1.95682365e-02 1.89370033e-03
      9.08976141e-03 8.33228137e-03 2.52493366e-04 1.90632492e-02
      3.66115384e-03 1.52758490e-02 1.95682365e-02 1.24984216e-02
      4.41863388e-03 7.70104770e-03 2.20931694e-02 2.14619357e-02
      1.32559016e-02 5.42860758e-03 1.89370033e-03 2.43656095e-02
      1.38871360e-03 9.72099509e-03 1.88107565e-02 1.26246689e-03
      1.33821489e-02 3.83789912e-02 1.03522278e-02 1.04784751e-02
      1.71695501e-02 2.08307039e-02 6.81732083e-03 1.11097088e-02
      1.76745355e-02 2.75217779e-02 1.86845101e-02 1.46446154e-02
      1.27509153e-02 1.13622018e-03 1.57808363e-02 5.07511683e-02
      4.41863388e-03 4.67112754e-03 2.13356894e-02 1.59070827e-02
      9.97348782e-03 2.27244035e-03 2.01994702e-02 2.90367380e-03
      5.04986732e-04 2.09569503e-02 2.52493366e-04 1.13622018e-03
      4.67112754e-03 1.26246683e-04 7.44855450e-03 1.67908091e-02
      8.83726811e-04 5.93359442e-03 5.04986732e-04 6.31233444e-04
      8.20603501e-03 2.52493366e-04 7.95354135e-03 1.64120691e-03
      1.13622018e-03 2.65118037e-03 3.78740049e-04 5.04986732e-04
      3.02992039e-03 8.71102139e-03 1.64120691e-03 3.78740049e-04
      8.83726811e-04 4.03989386e-03 2.14619376e-03 6.31233444e-04 0. 0.
      2.52493366e-04 9.72099509e-03 0. 3.78740049e-04 0. 2.01994693e-03
      3.40866041e-03 3.78740067e-03 2.52493366e-04 1.26246683e-04
      2.52493366e-04 3.78740049e-04 0. 2.90367380e-03 3.02992039e-03 0.
      1.26246683e-04 2.52493366e-04 0. 3.78740049e-04 2.52493366e-04
      4.41863388e-03 3.78740049e-04 2.52493366e-04 1.26246683e-04
      1.26246683e-04 2.77742720e-03 1.26246683e-04 2.52493366e-04 0. 0.
      1.00997346e-03 0. 0. 2.52493366e-04 0. 1.26246683e-04
      4.16614069e-03 0. 1.26246683e-04 0. 1.26246689e-03 0.
      1.26246683e-04 2.52493366e-04 5.04986732e-04 9.46850143e-03 0. 0.
      0. 6.31233444e-04 4.29238752e-03 0. 0. 4.41863388e-03
      2.52493366e-04 0. 0. 1.89370033e-03 0. 0.</_>
    <_>
      1.18147451e-04 0. 0. 0. 0. 0. 0. 0. 0. 0. 0. 0. 0. 0. 0. 0. 0. 0.
      0. 0. 0. 0. 0. 0. 0. 0. 0. 0. 0. 0. 0. 0. 0. 0. 0. 0. 0. 0. 0. 0.
      0. 0. 0. 0. 0. 0. 0. 0. 0. 0. 1.18147451e-04 0. 0. 0. 0. 0. 0. 0.
      0. 0. 1.18147451e-04 0. 0. 0. 0. 0. 2.36294902e-04 0. 0. 0. 0. 0.
      0. 1.18147451e-04 3.54442338e-04 0. 0. 0. 0. 5.90737269e-04
      8.27032141e-04 2.36294902e-04 4.72589803e-04 2.36294902e-04
      1.41776935e-03 5.90737269e-04 4.72589803e-04 2.95368629e-03
      2.48109642e-03 1.77221175e-03 8.27032141e-03 6.14366727e-03
      3.89886578e-03 5.90737257e-03 1.27599239e-02 2.54017022e-02
      1.97306238e-02 1.47684310e-02 4.82041575e-02 4.11153138e-02
      4.79678623e-02 9.16824192e-02 6.80529326e-02 9.43998098e-02
      3.80434766e-02 1.03733458e-01 5.96644618e-02 6.58081248e-02
      1.63043477e-02 5.36389425e-02 2.58742906e-02 2.88279764e-02
      3.01275998e-02 7.08884699e-03 1.54773155e-02 6.85255183e-03
      2.00850666e-02 1.77221175e-03 6.26181485e-03 2.83553870e-03
      2.83553870e-03 0. 4.96219285e-03 2.59924377e-03 1.18147454e-03
      1.29962189e-03 1.18147451e-04 1.18147454e-03 1.06332707e-03
      1.18147451e-04 1.18147451e-04 1.18147451e-04 1.18147451e-04
      4.72589803e-04 0. 0. 0. 0. 0. 0. 0. 0. 0. 0. 0. 0. 0. 0. 0. 0. 0.
      0. 0. 0. 0. 0. 0. 0. 0. 0. 0. 0. 0. 0. 0. 0. 0. 0. 0. 0. 0. 0. 0.
      0. 0. 0. 0. 0. 0. 0.</_>
    <_>
      5.35285957e-02 1.38871360e-03 3.02992039e-03 9.46850143e-03
      4.67112754e-03 1.80532765e-02 5.80734760e-02 4.67112754e-03
      3.44653465e-02 1.59070827e-02 2.55018305e-02 7.30968341e-02
      3.59803066e-02 7.91566744e-02 3.30766328e-02 5.40335812e-02
      4.26713787e-02 4.22926396e-02 2.18406767e-02 3.18141654e-02
      2.82792579e-02 1.84320156e-02 7.19606131e-03 4.41863388e-03
      1.48971090e-02 4.79737390e-03 2.90367380e-03 0. 1.26246683e-04 0.
      1.07309679e-02 0. 8.83726811e-04 0. 1.13622018e-03 1.26246689e-03
      2.39868695e-03 2.52493366e-04 0. 0. 0. 0. 2.65118037e-03
      1.64120691e-03 0. 0. 0. 0. 0. 0. 2.01994693e-03 1.26246683e-04
      2.52493366e-04 0. 0. 5.04986732e-04 2.52493366e-04 0. 0. 0.
      5.04986732e-04 0. 0. 0. 0. 0. 1.26246689e-03 0. 0. 0.
      8.83726811e-04 0. 0. 2.52493366e-04 1.26246683e-04 1.51496020e-03
      0. 0. 0. 0. 2.52493366e-04 0. 0. 1.38871360e-03 0. 0. 0.
      1.26246683e-04 0. 0. 8.83726811e-04 0. 0. 0. 0. 0. 1.38871360e-03
      0. 0. 0. 0. 5.04986732e-04 0. 6.31233444e-04 0. 0. 0. 0. 0. 0.
      2.77742720e-03 0. 0. 0. 1.26246683e-04 0. 0. 0. 0. 0.
      4.16614069e-03 0. 0. 0. 0. 0. 3.78740049e-04 0. 0. 0. 0. 0.
      2.52493366e-04 0. 0. 0. 0. 0. 0. 0. 6.31233444e-03 0. 0. 0. 0.
      1.38871360e-03 7.57480098e-04 0. 0. 0. 1.26246689e-03 0. 0.
      1.26246683e-04 0. 3.78740049e-04 1.12359552e-02 0. 7.57480098e-04
      0. 9.46850143e-03 0. 0. 5.80734760e-03 4.29238752e-03
      2.62593105e-02 5.04986732e-04 0. 0. 1.13622015e-02 7.38543123e-02
      3.78740049e-04 0. 4.26713787e-02 1.51496020e-03 1.89370033e-03
      1.26246683e-04 3.29503864e-02 7.57480098e-04 6.31233444e-04</_>
    <_>
      5.21398820e-02 0. 6.31233444e-04 4.54488071e-03 0. 5.30236075e-03
      5.30236065e-02 0. 1.09834615e-02 0. 2.52493366e-04 3.00467107e-02
      2.52493366e-04 6.04721643e-02 8.58477503e-03 2.52493366e-04
      1.65383164e-02 6.31233444e-04 2.65118037e-03 3.72427739e-02
      4.64587808e-02 2.84055043e-02 8.20603501e-03 1.54020954e-02
      3.78740057e-02 2.86579970e-02 1.70433018e-02 0. 5.04986732e-04
      3.78740049e-04 7.01931566e-02 0. 2.39868695e-03 6.31233444e-04
      1.26246689e-02 3.33291255e-02 4.27976251e-02 3.78740049e-04
      3.15616722e-03 2.65118037e-03 4.79737390e-03 1.26246683e-04
      2.51230914e-02 1.45183690e-02 0. 2.27244035e-03 1.26246683e-04 0.
      2.39868695e-03 1.26246683e-04 2.84055043e-02 5.42860758e-03
      1.00997346e-03 0. 5.04986732e-04 1.09834615e-02 1.64120691e-03
      1.13622018e-03 0. 0. 4.79737390e-03 0. 0. 3.78740049e-04 0.
      5.04986732e-04 1.56545900e-02 2.52493366e-04 1.89370033e-03
      5.04986732e-04 7.95354135e-03 1.26246683e-04 0. 1.89370033e-03
      8.83726811e-04 2.14619357e-02 0. 0. 0. 8.83726811e-04
      9.34225507e-03 0. 0. 1.38871353e-02 0. 3.78740049e-04 0.
      4.41863388e-03 0. 0. 7.95354135e-03 0. 0. 3.78740049e-04 0. 0.
      1.07309679e-02 0. 3.78740049e-04 0. 0. 1.51496020e-03 0.
      2.77742720e-03 0. 0. 0. 0. 0. 0. 1.03522278e-02 0. 0. 0.
      7.57480098e-04 1.26246683e-04 0. 0. 0. 0. 6.81732083e-03 0. 0. 0.
      0. 6.31233444e-04 2.14619376e-03 0. 0. 0. 0. 0. 2.77742720e-03
      3.78740049e-04 0. 0. 0. 0. 0. 0. 6.81732083e-03 0. 0. 0. 0.
      1.26246683e-04 0. 0. 0. 0. 0. 0. 0. 3.78740049e-04 0.
      2.52493366e-04 5.80734760e-03 1.26246683e-04 1.76745362e-03
      2.52493366e-04 4.54488071e-03 1.26246683e-04 0. 5.55485440e-03
      3.66115384e-03 2.41131168e-02 2.52493366e-04 0. 0. 3.66115384e-03
      3.37078646e-02 0. 0. 2.42393631e-02 2.52493366e-04 2.90367380e-03
      0. 1.52758490e-02 0. 0.</_>
    <_>
      0. 0. 0. 0. 0. 0. 1.82615055e-04 0. 1.82615055e-04 0. 0. 0. 0.
      1.82615055e-04 0. 0. 0. 0. 0. 3.65230109e-04 1.82615055e-04
      5.47845149e-04 0. 1.82615055e-04 0. 1.82615055e-04 9.13075230e-04
      0. 5.47845149e-04 0. 1.46092044e-03 0. 2.00876547e-03
      1.82615046e-03 1.82615046e-03 5.66106662e-03 2.55661062e-03
      4.56537632e-03 4.20014607e-03 7.30460184e-03 1.69831999e-02
      1.35135138e-02 1.40613588e-02 2.57487223e-02 2.66617965e-02
      3.12271733e-02 4.41928431e-02 3.08619421e-02 5.75237386e-02
      3.01314835e-02 5.62454350e-02 5.29583655e-02 3.48794758e-02
      3.70708555e-02 3.57925482e-02 4.47406881e-02 4.07231562e-02
      3.12271733e-02 2.81227175e-02 2.99488679e-02 2.61139516e-02
      1.75310448e-02 2.42878012e-02 3.23228650e-02 1.24178231e-02
      1.40613588e-02 2.35573407e-02 2.53834911e-02 1.02264425e-02
      2.61139516e-02 9.86121222e-03 8.21767747e-03 9.67859756e-03
      6.20891154e-03 1.11395177e-02 3.10445577e-03 4.93060611e-03
      5.47845149e-03 3.65230109e-04 5.47845149e-04 5.84368175e-03
      1.09569030e-03 0. 5.47845149e-04 3.65230109e-04 3.65230109e-04 0.
      7.30460219e-04 1.82615055e-04 0. 7.30460219e-04 0. 0.
      1.82615055e-04 0. 5.47845149e-04 0. 1.82615055e-04 0. 0. 0.
      1.82615055e-04 0. 0. 0. 0. 0. 0. 0. 0. 0. 0. 0. 0. 0. 0. 0. 0. 0.
      0. 0. 0. 0. 0. 0. 0. 0. 0. 0. 0. 0. 0. 0. 0. 0. 0. 0. 0. 0. 0. 0.
      0. 0. 0. 0. 0. 0. 0. 0. 0. 0. 0. 0. 0. 0. 0. 0. 0. 0. 0. 0. 0. 0.
      0. 0. 0. 0. 0. 0. 0. 0. 0. 0. 0. 0. 0. 0. 0. 0. 0.</_>
    <_>
      1.86087608e-01 1.51496020e-03 1.00997346e-03 1.26246689e-03
      1.26246683e-04 3.15616722e-03 6.17346279e-02 0. 2.39868695e-03
      7.57480098e-04 5.04986732e-04 2.32293904e-02 5.04986732e-04
      4.41863388e-02 2.27244035e-03 2.77742720e-03 9.72099509e-03
      8.83726811e-04 1.38871360e-03 1.75482891e-02 8.84989277e-02
      1.32559016e-02 7.57480098e-04 3.78740067e-03 3.40866037e-02
      8.45852774e-03 3.15616722e-03 0. 0. 0. 4.60800417e-02 0.
      7.57480098e-04 0. 6.31233444e-04 5.17611392e-03 7.57480133e-03 0.
      0. 0. 3.78740049e-04 0. 2.01994693e-03 2.39868695e-03 0.
      1.26246683e-04 0. 0. 6.31233444e-04 0. 1.26246689e-03
      1.00997346e-03 0. 0. 0. 1.13622018e-03 0. 0. 0. 0. 0. 0. 0. 0. 0.
      0. 8.83726811e-04 0. 2.52493366e-04 0. 7.57480098e-04 0. 0.
      3.78740049e-04 1.26246683e-04 2.63855569e-02 0. 0. 0. 0.
      2.52493366e-04 0. 0. 2.01994693e-03 0. 0. 0. 0. 0. 0.
      1.26246683e-04 0. 0. 0. 0. 0. 1.38871360e-03 0. 0. 0. 0.
      3.78740049e-04 0. 1.26246683e-04 0. 0. 0. 0. 0. 2.52493366e-04
      1.48971090e-02 0. 0. 0. 6.31233444e-04 3.78740049e-04 0. 0. 0. 0.
      4.17876542e-02 0. 0. 0. 0. 2.52493366e-04 1.76745362e-03 0. 0. 0.
      0. 0. 5.04986732e-04 0. 0. 0. 0. 0. 0. 0. 3.58540602e-02 0. 0. 0.
      0. 2.14619376e-03 1.26246683e-04 0. 0. 0. 7.57480098e-04 0. 0.
      1.26246683e-04 0. 0. 1.31296553e-02 0. 0. 0. 3.78740067e-03 0. 0.
      1.76745362e-03 5.04986732e-04 1.27509147e-01 1.26246683e-04
      1.26246683e-04 0. 1.51496020e-03 4.59537953e-02 5.04986732e-04
      6.31233444e-04 5.27711138e-02 2.65118037e-03 2.65118037e-03
      1.13622018e-03 2.27244031e-02 4.92362073e-03 2.77742720e-03</_>
    <_>
      1.06332707e-03 0. 0. 0. 0. 0. 1.18147451e-04 0. 0. 0. 0. 0. 0.
      2.36294902e-04 0. 0. 0. 0. 0. 2.36294902e-04 4.72589803e-04
      4.72589803e-04 2.36294902e-04 3.54442338e-04 1.29962189e-03
      5.90737269e-04 2.36294908e-03 3.54442338e-04 9.45179607e-04
      1.53591682e-03 4.84404527e-03 4.72589803e-04 5.19848755e-03
      4.72589815e-03 1.27599239e-02 2.46928167e-02 1.18147451e-02
      2.33931951e-02 1.70132332e-02 1.20510394e-02 2.83553880e-02
      2.05576569e-02 2.49291118e-02 4.59593572e-02 2.28024572e-02
      2.95368619e-02 5.32844998e-02 2.81190928e-02 6.12003766e-02
      2.36294903e-02 4.11153138e-02 4.26512286e-02 2.69376189e-02
      3.02457474e-02 3.47353481e-02 4.00519855e-02 3.56805287e-02
      3.24905477e-02 2.70557664e-02 2.91824192e-02 2.54017022e-02
      1.29962191e-02 1.50047261e-02 2.43383739e-02 6.49810955e-03
      9.33364872e-03 1.70132332e-02 1.25236297e-02 4.37145540e-03
      1.34688094e-02 5.90737257e-03 4.25330829e-03 3.18998098e-03
      3.54442350e-03 7.67958397e-03 1.89035921e-03 2.48109642e-03
      3.07183363e-03 2.36294902e-04 2.83553870e-03 4.72589815e-03
      4.72589803e-04 2.36294902e-04 5.90737269e-04 1.53591682e-03
      7.08884676e-04 1.18147451e-04 1.41776935e-03 4.72589803e-04
      2.36294902e-04 1.29962189e-03 1.18147451e-04 0. 4.72589803e-04 0.
      5.90737269e-04 7.08884676e-04 0. 2.36294902e-04 0. 0.
      3.54442338e-04 0. 1.18147451e-04 0. 0. 0. 0. 0. 2.36294902e-04
      5.90737269e-04 0. 0. 0. 1.18147451e-04 0. 0. 0. 0. 0.
      2.36294902e-04 0. 0. 0. 0. 2.36294902e-04 1.18147451e-04 0. 0. 0.
      0. 0. 1.18147451e-04 0. 0. 0. 0. 0. 0. 0. 2.36294902e-04 0. 0. 0.
      0. 1.18147451e-04 0. 0. 0. 0. 2.36294902e-04 0. 0. 0. 0. 0.
      3.54442338e-04 0. 0. 0. 3.54442338e-04 0. 0. 1.18147451e-04 0.
      4.72589803e-04 0. 0. 0. 0. 1.18147451e-04 0. 0. 0. 0. 0. 0.
      1.18147451e-04 0. 0.</_>
    <_>
      1.51496020e-03 0. 0. 0. 0. 5.04986732e-04 6.31233444e-04 0.
      1.26246683e-04 0. 0. 6.31233444e-04 0. 1.51496020e-03
      2.52493366e-04 1.26246683e-04 1.76745362e-03 7.57480098e-04
      6.31233444e-04 3.02992039e-03 2.39868695e-03 3.91364750e-03
      2.65118037e-03 4.16614069e-03 5.17611392e-03 4.67112754e-03
      1.47708626e-02 1.51496020e-03 3.66115384e-03 6.43858081e-03
      2.48705968e-02 1.76745362e-03 1.80532765e-02 1.35083953e-02
      2.33556367e-02 5.12561537e-02 1.14884488e-02 3.30766328e-02
      3.09304371e-02 2.55018305e-02 3.45915928e-02 2.38606241e-02
      3.43391001e-02 7.52430260e-02 2.73955315e-02 4.30501215e-02
      6.27446026e-02 1.40133826e-02 6.03459142e-02 1.46446154e-02
      2.60068178e-02 3.45915928e-02 2.13356894e-02 1.52758490e-02
      2.31031440e-02 1.85582619e-02 2.07044557e-02 1.41396290e-02
      1.17409416e-02 5.30236075e-03 1.46446154e-02 1.76745362e-03
      1.00997351e-02 1.12359552e-02 2.14619376e-03 4.92362073e-03
      1.43921226e-02 5.30236075e-03 3.40866041e-03 6.05984079e-03
      5.55485440e-03 1.51496020e-03 8.83726811e-04 2.14619376e-03
      3.15616722e-03 2.77742720e-03 1.38871360e-03 0. 0. 1.26246689e-03
      7.57480133e-03 0. 0. 4.03989386e-03 5.04986732e-04 5.04986732e-04
      0. 2.52493378e-03 0. 0. 2.52493378e-03 0. 0. 5.04986732e-04 0.
      3.78740049e-04 3.15616722e-03 0. 2.52493366e-04 0. 0.
      2.52493366e-04 0. 1.00997346e-03 2.52493366e-04 0. 1.26246683e-04
      0. 1.26246683e-04 3.78740049e-04 1.64120691e-03 2.52493366e-04
      3.78740049e-04 3.78740049e-04 2.52493366e-04 6.31233444e-04 0. 0.
      0. 0. 6.31233444e-04 0. 0. 0. 1.26246683e-04 2.52493366e-04
      5.04986732e-04 0. 0. 0. 0. 0. 3.78740049e-04 2.52493366e-04 0. 0.
      0. 0. 0. 0. 7.57480098e-04 0. 0. 0. 0. 0. 0. 0. 0. 0. 0. 0. 0. 0.
      0. 0. 0. 0. 0. 0. 0. 0. 0. 0. 0. 8.83726811e-04 0. 0. 0. 0. 0. 0.
      0. 2.52493366e-04 0. 0. 0. 0. 0. 0.</_>
    <_>
      4.10578446e-03 0. 0. 0. 0. 0. 7.24550162e-04 0. 0. 0. 0.
      1.20758363e-04 0. 1.08682527e-03 0. 1.20758363e-04 1.56985875e-03
      4.83033451e-04 1.20758363e-04 4.83033451e-04 1.44910032e-03
      2.29440886e-03 1.69061706e-03 3.38123413e-03 3.62275081e-04
      2.05289223e-03 8.21156893e-03 0. 1.56985875e-03 2.41516726e-04
      8.81536026e-03 0. 5.43412613e-03 2.05289223e-03 4.95109288e-03
      8.33232701e-03 2.17365054e-03 1.81137549e-03 3.86426761e-03
      1.93213380e-03 2.65668402e-03 1.20758363e-04 4.34730109e-03
      4.70957626e-03 2.41516726e-04 1.08682527e-03 9.66066902e-04 0.
      3.50199244e-03 2.41516726e-04 8.21156893e-03 3.26047582e-03
      1.44910032e-03 1.20758363e-04 3.62275081e-04 5.43412613e-03
      2.17365054e-03 6.03791792e-04 2.41516726e-04 1.20758363e-04
      3.98502592e-03 1.20758363e-04 3.62275081e-04 4.83033451e-04
      2.41516726e-04 8.45308532e-04 1.29211452e-02 6.03791792e-04
      1.56985875e-03 1.32834201e-03 9.66066867e-03 3.62275081e-04
      2.41516726e-04 6.52095163e-03 3.74350930e-03 1.07474942e-02
      2.41516726e-04 1.20758363e-04 0. 7.60777667e-03 4.62504514e-02
      7.24550162e-04 0. 1.92005802e-02 1.44910032e-03 4.58881771e-03 0.
      3.12764160e-02 1.44910032e-03 0. 5.28921634e-02 0. 3.50199244e-03
      1.26796281e-02 0. 1.71476882e-02 6.24320731e-02 0. 3.15179341e-02
      1.56985875e-03 3.62275081e-04 5.59111200e-02 1.20758358e-03
      9.11725610e-02 2.52384972e-02 9.41915251e-03 5.02354801e-02
      3.38123413e-03 9.41915251e-03 4.16616350e-02 2.11327132e-02
      5.02354801e-02 1.02644609e-02 1.77514795e-02 2.35478804e-02
      2.58422904e-02 1.77514795e-02 0. 1.69061706e-03 0. 3.15179341e-02
      0. 6.40019309e-03 0. 4.70957626e-03 1.35249365e-02 1.15928026e-02
      0. 7.24550162e-04 2.41516726e-04 1.08682527e-03 0. 5.31336805e-03
      2.65668402e-03 0. 1.20758363e-04 0. 0. 6.03791792e-04 0.
      3.86426761e-03 9.66066902e-04 0. 0. 1.20758363e-04 8.45308532e-04
      0. 0. 0. 0. 0. 0. 0. 0. 0. 0. 6.03791792e-04 0. 0. 0. 0. 0. 0. 0.
      0. 1.08682527e-03 0. 0. 0. 0. 0. 0. 0. 1.20758363e-04 0. 0. 0. 0.
      0. 0.</_>
    <_>
      3.83141753e-03 0. 0. 0. 0. 1.32117842e-04 5.28471370e-04 0.
      3.96353542e-04 0. 0. 5.28471370e-04 0. 5.28471370e-04 0. 0.
      6.60589256e-04 0. 0. 6.60589256e-04 2.37812125e-03 1.32117851e-03
      1.32117842e-04 9.24824970e-04 1.45329640e-03 1.98176783e-03
      6.60589256e-04 0. 1.32117842e-04 1.32117842e-04 6.07742090e-03 0.
      1.84964994e-03 1.32117842e-04 2.37812125e-03 6.87012821e-03
      5.41683193e-03 1.32117842e-04 2.64235702e-03 6.60589256e-04
      2.51023914e-03 2.64235685e-04 5.54894982e-03 3.30294622e-03 0.
      5.28471370e-04 3.96353542e-04 0. 6.60589256e-04 0. 8.19130708e-03
      1.98176783e-03 6.60589256e-04 1.32117842e-04 2.64235685e-04
      4.62412462e-03 1.71753205e-03 5.28471370e-04 2.64235685e-04 0.
      4.75624250e-03 0. 1.05694274e-03 9.24824970e-04 0. 1.18906063e-03
      1.46650812e-02 3.96353542e-04 1.98176783e-03 5.28471370e-04
      9.51248500e-03 1.32117842e-04 0. 4.75624250e-03 3.83141753e-03
      1.34760207e-02 3.96353542e-04 1.32117842e-04 0. 8.85189604e-03
      4.43915986e-02 5.28471370e-04 0. 3.39542888e-02 5.54894982e-03
      7.00224610e-03 0. 5.66785559e-02 7.92707084e-04 3.96353542e-04
      5.06011359e-02 1.32117842e-04 4.75624250e-03 2.10067388e-02 0.
      3.39542888e-02 6.97582215e-02 0. 5.90566769e-02 3.56718199e-03
      1.98176783e-03 7.33254030e-02 5.28471405e-03 7.41181150e-02
      4.71660718e-02 1.81001462e-02 6.11705631e-02 8.98401346e-03
      1.73074380e-02 1.41366096e-02 1.62504949e-02 4.53164205e-02
      2.25921515e-02 1.30796675e-02 8.85189604e-03 6.73801033e-03
      1.09657813e-02 0. 1.45329640e-03 1.32117842e-04 8.45554192e-03 0.
      1.32117851e-03 7.92707084e-04 1.32117851e-03 1.84964994e-03
      1.71753205e-03 7.92707084e-04 0. 0. 0. 0. 1.32117842e-04 0. 0. 0.
      0. 0. 0. 0. 3.96353542e-04 0. 0. 0. 0. 0. 0. 0. 0. 0. 0. 0. 0. 0.
      0. 0. 1.32117842e-04 0. 0. 0. 0. 0. 0. 0. 0. 3.30294622e-03 0. 0.
      0. 0. 0. 0. 0. 0. 0. 0. 0. 0. 0. 0.</_>
    <_>
      3.91068049e-02 0. 0. 0. 0. 0. 2.95368629e-03 0. 0. 0. 0.
      2.36294902e-04 0. 1.01606809e-02 0. 0. 0. 0. 0. 1.41776935e-03
      1.19328918e-02 0. 0. 0. 1.41776940e-02 2.36294908e-03 0. 0. 0. 0.
      2.18572784e-02 0. 0. 0. 0. 5.90737269e-04 5.55292983e-03 0. 0. 0.
      0. 0. 4.48960299e-03 3.54442338e-04 0. 0. 0. 0. 0. 0.
      1.25236297e-02 2.12665414e-03 2.36294902e-04 0. 0. 3.42627591e-03
      0. 0. 0. 0. 3.54442338e-04 0. 0. 0. 0. 0. 9.92438570e-03 0. 0. 0.
      5.43478271e-03 0. 0. 4.72589803e-04 0. 5.45841195e-02 0. 0. 0. 0.
      1.74858216e-02 0. 0. 3.83979194e-02 0. 2.36294902e-04 0.
      5.08034043e-03 0. 0. 2.16209833e-02 0. 0. 1.53591682e-03 0.
      5.90737269e-04 7.15973526e-02 0. 5.67107741e-03 0. 0.
      3.20179574e-02 0. 8.25850666e-02 1.18147451e-02 0. 2.32750475e-02
      0. 7.08884676e-04 4.22967859e-02 7.34877139e-02 3.49716432e-02
      4.60775057e-03 1.16965976e-02 6.15548193e-02 3.92249525e-02
      8.86105839e-03 1.18147451e-04 1.18147451e-04 2.36294902e-04
      9.03827995e-02 0. 1.29962189e-03 0. 4.72589815e-03 1.92580335e-02
      3.56805287e-02 0. 5.90737269e-04 3.54442338e-04 1.77221175e-03 0.
      9.45179630e-03 5.31663513e-03 0. 1.18147451e-04 0. 0.
      1.18147451e-04 0. 1.25236297e-02 1.18147454e-03 0. 0. 0.
      1.65406428e-03 0. 0. 0. 0. 7.08884676e-04 0. 0. 0. 0. 0.
      1.89035921e-03 0. 0. 0. 0. 0. 0. 0. 0. 1.52410204e-02 0. 0. 0. 0.
      9.45179607e-04 0. 0. 2.71739135e-03 0. 0. 0. 0. 0. 0.</_>
    <_>
      0. 0. 0. 0. 0. 0. 0. 0. 0. 0. 0. 0. 0. 0. 0. 0. 0. 0. 0. 0. 0. 0.
      0. 0. 0. 0. 0. 0. 0. 0. 0. 0. 0. 0. 0. 3.65230109e-04
      1.82615055e-04 3.65230109e-04 9.13075230e-04 1.09569030e-03
      7.30460219e-04 9.13075230e-04 2.37399573e-03 7.66983209e-03
      4.38276120e-03 5.66106662e-03 9.49598290e-03 1.05916727e-02
      2.06355006e-02 1.80788897e-02 2.75748726e-02 3.48794758e-02
      2.92184073e-02 4.89408337e-02 3.56099345e-02 5.51497452e-02
      5.36888242e-02 4.65668365e-02 4.49233018e-02 6.37326539e-02
      3.76187004e-02 4.32797670e-02 4.03579250e-02 3.99926938e-02
      4.45580706e-02 2.86705624e-02 3.39663997e-02 2.97662523e-02
      2.68444121e-02 3.54273207e-02 1.42439734e-02 2.08181161e-02
      1.27830533e-02 2.00876556e-02 1.07742874e-02 8.94813705e-03
      8.03506188e-03 5.66106662e-03 1.64353545e-03 1.46092044e-03
      3.28707090e-03 3.65230109e-04 2.55661062e-03 1.09569030e-03
      5.47845149e-04 0. 1.82615055e-04 1.27830531e-03 1.82615055e-04
      1.82615055e-04 0. 0. 1.82615055e-04 5.47845149e-04 1.82615055e-04
      0. 1.82615055e-04 0. 0. 0. 0. 3.65230109e-04 0. 1.82615055e-04 0.
      0. 0. 0. 0. 0. 0. 0. 0. 0. 0. 0. 0. 0. 0. 0. 0. 0. 0. 0. 0. 0. 0.
      0. 0. 0. 0. 0. 0. 0. 0. 0. 0. 0. 0. 0. 0. 0. 0. 0. 0. 0. 0. 0. 0.
      0. 0. 0. 0. 0. 0. 0. 0. 0. 0. 0. 0. 0. 0. 0. 0. 0. 0. 0. 0. 0. 0.
      0. 0. 0. 0. 0. 0. 0. 0. 0.</_>
    <_>
      4.13516071e-03 0. 0. 0. 0. 0. 1.53591682e-03 0. 0. 0. 0.
      2.36294902e-04 0. 3.54442338e-04 0. 0. 0. 0. 0. 0. 1.77221175e-03
      2.36294902e-04 0. 0. 8.27032141e-04 4.72589803e-04 0. 0. 0. 0.
      4.72589815e-03 0. 0. 0. 4.72589803e-04 2.00850656e-03
      2.83553870e-03 0. 4.72589803e-04 0. 1.53591682e-03 0.
      2.95368629e-03 2.83553870e-03 0. 1.06332707e-03 8.27032141e-04 0.
      3.07183363e-03 2.36294902e-04 1.01606809e-02 4.25330829e-03
      1.77221175e-03 9.45179607e-04 1.65406428e-03 4.13516071e-03
      4.13516071e-03 2.83553870e-03 2.71739135e-03 0. 1.02788284e-02
      7.08884676e-04 4.25330829e-03 7.20699411e-03 8.27032141e-04
      5.78922499e-03 2.70557664e-02 1.35869561e-02 1.26417773e-02
      2.15028357e-02 2.19754260e-02 1.09877130e-02 1.76039692e-02
      2.26843096e-02 5.77741005e-02 1.87854450e-02 3.08364835e-02
      4.21786383e-02 1.37051037e-02 3.94612476e-02 1.31025523e-01
      1.68950856e-02 3.11909262e-02 3.73345949e-02 6.09640814e-02
      2.26843096e-02 1.14603024e-02 5.11578433e-02 1.16965976e-02
      5.55292983e-03 4.37145568e-02 6.73440471e-03 7.67958397e-03
      1.06332703e-02 2.36294908e-03 2.16209833e-02 1.57136098e-02
      1.06332707e-03 1.27599239e-02 3.07183363e-03 1.06332707e-03
      9.68809053e-03 1.18147454e-03 7.67958397e-03 4.72589815e-03
      1.41776935e-03 3.89886578e-03 8.27032141e-04 9.45179607e-04
      1.29962189e-03 3.30812857e-03 1.29962189e-03 3.54442338e-04
      4.72589803e-04 1.29962189e-03 3.54442338e-04 0. 0. 0. 0.
      3.66257085e-03 0. 0. 0. 0. 2.36294902e-04 7.08884676e-04 0. 0. 0.
      0. 0. 0. 0. 0. 0. 0. 0. 0. 0. 1.18147454e-03 0. 0. 0. 0. 0. 0. 0.
      0. 0. 0. 0. 0. 0. 0. 0. 4.72589803e-04 0. 0. 0. 2.36294902e-04 0.
      0. 0. 0. 1.89035921e-03 0. 0. 0. 0. 2.36294902e-04 0. 0.
      1.18147454e-03 0. 0. 0. 0. 0. 0.</_>
    <_>
      2.68251784e-02 3.04831570e-04 7.62078969e-04 9.14494740e-04 0.
      3.50556313e-03 1.00594424e-02 0. 5.63938404e-03 7.62078969e-04
      1.37174211e-03 1.21932635e-02 2.28623697e-03 2.83493362e-02
      1.00594424e-02 1.26505103e-02 2.81969216e-02 9.29736346e-03
      1.02118580e-02 3.13976519e-02 2.94162482e-02 4.72488962e-02
      3.17024849e-02 2.81969216e-02 2.24051215e-02 2.97210794e-02
      4.51150723e-02 2.43865256e-03 6.85871067e-03 1.21932628e-03
      4.40481640e-02 0. 9.60219465e-03 1.52415785e-04 1.02118580e-02
      1.98140536e-02 1.20408470e-02 0. 3.04831588e-03 1.21932628e-03
      2.13382114e-03 0. 1.46319158e-02 9.60219465e-03 1.52415785e-04
      3.04831570e-04 1.52415794e-03 0. 3.50556313e-03 0. 1.88995581e-02
      6.70629460e-03 3.35314730e-03 0. 3.04831570e-04 1.17360158e-02
      4.11522621e-03 6.09663140e-04 0. 0. 5.79180010e-03 0. 0.
      3.04831570e-04 0. 0. 1.63084902e-02 0. 3.04831570e-04 0.
      1.12787681e-02 0. 0. 2.74348422e-03 6.09663140e-04 2.07285471e-02
      0. 0. 0. 1.06691057e-03 1.85947269e-02 0. 0. 1.79850627e-02
      3.04831570e-04 9.14494740e-04 0. 1.09739369e-02 6.09663140e-04 0.
      2.17954572e-02 0. 1.21932628e-03 5.18213678e-03 0. 7.92562123e-03
      2.33196151e-02 0. 7.46837351e-03 4.57247370e-04 0. 1.92043893e-02
      0. 2.63679326e-02 6.55387901e-03 1.52415785e-04 9.14494786e-03
      1.52415785e-04 7.62078969e-04 1.18884314e-02 1.66133214e-02
      1.40222525e-02 1.67657365e-03 4.57247393e-03 1.12787681e-02
      8.68770014e-03 2.13382114e-03 0. 0. 0. 2.07285471e-02 0.
      6.09663140e-04 0. 3.81039479e-03 8.07803683e-03 7.62078958e-03 0.
      1.37174211e-03 7.62078969e-04 2.13382114e-03 0. 1.52415794e-03
      1.67657365e-03 0. 0. 0. 0. 0. 0. 3.65797896e-03 0. 0. 0. 0.
      1.06691057e-03 0. 0. 0. 0. 9.14494740e-04 0. 0. 0. 0. 0.
      9.14494740e-04 0. 0. 0. 6.09663140e-04 0. 0. 0. 0. 7.92562123e-03
      0. 0. 0. 1.52415785e-04 3.35314730e-03 0. 0. 3.04831588e-03 0.
      4.57247370e-04 0. 3.65797896e-03 0. 0.</_>
    <_>
      8.84924382e-02 0. 0. 3.54442338e-04 0. 1.18147451e-04
      2.74102073e-02 0. 2.71739135e-03 0. 0. 9.09735356e-03 0.
      2.25661620e-02 1.06332707e-03 0. 1.41776935e-03 0. 0.
      6.61625713e-03 3.55623811e-02 2.59924377e-03 0. 2.36294902e-04
      1.61862001e-02 5.90737257e-03 0. 0. 0. 0. 4.41871472e-02 0. 0. 0.
      5.90737269e-04 4.60775057e-03 1.51228737e-02 0. 0. 0.
      1.18147451e-04 0. 2.36294908e-03 2.00850656e-03 0. 0. 0. 0. 0. 0.
      2.44565215e-02 5.90737269e-04 0. 0. 0. 2.48109642e-03
      4.72589803e-04 0. 0. 0. 8.27032141e-04 0. 0. 3.54442338e-04 0.
      4.72589803e-04 8.27032141e-03 0. 7.08884676e-04 0. 4.84404527e-03
      0. 0. 1.77221175e-03 5.90737269e-04 5.28119095e-02 1.18147451e-04
      0. 0. 1.65406428e-03 1.92580335e-02 0. 0. 2.59924382e-02 0.
      2.36294902e-04 0. 1.35869561e-02 4.72589803e-04 0. 2.35113427e-02
      0. 4.72589803e-04 6.14366727e-03 0. 7.20699411e-03 4.11153138e-02
      0. 1.14603024e-02 5.90737269e-04 1.18147451e-04 3.26086953e-02 0.
      5.25756143e-02 4.37145540e-03 7.08884676e-04 8.86105839e-03
      5.90737269e-04 5.90737269e-04 1.64224952e-02 4.07608710e-02
      1.00425333e-02 2.00850656e-03 3.42627591e-03 2.93005668e-02
      1.27599239e-02 5.90737269e-04 0. 1.18147451e-04 0. 5.67107759e-02
      0. 4.72589803e-04 0. 4.96219285e-03 1.14603024e-02 2.76465025e-02
      0. 2.36294902e-04 0. 1.18147454e-03 0. 1.44139882e-02
      5.78922499e-03 0. 0. 0. 0. 0. 0. 2.58742906e-02 2.36294908e-03 0.
      0. 0. 2.83553870e-03 3.54442338e-04 0. 0. 0. 9.45179607e-04 0. 0.
      0. 0. 0. 1.05151227e-02 0. 0. 0. 1.65406428e-03 0. 0.
      1.29962189e-03 0. 4.41871472e-02 0. 0. 0. 9.45179607e-04
      8.97920597e-03 0. 0. 1.81947071e-02 0. 0. 0. 3.30812857e-03 0. 0.</_>
    <_>
      7.42330477e-02 0. 0. 3.78740049e-04 0. 0. 1.09834615e-02 0.
      1.26246689e-03 0. 0. 3.15616722e-03 0. 1.33821489e-02
      2.14619376e-03 3.78740049e-04 5.93359442e-03 6.31233444e-04
      1.89370033e-03 8.83726776e-03 4.54488061e-02 1.26246689e-02
      6.31233444e-03 8.83726776e-03 4.48175743e-02 3.04254517e-02
      1.04784751e-02 6.31233444e-04 8.83726811e-04 1.26246689e-03
      1.14631988e-01 0. 2.39868695e-03 2.52493366e-04 9.59474780e-03
      3.23191509e-02 6.85519502e-02 3.78740049e-04 1.76745362e-03
      3.78740049e-04 7.70104770e-03 0. 4.43125851e-02 1.52758490e-02 0.
      1.76745362e-03 1.26246683e-04 0. 3.53490724e-03 0. 5.11299074e-02
      3.40866041e-03 1.26246683e-04 0. 0. 1.02259815e-02 3.28241382e-03
      3.78740049e-04 0. 0. 4.67112754e-03 0. 0. 5.04986732e-04 0.
      5.04986732e-04 2.32293904e-02 0. 7.57480098e-04 1.26246683e-04
      1.00997351e-02 2.52493366e-04 0. 7.57480098e-04 6.31233444e-04
      7.67579824e-02 2.52493366e-04 0. 0. 1.26246683e-04 2.80267652e-02
      0. 0. 3.19404118e-02 0. 1.26246683e-04 0. 1.76745362e-03 0. 0.
      1.21196816e-02 0. 0. 1.26246683e-04 0. 0. 1.86845101e-02 0. 0. 0.
      0. 1.38871360e-03 0. 3.28241382e-03 0. 0. 0. 0. 0. 2.52493366e-04
      3.24453972e-02 0. 0. 0. 6.05984079e-03 7.57480098e-04 0. 0. 0. 0.
      1.83057692e-02 0. 0. 0. 0. 7.57480098e-04 2.14619376e-03 0. 0. 0.
      0. 0. 3.78740049e-04 2.52493366e-04 0. 0. 0. 0. 0. 0.
      8.45852774e-03 0. 0. 0. 0. 0. 0. 0. 0. 0. 0. 0. 0. 0. 0. 0.
      2.77742720e-03 0. 0. 0. 0. 0. 0. 0. 0. 4.12826650e-02 0. 0. 0. 0.
      1.51496020e-03 0. 0. 1.08572152e-02 0. 0. 0. 1.13622018e-03 0. 0.</_>
    <_>
      1.17630381e-02 4.25170059e-04 4.25170059e-04 2.26757373e-03 0.
      3.11791385e-03 1.61564630e-02 0. 5.38548734e-03 8.50340119e-04
      1.41723358e-04 1.14795920e-02 5.66893432e-04 2.02664398e-02
      5.66893443e-03 3.11791385e-03 1.58730168e-02 2.69274367e-03
      5.24376426e-03 1.44557822e-02 1.98412705e-02 2.77777780e-02
      1.06292516e-02 1.89909302e-02 1.81405898e-02 2.11167801e-02
      3.14625837e-02 2.40929704e-03 8.07823148e-03 7.65306130e-03
      6.91609979e-02 1.41723358e-04 2.60770973e-02 1.04875285e-02
      4.01077084e-02 7.90816322e-02 1.61564630e-02 1.28968256e-02
      2.80612241e-02 1.44557822e-02 1.79988667e-02 3.54308379e-03
      1.94160994e-02 2.96201818e-02 5.38548734e-03 1.27551025e-02
      1.65816322e-02 3.11791385e-03 2.65022684e-02 5.38548734e-03
      1.10544218e-02 2.02664398e-02 1.07709747e-02 5.38548734e-03
      8.64512473e-03 1.28968256e-02 1.27551025e-02 6.66099787e-03
      3.11791385e-03 2.12585041e-03 1.06292516e-02 7.08616804e-04
      4.53514745e-03 4.25170083e-03 1.41723358e-04 2.69274367e-03
      1.72902495e-02 4.25170083e-03 3.25963716e-03 7.08616758e-03
      7.22789112e-03 2.55102036e-03 1.13378686e-03 5.52721089e-03
      9.21201799e-03 6.23582769e-03 2.55102036e-03 2.83446716e-04 0.
      2.40929704e-03 1.00623583e-02 5.66893432e-04 0. 5.24376426e-03
      1.13378686e-03 2.83446716e-04 0. 3.25963716e-03 0. 0.
      4.67687054e-03 0. 1.41723358e-04 5.66893432e-04 0. 1.13378686e-03
      4.39342391e-03 0. 9.92063549e-04 0. 0. 2.40929704e-03 0.
      1.41723361e-03 1.41723358e-04 1.41723358e-04 4.25170059e-04 0.
      2.83446716e-04 4.25170059e-04 3.96825420e-03 5.66893432e-04
      2.83446716e-04 4.25170059e-04 1.13378686e-03 4.25170059e-04 0. 0.
      0. 0. 5.66893443e-03 0. 0. 0. 2.83446716e-04 4.25170059e-04
      2.26757373e-03 1.41723358e-04 9.92063549e-04 1.41723358e-04
      2.83446716e-04 0. 8.50340119e-04 4.25170059e-04 0. 0. 0. 0.
      2.83446716e-04 1.41723358e-04 3.68480734e-03 4.25170059e-04
      4.25170059e-04 0. 1.41723358e-04 4.25170059e-04 4.25170059e-04
      2.83446716e-04 0. 0. 0. 0. 0. 0. 0. 2.83446716e-04 3.25963716e-03
      0. 2.83446716e-04 0. 1.41723361e-03 2.83446716e-04 0.
      8.50340119e-04 1.41723358e-04 6.66099787e-03 2.83446716e-04 0. 0.
      9.92063549e-04 3.54308379e-03 0. 0. 4.67687054e-03 7.08616804e-04
      8.50340119e-04 0. 4.81859408e-03 1.41723358e-04 0.</_>
    <_>
      2.08307039e-02 0. 0. 3.53490724e-03 0. 5.42860758e-03
      2.20931694e-02 0. 1.83057692e-02 2.52493366e-04 0. 4.49438207e-02
      1.00997346e-03 7.01931566e-02 2.84055043e-02 1.17409416e-02
      7.62529969e-02 8.33228137e-03 2.73955315e-02 4.14089113e-02
      4.11564186e-02 1.16273195e-01 4.83524799e-02 7.19606131e-02
      3.01729571e-02 4.87312190e-02 6.56482801e-02 2.14619376e-03
      6.05984079e-03 3.15616722e-03 8.02928954e-02 0. 1.67908091e-02
      2.90367380e-03 1.38871353e-02 1.93157438e-02 6.18608762e-03
      1.76745362e-03 2.01994693e-03 6.31233444e-04 3.78740067e-03
      1.26246683e-04 1.13622018e-03 2.39868695e-03 0. 0. 0. 0.
      1.26246689e-03 0. 1.13622018e-03 1.13622018e-03 2.52493366e-04 0.
      0. 5.04986732e-04 5.04986732e-04 0. 0. 0. 0. 0. 0. 5.04986732e-04
      0. 3.78740049e-04 2.52493366e-04 0. 6.31233444e-04 0. 0. 0. 0. 0.
      0. 2.65118037e-03 0. 0. 0. 0. 0. 0. 0. 2.52493366e-04 0. 0. 0. 0.
      0. 0. 0. 0. 0. 0. 0. 0. 0. 0. 0. 0. 0. 0. 0. 0. 0. 0. 0. 0. 0. 0.
      3.78740049e-04 0. 0. 0. 1.26246683e-04 0. 0. 0. 0. 0.
      2.52493366e-04 0. 0. 0. 0. 0. 0. 0. 0. 0. 0. 0. 0. 0. 0. 0. 0. 0.
      0. 0. 0. 3.78740049e-04 0. 0. 0. 0. 0. 0. 0. 0. 1.26246683e-04 0.
      0. 0. 0. 0. 5.04986732e-04 0. 0. 0. 1.26246683e-04 0. 0. 0.
      2.52493366e-04 6.18608762e-03 0. 0. 0. 3.78740049e-04
      4.41863388e-03 0. 0. 5.68110077e-03 0. 3.78740049e-04 0.
      6.31233444e-03 0. 0.</_>
    <_>
      7.18537420e-02 0. 1.41723358e-04 1.13378686e-03 0. 4.25170083e-03
      3.31632644e-02 2.83446716e-04 8.78684781e-03 5.66893432e-04
      4.25170059e-04 2.59353742e-02 2.83446716e-04 5.76814041e-02
      6.51927432e-03 4.25170059e-04 1.51643995e-02 4.25170059e-04
      8.50340119e-04 2.91950107e-02 2.70691607e-02 2.05498859e-02
      1.55895692e-03 5.81065752e-03 2.94784587e-02 2.62188204e-02
      7.08616804e-04 0. 0. 0. 6.06575981e-02 0. 1.41723358e-04 0.
      4.39342391e-03 1.36054419e-02 2.66439915e-02 4.25170059e-04
      1.55895692e-03 1.27551018e-03 2.55102036e-03 0. 2.05498859e-02
      1.34637188e-02 0. 7.08616804e-04 0. 0. 4.53514745e-03 0.
      4.19501141e-02 7.22789112e-03 1.98412710e-03 0. 0. 1.34637188e-02
      2.69274367e-03 5.66893432e-04 0. 0. 4.10997728e-03 0. 0.
      4.25170059e-04 0. 0. 2.77777780e-02 0. 8.50340119e-04
      1.41723358e-04 1.31802717e-02 0. 0. 8.21995456e-03 3.54308379e-03
      5.62641732e-02 0. 0. 0. 1.55895692e-03 3.04705221e-02 0. 0.
      4.42176871e-02 0. 0. 0. 8.78684781e-03 0. 0. 1.43140592e-02 0. 0.
      0. 0. 0. 2.57936511e-02 0. 1.98412710e-03 0. 0. 1.07709747e-02 0.
      9.92063526e-03 1.84240367e-03 0. 1.70068024e-03 0. 0.
      1.27551018e-03 1.58730168e-02 7.08616804e-04 0. 0. 8.92857183e-03
      3.25963716e-03 0. 0. 0. 0. 1.79988667e-02 0. 0. 0. 2.83446716e-04
      1.55895692e-03 4.10997728e-03 0. 0. 0. 0. 0. 2.83446722e-03
      4.25170059e-04 0. 0. 0. 0. 0. 0. 5.52721089e-03 1.41723358e-04 0.
      0. 0. 2.83446716e-04 0. 0. 0. 0. 1.41723358e-04 0. 0. 0. 0. 0.
      4.25170083e-03 0. 0. 0. 1.55895692e-03 0. 0. 4.25170059e-04
      8.50340119e-04 2.80612241e-02 0. 0. 0. 2.83446716e-04
      1.43140592e-02 0. 0. 2.63605434e-02 0. 1.27551018e-03 0.
      6.51927432e-03 0. 0.</_>
    <_>
      1.95682365e-02 1.64120691e-03 1.51496020e-03 4.29238752e-03
      8.83726811e-04 1.14884488e-02 1.78007819e-02 6.31233444e-04
      1.17409416e-02 2.39868695e-03 1.51496020e-03 2.13356894e-02
      1.76745362e-03 2.23456640e-02 9.84724145e-03 6.81732083e-03
      1.89370029e-02 4.41863388e-03 6.18608762e-03 1.67908091e-02
      2.05782093e-02 3.44653465e-02 1.57808363e-02 2.55018305e-02
      1.84320156e-02 2.12094430e-02 4.35551070e-02 2.77742720e-03
      8.45852774e-03 7.06981448e-03 7.80204535e-02 6.31233444e-04
      2.71430369e-02 1.27509153e-02 3.24453972e-02 6.33758381e-02
      1.48971090e-02 1.22459289e-02 2.36081295e-02 1.11097088e-02
      1.71695501e-02 4.29238752e-03 1.64120700e-02 2.77742706e-02
      3.02992039e-03 1.19934352e-02 1.21196816e-02 5.04986732e-04
      1.88107565e-02 2.90367380e-03 1.13622015e-02 1.06047215e-02
      7.44855450e-03 2.39868695e-03 7.06981448e-03 8.71102139e-03
      5.80734760e-03 3.66115384e-03 1.38871360e-03 5.04986732e-04
      6.69107446e-03 1.00997346e-03 1.13622018e-03 5.04986756e-03
      1.26246683e-04 1.64120691e-03 8.71102139e-03 2.27244035e-03
      6.31233444e-04 1.00997346e-03 4.54488071e-03 7.57480098e-04
      2.52493366e-04 2.14619376e-03 3.15616722e-03 7.19606131e-03
      8.83726811e-04 1.26246689e-03 0. 3.78740049e-04 4.41863388e-03 0.
      0. 5.17611392e-03 1.26246683e-04 2.52493366e-04 0. 7.57480098e-04
      0. 0. 3.40866041e-03 0. 0. 1.26246683e-04 0. 3.78740049e-04
      4.67112754e-03 0. 2.52493366e-04 0. 0. 2.01994693e-03 0.
      1.64120691e-03 2.52493366e-04 0. 3.78740049e-04 0. 0.
      1.13622018e-03 3.91364750e-03 3.78740049e-04 0. 1.26246683e-04
      2.39868695e-03 1.51496020e-03 0. 0. 0. 0. 5.30236075e-03 0. 0. 0.
      1.26246683e-04 1.00997346e-03 1.64120691e-03 2.52493366e-04
      3.78740049e-04 2.52493366e-04 5.04986732e-04 0. 2.39868695e-03
      1.64120691e-03 0. 2.52493366e-04 1.26246683e-04 0. 8.83726811e-04
      0. 6.69107446e-03 1.26246689e-03 3.78740049e-04 0. 0.
      2.39868695e-03 8.83726811e-04 0. 1.26246683e-04 0. 2.27244035e-03
      0. 0. 3.78740049e-04 0. 1.26246683e-04 4.92362073e-03
      1.26246683e-04 2.52493366e-04 1.26246683e-04 3.15616722e-03
      2.52493366e-04 1.26246683e-04 1.38871360e-03 1.51496020e-03
      9.72099509e-03 1.26246683e-04 0. 0. 2.90367380e-03 1.17409416e-02
      0. 0. 8.20603501e-03 1.51496020e-03 2.39868695e-03 2.52493366e-04
      9.08976141e-03 3.78740049e-04 3.78740049e-04</_>
    <_>
      8.70656595e-02 2.64235685e-04 2.37812125e-03 1.21548418e-02
      1.32117842e-04 8.71977769e-03 5.35077304e-02 0. 1.08336639e-02
      3.96353542e-04 0. 2.91980449e-02 0. 4.26740646e-02 4.35988884e-03
      2.64235685e-04 8.71977769e-03 6.60589256e-04 3.96353542e-04
      1.41366096e-02 4.04280610e-02 1.26833133e-02 1.45329640e-03
      7.39859976e-03 2.15352103e-02 1.22869601e-02 1.98176783e-03 0.
      2.64235685e-04 0. 4.71660718e-02 0. 3.96353542e-04 0.
      1.84964994e-03 9.24824923e-03 1.53256701e-02 2.64235685e-04
      5.28471370e-04 3.96353542e-04 1.18906063e-03 0. 6.34165667e-03
      4.88836039e-03 0. 2.64235685e-04 0. 0. 5.28471370e-04 0.
      1.98176783e-02 2.24600337e-03 1.05694274e-03 0. 0. 5.28471405e-03
      1.32117851e-03 3.96353542e-04 0. 0. 2.64235702e-03 0. 0.
      3.96353542e-04 0. 0. 1.14942528e-02 0. 5.28471370e-04
      2.64235685e-04 5.15259616e-03 2.64235685e-04 0. 1.18906063e-03
      6.60589256e-04 3.10476944e-02 0. 0. 0. 3.96353542e-04
      8.85189604e-03 0. 0. 1.53256701e-02 0. 2.64235685e-04 0.
      3.30294622e-03 0. 0. 3.96353565e-03 0. 0. 2.64235685e-04 0. 0.
      1.40044922e-02 0. 2.64235685e-04 0. 0. 1.84964994e-03 0.
      5.94530301e-03 0. 0. 0. 0. 0. 1.32117851e-03 1.75716747e-02
      3.96353542e-04 0. 5.28471370e-04 7.53071718e-03 1.71753205e-03
      2.64235685e-04 0. 0. 0. 1.83643810e-02 0. 0. 0. 3.96353542e-04
      1.71753205e-03 8.71977769e-03 0. 0. 0. 1.32117851e-03 0.
      8.45554192e-03 3.69929988e-03 0. 0. 0. 0. 7.92707084e-04 0.
      2.17994452e-02 4.49200673e-03 9.24824970e-04 0. 0. 8.71977769e-03
      3.03871045e-03 3.96353542e-04 0. 0. 6.47377456e-03 0. 0.
      2.64235685e-04 0. 2.64235685e-04 2.03461479e-02 0. 1.18906063e-03
      1.45329640e-03 1.73074380e-02 5.28471370e-04 7.92707084e-04
      1.03051923e-02 7.26648187e-03 4.25419472e-02 1.98176783e-03 0. 0.
      9.11613181e-03 5.60179688e-02 1.32117851e-03 0. 4.87514846e-02
      6.60589244e-03 8.85189604e-03 2.64235685e-04 4.32025380e-02
      1.71753205e-03 7.92707084e-04</_>
    <_>
      1.07632324e-01 0. 0. 8.27032141e-04 0. 1.18147451e-04
