<?xml version="1.0"?>
<opencv_storage>
<my_svm type_id="opencv-ml-svm">
  <svm_type>C_SVC</svm_type>
  <kernel><type>RBF</type>
    <gamma>5.</gamma></kernel>
  <C>1000.</C>
  <term_criteria><epsilon>9.9999999747524271e-07</epsilon>
    <iterations>1000000</iterations></term_criteria>
  <var_all>23</var_all>
  <var_count>23</var_count>
  <class_count>2</class_count>
  <class_labels type_id="opencv-matrix">
    <rows>1</rows>
    <cols>2</cols>
    <dt>i</dt>
    <data>
      -1 1</data></class_labels>
  <sv_total>206</sv_total>
  <support_vectors>
    <_>
      2.07939502e-02 2.83553870e-03 7.32514169e-03 7.67958397e-03
      2.12665414e-03 1.18147454e-03 7.08884699e-03 1.06332707e-03
      1.26417773e-02 3.63894142e-02 5.50567098e-02 3.41446139e-02
      2.06876189e-01 2.44092628e-01 1.41776934e-01 1.42722115e-01
      1.80765595e-02 1.67769380e-02 4.96219285e-03 7.32514169e-03
      1.46502834e-02 1.25236297e-02 1.89035921e-03</_>
    <_>
      9.36208665e-02 1.54313013e-01 2.54648775e-01 1.77815080e-01
      8.58729333e-02 4.18388434e-02 4.23553735e-02 3.61570250e-03
      1.47210741e-02 1.79493800e-02 1.07179750e-02 1.42045459e-03
      6.58574374e-03 7.23140500e-03 3.09917354e-03 1.45919425e-02
      2.58264452e-04 5.42355375e-03 0. 4.51962790e-03 2.87964884e-02
      2.46642567e-02 5.94008248e-03</_>
    <_>
      1.31025523e-01 9.87712666e-02 1.20746695e-01 1.10231571e-01
      5.64744808e-02 2.49291118e-02 4.37145568e-02 7.44328927e-03
      2.52835546e-02 4.80860099e-02 5.68289235e-02 8.03402625e-03
      2.76465025e-02 2.35113427e-02 5.55292983e-03 2.59924382e-02
      6.61625713e-03 1.87854450e-02 2.00850656e-03 1.01606809e-02
      6.95888475e-02 6.23818524e-02 1.61862001e-02</_>
    <_>
      1.13357112e-01 1.04901575e-01 2.49042138e-01 2.38208488e-01
      1.02655567e-01 2.84053367e-02 3.14440466e-02 6.60589244e-03
      1.03051923e-02 1.28154317e-02 7.26648187e-03 3.96353542e-04
      3.03871045e-03 3.96353565e-03 1.18906063e-03 4.75624250e-03
      6.60589256e-04 4.49200673e-03 0. 2.90659280e-03 3.92390005e-02
      2.43096836e-02 1.00409565e-02</_>
    <_>
      4.93856333e-02 1.84310023e-02 6.43903613e-02 2.46219277e-01
      2.71502823e-01 1.34333655e-01 8.56568962e-02 2.10302453e-02
      2.30387524e-02 2.35113427e-02 1.54773155e-02 1.89035921e-03
      2.12665414e-03 2.83553870e-03 4.72589803e-04 9.21550114e-03
      1.18147451e-04 1.89035921e-03 4.72589803e-04 1.89035921e-03
      1.58317573e-02 9.45179630e-03 8.27032141e-04</_>
    <_>
      9.25453529e-02 1.60289109e-01 2.30867341e-01 1.35204077e-01
      5.22959195e-02 1.70068033e-02 2.76360549e-02 3.40136047e-03
      1.28968256e-02 2.73526069e-02 2.40929704e-02 6.37755124e-03
      3.71315181e-02 3.59977335e-02 1.23299323e-02 3.79818603e-02
      1.10544218e-02 9.07029491e-03 1.55895692e-03 4.10997728e-03
      3.35884355e-02 2.18253974e-02 5.38548734e-03</_>
    <_>
      1.16263712e-02 2.37812125e-03 6.07742090e-03 1.09657813e-02
      6.60589244e-03 9.24824923e-03 2.84053367e-02 1.95534416e-02
      6.83049262e-02 8.58765990e-02 2.17069626e-01 1.63826138e-01
      1.86550409e-01 9.44642648e-02 2.80089844e-02 3.02549880e-02
      8.71977769e-03 7.79495295e-03 2.51023914e-03 2.37812125e-03
      4.88836039e-03 3.96353565e-03 5.28471370e-04</_>
    <_>
      0. 0. 0. 0. 0. 0. 0. 8.83726811e-04 1.76745362e-03 3.40866041e-03
      1.21196816e-02 8.21865946e-02 3.15616727e-01 5.04607975e-01
      6.95619211e-02 9.21600778e-03 6.31233444e-04 0. 0. 0. 0. 0. 0.</_>
    <_>
      1.50614344e-02 7.79495295e-03 3.36900502e-02 1.37534678e-01
      1.89324871e-01 1.68450251e-01 1.49557412e-01 5.39040826e-02
      9.60496739e-02 4.71660718e-02 6.46056309e-02 6.20953878e-03
      1.49293169e-02 6.73801033e-03 1.45329640e-03 3.17082833e-03
      1.32117842e-04 7.92707084e-04 0. 1.32117842e-04 2.24600337e-03
      9.24824970e-04 1.32117842e-04</_>
    <_>
      5.73979579e-02 1.60714284e-01 3.76558959e-01 1.23015873e-01
      3.85487527e-02 1.04875285e-02 1.40306121e-02 4.10997728e-03
      1.14795920e-02 3.23129259e-02 2.31009070e-02 6.94444450e-03
      1.85657591e-02 2.32426301e-02 5.66893443e-03 2.09750570e-02
      1.84240367e-03 5.95238106e-03 1.41723361e-03 7.65306130e-03
      2.09750570e-02 2.62188204e-02 8.78684781e-03</_>
    <_>
      6.66576549e-02 1.51162788e-01 3.10978919e-01 2.13899404e-01
      1.12493239e-01 3.86695527e-02 2.52839364e-02 9.46457556e-04
      4.19145497e-03 4.59707947e-03 4.59707947e-03 2.70416436e-04
      5.40832873e-04 1.75770686e-03 1.08166575e-03 5.67874545e-03
      9.46457556e-04 6.76041096e-03 8.11249309e-04 3.78583022e-03
      2.13628989e-02 2.17685234e-02 1.75770686e-03</_>
    <_>
      9.22731534e-02 2.52835546e-02 6.88799620e-02 1.41895086e-01
      9.78260860e-02 3.26086953e-02 5.94281666e-02 1.18147454e-03
      2.45746691e-02 7.47873336e-02 8.80198479e-02 2.07939502e-02
      6.80529326e-02 6.19092621e-02 2.69376189e-02 3.69801521e-02
      5.08034043e-03 1.24054821e-02 2.00850656e-03 3.66257085e-03
      4.01701331e-02 1.51228737e-02 1.18147451e-04</_>
    <_>
      3.19091417e-02 1.35208219e-02 2.86641419e-02 5.08382916e-02
      6.17901571e-02 5.27312048e-02 7.46349394e-02 4.79989201e-02
      9.27528366e-02 1.14791781e-01 1.26690105e-01 5.05678728e-02
      6.77393153e-02 5.13791256e-02 2.62303948e-02 4.31314223e-02
      1.48729039e-02 1.35208219e-02 5.81395347e-03 6.35478646e-03
      1.14926985e-02 1.06814494e-02 1.89291511e-03</_>
    <_>
      2.56308634e-02 7.92707084e-04 4.35988884e-03 6.60589244e-03
      9.38036758e-03 5.54894982e-03 1.90249700e-02 3.17082833e-03
      2.06103846e-02 6.11705631e-02 1.22737482e-01 1.11243226e-01
      2.87752688e-01 1.76377326e-01 5.94530329e-02 6.14348017e-02
      5.54894982e-03 6.73801033e-03 7.92707084e-04 2.64235702e-03
      7.66283507e-03 1.32117851e-03 0.</_>
    <_>
      6.63988665e-02 6.49810955e-03 1.68950856e-02 3.15453671e-02
      1.60680525e-02 7.79773155e-03 2.16209833e-02 1.06332707e-03
      1.21691870e-02 7.20699430e-02 6.28544390e-02 2.37476379e-02
      1.26063332e-01 1.67651236e-01 9.51086953e-02 1.55718341e-01
      1.84310023e-02 3.70982997e-02 2.48109642e-03 5.43478271e-03
      3.85160670e-02 1.37051037e-02 1.06332707e-03</_>
    <_>
      8.54515955e-02 5.74634932e-02 2.18090862e-01 2.80016214e-01
      1.38588428e-01 3.05570588e-02 3.39372642e-02 2.02812324e-03
      9.19415895e-03 4.50243391e-02 8.65332596e-03 1.35208218e-04
      2.16333149e-03 9.59978346e-03 1.35208218e-04 1.44672794e-02
      8.11249309e-04 4.73228795e-03 0. 1.08166575e-03 4.57003787e-02
      1.21687399e-02 0.</_>
    <_>
      6.37996197e-03 1.89035921e-03 4.84404527e-03 7.20699411e-03
      9.21550114e-03 2.02032141e-02 4.80860099e-02 6.76984861e-02
      1.25354439e-01 2.13610590e-01 2.58152187e-01 1.03142723e-01
      6.40359148e-02 3.20179574e-02 1.02788284e-02 1.11058597e-02
      3.78071843e-03 2.59924377e-03 1.29962189e-03 1.77221175e-03
      2.95368629e-03 3.07183363e-03 1.29962189e-03</_>
    <_>
      3.92562002e-02 1.03564046e-01 3.16244841e-01 2.85123974e-01
      1.33393601e-01 2.42768601e-02 3.27995867e-02 4.13223123e-03
      8.13533086e-03 9.68491752e-03 5.03615709e-03 9.03925626e-04
      1.93698343e-03 2.32438021e-03 7.74793385e-04 6.58574374e-03
      2.19524791e-03 2.97004124e-03 5.16528904e-04 1.67871895e-03
      1.00723142e-02 7.74793373e-03 6.45661145e-04</_>
    <_>
      6.06096424e-02 4.60775057e-03 1.48865785e-02 2.12665405e-02
      4.72589815e-03 4.25330829e-03 1.84310023e-02 9.45179607e-04
      8.50661658e-03 3.09546310e-02 4.46597338e-02 3.11909262e-02
      1.34688094e-01 1.53119087e-01 1.02197543e-01 1.76039696e-01
      3.85160670e-02 3.78071852e-02 8.03402625e-03 2.09120978e-02
      5.76559529e-02 2.55198479e-02 4.72589803e-04</_>
    <_>
      2.50473440e-01 2.51483411e-01 9.60737318e-02 3.68640311e-02
      1.13622015e-02 4.29238752e-03 5.68110077e-03 8.83726811e-04
      1.64120691e-03 1.13622015e-02 3.78740067e-03 1.26246683e-04
      5.93359442e-03 1.09834615e-02 8.58477503e-03 2.10831966e-02
      6.94356766e-03 1.30034089e-02 6.05984079e-03 1.38871353e-02
      4.20401469e-02 1.28897861e-01 6.85519502e-02</_>
    <_>
      1.31752074e-01 4.74376716e-02 7.66966790e-02 7.66966790e-02
      2.54501384e-02 1.38504151e-02 1.92174520e-02 4.32825508e-03
      1.26385046e-02 3.30678672e-02 2.80470923e-02 1.05609419e-02
      3.94736826e-02 4.32825498e-02 1.57548469e-02 8.01592767e-02
      1.97368413e-02 6.26731291e-02 1.57548469e-02 4.27631587e-02
      9.78185609e-02 9.00276974e-02 1.28116347e-02</_>
    <_>
      1.15650967e-01 5.24584502e-02 8.84695277e-02 8.25830996e-02
      2.71814410e-02 1.38504151e-02 2.77008303e-02 1.38504151e-03
      4.15512454e-03 5.62673137e-02 4.79570627e-02 1.52354566e-02
      5.02077565e-02 6.42312989e-02 2.42382269e-02 8.91620517e-02
      3.27216052e-02 4.48407196e-02 1.28116347e-02 1.95637122e-02
      7.21952915e-02 5.10734059e-02 6.05955673e-03</_>
    <_>
      1.37543768e-01 5.91715984e-02 1.08803287e-01 1.28969938e-01
      3.71935740e-02 1.40079698e-02 2.48762220e-02 1.93213380e-03
      1.28003862e-02 3.07933819e-02 4.19031531e-02 6.03791792e-03
      3.84011604e-02 3.63482684e-02 1.64231379e-02 3.24839987e-02
      1.08682523e-02 1.94420964e-02 1.08682523e-02 2.58422904e-02
      1.06267355e-01 9.09310505e-02 8.09080992e-03</_>
    <_>
      1.66600615e-01 1.94477469e-01 2.34509185e-01 1.44272685e-01
      3.63324098e-02 5.81318559e-03 1.32117849e-02 0. 4.09565354e-03
      1.24190776e-02 5.02047827e-03 1.05694274e-03 5.68106771e-03
      4.62412462e-03 2.37812125e-03 1.77037921e-02 5.68106771e-03
      1.04373097e-02 1.05694274e-03 6.20953878e-03 5.73391467e-02
      4.99405451e-02 2.11388562e-02</_>
    <_>
      0. 0. 0. 0. 0. 1.35208218e-04 5.40832873e-04 0. 9.46457556e-04
      2.29853974e-03 1.23039484e-02 5.16495407e-02 1.62385076e-01
      4.87831265e-01 2.39588961e-01 3.59653868e-02 4.19145497e-03
      6.76041120e-04 1.35208218e-04 4.05624654e-04 9.46457556e-04 0. 0.</_>
    <_>
      1.64343104e-01 1.23818524e-01 1.12948962e-01 6.86436668e-02
      2.51654070e-02 8.50661658e-03 8.74291081e-03 8.27032141e-04
      1.29962189e-03 1.72495283e-02 5.67107741e-03 1.65406428e-03
      9.09735356e-03 1.77221168e-02 1.86672974e-02 5.96644618e-02
      2.15028357e-02 3.48534957e-02 1.55954631e-02 3.74527425e-02
      7.99858198e-02 1.37405485e-01 2.91824192e-02</_>
    <_>
      1.42687280e-02 7.92707084e-04 5.41683193e-03 1.14942528e-02
      8.98401346e-03 8.45554192e-03 1.25511959e-02 5.54894982e-03
      2.28563882e-02 3.25009897e-02 9.57854390e-02 7.91385919e-02
      2.95283407e-01 2.39133313e-01 8.36305991e-02 6.18311539e-02
      4.49200673e-03 9.38036758e-03 0. 1.32117842e-04 7.53071718e-03
      7.92707084e-04 0.</_>
    <_>
      9.19415876e-02 2.36749589e-01 3.74391556e-01 9.15359631e-02
      3.50189283e-02 9.46457591e-03 1.16279069e-02 1.35208218e-04
      2.56895623e-03 7.84207694e-03 9.46457556e-04 2.70416436e-04
      5.40832873e-04 1.75770686e-03 9.46457556e-04 2.97458074e-03
      2.02812324e-03 3.38020548e-03 2.02812324e-03 5.00270398e-03
      4.13737148e-02 7.28772283e-02 4.59707947e-03</_>
    <_>
      1.05694274e-03 0. 0. 6.60589256e-04 1.98176783e-03 2.51023914e-03
      1.03051923e-02 1.28154317e-02 5.21865487e-02 1.52067646e-01
      4.72849786e-01 1.21812657e-01 1.28947020e-01 2.41775662e-02
      1.04373097e-02 7.00224610e-03 6.60589256e-04 2.64235685e-04 0. 0.
      2.64235685e-04 0. 0.</_>
    <_>
      5.64404428e-02 6.75207749e-03 3.54916900e-02 6.59626052e-02
      2.94321328e-02 1.28116347e-02 1.55817177e-02 2.94321333e-03
      1.43698063e-02 3.42797786e-02 6.59626052e-02 3.80886421e-02
      1.72957063e-01 1.49584487e-01 6.73476458e-02 1.18594185e-01
      2.18144041e-02 2.71814410e-02 5.71329659e-03 7.96398893e-03
      3.22022177e-02 1.78324096e-02 6.92520756e-04</_>
    <_>
      2.78827976e-02 8.03402625e-03 8.86105839e-03 8.27032141e-03
      3.42627591e-03 4.01701313e-03 1.03969751e-02 5.90737269e-04
      6.37996197e-03 2.31569000e-02 1.84310023e-02 8.74291081e-03
      8.87287334e-02 1.26890361e-01 1.72258973e-01 2.41138935e-01
      1.02551982e-01 5.15122861e-02 2.28024572e-02 2.24480145e-02
      2.80009452e-02 1.51228737e-02 3.54442338e-04</_>
    <_>
      6.35633245e-02 6.79347813e-02 8.94376189e-02 4.61956523e-02
      2.69376189e-02 1.00425333e-02 1.13421548e-02 2.12665414e-03
      5.90737257e-03 1.48865785e-02 1.68950856e-02 1.31143667e-02
      9.15642753e-02 1.14012286e-01 1.10231571e-01 1.22755200e-01
      3.43809091e-02 3.52079384e-02 2.12665405e-02 1.67769380e-02
      4.13516052e-02 3.72164473e-02 6.85255183e-03</_>
    <_>
      7.24431798e-02 4.13223123e-03 1.51084708e-02 2.41477266e-02
      1.51084708e-02 1.71745867e-02 4.08057868e-02 5.55268582e-03
      3.91270667e-02 1.03305787e-01 8.97468999e-02 3.22830565e-02
      1.19059920e-01 1.48760334e-01 6.54700398e-02 1.13119833e-01
      1.43336775e-02 2.62138434e-02 4.00309917e-03 3.74483480e-03
      3.56404968e-02 1.02014467e-02 5.16528904e-04</_>
    <_>
      3.47222239e-02 2.21088436e-02 3.16043086e-02 4.66269851e-02
      5.85317463e-02 5.04535139e-02 5.95238097e-02 3.27380970e-02
      7.44047612e-02 1.02607712e-01 1.32794783e-01 6.85941055e-02
      8.00736994e-02 4.29421775e-02 2.52267569e-02 4.29421775e-02
      1.88492071e-02 1.48809524e-02 9.92063526e-03 1.34637188e-02
      1.64399091e-02 1.50226755e-02 5.52721089e-03</_>
    <_>
      1.40595464e-02 1.26417773e-02 1.23345934e-01 2.23416820e-01
      1.27481103e-01 6.73440471e-02 8.08128566e-02 3.06001883e-02
      7.07703233e-02 6.75803423e-02 8.77835527e-02 1.96124762e-02
      2.48109642e-02 1.86672974e-02 4.37145540e-03 8.74291081e-03
      1.18147454e-03 5.08034043e-03 1.53591682e-03 1.77221175e-03
      6.02551969e-03 2.24480149e-03 1.18147451e-04</_>
    <_>
      1.75330818e-01 5.83648384e-02 6.97069913e-02 5.52930050e-02
      1.90217383e-02 4.48960299e-03 9.09735356e-03 7.08884676e-04
      1.77221175e-03 2.41020788e-02 7.56143685e-03 2.48109642e-03
      2.70557664e-02 3.27268429e-02 2.12665405e-02 6.33270293e-02
      2.90642716e-02 6.58081248e-02 1.45321358e-02 3.18998098e-02
      1.32915884e-01 1.33152172e-01 2.03213617e-02</_>
    <_>
      2.29885057e-02 7.26648187e-03 3.05192228e-02 8.25736523e-02
      1.13489233e-01 1.39780685e-01 1.84436515e-01 8.15167129e-02
      1.05826400e-01 6.88333958e-02 8.31021294e-02 1.66468490e-02
      2.04782672e-02 1.49293169e-02 2.11388548e-03 1.22869601e-02
      1.18906063e-03 1.71753205e-03 0. 2.64235685e-04 7.66283507e-03
      2.37812125e-03 0.</_>
    <_>
      7.95132294e-02 1.88799620e-01 3.30340266e-01 2.00023636e-01
      8.38846862e-02 2.87098307e-02 1.84310023e-02 4.13516071e-03
      7.20699411e-03 4.25330829e-03 4.01701313e-03 5.90737269e-04
      2.00850656e-03 2.36294908e-03 1.06332707e-03 2.83553870e-03
      3.54442338e-04 7.08884676e-04 1.29962189e-03 9.45179607e-04
      1.24054821e-02 1.58317573e-02 1.02788284e-02</_>
    <_>
      9.32963043e-02 9.72099509e-03 3.57278138e-02 3.25716436e-02
      1.04784751e-02 4.29238752e-03 2.08307039e-02 8.83726811e-04
      1.55283427e-02 6.91831857e-02 5.03724292e-02 3.62327993e-02
      1.34705216e-01 1.25110462e-01 6.90569356e-02 1.43163741e-01
      1.54020954e-02 3.26978900e-02 3.40866041e-03 1.54020954e-02
      4.58275452e-02 3.58540602e-02 2.52493366e-04</_>
    <_>
      8.89889225e-02 1.33829638e-01 2.32167587e-01 2.22818553e-01
      1.03358723e-01 2.92590037e-02 2.21606642e-02 2.59695295e-03
      9.86842066e-03 1.02146817e-02 8.31024908e-03 1.03878113e-03
      4.67451522e-03 7.79085886e-03 5.02077583e-03 9.52216052e-03
      3.11634340e-03 1.07340720e-02 4.15512454e-03 1.21191135e-02
      2.37188358e-02 4.05124649e-02 1.40235461e-02</_>
    <_>
      1.46739125e-01 2.04867676e-01 2.02859163e-01 1.31616250e-01
      4.89130430e-02 1.83128547e-02 1.59499049e-02 3.30812857e-03
      8.03402625e-03 5.90737257e-03 6.37996197e-03 5.90737269e-04
      8.27032141e-04 1.53591682e-03 9.45179607e-04 8.27032141e-03
      4.13516071e-03 1.44139882e-02 3.07183363e-03 1.33506618e-02
      5.18667288e-02 8.24669152e-02 2.56379955e-02</_>
    <_>
      6.06921501e-03 1.29132226e-04 4.51962790e-03 5.94008248e-03
      6.32747915e-03 6.32747915e-03 1.66580584e-02 1.73037183e-02
      6.28874004e-02 1.39591947e-01 3.01523775e-01 1.40366733e-01
      1.61931813e-01 6.36621937e-02 2.80216951e-02 2.29855366e-02
      5.16528916e-03 2.84090918e-03 1.93698343e-03 1.16219011e-03
      3.61570250e-03 9.03925626e-04 1.29132226e-04</_>
    <_>
      1.24190776e-02 0. 1.32117851e-03 7.13436399e-03 7.00224610e-03
      6.73801033e-03 1.34760207e-02 7.26648187e-03 1.70432031e-02
      2.88016908e-02 8.94437805e-02 6.36808053e-02 2.79429257e-01
      2.77051121e-01 1.21152066e-01 5.35077304e-02 5.68106771e-03
      2.24600337e-03 7.92707084e-04 1.58541417e-03 3.03871045e-03
      1.18906063e-03 0.</_>
    <_>
      3.72572318e-02 1.32117851e-03 6.87012821e-03 1.55899059e-02
      7.79495295e-03 1.25511959e-02 3.30294631e-02 7.26648187e-03
      2.82732192e-02 8.41590688e-02 1.35288671e-01 5.58858514e-02
      2.02668786e-01 1.45990223e-01 8.60087201e-02 9.24824923e-02
      2.17994452e-02 8.71977769e-03 2.24600337e-03 1.58541417e-03
      1.12300171e-02 1.71753205e-03 2.64235685e-04</_>
    <_>
      5.32024801e-02 1.04597108e-02 3.52531001e-02 5.15237600e-02
      2.62138434e-02 1.58832651e-02 3.38326432e-02 5.68181835e-03
      2.80216951e-02 5.59142567e-02 1.19059920e-01 6.44369870e-02
      2.01833680e-01 8.14824402e-02 2.94421483e-02 5.81095032e-02
      6.58574374e-03 2.77634300e-02 2.19524791e-03 1.42045459e-02
      3.86105366e-02 3.97727266e-02 5.16528904e-04</_>
    <_>
      1.05597623e-01 2.58923739e-01 3.31395358e-01 9.20768008e-02
      2.69064363e-02 6.35478646e-03 1.00054080e-02 4.05624654e-04
      5.00270398e-03 1.74418613e-02 7.30124395e-03 5.40832873e-04
      7.57166045e-03 7.57166045e-03 2.56895623e-03 1.01406164e-02
      5.94916148e-03 1.83883179e-02 1.48729037e-03 5.40832896e-03
      4.63764183e-02 2.54191458e-02 7.16603547e-03</_>
    <_>
      1.42603964e-01 2.42084116e-01 2.35113427e-01 1.36460304e-01
      5.03308140e-02 1.51228737e-02 2.11483929e-02 1.06332707e-03
      8.97920597e-03 1.27599239e-02 1.07514178e-02 1.06332707e-03
      2.12665414e-03 4.01701313e-03 1.29962189e-03 7.08884699e-03
      1.65406428e-03 7.79773155e-03 2.83553870e-03 6.73440471e-03
      2.64650285e-02 4.33601141e-02 1.91398859e-02</_>
    <_>
      1.43465906e-01 3.78357433e-02 8.97468999e-02 8.22572336e-02
      1.96281001e-02 1.13636367e-02 3.51239666e-02 1.80785125e-03
      1.76911149e-02 6.96022734e-02 4.18388434e-02 1.43336775e-02
      5.64307868e-02 7.90289268e-02 3.27995867e-02 9.60743800e-02
      1.29132234e-02 5.65599166e-02 5.68181835e-03 1.52376033e-02
      4.53254133e-02 2.76342984e-02 7.61880167e-03</_>
    <_>
      1.18029304e-01 4.27693762e-02 4.56049144e-02 3.88705097e-02
      1.07514178e-02 4.60775057e-03 1.58317573e-02 3.54442338e-04
      2.95368629e-03 2.77646501e-02 1.11058597e-02 6.97069941e-03
      3.73345949e-02 4.89130430e-02 5.52930050e-02 1.44966915e-01
      5.76559529e-02 5.86011335e-02 3.13090719e-02 2.58742906e-02
      8.82561430e-02 1.05623819e-01 2.05576569e-02</_>
    <_>
      2.51023918e-02 1.84964994e-03 4.75624250e-03 1.92892067e-02
      1.62504949e-02 1.95534416e-02 4.00317088e-02 1.25511959e-02
      4.95441929e-02 7.20042288e-02 1.53520942e-01 9.31430832e-02
      2.09538907e-01 1.26568899e-01 4.67697196e-02 7.22684637e-02
      3.56718199e-03 1.30796675e-02 2.64235685e-04 3.96353565e-03
      1.14942528e-02 4.88836039e-03 0.</_>
    <_>
      7.49905333e-02 8.83726776e-03 3.38341109e-02 3.21929045e-02
      7.95354135e-03 2.52493378e-03 1.22459289e-02 3.78740049e-04
      6.94356766e-03 3.32028791e-02 3.11829317e-02 6.94356766e-03
      5.59272803e-02 8.30703229e-02 8.52165148e-02 1.86592609e-01
      7.52430260e-02 7.58742616e-02 2.37343777e-02 3.45915928e-02
      7.30968341e-02 5.45385666e-02 8.83726811e-04</_>
    <_>
      9.00283530e-02 2.38657836e-02 5.17485812e-02 9.14461240e-02
      3.33175808e-02 2.15028357e-02 4.71408330e-02 5.19848755e-03
      3.49716432e-02 6.91162571e-02 1.16375238e-01 5.57655953e-02
      1.05269372e-01 6.50992468e-02 2.75283549e-02 4.65500951e-02
      9.56994295e-03 1.99669190e-02 3.18998098e-03 7.08884699e-03
      5.10396957e-02 2.25661620e-02 1.65406428e-03</_>
    <_>
      5.54353707e-02 3.38020548e-03 1.71714444e-02 2.66360193e-02
      1.90643594e-02 1.67658199e-02 5.38128726e-02 2.48783119e-02
      6.62520304e-02 9.73499194e-02 1.65359661e-01 5.42184971e-02
      1.74824223e-01 8.00432637e-02 3.10978908e-02 4.48891297e-02
      4.73228795e-03 8.24770145e-03 2.70416448e-03 2.43374798e-03
      2.82585174e-02 2.01460253e-02 2.29853974e-03</_>
    <_>
      1.09072020e-02 1.21191132e-03 3.11634340e-03 5.88642666e-03
      2.59695295e-03 3.63573409e-03 1.12534622e-02 1.00415517e-02
      3.54916900e-02 8.76038745e-02 2.41343483e-01 1.97022155e-01
      1.96329638e-01 9.85110775e-02 2.47576181e-02 2.97783930e-02
      8.65651015e-03 1.09072020e-02 2.25069257e-03 3.80886416e-03
      7.96398893e-03 6.40581734e-03 5.19390567e-04</_>
    <_>
      1.42280012e-01 1.99469756e-02 4.54488061e-02 6.19871244e-02
      1.46446154e-02 1.89370033e-03 1.95682365e-02 0. 6.43858081e-03
      6.16083816e-02 2.99204644e-02 4.41863388e-03 2.99204644e-02
      5.89572042e-02 2.42393631e-02 1.54904678e-01 1.17409416e-02
      6.65320009e-02 4.41863388e-03 3.04254517e-02 1.27635404e-01
      7.61267543e-02 6.94356766e-03</_>
    <_>
      2.42382265e-03 2.42382265e-03 1.90443208e-03 6.92520756e-03
      1.73130203e-02 4.31094170e-02 9.90304723e-02 1.44736841e-01
      2.58310258e-01 2.51904428e-01 1.26038775e-01 2.68351808e-02
      9.00277030e-03 3.28947371e-03 1.38504151e-03 1.38504151e-03
      3.46260378e-04 5.19390567e-04 5.19390567e-04 0. 1.73130189e-03
      8.65650945e-04 0.</_>
    <_>
      6.71487581e-03 4.00309917e-03 4.09349166e-02 8.41942132e-02
      6.36621937e-02 2.33729333e-02 3.35743800e-02 1.98863633e-02
      6.92148730e-02 1.34943187e-01 4.24845040e-01 5.02324365e-02
      3.24121900e-02 8.26446246e-03 3.87396693e-04 2.45351251e-03 0. 0.
      0. 0. 9.03925626e-04 0. 0.</_>
    <_>
      1.16089873e-01 2.27272734e-02 6.10795468e-02 1.19059920e-01
      6.63739666e-02 4.32592966e-02 8.14824402e-02 2.45351233e-02
      6.88274801e-02 7.87706599e-02 7.58006200e-02 1.07179750e-02
      4.48088832e-02 4.70041335e-02 1.52376033e-02 3.56404968e-02
      9.03925626e-04 5.94008248e-03 6.45661145e-04 6.71487581e-03
      4.24845032e-02 3.03460751e-02 1.54958677e-03</_>
    <_>
      5.11578433e-02 1.18147451e-04 6.02551969e-03 1.55954631e-02
      8.27032141e-04 1.65406428e-03 6.37996197e-03 1.53591682e-03
      1.11058597e-02 4.87948954e-02 5.89555763e-02 3.48534957e-02
      1.50992438e-01 1.55600190e-01 9.84168276e-02 1.94470704e-01
      5.52930050e-02 5.95463142e-02 9.56994295e-03 8.38846900e-03
      2.35113427e-02 7.20699411e-03 0.</_>
    <_>
      2.61426587e-02 2.07756227e-03 9.34903044e-03 7.61772832e-03
      4.84764529e-03 8.48337915e-03 2.49307472e-02 9.17590037e-03
      5.36703616e-02 7.79085904e-02 1.41274244e-01 5.57479225e-02
      2.02562332e-01 1.35734066e-01 7.18490332e-02 8.60457048e-02
      1.67936292e-02 2.52770092e-02 1.10803321e-02 5.71329659e-03
      1.36772851e-02 1.00415517e-02 0.</_>
    <_>
      3.79935093e-02 9.46457556e-04 1.08166579e-02 3.51541378e-02
      1.48729039e-02 1.17631154e-02 4.19145487e-02 1.39264464e-02
      5.02974577e-02 1.08842619e-01 1.63196325e-01 5.50297461e-02
      1.70497566e-01 1.40346140e-01 5.05678728e-02 6.47647381e-02
      5.00270398e-03 8.11249297e-03 1.35208218e-04 1.35208218e-04
      1.21687399e-02 3.51541373e-03 0.</_>
    <_>
      1.03047520e-01 6.26291335e-02 9.20712799e-02 1.51213840e-01
      1.28744841e-01 7.72210732e-02 8.54855403e-02 1.18801650e-02
      2.64721066e-02 5.82386367e-02 3.48657034e-02 5.94008248e-03
      1.60123967e-02 2.35020667e-02 6.19834708e-03 2.87964884e-02
      5.55268582e-03 8.78099166e-03 3.87396693e-04 3.22830584e-03
      4.14514467e-02 2.35020667e-02 4.77789249e-03</_>
    <_>
      9.55678672e-02 6.92520756e-04 1.09072020e-02 2.06024926e-02
      3.11634340e-03 2.94321333e-03 1.90443210e-02 5.19390567e-04
      7.61772832e-03 7.15027675e-02 3.25484760e-02 4.50138515e-03
      5.90373948e-02 1.26904428e-01 5.40166199e-02 2.51211911e-01
      4.57063727e-02 7.75623247e-02 2.64889188e-02 2.99515240e-02
      4.18975055e-02 1.76592804e-02 0.</_>
    <_>
      1.90453693e-01 3.91068049e-02 7.05340281e-02 5.65926284e-02
      1.01606809e-02 6.37996197e-03 2.11483929e-02 9.45179607e-04
      6.37996197e-03 6.55718371e-02 4.67863902e-02 1.45321358e-02
      5.58837429e-02 6.92344010e-02 2.42202263e-02 1.01016067e-01
      7.44328927e-03 2.15028357e-02 3.54442350e-03 1.18147451e-02
      9.61720198e-02 7.57325143e-02 4.84404527e-03</_>
    <_>
      1.43849209e-01 6.67517036e-02 1.86933100e-01 1.47959188e-01
      8.06405917e-02 2.42346935e-02 2.31009070e-02 8.36167764e-03
      1.67233553e-02 2.49433108e-02 2.48015877e-02 8.78684781e-03
      2.04081628e-02 1.78571437e-02 9.35374107e-03 1.38888890e-02
      2.40929704e-03 1.38888890e-02 2.55102036e-03 1.02040814e-02
      6.63265288e-02 7.32709765e-02 1.27551025e-02</_>
    <_>
      9.69990566e-02 4.95037809e-02 8.21124762e-02 9.74716470e-02
      6.07277900e-02 3.96975428e-02 6.54536858e-02 1.24054821e-02
      4.12334576e-02 8.73109624e-02 6.67533055e-02 2.05576569e-02
      4.71408330e-02 3.94612476e-02 1.09877130e-02 4.45415862e-02
      1.19328918e-02 2.45746691e-02 7.44328927e-03 8.27032141e-03
      5.28119095e-02 2.55198479e-02 7.08884699e-03</_>
    <_>
      5.99815026e-02 1.45329640e-03 7.79495295e-03 4.96763103e-02
      3.10476944e-02 4.61091287e-02 8.85189623e-02 2.54987441e-02
      8.57444853e-02 1.07808165e-01 1.90646052e-01 6.51341006e-02
      1.02655567e-01 6.98903427e-02 1.82322636e-02 2.82732192e-02
      1.32117851e-03 5.02047827e-03 1.32117842e-04 1.05694274e-03
      1.30796675e-02 9.24824970e-04 0.</_>
    <_>
      1.27599239e-02 9.45179630e-03 2.80009452e-02 4.78497148e-02
      9.22731534e-02 1.07041590e-01 1.63870513e-01 1.42722115e-01
      1.62925333e-01 9.98345912e-02 6.42722100e-02 1.63043477e-02
      1.92580335e-02 9.09735356e-03 1.77221175e-03 4.13516071e-03
      2.48109642e-03 2.83553870e-03 7.08884676e-04 1.53591682e-03
      5.55292983e-03 4.84404527e-03 4.72589803e-04</_>
    <_>
      1.65089235e-01 1.73742563e-01 1.92536503e-01 8.01784769e-02
      1.33856134e-02 2.43374798e-03 1.23039484e-02 0. 1.35208218e-04
      3.09626833e-02 3.78583022e-03 0. 8.78853444e-03 2.96106003e-02
      7.84207694e-03 3.94808017e-02 5.81395347e-03 2.83937268e-02
      2.02812324e-03 1.70362350e-02 7.70686865e-02 1.01946995e-01
      7.43645197e-03</_>
    <_>
      1.67789664e-02 3.69929988e-03 8.85189604e-03 1.81001462e-02
      1.78359095e-02 1.63826142e-02 3.38221677e-02 1.91570874e-02
      5.64143211e-02 1.03844628e-01 2.69388288e-01 1.34099618e-01
      1.27890080e-01 5.61500862e-02 3.11798118e-02 4.55806591e-02
      1.03051923e-02 1.03051923e-02 2.90659280e-03 3.17082833e-03
      7.66283507e-03 6.07742090e-03 3.96353542e-04</_>
    <_>
      6.12493232e-02 1.85776100e-01 4.50513780e-01 1.73877776e-01
      5.61114103e-02 1.12222824e-02 7.43645197e-03 0. 1.89291511e-03
      9.46457556e-04 1.21687399e-03 0. 0. 4.05624654e-04 2.70416436e-04
      2.43374798e-03 1.35208224e-03 2.56895623e-03 2.02812324e-03
      3.51541373e-03 1.79826934e-02 1.36560304e-02 5.54353697e-03</_>
    <_>
      1.33006200e-02 4.13223123e-03 5.29442169e-03 9.68491752e-03
      4.00309917e-03 3.35743790e-03 6.84400834e-03 1.42045459e-03
      7.48966960e-03 2.02737600e-02 5.70764467e-02 9.01343003e-02
      2.15650827e-01 3.00103307e-01 1.16219006e-01 1.08341940e-01
      1.75619833e-02 7.10227294e-03 2.58264458e-03 1.42045459e-03
      4.13223123e-03 3.61570250e-03 2.58264452e-04</_>
    <_>
      7.82312900e-02 1.63407028e-01 3.20719957e-01 1.55753970e-01
      5.98072559e-02 1.67233553e-02 1.82823129e-02 0. 3.96825420e-03
      2.49433108e-02 1.21882083e-02 2.69274367e-03 1.61564630e-02
      2.53684800e-02 8.50340165e-03 3.13208625e-02 2.55102036e-03
      1.40306121e-02 1.41723358e-04 1.70068024e-03 2.50850338e-02
      1.30385486e-02 5.38548734e-03</_>
    <_>
      6.36814758e-02 1.79584119e-02 4.48960289e-02 1.01370513e-01
      9.65264663e-02 8.23487714e-02 1.21337429e-01 8.12854469e-02
      1.00189038e-01 8.50661620e-02 6.08459376e-02 1.44139882e-02
      1.92580335e-02 1.90217383e-02 2.12665414e-03 2.09120978e-02
      7.91587867e-03 1.16965976e-02 1.65406428e-03 5.19848755e-03
      3.02457474e-02 1.03969751e-02 1.65406428e-03</_>
    <_>
      1.77221175e-03 1.18147451e-04 8.27032141e-04 1.29962189e-03
      9.45179607e-04 7.08884676e-04 1.29962189e-03 2.36294902e-04
      1.65406428e-03 2.12665414e-03 1.26417773e-02 2.39839312e-02
      1.27481103e-01 3.79489601e-01 2.41965979e-01 1.73794895e-01
      2.41020788e-02 3.89886578e-03 1.18147454e-03 2.36294902e-04 0.
      2.36294902e-04 0.</_>
    <_>
      1.33034021e-01 2.09120978e-02 5.48204146e-02 6.12003766e-02
      1.87854450e-02 1.07514178e-02 3.18998098e-02 1.77221175e-03
      1.90217383e-02 5.91918714e-02 4.13516052e-02 1.77221168e-02
      7.77410194e-02 5.70652187e-02 4.18241955e-02 9.99527425e-02
      2.25661620e-02 5.81285432e-02 1.91398859e-02 2.72920597e-02
      9.02646482e-02 3.03638950e-02 5.19848755e-03</_>
    <_>
      7.46349394e-02 1.21687399e-02 2.47431044e-02 3.90751772e-02
      1.39264464e-02 1.25743644e-02 3.20443474e-02 6.48999447e-03
      2.81233098e-02 5.55705801e-02 8.16657618e-02 3.15035172e-02
      1.02623038e-01 8.84261727e-02 4.98918332e-02 1.18712820e-01
      3.19091417e-02 3.96160074e-02 1.64954029e-02 1.47376964e-02
      7.24716038e-02 4.65116277e-02 6.08436996e-03</_>
    <_>
      3.23688723e-02 8.71977769e-03 3.39542888e-02 7.47787058e-02
      6.03778586e-02 6.42092749e-02 8.65371898e-02 2.91980449e-02
      1.10582642e-01 1.34231731e-01 2.02008188e-01 4.39952426e-02
      5.90566769e-02 2.17994452e-02 7.13436399e-03 9.51248500e-03
      5.28471370e-04 4.49200673e-03 2.64235685e-04 1.98176783e-03
      9.64460336e-03 4.62412462e-03 0.</_>
    <_>
      1.59521803e-01 9.31046978e-02 1.41649559e-01 1.34645581e-01
      7.18512237e-02 2.52384972e-02 3.39330994e-02 5.31336805e-03
      1.56985875e-02 3.44161317e-02 1.89590622e-02 3.26047582e-03
      1.20758358e-02 2.12534722e-02 3.38123413e-03 3.29670347e-02
      5.55488467e-03 2.92235240e-02 5.67564322e-03 1.96836125e-02
      7.47494251e-02 5.09600304e-02 6.88322680e-03</_>
    <_>
      6.31456599e-02 1.80785116e-02 5.63016534e-02 7.01187998e-02
      3.64152901e-02 1.62706617e-02 4.49380167e-02 1.57541316e-02
      5.50103299e-02 1.12603307e-01 2.00929746e-01 4.45506200e-02
      9.03925598e-02 7.33471066e-02 1.67871900e-02 2.25981399e-02
      3.87396693e-04 1.38171492e-02 3.87396693e-04 2.32438021e-03
      3.20247933e-02 1.38171492e-02 0.</_>
    <_>
      4.75624250e-03 0. 1.45329640e-03 3.43506411e-03 3.03871045e-03
      4.62412462e-03 1.41366096e-02 9.11613181e-03 3.89747657e-02
      1.05958514e-01 3.04399520e-01 2.14030921e-01 1.83775932e-01
      7.67604709e-02 2.08746195e-02 1.03051923e-02 1.71753205e-03
      1.05694274e-03 0. 2.64235685e-04 2.64235685e-04 1.05694274e-03 0.</_>
    <_>
      1.15075618e-01 1.20510394e-02 2.71739122e-02 4.11153138e-02
      9.33364872e-03 9.09735356e-03 3.03638950e-02 1.77221175e-03
      2.57561430e-02 2.31096402e-01 1.97069943e-01 2.54017022e-02
      9.65264663e-02 1.03851609e-01 1.28780715e-02 3.33175808e-02
      1.18147451e-04 4.25330829e-03 2.36294902e-04 1.29962189e-03
      1.99669190e-02 2.00850656e-03 2.36294902e-04</_>
    <_>
      1.57880828e-01 2.02536657e-01 1.82322636e-01 9.49927345e-02
      3.52754667e-02 6.07742090e-03 1.00409565e-02 9.24824970e-04
      3.56718199e-03 1.87607352e-02 1.00409565e-02 2.64235685e-04
      5.54894982e-03 1.38723738e-02 6.20953878e-03 3.73893529e-02
      5.15259616e-03 1.91570874e-02 2.77447491e-03 1.14942528e-02
      6.65873960e-02 7.70247057e-02 3.21046375e-02</_>
    <_>
      4.39049583e-03 3.95144634e-02 2.95971066e-01 2.40960747e-01
      8.09659064e-02 1.84659082e-02 1.98863633e-02 6.97314041e-03
      1.94989666e-02 2.80216951e-02 7.63171464e-02 5.86260334e-02
      6.88274801e-02 2.35020667e-02 4.13223123e-03 7.87706580e-03
      1.93698343e-03 1.67871895e-03 2.58264452e-04 5.16528904e-04
      9.03925626e-04 7.74793385e-04 0.</_>
    <_>
      1.57490551e-01 1.01134218e-01 1.21928163e-01 9.46361050e-02
      4.40689996e-02 2.16209833e-02 2.57561430e-02 4.48960299e-03
      1.05151227e-02 2.63468809e-02 1.63043477e-02 8.86105839e-03
      1.89035926e-02 1.37051037e-02 4.13516071e-03 2.69376189e-02
      7.32514169e-03 3.02457474e-02 7.20699411e-03 2.74102073e-02
      8.87287334e-02 1.12594515e-01 2.96550095e-02</_>
    <_>
      1.70325413e-01 1.55475199e-01 1.33393601e-01 1.02918386e-01
      7.20557868e-02 3.35743800e-02 2.62138434e-02 3.61570250e-03
      6.71487581e-03 1.44628100e-02 9.81405005e-03 2.58264458e-03
      7.48966960e-03 7.61880167e-03 1.29132229e-03 1.07179750e-02
      5.29442169e-03 9.81405005e-03 8.91012419e-03 2.55681816e-02
      4.81663235e-02 1.05371900e-01 3.86105366e-02</_>
    <_>
      1.25945181e-01 1.05151227e-02 2.64650285e-02 6.66351616e-02
      1.77221168e-02 6.37996197e-03 3.33175808e-02 1.89035921e-03
      1.71313807e-02 9.07372385e-02 9.94801521e-02 3.31994332e-02
      9.86531228e-02 8.90831724e-02 3.83979194e-02 9.26275998e-02
      2.29206048e-02 3.20179574e-02 4.84404527e-03 1.05151227e-02
      4.87948954e-02 3.27268429e-02 0.</_>
    <_>
      2.76360549e-02 8.98526087e-02 4.24178004e-01 1.91893429e-01
      6.60430863e-02 2.76360549e-02 2.63605434e-02 2.26757373e-03
      9.63718817e-03 2.01247167e-02 1.74319725e-02 3.82653065e-03
      1.23299323e-02 1.16213150e-02 6.23582769e-03 1.68650802e-02
      6.80272095e-03 7.93650839e-03 1.84240367e-03 2.97619053e-03
      1.54478457e-02 1.07709747e-02 2.83446716e-04</_>
    <_>
      6.77437633e-02 7.65306130e-02 8.16326514e-02 8.75850320e-02
      9.19784606e-02 7.00113401e-02 8.73015895e-02 6.23582751e-02
      6.51927441e-02 4.94614504e-02 3.95408161e-02 1.04875285e-02
      2.21088436e-02 1.71485264e-02 1.23299323e-02 2.38095243e-02
      1.21882083e-02 1.41723352e-02 1.16213150e-02 1.82823129e-02
      2.29591839e-02 3.95408161e-02 1.60147399e-02</_>
    <_>
      3.96353542e-04 0. 0. 2.64235685e-04 0. 2.64235685e-04
      7.92707084e-04 1.98176783e-03 7.26648187e-03 2.23279167e-02
      1.22209013e-01 2.74673015e-01 3.12458724e-01 2.08614081e-01
      3.79178226e-02 1.04373097e-02 0. 2.64235685e-04 0. 0.
      1.32117842e-04 0. 0.</_>
    <_>
      9.62682515e-02 3.36668454e-02 5.57057858e-02 8.24770182e-02
      6.43591136e-02 5.00270426e-02 5.69226593e-02 1.70362350e-02
      4.74580862e-02 5.54353707e-02 5.90859912e-02 1.51433209e-02
      4.19145487e-02 3.52893472e-02 2.32558139e-02 5.93564101e-02
      1.87939424e-02 1.98756084e-02 1.31151974e-02 1.81179009e-02
      5.21903746e-02 6.23309910e-02 2.21741479e-02</_>
    <_>
      5.74196614e-02 2.35231563e-01 4.44234401e-01 1.07986771e-01
      3.93431000e-02 1.18147451e-02 1.24054821e-02 9.45179607e-04
      7.67958397e-03 1.68950856e-02 1.59499049e-02 9.45179607e-04
      8.27032141e-03 5.90737257e-03 4.72589803e-04 4.48960299e-03
      1.65406428e-03 2.71739135e-03 8.27032141e-04 1.53591682e-03
      1.27599239e-02 7.91587867e-03 2.59924377e-03</_>
    <_>
      1.19565219e-01 1.52410204e-02 2.48109642e-02 2.37476379e-02
      1.40595464e-02 7.91587867e-03 2.61105858e-02 1.65406428e-03
      1.39413988e-02 1.76748589e-01 1.67414933e-01 5.84829859e-02
      1.33624762e-01 1.33152172e-01 6.26181485e-03 3.94612476e-02
      2.36294902e-04 6.73440471e-03 1.18147454e-03 1.65406428e-03
      2.18572784e-02 5.90737257e-03 2.36294902e-04</_>
    <_>
      0. 0. 0. 0. 0. 0. 0. 0. 0. 7.24550162e-04 2.53592571e-03
      3.00688315e-02 2.94046611e-01 5.52469492e-01 1.12184517e-01
      7.72853522e-03 0. 1.20758363e-04 0. 0. 1.20758363e-04 0. 0.</_>
    <_>
      6.34165667e-03 0. 2.64235685e-04 1.32117851e-03 2.64235685e-04
      3.96353542e-04 5.81318559e-03 7.92707084e-04 1.40044922e-02
      4.69018370e-02 1.46650806e-01 1.34099618e-01 3.65834326e-01
      1.98837370e-01 4.47879508e-02 3.18404026e-02 6.60589256e-04 0. 0.
      0. 1.18906063e-03 0. 0.</_>
    <_>
      1.36696592e-01 1.41895086e-01 1.56781659e-01 1.28898859e-01
      5.43478243e-02 2.16209833e-02 2.95368619e-02 5.67107741e-03
      2.64650285e-02 2.88279764e-02 3.30812857e-02 7.32514169e-03
      1.03969751e-02 1.08695654e-02 7.67958397e-03 3.18998098e-02
      4.37145540e-03 1.57136098e-02 4.60775057e-03 1.14603024e-02
      5.51748574e-02 5.89555763e-02 1.77221168e-02</_>
    <_>
      2.52493378e-03 4.54488071e-03 6.56482764e-03 8.45852774e-03
      1.17409416e-02 6.43858081e-03 1.86845101e-02 1.99469756e-02
      5.45385666e-02 1.30539075e-01 3.89344782e-01 1.39755085e-01
      1.04911000e-01 5.37810884e-02 1.95682365e-02 1.43921226e-02
      1.51496020e-03 2.14619376e-03 5.04986732e-04 2.27244035e-03
      3.78740067e-03 3.28241382e-03 7.57480098e-04</_>
    <_>
      1.76911149e-02 8.39359500e-03 9.29752085e-03 2.22107433e-02
      1.93698350e-02 2.07902901e-02 3.44783068e-02 2.66012400e-02
      5.55268601e-02 1.09245867e-01 1.97314054e-01 1.47210747e-01
      1.31585747e-01 8.04493800e-02 3.27995867e-02 3.79648767e-02
      9.94318165e-03 7.48966960e-03 6.45661168e-03 5.55268582e-03
      9.29752085e-03 8.78099166e-03 1.54958677e-03</_>
    <_>
      4.92799580e-02 2.76126303e-02 1.10846877e-01 4.76945452e-02
      3.43506411e-02 2.78768670e-02 5.31113744e-02 2.17994452e-02
      5.11296093e-02 1.01466507e-01 1.78491220e-01 3.96353565e-02
      9.98810902e-02 7.18721077e-02 1.69110838e-02 2.89338082e-02
      3.30294622e-03 1.01730740e-02 1.32117851e-03 2.90659280e-03
      1.25511959e-02 6.73801033e-03 2.11388548e-03</_>
    <_>
      1.51851848e-02 3.70370364e-03 1.80246904e-02 7.14814812e-02
      1.25432104e-01 1.58024698e-01 1.95925921e-01 9.39506143e-02
      1.14938274e-01 6.13580234e-02 8.81481469e-02 1.75308641e-02
      1.17283948e-02 1.22222221e-02 2.46913591e-03 5.30864205e-03
      1.11111114e-03 6.17283978e-04 3.70370370e-04 0. 1.85185182e-03
      2.46913580e-04 3.70370370e-04</_>
    <_>
      1.72592595e-01 1.16049387e-02 6.12345673e-02 8.91358033e-02
      3.01234573e-02 1.71604939e-02 4.62962948e-02 2.09876546e-03
      1.72839500e-02 8.22222233e-02 3.97530869e-02 1.17283948e-02
      5.98765425e-02 7.86419734e-02 3.58024687e-02 7.70370364e-02
      8.27160478e-03 3.25925909e-02 3.95061728e-03 1.14814816e-02
      7.70370364e-02 3.32098752e-02 8.64197558e-04</_>
    <_>
      7.89041817e-02 3.57278138e-02 7.92829171e-02 9.53162462e-02
      4.98674400e-02 3.04254517e-02 7.62529969e-02 6.79207146e-02
      1.26625419e-01 1.11475825e-01 5.54222949e-02 5.93359442e-03
      1.74220428e-02 1.56545900e-02 2.52493378e-03 1.90632492e-02
      3.66115384e-03 1.52758490e-02 4.67112754e-03 1.07309679e-02
      3.92627195e-02 5.34023494e-02 5.17611392e-03</_>
    <_>
      7.69135803e-02 2.83950614e-03 1.76543202e-02 2.75308639e-02
      1.04938271e-02 9.50617250e-03 2.70370375e-02 2.83950614e-03
      2.03703698e-02 6.75308630e-02 7.27160498e-02 2.72839498e-02
      1.28024697e-01 1.21111110e-01 1.10987656e-01 1.63086414e-01
      2.11111102e-02 3.41975316e-02 5.67901228e-03 9.62962955e-03
      3.39506157e-02 9.25925933e-03 2.46913580e-04</_>
    <_>
      1.34197533e-01 2.53086425e-02 7.06172809e-02 8.04938301e-02
      4.08641957e-02 1.98765434e-02 2.08641980e-02 1.11111114e-03
      8.64197500e-03 2.49382723e-02 1.49382716e-02 1.35802466e-03
      2.51851846e-02 3.81481498e-02 3.54321003e-02 1.37407407e-01
      3.40740755e-02 4.27160487e-02 1.02469139e-02 1.85185187e-02
      1.08148150e-01 1.00740738e-01 6.17283955e-03</_>
    <_>
      1.33580253e-01 1.26790121e-01 2.03086421e-01 1.17160492e-01
      4.59259264e-02 1.41975312e-02 1.54320989e-02 4.93827160e-04
      5.30864205e-03 1.92592591e-02 1.48148146e-02 5.06172841e-03
      1.43209873e-02 1.48148146e-02 8.39506183e-03 3.02469134e-02
      6.29629614e-03 2.92592589e-02 4.93827160e-04 1.49382716e-02
      8.71604905e-02 8.23456794e-02 1.06172841e-02</_>
    <_>
      0. 0. 0. 0. 0. 0. 2.58264452e-04 0. 1.29132226e-04 3.87396693e-04
      4.39049583e-03 2.14359500e-02 2.46384293e-01 5.61208665e-01
      1.39333680e-01 1.69163216e-02 4.13223123e-03 1.93698343e-03
      1.54958677e-03 1.03305781e-03 7.74793385e-04 1.29132226e-04 0.</_>
    <_>
      7.20042288e-02 1.14942528e-02 4.45237160e-02 9.05007273e-02
      5.35077304e-02 3.51433493e-02 7.31932893e-02 1.41366096e-02
      4.09565344e-02 1.07015461e-01 1.05826400e-01 3.44827585e-02
      1.19302414e-01 7.67604709e-02 2.77447477e-02 3.62002924e-02
      4.09565354e-03 1.01730740e-02 1.32117851e-03 3.43506411e-03
      2.70841587e-02 8.19130708e-03 2.90659280e-03</_>
    <_>
      5.98409288e-02 7.46117905e-02 1.13117032e-01 1.73084199e-01
      1.65383160e-01 1.31170303e-01 1.65383160e-01 3.33291255e-02
      1.54020954e-02 7.44855450e-03 2.01994693e-03 2.52493366e-04
      3.78740049e-04 8.83726811e-04 1.26246683e-04 3.02992039e-03
      1.26246683e-04 5.68110077e-03 1.26246689e-03 5.04986756e-03
      1.66645627e-02 2.32293904e-02 2.52493378e-03</_>
    <_>
      1.09077133e-01 1.03774779e-01 3.01855832e-01 2.43656099e-01
      8.93826559e-02 1.84320156e-02 1.95682365e-02 5.42860758e-03
      5.80734760e-03 1.35083953e-02 4.29238752e-03 8.83726811e-04
      2.52493378e-03 4.29238752e-03 3.66115384e-03 1.03522278e-02
      2.01994693e-03 5.17611392e-03 8.83726811e-04 2.52493378e-03
      2.22194176e-02 2.17144303e-02 8.96351505e-03</_>
    <_>
      1.24197528e-01 6.66666683e-03 3.27160507e-02 3.95061746e-02
      1.08641973e-02 3.20987660e-03 9.62962955e-03 7.40740739e-04
      6.91358047e-03 4.56790142e-02 1.66666675e-02 7.53086433e-03
      3.62962969e-02 6.77777752e-02 6.64197505e-02 2.06419751e-01
      7.07407370e-02 7.06172809e-02 6.66666683e-03 3.19753103e-02
      8.90123472e-02 4.96296287e-02 1.23456790e-04</_>
    <_>
      3.44827585e-02 5.54894982e-03 1.47971995e-02 3.95032354e-02
      3.73893529e-02 4.61091287e-02 7.68925846e-02 4.09565344e-02
      1.01334393e-01 1.08732991e-01 2.24996701e-01 7.25326985e-02
      1.00805916e-01 6.44735098e-02 6.34165667e-03 7.26648187e-03
      5.28471370e-04 2.77447491e-03 2.64235685e-04 2.11388548e-03
      6.47377456e-03 4.09565354e-03 1.58541417e-03</_>
    <_>
      7.74074048e-02 3.62962969e-02 1.00000001e-01 9.81481448e-02
      2.62962971e-02 9.87654366e-03 2.33333334e-02 1.60493830e-03
      9.62962955e-03 4.30864207e-02 2.43209880e-02 5.92592591e-03
      6.66666701e-02 1.33703709e-01 6.48148134e-02 1.38888896e-01
      3.86419743e-02 2.74074078e-02 4.32098750e-03 9.87654366e-03
      3.75308655e-02 1.91358030e-02 3.08641978e-03</_>
    <_>
      3.69318165e-02 7.74793373e-03 1.52376033e-02 4.42923568e-02
      1.69163216e-02 7.36053707e-03 2.27272734e-02 6.45661168e-03
      2.55681816e-02 4.73915301e-02 9.74948332e-02 7.11518601e-02
      2.41993800e-01 1.88403919e-01 6.40495867e-02 5.82386367e-02
      9.42665245e-03 1.02014467e-02 1.03305781e-03 3.87396687e-03
      1.34297516e-02 9.29752085e-03 7.74793385e-04</_>
    <_>
      1.43333331e-01 1.98765434e-02 8.06172863e-02 1.00246914e-01
      7.12345690e-02 2.79012341e-02 3.69135812e-02 3.45679023e-03
      1.69135798e-02 1.08641975e-01 5.06172851e-02 7.03703705e-03
      4.40740734e-02 7.91358054e-02 1.98765434e-02 6.18518516e-02
      1.29629625e-02 2.75308639e-02 3.33333341e-03 3.45679023e-03
      6.39506206e-02 1.59259252e-02 1.11111114e-03</_>
    <_>
      1.37037039e-02 3.70370370e-04 9.87654319e-04 3.82716046e-03
      2.09876546e-03 3.82716046e-03 7.65432091e-03 2.96296296e-03
      2.44444441e-02 3.85185182e-02 9.00000036e-02 6.41975328e-02
      2.71234572e-01 2.66419739e-01 1.10123456e-01 7.27160498e-02
      9.62962955e-03 7.28395069e-03 1.72839512e-03 2.46913591e-03
      4.44444455e-03 1.35802466e-03 0.</_>
    <_>
      1.64197534e-02 8.64197558e-04 2.96296296e-03 1.29629625e-02
      1.60493830e-03 2.22222228e-03 1.95061732e-02 1.48148148e-03
      2.82716043e-02 3.86419743e-02 8.77777785e-02 5.49382716e-02
      1.93580240e-01 2.73950607e-01 1.49753094e-01 8.08641985e-02
      5.67901228e-03 7.77777797e-03 6.17283978e-04 2.71604932e-03
      7.65432091e-03 9.75308660e-03 0.</_>
    <_>
      3.32936980e-02 6.60589244e-03 9.51248500e-03 3.43506411e-02
      4.17492390e-02 4.53164205e-02 9.59175602e-02 4.82230149e-02
      9.65781510e-02 1.37798920e-01 2.25921527e-01 5.86603247e-02
      9.26146135e-02 4.62412462e-02 3.69929988e-03 8.71977769e-03
      9.24824970e-04 1.71753205e-03 1.18906063e-03 7.92707084e-04
      6.20953878e-03 2.77447491e-03 1.18906063e-03</_>
    <_>
      3.21046375e-02 6.36808053e-02 1.64883077e-01 6.01136200e-02
      2.20636800e-02 1.30796675e-02 1.84964985e-02 7.79495295e-03
      1.54577885e-02 2.40454488e-02 3.59360538e-02 4.02959436e-02
      1.25511959e-01 1.76641569e-01 6.09063283e-02 4.02959436e-02
      1.59862600e-02 1.69110838e-02 6.87012821e-03 1.05694281e-02
      2.41775662e-02 2.14030910e-02 2.77447491e-03</_>
    <_>
      2.62188204e-02 1.58730168e-02 4.08163257e-02 1.10119045e-01
      1.24007933e-01 1.02891155e-01 1.10544220e-01 4.26587313e-02
      8.31916109e-02 8.26247185e-02 1.07709751e-01 3.55725624e-02
      5.37131503e-02 2.11167801e-02 7.08616758e-03 1.41723352e-02
      1.13378686e-03 6.09410414e-03 1.13378686e-03 1.98412710e-03
      6.51927432e-03 4.53514745e-03 2.83446716e-04</_>
    <_>
      5.25756143e-02 4.86767478e-02 9.68809053e-02 7.96313807e-02
      5.21030240e-02 2.65831761e-02 3.36720236e-02 1.25236297e-02
      2.41020788e-02 4.97400761e-02 9.10916850e-02 4.98582236e-02
      6.99432865e-02 5.51748574e-02 5.86011335e-02 8.83742943e-02
      2.24480145e-02 1.52410204e-02 4.48960299e-03 6.49810955e-03
      2.91824192e-02 3.01275998e-02 2.48109642e-03</_>
    <_>
      6.65432066e-02 5.67901228e-03 2.13580243e-02 3.59259248e-02
      5.80246933e-03 7.28395069e-03 1.58024691e-02 7.40740739e-04
      1.49382716e-02 5.98765425e-02 6.09876551e-02 2.55555548e-02
      1.02469139e-01 1.21851854e-01 8.59259292e-02 2.12222219e-01
      3.95061746e-02 3.48148160e-02 8.39506183e-03 1.35802468e-02
      3.48148160e-02 2.50617284e-02 8.64197558e-04</_>
    <_>
      1.75770685e-01 4.48891297e-02 6.66576549e-02 6.51703626e-02
      3.77230942e-02 1.14926985e-02 1.97404008e-02 2.16333149e-03
      1.06814494e-02 3.47485133e-02 2.32558139e-02 7.16603547e-03
      3.24499719e-02 4.82693352e-02 2.39318553e-02 7.85559788e-02
      2.55543534e-02 4.38074619e-02 2.24445648e-02 3.96160074e-02
      1.05597623e-01 6.17901571e-02 1.85235254e-02</_>
    <_>
      9.14140791e-02 1.90798212e-02 3.84011604e-02 4.50428687e-02
      1.34041784e-02 7.84929376e-03 1.92005802e-02 2.53592571e-03
      1.70269292e-02 3.84011604e-02 3.98502611e-02 2.07704380e-02
      7.81306624e-02 7.86136910e-02 4.52843867e-02 1.33196473e-01
      3.10348999e-02 4.28692177e-02 9.29839350e-03 2.83782147e-02
      1.01678543e-01 9.28631797e-02 5.67564322e-03</_>
    <_>
      5.90986386e-02 1.83248296e-01 4.01785702e-01 1.50935367e-01
      5.27210869e-02 1.67233553e-02 1.55895688e-02 2.55102036e-03
      9.63718817e-03 1.81405898e-02 1.17630381e-02 3.68480734e-03
      1.33219957e-02 9.07029491e-03 3.96825420e-03 9.21201799e-03
      2.12585041e-03 3.82653065e-03 7.08616804e-04 1.70068024e-03
      1.30385486e-02 1.17630381e-02 5.38548734e-03</_>
    <_>
      4.91478406e-02 3.19725201e-02 1.05033688e-01 6.43413961e-02
      3.06513403e-02 2.62914523e-02 5.98493852e-02 2.04782672e-02
      5.24507873e-02 7.71568269e-02 1.63694009e-01 5.04690185e-02
      1.03051923e-01 8.48196596e-02 1.66468490e-02 2.65556872e-02
      3.69929988e-03 7.13436399e-03 1.71753205e-03 3.30294622e-03
      1.22869601e-02 7.39859976e-03 1.84964994e-03</_>
    <_>
      5.22959195e-02 1.45975053e-02 4.02494334e-02 9.32539701e-02
      4.49263044e-02 3.21712010e-02 9.15532857e-02 1.74319725e-02
      8.27664435e-02 9.56632644e-02 1.42431974e-01 8.06405917e-02
      9.75056663e-02 4.59183678e-02 1.24716554e-02 1.65816322e-02
      3.11791385e-03 3.54308379e-03 1.13378686e-03 1.55895692e-03
      2.63605434e-02 2.97619053e-03 8.50340119e-04</_>
    <_>
      8.72364566e-02 2.58805715e-02 5.11299074e-02 6.82994574e-02
      5.12561537e-02 7.36018196e-02 1.66645631e-01 1.55157179e-01
      7.08243921e-02 8.04191381e-02 3.64852920e-02 2.52493378e-03
      8.96351505e-03 1.67908091e-02 1.76745362e-03 1.95682365e-02
      1.64120691e-03 3.53490724e-03 1.38871360e-03 2.01994693e-03
      3.91364731e-02 3.10566854e-02 4.67112754e-03</_>
    <_>
      2.18144041e-02 7.54847676e-02 3.51973683e-01 2.68005550e-01
      1.17555402e-01 3.06440443e-02 2.89127417e-02 5.88642666e-03
      1.40235461e-02 1.97368413e-02 2.54501384e-02 2.94321333e-03
      4.32825508e-03 5.02077583e-03 1.38504151e-03 5.36703598e-03
      1.73130189e-04 4.32825508e-03 1.03878113e-03 1.03878113e-03
      1.31578948e-02 1.73130189e-03 0.</_>
    <_>
      8.68252590e-02 8.44100937e-02 1.42494872e-01 1.76548719e-01
      1.03731431e-01 5.22883721e-02 5.61526380e-02 9.78142768e-03
      2.97065563e-02 4.54051457e-02 4.23861854e-02 1.35249365e-02
      2.34271232e-02 1.96836125e-02 9.90218576e-03 2.42724307e-02
      3.01895896e-03 1.20758358e-02 9.66066902e-04 7.60777667e-03
      2.95857992e-02 2.16157474e-02 4.58881771e-03</_>
    <_>
      1.58439592e-01 9.45587680e-02 9.21600834e-02 5.37810884e-02
      1.62858218e-02 9.34225507e-03 1.62858218e-02 3.15616722e-03
      6.81732083e-03 2.72692833e-02 8.71102139e-03 6.05984079e-03
      3.34553719e-02 2.96679717e-02 2.66380515e-02 6.57745227e-02
      2.95417253e-02 4.00201976e-02 1.89370029e-02 2.87842453e-02
      7.58742616e-02 1.28266633e-01 3.01729571e-02</_>
    <_>
      5.22853173e-02 1.10630192e-01 5.67867048e-02 1.71398893e-02
      7.96398893e-03 3.28947371e-03 4.50138515e-03 1.03878113e-03
      3.80886416e-03 7.79085886e-03 1.03878118e-02 1.12534622e-02
      3.53185609e-02 9.72991660e-02 1.40927970e-01 1.51662052e-01
      6.11149594e-02 4.01662067e-02 2.68351808e-02 3.65304723e-02
      5.22853173e-02 5.74792251e-02 1.35041550e-02</_>
    <_>
      1.11339211e-01 1.78843141e-01 2.49607533e-01 1.28486902e-01
      5.68771884e-02 2.42724307e-02 2.45139468e-02 3.98502592e-03
      1.02644609e-02 1.41287288e-02 1.54570704e-02 5.07185142e-03
      1.44910039e-02 1.28003862e-02 4.34730109e-03 1.76307205e-02
      2.89820065e-03 8.93611927e-03 1.56985875e-03 7.24550197e-03
      4.33522537e-02 5.47035374e-02 9.17763542e-03</_>
    <_>
      1.32222220e-01 3.48148160e-02 7.69135803e-02 5.51851839e-02
      1.65432096e-02 5.06172841e-03 1.48148146e-02 1.97530864e-03
      4.32098750e-03 1.99999996e-02 9.50617250e-03 7.53086433e-03
      3.37037034e-02 5.88888898e-02 3.95061746e-02 1.10370368e-01
      5.06172851e-02 5.66666685e-02 2.49382723e-02 3.19753103e-02
      8.75308663e-02 1.06790125e-01 2.01234575e-02</_>
    <_>
      1.23294286e-01 7.87344500e-02 8.97234604e-02 8.12703744e-02
      4.00917754e-02 2.93442812e-02 4.49221097e-02 4.58881771e-03
      1.96836125e-02 4.21446674e-02 3.61067504e-02 1.26796281e-02
      3.71935740e-02 4.66127284e-02 2.27025729e-02 5.31336777e-02
      7.97005184e-03 3.58652323e-02 6.27943501e-03 2.12534722e-02
      7.51117021e-02 8.12703744e-02 1.00229438e-02</_>
    <_>
      1.13209873e-01 7.76543245e-02 1.72716051e-01 1.97777778e-01
      9.50617269e-02 2.62962971e-02 3.97530869e-02 2.09876546e-03
      1.29629625e-02 4.75308634e-02 3.27160507e-02 7.40740728e-03
      1.35802468e-02 2.09876541e-02 2.83950614e-03 2.61728391e-02
      4.81481478e-03 1.93827152e-02 3.45679023e-03 8.14814772e-03
      4.06172834e-02 2.95061730e-02 5.30864205e-03</_>
    <_>
      1.48641974e-01 8.56790096e-02 1.51851848e-01 1.23086423e-01
      4.59259264e-02 1.40740741e-02 1.91358030e-02 2.46913591e-03
      7.28395069e-03 4.27160487e-02 1.38271609e-02 8.27160478e-03
      4.82716039e-02 6.51851818e-02 1.30864196e-02 7.11111128e-02
      8.02469160e-03 2.37037037e-02 1.85185182e-03 4.81481478e-03
      6.66666701e-02 3.18518505e-02 2.46913591e-03</_>
    <_>
      9.96315181e-02 2.22505666e-02 6.36337847e-02 1.10969387e-01
      3.52891162e-02 1.72902495e-02 4.90362793e-02 1.00623583e-02
      4.40759622e-02 5.28628118e-02 7.97902495e-02 3.72732431e-02
      1.16921768e-01 5.39966002e-02 2.97619049e-02 4.45011333e-02
      7.36961467e-03 1.58730168e-02 5.81065752e-03 1.14795920e-02
      5.30045368e-02 3.65646258e-02 2.55102036e-03</_>
    <_>
      3.15761678e-02 3.14440466e-02 1.26568899e-01 1.38459504e-01
      6.05099760e-02 2.28563882e-02 3.14440466e-02 1.29475491e-02
      3.35579328e-02 4.42594811e-02 7.82137662e-02 5.86603247e-02
      1.38987973e-01 8.07240084e-02 2.08746195e-02 2.66878046e-02
      1.18906060e-02 1.33439023e-02 3.17082833e-03 4.35988884e-03
      1.62504949e-02 1.07015455e-02 2.51023914e-03</_>
    <_>
      1.81921467e-01 8.88776705e-02 7.63792470e-02 6.42595664e-02
      2.79005170e-02 1.11097088e-02 2.84055043e-02 3.15616722e-03
      1.30034089e-02 3.16879191e-02 1.71695501e-02 6.05984079e-03
      2.79005170e-02 2.77742706e-02 9.08976141e-03 5.21398820e-02
      1.61595754e-02 4.09039259e-02 1.42658753e-02 3.33291255e-02
      8.18078518e-02 1.09203383e-01 3.74952666e-02</_>
    <_>
      6.52173907e-02 8.97920597e-03 2.72920597e-02 7.04158768e-02
      4.20604907e-02 3.14272195e-02 6.68714568e-02 1.02788284e-02
      5.10396957e-02 1.06687143e-01 1.28426269e-01 3.78071852e-02
      1.30907372e-01 1.22873344e-01 1.94943286e-02 2.78827976e-02
      3.89886578e-03 8.03402625e-03 2.59924377e-03 3.89886578e-03
      2.65831761e-02 6.73440471e-03 5.90737269e-04</_>
    <_>
      5.97530864e-02 5.30864205e-03 1.56790130e-02 3.44444439e-02
      9.38271638e-03 6.29629614e-03 3.06172837e-02 5.67901228e-03
      1.77777782e-02 7.28395060e-02 7.13580251e-02 2.97530871e-02
      1.48148149e-01 1.32469133e-01 9.86419767e-02 1.44197524e-01
      3.62962969e-02 2.53086425e-02 9.75308660e-03 6.91358047e-03
      3.18518505e-02 6.91358047e-03 6.17283978e-04</_>
    <_>
      1.17014855e-01 1.96353093e-01 2.06859082e-01 1.51189476e-01
      8.10288638e-02 3.41746174e-02 3.17594483e-02 6.03791792e-03
      8.69460218e-03 8.45308509e-03 7.12474342e-03 2.29440886e-03
      7.12474342e-03 1.11097693e-02 4.22654254e-03 1.40079698e-02
      3.13971750e-03 8.93611927e-03 5.79640130e-03 9.53991059e-03
      2.88612489e-02 3.91257107e-02 1.71476882e-02</_>
    <_>
      8.48377720e-02 4.87312190e-02 8.55952501e-02 1.16525695e-01
      8.93826559e-02 4.88574691e-02 7.81466961e-02 1.10592097e-01
      8.62264857e-02 4.89837155e-02 1.88107565e-02 1.38871360e-03
      3.15616722e-03 2.01994693e-03 5.04986732e-04 5.55485440e-03
      7.57480098e-04 5.68110077e-03 1.13622018e-03 5.42860758e-03
      7.42330477e-02 7.32230768e-02 1.02259815e-02</_>
    <_>
      1.58512425e-02 1.52415785e-04 1.98140531e-03 6.24904735e-03
      2.59106839e-03 5.48696844e-03 2.14906260e-02 6.85871067e-03
      2.83493362e-02 5.45648523e-02 1.42356351e-01 9.83081833e-02
      3.49946648e-01 1.92653552e-01 4.26764227e-02 2.11857948e-02
      1.82898948e-03 2.43865256e-03 4.57247370e-04 0. 4.11522621e-03
      4.57247370e-04 0.</_>
    <_>
      6.59013614e-02 1.19047621e-02 2.01247167e-02 4.13832217e-02
      2.22505666e-02 1.58730168e-02 3.03287990e-02 6.37755124e-03
      2.32426301e-02 3.91156450e-02 6.46258518e-02 3.75566892e-02
      1.51927441e-01 1.33786842e-01 5.78231290e-02 9.76473913e-02
      3.04705221e-02 3.16043086e-02 1.26133785e-02 1.81405898e-02
      5.76814041e-02 2.62188204e-02 3.40136047e-03</_>
    <_>
      1.56985875e-03 1.08682527e-03 9.66066902e-04 1.81137549e-03
      2.29440886e-03 3.13971750e-03 5.55488467e-03 7.36626005e-03
      2.22195387e-02 4.80618291e-02 1.44427001e-01 2.12655470e-01
      3.03948790e-01 1.75582662e-01 3.69520597e-02 2.18572635e-02
      3.13971750e-03 2.05289223e-03 1.69061706e-03 1.20758358e-03
      1.44910032e-03 9.66066902e-04 0.</_>
    <_>
      7.60005042e-02 4.70900126e-02 6.62795082e-02 7.85254389e-02
      5.88309541e-02 4.99936864e-02 6.91831857e-02 3.39603573e-02
      7.19606131e-02 1.41522542e-01 1.70433030e-01 1.84320156e-02
      2.15881839e-02 7.70104770e-03 4.54488071e-03 1.48971090e-02
      1.89370033e-03 3.91364750e-03 0. 1.89370033e-03 3.09304371e-02
      2.79005170e-02 2.52493378e-03</_>
    <_>
      3.14440466e-02 4.67697196e-02 1.58145070e-01 7.26648197e-02
      3.42185237e-02 1.91570874e-02 2.89338082e-02 8.98401346e-03
      2.16673277e-02 2.25921515e-02 4.06922959e-02 5.13938442e-02
      1.55766949e-01 1.68978736e-01 4.98084277e-02 3.06513403e-02
      1.03051923e-02 8.85189604e-03 3.43506411e-03 5.41683193e-03
      1.26833133e-02 1.42687280e-02 3.17082833e-03</_>
    <_>
      4.30838987e-02 1.71201810e-01 3.78543079e-01 1.49092972e-01
      5.05952388e-02 1.87074821e-02 2.19671205e-02 7.36961467e-03
      8.64512473e-03 9.63718817e-03 1.88492071e-02 7.08616758e-03
      2.65022684e-02 1.33219957e-02 1.74319725e-02 1.96995456e-02
      6.94444450e-03 5.81065752e-03 1.55895692e-03 1.84240367e-03
      6.09410414e-03 1.07709747e-02 5.24376426e-03</_>
    <_>
      4.30864207e-02 4.93827160e-04 3.70370364e-03 1.30864196e-02
      1.58024691e-02 1.18518518e-02 2.45679021e-02 5.80246933e-03
      3.92592587e-02 8.12345669e-02 2.32098758e-01 1.34197533e-01
      2.72222221e-01 9.90123451e-02 6.66666683e-03 6.29629614e-03
      7.40740739e-04 9.87654319e-04 2.46913580e-04 2.46913580e-04
      7.65432091e-03 6.17283978e-04 1.23456790e-04</_>
    <_>
      9.38271582e-02 1.19506173e-01 2.80740738e-01 2.03456789e-01
      8.79012346e-02 2.40740739e-02 2.03703698e-02 2.46913591e-03
      8.39506183e-03 1.18518518e-02 1.03703700e-02 4.44444455e-03
      2.71604932e-03 2.46913591e-03 1.48148148e-03 8.76543205e-03
      3.95061728e-03 1.09876543e-02 1.97530864e-03 4.93827183e-03
      4.85185198e-02 4.14814800e-02 5.30864205e-03</_>
    <_>
      4.99936864e-02 3.00467107e-02 5.73159941e-02 8.45852792e-02
      8.35753083e-02 8.25653300e-02 1.30539075e-01 8.43327865e-02
      1.50359809e-01 9.56949890e-02 5.01199327e-02 8.33228137e-03
      1.18671888e-02 8.33228137e-03 2.14619376e-03 1.40133826e-02
      2.65118037e-03 6.43858081e-03 8.83726811e-04 3.02992039e-03
      2.56280769e-02 1.52758490e-02 2.27244035e-03</_>
    <_>
      5.76543212e-02 3.55555564e-02 8.95061716e-02 2.20617279e-01
      1.47654325e-01 7.64197558e-02 5.55555560e-02 1.12345675e-02
      3.14814821e-02 4.11111116e-02 4.38271612e-02 1.60493832e-02
      5.18518500e-02 2.51851846e-02 6.04938250e-03 2.34567896e-02
      3.20987660e-03 1.22222221e-02 1.35802466e-03 6.54320978e-03
      2.71604937e-02 1.61728393e-02 1.23456790e-04</_>
    <_>
      5.93827143e-02 2.96296296e-03 2.18518525e-02 3.11111119e-02
      1.12345675e-02 8.02469160e-03 2.83950623e-02 3.70370364e-03
      1.98765434e-02 5.66666685e-02 5.60493842e-02 1.43209873e-02
      1.08148150e-01 1.51358023e-01 8.01234543e-02 1.92098767e-01
      3.67901251e-02 4.50617298e-02 7.65432091e-03 1.02469139e-02
      3.72839496e-02 1.69135798e-02 7.40740739e-04</_>
    <_>
      1.40133826e-02 8.58477503e-03 8.33228137e-03 1.17409416e-02
      5.93359442e-03 7.95354135e-03 2.20931694e-02 2.07044557e-02
      5.95884360e-02 1.67150617e-01 3.09809357e-01 8.07978809e-02
      1.26246691e-01 5.50435558e-02 3.33291255e-02 3.40866037e-02
      7.06981448e-03 5.17611392e-03 2.65118037e-03 5.80734760e-03
      5.17611392e-03 6.18608762e-03 2.52493378e-03</_>
    <_>
      1.13622017e-01 8.28178227e-02 1.15515716e-01 1.35841429e-01
      1.23469256e-01 5.22661284e-02 4.38075997e-02 1.08572152e-02
      1.61595754e-02 3.92627195e-02 2.03257166e-02 5.17611392e-03
      1.54020954e-02 2.67642979e-02 1.70433018e-02 4.60800417e-02
      1.21196816e-02 1.71695501e-02 9.59474780e-03 9.21600778e-03
      3.90102267e-02 3.21929045e-02 1.62858218e-02</_>
    <_>
      1.61722004e-01 6.33758381e-02 8.38278010e-02 7.03194067e-02
      2.05782093e-02 1.02259815e-02 2.29768977e-02 3.53490724e-03
      1.57808363e-02 4.88574691e-02 3.16879191e-02 1.21196816e-02
      3.81264985e-02 4.45650816e-02 2.43656095e-02 9.00138840e-02
      1.52758490e-02 3.81264985e-02 1.00997351e-02 1.89370029e-02
      7.86516890e-02 7.28443414e-02 2.39868704e-02</_>
    <_>
      1.58317573e-02 2.35113427e-02 5.62381856e-02 4.37145568e-02
      2.15028357e-02 1.35869561e-02 1.57136098e-02 5.08034043e-03
      2.06758026e-02 2.62287334e-02 6.32088855e-02 1.18383743e-01
      2.53071845e-01 1.84664458e-01 6.71077520e-02 3.49716432e-02
      7.79773155e-03 5.78922499e-03 2.12665414e-03 4.25330829e-03
      8.27032141e-03 6.85255183e-03 1.41776935e-03</_>
    <_>
      1.17377125e-01 2.17365045e-02 5.07185124e-02 7.25757778e-02
      3.01895905e-02 1.66646540e-02 3.17594483e-02 3.62275098e-03
      2.74121482e-02 5.69979474e-02 8.01835507e-02 3.06726247e-02
      7.69230798e-02 5.36167137e-02 2.49969810e-02 6.04999401e-02
      1.12305274e-02 3.47784087e-02 7.84929376e-03 1.42494868e-02
      1.06267355e-01 6.62963390e-02 3.38123413e-03</_>
    <_>
      7.02866986e-02 2.28563882e-02 4.13528867e-02 7.45144635e-02
      5.61500862e-02 3.26331072e-02 5.95851503e-02 1.78359095e-02
      5.25829047e-02 1.16792180e-01 1.42158806e-01 3.65966447e-02
      9.19540226e-02 7.08151683e-02 1.91570874e-02 3.03871054e-02
      2.37812125e-03 1.67789664e-02 2.64235702e-03 5.81318559e-03
      2.43096836e-02 1.01730740e-02 2.24600337e-03</_>
    <_>
      9.55687389e-02 3.40866037e-02 6.16083816e-02 6.23658635e-02
      6.66582510e-02 5.40335812e-02 6.18608743e-02 6.35020807e-02
      1.24226741e-01 1.10465847e-01 4.33026142e-02 1.38871360e-03
      9.97348782e-03 1.99469756e-02 8.83726811e-04 3.06779444e-02
      2.52493378e-03 1.28771616e-02 6.31233444e-04 6.56482764e-03
      6.35020807e-02 6.82994574e-02 5.04986756e-03</_>
    <_>
      1.23173527e-01 1.74012795e-01 2.06738323e-01 1.53121606e-01
      8.68252590e-02 3.96087430e-02 2.70498730e-02 3.74350930e-03
      7.60777667e-03 1.28003862e-02 1.26796281e-02 3.13971750e-03
      8.09080992e-03 1.03852190e-02 5.19260950e-03 1.48532782e-02
      4.34730109e-03 6.88322680e-03 3.62275098e-03 9.66066867e-03
      2.57215314e-02 3.88841927e-02 2.18572635e-02</_>
    <_>
      5.72562367e-02 5.24376426e-03 1.24716554e-02 2.02664398e-02
      1.27551025e-02 1.37471659e-02 3.07539683e-02 4.81859408e-03
      2.26757377e-02 4.60600890e-02 7.62471631e-02 5.39966002e-02
      2.13577092e-01 1.72902495e-01 6.94444478e-02 9.72222239e-02
      7.36961467e-03 3.25963721e-02 2.97619053e-03 1.02040814e-02
      2.12585032e-02 1.45975053e-02 1.55895692e-03</_>
    <_>
      3.99659872e-02 6.09410414e-03 2.01247167e-02 2.32426301e-02
      1.30385486e-02 8.07823148e-03 1.57312918e-02 8.07823148e-03
      1.36054419e-02 4.47845794e-02 4.91780043e-02 7.27040842e-02
      1.89058959e-01 2.36252829e-01 1.20890021e-01 7.89399073e-02
      2.02664398e-02 1.17630381e-02 5.66893443e-03 2.69274367e-03
      1.31802717e-02 6.23582769e-03 4.25170059e-04</_>
    <_>
      1.05920970e-01 6.77944720e-02 9.69574526e-02 1.00871101e-01
      5.70635013e-02 5.87047078e-02 1.80406511e-01 6.16083816e-02
      5.26448674e-02 4.75950018e-02 2.86579970e-02 6.43858081e-03
      7.70104770e-03 9.21600778e-03 2.52493378e-03 1.60333291e-02
      1.64120691e-03 1.07309679e-02 1.64120691e-03 1.13622015e-02
      3.06779444e-02 3.45915928e-02 9.21600778e-03</_>
    <_>
      1.49097338e-01 1.47077397e-01 1.69296801e-01 1.10465847e-01
      4.41863388e-02 1.64120700e-02 1.61595754e-02 2.90367380e-03
      7.32230768e-03 1.65383164e-02 1.61595754e-02 5.17611392e-03
      1.28771616e-02 1.71695501e-02 7.70104770e-03 2.55018305e-02
      9.34225507e-03 2.03257166e-02 5.30236075e-03 1.31296553e-02
      9.22863260e-02 7.18343630e-02 2.37343777e-02</_>
    <_>
      1.19550778e-02 6.40019309e-03 8.21156893e-03 2.12534722e-02
      3.96087430e-02 4.04540524e-02 7.98212811e-02 5.63941561e-02
      1.14720441e-01 1.54691458e-01 2.24731311e-01 9.56406221e-02
      7.45079070e-02 3.48991677e-02 1.29211452e-02 1.07474942e-02
      1.08682527e-03 1.44910032e-03 1.81137549e-03 1.56985875e-03
      3.01895896e-03 2.89820065e-03 1.20758358e-03</_>
    <_>
      8.61728415e-02 3.17283943e-02 1.08765431e-01 1.63209870e-01
      1.16296299e-01 4.54320982e-02 5.43209873e-02 7.40740728e-03
      1.97530873e-02 6.96296319e-02 7.53086433e-02 2.08641980e-02
      4.76543196e-02 3.83950621e-02 1.44444443e-02 2.65432093e-02
      5.43209864e-03 7.90123455e-03 1.11111114e-03 5.43209864e-03
      3.34567912e-02 2.03703698e-02 3.70370370e-04</_>
    <_>
      1.59828305e-01 1.08824641e-01 1.45057440e-01 1.24100491e-01
      4.49438207e-02 1.80532765e-02 2.20931694e-02 1.51496020e-03
      8.20603501e-03 2.15881839e-02 1.51496027e-02 1.13622015e-02
      1.51496027e-02 1.56545900e-02 1.14884488e-02 2.91629843e-02
      6.18608762e-03 1.90632492e-02 3.91364750e-03 1.38871353e-02
      8.07978809e-02 1.08067162e-01 1.59070827e-02</_>
    <_>
      1.54085876e-02 1.21191132e-03 1.55817170e-03 2.94321333e-03
      1.73130189e-04 3.46260378e-04 2.42382265e-03 1.38504151e-03
      6.05955673e-03 2.21606642e-02 3.16828266e-02 3.98199446e-02
      1.92867041e-01 2.76662052e-01 1.67936295e-01 1.32098332e-01
      4.58795018e-02 2.18144041e-02 9.34903044e-03 1.24653736e-02
      9.34903044e-03 5.71329659e-03 6.92520756e-04</_>
    <_>
      6.88888878e-02 5.28395064e-02 1.26049384e-01 2.51975298e-01
      1.41358018e-01 6.45679012e-02 7.23456815e-02 1.17283948e-02
      2.55555548e-02 3.74074057e-02 3.46913598e-02 5.80246933e-03
      1.35802468e-02 1.41975312e-02 1.11111114e-03 1.09876543e-02
      8.64197558e-04 7.65432091e-03 1.11111114e-03 5.43209864e-03
      3.22222225e-02 1.91358030e-02 4.93827160e-04</_>
    <_>
      9.60028991e-02 1.15928026e-02 3.46576497e-02 4.66127284e-02
      1.53363124e-02 5.79640130e-03 2.66875979e-02 2.17365054e-03
      1.71476882e-02 5.78432567e-02 5.07185124e-02 2.11327132e-02
      9.18971151e-02 1.02523848e-01 5.15638217e-02 1.22690499e-01
      2.43931897e-02 5.09600304e-02 1.25588700e-02 3.12764160e-02
      8.27194750e-02 4.14201170e-02 2.29440886e-03</_>
    <_>
      1.68337151e-01 2.13742301e-01 1.67612612e-01 1.14237413e-01
      4.69750017e-02 1.20758358e-02 1.37664536e-02 1.93213380e-03
      5.67564322e-03 1.49740372e-02 9.90218576e-03 1.44910032e-03
      9.17763542e-03 1.38872117e-02 6.03791792e-03 1.72684453e-02
      6.03791792e-03 1.55778285e-02 4.46805963e-03 1.49740372e-02
      5.31336777e-02 6.72624111e-02 2.14949884e-02</_>
    <_>
      1.14567898e-01 1.53086418e-02 3.80246900e-02 6.14814833e-02
      3.91358025e-02 2.34567896e-02 4.53086421e-02 2.59259250e-03
      2.29629632e-02 6.77777752e-02 5.49382716e-02 1.18518518e-02
      8.95061716e-02 1.01604939e-01 5.16049378e-02 8.90123472e-02
      1.48148146e-02 3.06172837e-02 3.45679023e-03 7.16049364e-03
      8.17283913e-02 3.23456787e-02 7.40740739e-04</_>
    <_>
      5.92403635e-02 1.91184804e-01 3.74858290e-01 1.67800456e-01
      4.76190485e-02 1.44557822e-02 1.70068033e-02 5.38548734e-03
      1.31802717e-02 8.07823148e-03 7.22789112e-03 9.92063549e-04
      4.96031763e-03 9.07029491e-03 3.68480734e-03 1.47392293e-02
      4.81859408e-03 9.35374107e-03 2.97619053e-03 6.51927432e-03
      1.31802717e-02 1.62981860e-02 7.36961467e-03</_>
    <_>
      1.84964985e-02 5.28471405e-03 1.12300171e-02 3.35579328e-02
      4.72981893e-02 6.27559796e-02 8.24415386e-02 4.82230149e-02
      1.31060913e-01 1.02127098e-01 2.14163035e-01 6.85691610e-02
      1.08072400e-01 3.81820574e-02 6.60589244e-03 9.24824923e-03
      9.24824970e-04 5.28471370e-04 6.60589256e-04 1.45329640e-03
      4.88836039e-03 3.17082833e-03 1.05694274e-03</_>
    <_>
      7.44328927e-03 7.08884676e-04 2.95368629e-03 7.32514169e-03
      2.95368629e-03 3.89886578e-03 8.15217383e-03 1.77221175e-03
      1.15784500e-02 2.35113427e-02 5.45841195e-02 5.02126664e-02
      2.23416820e-01 3.36838365e-01 1.54418722e-01 7.62051046e-02
      1.16965976e-02 9.92438570e-03 2.83553870e-03 2.59924377e-03
      5.43478271e-03 1.53591682e-03 0.</_>
    <_>
      6.35802448e-02 2.46913580e-04 1.16049387e-02 2.01234575e-02
      9.01234522e-03 4.69135819e-03 1.25925923e-02 9.87654319e-04
      7.16049364e-03 5.04938290e-02 4.90123443e-02 1.90123450e-02
      1.08641975e-01 1.72716051e-01 7.82716051e-02 1.95432097e-01
      6.08641990e-02 4.50617298e-02 1.48148146e-02 1.69135798e-02
      3.86419743e-02 1.99999996e-02 1.23456790e-04</_>
    <_>
      1.17860161e-01 1.34524822e-01 1.66888058e-01 1.44789279e-01
      8.23572055e-02 3.32085490e-02 3.44161317e-02 7.48701859e-03
      1.71476882e-02 1.56985875e-02 1.60608627e-02 3.38123413e-03
      1.49740372e-02 1.38872117e-02 7.36626005e-03 1.64231379e-02
      8.09080992e-03 1.59401037e-02 7.36626005e-03 1.59401037e-02
      4.38352861e-02 6.72624111e-02 1.50947953e-02</_>
    <_>
      1.01628579e-01 2.99204644e-02 8.53427574e-02 7.29705840e-02
      3.13091800e-02 2.84055043e-02 6.11033961e-02 3.14354263e-02
      6.13558888e-02 1.29907846e-01 1.81795225e-01 3.04254517e-02
      1.69170555e-02 1.74220428e-02 6.18608762e-03 1.14884488e-02
      1.38871360e-03 7.82729499e-03 6.31233444e-04 5.42860758e-03
      5.39073348e-02 3.08041908e-02 2.39868695e-03</_>
    <_>
      8.39002281e-02 2.70691607e-02 4.09580506e-02 5.79648539e-02
      2.22505666e-02 1.51643995e-02 3.17460336e-02 3.40136047e-03
      1.84240360e-02 3.81235816e-02 4.76190485e-02 3.69897969e-02
      1.19897962e-01 9.01360512e-02 5.17290235e-02 9.65136066e-02
      2.31009070e-02 4.67687063e-02 9.63718817e-03 2.06916109e-02
      6.17913827e-02 5.18707484e-02 4.25170083e-03</_>
    <_>
      1.37785286e-01 1.89228356e-01 1.95024759e-01 1.16531819e-01
      4.27484587e-02 2.20987797e-02 3.05518657e-02 3.38123413e-03
      1.63023788e-02 2.01666467e-02 1.20758358e-02 2.53592571e-03
      6.76246826e-03 1.28003862e-02 4.46805963e-03 1.96836125e-02
      6.76246826e-03 1.26796281e-02 7.97005184e-03 1.79929957e-02
      4.31107357e-02 6.23113140e-02 1.70269292e-02</_>
    <_>
      4.05601785e-02 2.57629808e-02 9.11613181e-02 4.38631251e-02
      1.78359095e-02 1.42687280e-02 3.11798118e-02 1.36081381e-02
      3.77857052e-02 8.07240084e-02 1.27361611e-01 7.31932893e-02
      1.74395561e-01 1.25776187e-01 3.10476944e-02 4.20134775e-02
      5.28471405e-03 5.41683193e-03 2.37812125e-03 2.77447491e-03
      8.45554192e-03 4.09565354e-03 1.05694274e-03</_>
    <_>
      8.56994465e-02 1.24653736e-02 1.88711919e-02 1.66204982e-02
      6.75207749e-03 3.80886416e-03 6.40581734e-03 1.73130189e-04
      2.77008303e-03 3.65304723e-02 2.52770092e-02 4.67451522e-03
      3.27216052e-02 7.66966790e-02 8.18905830e-02 1.48199439e-01
      5.33240996e-02 9.22783911e-02 2.56232694e-02 8.79501402e-02
      8.74307454e-02 8.29293653e-02 1.09072020e-02</_>
    <_>
      1.42011836e-01 8.89989138e-02 1.19913056e-01 8.04250687e-02
      2.22195387e-02 9.53991059e-03 1.60608627e-02 2.05289223e-03
      5.43412613e-03 1.99251305e-02 1.11097693e-02 5.67564322e-03
      2.40309145e-02 2.91027650e-02 2.18572635e-02 5.94131127e-02
      1.60608627e-02 3.11556570e-02 1.44910039e-02 3.01895905e-02
      9.66066867e-02 1.24018840e-01 2.97065563e-02</_>
    <_>
      1.24501869e-01 4.96316887e-02 3.26047577e-02 2.69291140e-02
      8.93611927e-03 4.10578446e-03 8.93611927e-03 1.32834201e-03
      8.21156893e-03 2.46347059e-02 2.43931897e-02 1.32834194e-02
      5.31336777e-02 6.11037314e-02 4.61296961e-02 1.25226423e-01
      4.19031531e-02 5.44620231e-02 2.23402977e-02 3.84011604e-02
      7.55947381e-02 1.24622628e-01 2.95857992e-02</_>
    <_>
      1.05905086e-01 2.82574575e-02 7.86136910e-02 1.19550779e-01
      5.56696057e-02 4.29899767e-02 6.08622134e-02 1.31626613e-02
      5.03562354e-02 8.74290541e-02 1.24501869e-01 3.84011604e-02
      4.34730090e-02 1.82345118e-02 6.40019309e-03 1.73892044e-02
      3.86426761e-03 1.38872117e-02 1.20758358e-03 6.76246826e-03
      5.16845807e-02 2.47554649e-02 6.64170971e-03</_>
    <_>
      2.78626442e-01 1.71569243e-01 1.50991037e-01 7.41068050e-02
      2.20931694e-02 5.17611392e-03 7.70104770e-03 6.31233444e-04
      3.02992039e-03 1.83057692e-02 1.09834615e-02 1.76745362e-03
      7.95354135e-03 9.97348782e-03 6.18608762e-03 1.42658753e-02
      3.78740067e-03 1.03522278e-02 9.46850143e-03 1.93157438e-02
      6.40070662e-02 8.83726776e-02 2.13356894e-02</_>
    <_>
      2.70083100e-02 3.46260378e-03 8.82964022e-03 9.52216052e-03
      7.96398893e-03 5.54016605e-03 4.50138515e-03 8.65650945e-04
      1.73130189e-03 1.76592804e-02 4.84764529e-03 1.12534622e-02
      5.21121882e-02 1.20498613e-01 1.61703601e-01 2.03254849e-01
      9.08933505e-02 8.44875351e-02 5.97299151e-02 3.73961218e-02
      4.91689742e-02 3.51454280e-02 2.42382265e-03</_>
    <_>
      1.53121606e-01 1.54329181e-01 1.17497884e-01 8.61007124e-02
      4.44390774e-02 2.28233300e-02 2.53592562e-02 3.62275098e-03
      6.52095163e-03 1.71476882e-02 1.35249365e-02 4.58881771e-03
      1.61816198e-02 1.56985875e-02 1.20758358e-02 3.04311067e-02
      9.17763542e-03 1.94420964e-02 1.05059771e-02 1.98043715e-02
      6.69001341e-02 1.20758362e-01 2.99480744e-02</_>
    <_>
      8.91301632e-02 2.46181041e-02 3.91364731e-02 7.00669140e-02
      4.98674400e-02 3.04254517e-02 5.02461828e-02 3.02992053e-02
      5.06249219e-02 1.61343262e-01 1.72074229e-01 3.66115384e-02
      3.00467107e-02 2.29768977e-02 6.05984079e-03 2.38606241e-02
      5.30236075e-03 1.62858218e-02 4.03989386e-03 5.04986756e-03
      3.97677049e-02 3.64852920e-02 5.68110077e-03</_>
    <_>
      1.03127643e-01 1.87175460e-02 5.55488467e-02 6.11037314e-02
      2.24610548e-02 1.59401037e-02 3.10348999e-02 6.64170971e-03
      2.02874057e-02 6.81077167e-02 5.84470481e-02 3.29670347e-02
      1.13392100e-01 9.35877338e-02 3.48991677e-02 7.95797631e-02
      7.24550197e-03 3.57444771e-02 1.81137549e-03 1.73892044e-02
      7.69230798e-02 4.28692177e-02 2.17365054e-03</_>
    <_>
      2.97942180e-02 5.30236075e-03 1.03522278e-02 1.56545900e-02
      9.21600778e-03 9.72099509e-03 3.19404118e-02 2.37343777e-02
      1.17156923e-01 2.19164252e-01 1.92652449e-01 5.04986756e-02
      1.26120433e-01 5.37810884e-02 2.38606241e-02 4.50700670e-02
      5.55485440e-03 8.58477503e-03 1.38871360e-03 2.14619376e-03
      9.84724145e-03 6.94356766e-03 1.51496020e-03</_>
    <_>
      1.83673471e-01 1.06508873e-01 9.18971151e-02 5.63941561e-02
      2.35478804e-02 8.69460218e-03 2.12534722e-02 3.50199244e-03
      5.31336805e-03 1.52155533e-02 9.29839350e-03 4.70957626e-03
      2.00458877e-02 2.66875979e-02 2.19780225e-02 6.85907528e-02
      1.79929957e-02 2.98273154e-02 1.41287288e-02 3.28462757e-02
      8.18741694e-02 1.19913056e-01 3.61067504e-02</_>
    <_>
      1.06408872e-01 5.54353707e-02 5.80043271e-02 6.69280663e-02
      2.31206063e-02 9.32936743e-03 1.56841539e-02 2.02812324e-03
      1.37912389e-02 3.33964303e-02 3.09626833e-02 1.09518655e-02
      5.32720387e-02 8.03136826e-02 4.96214181e-02 1.40886962e-01
      3.66414264e-02 5.94916157e-02 1.87939424e-02 2.21741479e-02
      5.70578687e-02 3.97512168e-02 1.59545708e-02</_>
    <_>
      1.28968256e-02 8.04988667e-02 2.95776635e-01 1.90051019e-01
      1.51502267e-01 5.64058945e-02 4.20918353e-02 1.64399091e-02
      2.82029472e-02 1.99829936e-02 3.57142873e-02 1.30385486e-02
      3.28798182e-02 7.65306130e-03 2.12585041e-03 3.96825420e-03
      1.13378686e-03 1.55895692e-03 1.41723358e-04 5.66893432e-04
      3.68480734e-03 2.83446722e-03 8.50340119e-04</_>
    <_>
      0. 0. 0. 0. 0. 0. 0. 1.29132226e-04 1.29132226e-04 1.67871895e-03
      7.48966960e-03 3.99018601e-02 3.72546494e-01 4.81792361e-01
      8.01911131e-02 9.94318165e-03 4.51962790e-03 1.16219011e-03
      3.87396693e-04 1.29132226e-04 0. 0. 0.</_>
    <_>
      7.20868558e-02 3.73690203e-02 4.93624546e-02 7.30968341e-02
      4.21663933e-02 2.97942180e-02 4.70900126e-02 1.94419902e-02
      4.65850271e-02 6.81732073e-02 1.15768209e-01 4.64587808e-02
      7.33493268e-02 6.91831857e-02 2.91629843e-02 6.33758381e-02
      1.66645627e-02 2.15881839e-02 6.56482764e-03 9.72099509e-03
      2.70167906e-02 2.34818831e-02 1.24984216e-02</_>
    <_>
      1.95682365e-02 2.66380515e-02 1.33821487e-01 2.31157675e-01
      1.48718596e-01 4.05251868e-02 4.62062880e-02 2.17144303e-02
      4.64587808e-02 6.35020807e-02 1.07435927e-01 4.26713787e-02
      3.16879191e-02 1.16146952e-02 2.77742720e-03 6.81732083e-03
      1.00997346e-03 2.39868695e-03 1.26246689e-03 1.00997346e-03
      7.82729499e-03 4.29238752e-03 8.83726811e-04</_>
    <_>
      1.23456790e-04 2.46913580e-04 1.23456790e-04 0. 0. 3.70370370e-04
      4.93827160e-04 1.11111114e-03 3.33333341e-03 4.81481478e-03
      4.37037051e-02 1.47037044e-01 2.30617285e-01 4.92839515e-01
      6.55555576e-02 9.25925933e-03 2.46913580e-04 1.23456790e-04 0. 0.
      0. 0. 0.</_>
    <_>
      2.04293635e-02 3.46260378e-03 1.12534622e-02 9.52216052e-03
      4.32825508e-03 1.21191132e-03 5.02077583e-03 3.46260378e-04
      5.02077583e-03 1.99099723e-02 2.45844871e-02 2.33725756e-02
      1.05609417e-01 1.63954288e-01 1.55124649e-01 1.84903041e-01
      7.28878081e-02 4.69182841e-02 2.11218838e-02 2.44113579e-02
      4.86495830e-02 4.60526310e-02 1.90443208e-03</_>
    <_>
      1.06150791e-01 3.14625837e-02 6.85941055e-02 5.15873022e-02
      1.17630381e-02 7.08616758e-03 3.23129259e-02 3.40136047e-03
      1.82823129e-02 5.99489808e-02 5.78231290e-02 1.45975053e-02
      8.51757377e-02 7.10033998e-02 5.05952388e-02 8.30498859e-02
      1.51643995e-02 3.17460336e-02 8.21995456e-03 2.05498859e-02
      8.00736994e-02 8.39002281e-02 7.51133775e-03</_>
    <_>
      1.91358030e-02 2.46913580e-04 7.40740739e-04 4.93827183e-03
      4.32098750e-03 7.16049364e-03 1.40740741e-02 6.79012341e-03
      2.56790128e-02 4.30864207e-02 1.48271605e-01 1.01234570e-01
      2.88395047e-01 1.70740739e-01 6.45679012e-02 7.16049373e-02
      9.75308660e-03 7.40740728e-03 0. 8.64197558e-04 9.01234522e-03
      1.97530864e-03 0.</_>
    <_>
      6.53086454e-02 4.07407386e-03 1.49382716e-02 3.44444439e-02
      1.86419748e-02 1.35802468e-02 3.13580260e-02 2.22222228e-03
      2.66666673e-02 7.33333305e-02 1.04567900e-01 4.41975296e-02
      1.80493832e-01 1.56049386e-01 6.96296319e-02 9.37037021e-02
      8.64197500e-03 2.53086425e-02 9.87654319e-04 4.93827183e-03
      2.27160491e-02 3.82716046e-03 3.70370370e-04</_>
    <_>
      1.97702304e-01 1.96944833e-01 2.42393643e-01 1.47456124e-01
      3.82527448e-02 8.58477503e-03 1.33821489e-02 5.04986732e-04
      8.20603501e-03 2.24719103e-02 1.14884488e-02 5.04986732e-04
      1.76745362e-03 4.16614069e-03 5.04986732e-04 8.83726776e-03
      4.03989386e-03 1.08572152e-02 4.41863388e-03 6.31233444e-03
      3.20666581e-02 2.73955315e-02 1.17409416e-02</_>
    <_>
      3.50556313e-03 0. 2.13382114e-03 3.20073171e-03 6.09663140e-04
      1.82898948e-03 4.11522621e-03 3.04831570e-04 9.60219465e-03
      1.72229838e-02 7.55982324e-02 9.99847576e-02 3.47508013e-01
      3.26322198e-01 6.96540177e-02 3.30742262e-02 1.52415794e-03
      1.06691057e-03 3.04831570e-04 4.57247370e-04 1.52415794e-03
      3.04831570e-04 1.52415785e-04</_></support_vectors>
  <decision_functions>
    <_>
      <sv_count>206</sv_count>
      <rho>-6.2746190042638883e+00</rho>
      <alpha>
        1.7802926336085304e+02 1000. 1000. 8.0059982145952677e+02
        8.2500730108487545e+01 1000. 6.6687201397502986e+02
        5.9051967269641432e+02 1.4391886568908791e+02
        5.8705517920896693e+02 6.8770674281495326e+02 1000.
        2.6212058788913731e+02 6.0426876505283008e+02 1000.
        4.3874328151628561e+02 4.9450062513375644e+02
        4.2045932315150628e+02 1000. 1.5354647684574013e+02
        1.1940405593283252e+02 6.0321663489713342e+02 1000.
        7.9266799972771537e+02 1.4187944461205561e+02 1000. 1000.
        2.8921632347531467e+01 2.0959110485146164e+02 1000.
        4.8253979721897457e+02 8.9771385454792062e+02 1000. 1000.
        5.6189448710728072e+02 5.0497723836606241e+02 1000.
        6.2805115690170362e+02 1000. 7.3260434073787189e+02 1000.
        2.2380685254949418e+02 1000. 2.2362272722693169e+02
        3.1305372261098307e+02 1.0404636642843511e+02
        6.9688008710516806e+02 1000. 1000. 1.1907947228814022e+01
        4.6341187564982727e+02 1000. 9.1999602140758566e+02
        9.2896407405024519e+01 9.3923895943750097e+01
        2.0405816351172746e+01 4.6542127015918595e+01
        8.9894357844770161e+02 2.2252504574366631e+02
        1.1827656093945090e+02 6.0119670329579515e+02
        9.3869763264136452e+02 2.3019782010666131e+02
        8.6294440411260985e+02 1000. 1000. 4.4573874535378991e+02
        4.6026583289896917e+02 3.6573219188263096e+02
        1.4461511420523851e+02 3.8632805653282713e+02
        2.7777146351361273e+02 2.4329397862111895e+02
        1.3906940708582400e+02 2.8569211874234295e+01 1000.
        3.1890389646459244e+02 1000. 1000. 9.9013443363099520e+02
        5.3038869994704740e+01 1.5462509923936165e+02
        4.3449520745609550e+02 3.6363168680541611e+02 1000.
        9.2660383690821379e+02 2.4638703587549273e+02
        6.8109510383513964e+02 1000. 4.1240893582646760e+02
        5.4510033765574303e+02 8.0986706811223314e+01
        4.4094481248540099e+01 6.6060037923866560e+02
        4.9843716628634382e+02 1000. -4.4572702548292528e+02
        -5.2249813149206670e+02 -3.0217695783259182e+02
        -8.7019681865927123e+02 -2.7869591555923841e+02
        -2.8974181393409967e+01 -1000. -4.4143725060956257e+02 -1000.
        -6.0444387080896126e+02 -2.9557134289531979e+02
        -1.5565340800667673e+02 -1000. -3.6186401156819579e+02
        -1.2920251419656728e+02 -3.0904557843126520e+02
        -2.4080797872644018e+02 -9.5168508155014501e+02 -1000.
        -3.1417075434326090e+01 -3.8274707946167024e+02
        -6.0432362265917888e+01 -9.7319071919753208e+02
        -2.2182974312178860e+02 -6.9235897608933271e+02
        -5.3077732221308054e+02 -1.2149314130516542e+02 -1000.
        -1.9526137418445867e+02 -2.1533916841192280e+02
        -9.4867558928533384e+01 -1000. -1.6451946936798487e+02
        -5.6578846642328381e+02 -1.4484731073625110e+02
        -8.0407261201018389e+02 -3.9355184554258051e+02
        -2.5481683865086698e+01 -1000. -2.0418287019523925e+02
        -8.1533147352928609e+02 -1.3126999958922036e+02 -1000.
        -4.6944179852495330e+02 -1000. -1000. -2.0685089973968452e+01
        -2.2328862321572906e+01 -1.6531138973442793e+02 -1000.
        -2.0831866255681817e+02 -3.3542603752522659e+01
        -2.7099467580417183e+02 -2.1149330978104459e+02 -1000. -1000.
        -1.7427628114133785e+01 -1000. -4.6711400538688179e+02
        -7.4892095230955761e+02 -8.6298357977341766e+02
        -9.0658590471346248e+00 -1000. -1000. -1.4252052466131354e+02
        -5.6904452745189792e+02 -1000. -1.2694659407681690e+00
        -1.7143383438032910e+02 -8.6911909607512075e+02
        -3.9152283058799776e+02 -5.2908668453563780e+02 -1000.
        -2.5091924716722187e+02 -1000. -1000. -1000.
        -1.0372637888404546e+02 -1000. -4.4394842933144287e+02
        -2.9646465997680968e+02 -7.4472188529528239e+01 -1000.
        -2.6772502340768261e+02 -1.0120516173262993e+02 -1000.
        -1.5130968482211762e+02 -9.7363089817078556e+00
        -2.7442297775047905e+02 -3.0961194689390521e+01 -1000.
        -1.6872413915144159e+02 -3.9274824662424595e+02 -1000.
        -9.9267047732358719e+01 -2.2646880540418539e+02
        -5.0255569206631094e+02 -1.0123210842563141e+02
        -4.7678780219484440e+02 -2.0834379256450364e+02
        -5.2436219666397847e+02 -8.0468901414406571e+02
        -4.0802488693905040e+01 -2.5473676081883943e+02
        -2.0530920439756466e+02 -1000. -1000. -1000.
        -4.5942602019868013e+02 -4.4079559345395830e+02</alpha>
      <index>
        0 1 2 3 4 5 6 7 8 9 10 11 12 13 14 15 16 17 18 19 20 21 22 23 24
        25 26 27 28 29 30 31 32 33 34 35 36 37 38 39 40 41 42 43 44 45
        46 47 48 49 50 51 52 53 54 55 56 57 58 59 60 61 62 63 64 65 66
        67 68 69 70 71 72 73 74 75 76 77 78 79 80 81 82 83 84 85 86 87
        88 89 90 91 92 93 94 95 96 97 98 99 100 101 102 103 104 105 106
        107 108 109 110 111 112 113 114 115 116 117 118 119 120 121 122
        123 124 125 126 127 128 129 130 131 132 133 134 135 136 137 138
        139 140 141 142 143 144 145 146 147 148 149 150 151 152 153 154
        155 156 157 158 159 160 161 162 163 164 165 166 167 168 169 170
        171 172 173 174 175 176 177 178 179 180 181 182 183 184 185 186
        187 188 189 190 191 192 193 194 195 196 197 198 199 200 201 202
        203 204 205</index></_></decision_functions></my_svm>
</opencv_storage>
