<?xml version="1.0"?>
<opencv_storage>
<my_svm type_id="opencv-ml-svm">
  <svm_type>C_SVC</svm_type>
  <kernel><type>LINEAR</type></kernel>
  <C>1.</C>
  <term_criteria><epsilon>1.0000000474974513e-03</epsilon>
    <iterations>100000</iterations></term_criteria>
  <var_all>180</var_all>
  <var_count>180</var_count>
  <class_count>2</class_count>
  <class_labels type_id="opencv-matrix">
    <rows>1</rows>
    <cols>2</cols>
    <dt>i</dt>
    <data>
      -1 1</data></class_labels>
  <sv_total>1</sv_total>
  <support_vectors>
    <_>
      4.75160694e+00 -7.91790867e+00 -6.19514561e+00 -1.22264695e+00
      -8.44153404e+00 6.19879067e-01 3.13961220e+00 -2.73748708e+00
      2.97008467e+00 -2.78061688e-01 3.31943065e-01 8.64546394e+00
      3.72106504e+00 5.95912266e+00 5.72695684e+00 5.92797661e+00
      3.55994201e+00 7.02498341e+00 4.02795076e+00 6.41669035e+00
      5.03803778e+00 4.74711657e+00 6.28945446e+00 -2.16228628e+00
      4.67138529e+00 2.95938444e+00 6.50309467e+00 -1.67154491e+00
      1.19109273e+00 2.17379618e+00 3.57653999e+00 4.06642169e-01
      6.91323566e+00 5.48034787e-01 4.29165888e+00 6.10970116e+00
      4.37526512e+00 2.04028583e+00 1.13345933e+00 1.46018755e+00
      5.40558052e+00 1.64188242e+00 5.74915314e+00 8.01266956e+00
      1.91549778e+00 1.36268595e-02 2.57203436e+00 3.91495526e-01
      4.27156639e+00 5.49566150e-01 5.43670511e+00 8.00668335e+00
      1.92220294e+00 -8.70001614e-01 -6.59665763e-01 2.90715933e+00
      4.21882439e+00 8.64386559e-03 -9.98360664e-02 6.97281137e-02
      -2.32865429e+00 2.27805413e-02 -4.73253071e-01 -3.57109725e-01
      -1.58134744e-01 -1.23600316e+00 7.09411240e+00 -1.64818442e+00
      -3.68161058e+00 -3.23373437e+00 3.36006188e+00 -1.78712523e+00
      -2.06831384e+00 -1.17570210e+00 -9.06719303e+00 6.84792328e+00
      -4.44625568e+00 -2.99029875e+00 -3.48867267e-01 -8.65548801e+00
      -7.08986998e+00 -1.97667527e+00 -1.36740196e+00 8.14790249e+00
      -1.09719467e+01 -7.36492348e+00 -2.24383473e+00 -1.53660545e+01
      -4.04659891e+00 -2.03629541e+00 -2.41640720e+01 -3.31645012e+00
      -5.43283463e+00 -8.36915970e+00 -2.89213490e+00 -1.36989470e+01
      3.57495356e+00 -1.91669190e+00 -3.38328862e+00 -1.60592186e+00
      4.14417267e-01 3.80591011e+00 3.42744374e+00 7.13334370e+00
      8.18280602e+00 1.38071165e+01 5.25747633e+00 3.23505235e+00
      1.55723140e-01 4.20588970e-01 8.34069347e+00 -9.44390965e+00
      -6.89198828e+00 -7.77622366e+00 4.08174849e+00 -2.40820622e+00
      -9.69398880e+00 -4.38822210e-01 -1.10805881e+00 -7.84805179e-01
      2.46060252e+00 -8.75099972e-02 -3.21279263e+00 -9.56917584e-01
      -4.63810015e+00 -6.65602255e+00 6.49937105e+00 -1.22118711e+00
      -3.45406795e+00 -1.47912002e+00 -3.39784622e+00 -6.08324230e-01
      1.42639863e+00 -3.67422915e+00 -5.58193147e-01 -2.00466156e+00
      -1.53096998e+00 -2.53050774e-01 -3.06401825e+00 -4.28408176e-01
      6.53021479e+00 -1.80700839e+00 -1.24470198e+00 -5.14472425e-01
      -8.10448170e-01 4.06376123e-01 -1.30092371e+00 -7.63652861e-01
      -4.01784867e-01 -1.35941550e-01 -3.57858801e+00 -5.69799319e-02
      -4.29966211e-01 -8.57709169e-01 -6.12850338e-02 -5.14195025e-01
      3.80615044e+00 -3.97778928e-01 -3.92235637e-01 -4.37049180e-01
      2.05362725e+00 -1.07049063e-01 -5.16780317e-02 7.70477295e-01
      -1.88295424e-01 3.66683054e+00 -1.40469581e-01 -2.03252584e-02
      -1.57836601e-01 3.73705685e-01 4.73229980e+00 -3.92410666e-01
      -1.35346007e+00 3.27988958e+00 -4.12728024e+00 -3.27938938e+00
      -3.28519368e+00 2.02504218e-01 -3.15371060e+00 -4.97478056e+00</_></support_vectors>
  <decision_functions>
    <_>
      <sv_count>1</sv_count>
      <rho>3.2911183165743081e+00</rho>
      <alpha>
        1.</alpha>
      <index>
        0</index></_></decision_functions></my_svm>
</opencv_storage>
