<?xml version="1.0"?>
<opencv_storage>
<my_svm type_id="opencv-ml-svm">
  <svm_type>C_SVC</svm_type>
  <kernel><type>RBF</type>
    <gamma>10.</gamma></kernel>
  <C>100000.</C>
  <term_criteria><epsilon>9.9999999747524271e-07</epsilon>
    <iterations>1000000</iterations></term_criteria>
  <var_all>90</var_all>
  <var_count>90</var_count>
  <class_count>2</class_count>
  <class_labels type_id="opencv-matrix">
    <rows>1</rows>
    <cols>2</cols>
    <dt>i</dt>
    <data>
      -1 1</data></class_labels>
  <sv_total>595</sv_total>
  <support_vectors>
    <_>
      7.73891956e-02 1.90443208e-03 4.15512454e-03 7.73891956e-02
      1.31578948e-02 5.45360111e-02 8.93351808e-02 6.92520756e-03
      2.40650978e-02 5.12465388e-02 7.89473653e-02 2.82202214e-02
      7.16758966e-02 1.76592804e-02 1.73130189e-03 6.42312989e-02
      5.36703598e-03 3.42797786e-02 2.07756236e-02 3.11634340e-03
      4.15512454e-03 2.31994465e-02 1.38504151e-03 0. 0. 1.74861494e-02
      5.19390567e-04 4.32825508e-03 1.38504151e-03 0. 6.92520756e-04
      6.92520756e-04 0. 5.36703598e-03 0. 1.38504151e-03 0.
      8.82964022e-03 0. 0. 1.03878113e-03 5.54016605e-03 0. 0. 0. 0. 0.
      0. 8.65650945e-04 0. 0. 1.73130189e-04 0. 0. 0. 1.55817170e-03 0.
      5.19390567e-04 0. 0. 2.94321333e-03 0. 1.73130189e-04
      8.65650945e-04 0. 0. 1.21191132e-03 0. 0. 0. 7.79085886e-03 0.
      2.07756227e-03 0. 0. 5.19390567e-04 3.46260378e-04 6.92520756e-04
      6.40581734e-03 1.55817170e-03 5.71329659e-03 4.50138515e-03
      3.65304723e-02 1.73130189e-04 5.88642666e-03 5.19390590e-02
      4.06855941e-02 8.65650945e-04 2.38919668e-02 0.</_>
    <_>
      6.24921098e-02 9.08976141e-03 1.43921226e-02 7.19606131e-02
      2.04519629e-02 5.23923747e-02 1.05668478e-01 2.41131168e-02
      5.47910631e-02 5.81997223e-02 1.00366116e-01 3.68640311e-02
      7.18343630e-02 1.18671888e-02 7.57480098e-04 4.11564186e-02
      3.53490724e-03 2.58805715e-02 1.83057692e-02 1.00997346e-03
      7.57480098e-04 6.81732083e-03 2.52493366e-04 7.57480098e-04
      1.38871360e-03 8.83726776e-03 2.52493366e-04 2.01994693e-03
      1.00997346e-03 0. 6.31233444e-04 2.52493366e-04 1.26246683e-04
      3.02992039e-03 2.52493366e-04 1.13622018e-03 7.57480098e-04
      4.41863388e-03 0. 0. 6.31233444e-04 2.14619376e-03 0. 0. 0. 0. 0.
      0. 1.13622018e-03 0. 0. 5.04986732e-04 0. 0. 2.52493366e-04
      1.76745362e-03 0. 1.51496020e-03 0. 0. 5.30236075e-03 0. 0.
      4.54488071e-03 0. 0. 2.52493378e-03 0. 0. 1.26246683e-04
      6.56482764e-03 2.52493366e-04 1.00997346e-03 5.04986732e-04 0.
      1.26246689e-03 0. 0. 8.83726776e-03 2.52493366e-04 5.80734760e-03
      2.39868695e-03 3.82527448e-02 0. 3.78740067e-03 3.37078646e-02
      4.12826650e-02 1.64120691e-03 1.59070827e-02 2.52493366e-04</_>
    <_>
      4.87528332e-02 7.93650839e-03 8.36167764e-03 2.66439915e-02
      1.26133785e-02 2.11167801e-02 3.62811796e-02 1.51643995e-02
      1.70068033e-02 2.22505666e-02 5.10204099e-02 1.36054419e-02
      4.59183678e-02 1.13378689e-02 2.69274367e-03 5.39966002e-02
      1.09126987e-02 6.33503422e-02 3.27380970e-02 1.78571437e-02
      1.85657591e-02 3.85487527e-02 5.52721089e-03 3.54308379e-03
      1.00623583e-02 2.62188204e-02 3.40136047e-03 1.13378689e-02
      6.80272095e-03 1.13378686e-03 6.37755124e-03 4.96031763e-03
      2.97619053e-03 1.55895688e-02 3.25963716e-03 5.52721089e-03
      3.40136047e-03 2.05498859e-02 2.12585041e-03 3.40136047e-03
      1.21882083e-02 8.50340165e-03 4.39342391e-03 7.08616758e-03
      4.25170059e-04 8.36167764e-03 3.40136047e-03 2.55102036e-03
      9.49546508e-03 1.84240367e-03 3.96825420e-03 6.51927432e-03
      1.70068024e-03 1.27551018e-03 3.11791385e-03 1.21882083e-02
      8.50340119e-04 7.93650839e-03 2.26757373e-03 4.25170059e-04
      1.70068033e-02 8.50340119e-04 7.65306130e-03 6.23582769e-03
      1.84240367e-03 1.84240367e-03 9.92063526e-03 4.25170059e-04
      1.41723358e-04 1.55895692e-03 1.30385486e-02 8.50340119e-04
      4.81859408e-03 1.70068024e-03 0. 3.82653065e-03 4.25170059e-04 0.
      1.28968256e-02 1.41723361e-03 8.36167764e-03 6.09410414e-03
      2.39512473e-02 5.66893432e-04 4.53514745e-03 2.22505666e-02
      1.48809524e-02 5.10204071e-03 1.47392293e-02 1.70068024e-03</_>
    <_>
      5.45841195e-02 3.66257085e-03 6.49810955e-03 2.45746691e-02
      5.67107741e-03 1.07514178e-02 1.58317573e-02 5.19848755e-03
      5.43478271e-03 8.03402625e-03 2.90642716e-02 3.78071843e-03
      1.33506618e-02 3.54442338e-04 0. 1.96124762e-02 0. 1.29962189e-03
      4.48960299e-03 0. 2.36294902e-04 2.36294908e-03 0. 0. 0.
      3.54442350e-03 0. 5.90737269e-04 1.18147451e-04 0. 3.54442338e-04
      0. 0. 1.65406428e-03 0. 3.54442338e-04 0. 1.73676740e-02 0. 0.
      8.27032141e-04 4.72589815e-03 0. 1.53591682e-03 0. 3.66257085e-03
      1.18147451e-04 2.36294902e-04 1.54773155e-02 7.08884676e-04
      5.67107741e-03 1.71313807e-02 4.72589803e-04 3.54442350e-03
      1.52410204e-02 4.27693762e-02 7.32514169e-03 7.77410194e-02
      1.07514178e-02 0. 7.52599239e-02 2.83553870e-03 6.59262761e-02
      4.78497148e-02 1.13421548e-02 1.79584119e-02 5.61200380e-02
      3.18998098e-03 5.90737269e-04 8.15217383e-03 5.51748574e-02
      2.00850656e-03 1.83128547e-02 5.67107741e-03 0. 8.27032141e-03
      2.95368629e-03 1.18147451e-04 3.98156904e-02 2.36294902e-04
      1.31143667e-02 5.08034043e-03 4.18241955e-02 0. 2.36294908e-03
      2.80009452e-02 3.37901711e-02 7.08884676e-04 6.49810955e-03
      1.18147451e-04</_>
    <_>
      4.55332398e-02 0. 3.46260378e-04 1.05609419e-02 1.73130189e-04
      1.03878113e-03 5.54016605e-03 0. 1.55817170e-03 6.40581734e-03
      2.56232694e-02 1.90443208e-03 2.49307472e-02 8.65650945e-04 0.
      4.01662067e-02 0. 1.15997232e-02 1.71398893e-02 6.92520756e-04
      2.59695295e-03 1.02146817e-02 0. 0. 1.73130189e-04 1.15997232e-02
      0. 3.80886416e-03 3.46260378e-04 0. 2.25069257e-03 3.46260378e-04
      0. 8.82964022e-03 0. 5.54016605e-03 2.07756227e-03 2.68351808e-02
      0. 5.36703598e-03 2.45844871e-02 1.95637122e-02 2.42382265e-03
      1.93905812e-02 1.73130189e-04 2.12950148e-02 7.27146817e-03
      9.34903044e-03 5.36703616e-02 3.04709133e-02 3.42797786e-02
      5.45360111e-02 2.71814410e-02 3.08171753e-02 2.90858727e-02
      6.25000000e-02 1.97368413e-02 3.68767306e-02 1.02146817e-02
      5.19390567e-04 5.85180074e-02 2.42382265e-03 4.10318561e-02
      1.66204982e-02 1.55817170e-03 4.84764529e-03 1.54085876e-02 0. 0.
      3.46260378e-04 2.68351808e-02 0. 3.28947371e-03 6.92520756e-04 0.
      1.73130189e-03 1.73130189e-04 0. 7.61772832e-03 1.73130189e-04
      2.59695295e-03 1.73130189e-04 2.94321328e-02 0. 1.73130189e-04
      2.94321333e-03 1.45429363e-02 1.73130189e-04 6.92520756e-04 0.</_>
    <_>
      4.26587313e-02 1.41723358e-04 0. 1.06292516e-02 4.25170059e-04
      1.41723361e-03 3.25963716e-03 0. 0. 3.40136047e-03 1.54478457e-02
      1.41723358e-04 8.64512473e-03 0. 0. 2.73526069e-02 0.
      8.21995456e-03 1.31802717e-02 1.98412710e-03 1.98412710e-03
      1.68650802e-02 1.13378686e-03 1.41723358e-04 4.96031763e-03
      2.93367356e-02 2.97619053e-03 1.06292516e-02 6.51927432e-03 0.
      1.07709747e-02 2.69274367e-03 8.50340119e-04 2.40929704e-02
      3.25963716e-03 2.08333340e-02 1.17630381e-02 5.30045368e-02
      3.40136047e-03 1.27551025e-02 4.20918353e-02 2.83446703e-02
      1.27551025e-02 2.49433108e-02 1.70068024e-03 3.07539683e-02
      1.26133785e-02 1.02040814e-02 4.01077084e-02 8.78684781e-03
      2.70691607e-02 3.52891162e-02 6.51927432e-03 8.36167764e-03
      1.30385486e-02 4.23752852e-02 4.67687054e-03 3.42970528e-02
      1.84240367e-03 9.92063549e-04 4.71938774e-02 7.08616804e-04
      1.45975053e-02 2.01247167e-02 2.83446716e-04 2.83446722e-03
      1.85657591e-02 2.83446716e-04 0. 1.55895692e-03 2.46598646e-02
      7.08616804e-04 6.80272095e-03 2.26757373e-03 0. 1.55895692e-03
      4.25170059e-04 4.25170059e-04 2.25340128e-02 1.13378686e-03
      6.37755124e-03 2.26757373e-03 4.23752852e-02 1.27551018e-03
      1.41723361e-03 1.16213150e-02 2.46598646e-02 8.50340119e-04
      8.50340119e-04 0.</_>
    <_>
      2.08809637e-02 2.28623697e-03 6.40146341e-03 9.60219465e-03
      9.14494786e-03 1.73754003e-02 2.91114151e-02 2.66727637e-02
      2.86541693e-02 2.98734941e-02 6.46242946e-02 4.55723219e-02
      4.11522649e-02 3.58177125e-02 9.14494786e-03 4.08474319e-02
      1.06691057e-02 2.92638317e-02 1.60036571e-02 1.15836002e-02
      5.02972119e-03 1.47843314e-02 6.09663140e-04 4.57247370e-04
      3.20073171e-03 2.40816940e-02 9.14494740e-04 4.42005787e-03
      3.20073171e-03 0. 3.04831588e-03 1.82898948e-03 7.62078969e-04
      1.47843314e-02 1.21932628e-03 8.07803683e-03 3.81039479e-03
      2.07285471e-02 1.52415785e-04 3.65797896e-03 2.36244481e-02
      1.75278150e-02 1.52415794e-03 1.53939947e-02 1.52415785e-04
      2.01188847e-02 5.63938404e-03 6.70629460e-03 2.81969216e-02
      1.40222525e-02 2.71300115e-02 3.58177125e-02 1.46319158e-02
      1.93568058e-02 1.85947269e-02 3.26169804e-02 9.29736346e-03
      2.31672004e-02 4.87730512e-03 0. 2.46913582e-02 6.09663140e-04
      7.01112626e-03 6.55387901e-03 6.09663140e-04 1.52415785e-04
      5.79180010e-03 1.52415785e-04 0. 1.52415785e-04 7.31595792e-03 0.
      2.13382114e-03 4.57247370e-04 0. 1.98140531e-03 0. 0.
      3.20073171e-03 0. 1.06691057e-03 1.52415785e-04 8.23045243e-03
      3.04831570e-04 1.52415785e-04 2.59106839e-03 5.02972119e-03
      6.09663140e-04 3.20073171e-03 0.</_>
    <_>
      8.11672956e-02 5.67107741e-03 3.07183363e-03 2.81190928e-02
      4.25330829e-03 1.41776940e-02 2.09120978e-02 3.42627591e-03
      4.60775057e-03 7.91587867e-03 3.06001883e-02 2.48109642e-03
      1.44139882e-02 3.42627591e-03 5.90737269e-04 2.04395093e-02 0.
      1.77221175e-03 8.97920597e-03 0. 0. 4.60775057e-03 0. 0. 0.
      1.41776940e-02 0. 1.65406428e-03 0. 0. 3.54442338e-04 0. 0.
      2.12665414e-03 0. 8.27032141e-04 2.36294902e-04 2.75283549e-02 0.
      0. 3.07183363e-03 5.55292983e-03 1.29962189e-03 1.18147454e-03
      2.36294902e-04 5.31663513e-03 3.54442338e-04 1.06332707e-03
      1.28780715e-02 2.36294908e-03 4.13516071e-03 1.79584119e-02
      1.89035921e-03 3.66257085e-03 1.06332703e-02 3.27268429e-02
      2.59924377e-03 5.26937619e-02 0. 0. 5.80103956e-02 0.
      4.70226854e-02 3.99338380e-02 1.18147451e-04 9.45179630e-03
      4.78497148e-02 2.36294902e-04 0. 3.30812857e-03 5.34026474e-02
      1.89035921e-03 1.73676740e-02 5.55292983e-03 3.54442338e-04
      8.03402625e-03 5.90737269e-04 1.18147451e-04 2.50472594e-02
      1.18147451e-04 8.62476416e-03 2.48109642e-03 7.70321339e-02
      1.18147451e-04 3.18998098e-03 4.28875238e-02 5.62381856e-02
      3.30812857e-03 1.97306238e-02 8.27032141e-04</_>
    <_>
      2.51807850e-02 1.07179750e-02 1.94989666e-02 3.04752067e-02
      2.63429750e-02 2.99586784e-02 5.82386367e-02 3.47365700e-02
      4.66167368e-02 4.02892567e-02 9.29752067e-02 7.15392530e-02
      6.97314069e-02 4.88119833e-02 1.26549583e-02 7.37345070e-02
      2.80216951e-02 8.05785134e-02 2.23398767e-02 1.91115700e-02
      1.03305783e-02 3.26704532e-02 3.87396687e-03 3.35743790e-03
      6.58574374e-03 1.17510334e-02 1.80785125e-03 2.45351251e-03
      3.22830584e-03 0. 2.06611562e-03 9.03925626e-04 3.87396693e-04
      2.97004124e-03 1.29132226e-04 7.74793385e-04 5.16528904e-04
      5.16528916e-03 1.29132226e-04 1.16219011e-03 1.67871895e-03
      7.74793385e-04 6.45661145e-04 5.16528904e-04 2.58264452e-04
      9.03925626e-04 2.58264452e-04 2.58264452e-04 1.67871895e-03 0.
      2.58264452e-04 9.03925626e-04 1.29132226e-04 1.29132226e-04
      2.58264452e-04 2.32438021e-03 0. 7.74793385e-04 0. 0.
      3.35743790e-03 0. 3.87396693e-04 3.87396693e-04 0. 0.
      1.29132229e-03 0. 0. 0. 3.35743790e-03 0. 2.58264452e-04 0. 0.
      1.29132226e-04 0. 0. 1.80785125e-03 1.16219011e-03 9.03925626e-04
      7.74793385e-04 1.29132234e-02 0. 1.54958677e-03 4.51962790e-03
      6.97314041e-03 3.48657020e-03 1.20092975e-02 1.16219011e-03</_>
    <_>
      3.86426761e-03 0. 0. 4.83033451e-04 1.20758363e-04 0.
      2.41516726e-04 2.41516726e-04 0. 1.20758363e-04 8.45308532e-04
      7.24550162e-04 1.44910032e-03 1.20758363e-04 0. 4.70957626e-03 0.
      3.50199244e-03 2.29440886e-03 2.65668402e-03 1.69061706e-03
      9.53991059e-03 1.56985875e-03 7.24550162e-04 7.36626005e-03
      1.25588700e-02 2.89820065e-03 8.21156893e-03 5.91715984e-03
      1.08682527e-03 8.09080992e-03 6.03791792e-03 2.89820065e-03
      2.02874057e-02 1.30419033e-02 1.53363124e-02 1.25588700e-02
      2.95857992e-02 8.69460218e-03 2.10119542e-02 6.25528321e-02
      1.40079698e-02 3.52614410e-02 6.36396557e-02 7.48701859e-03
      5.71187064e-02 3.45368907e-02 5.97753897e-02 3.81596424e-02
      5.55488467e-02 5.08392714e-02 5.51865734e-02 3.32085490e-02
      4.33522537e-02 2.68083569e-02 4.57674190e-02 2.69291140e-02
      1.82345118e-02 1.18343197e-02 8.45308532e-04 1.58193447e-02
      2.65668402e-03 8.93611927e-03 4.10578446e-03 2.41516717e-03
      9.66066902e-04 3.74350930e-03 2.41516726e-04 4.83033451e-04
      8.45308532e-04 1.44910032e-03 1.20758363e-04 1.08682527e-03
      4.83033451e-04 0. 2.41516726e-04 1.20758363e-04 2.41516726e-04
      1.32834201e-03 2.41516726e-04 2.41516726e-04 1.20758363e-04
      1.93213380e-03 0. 0. 1.20758363e-04 3.62275081e-04 0.
      1.20758363e-04 0.</_>
    <_>
      3.30294622e-03 0. 0. 5.28471370e-04 0. 1.32117842e-04
      9.24824970e-04 0. 0. 6.60589256e-04 3.83141753e-03 5.41683193e-03
      7.66283507e-03 1.45329637e-02 2.24600341e-02 2.02140305e-02
      3.40864062e-02 6.85691610e-02 2.51023918e-02 3.48791108e-02
      2.77447477e-02 7.46465847e-02 2.52345093e-02 2.06103846e-02
      5.00726663e-02 5.32434918e-02 3.17082852e-02 4.47879508e-02
      5.52252606e-02 2.51023914e-03 3.62002924e-02 2.15352103e-02
      8.71977769e-03 4.88836057e-02 2.47060377e-02 2.40454488e-02
      2.11388562e-02 3.11798118e-02 7.92707130e-03 2.10067388e-02
      5.28471395e-02 1.51935527e-02 6.87012821e-03 1.29475491e-02
      1.45329640e-03 1.17584886e-02 3.56718199e-03 3.30294622e-03
      7.00224610e-03 1.45329640e-03 2.77447491e-03 1.84964994e-03 0. 0.
      1.32117842e-04 1.58541417e-03 0. 7.92707084e-04 0. 0.
      1.71753205e-03 0. 0. 6.60589256e-04 0. 0. 1.32117842e-04 0. 0. 0.
      2.64235685e-04 0. 0. 0. 0. 0. 0. 0. 1.32117842e-04 0. 0. 0. 0. 0.
      0. 0. 1.32117842e-04 0. 0. 0.</_>
    <_>
      1.13894626e-01 7.74793373e-03 6.06921501e-03 7.96745867e-02
      1.63997933e-02 4.22262400e-02 6.43078536e-02 1.14927683e-02
      1.42045459e-02 1.91115700e-02 7.34762400e-02 7.74793373e-03
      3.64152901e-02 2.58264458e-03 7.74793385e-04 3.39617766e-02
      1.03305781e-03 7.74793373e-03 9.42665245e-03 1.67871895e-03
      2.32438021e-03 7.23140500e-03 2.58264452e-04 1.29132226e-04
      1.67871895e-03 1.29132234e-02 2.58264452e-04 2.45351251e-03
      1.29132226e-04 0. 0. 0. 0. 2.58264458e-03 0. 1.29132226e-04 0.
      3.20247933e-02 0. 0. 7.74793385e-04 3.48657020e-03 0. 0. 0.
      6.45661145e-04 0. 0. 4.00309917e-03 2.58264452e-04 1.03305781e-03
      7.74793385e-04 0. 1.29132226e-04 3.87396693e-04 1.25258267e-02
      5.16528904e-04 3.22830584e-03 1.16219011e-03 0. 3.18956599e-02 0.
      1.42045459e-03 4.64876043e-03 7.74793385e-04 6.45661145e-04
      6.84400834e-03 0. 0. 0. 3.52531001e-02 0. 1.42045459e-03 0. 0.
      3.87396693e-04 0. 0. 2.56973132e-02 6.45661145e-04 1.66580584e-02
      2.97004124e-03 9.29752067e-02 0. 8.65185913e-03 4.22262400e-02
      5.82386367e-02 7.74793385e-04 2.64721066e-02 3.87396693e-04</_>
    <_>
      8.03402625e-03 1.18147454e-03 6.37996197e-03 8.27032141e-03
      8.50661658e-03 1.48865785e-02 2.35113427e-02 1.47684310e-02
      3.22542526e-02 2.56379955e-02 5.16304336e-02 4.07608710e-02
      3.89886573e-02 6.49810955e-02 1.42958416e-02 7.92769343e-02
      6.00189045e-02 1.35869563e-01 3.42627615e-02 6.65170103e-02
      3.04820407e-02 5.57655953e-02 1.73676740e-02 1.60680525e-02
      2.69376189e-02 1.79584119e-02 1.18147451e-02 1.27599239e-02
      1.19328918e-02 3.18998098e-03 8.38846900e-03 7.56143685e-03
      3.07183363e-03 9.68809053e-03 3.78071843e-03 3.54442350e-03
      1.29962189e-03 3.18998098e-03 2.36294902e-04 2.36294902e-04
      1.18147454e-03 3.30812857e-03 0. 4.72589803e-04 0. 5.90737269e-04
      2.36294902e-04 1.18147451e-04 1.41776935e-03 4.72589803e-04
      5.90737269e-04 1.29962189e-03 0. 0. 1.18147451e-04 2.36294902e-04
      0. 0. 0. 0. 9.45179607e-04 0. 0. 0. 0. 0. 2.36294902e-04 0. 0. 0.
      7.08884676e-04 0. 4.72589803e-04 0. 0. 1.18147451e-04 0. 0.
      8.27032141e-04 1.18147451e-04 2.36294902e-04 4.72589803e-04
      9.45179607e-04 0. 7.08884676e-04 3.78071843e-03 1.29962189e-03
      1.53591682e-03 2.24480149e-03 0.</_>
    <_>
      1.55817170e-03 0. 0. 1.73130189e-04 0. 3.46260378e-04
      3.46260378e-04 3.46260378e-04 1.73130189e-04 5.19390567e-04
      1.90443208e-03 8.65650945e-04 2.59695295e-03 6.92520756e-04
      1.73130189e-04 6.57894742e-03 1.38504151e-03 8.31024908e-03
      6.57894742e-03 1.33310249e-02 1.21191135e-02 2.56232694e-02
      1.54085876e-02 1.95637122e-02 3.08171753e-02 3.58379483e-02
      2.51038782e-02 3.54916900e-02 3.99930738e-02 2.31994465e-02
      3.35872583e-02 4.36288081e-02 2.61426587e-02 5.95567860e-02
      5.40166199e-02 4.41481993e-02 4.25900295e-02 6.82132989e-02
      4.67451513e-02 2.51038782e-02 6.38850406e-02 2.04293635e-02
      2.71814410e-02 2.49307472e-02 5.88642666e-03 1.92174520e-02
      8.48337915e-03 8.48337915e-03 1.10803321e-02 6.40581734e-03
      9.17590037e-03 8.82964022e-03 3.11634340e-03 2.42382265e-03
      3.28947371e-03 5.54016605e-03 1.73130189e-03 3.11634340e-03
      8.65650945e-04 3.46260378e-04 2.94321333e-03 5.19390567e-04
      1.73130189e-03 3.46260378e-04 1.73130189e-04 1.73130189e-04
      5.19390567e-04 3.46260378e-04 3.46260378e-04 1.73130189e-04
      1.03878113e-03 0. 1.73130189e-04 6.92520756e-04 1.73130189e-04
      1.73130189e-04 1.73130189e-04 0. 1.73130189e-04 0. 0. 0.
      1.73130189e-03 0. 0. 0. 3.46260378e-04 1.73130189e-04
      6.92520756e-04 0.</_>
    <_>
      7.70635530e-02 1.27830531e-03 4.74799145e-03 1.51570486e-02
      4.01753094e-03 1.07742874e-02 1.60701238e-02 6.20891154e-03
      8.21767747e-03 1.04090581e-02 3.78013141e-02 5.66106662e-03
      1.91745795e-02 4.93060611e-03 2.55661062e-03 5.66106662e-02
      1.82615046e-03 9.67859756e-03 1.75310448e-02 9.13075230e-04
      2.19138060e-03 1.66179687e-02 1.82615055e-04 0. 9.13075230e-04
      3.56099345e-02 0. 4.56537632e-03 1.82615055e-04 0. 1.46092044e-03
      0. 0. 2.13659611e-02 7.30460219e-04 6.39152667e-03 1.09569030e-03
      5.91672771e-02 9.13075230e-04 9.13075230e-04 2.42878012e-02
      4.32797670e-02 7.30460219e-04 1.46092037e-02 1.82615055e-04
      1.71658136e-02 2.00876547e-03 3.83491605e-03 4.78451438e-02
      4.38276120e-03 1.22352084e-02 2.88531780e-02 2.19138060e-03
      6.93937158e-03 1.22352084e-02 5.60628213e-02 2.19138060e-03
      3.06793284e-02 9.13075230e-04 0. 5.36888242e-02 7.30460219e-04
      1.64353549e-02 1.66179687e-02 9.13075230e-04 2.00876547e-03
      1.07742874e-02 3.65230109e-04 1.82615055e-04 2.19138060e-03
      3.21402475e-02 1.82615046e-03 2.92184087e-03 1.64353545e-03 0.
      1.09569030e-03 0. 0. 8.76552239e-03 0. 2.37399573e-03
      1.09569030e-03 4.01753113e-02 0. 7.30460219e-04 8.21767747e-03
      1.64353549e-02 5.47845149e-04 4.01753094e-03 5.47845149e-04</_>
    <_>
      4.60775057e-03 0. 0. 1.53591682e-03 4.72589803e-04 8.27032141e-04
      3.07183363e-03 9.45179607e-04 1.06332707e-03 2.48109642e-03
      5.90737257e-03 1.29962189e-03 4.84404527e-03 2.36294908e-03
      1.65406428e-03 1.24054821e-02 3.54442350e-03 2.33931951e-02
      1.18147451e-02 1.29962191e-02 1.73676740e-02 3.16635147e-02
      1.39413988e-02 1.61862001e-02 3.23724002e-02 3.86342146e-02
      2.50472594e-02 3.37901711e-02 3.92249525e-02 2.35113427e-02
      3.22542526e-02 4.26512286e-02 1.83128547e-02 6.65170103e-02
      4.66682427e-02 3.99338380e-02 3.92249525e-02 5.99007569e-02
      3.67438570e-02 1.86672974e-02 4.98582236e-02 2.02032141e-02
      2.17391308e-02 2.19754260e-02 5.08034043e-03 1.77221168e-02
      8.27032141e-03 7.67958397e-03 1.19328918e-02 7.08884699e-03
      8.97920597e-03 8.50661658e-03 1.77221175e-03 2.12665414e-03
      2.59924377e-03 7.20699411e-03 9.45179607e-04 6.37996197e-03
      2.36294902e-04 0. 4.60775057e-03 0. 1.77221175e-03 2.71739135e-03
      4.72589803e-04 4.72589803e-04 9.45179607e-04 2.36294902e-04
      1.18147451e-04 4.72589803e-04 2.00850656e-03 0. 4.72589803e-04
      1.18147451e-04 0. 1.18147451e-04 1.18147451e-04 0. 7.08884676e-04
      0. 8.27032141e-04 0. 2.36294908e-03 0. 0. 1.41776935e-03
      1.65406428e-03 0. 2.36294902e-04 0.</_>
    <_>
      6.87012821e-03 0. 0. 1.18906063e-03 0. 2.64235685e-04
      3.30294622e-03 0. 5.28471370e-04 1.84964994e-03 3.56718199e-03
      3.96353542e-04 6.20953878e-03 0. 0. 9.24824923e-03 0.
      8.05918872e-03 5.28471405e-03 1.32117851e-03 3.03871045e-03
      1.10978996e-02 1.58541417e-03 9.24824970e-04 2.90659280e-03
      1.14942528e-02 1.98176783e-03 8.19130708e-03 2.90659280e-03
      2.64235685e-04 5.41683193e-03 3.03871045e-03 1.45329640e-03
      1.77037921e-02 3.56718199e-03 1.28154317e-02 1.50614344e-02
      2.04782672e-02 1.32117851e-03 1.73074380e-02 7.83458874e-02
      4.41273600e-02 1.70432031e-02 5.98493852e-02 5.02047827e-03
      6.68516308e-02 2.58950982e-02 4.41273600e-02 9.05007273e-02
      6.09063283e-02 6.20953888e-02 6.79085776e-02 3.87105308e-02
      3.19725201e-02 2.40454488e-02 3.67287621e-02 1.26833133e-02
      1.44008454e-02 2.11388548e-03 1.32117842e-04 8.19130708e-03 0.
      3.69929988e-03 4.09565354e-03 1.32117842e-04 7.92707084e-04
      2.64235702e-03 0. 0. 0. 1.58541417e-03 0. 1.32117842e-04 0. 0. 0.
      0. 0. 7.92707084e-04 0. 0. 0. 2.11388548e-03 0. 0. 0.
      1.32117851e-03 0. 3.96353542e-04 0.</_>
    <_>
      5.74422404e-02 2.39868695e-03 3.66115384e-03 2.17144303e-02
      8.07978772e-03 1.86845101e-02 4.03989404e-02 2.76480243e-02
      3.67377847e-02 4.46913280e-02 1.18924379e-01 6.05984107e-02
      7.32230768e-02 3.52228247e-02 5.42860758e-03 6.43858090e-02
      1.17409416e-02 4.14089113e-02 2.95417253e-02 2.77742720e-03
      2.77742720e-03 2.29768977e-02 1.38871360e-03 1.13622018e-03
      2.01994693e-03 2.60068178e-02 1.64120691e-03 3.53490724e-03
      1.26246689e-03 0. 1.00997346e-03 0. 0. 1.33821489e-02 0.
      2.77742720e-03 1.00997346e-03 4.09039259e-02 0. 7.57480098e-04
      4.79737390e-03 2.25981567e-02 0. 1.89370033e-03 0. 7.32230768e-03
      1.26246683e-04 1.26246683e-04 1.65383164e-02 6.31233444e-04
      5.17611392e-03 6.81732083e-03 2.52493366e-04 1.26246683e-04
      2.27244035e-03 1.32559016e-02 0. 6.31233444e-03 0. 0.
      1.86845101e-02 0. 7.57480098e-04 3.91364750e-03 0. 1.26246683e-04
      3.02992039e-03 0. 0. 0. 1.13622015e-02 0. 6.31233444e-04 0. 0. 0.
      0. 0. 2.27244035e-03 0. 6.31233444e-04 3.78740049e-04
      2.76480243e-02 0. 5.04986732e-04 2.90367380e-03 7.70104770e-03
      1.13622018e-03 2.77742720e-03 0.</_>
    <_>
      9.38208625e-02 7.08616804e-04 1.41723361e-03 1.53061226e-02
      9.92063549e-04 7.36961467e-03 1.62981860e-02 1.98412710e-03
      3.82653065e-03 3.96825420e-03 2.93367356e-02 3.25963716e-03
      2.49433108e-02 1.41723361e-03 0. 4.84693870e-02 0. 1.33219957e-02
      1.58730168e-02 1.55895692e-03 3.25963716e-03 2.94784587e-02
      1.55895692e-03 8.50340119e-04 2.83446722e-03 3.55725624e-02
      1.27551018e-03 5.24376426e-03 1.55895692e-03 0. 2.40929704e-03
      1.41723358e-04 0. 1.45975053e-02 1.41723358e-04 4.25170083e-03
      1.41723361e-03 4.43594120e-02 4.25170059e-04 9.92063549e-04
      1.00623583e-02 2.04081628e-02 1.13378686e-03 7.93650839e-03
      4.25170059e-04 1.41723352e-02 3.11791385e-03 6.80272095e-03
      2.45181397e-02 7.51133775e-03 1.58730168e-02 2.32426301e-02
      1.00623583e-02 1.14795920e-02 6.51927432e-03 4.54931967e-02
      3.82653065e-03 1.81405898e-02 1.13378686e-03 9.92063549e-04
      1.06717683e-01 7.08616804e-04 1.13378689e-02 2.28174608e-02
      1.27551018e-03 1.70068024e-03 2.31009070e-02 1.41723358e-04
      5.66893432e-04 1.27551018e-03 4.67687063e-02 1.41723358e-04
      6.80272095e-03 7.08616804e-04 0. 1.41723361e-03 0. 1.41723358e-04
      1.38888890e-02 2.83446716e-04 2.97619053e-03 1.27551018e-03
      5.69727905e-02 1.41723358e-04 5.66893432e-04 8.92857183e-03
      1.74319725e-02 8.50340119e-04 2.97619053e-03 9.92063549e-04</_>
    <_>
      2.46181041e-02 3.91364750e-03 9.59474780e-03 3.66115384e-02
      2.82792579e-02 4.83524799e-02 9.56949890e-02 5.10036610e-02
      7.80204535e-02 6.93094283e-02 1.22206792e-01 7.25918412e-02
      5.50435558e-02 4.48175743e-02 6.05984079e-03 4.29238714e-02
      1.30034089e-02 3.68640311e-02 9.21600778e-03 8.33228137e-03
      4.54488071e-03 8.33228137e-03 3.78740049e-04 0. 3.78740049e-04
      5.68110077e-03 5.04986732e-04 1.76745362e-03 5.04986732e-04 0.
      1.00997346e-03 2.52493366e-04 0. 2.01994693e-03 3.78740049e-04
      6.31233444e-04 2.52493366e-04 3.66115384e-03 0. 1.26246683e-04
      2.01994693e-03 2.39868695e-03 3.78740049e-04 1.00997346e-03 0.
      2.39868695e-03 2.01994693e-03 5.68110077e-03 3.78740067e-03
      2.65118037e-03 4.29238752e-03 3.66115384e-03 3.15616722e-03
      2.65118037e-03 2.27244035e-03 6.05984079e-03 2.39868695e-03
      4.03989386e-03 2.65118037e-03 2.52493366e-04 7.06981448e-03 0.
      2.01994693e-03 8.83726811e-04 5.04986732e-04 1.26246683e-04
      6.31233444e-04 2.52493366e-04 0. 6.31233444e-04 3.40866041e-03
      3.78740049e-04 8.83726811e-04 1.26246683e-04 0. 2.52493366e-04
      1.26246683e-04 0. 2.14619376e-03 1.26246683e-04 1.64120691e-03
      1.51496020e-03 6.56482764e-03 0. 2.52493366e-04 8.33228137e-03
      8.33228137e-03 1.64120691e-03 1.09834615e-02 5.04986732e-04</_>
    <_>
      1.10714756e-01 5.28471370e-04 0. 1.32117849e-02 1.71753205e-03
      3.83141753e-03 1.25511959e-02 6.60589256e-04 2.90659280e-03
      4.75624250e-03 3.97674739e-02 2.64235702e-03 2.78768670e-02
      2.11388548e-03 3.96353542e-04 4.47879508e-02 1.58541417e-03
      1.69110838e-02 1.13621354e-02 5.02047827e-03 3.56718199e-03
      1.32117849e-02 1.18906063e-03 3.96353542e-04 1.18906063e-03
      3.13119292e-02 6.60589256e-04 5.54894982e-03 2.77447491e-03
      1.32117842e-04 4.35988884e-03 1.05694274e-03 5.28471370e-04
      1.49293169e-02 1.58541417e-03 3.56718199e-03 4.49200673e-03
      7.22684637e-02 1.32117842e-04 6.60589256e-04 1.07015455e-02
      2.48381551e-02 9.24824970e-04 6.60589244e-03 0. 1.17584886e-02
      6.60589256e-04 3.96353542e-04 2.39133313e-02 7.92707084e-04
      4.49200673e-03 1.12300171e-02 0. 6.60589256e-04 3.03871045e-03
      5.90566769e-02 7.92707084e-04 2.70841587e-02 1.32117842e-04 0.
      7.21363425e-02 5.28471370e-04 8.85189604e-03 1.94213241e-02
      7.92707084e-04 9.24824970e-04 1.66468490e-02 1.32117842e-04 0.
      6.60589256e-04 4.50521857e-02 3.96353542e-04 4.62412462e-03
      1.58541417e-03 0. 2.24600337e-03 3.96353542e-04 0. 1.24190776e-02
      0. 3.83141753e-03 3.96353542e-04 9.80314463e-02 0. 1.98176783e-03
      1.83643810e-02 3.27652283e-02 2.64235685e-04 3.56718199e-03 0.</_>
    <_>
      3.32266428e-02 3.04831570e-04 1.98140531e-03 1.55464103e-02
      1.06691057e-03 5.48696844e-03 9.29736346e-03 3.04831570e-04
      7.62078969e-04 2.13382114e-03 1.66133214e-02 1.67657365e-03
      1.11263525e-02 4.57247370e-04 0. 2.01188847e-02 6.09663140e-04
      9.90702678e-03 1.15836002e-02 2.43865256e-03 3.50556313e-03
      1.69181526e-02 2.13382114e-03 6.09663140e-04 4.87730512e-03
      2.66727637e-02 3.04831588e-03 9.29736346e-03 4.72488953e-03
      1.06691057e-03 9.60219465e-03 3.65797896e-03 1.37174211e-03
      3.00259106e-02 4.72488953e-03 1.38698369e-02 7.31595792e-03
      3.67322043e-02 3.65797896e-03 8.38286802e-03 4.57247384e-02
      3.67322043e-02 1.47843314e-02 2.31672004e-02 3.81039479e-03
      2.62155160e-02 9.75461025e-03 1.46319158e-02 3.33790593e-02
      1.44795002e-02 2.16430426e-02 2.81969216e-02 1.11263525e-02
      1.49367470e-02 1.58512425e-02 4.83158045e-02 1.09739369e-02
      2.94162482e-02 5.94421569e-03 1.37174211e-03 4.42005806e-02
      1.67657365e-03 1.69181526e-02 1.78326480e-02 2.74348422e-03
      3.35314730e-03 2.71300115e-02 1.21932628e-03 9.14494740e-04
      3.20073171e-03 2.85017528e-02 2.43865256e-03 8.53528455e-03
      3.65797896e-03 0. 5.48696844e-03 1.82898948e-03 1.06691057e-03
      1.00594424e-02 2.28623697e-03 3.65797896e-03 3.04831588e-03
      2.92638317e-02 1.52415785e-04 3.65797896e-03 1.12787681e-02
      1.50891636e-02 1.52415785e-04 3.35314730e-03 0.</_>
    <_>
      1.37471659e-02 2.12585041e-03 7.08616758e-03 3.57142873e-02
      1.55895688e-02 3.13208625e-02 8.84353742e-02 2.89115645e-02
      7.45464861e-02 7.12868497e-02 1.48951247e-01 9.02777761e-02
      8.84353742e-02 4.86111119e-02 1.33219957e-02 7.27040842e-02
      1.74319725e-02 6.17913827e-02 2.21088436e-02 7.65306130e-03
      2.69274367e-03 7.79478438e-03 8.50340119e-04 0. 4.25170059e-04
      4.39342391e-03 4.25170059e-04 5.66893432e-04 5.66893432e-04 0.
      2.83446716e-04 0. 0. 1.55895692e-03 0. 4.25170059e-04
      1.41723358e-04 2.83446716e-04 0. 0. 0. 0. 0. 0. 0. 0. 0. 0.
      1.41723358e-04 0. 0. 0. 0. 0. 0. 1.41723358e-04 0. 0. 0. 0.
      5.66893432e-04 0. 0. 2.83446716e-04 0. 0. 1.41723358e-04 0. 0. 0.
      9.92063549e-04 0. 4.25170059e-04 1.41723358e-04 0. 0.
      1.41723358e-04 0. 3.40136047e-03 0. 1.41723358e-04 4.25170059e-04
      9.35374107e-03 0. 0. 6.37755124e-03 1.53061226e-02 0.
      1.55895692e-03 0.</_>
    <_>
      2.12709736e-02 0. 0. 1.10978996e-02 1.05694274e-03 1.32117842e-04
      7.53071718e-03 0. 6.60589256e-04 7.79495295e-03 2.35169772e-02
      1.98176783e-03 2.84053367e-02 1.32117842e-04 0. 4.62412462e-02
      2.64235685e-04 2.81411018e-02 2.70841587e-02 4.88836039e-03
      8.98401346e-03 5.35077304e-02 9.24824970e-04 7.92707084e-04
      5.54894982e-03 5.48289083e-02 2.37812125e-03 2.37812120e-02
      7.13436399e-03 3.96353542e-04 1.53256701e-02 6.34165667e-03
      3.69929988e-03 6.16990365e-02 1.20227244e-02 3.31615806e-02
      3.30294631e-02 5.31113744e-02 1.25511959e-02 3.55397016e-02
      1.00013211e-01 3.92390005e-02 1.71753205e-02 4.55806591e-02
      1.32117842e-04 3.06513403e-02 6.34165667e-03 6.87012821e-03
      2.82732192e-02 3.69929988e-03 1.34760207e-02 1.36081381e-02
      2.51023914e-03 1.18906063e-03 3.03871045e-03 1.50614344e-02
      1.32117842e-04 6.73801033e-03 2.64235685e-04 0. 7.39859976e-03 0.
      1.32117842e-04 1.98176783e-03 0. 0. 5.28471370e-04 0. 0. 0.
      4.49200673e-03 0. 2.64235685e-04 0. 0. 0. 0. 0. 1.98176783e-03 0.
      1.32117842e-04 0. 9.51248500e-03 0. 0. 7.92707084e-04
      3.83141753e-03 0. 0. 0.</_>
    <_>
      9.77531001e-02 1.29132229e-03 2.45351251e-03 3.52531001e-02
      5.29442169e-03 1.69163216e-02 2.41477266e-02 4.13223123e-03
      7.23140500e-03 8.65185913e-03 5.25568165e-02 2.84090918e-03
      3.09917349e-02 1.42045459e-03 0. 4.11931835e-02 6.45661145e-04
      1.08471075e-02 8.78099166e-03 1.54958677e-03 2.58264458e-03
      4.51962790e-03 9.03925626e-04 6.45661145e-04 1.67871895e-03
      1.73037183e-02 3.87396693e-04 1.42045459e-03 5.16528904e-04 0.
      9.03925626e-04 3.87396693e-04 0. 6.97314041e-03 1.80785125e-03
      1.42045459e-03 9.03925626e-04 4.98450398e-02 6.45661145e-04
      1.42045459e-03 6.06921501e-03 1.58832651e-02 1.16219011e-03
      3.09917354e-03 0. 5.16528916e-03 2.58264452e-04 0. 2.24690083e-02
      6.45661145e-04 8.52272753e-03 2.27272734e-02 6.45661145e-04
      1.80785125e-03 5.81095042e-03 4.81663235e-02 6.45661145e-04
      3.71900834e-02 6.45661145e-04 0. 6.97314069e-02 0. 1.66580584e-02
      1.44628100e-02 0. 7.74793385e-04 1.23966942e-02 0. 0.
      6.45661145e-04 6.98605403e-02 0. 1.93698343e-03 0. 0.
      1.42045459e-03 0. 0. 1.67871900e-02 0. 7.61880167e-03
      1.80785125e-03 9.09090936e-02 0. 0. 2.45351233e-02 3.96435969e-02
      0. 1.67871895e-03 0.</_>
    <_>
      8.83726811e-04 1.26246683e-04 1.26246683e-04 1.00997346e-03
      2.52493366e-04 0. 1.76745362e-03 5.04986732e-04 1.26246689e-03
      1.76745362e-03 3.78740067e-03 2.90367380e-03 5.17611392e-03
      5.93359442e-03 2.52493378e-03 1.33821489e-02 9.59474780e-03
      3.93889658e-02 1.81795228e-02 3.33291255e-02 3.15616727e-02
      6.24921098e-02 3.87577340e-02 5.49173094e-02 6.95619211e-02
      6.61532655e-02 4.84787263e-02 6.27446026e-02 6.12296425e-02
      3.87577340e-02 3.25716436e-02 4.99936864e-02 1.71695501e-02
      4.77212481e-02 3.58540602e-02 2.52493378e-02 1.78007819e-02
      1.90632492e-02 1.16146952e-02 4.16614069e-03 1.55283427e-02
      4.67112754e-03 6.43858081e-03 5.93359442e-03 1.76745362e-03
      4.54488071e-03 1.13622018e-03 1.26246689e-03 2.14619376e-03
      7.57480098e-04 2.14619376e-03 1.38871360e-03 5.04986732e-04
      1.26246689e-03 5.04986732e-04 1.26246689e-03 6.31233444e-04
      3.78740049e-04 0. 0. 1.64120691e-03 1.26246683e-04 6.31233444e-04
      1.00997346e-03 2.52493366e-04 0. 1.26246689e-03 2.52493366e-04
      3.78740049e-04 2.52493366e-04 1.38871360e-03 2.52493366e-04
      7.57480098e-04 1.26246683e-04 0. 0. 0. 0. 3.78740049e-04 0.
      2.52493366e-04 0. 3.78740049e-04 0. 1.26246683e-04 1.26246683e-04
      2.52493366e-04 0. 1.26246683e-04 0.</_>
    <_>
      0. 0. 0. 0. 0. 0. 0. 0. 0. 0. 0. 0. 0. 0. 0. 0. 0. 0. 0. 0. 0. 0.
      0. 0. 0. 0. 0. 0. 0. 0. 0. 0. 0. 0. 0. 0. 0. 0. 0. 0. 0. 0.
      2.36294902e-04 3.54442338e-04 4.72589803e-04 2.00850656e-03
      2.71739135e-03 1.13421548e-02 1.67769380e-02 5.42296804e-02
      1.54655010e-01 2.27079391e-01 1.82774097e-01 1.61862001e-01
      8.87287334e-02 4.72589806e-02 2.89461240e-02 8.38846900e-03
      7.91587867e-03 3.07183363e-03 0. 9.45179607e-04 2.36294902e-04 0.
      0. 0. 0. 0. 0. 0. 0. 0. 0. 0. 0. 0. 0. 0. 0. 0. 0. 0. 0. 0. 0. 0.
      0. 0. 0. 0.</_>
    <_>
      6.05984079e-03 0. 0. 2.90367380e-03 5.04986732e-04 6.31233444e-04
      2.14619376e-03 0. 7.57480098e-04 1.13622018e-03 6.69107446e-03
      1.26246689e-03 5.55485440e-03 2.27244035e-03 7.57480098e-04
      1.32559016e-02 2.01994693e-03 1.40133826e-02 8.71102139e-03
      5.55485440e-03 1.03522278e-02 2.67642979e-02 8.71102139e-03
      9.46850143e-03 2.04519629e-02 2.81530116e-02 1.94419902e-02
      2.57543232e-02 3.13091800e-02 1.22459289e-02 2.75217779e-02
      3.16879191e-02 1.56545900e-02 5.93359433e-02 5.28973602e-02
      4.93624546e-02 5.02461828e-02 7.04456493e-02 5.20136356e-02
      2.71430369e-02 6.94356784e-02 2.24719103e-02 3.47178392e-02
      3.09304371e-02 6.31233444e-03 2.42393631e-02 1.06047215e-02
      1.51496027e-02 1.02259815e-02 9.46850143e-03 8.58477503e-03
      8.33228137e-03 2.39868695e-03 2.65118037e-03 2.01994693e-03
      8.96351505e-03 1.38871360e-03 2.65118037e-03 5.04986732e-04 0.
      4.54488071e-03 2.52493366e-04 1.89370033e-03 2.39868695e-03
      1.26246683e-04 2.52493366e-04 2.39868695e-03 1.26246683e-04 0.
      5.04986732e-04 3.40866041e-03 0. 3.78740049e-04 1.26246683e-04 0.
      6.31233444e-04 0. 0. 8.83726811e-04 0. 3.78740049e-04
      3.78740049e-04 2.65118037e-03 0. 0. 1.89370033e-03 2.52493378e-03
      0. 0. 0.</_>
    <_>
      3.33049893e-02 4.25170059e-04 4.10997728e-03 7.08616758e-03
      8.50340165e-03 1.51643995e-02 2.96201818e-02 2.80612241e-02
      5.52721098e-02 5.76814041e-02 1.19047619e-01 8.95691589e-02
      6.77437633e-02 6.73185959e-02 1.23299323e-02 6.70351461e-02
      1.95578225e-02 4.90362793e-02 1.72902495e-02 4.81859408e-03
      4.53514745e-03 2.39512473e-02 5.66893432e-04 2.83446716e-04
      2.12585041e-03 3.21712010e-02 4.25170059e-04 4.10997728e-03
      9.92063549e-04 0. 4.25170059e-04 0. 0. 1.50226755e-02 0.
      8.07823148e-03 1.41723361e-03 5.07369600e-02 0. 0. 1.20464852e-02
      3.38718817e-02 1.41723358e-04 2.83446722e-03 0. 8.21995456e-03 0.
      4.25170059e-04 8.92857183e-03 2.55102036e-03 4.10997728e-03
      3.54308379e-03 2.83446716e-04 4.25170059e-04 7.08616804e-04
      6.94444450e-03 0. 9.92063549e-04 0. 0. 2.12585041e-03 0. 0.
      9.92063549e-04 0. 0. 1.41723358e-04 0. 0. 0. 1.27551018e-03 0. 0.
      0. 0. 0. 0. 0. 5.66893432e-04 0. 0. 0. 7.08616758e-03 0. 0.
      7.08616804e-04 1.55895692e-03 4.25170059e-04 1.27551018e-03 0.</_>
    <_>
      1.10408060e-01 2.58264452e-04 5.16528904e-04 2.33729333e-02
      7.74793385e-04 3.87396687e-03 2.24690083e-02 2.71177688e-03
      4.51962790e-03 1.00723142e-02 4.85537201e-02 3.48657020e-03
      5.25568165e-02 3.87396687e-03 4.26136376e-03 7.58006200e-02
      2.71177688e-03 3.18956599e-02 4.11931835e-02 2.58264458e-03
      2.97004124e-03 3.00878100e-02 2.97004124e-03 2.45351251e-03
      3.87396687e-03 5.72055802e-02 1.16219011e-03 9.29752085e-03
      3.74483480e-03 0. 8.13533086e-03 3.87396693e-04 2.58264452e-04
      2.00154968e-02 3.87396693e-04 1.05888434e-02 3.61570250e-03
      1.09116733e-01 0. 1.29132226e-04 1.71745867e-02 5.60433902e-02 0.
      9.03925626e-04 0. 6.84400834e-03 0. 0. 2.32438017e-02 0.
      3.61570250e-03 8.26446246e-03 0. 6.45661145e-04 1.42045459e-03
      2.80216951e-02 2.58264452e-04 9.42665245e-03 1.29132226e-04 0.
      2.10485533e-02 0. 7.74793385e-04 3.22830584e-03 0. 1.29132226e-04
      5.16528916e-03 0. 0. 0. 1.80785116e-02 0. 1.03305781e-03 0. 0.
      7.74793385e-04 0. 0. 6.45661168e-03 0. 2.06611562e-03
      6.45661145e-04 5.06198332e-02 0. 2.58264452e-04 4.13223123e-03
      1.43336775e-02 2.58264452e-04 2.71177688e-03 0.</_>
    <_>
      8.15305561e-02 2.78528929e-02 5.69226593e-02 6.78745285e-02
      6.84153587e-02 6.93618208e-02 9.05895084e-02 3.54245529e-02
      4.69172522e-02 3.23147662e-02 5.82747422e-02 1.17631154e-02
      2.98810173e-02 3.24499724e-03 0. 2.60951873e-02 4.05624654e-04
      5.81395347e-03 8.11249297e-03 2.70416436e-04 6.76041120e-04
      6.48999447e-03 0. 0. 1.35208218e-04 4.73228795e-03 0.
      2.70416436e-04 0. 0. 0. 0. 0. 2.02812324e-03 0. 1.35208218e-04 0.
      5.13791246e-03 0. 0. 8.11249309e-04 1.62249862e-03 0. 0. 0.
      1.35208218e-04 0. 0. 1.48729037e-03 0. 2.70416436e-04
      5.40832873e-04 0. 0. 0. 2.43374798e-03 0. 1.08166575e-03 0. 0.
      6.35478646e-03 0. 6.76041120e-04 2.29853974e-03 0. 0.
      1.48729037e-03 0. 0. 0. 8.24770145e-03 0. 1.35208218e-04
      2.70416436e-04 0. 4.05624654e-04 0. 0. 1.06814494e-02 0.
      9.46457591e-03 1.48729037e-03 3.74526754e-02 1.35208218e-04
      4.19145497e-03 5.34072481e-02 6.16549477e-02 1.43320709e-02
      3.46133038e-02 3.65062198e-03</_>
    <_>
      1.85950417e-02 0. 0. 2.58264458e-03 0. 1.29132229e-03
      5.16528916e-03 0. 5.16528904e-04 5.29442169e-03 1.29132234e-02
      7.61880167e-03 2.86673550e-02 2.84090918e-03 5.16528904e-04
      5.39772734e-02 2.19524791e-03 4.27427702e-02 3.87396701e-02
      8.00619833e-03 1.63997933e-02 9.46539268e-02 1.11053716e-02
      5.55268582e-03 2.23398767e-02 8.30320269e-02 1.23966942e-02
      5.57851233e-02 2.80216951e-02 2.97004124e-03 3.08626033e-02
      8.00619833e-03 5.16528916e-03 7.70919397e-02 1.48502067e-02
      4.51962799e-02 2.78925616e-02 4.36466932e-02 6.45661145e-04
      6.19834708e-03 5.51394634e-02 3.71900834e-02 3.48657020e-03
      8.52272753e-03 7.74793385e-04 1.74328517e-02 1.42045459e-03
      2.58264452e-04 1.30423550e-02 2.58264452e-04 4.77789249e-03
      3.35743790e-03 0. 0. 2.58264452e-04 1.38171492e-02 0.
      1.29132229e-03 0. 0. 8.52272753e-03 0. 2.58264452e-04
      9.03925626e-04 0. 0. 0. 0. 0. 0. 1.29132229e-03 0. 0. 0. 0. 0. 0.
      0. 3.87396693e-04 0. 0. 0. 3.35743790e-03 0. 0. 0. 7.74793385e-04
      0. 0. 0.</_>
    <_>
      4.05405387e-02 0. 0. 1.64353545e-03 0. 0. 0. 0. 0. 0.
      9.13075230e-04 0. 7.30460219e-04 0. 0. 6.75675692e-03 0.
      1.82615055e-04 1.27830531e-03 0. 0. 7.30460184e-03 0. 0. 0.
      1.88093502e-02 3.65230109e-04 5.11322124e-03 1.64353545e-03 0.
      5.47845149e-04 0. 0. 2.94010229e-02 0. 9.49598290e-03
      3.10445577e-03 5.29583655e-02 0. 5.47845149e-04 2.26442665e-02
      5.14974445e-02 3.65230109e-04 8.58290680e-03 0. 2.19138060e-02
      2.73922575e-03 1.64353545e-03 9.02118310e-02 4.20014607e-03
      2.94010229e-02 6.79327995e-02 4.38276120e-03 1.46092037e-02
      4.62016053e-02 1.07742876e-01 1.02264425e-02 1.12308256e-01
      2.55661062e-03 0. 8.40029195e-02 5.47845149e-04 2.66617965e-02
      3.41490135e-02 0. 3.65230109e-04 1.95398107e-02 1.82615055e-04 0.
      1.27830531e-03 2.77574863e-02 1.82615055e-04 1.46092044e-03 0. 0.
      3.65230109e-04 0. 0. 4.38276120e-03 0. 1.46092044e-03 0.
      1.11395177e-02 0. 0. 5.47845149e-04 5.47845149e-03 0. 0. 0.</_>
    <_>
      4.10640500e-02 1.29132226e-04 1.29132226e-04 1.09762400e-02
      7.74793385e-04 6.45661168e-03 1.87241733e-02 3.35743790e-03
      7.61880167e-03 2.94421483e-02 7.36053735e-02 2.78925616e-02
      1.01368800e-01 2.28564050e-02 6.84400834e-03 1.49664253e-01
      1.29132234e-02 8.36776868e-02 8.75516534e-02 1.03305783e-02
      8.52272753e-03 6.10795468e-02 4.13223123e-03 1.29132229e-03
      4.90702502e-03 5.77221066e-02 3.61570250e-03 9.81405005e-03
      5.29442169e-03 1.29132226e-04 4.00309917e-03 2.06611562e-03
      3.87396693e-04 1.34297516e-02 3.09917354e-03 5.16528916e-03
      2.19524791e-03 2.85382234e-02 2.58264452e-04 1.80785125e-03
      9.81405005e-03 1.21384300e-02 1.54958677e-03 4.64876043e-03 0.
      5.16528916e-03 1.03305781e-03 1.29132226e-04 3.74483480e-03
      5.16528904e-04 0. 1.16219011e-03 0. 2.58264452e-04 1.42045459e-03
      3.74483480e-03 0. 1.03305781e-03 0. 0. 1.00723142e-02 0. 0.
      5.16528904e-04 0. 0. 3.87396693e-04 0. 0. 0. 3.74483480e-03 0.
      2.58264452e-04 0. 0. 2.58264452e-04 0. 0. 3.87396693e-04 0.
      6.45661145e-04 6.45661145e-04 1.57541316e-02 0. 0. 2.58264458e-03
      4.90702502e-03 0. 6.45661145e-04 0.</_>
    <_>
      9.00051668e-02 1.16219011e-03 6.97314041e-03 4.53254133e-02
      8.52272753e-03 2.33729333e-02 4.24845032e-02 1.67871900e-02
      2.00154968e-02 2.38894634e-02 7.46384263e-02 1.26549583e-02
      5.37190065e-02 8.39359500e-03 2.19524791e-03 4.70041335e-02
      1.42045459e-03 1.08471075e-02 1.43336775e-02 2.58264452e-04
      1.54958677e-03 8.13533086e-03 3.87396693e-04 0. 1.67871895e-03
      1.91115700e-02 7.74793385e-04 3.09917354e-03 1.67871895e-03
      2.58264452e-04 2.06611562e-03 9.03925626e-04 1.29132226e-04
      5.81095042e-03 6.45661145e-04 2.58264458e-03 1.03305781e-03
      4.45506200e-02 0. 6.45661145e-04 5.55268582e-03 1.43336775e-02 0.
      2.32438021e-03 0. 3.87396687e-03 0. 0. 1.65289249e-02
      3.87396693e-04 1.03305781e-03 9.29752085e-03 6.45661145e-04
      1.80785125e-03 5.81095042e-03 4.18388434e-02 2.84090918e-03
      1.58832651e-02 3.87396693e-04 0. 4.20971066e-02 0. 3.74483480e-03
      1.08471075e-02 0. 3.87396693e-04 1.39462808e-02 0. 0. 0.
      3.95144634e-02 0. 4.39049583e-03 3.87396693e-04 0. 2.19524791e-03
      0. 0. 2.35020667e-02 0. 8.65185913e-03 1.54958677e-03
      6.10795468e-02 2.58264452e-04 7.74793385e-04 2.23398767e-02
      3.34452465e-02 9.03925626e-04 8.39359500e-03 0.</_>
    <_>
      3.02549880e-02 0. 0. 1.32117842e-04 0. 0. 3.96353542e-04 0.
      2.64235685e-04 2.64235685e-04 1.18906063e-03 9.24824970e-04
      1.18906063e-03 2.64235702e-03 6.60589256e-04 1.21548418e-02
      1.18906063e-03 6.34165667e-03 2.24600337e-03 5.28471370e-04
      2.64235685e-04 2.11388548e-03 1.32117842e-04 0. 1.32117842e-04
      1.42687280e-02 3.96353542e-04 7.92707084e-04 1.32117842e-04 0.
      1.45329640e-03 5.28471370e-04 2.64235685e-04 1.16263712e-02
      1.18906063e-03 8.98401346e-03 1.07015455e-02 5.06011359e-02
      2.51023914e-03 7.39859976e-03 5.99815026e-02 6.27559796e-02
      5.81318559e-03 6.32844493e-02 1.32117851e-03 8.75941366e-02
      1.25511959e-02 1.74395554e-02 1.27361611e-01 3.98995914e-02
      6.60589263e-02 7.39859939e-02 2.39133313e-02 3.23688723e-02
      1.70432031e-02 4.83551323e-02 6.34165667e-03 2.70841587e-02
      1.05694274e-03 0. 2.20636800e-02 1.18906063e-03 9.90883913e-03
      8.19130708e-03 9.24824970e-04 5.28471370e-04 2.11388548e-03 0. 0.
      0. 1.84964994e-03 0. 9.24824970e-04 0. 0. 0. 0. 0. 2.64235685e-04
      0. 0. 0. 3.83141753e-03 0. 0. 0. 1.32117842e-04 0. 0. 0.</_>
    <_>
      8.40802938e-02 7.57480133e-03 1.03522278e-02 4.83524799e-02
      1.65383164e-02 4.21663933e-02 5.84522150e-02 4.57012989e-02
      5.71897477e-02 4.50700670e-02 6.11033961e-02 1.78007819e-02
      1.86845101e-02 9.08976141e-03 3.40866041e-03 1.43921226e-02
      2.77742720e-03 2.65118037e-03 2.27244035e-03 3.78740049e-04
      1.00997346e-03 2.14619376e-03 1.26246683e-04 0. 2.52493366e-04
      5.17611392e-03 0. 5.04986732e-04 2.52493366e-04 0. 3.78740049e-04
      1.26246683e-04 0. 2.65118037e-03 0. 1.13622018e-03 2.52493366e-04
      1.35083953e-02 0. 0. 2.52493366e-04 2.52493378e-03 0. 0. 0.
      1.26246683e-04 0. 0. 1.89370033e-03 8.83726811e-04 8.83726811e-04
      1.38871360e-03 0. 0. 0. 6.31233444e-03 0. 1.76745362e-03 0. 0.
      2.77742706e-02 0. 6.31233444e-04 1.64120691e-03 0. 0.
      5.30236075e-03 0. 0. 0. 3.26978900e-02 0. 1.64120691e-03 0. 0.
      3.78740049e-04 0. 0. 1.99469756e-02 0. 5.42860758e-03
      7.57480098e-04 1.23469256e-01 2.52493366e-04 4.16614069e-03
      6.98144138e-02 1.03522286e-01 1.64120691e-03 7.95354135e-03
      1.38871360e-03</_>
    <_>
      4.11564186e-02 6.69107446e-03 1.51496027e-02 5.54222949e-02
      2.51230914e-02 4.89837155e-02 9.65787172e-02 2.67642979e-02
      5.03724292e-02 6.62795082e-02 8.87514204e-02 3.54753174e-02
      7.68842325e-02 2.68905442e-02 1.26246689e-03 7.95354098e-02
      4.67112754e-03 5.08774146e-02 2.84055043e-02 3.66115384e-03
      4.29238752e-03 1.60333291e-02 7.57480098e-04 1.13622018e-03
      1.76745362e-03 1.33821489e-02 5.04986732e-04 4.03989386e-03
      6.31233444e-04 0. 3.78740049e-04 1.26246683e-04 0. 3.91364750e-03
      3.78740049e-04 2.01994693e-03 2.52493366e-04 1.35083953e-02 0. 0.
      8.83726811e-04 3.02992039e-03 0. 0. 0. 1.13622018e-03 0. 0.
      2.39868695e-03 0. 2.52493366e-04 1.26246683e-04 0. 0.
      2.52493366e-04 2.77742720e-03 0. 2.52493366e-04 0. 0.
      6.81732083e-03 0. 3.78740049e-04 7.57480098e-04 0. 0.
      7.57480098e-04 0. 0. 1.26246683e-04 7.06981448e-03 0.
      1.64120691e-03 1.26246683e-04 0. 8.83726811e-04 2.52493366e-04 0.
      9.08976141e-03 0. 2.27244035e-03 1.89370033e-03 1.84320156e-02 0.
      7.57480098e-04 1.42658753e-02 1.65383164e-02 8.83726811e-04
      1.32559016e-02 6.31233444e-04</_>
    <_>
      5.16528916e-03 1.67871895e-03 7.48966960e-03 9.81405005e-03
      1.45919425e-02 2.82799583e-02 4.33884300e-02 6.93440065e-02
      9.69783068e-02 7.20557868e-02 1.57024801e-01 1.09891526e-01
      6.39204532e-02 8.67768601e-02 2.42768601e-02 2.87964884e-02
      2.37603299e-02 1.92407016e-02 4.90702502e-03 2.71177688e-03
      1.54958677e-03 4.39049583e-03 1.29132226e-04 0. 5.16528904e-04
      4.26136376e-03 1.29132226e-04 5.16528904e-04 3.87396693e-04 0.
      6.45661145e-04 0. 2.58264452e-04 3.09917354e-03 5.16528904e-04
      1.16219011e-03 1.54958677e-03 4.64876043e-03 0. 6.45661145e-04
      3.61570250e-03 3.61570250e-03 2.58264452e-04 4.51962790e-03
      3.87396693e-04 5.16528916e-03 2.06611562e-03 3.22830584e-03
      5.03615709e-03 4.13223123e-03 3.87396687e-03 8.26446246e-03
      4.26136376e-03 7.10227294e-03 4.26136376e-03 8.91012419e-03
      1.80785125e-03 5.16528916e-03 6.45661145e-04 0. 6.32747915e-03
      5.16528904e-04 2.71177688e-03 7.74793385e-04 0. 2.58264452e-04
      1.42045459e-03 0. 0. 0. 1.80785125e-03 0. 3.87396693e-04 0. 0.
      7.74793385e-04 0. 0. 2.45351251e-03 0. 1.03305781e-03 0.
      3.61570250e-03 0. 2.58264452e-04 1.54958677e-03 3.35743790e-03
      2.58264452e-04 1.67871895e-03 0.</_>
    <_>
      1.30796675e-02 0. 0. 9.24824970e-04 0. 5.28471370e-04
      1.32117851e-03 0. 5.28471370e-04 4.62412462e-03 1.53256701e-02
      1.04373097e-02 2.27242708e-02 1.82322636e-02 6.34165667e-03
      3.85784134e-02 2.17994452e-02 6.31523356e-02 2.14030910e-02
      3.30294631e-02 1.10978996e-02 4.47879508e-02 8.05918872e-03
      3.69929988e-03 1.20227244e-02 4.50521857e-02 6.07742090e-03
      2.07425021e-02 1.29475491e-02 1.05694274e-03 1.21548418e-02
      4.75624250e-03 2.37812125e-03 3.69929969e-02 4.35988884e-03
      2.25921515e-02 1.41366096e-02 3.15761678e-02 4.09565354e-03
      7.92707130e-03 4.95441929e-02 4.59770113e-02 4.88836039e-03
      2.88016908e-02 2.11388548e-03 4.18813564e-02 1.73074380e-02
      1.98176783e-02 5.60179688e-02 2.07425021e-02 2.72162762e-02
      2.45739203e-02 9.90883913e-03 9.64460336e-03 5.15259616e-03
      1.99497957e-02 3.17082833e-03 5.28471405e-03 2.11388548e-03 0.
      7.66283507e-03 1.32117842e-04 1.32117851e-03 5.68106771e-03 0.
      1.32117842e-04 2.64235702e-03 0. 0. 0. 1.45329640e-03
      1.32117842e-04 0. 2.64235685e-04 0. 1.32117842e-04 0. 0.
      5.28471370e-04 0. 1.32117842e-04 0. 5.41683193e-03 0. 0.
      3.96353542e-04 1.05694274e-03 0. 2.64235685e-04 0.</_>
    <_>
      2.54390500e-02 0. 9.03925626e-04 1.62706617e-02 2.97004124e-03
      6.58574374e-03 3.22830565e-02 3.30578499e-02 1.10666320e-01
      8.07076469e-02 9.94318202e-02 7.55423531e-02 8.44524801e-02
      4.27427702e-02 9.81405005e-03 9.45247933e-02 1.66580584e-02
      5.32024801e-02 3.22830565e-02 9.29752085e-03 6.45661168e-03
      1.91115700e-02 1.29132229e-03 2.58264452e-04 1.54958677e-03
      1.56250000e-02 1.29132226e-04 4.77789249e-03 1.80785125e-03 0.
      2.71177688e-03 7.74793385e-04 0. 9.81405005e-03 6.45661145e-04
      2.58264458e-03 1.16219011e-03 2.40185950e-02 0. 2.19524791e-03
      1.03305783e-02 1.36880167e-02 6.45661145e-04 1.54958677e-03 0.
      2.97004124e-03 1.54958677e-03 9.03925626e-04 2.97004124e-03
      9.03925626e-04 6.45661145e-04 2.19524791e-03 3.87396693e-04
      6.45661145e-04 1.42045459e-03 4.77789249e-03 0. 2.32438021e-03 0.
      0. 1.80785125e-03 0. 5.16528904e-04 2.58264452e-04 0.
      1.29132226e-04 1.29132226e-04 0. 0. 0. 2.84090918e-03 0.
      5.16528904e-04 0. 0. 0. 0. 0. 1.54958677e-03 0. 1.29132226e-04 0.
      1.31714875e-02 0. 0. 1.03305781e-03 8.00619833e-03 0.
      2.58264452e-04 0.</_>
    <_>
      1.18147451e-04 0. 0. 0. 0. 0. 0. 0. 0. 0. 0. 0. 0. 0. 0. 0. 0. 0.
      0. 0. 0. 0. 0. 0. 0. 1.18147451e-04 0. 0. 0. 0. 1.18147451e-04 0.
      0. 2.36294902e-04 0. 0. 1.18147451e-04 3.54442338e-04 0.
      5.90737269e-04 1.06332707e-03 7.08884676e-04 2.00850656e-03
      3.42627591e-03 4.25330829e-03 1.44139882e-02 9.80623811e-03
      3.81616242e-02 3.44990566e-02 8.93194675e-02 1.39650285e-01
      1.62452742e-01 1.41776934e-01 1.25472590e-01 6.99432865e-02
      5.47022671e-02 3.72164473e-02 2.23298669e-02 2.18572784e-02
      9.09735356e-03 2.83553870e-03 7.56143685e-03 2.48109642e-03
      1.29962189e-03 1.18147454e-03 2.36294902e-04 5.90737269e-04 0. 0.
      0. 0. 0. 0. 0. 0. 0. 0. 0. 0. 0. 0. 0. 0. 0. 0. 0. 0. 0. 0. 0.</_>
    <_>
      7.19606131e-03 7.57480098e-04 1.38871360e-03 2.65118037e-03
      2.27244035e-03 1.89370033e-03 7.95354135e-03 4.54488071e-03
      8.20603501e-03 7.06981448e-03 1.56545900e-02 1.18671888e-02
      1.66645627e-02 1.65383164e-02 1.19934352e-02 2.94154771e-02
      3.16879191e-02 7.14556277e-02 2.96679717e-02 4.57012989e-02
      3.45915928e-02 6.29970953e-02 3.01729571e-02 3.83789912e-02
      5.58010340e-02 5.18873893e-02 3.19404118e-02 3.56015638e-02
      3.28241400e-02 1.55283427e-02 2.47443505e-02 2.41131168e-02
      1.18671888e-02 3.43391001e-02 2.22194176e-02 1.31296553e-02
      1.41396290e-02 2.42393631e-02 1.03522278e-02 5.30236075e-03
      2.20931694e-02 5.80734760e-03 6.43858081e-03 8.20603501e-03
      1.51496020e-03 5.93359442e-03 1.64120691e-03 2.01994693e-03
      4.29238752e-03 2.52493378e-03 1.51496020e-03 1.76745362e-03
      5.04986732e-04 1.26246683e-04 6.31233444e-04 4.92362073e-03
      1.26246683e-04 2.90367380e-03 1.26246683e-04 0. 2.65118037e-03 0.
      1.89370033e-03 1.13622018e-03 1.26246683e-04 6.31233444e-04
      2.77742720e-03 0. 0. 0. 2.01994693e-03 0. 1.64120691e-03
      2.52493366e-04 0. 1.26246683e-04 2.52493366e-04 0. 1.26246689e-03
      5.04986732e-04 1.26246689e-03 7.57480098e-04 3.78740067e-03
      3.78740049e-04 2.52493366e-04 3.02992039e-03 1.13622018e-03
      2.52493366e-04 2.01994693e-03 0.</_>
    <_>
      4.58419435e-02 0. 0. 1.02014467e-02 1.29132226e-04 6.45661168e-03
      1.11053716e-02 9.03925626e-04 2.58264458e-03 1.00723142e-02
      3.26704532e-02 6.06921501e-03 3.96435969e-02 2.45351251e-03 0.
      7.83832669e-02 2.06611562e-03 2.72468999e-02 4.44214866e-02
      1.80785125e-03 7.74793373e-03 5.08781001e-02 2.84090918e-03
      7.74793385e-04 6.32747915e-03 9.34917331e-02 2.19524791e-03
      1.92407016e-02 4.90702502e-03 1.29132226e-04 8.13533086e-03
      1.80785125e-03 0. 5.69473132e-02 5.16528904e-04 4.23553735e-02
      1.12345042e-02 7.50258267e-02 0. 3.35743790e-03 6.32747933e-02
      5.34607433e-02 2.06611562e-03 1.75619833e-02 1.16219011e-03
      1.88533049e-02 2.58264458e-03 4.00309917e-03 2.49225199e-02
      4.13223123e-03 4.64876043e-03 8.26446246e-03 4.39049583e-03
      3.74483480e-03 3.87396693e-04 2.16942150e-02 7.74793385e-04
      4.00309917e-03 3.87396693e-04 0. 6.06921501e-03 0. 1.29132226e-04
      9.03925626e-04 0. 0. 1.03305781e-03 0. 0. 0. 3.74483480e-03 0.
      1.29132226e-04 0. 0. 0. 0. 0. 1.29132229e-03 0. 1.29132226e-04
      2.58264452e-04 2.32438017e-02 0. 0. 2.19524791e-03 9.81405005e-03
      0. 7.74793385e-04 0.</_>
    <_>
      5.49173094e-02 1.24984216e-02 2.27244031e-02 6.27446026e-02
      5.03724292e-02 9.85986590e-02 1.15136981e-01 8.71102139e-02
      8.49640220e-02 5.36548421e-02 4.67112735e-02 1.16146952e-02
      1.96944829e-02 2.90367380e-03 1.26246683e-04 1.07309679e-02
      8.83726811e-04 2.39868695e-03 2.65118037e-03 0. 0. 4.29238752e-03
      0. 0. 0. 2.14619376e-03 2.52493366e-04 5.04986732e-04
      2.52493366e-04 0. 5.04986732e-04 0. 0. 1.26246689e-03 0.
      8.83726811e-04 2.52493366e-04 1.64120691e-03 0. 0. 2.52493366e-04
      1.38871360e-03 0. 1.26246683e-04 0. 8.83726811e-04 0. 0.
      1.38871360e-03 0. 5.04986732e-04 6.31233444e-04 0. 0. 0.
      2.77742720e-03 0. 1.26246683e-04 0. 0. 4.16614069e-03 0. 0.
      3.78740049e-04 0. 0. 2.52493366e-04 0. 0. 0. 6.31233444e-03 0.
      1.38871360e-03 7.57480098e-04 0. 1.26246689e-03 1.26246683e-04
      3.78740049e-04 1.12359552e-02 7.57480098e-04 9.46850143e-03
      5.80734760e-03 3.05516981e-02 5.04986732e-04 1.13622015e-02
      7.42330477e-02 4.26713787e-02 3.40866041e-03 3.30766328e-02
      1.38871360e-03</_>
    <_>
      2.47443505e-02 1.16146952e-02 2.92892307e-02 5.60535304e-02
      4.48175743e-02 5.61797768e-02 1.00871101e-01 7.05718994e-02
      9.59474817e-02 7.44855478e-02 1.17535666e-01 8.07978809e-02
      5.39073348e-02 4.11564186e-02 5.42860758e-03 3.54753174e-02
      1.09834615e-02 1.43921226e-02 4.54488071e-03 1.38871360e-03
      1.00997346e-03 1.26246689e-03 0. 0. 0. 1.26246689e-03 0.
      5.04986732e-04 0. 0. 2.52493366e-04 0. 0. 0. 0. 0. 0.
      2.52493366e-04 0. 0. 0. 2.52493366e-04 0. 0. 0. 0. 0. 0. 0. 0. 0.
      0. 0. 0. 0. 0. 0. 0. 0. 0. 1.76745362e-03 0. 0. 0. 0. 0. 0. 0. 0.
      0. 1.38871360e-03 0. 1.26246683e-04 0. 0. 1.26246683e-04 0. 0.
      2.27244035e-03 0. 1.38871360e-03 1.26246689e-03 1.02259815e-02 0.
      1.26246689e-03 1.43921226e-02 1.32559016e-02 1.76745362e-03
      1.45183690e-02 1.26246689e-03</_>
    <_>
      2.82799583e-02 5.68181835e-03 1.20092975e-02 4.35175635e-02
      3.07334717e-02 4.71332632e-02 1.12603307e-01 3.18956599e-02
      6.22417368e-02 8.16115737e-02 1.09504133e-01 6.05630167e-02
      9.81404930e-02 3.84814031e-02 1.70454551e-02 6.57283068e-02
      1.07179750e-02 4.17097099e-02 1.92407016e-02 4.51962790e-03
      3.35743790e-03 1.54958675e-02 5.16528904e-04 5.16528904e-04
      1.16219011e-03 7.10227294e-03 0. 2.06611562e-03 0. 0. 0. 0. 0.
      7.74793385e-04 0. 0. 0. 1.16219011e-03 0. 0. 0. 0. 0. 0. 0. 0. 0.
      0. 0. 0. 0. 0. 0. 0. 0. 2.58264452e-04 0. 1.03305781e-03 0. 0.
      1.80785125e-03 0. 0. 0. 0. 0. 2.58264452e-04 0. 0. 2.58264452e-04
      3.35743790e-03 0. 1.29132229e-03 0. 0. 2.58264452e-04 0. 0.
      1.54958677e-03 0. 5.16528904e-04 3.87396693e-04 1.17510334e-02 0.
      3.87396693e-04 3.87396687e-03 9.16838832e-03 2.19524791e-03
      8.00619833e-03 1.29132226e-04</_>
    <_>
      5.21398820e-02 5.17611392e-03 5.30236075e-03 5.30236065e-02
      1.09834615e-02 3.02992053e-02 6.07246570e-02 8.83726776e-03
      1.71695501e-02 3.98939513e-02 7.48642832e-02 2.36081295e-02
      6.65320009e-02 1.70433018e-02 8.83726811e-04 7.01931566e-02
      3.02992039e-03 4.59537953e-02 4.31763679e-02 5.80734760e-03
      4.92362073e-03 3.96414585e-02 2.27244035e-03 1.26246683e-04
      2.52493378e-03 3.38341109e-02 1.00997346e-03 1.14884488e-02
      2.77742720e-03 0. 4.79737390e-03 3.78740049e-04 5.04986732e-04
      1.59070827e-02 2.39868695e-03 8.07978772e-03 1.89370033e-03
      2.23456640e-02 0. 8.83726811e-04 9.34225507e-03 1.38871353e-02
      3.78740049e-04 4.41863388e-03 0. 7.95354135e-03 3.78740049e-04 0.
      1.07309679e-02 3.78740049e-04 1.51496020e-03 2.77742720e-03 0. 0.
      0. 1.03522278e-02 0. 8.83726811e-04 0. 0. 6.81732083e-03 0.
      6.31233444e-04 2.14619376e-03 0. 0. 3.15616722e-03 0. 0. 0.
      6.81732083e-03 0. 1.26246683e-04 0. 0. 0. 3.78740049e-04
      2.52493366e-04 5.93359442e-03 2.01994693e-03 4.67112754e-03
      5.55485440e-03 2.77742706e-02 2.52493366e-04 3.66115384e-03
      3.37078646e-02 2.42393631e-02 3.15616722e-03 1.52758490e-02 0.</_>
    <_>
      6.72258958e-02 3.54442350e-03 1.77221175e-03 6.39177710e-02
      4.13516071e-03 1.67769380e-02 3.07183359e-02 2.48109642e-03
      2.95368629e-03 1.70132332e-02 4.87948954e-02 5.31663513e-03
      2.30387524e-02 1.29962189e-03 0. 2.54017022e-02 1.18147451e-04
      3.66257085e-03 5.43478271e-03 1.06332707e-03 4.72589803e-04
      3.89886578e-03 5.90737269e-04 2.36294902e-04 4.72589803e-04
      5.90737257e-03 0. 4.72589803e-04 1.18147451e-04 0. 2.36294902e-04
      0. 0. 2.36294908e-03 0. 2.36294902e-04 1.18147451e-04
      9.80623811e-03 0. 4.72589803e-04 2.12665414e-03 1.89035921e-03
      5.90737269e-04 2.00850656e-03 0. 2.24480149e-03 4.72589803e-04
      2.36294902e-04 5.08034043e-03 1.18147454e-03 3.78071843e-03
      3.78071843e-03 0. 8.27032141e-04 1.89035921e-03 1.71313807e-02
      1.06332707e-03 5.78922499e-03 4.72589803e-04 0. 3.44990566e-02 0.
      4.37145540e-03 6.37996197e-03 2.36294902e-04 1.41776935e-03
      2.16209833e-02 0. 0. 1.53591682e-03 6.26181439e-02 4.72589803e-04
      2.52835546e-02 4.60775057e-03 0. 1.78402644e-02 5.90737269e-04
      7.08884676e-04 6.10822290e-02 2.00850656e-03 3.62712666e-02
      1.57136098e-02 8.06947052e-02 0. 9.80623811e-03 8.10491517e-02
      9.91257057e-02 8.27032141e-04 3.06001883e-02 0.</_>
    <_>
      1.87602580e-01 2.27244035e-03 3.28241382e-03 6.17346279e-02
      3.15616722e-03 2.37343777e-02 4.46913280e-02 5.04986756e-03
      1.06047215e-02 1.89370029e-02 1.01754829e-01 4.54488071e-03
      4.25451323e-02 3.15616722e-03 0. 4.60800417e-02 7.57480098e-04
      5.80734760e-03 7.57480133e-03 0. 3.78740049e-04 4.41863388e-03
      1.26246683e-04 0. 6.31233444e-04 2.27244035e-03 0. 1.13622018e-03
      0. 0. 0. 0. 0. 8.83726811e-04 2.52493366e-04 7.57480098e-04
      3.78740049e-04 2.65118033e-02 0. 0. 2.52493366e-04 2.01994693e-03
      0. 0. 0. 1.26246683e-04 0. 0. 1.38871360e-03 0. 3.78740049e-04
      1.26246683e-04 0. 0. 2.52493366e-04 1.48971090e-02 0.
      1.00997346e-03 0. 0. 4.17876542e-02 0. 2.52493366e-04
      1.76745362e-03 0. 0. 5.04986732e-04 0. 0. 0. 3.58540602e-02 0.
      2.14619376e-03 1.26246683e-04 0. 7.57480098e-04 1.26246683e-04 0.
      1.31296553e-02 0. 3.78740067e-03 1.76745362e-03 1.28014132e-01
      2.52493366e-04 1.51496020e-03 4.64587808e-02 5.34023494e-02
      5.30236075e-03 2.38606241e-02 7.70104770e-03</_>
    <_>
      1.06332707e-03 0. 0. 1.18147451e-04 0. 0. 2.36294902e-04 0. 0.
      2.36294902e-04 9.45179607e-04 5.90737269e-04 1.89035921e-03
      2.71739135e-03 2.48109642e-03 5.31663513e-03 9.92438570e-03
      3.74527425e-02 3.52079384e-02 2.90642716e-02 4.89130430e-02
      7.08884671e-02 5.23393191e-02 8.14035907e-02 8.48298669e-02
      8.37665424e-02 5.71833663e-02 7.47873336e-02 6.81710765e-02
      5.62381856e-02 3.83979194e-02 3.93431000e-02 1.58317573e-02
      2.95368619e-02 1.78402644e-02 1.01606809e-02 6.73440471e-03
      9.56994295e-03 5.55292983e-03 3.07183363e-03 5.19848755e-03
      8.27032141e-04 2.24480149e-03 1.53591682e-03 7.08884676e-04
      1.41776935e-03 4.72589803e-04 5.90737269e-04 7.08884676e-04
      2.36294902e-04 3.54442338e-04 1.18147451e-04 0. 0. 2.36294902e-04
      5.90737269e-04 0. 1.18147451e-04 0. 0. 2.36294902e-04 0.
      2.36294902e-04 1.18147451e-04 0. 0. 1.18147451e-04 0. 0. 0.
      2.36294902e-04 0. 1.18147451e-04 0. 0. 2.36294902e-04 0. 0.
      3.54442338e-04 0. 3.54442338e-04 1.18147451e-04 4.72589803e-04 0.
      0. 1.18147451e-04 0. 0. 1.18147451e-04 0.</_>
    <_>
      2.66439915e-02 2.97619053e-03 5.38548734e-03 9.21201799e-03
      1.04875285e-02 2.66439915e-02 5.28628118e-02 5.45634925e-02
      9.56632644e-02 8.53174627e-02 1.34353742e-01 8.36167783e-02
      7.83730149e-02 3.57142873e-02 1.20464852e-02 4.28004526e-02
      1.20464852e-02 2.28174608e-02 1.27551025e-02 4.96031763e-03
      2.97619053e-03 1.24716554e-02 5.66893432e-04 4.25170059e-04
      1.55895692e-03 1.20464852e-02 7.08616804e-04 2.83446722e-03
      8.50340119e-04 0. 1.84240367e-03 0. 2.83446716e-04 5.95238106e-03
      4.25170059e-04 3.68480734e-03 5.66893432e-04 1.79988667e-02 0. 0.
      3.82653065e-03 9.92063526e-03 0. 0. 0. 1.84240367e-03 0. 0.
      7.65306130e-03 0. 0. 5.66893432e-04 0. 0. 0. 1.54478457e-02 0.
      5.24376426e-03 0. 0. 2.18253974e-02 0. 8.50340119e-04
      3.96825420e-03 1.41723358e-04 1.41723358e-04 4.96031763e-03
      1.41723358e-04 0. 4.25170059e-04 1.26133785e-02 1.41723358e-04
      7.08616804e-04 2.83446716e-04 0. 2.83446716e-04 0. 1.41723358e-04
      3.96825420e-03 4.25170059e-04 1.13378686e-03 7.08616804e-04
      1.72902495e-02 0. 2.83446716e-04 2.97619053e-03 5.81065752e-03
      5.66893432e-04 1.27551018e-03 0.</_>
    <_>
      4.10578446e-03 0. 0. 7.24550162e-04 0. 1.20758363e-04
      1.08682527e-03 1.20758363e-04 2.05289223e-03 6.03791792e-04
      3.74350930e-03 5.07185142e-03 2.41516717e-03 8.21156893e-03
      1.81137549e-03 8.81536026e-03 7.48701859e-03 1.32834194e-02
      3.98502592e-03 5.79640130e-03 2.77744234e-03 9.05687734e-03
      1.32834201e-03 9.66066902e-04 3.74350930e-03 1.14720445e-02
      1.56985875e-03 5.79640130e-03 2.77744234e-03 3.62275081e-04
      4.10578446e-03 8.45308532e-04 1.08682527e-03 1.35249365e-02
      2.89820065e-03 1.00229438e-02 6.76246826e-03 1.44910039e-02
      3.62275081e-04 7.60777667e-03 4.69750017e-02 1.92005802e-02
      6.03791792e-03 3.12764160e-02 1.44910032e-03 5.28921634e-02
      1.61816198e-02 1.71476882e-02 6.24320731e-02 3.30877900e-02
      5.62733971e-02 9.23801437e-02 3.46576497e-02 5.36167137e-02
      5.10807857e-02 7.13681951e-02 2.80159395e-02 4.93901707e-02
      1.77514795e-02 1.69061706e-03 3.15179341e-02 6.40019309e-03
      1.82345118e-02 1.15928026e-02 9.66066902e-04 1.08682527e-03
      7.97005184e-03 1.20758363e-04 0. 6.03791792e-04 4.83033434e-03 0.
      9.66066902e-04 0. 0. 0. 0. 0. 6.03791792e-04 0. 0. 0.
      1.08682527e-03 0. 0. 0. 1.20758363e-04 0. 0. 0.</_>
    <_>
      3.83141753e-03 0. 1.32117842e-04 5.28471370e-04 3.96353542e-04
      5.28471370e-04 5.28471370e-04 0. 6.60589256e-04 6.60589256e-04
      3.69929988e-03 1.05694274e-03 3.43506411e-03 6.60589256e-04
      2.64235685e-04 6.07742090e-03 1.98176783e-03 9.24824923e-03
      5.54894982e-03 3.30294622e-03 2.77447491e-03 8.85189604e-03
      5.28471370e-04 3.96353542e-04 6.60589256e-04 1.01730740e-02
      7.92707084e-04 4.88836039e-03 2.24600337e-03 2.64235685e-04
      4.75624250e-03 1.98176783e-03 1.18906063e-03 1.50614344e-02
      2.51023914e-03 9.64460336e-03 4.75624250e-03 1.73074380e-02
      5.28471370e-04 8.85189604e-03 4.49200682e-02 3.39542888e-02
      1.25511959e-02 5.66785559e-02 1.18906063e-03 5.07332534e-02
      2.57629808e-02 3.39542888e-02 6.97582215e-02 6.26238585e-02
      7.53071755e-02 7.94028267e-02 6.52662143e-02 7.01545775e-02
      3.14440466e-02 6.15669191e-02 3.56718190e-02 1.55899059e-02
      1.09657813e-02 1.58541417e-03 8.45554192e-03 2.11388548e-03
      3.17082833e-03 2.51023914e-03 0. 0. 1.32117842e-04 0. 0. 0.
      3.96353542e-04 0. 0. 0. 0. 0. 0. 0. 1.32117842e-04 0. 0. 0.
      3.30294622e-03 0. 0. 0. 0. 0. 0. 0.</_>
    <_>
      5.94530301e-03 0. 0. 9.24824970e-04 0. 7.92707084e-04
      2.90659280e-03 1.32117842e-04 2.64235685e-04 1.32117851e-03
      3.69929988e-03 3.83141753e-03 7.26648187e-03 5.94530301e-03
      1.58541417e-03 1.42687280e-02 4.62412462e-03 1.42687280e-02
      2.64235702e-03 4.62412462e-03 2.64235702e-03 8.85189604e-03
      1.45329640e-03 2.64235702e-03 7.13436399e-03 8.58766027e-03
      3.43506411e-03 5.28471405e-03 3.56718199e-03 7.92707084e-04
      4.22777096e-03 1.45329640e-03 3.96353542e-04 7.92707130e-03
      3.03871045e-03 9.11613181e-03 7.00224610e-03 2.19315626e-02
      3.30294622e-03 1.54577885e-02 7.72889405e-02 2.47060377e-02
      1.59862600e-02 7.74210617e-02 2.37812125e-03 7.71568269e-02
      3.01228687e-02 3.18404026e-02 9.01043713e-02 4.91478406e-02
      6.53983355e-02 7.83458874e-02 3.05192228e-02 2.81411018e-02
      2.82732192e-02 3.87105308e-02 9.24824923e-03 1.82322636e-02
      7.00224610e-03 9.24824970e-04 9.90883913e-03 1.32117842e-04
      6.60589256e-04 4.88836039e-03 0. 0. 5.28471370e-04 0. 0. 0.
      4.75624250e-03 0. 3.96353542e-04 0. 0. 0. 0. 0. 1.18906063e-03 0.
      3.96353542e-04 2.64235685e-04 1.84964994e-03 0. 0. 2.64235685e-04
      5.28471370e-04 0. 0. 0.</_>
    <_>
      3.91068049e-02 0. 0. 2.95368629e-03 0. 2.36294902e-04
      1.01606809e-02 0. 0. 1.41776935e-03 1.19328918e-02 0.
      1.65406428e-02 0. 0. 2.18572784e-02 0. 5.90737269e-04
      5.55292983e-03 0. 0. 4.84404527e-03 0. 0. 0. 1.46502834e-02
      2.36294902e-04 3.42627591e-03 0. 0. 3.54442338e-04 0. 0.
      9.92438570e-03 0. 5.43478271e-03 4.72589803e-04 5.45841195e-02 0.
      0. 1.74858216e-02 3.83979194e-02 2.36294902e-04 5.08034043e-03 0.
      2.16209833e-02 1.53591682e-03 5.90737269e-04 7.15973526e-02
      5.67107741e-03 3.20179574e-02 8.25850666e-02 1.18147451e-02
      2.32750475e-02 4.30056714e-02 1.08459361e-01 1.63043477e-02
      1.00779772e-01 8.97920597e-03 3.54442338e-04 9.03827995e-02
      1.29962189e-03 2.39839312e-02 3.56805287e-02 9.45179607e-04
      1.77221175e-03 1.47684310e-02 1.18147451e-04 0. 1.18147451e-04
      1.37051037e-02 0. 1.65406428e-03 0. 0. 7.08884676e-04 0. 0.
      1.89035921e-03 0. 0. 0. 1.52410204e-02 0. 0. 9.45179607e-04
      2.71739135e-03 0. 0. 0.</_>
    <_>
      0. 0. 0. 0. 0. 0. 0. 0. 0. 0. 0. 0. 0. 0. 0. 0. 0. 3.65230109e-04
      5.47845149e-04 2.00876547e-03 1.64353545e-03 1.00438278e-02
      1.00438278e-02 2.00876556e-02 3.87143902e-02 6.24543466e-02
      7.81592429e-02 9.07596797e-02 1.00255661e-01 1.08655952e-01
      8.08984637e-02 8.03506225e-02 7.32286349e-02 6.37326539e-02
      6.22717328e-02 3.50620896e-02 3.28707099e-02 1.97224244e-02
      1.36961285e-02 3.10445577e-03 3.65230092e-03 3.65230092e-03
      5.47845149e-04 1.46092044e-03 3.65230109e-04 0. 7.30460219e-04
      1.82615055e-04 1.82615055e-04 0. 3.65230109e-04 1.82615055e-04 0.
      0. 0. 0. 0. 0. 0. 0. 0. 0. 0. 0. 0. 0. 0. 0. 0. 0. 0. 0. 0. 0. 0.
      0. 0. 0. 0. 0. 0. 0. 0. 0. 0. 0. 0. 0. 0. 0.</_>
    <_>
      4.66167368e-02 5.68181835e-03 6.84400834e-03 7.86415264e-02
      1.51084708e-02 5.24276868e-02 1.00723140e-01 1.71745867e-02
      2.93130167e-02 6.80526868e-02 1.12990700e-01 3.86105366e-02
      9.49121937e-02 2.10485533e-02 4.39049583e-03 4.93285134e-02
      1.18801650e-02 3.02169416e-02 3.69318165e-02 5.68181835e-03
      2.06611562e-03 1.78202484e-02 5.16528904e-04 0. 2.58264452e-04
      1.31714875e-02 0. 2.84090918e-03 0. 0. 3.87396693e-04 0. 0.
      4.51962790e-03 0. 1.29132229e-03 0. 4.64876043e-03 0. 0.
      1.16219011e-03 1.03305781e-03 0. 0. 0. 0. 0. 0. 0. 0.
      1.29132226e-04 2.58264452e-04 0. 0. 0. 2.71177688e-03 0.
      3.87396693e-04 0. 0. 8.13533086e-03 0. 1.03305781e-03
      7.74793385e-04 0. 0. 2.45351251e-03 0. 0. 0. 6.06921501e-03 0.
      2.06611562e-03 2.58264452e-04 0. 1.03305781e-03 1.29132226e-04 0.
      9.16838832e-03 0. 5.55268582e-03 7.74793385e-04 2.76342984e-02 0.
      7.74793385e-04 1.82076450e-02 1.93698350e-02 1.54958677e-03
      1.52376033e-02 0.</_>
    <_>
      5.56216128e-02 2.51023914e-03 2.77447491e-03 4.16171215e-02
      2.77447491e-03 1.50614344e-02 2.28563882e-02 1.84964994e-03
      1.71753205e-03 3.83141753e-03 2.27242708e-02 1.18906063e-03
      1.88928526e-02 3.96353542e-04 0. 2.25921515e-02 0. 4.62412462e-03
      7.00224610e-03 3.96353542e-04 6.60589256e-04 9.11613181e-03
      2.64235685e-04 3.96353542e-04 9.24824970e-04 1.59862600e-02
      1.18906063e-03 6.34165667e-03 9.24824970e-04 0. 3.30294622e-03
      1.32117842e-04 0. 1.13621354e-02 3.96353542e-04 7.66283507e-03
      3.83141753e-03 3.59360538e-02 1.32117842e-04 2.90659280e-03
      2.70841587e-02 2.15352103e-02 4.22777096e-03 1.37402564e-02
      2.64235685e-04 1.86286159e-02 3.83141753e-03 2.64235702e-03
      3.03871054e-02 4.75624250e-03 1.28154317e-02 2.88016908e-02
      4.75624250e-03 1.28154317e-02 8.98401346e-03 5.41683175e-02
      6.73801033e-03 3.58039364e-02 1.45329640e-03 0. 5.23186699e-02
      7.92707084e-04 2.36490946e-02 1.82322636e-02 2.51023914e-03
      4.09565354e-03 3.02549880e-02 1.05694274e-03 2.64235685e-04
      1.32117851e-03 3.47469933e-02 9.24824970e-04 1.10978996e-02
      4.09565354e-03 0. 6.07742090e-03 1.45329640e-03 3.96353542e-04
      2.84053367e-02 1.05694274e-03 1.49293169e-02 1.00409565e-02
      3.44827585e-02 0. 5.81318559e-03 3.68608795e-02 3.27652283e-02
      6.47377456e-03 1.25511959e-02 0.</_>
    <_>
      3.17816623e-02 1.06332707e-03 1.06332707e-03 3.42627591e-03
      9.45179607e-04 1.29962189e-03 4.13516071e-03 4.13516071e-03
      6.97069941e-03 6.73440471e-03 1.07514178e-02 5.19848755e-03
      6.73440471e-03 5.43478271e-03 9.45179607e-04 7.67958397e-03
      7.08884676e-04 3.78071843e-03 3.18998098e-03 4.72589803e-04
      3.54442338e-04 6.37996197e-03 0. 0. 1.18147451e-04 2.30387524e-02
      0. 1.89035921e-03 0. 0. 3.54442338e-04 0. 0. 1.64224952e-02 0.
      2.59924377e-03 1.18147454e-03 1.20510399e-01 0. 0. 2.69376189e-02
      8.90831724e-02 1.18147451e-04 1.19328918e-02 0. 2.82372404e-02
      1.41776935e-03 0. 1.19210772e-01 1.06332707e-03 1.66587904e-02
      4.95037809e-02 0. 1.77221175e-03 9.21550114e-03 1.85727790e-01 0.
      4.24149334e-02 0. 0. 9.66446102e-02 0. 2.00850656e-03
      1.31143667e-02 0. 0. 6.49810955e-03 0. 0. 0. 8.97920597e-03 0. 0.
      0. 0. 0. 0. 0. 1.65406428e-03 0. 3.54442338e-04 0. 4.37145540e-03
      0. 0. 5.90737269e-04 2.12665414e-03 0. 1.06332707e-03 0.</_>
    <_>
      4.13516071e-03 0. 0. 1.53591682e-03 0. 2.36294902e-04
      3.54442338e-04 0. 0. 0. 2.00850656e-03 0. 1.29962189e-03 0. 0.
      4.72589815e-03 0. 2.48109642e-03 2.83553870e-03 4.72589803e-04
      1.53591682e-03 5.78922499e-03 1.06332707e-03 8.27032141e-04
      3.30812857e-03 1.44139882e-02 2.71739135e-03 5.78922499e-03
      6.97069941e-03 2.71739135e-03 1.09877130e-02 1.14603024e-02
      6.61625713e-03 4.06427234e-02 3.41446139e-02 3.29631381e-02
      4.02882807e-02 7.65595436e-02 7.30151236e-02 5.31663522e-02
      1.47920609e-01 6.85255229e-02 8.36483911e-02 6.26181439e-02
      1.72495283e-02 5.04489616e-02 1.83128547e-02 2.39839312e-02
      1.67769380e-02 1.58317573e-02 1.07514178e-02 8.86105839e-03
      6.14366727e-03 4.72589815e-03 2.24480149e-03 4.60775057e-03
      8.27032141e-04 1.65406428e-03 0. 0. 3.66257085e-03 0.
      2.36294902e-04 7.08884676e-04 0. 0. 0. 0. 0. 0. 1.18147454e-03 0.
      0. 0. 0. 0. 0. 0. 4.72589803e-04 0. 2.36294902e-04 0.
      1.89035921e-03 0. 0. 2.36294902e-04 1.18147454e-03 0. 0. 0.</_>
    <_>
      2.71300115e-02 1.67657365e-03 3.50556313e-03 1.00594424e-02
      6.40146341e-03 1.35650057e-02 3.06355730e-02 2.27099527e-02
      3.74942832e-02 4.16095108e-02 7.66651407e-02 5.98994046e-02
      5.21261990e-02 4.75537255e-02 8.07803683e-03 4.40481640e-02
      9.75461025e-03 3.00259106e-02 1.20408470e-02 4.26764227e-03
      2.13382114e-03 2.42341105e-02 4.57247370e-04 1.52415794e-03
      3.50556313e-03 2.56058536e-02 3.35314730e-03 1.20408470e-02
      4.72488953e-03 0. 5.79180010e-03 3.04831570e-04 0. 1.63084902e-02
      3.04831570e-04 1.12787681e-02 2.74348422e-03 2.13382114e-02 0.
      1.06691057e-03 1.85947269e-02 1.79850627e-02 1.21932628e-03
      1.09739369e-02 6.09663140e-04 2.17954572e-02 6.40146341e-03
      7.92562123e-03 2.33196151e-02 7.92562123e-03 1.92043893e-02
      2.63679326e-02 6.70629460e-03 9.29736346e-03 1.26505103e-02
      3.06355730e-02 6.24904735e-03 1.99664682e-02 2.13382114e-03 0.
      2.07285471e-02 6.09663140e-04 1.18884314e-02 7.62078958e-03
      2.13382114e-03 2.13382114e-03 3.20073171e-03 0. 0. 0.
      3.65797896e-03 0. 1.06691057e-03 0. 0. 9.14494740e-04 0. 0.
      9.14494740e-04 0. 6.09663140e-04 0. 7.92562123e-03 0.
      1.52415785e-04 3.35314730e-03 3.04831588e-03 4.57247370e-04
      3.65797896e-03 0.</_>
    <_>
      6.33758381e-02 6.43858081e-03 1.33821489e-02 4.19139005e-02
      1.71695501e-02 3.56015638e-02 7.03194067e-02 3.10566854e-02
      4.60800417e-02 4.25451323e-02 7.39805549e-02 2.29768977e-02
      5.27711138e-02 1.74220428e-02 3.15616722e-03 4.62062880e-02
      5.30236075e-03 2.75217779e-02 1.41396290e-02 1.89370033e-03
      1.51496020e-03 1.13622015e-02 7.57480098e-04 1.26246683e-04
      5.04986732e-04 1.26246689e-02 3.78740049e-04 1.13622018e-03
      5.04986732e-04 0. 1.26246683e-04 2.52493366e-04 0. 3.28241382e-03
      0. 1.00997346e-03 1.26246683e-04 1.89370029e-02 0. 0.
      1.00997346e-03 7.95354135e-03 0. 0. 0. 2.52493366e-04 0. 0.
      7.06981448e-03 0. 5.04986732e-04 1.00997346e-03 0. 1.26246683e-04
      1.26246683e-04 1.35083953e-02 0. 7.06981448e-03 0. 0.
      2.92892307e-02 0. 4.67112754e-03 7.82729499e-03 0. 0.
      3.40866041e-03 0. 0. 1.26246683e-04 2.56280769e-02 6.31233444e-04
      2.52493378e-03 3.78740049e-04 0. 1.38871360e-03 0. 0.
      1.85582619e-02 5.04986732e-04 6.31233444e-03 2.77742720e-03
      8.71102139e-02 0. 2.52493378e-03 2.80267652e-02 3.96414585e-02
      1.64120691e-03 1.22459289e-02 2.52493366e-04</_>
    <_>
      8.84924382e-02 3.54442338e-04 1.18147451e-04 2.74102073e-02
      2.71739135e-03 9.09735356e-03 2.25661620e-02 1.06332707e-03
      1.41776935e-03 6.61625713e-03 3.81616242e-02 2.36294902e-04
      2.20935736e-02 0. 0. 4.41871472e-02 0. 5.19848755e-03
      1.51228737e-02 0. 1.18147451e-04 4.37145540e-03 0. 0. 0.
      2.50472594e-02 0. 2.48109642e-03 4.72589803e-04 0. 8.27032141e-04
      3.54442338e-04 4.72589803e-04 8.27032141e-03 7.08884676e-04
      4.84404527e-03 1.77221175e-03 5.34026474e-02 1.18147451e-04
      1.65406428e-03 1.92580335e-02 2.59924382e-02 2.36294902e-04
      1.35869561e-02 4.72589803e-04 2.35113427e-02 6.61625713e-03
      7.20699411e-03 4.11153138e-02 1.20510394e-02 3.27268429e-02
      5.25756143e-02 5.08034043e-03 9.45179630e-03 1.70132332e-02
      5.08034043e-02 5.43478271e-03 4.20604907e-02 5.90737269e-04
      1.18147451e-04 5.67107759e-02 4.72589803e-04 1.64224952e-02
      2.76465025e-02 2.36294902e-04 1.18147454e-03 2.02032141e-02 0. 0.
      0. 2.82372404e-02 0. 2.83553870e-03 3.54442338e-04 0.
      9.45179607e-04 0. 0. 1.05151227e-02 0. 1.65406428e-03
      1.29962189e-03 4.41871472e-02 0. 9.45179607e-04 8.97920597e-03
      1.81947071e-02 0. 3.30812857e-03 0.</_>
    <_>
      1.04373097e-02 0. 0. 2.24600337e-03 9.24824970e-04 1.58541417e-03
      6.87012821e-03 1.18906063e-03 8.32342450e-03 1.16263712e-02
      2.73483954e-02 3.18404026e-02 2.07425021e-02 3.75214703e-02
      1.36081381e-02 4.12207693e-02 2.35169772e-02 6.57946914e-02
      1.92892067e-02 2.32527424e-02 1.63826142e-02 4.61091287e-02
      6.34165667e-03 3.43506411e-03 1.20227244e-02 3.84462923e-02
      7.13436399e-03 2.48381551e-02 1.40044922e-02 9.24824970e-04
      2.29885057e-02 6.60589244e-03 3.17082833e-03 4.76945452e-02
      1.01730740e-02 3.05192228e-02 1.96855590e-02 3.91068831e-02
      4.49200673e-03 1.33439023e-02 7.12115243e-02 4.05601785e-02
      1.40044922e-02 2.25921515e-02 6.60589256e-04 2.81411018e-02
      8.19130708e-03 4.49200673e-03 2.53666267e-02 5.94530301e-03
      1.10978996e-02 1.25511959e-02 4.88836039e-03 3.03871045e-03
      1.84964994e-03 1.13621354e-02 0. 6.34165667e-03 0. 0.
      3.17082833e-03 0. 5.28471370e-04 3.83141753e-03 0. 0.
      3.96353542e-04 0. 0. 0. 6.60589256e-04 0. 0. 0. 0. 0. 0. 0.
      1.32117842e-04 0. 0. 0. 3.30294622e-03 0. 0. 0. 6.60589256e-04 0.
      2.64235685e-04 0.</_>
    <_>
      1.64399091e-02 5.66893432e-04 5.66893432e-04 6.51927432e-03
      7.08616804e-04 1.98412710e-03 4.25170083e-03 4.25170059e-04
      8.50340119e-04 8.50340119e-04 6.51927432e-03 9.92063549e-04
      3.68480734e-03 2.83446716e-04 0. 5.81065752e-03 1.41723358e-04
      2.69274367e-03 1.55895692e-03 2.83446716e-04 8.50340119e-04
      4.25170083e-03 5.66893432e-04 0. 1.41723361e-03 1.11961449e-02 0.
      5.95238106e-03 1.84240367e-03 0. 3.68480734e-03 4.25170059e-04
      2.83446716e-04 1.31802717e-02 1.70068024e-03 1.03458054e-02
      4.10997728e-03 3.10374144e-02 8.50340119e-04 7.51133775e-03
      4.77607697e-02 4.47845794e-02 3.82653065e-03 3.17460336e-02
      2.83446716e-04 3.06122452e-02 1.27551025e-02 1.47392293e-02
      5.68310656e-02 2.67857146e-02 4.36507948e-02 5.92403635e-02
      2.59353742e-02 3.27380970e-02 3.18877548e-02 5.90986386e-02
      2.50850338e-02 2.84863953e-02 1.57312918e-02 4.25170059e-04
      5.65476194e-02 6.09410414e-03 3.41553278e-02 1.58730168e-02
      7.08616758e-03 5.38548734e-03 2.80612241e-02 3.68480734e-03
      8.50340119e-04 6.09410414e-03 2.57936511e-02 2.12585041e-03
      8.92857183e-03 5.81065752e-03 0. 2.55102036e-03 1.13378686e-03 0.
      8.92857183e-03 5.66893432e-04 4.25170083e-03 1.27551018e-03
      9.35374107e-03 4.25170059e-04 1.13378686e-03 6.09410414e-03
      8.78684781e-03 0. 2.26757373e-03 0.</_>
    <_>
      8.73299018e-02 1.45329637e-02 8.85189604e-03 5.35077304e-02
      1.12300171e-02 2.91980449e-02 4.26740646e-02 4.62412462e-03
      9.38036758e-03 1.45329637e-02 5.31113744e-02 8.85189604e-03
      3.38221677e-02 1.98176783e-03 2.64235685e-04 4.71660718e-02
      3.96353542e-04 1.10978996e-02 1.55899059e-02 9.24824970e-04
      1.18906063e-03 1.12300171e-02 2.64235685e-04 0. 5.28471370e-04
      2.20636800e-02 1.05694274e-03 5.28471405e-03 1.71753205e-03 0.
      2.64235702e-03 3.96353542e-04 0. 1.14942528e-02 7.92707084e-04
      5.41683193e-03 1.18906063e-03 3.17082852e-02 0. 3.96353542e-04
      8.85189604e-03 1.53256701e-02 2.64235685e-04 3.30294622e-03 0.
      3.96353565e-03 2.64235685e-04 0. 1.40044922e-02 2.64235685e-04
      1.84964994e-03 5.94530301e-03 0. 0. 1.32117851e-03 1.79680269e-02
      5.28471370e-04 9.24824923e-03 2.64235685e-04 0. 1.83643810e-02 0.
      2.11388548e-03 8.71977769e-03 0. 1.32117851e-03 1.21548418e-02 0.
      0. 7.92707084e-04 2.62914523e-02 9.24824970e-04 8.71977769e-03
      3.43506411e-03 0. 6.47377456e-03 2.64235685e-04 2.64235685e-04
      2.03461479e-02 2.64235702e-03 1.78359095e-02 1.10978996e-02
      4.98084277e-02 1.98176783e-03 9.11613181e-03 5.73391467e-02
      4.87514846e-02 1.54577885e-02 4.34667729e-02 2.51023914e-03</_>
    <_>
      1.07632324e-01 8.27032141e-04 1.18147451e-04 2.44565215e-02
      1.29962189e-03 8.27032141e-03 1.07514178e-02 5.90737269e-04
      8.27032141e-04 3.42627591e-03 4.92674857e-02 1.29962189e-03
      2.48109642e-02 1.18147451e-04 0. 3.62712666e-02 0. 7.32514169e-03
      1.14603024e-02 0. 7.08884676e-04 1.00425333e-02 0. 0.
      3.54442338e-04 2.70557664e-02 9.45179607e-04 3.54442350e-03
      5.90737269e-04 0. 1.06332707e-03 1.18147451e-04 0. 1.28780715e-02
      1.18147451e-04 6.02551969e-03 2.48109642e-03 5.61200380e-02 0.
      5.90737269e-04 1.32325143e-02 2.43383739e-02 0. 3.78071843e-03 0.
      1.46502834e-02 1.06332707e-03 2.00850656e-03 3.54442336e-02
      5.31663513e-03 1.34688094e-02 2.35113427e-02 8.27032141e-04
      1.18147454e-03 6.61625713e-03 4.84404527e-02 4.72589803e-04
      4.12334576e-02 1.18147451e-04 0. 6.27362952e-02 0. 1.08695654e-02
      2.63468809e-02 7.08884676e-04 4.72589803e-04 2.12665405e-02
      1.18147451e-04 0. 4.72589803e-04 5.76559529e-02 0. 1.37051037e-02
      2.12665414e-03 0. 3.30812857e-03 0. 0. 2.72920597e-02 0.
      1.11058597e-02 2.36294908e-03 7.67958388e-02 0. 3.54442338e-04
      5.55292983e-03 2.38657836e-02 5.90737269e-04 5.19848755e-03 0.</_>
    <_>
      3.57142873e-02 8.50340119e-04 2.12585041e-03 5.81065752e-03
      3.11791385e-03 4.25170083e-03 5.52721089e-03 4.81859408e-03
      4.96031763e-03 5.81065752e-03 1.61564630e-02 6.94444450e-03
      9.21201799e-03 5.52721089e-03 4.25170059e-04 1.68650802e-02
      2.40929704e-03 1.24716554e-02 6.23582769e-03 1.55895692e-03
      8.50340119e-04 9.35374107e-03 5.66893432e-04 0. 8.50340119e-04
      1.55895688e-02 0. 4.25170083e-03 7.08616804e-04 0. 1.70068024e-03
      1.41723358e-04 0. 7.79478438e-03 4.25170059e-04 5.52721089e-03
      1.41723361e-03 4.66269851e-02 0. 9.92063549e-04 1.58730168e-02
      2.11167801e-02 5.66893432e-04 5.10204071e-03 0. 1.88492071e-02
      7.08616804e-04 0. 4.77607697e-02 1.41723361e-03 1.40306121e-02
      5.78231290e-02 2.97619053e-03 1.02040814e-02 2.33843531e-02
      9.77891162e-02 1.13378689e-02 1.30810663e-01 3.82653065e-03 0.
      9.52380970e-02 0. 4.62018140e-02 4.03911583e-02 2.83446716e-04
      3.96825420e-03 2.50850338e-02 0. 0. 8.50340119e-04 3.51473913e-02
      4.25170059e-04 5.24376426e-03 2.83446716e-04 0. 1.84240367e-03 0.
      0. 8.78684781e-03 1.41723358e-04 1.70068024e-03 7.08616804e-04
      8.50340165e-03 0. 5.66893432e-04 6.37755124e-03 4.67687054e-03 0.
      2.40929704e-03 0.</_>
    <_>
      3.07334717e-02 3.35743790e-03 9.03925579e-03 3.38326432e-02
      1.62706617e-02 4.22262400e-02 6.97314069e-02 6.49535134e-02
      1.00335747e-01 6.89566135e-02 8.47107470e-02 4.02892567e-02
      5.53977266e-02 2.22107433e-02 8.65185913e-03 4.11931835e-02
      8.65185913e-03 2.40185950e-02 2.51807850e-02 6.97314041e-03
      5.16528916e-03 2.14359500e-02 1.29132229e-03 7.74793385e-04
      2.45351251e-03 2.22107433e-02 7.74793385e-04 5.16528916e-03
      2.19524791e-03 1.29132226e-04 3.87396687e-03 7.74793385e-04
      6.45661145e-04 1.04597108e-02 1.54958677e-03 3.35743790e-03
      2.06611562e-03 1.18801650e-02 0. 1.16219011e-03 5.81095042e-03
      5.55268582e-03 1.29132226e-04 1.54958677e-03 0. 3.35743790e-03
      6.45661145e-04 1.29132229e-03 4.00309917e-03 1.93698343e-03
      4.77789249e-03 4.26136376e-03 1.29132229e-03 4.77789249e-03
      3.48657020e-03 9.16838832e-03 2.71177688e-03 3.87396687e-03
      2.45351251e-03 0. 8.78099166e-03 1.29132226e-04 3.74483480e-03
      2.45351251e-03 5.16528904e-04 0. 1.42045459e-03 0. 1.29132226e-04
      3.87396693e-04 4.00309917e-03 0. 1.03305781e-03 0. 0.
      1.29132226e-04 0. 0. 7.61880167e-03 0. 3.09917354e-03
      9.03925626e-04 1.57541316e-02 0. 1.16219011e-03 9.55578499e-03
      1.65289249e-02 5.16528904e-04 6.97314041e-03 0.</_>
    <_>
      2.40670629e-02 6.76041096e-03 1.97404008e-02 4.52947542e-02
      4.27257977e-02 4.77285013e-02 8.26122239e-02 4.79989201e-02
      7.86911845e-02 7.22011924e-02 1.21687397e-01 7.54461884e-02
      5.96268252e-02 4.00216319e-02 4.59707947e-03 5.82747422e-02
      1.02758249e-02 2.20389403e-02 1.13574909e-02 1.75770686e-03
      2.43374798e-03 1.09518655e-02 4.05624654e-04 1.35208218e-04
      1.75770686e-03 5.00270398e-03 6.76041120e-04 1.08166575e-03
      1.35208218e-04 0. 1.35208218e-04 0. 0. 2.70416448e-03 0.
      5.40832873e-04 0. 7.16603547e-03 0. 0. 1.21687399e-03
      3.92103847e-03 0. 0. 0. 2.70416436e-04 0. 0. 1.35208218e-04 0. 0.
      1.35208218e-04 0. 0. 0. 9.46457556e-04 0. 1.35208218e-04 0. 0.
      1.48729037e-03 0. 1.35208218e-04 9.46457556e-04 0. 0.
      1.08166575e-03 0. 0. 0. 6.89561944e-03 0. 1.21687399e-03
      1.35208218e-04 0. 1.35208218e-04 0. 0. 6.21957798e-03
      1.35208218e-04 1.75770686e-03 9.46457556e-04 2.31206063e-02 0.
      3.51541373e-03 1.23039484e-02 1.54137369e-02 2.70416436e-04
      1.14926985e-02 0.</_>
    <_>
      3.97677049e-02 1.16146952e-02 1.65383164e-02 3.29503864e-02
      2.80267652e-02 5.18873893e-02 7.67579824e-02 6.13558888e-02
      7.20868558e-02 6.14821352e-02 9.64524671e-02 4.77212481e-02
      6.57745227e-02 2.36081295e-02 4.54488071e-03 5.15086465e-02
      4.41863388e-03 2.03257166e-02 1.83057692e-02 1.76745362e-03
      3.15616722e-03 1.03522278e-02 3.78740049e-04 1.26246683e-04
      1.26246689e-03 1.18671888e-02 5.04986732e-04 3.40866041e-03
      1.51496020e-03 0. 1.38871360e-03 1.26246683e-04 2.52493366e-04
      4.67112754e-03 6.31233444e-04 2.27244035e-03 7.57480098e-04
      1.09834615e-02 0. 1.26246683e-04 3.02992039e-03 4.79737390e-03 0.
      8.83726811e-04 0. 5.30236075e-03 0. 0. 5.55485440e-03 0.
      1.51496020e-03 2.52493378e-03 0. 0. 1.13622018e-03 6.56482764e-03
      0. 3.28241382e-03 0. 0. 7.19606131e-03 0. 2.77742720e-03
      3.02992039e-03 0. 2.52493366e-04 4.54488071e-03 0. 0.
      2.52493366e-04 5.17611392e-03 0. 3.15616722e-03 0. 0.
      1.64120691e-03 0. 0. 5.55485440e-03 2.52493366e-04 5.17611392e-03
      3.28241382e-03 1.93157438e-02 0. 2.39868695e-03 2.07044557e-02
      1.38871353e-02 4.03989386e-03 2.12094430e-02 8.83726811e-04</_>
    <_>
      1.47108838e-01 6.80272095e-03 7.08616758e-03 4.15249430e-02
      1.20464852e-02 2.40929704e-02 3.59977335e-02 1.20464852e-02
      1.65816322e-02 1.91326533e-02 5.13038561e-02 1.21882083e-02
      4.02494334e-02 4.96031763e-03 1.13378686e-03 3.91156450e-02
      1.13378686e-03 1.55895688e-02 1.06292516e-02 1.70068024e-03
      7.08616804e-04 6.66099787e-03 0. 0. 1.41723358e-04 2.04081628e-02
      0. 6.51927432e-03 0. 0. 1.27551018e-03 0. 0. 3.54308379e-03 0.
      1.27551018e-03 0. 3.91156450e-02 0. 2.83446716e-04 4.25170083e-03
      1.37471659e-02 0. 0. 0. 2.83446722e-03 0. 0. 8.50340165e-03 0.
      1.55895692e-03 4.25170083e-03 0. 0. 2.12585041e-03 1.84240360e-02
      0. 5.52721089e-03 0. 0. 1.95578225e-02 0. 5.66893432e-04
      2.40929704e-03 0. 4.25170059e-04 4.25170083e-03 0. 0. 0.
      1.38888890e-02 0. 2.40929704e-03 1.41723358e-04 0. 5.66893432e-04
      0. 0. 1.67233553e-02 1.41723358e-04 1.04875285e-02 2.83446722e-03
      1.27692744e-01 0. 2.12585041e-03 5.18707484e-02 8.87188241e-02
      1.13378686e-03 1.24716554e-02 0.</_>
    <_>
      2.45139468e-02 1.20758363e-04 2.41516726e-04 1.56985875e-03
      2.41516726e-04 7.24550162e-04 3.01895896e-03 3.62275081e-04
      1.32834201e-03 8.45308532e-04 6.88322680e-03 5.07185142e-03
      7.36626005e-03 5.07185142e-03 9.66066902e-04 1.52155533e-02
      1.07474942e-02 1.85967870e-02 3.38123413e-03 6.52095163e-03
      1.08682527e-03 6.88322680e-03 1.69061706e-03 7.24550162e-04
      1.93213380e-03 4.22654254e-03 9.66066902e-04 3.01895896e-03
      2.89820065e-03 0. 2.05289223e-03 3.62275081e-04 0. 5.43412613e-03
      2.41516726e-04 3.86426761e-03 1.20758358e-03 1.49740372e-02 0.
      1.69061706e-03 1.01437028e-02 1.26796281e-02 6.03791792e-04
      8.81536026e-03 0. 1.38872117e-02 4.83033434e-03 5.43412613e-03
      2.80159395e-02 1.03852190e-02 2.76536644e-02 4.90278937e-02
      1.52155533e-02 2.58422904e-02 3.63482684e-02 7.69230798e-02
      3.94879840e-02 8.23572055e-02 1.96836125e-02 9.66066902e-04
      9.90218595e-02 1.07474942e-02 7.47494251e-02 3.33293080e-02
      1.61816198e-02 1.09890113e-02 3.56237181e-02 3.74350930e-03
      1.69061706e-03 6.27943501e-03 2.37893965e-02 2.05289223e-03
      1.07474942e-02 1.93213380e-03 0. 1.81137549e-03 7.24550162e-04 0.
      4.83033434e-03 0. 7.24550162e-04 1.20758363e-04 1.84760299e-02 0.
      0. 1.08682527e-03 6.88322680e-03 0. 1.20758363e-04 0.</_>
    <_>
      6.76020384e-02 4.81859408e-03 3.54308379e-03 6.78854883e-02
      5.24376426e-03 1.44557822e-02 4.18083891e-02 5.24376426e-03
      1.65816322e-02 2.87698414e-02 1.03032880e-01 3.85487527e-02
      4.86111119e-02 1.54478457e-02 2.40929704e-03 8.14909264e-02
      1.11961449e-02 4.13832217e-02 2.18253974e-02 6.23582769e-03
      6.09410414e-03 1.64399091e-02 8.50340119e-04 8.50340119e-04
      3.11791385e-03 1.44557822e-02 1.70068024e-03 3.82653065e-03
      2.97619053e-03 1.41723358e-04 3.25963716e-03 1.98412710e-03
      5.66893432e-04 1.09126987e-02 1.70068024e-03 3.54308379e-03
      1.27551018e-03 2.19671205e-02 7.08616804e-04 9.92063549e-04
      9.49546508e-03 9.07029491e-03 9.92063549e-04 5.24376426e-03 0.
      5.66893443e-03 1.13378686e-03 1.98412710e-03 7.51133775e-03
      1.98412710e-03 5.52721089e-03 5.38548734e-03 1.41723361e-03
      1.13378686e-03 2.69274367e-03 1.26133785e-02 1.27551018e-03
      7.22789112e-03 8.50340119e-04 0. 9.77891125e-03 0. 8.50340119e-04
      3.25963716e-03 0. 0. 2.40929704e-03 0. 2.83446716e-04 0.
      1.36054419e-02 0. 1.13378686e-03 2.83446716e-04 0. 1.13378686e-03
      1.41723358e-04 0. 1.00623583e-02 0. 3.11791385e-03 0.
      6.32086173e-02 0. 1.70068024e-03 2.70691607e-02 4.30838987e-02
      1.41723361e-03 1.23299323e-02 4.25170059e-04</_>
    <_>
      8.66052285e-02 3.91364750e-03 5.42860758e-03 6.42595664e-02
      1.66645627e-02 4.19139005e-02 5.73159941e-02 9.59474780e-03
      1.37608889e-02 1.86845101e-02 4.36813533e-02 3.78740067e-03
      3.48440856e-02 1.13622018e-03 0. 1.64120700e-02 0. 4.54488071e-03
      3.40866041e-03 0. 0. 0. 0. 0. 0. 6.43858081e-03 0. 0. 0. 0. 0. 0.
      0. 5.04986732e-04 0. 0. 0. 4.67112754e-03 0. 0. 0. 1.13622018e-03
      0. 0. 0. 1.51496020e-03 0. 0. 4.67112754e-03 0. 0. 6.31233444e-04
      0. 0. 0. 1.37608889e-02 0. 4.16614069e-03 0. 0. 3.39603573e-02 0.
      1.76745362e-03 2.90367380e-03 0. 0. 5.68110077e-03 0. 0. 0.
      5.79472296e-02 0. 4.16614069e-03 1.26246689e-03 0. 3.53490724e-03
      0. 0. 4.01464477e-02 1.51496020e-03 2.19669230e-02 5.42860758e-03
      1.07940920e-01 0. 7.32230768e-03 9.20338333e-02 1.17661908e-01
      1.76745362e-03 2.94154771e-02 1.26246683e-04</_>
    <_>
      8.52272753e-03 0. 0. 3.48657020e-03 0. 1.29132229e-03
      9.16838832e-03 1.29132229e-03 8.26446246e-03 1.07179750e-02
      2.72468999e-02 5.81095042e-03 2.59555783e-02 2.06611562e-03
      5.16528904e-04 4.06766534e-02 2.32438021e-03 3.00878100e-02
      2.50516534e-02 6.45661145e-04 3.87396687e-03 2.54390500e-02
      3.87396693e-04 1.29132226e-04 2.97004124e-03 4.48088832e-02
      3.22830584e-03 2.24690083e-02 6.97314041e-03 7.74793385e-04
      8.39359500e-03 4.51962790e-03 9.03925626e-04 5.90134300e-02
      4.39049583e-03 4.20971066e-02 2.37603299e-02 6.00464866e-02
      4.51962790e-03 3.91270667e-02 2.02608466e-01 8.52272734e-02
      1.83367766e-02 4.85537201e-02 1.42045459e-03 2.42768601e-02
      3.74483480e-03 3.48657020e-03 1.93698350e-02 1.16219011e-03
      6.58574374e-03 4.90702502e-03 2.58264458e-03 7.74793385e-04
      3.87396693e-04 9.81405005e-03 5.16528904e-04 2.58264452e-04
      2.58264452e-04 0. 2.45351251e-03 0. 0. 0. 0. 0. 0. 0. 0. 0.
      3.87396693e-04 0. 0. 0. 0. 0. 0. 0. 0. 0. 0. 0. 1.93698343e-03 0.
      0. 0. 0. 0. 0. 0.</_>
    <_>
      0. 0. 0. 0. 0. 0. 0. 0. 1.82615055e-04 0. 1.82615055e-04 0. 0.
      3.65230109e-04 1.82615055e-04 5.47845149e-04 2.37399573e-03
      5.47845149e-03 6.02629641e-03 7.85244722e-03 1.73484292e-02
      3.52447033e-02 5.86194284e-02 8.12636986e-02 9.71512049e-02
      1.37143895e-01 9.97078195e-02 1.00803509e-01 7.94375464e-02
      6.57414198e-02 4.80277576e-02 4.47406881e-02 2.62965672e-02
      3.12271733e-02 1.78962741e-02 6.93937158e-03 7.66983209e-03
      8.94813705e-03 6.02629641e-03 3.65230109e-04 2.73922575e-03
      3.65230109e-04 3.65230109e-04 7.30460219e-04 3.65230109e-04
      9.13075230e-04 0. 0. 0. 0. 0. 0. 0. 0. 1.82615055e-04
      1.82615055e-04 0. 0. 0. 0. 0. 0. 1.82615055e-04 1.82615055e-04 0.
      0. 0. 0. 0. 0. 0. 0. 0. 0. 0. 0. 0. 0. 0. 0. 0. 0. 0. 0. 0. 0. 0.
      0. 0. 0.</_>
    <_>
      3.47469933e-02 1.07015455e-02 1.37402564e-02 2.23279167e-02
      1.37402564e-02 1.90249700e-02 2.23279167e-02 9.64460336e-03
      1.26833133e-02 1.32117849e-02 3.02549880e-02 1.36081381e-02
      2.48381551e-02 9.77672078e-03 2.64235702e-03 3.92390005e-02
      7.79495295e-03 3.06513403e-02 1.37402564e-02 1.47971995e-02
      1.10978996e-02 2.54987441e-02 4.75624250e-03 6.47377456e-03
      8.45554192e-03 2.07425021e-02 4.49200673e-03 9.77672078e-03
      8.05918872e-03 3.96353542e-04 6.20953878e-03 3.56718199e-03
      1.71753205e-03 1.33439023e-02 5.54894982e-03 6.20953878e-03
      5.15259616e-03 2.17994452e-02 3.83141753e-03 4.09565354e-03
      1.66468490e-02 1.13621354e-02 6.07742090e-03 1.12300171e-02
      1.18906063e-03 1.18906060e-02 3.17082833e-03 5.68106771e-03
      1.50614344e-02 6.47377456e-03 9.51248500e-03 1.69110838e-02
      3.43506411e-03 4.88836039e-03 8.32342450e-03 1.94213241e-02
      5.28471405e-03 1.41366096e-02 3.17082833e-03 3.96353542e-04
      2.06103846e-02 1.18906063e-03 1.67789664e-02 9.11613181e-03
      3.30294622e-03 4.22777096e-03 1.59862600e-02 2.37812125e-03
      2.37812125e-03 5.81318559e-03 1.37402564e-02 3.17082833e-03
      8.05918872e-03 7.92707130e-03 6.60589256e-04 6.87012821e-03
      5.15259616e-03 2.90659280e-03 1.83643810e-02 1.05694281e-02
      1.50614344e-02 1.10978996e-02 2.35169772e-02 6.60589244e-03
      7.00224610e-03 2.80089844e-02 1.37402564e-02 8.45554192e-03
      1.92892067e-02 3.03871045e-03</_>
    <_>
      1.26505103e-02 9.14494740e-04 1.06691057e-03 1.67657365e-03
      6.09663140e-04 1.06691057e-03 1.98140531e-03 9.14494740e-04
      7.62078969e-04 2.74348422e-03 1.00594424e-02 1.06691057e-03
      1.75278150e-02 1.52415785e-04 0. 3.24645638e-02 0. 3.87136117e-02
      3.42935510e-02 9.14494740e-04 1.38698369e-02 9.92226824e-02
      9.14494740e-04 7.62078969e-04 1.17360158e-02 8.21521133e-02
      7.92562123e-03 5.27358651e-02 2.04237159e-02 7.62078969e-04
      4.45054099e-02 5.18213678e-03 6.09663175e-03 1.05166897e-01
      1.55464103e-02 6.27953038e-02 5.36503568e-02 5.54793477e-02
      6.09663175e-03 1.96616370e-02 8.09327811e-02 4.38957475e-02
      3.50556313e-03 1.82898957e-02 0. 4.26764227e-03 6.09663140e-04 0.
      7.92562123e-03 0. 9.14494740e-04 6.09663140e-04 0. 0.
      6.09663140e-04 6.24904735e-03 0. 6.09663140e-04 0. 0.
      1.98140531e-03 0. 0. 0. 0. 0. 0. 0. 0. 0. 4.57247370e-04 0. 0. 0.
      0. 0. 0. 0. 0. 0. 0. 0. 4.87730512e-03 0. 0. 0. 0. 0. 0. 0.</_>
    <_>
      1.30102038e-01 8.50340119e-04 9.92063549e-04 6.51927432e-03
      1.55895692e-03 1.98412710e-03 5.24376426e-03 5.38548734e-03
      8.36167764e-03 1.02040814e-02 3.24546471e-02 1.89909302e-02
      1.91326533e-02 1.50226755e-02 6.80272095e-03 2.82029472e-02
      6.23582769e-03 2.01247167e-02 1.03458054e-02 6.23582769e-03
      4.39342391e-03 1.57312918e-02 2.69274367e-03 9.92063549e-04
      3.25963716e-03 2.91950107e-02 1.70068024e-03 6.80272095e-03
      3.11791385e-03 0. 5.38548734e-03 1.70068024e-03 2.83446716e-04
      1.71485264e-02 1.55895692e-03 8.78684781e-03 2.55102036e-03
      1.04166664e-01 0. 8.50340119e-04 1.19047621e-02 3.75566892e-02 0.
      2.55102036e-03 0. 5.95238106e-03 2.83446716e-04 0. 3.00453510e-02
      0. 2.83446722e-03 3.82653065e-03 0. 0. 1.13378686e-03
      1.09268710e-01 0. 7.79478438e-03 0. 0. 1.15504533e-01 0.
      5.66893432e-04 5.38548734e-03 1.41723358e-04 1.41723358e-04
      2.55102036e-03 0. 0. 0. 2.94784587e-02 0. 2.83446716e-04
      5.66893432e-04 0. 0. 0. 0. 1.58730168e-02 0. 1.70068024e-03 0.
      4.91780043e-02 0. 0. 3.40136047e-03 1.67233553e-02 0.
      2.83446716e-04 0.</_>
    <_>
      1.03972949e-01 7.24550162e-04 2.41516726e-04 2.53592562e-02
      1.20758363e-04 3.26047582e-03 7.24550197e-03 7.24550162e-04
      1.44910032e-03 2.53592571e-03 4.49221097e-02 3.86426761e-03
      1.41287288e-02 3.38123413e-03 0. 5.26506454e-02 4.70957626e-03
      8.81536026e-03 1.05059771e-02 2.77744234e-03 1.44910032e-03
      9.05687734e-03 6.03791792e-04 3.62275081e-04 2.65668402e-03
      3.24839987e-02 2.41516726e-04 3.74350930e-03 1.32834201e-03 0.
      7.24550162e-04 1.20758363e-04 0. 1.94420964e-02 0. 3.62275098e-03
      8.45308532e-04 6.11037314e-02 0. 7.24550162e-04 1.46117620e-02
      2.89820079e-02 0. 3.13971750e-03 0. 7.72853522e-03 3.62275081e-04
      2.41516726e-04 1.69061702e-02 1.20758358e-03 6.40019309e-03
      1.11097693e-02 6.03791792e-04 1.56985875e-03 2.89820065e-03
      4.32314947e-02 1.08682527e-03 1.85967870e-02 7.24550162e-04
      1.20758363e-04 7.13681951e-02 3.62275081e-04 6.40019309e-03
      1.26796281e-02 7.24550162e-04 1.69061706e-03 1.31626613e-02
      1.20758363e-04 0. 3.62275081e-04 6.09829724e-02 0. 1.06267361e-02
      1.56985875e-03 0. 3.13971750e-03 2.41516726e-04 0. 2.88612489e-02
      3.62275081e-04 1.35249365e-02 7.00398488e-03 8.61007124e-02 0.
      1.81137549e-03 2.76536644e-02 5.10807857e-02 9.66066902e-04
      9.78142768e-03 0.</_>
    <_>
      6.42722100e-02 4.37145540e-03 2.12665414e-03 3.13090719e-02
      2.36294908e-03 9.68809053e-03 2.36294903e-02 1.53591682e-03
      2.12665414e-03 4.37145540e-03 3.54442336e-02 2.12665414e-03
      1.44139882e-02 1.06332707e-03 1.18147451e-04 3.41446139e-02
      2.36294902e-04 4.96219285e-03 1.14603024e-02 1.18147451e-04
      2.36294902e-04 8.27032141e-03 1.18147451e-04 1.18147451e-04
      3.54442338e-04 1.59499049e-02 0. 1.65406428e-03 0. 0.
      4.72589803e-04 0. 0. 6.73440471e-03 0. 3.30812857e-03
      3.54442338e-04 3.99338380e-02 0. 1.18147451e-04 1.02788284e-02
      2.05576569e-02 3.54442338e-04 4.01701313e-03 4.72589803e-04
      1.85491499e-02 2.24480149e-03 2.12665414e-03 4.37145568e-02
      5.19848755e-03 1.84310023e-02 4.60775048e-02 2.00850656e-03
      3.66257085e-03 2.23298669e-02 5.71833663e-02 4.13516071e-03
      5.11578433e-02 1.06332707e-03 0. 5.80103956e-02 5.90737269e-04
      3.23724002e-02 2.61105858e-02 8.27032141e-04 8.74291081e-03
      2.54017022e-02 0. 0. 3.78071843e-03 2.90642716e-02 2.36294902e-04
      4.96219285e-03 3.54442338e-04 0. 1.41776935e-03 0. 0.
      9.68809053e-03 3.54442338e-04 3.18998098e-03 5.90737269e-04
      6.95888475e-02 3.54442338e-04 2.83553870e-03 2.37476379e-02
      4.43052948e-02 1.77221175e-03 1.06332703e-02 0.</_>
    <_>
      7.25918412e-02 0. 0. 2.07044557e-02 0. 1.76745362e-03
      7.95354135e-03 0. 0. 2.90367380e-03 3.28241400e-02 0.
      6.94356766e-03 0. 0. 2.56280769e-02 0. 4.03989386e-03
      5.42860758e-03 1.00997346e-03 5.04986732e-04 3.78740067e-03 0. 0.
      0. 2.01994702e-02 0. 6.31233444e-04 2.52493366e-04 0.
      6.31233444e-04 0. 0. 1.16146952e-02 0. 3.91364750e-03
      1.26246683e-04 6.89306930e-02 0. 1.26246683e-04 1.38871353e-02
      3.04254517e-02 0. 6.05984079e-03 0. 3.19404118e-02 1.76745362e-03
      2.52493378e-03 6.27446026e-02 2.65118037e-03 2.91629843e-02
      4.01464477e-02 1.26246683e-04 1.64120691e-03 1.71695501e-02
      1.06173463e-01 8.83726811e-04 6.72894865e-02 8.83726811e-04 0.
      9.75886881e-02 0. 1.62858218e-02 2.92892307e-02 1.51496020e-03
      2.39868695e-03 1.04784751e-02 1.00997346e-03 0. 2.52493366e-04
      3.24453972e-02 0. 3.15616722e-03 0. 0. 2.52493366e-04 0. 0.
      1.54020954e-02 0. 6.31233444e-04 0. 4.51963134e-02 0. 0.
      8.96351505e-03 2.68905442e-02 0. 2.52493366e-04 0.</_>
    <_>
