<?xml version="1.0"?>
<opencv_storage>
<my_svm type_id="opencv-ml-svm">
  <svm_type>C_SVC</svm_type>
  <kernel><type>RBF</type>
    <gamma>5.</gamma></kernel>
  <C>1000.</C>
  <term_criteria><epsilon>9.9999999747524271e-07</epsilon>
    <iterations>1000000</iterations></term_criteria>
  <var_all>12</var_all>
  <var_count>12</var_count>
  <class_count>2</class_count>
  <class_labels type_id="opencv-matrix">
    <rows>1</rows>
    <cols>2</cols>
    <dt>i</dt>
    <data>
      -1 1</data></class_labels>
  <sv_total>297</sv_total>
  <support_vectors>
    <_>
      2.36294903e-02 1.50047261e-02 3.30812857e-03 8.15217383e-03
      4.90311906e-02 8.92013237e-02 4.50968802e-01 2.84499049e-01
      3.48534957e-02 1.22873345e-02 2.71739122e-02 1.89035921e-03</_>
    <_>
      2.47933879e-01 4.32463855e-01 1.27711773e-01 4.59710732e-02
      3.26704532e-02 1.21384300e-02 1.38171492e-02 1.76911149e-02
      5.68181835e-03 4.51962790e-03 5.34607433e-02 5.94008248e-03</_>
    <_>
      2.29796782e-01 2.30978265e-01 8.14035907e-02 5.11578433e-02
      7.33695626e-02 6.48629516e-02 5.11578433e-02 3.15453671e-02
      2.54017022e-02 1.21691870e-02 1.31970704e-01 1.61862001e-02</_>
    <_>
      1.07808165e-01 1.23133838e-01 6.89655170e-02 5.74712642e-02
      1.35552913e-01 1.51803404e-01 1.55370593e-01 8.19130689e-02
      2.85374559e-02 6.20953878e-03 7.92707130e-02 3.96353565e-03</_>
    <_>
      1.79270301e-02 1.27509153e-02 3.66115384e-03 1.32559016e-02
      4.44388352e-02 7.95354098e-02 3.43769729e-01 3.91238481e-01
      6.43858090e-02 1.61595754e-02 1.28771616e-02 0.</_>
    <_>
      2.18258694e-01 4.87250626e-01 1.31060913e-01 3.80499400e-02
      2.31206231e-02 7.66283507e-03 7.00224610e-03 5.94530301e-03
      5.15259616e-03 2.90659280e-03 6.35486841e-02 1.00409565e-02</_>
    <_>
      2.52834469e-01 3.66071433e-01 6.93027228e-02 3.10374144e-02
      4.02494334e-02 3.04705221e-02 7.31292516e-02 5.03117926e-02
      2.01247167e-02 5.66893443e-03 5.54138310e-02 5.38548734e-03</_>
    <_>
      0. 0. 0. 0. 4.25330829e-03 2.33341217e-01 7.44683385e-01
      1.77221168e-02 0. 0. 0. 0.</_>
    <_>
      1.11842103e-01 1.02666207e-01 4.91689742e-02 4.20706384e-02
      5.62673137e-02 4.60526310e-02 1.36253461e-01 1.29328251e-01
      9.97229889e-02 7.42728561e-02 1.44044325e-01 8.31024908e-03</_>
    <_>
      1.95507795e-01 3.08054596e-01 1.57468900e-01 6.12244904e-02
      6.20697998e-02 3.03103495e-02 4.23861854e-02 3.16386893e-02
      9.17763542e-03 9.90218576e-03 8.61007124e-02 6.15867646e-03</_>
    <_>
      1.63601954e-02 8.51811748e-03 7.43645197e-03 3.36668454e-02
      1.03163876e-01 3.70335311e-01 3.52082193e-01 7.53109753e-02
      1.59545708e-02 5.81395347e-03 1.12222824e-02 1.35208218e-04</_>
    <_>
      2.53109783e-01 6.52109265e-01 5.25959991e-02 4.05624649e-03
      1.08166575e-03 1.48729037e-03 1.21687399e-03 2.56895623e-03
      5.54353697e-03 3.65062198e-03 1.71714444e-02 5.40832896e-03</_>
    <_>
      5.30733466e-02 1.10149793e-01 1.34555787e-01 1.68001026e-01
      2.20299587e-01 2.18233466e-01 6.05630167e-02 1.30423550e-02
      6.45661145e-04 5.16528904e-04 2.09194217e-02 0.</_>
    <_>
      4.72589815e-03 1.77221175e-03 1.18147454e-03 6.26181485e-03
      6.92344010e-02 3.69447082e-01 4.96219277e-01 4.79678623e-02
      1.89035921e-03 1.18147451e-04 1.18147454e-03 0.</_>
    <_>
      0. 0. 0. 8.83726811e-04 5.17611392e-03 9.43062752e-02
      8.20224702e-01 7.87779316e-02 6.31233444e-04 0. 0. 0.</_>
    <_>
      3.70609500e-02 3.00878100e-02 3.61570232e-02 6.27582669e-02
      2.17846081e-01 4.41890508e-01 1.42174587e-01 2.32438017e-02
      2.32438021e-03 5.16528904e-04 5.94008248e-03 0.</_>
    <_>
      1.61980152e-01 1.42131373e-01 7.12429136e-02 5.28119095e-02
      9.97164473e-02 1.00425333e-01 8.64839330e-02 8.02221149e-02
      4.69045378e-02 3.28449905e-02 1.15075618e-01 1.01606809e-02</_>
    <_>
      4.18739855e-01 2.96917260e-01 2.27149818e-02 8.11249297e-03
      1.47376964e-02 6.76041096e-03 8.24770145e-03 2.29853969e-02
      3.90751772e-02 1.50081124e-02 1.38723642e-01 7.97728542e-03</_>
    <_>
      1.17556714e-01 2.10775048e-01 1.30434781e-01 6.06096424e-02
      9.93620008e-02 1.08813800e-01 1.29962191e-01 6.39177710e-02
      1.74858216e-02 5.67107741e-03 5.52930050e-02 1.18147451e-04</_>
    <_>
      2.64235698e-02 1.09657813e-02 1.49293169e-02 2.21957993e-02
      8.17809477e-02 2.33980715e-01 4.64130014e-01 1.20887831e-01
      1.22869601e-02 3.43506411e-03 8.98401346e-03 0.</_>
    <_>
      7.28969723e-02 4.84404527e-02 2.38657836e-02 2.26843096e-02
      8.42391327e-02 8.66020769e-02 2.93714553e-01 2.50827044e-01
      5.55293001e-02 7.91587867e-03 5.22211716e-02 1.06332707e-03</_>
    <_>
      8.27032141e-03 1.20510394e-02 2.94187143e-02 1.15784496e-01
      3.38965029e-01 3.61294895e-01 9.60538760e-02 2.13846881e-02
      6.37996197e-03 3.07183363e-03 6.02551969e-03 1.29962189e-03</_>
    <_>
      1.42820254e-01 6.01368785e-01 1.57670453e-01 3.69318165e-02
      1.78202484e-02 5.94008248e-03 4.26136376e-03 7.36053707e-03
      5.16528916e-03 2.19524791e-03 1.78202484e-02 6.45661145e-04</_>
    <_>
      6.37996197e-03 2.36294908e-03 4.48960299e-03 8.38846900e-03
      2.71739122e-02 1.45912096e-01 5.63563347e-01 2.12310970e-01
      1.91398859e-02 5.19848755e-03 5.08034043e-03 0.</_>
    <_>
      0. 0. 3.46260378e-04 1.73130189e-03 1.43351793e-01 7.44286716e-01
      1.07513852e-01 2.42382265e-03 3.46260378e-04 0. 0. 0.</_>
    <_>
      2.13899404e-01 4.24824238e-01 8.78853425e-02 3.79935093e-02
      3.88047583e-02 1.40616549e-02 1.33856134e-02 1.32504059e-02
      1.96051914e-02 2.70416448e-03 1.25473231e-01 8.11249297e-03</_>
    <_>
      6.52173907e-02 3.61531191e-02 8.97920597e-03 1.93761811e-02
      3.94612476e-02 7.58506581e-02 2.87807196e-01 2.78237253e-01
      7.63232484e-02 2.89461240e-02 8.31758007e-02 4.72589803e-04</_>
    <_>
      3.46268266e-01 2.62168735e-01 3.70470509e-02 1.16279069e-02
      7.43645197e-03 9.46457556e-04 8.11249297e-03 1.24391560e-02
      2.35262308e-02 6.35478646e-03 2.79204965e-01 4.86749597e-03</_>
    <_>
      2.46078968e-02 7.30124395e-03 5.27312048e-03 2.47431044e-02
      8.22065994e-02 1.81179017e-01 4.29421306e-01 1.95511088e-01
      2.83937268e-02 8.78853444e-03 1.25743644e-02 0.</_>
    <_>
      5.01956820e-01 1.32937759e-01 1.56545900e-02 6.56482764e-03
      1.30034089e-02 3.91364750e-03 1.69170555e-02 2.96679717e-02
      1.99469756e-02 1.99469756e-02 1.70938015e-01 6.85519502e-02</_>
    <_>
      1.89035926e-02 3.26086953e-02 3.42627615e-02 4.06427234e-02
      1.26890361e-01 3.73464078e-01 2.89815694e-01 6.40359148e-02
      9.80623811e-03 1.06332707e-03 8.27032141e-03 2.36294902e-04</_>
    <_>
      1.79189757e-01 1.53393358e-01 3.93005535e-02 2.35457066e-02
      4.57063727e-02 3.86080332e-02 8.27562362e-02 9.59141254e-02
      8.24099705e-02 5.85180074e-02 1.87846258e-01 1.28116347e-02</_>
    <_>
      1.68109417e-01 1.71052635e-01 4.10318561e-02 2.90858727e-02
      6.04224391e-02 6.31925240e-02 1.14439055e-01 1.13400280e-01
      7.75623247e-02 3.23753469e-02 1.23268701e-01 6.05955673e-03</_>
    <_>
      1.96715370e-01 2.37773210e-01 5.12015447e-02 2.68083569e-02
      4.35937680e-02 4.79410701e-02 7.47494251e-02 4.89071384e-02
      3.03103495e-02 3.67105417e-02 1.97198406e-01 8.09080992e-03</_>
    <_>
      3.61078084e-01 3.78781885e-01 4.21455950e-02 1.32117849e-02
      1.65147316e-02 6.07742090e-03 1.03051923e-02 2.00819131e-02
      1.61183774e-02 7.26648187e-03 1.07279696e-01 2.11388562e-02</_>
    <_>
      0. 0. 1.35208218e-04 5.40832873e-04 3.24499724e-03 6.39534891e-02
      6.50216341e-01 2.75554359e-01 4.86749597e-03 5.40832873e-04
      9.46457556e-04 0.</_>
    <_>
      2.88161635e-01 1.81592628e-01 3.36720236e-02 9.56994295e-03
      1.85491499e-02 7.32514169e-03 2.68194713e-02 7.83317611e-02
      5.63563332e-02 5.30482046e-02 2.17391297e-01 2.91824192e-02</_>
    <_>
      1.50614344e-02 1.69110838e-02 1.74395554e-02 1.81001462e-02
      5.53573780e-02 1.74924031e-01 5.34416676e-01 1.45461753e-01
      1.38723738e-02 1.32117842e-04 8.32342450e-03 0.</_>
    <_>
      8.85189604e-03 3.03871045e-03 8.71977769e-03 2.44418029e-02
      1.79812387e-01 4.58713174e-01 2.82203734e-01 3.03871054e-02
      1.45329640e-03 1.32117842e-04 2.24600337e-03 0.</_>
    <_>
      6.31925240e-02 1.01454295e-01 4.22437675e-02 1.85249299e-02
      4.86495830e-02 1.04051247e-01 3.22541565e-01 1.85941830e-01
      4.89958450e-02 1.36772851e-02 5.00346273e-02 6.92520756e-04</_>
    <_>
      3.59168239e-02 1.71313807e-02 7.44328927e-03 1.09877130e-02
      2.95368619e-02 2.71739122e-02 2.15619087e-01 4.13397908e-01
      1.54064268e-01 4.52504717e-02 4.31238189e-02 3.54442338e-04</_>
    <_>
      1.31498113e-01 1.35633275e-01 3.69801521e-02 1.34688094e-02
      2.07939502e-02 3.00094523e-02 2.05576554e-01 2.32986763e-01
      6.95888475e-02 3.80434766e-02 7.85680562e-02 6.85255183e-03</_>
    <_>
      6.36283278e-01 2.17901781e-01 1.06047215e-02 8.83726811e-04
      1.26246689e-03 1.26246683e-04 1.13622018e-03 2.39868695e-03
      2.39868695e-03 7.95354135e-03 1.09582126e-01 9.46850143e-03</_>
    <_>
      6.12086765e-02 8.61312002e-02 7.19266534e-02 1.13636367e-01
      2.12809920e-01 2.98682839e-01 1.06404960e-01 1.88533049e-02
      5.94008248e-03 2.32438021e-03 2.16942150e-02 3.87396693e-04</_>
    <_>
      7.65754133e-02 3.92562002e-02 3.22830565e-02 4.63584699e-02
      1.42432854e-01 1.22029960e-01 2.67820239e-01 1.78589880e-01
      4.05475199e-02 7.74793373e-03 4.58419435e-02 5.16528904e-04</_>
    <_>
      1.83367766e-02 4.84245867e-02 9.86570269e-02 1.25129133e-01
      2.62784094e-01 3.25542361e-01 9.24586803e-02 1.66580584e-02
      4.00309917e-03 5.16528904e-04 7.48966960e-03 0.</_>
    <_>
      5.68310656e-02 7.82312900e-02 1.08985260e-01 9.22619030e-02
      1.77012473e-01 2.01388896e-01 1.23015873e-01 6.81689307e-02
      3.37301604e-02 2.33843531e-02 3.14625837e-02 5.52721089e-03</_>
    <_>
      2.67013237e-02 3.46762747e-01 1.94825143e-01 1.11413047e-01
      1.38350666e-01 1.07396029e-01 4.34782617e-02 1.31143667e-02
      6.26181485e-03 3.30812857e-03 8.27032141e-03 1.18147451e-04</_>
    <_>
      2.33695656e-01 1.25000000e-01 2.35113427e-02 9.80623811e-03
      2.58742906e-02 1.00425333e-02 5.97826093e-02 8.45935717e-02
      9.48724002e-02 4.64319475e-02 2.66068041e-01 2.03213617e-02</_>
    <_>
      3.02549880e-02 1.13092877e-01 2.53269911e-01 2.65953243e-01
      1.74659804e-01 9.97489765e-02 3.54075842e-02 1.44008454e-02
      2.90659280e-03 2.64235685e-04 1.00409565e-02 0.</_>
    <_>
      2.68312842e-01 5.30363917e-01 1.12594515e-01 2.25661620e-02
      1.14603024e-02 4.60775057e-03 4.37145540e-03 3.89886578e-03
      1.06332707e-03 2.24480149e-03 2.82372404e-02 1.02788284e-02</_>
    <_>
      1.03017293e-01 6.82994574e-02 1.47708626e-02 2.17144303e-02
      8.47115293e-02 8.66052285e-02 2.59815693e-01 2.12220684e-01
      4.80999872e-02 1.88107565e-02 8.16816092e-02 2.52493366e-04</_>
    <_>
      2.22818553e-01 4.54986155e-01 1.32617727e-01 2.47576181e-02
      2.00831033e-02 9.34903044e-03 1.24653736e-02 1.45429363e-02
      1.38504151e-02 1.62742380e-02 6.42312989e-02 1.40235461e-02</_>
    <_>
      3.83979194e-02 1.25236297e-02 4.72589815e-03 1.01606809e-02
      5.29300570e-02 1.36224002e-01 4.18241978e-01 2.35231563e-01
      5.60018905e-02 1.33506618e-02 2.06758026e-02 1.53591682e-03</_>
    <_>
      3.51606816e-01 3.34475428e-01 6.72258958e-02 1.92580335e-02
      1.39413988e-02 6.97069941e-03 2.36294908e-03 9.21550114e-03
      1.85491499e-02 1.64224952e-02 1.34333655e-01 2.56379955e-02</_>
    <_>
      3.58652323e-02 3.64690237e-02 4.90278937e-02 8.82743597e-02
      1.68337151e-01 2.61200339e-01 2.31131509e-01 7.13681951e-02
      2.68083569e-02 9.29839350e-03 2.14949884e-02 7.24550162e-04</_>
    <_>
      1.26678720e-01 5.90134300e-02 6.84400834e-03 1.80785116e-02
      7.69628063e-02 6.40495867e-02 1.55991733e-01 1.75619841e-01
      8.74225199e-02 4.76497933e-02 1.72004133e-01 9.68491752e-03</_>
    <_>
      1.02040820e-01 2.07624719e-01 5.59807271e-02 3.84070277e-02
      6.22165538e-02 5.82483001e-02 1.75170064e-01 1.44132659e-01
      6.44841269e-02 1.89909302e-02 7.14285746e-02 1.27551018e-03</_>
    <_>
      6.19834708e-03 1.04597108e-02 1.26549583e-02 3.39617766e-02
      2.02479333e-01 4.41890508e-01 2.25594014e-01 5.10072298e-02
      8.00619833e-03 3.09917354e-03 4.51962790e-03 1.29132226e-04</_>
    <_>
      1.24190776e-02 8.45554192e-03 1.37402564e-02 2.07425021e-02
      4.58448939e-02 1.53124586e-01 5.56480408e-01 1.74659804e-01
      7.92707130e-03 2.37812125e-03 4.22777096e-03 0.</_>
    <_>
      6.36621937e-02 8.67768601e-02 4.20971066e-02 3.95144634e-02
      8.39359537e-02 1.83496907e-01 2.83316106e-01 8.75516534e-02
      3.43491733e-02 1.63997933e-02 7.83832669e-02 5.16528904e-04</_>
    <_>
      1.17911153e-01 6.43903613e-02 4.84404527e-03 1.16965976e-02
      5.61200380e-02 5.58837429e-02 1.96242914e-01 2.46219277e-01
      9.48724002e-02 3.31994332e-02 1.16138943e-01 2.48109642e-03</_>
    <_>
      8.18698332e-02 7.99328536e-02 6.54700398e-02 1.15315080e-01
      2.50258267e-01 2.45222107e-01 9.03925598e-02 3.40909101e-02
      5.81095042e-03 1.42045459e-03 3.00878100e-02 1.29132226e-04</_>
    <_>
      8.38846900e-03 7.79773155e-03 1.99669190e-02 6.61625713e-02
      2.64886588e-01 4.29229677e-01 1.69896036e-01 2.52835546e-02
      3.66257085e-03 7.08884676e-04 4.01701313e-03 0.</_>
    <_>
      3.64152901e-02 2.11131200e-01 2.98682839e-01 1.39850199e-01
      1.62060946e-01 9.41374004e-02 3.82231399e-02 9.16838832e-03
      1.80785125e-03 3.87396693e-04 8.00619833e-03 1.29132226e-04</_>
    <_>
      3.84688079e-01 3.71573716e-01 6.54536858e-02 2.22117193e-02
      2.17391308e-02 1.18147451e-02 6.14366727e-03 8.38846900e-03
      9.45179630e-03 9.56994295e-03 6.98251426e-02 1.91398859e-02</_>
    <_>
      1.60798684e-01 8.44754279e-02 1.53591679e-02 1.61862001e-02
      3.07183359e-02 1.80765595e-02 8.62476379e-02 2.00259924e-01
      1.16257086e-01 5.71833663e-02 1.93879962e-01 2.05576569e-02</_>
    <_>
      2.69520413e-02 2.40454488e-02 3.58039364e-02 5.25829047e-02
      1.21548422e-01 2.46664017e-01 3.36107820e-01 1.19038180e-01
      1.66468490e-02 4.22777096e-03 1.63826142e-02 0.</_>
    <_>
      8.38278010e-02 6.60270154e-02 1.04784751e-02 1.26246689e-02
      4.01464477e-02 3.81264985e-02 1.38997599e-01 2.71809101e-01
      1.51117280e-01 5.83259687e-02 1.27635404e-01 8.83726811e-04</_>
    <_>
      3.52079384e-02 3.22542526e-02 1.54773155e-02 3.03638950e-02
      9.88894105e-02 1.67769372e-01 3.54678631e-01 2.05931008e-01
      3.07183359e-02 7.08884699e-03 2.12665405e-02 3.54442338e-04</_>
    <_>
      1.13894142e-01 1.43194705e-01 5.48204146e-02 5.23393191e-02
      1.04087904e-01 1.72140837e-01 1.70368627e-01 7.40784481e-02
      2.95368619e-02 1.02788284e-02 7.36058578e-02 1.65406428e-03</_>
    <_>
      5.88155761e-02 4.38074619e-02 3.58301774e-02 7.86911845e-02
      1.63601950e-01 2.19578147e-01 2.54867494e-01 7.59870186e-02
      1.29799889e-02 5.13791246e-03 4.84045446e-02 2.29853974e-03</_>
    <_>
      2.53099166e-02 2.10743800e-01 3.36002052e-01 1.88274801e-01
      1.23192146e-01 6.99896663e-02 2.90547516e-02 5.16528916e-03
      1.42045459e-03 1.29132229e-03 9.16838832e-03 3.87396693e-04</_>
    <_>
      1.73822716e-01 4.66412753e-01 1.81786701e-01 3.84349041e-02
      3.13365646e-02 2.47576181e-02 7.44459825e-03 6.57894742e-03
      3.63573409e-03 1.33310249e-02 4.74376716e-02 5.02077583e-03</_>
    <_>
      2.23889410e-01 1.22755200e-01 2.10302453e-02 9.80623811e-03
      1.63043477e-02 9.68809053e-03 5.84829859e-02 1.46384686e-01
      1.18501887e-01 8.22306275e-02 1.68241963e-01 2.26843096e-02</_>
    <_>
      3.07834595e-02 1.92892067e-02 1.28154317e-02 1.77037921e-02
      9.32752043e-02 3.10741186e-01 4.28986669e-01 7.58356452e-02
      5.41683193e-03 1.18906063e-03 3.96353565e-03 0.</_>
    <_>
      4.84764529e-03 8.82964022e-03 6.04224391e-02 2.43767306e-01
      5.10214686e-01 1.52873963e-01 1.22922435e-02 2.77008303e-03
      8.65650945e-04 5.19390567e-04 2.59695295e-03 0.</_>
    <_>
      7.22011924e-02 1.33720934e-01 1.84288800e-01 2.13358566e-01
      2.06598163e-01 1.27771765e-01 2.71768533e-02 1.23039484e-02
      2.97458074e-03 2.70416436e-04 1.93347763e-02 0.</_>
    <_>
      6.76630437e-01 3.02811921e-01 1.52410204e-02 1.18147451e-04
      1.18147451e-04 1.18147451e-04 0. 0. 0. 0. 1.41776935e-03
      3.54442350e-03</_>
    <_>
      1.07179750e-02 1.25129133e-01 8.70351270e-02 5.34607433e-02
      2.04158053e-01 4.75077480e-01 4.06766534e-02 2.84090918e-03 0. 0.
      9.03925626e-04 0.</_>
    <_>
      5.69427945e-02 5.81318550e-02 2.64235698e-02 6.93618730e-02
      1.68846607e-01 2.86431491e-01 2.44946495e-01 5.61500862e-02
      7.66283507e-03 6.60589256e-04 2.44418029e-02 0.</_>
    <_>
      1.38817146e-01 1.80139467e-01 1.09633267e-01 1.06017560e-01
      1.47598147e-01 8.65185931e-02 9.18130130e-02 5.08781001e-02
      6.84400834e-03 7.36053707e-03 7.28305802e-02 1.54958677e-03</_>
    <_>
      4.09971662e-02 4.12334576e-02 3.10727786e-02 2.83553880e-02
      9.05009434e-02 1.09758981e-01 2.96313792e-01 2.40666345e-01
      7.12429136e-02 1.84310023e-02 3.11909262e-02 2.36294902e-04</_>
    <_>
      6.95888475e-02 1.48865785e-02 6.37996197e-03 1.22873345e-02
      6.19092621e-02 4.93856333e-02 2.44683370e-01 3.25968802e-01
      1.23345934e-01 2.61105858e-02 6.45085052e-02 9.45179607e-04</_>
    <_>
      1.25992060e-01 2.33985260e-01 6.29251674e-02 4.81859408e-02
      6.78854883e-02 3.54308374e-02 1.12103172e-01 1.49659857e-01
      9.76473913e-02 1.24716554e-02 5.25793657e-02 1.13378686e-03</_>
    <_>
      3.00094523e-02 1.13421548e-02 3.78071843e-03 1.37051037e-02
      5.06852567e-02 7.99858198e-02 3.99810970e-01 3.55033070e-01
      4.01701331e-02 4.25330829e-03 1.12240072e-02 0.</_>
    <_>
      2.58264452e-01 5.41580558e-01 1.02918386e-01 1.42045459e-02
      1.39462808e-02 4.00309917e-03 6.45661168e-03 9.94318165e-03
      8.65185913e-03 3.87396687e-03 3.20247933e-02 4.13223123e-03</_>
    <_>
      2.02933013e-01 3.23820859e-01 1.03844628e-01 1.03316158e-01
      9.65781510e-02 3.43506411e-02 2.33848598e-02 2.64235698e-02
      1.05694281e-02 3.69929988e-03 7.01545775e-02 9.24824970e-04</_>
    <_>
      9.66066495e-02 5.45360111e-02 1.22922435e-02 1.41966762e-02
      3.61842103e-02 3.44529077e-02 1.34522155e-01 3.10076177e-01
      1.48891971e-01 5.97299151e-02 8.74307454e-02 1.10803321e-02</_>
    <_>
      7.66283497e-02 6.05099760e-02 1.55899059e-02 1.74395554e-02
      7.21363425e-02 6.30202144e-02 2.80750424e-01 3.20253670e-01
      5.29792570e-02 1.13621354e-02 2.93301623e-02 0.</_>
    <_>
      2.82202214e-02 1.69667583e-02 1.33310249e-02 3.41066495e-02
      1.31578952e-01 1.97022155e-01 3.38296413e-01 1.57894731e-01
      4.20706384e-02 1.67936292e-02 2.37188358e-02 0.</_>
    <_>
      4.36662227e-01 2.69411922e-01 5.56696057e-02 1.03852190e-02
      4.34730109e-03 1.56985875e-03 1.44910032e-03 5.07185142e-03
      6.76246826e-03 1.56985875e-02 1.51914015e-01 4.10578437e-02</_>
    <_>
      2.79297143e-01 4.29647237e-01 6.50019795e-02 2.25921515e-02
      3.97674739e-02 2.17994452e-02 3.17082852e-02 1.65147316e-02
      1.18906060e-02 7.53071718e-03 6.40771538e-02 1.01730740e-02</_>
    <_>
      3.89399678e-02 4.59707938e-02 2.66360193e-02 5.58409952e-02
      1.59140080e-01 2.18226075e-01 3.10843706e-01 1.15332611e-01
      1.31151974e-02 2.70416436e-04 1.56841539e-02 0.</_>
    <_>
      1.59452915e-01 1.12707756e-01 3.63573395e-02 5.05540185e-02
      1.08379498e-01 8.55263174e-02 1.38504162e-01 1.34868428e-01
      5.41897491e-02 3.84349041e-02 7.75623247e-02 3.46260378e-03</_>
    <_>
      1.65676653e-01 2.43285120e-01 2.05965906e-01 9.73656997e-02
      8.47107470e-02 4.08057868e-02 3.95144634e-02 3.49948332e-02
      1.43336775e-02 3.61570250e-03 6.49535134e-02 4.77789249e-03</_>
    <_>
      7.44855450e-03 3.78740067e-03 1.76745362e-03 1.81795228e-02
      3.81264985e-02 1.15263224e-01 5.71771264e-01 2.24214122e-01
      1.40133826e-02 1.89370033e-03 3.53490724e-03 0.</_>
    <_>
      9.62603912e-02 3.15096937e-02 6.05955673e-03 1.95637122e-02
      7.91205019e-02 3.70498598e-02 1.85941830e-01 3.05228531e-01
      1.23268701e-01 5.64404428e-02 5.95567860e-02 0.</_>
    <_>
      2.29560494e-01 1.27126649e-01 1.65406428e-02 2.20935736e-02
      7.19517991e-02 6.13185242e-02 1.25118151e-01 1.25236288e-01
      2.89461240e-02 1.53591679e-02 1.71904534e-01 4.84404527e-03</_>
    <_>
      2.10600913e-01 3.34892303e-01 1.04875281e-01 3.14625837e-02
      4.16666679e-02 3.35884355e-02 3.82653065e-02 2.32426301e-02
      1.62981860e-02 1.27551025e-02 1.39597505e-01 1.27551025e-02</_>
    <_>
      1.46502838e-01 1.79584116e-01 1.00425333e-01 7.78591707e-02
      1.28544420e-01 8.73109624e-02 8.66020769e-02 5.55293001e-02
      3.65075618e-02 1.57136098e-02 7.83317611e-02 7.08884699e-03</_>
    <_>
      1.37896821e-01 1.15221091e-01 6.59013614e-02 4.90362793e-02
      6.61848038e-02 6.40589595e-02 1.44699544e-01 1.65674597e-01
      7.49716535e-02 2.32426301e-02 8.91439915e-02 3.96825420e-03</_>
    <_>
      6.14348017e-02 5.74712642e-02 7.71568269e-02 1.14017703e-01
      1.93552643e-01 2.55780160e-01 1.72545910e-01 4.65054847e-02
      6.34165667e-03 1.18906063e-03 1.40044922e-02 0.</_>
    <_>
      2.22117193e-02 7.58506581e-02 1.99314743e-01 3.06592613e-01
      2.62759924e-01 8.05765614e-02 2.83553880e-02 5.90737257e-03
      5.31663513e-03 2.24480149e-03 1.03969751e-02 4.72589803e-04</_>
    <_>
      0. 0. 0. 0. 2.32438021e-03 1.96022734e-01 7.31792331e-01
      6.94731399e-02 3.87396693e-04 0. 0. 0.</_>
    <_>
      1.91885039e-01 2.35720322e-01 9.69689637e-02 1.11701488e-01
      1.10614657e-01 7.36626014e-02 3.58652323e-02 2.68083569e-02
      1.26796281e-02 1.05059771e-02 8.73082951e-02 6.27943501e-03</_>
    <_>
      3.54442350e-03 1.06332707e-03 2.36294902e-04 2.95368629e-03
      2.63468809e-02 2.06994325e-01 6.61389410e-01 9.27457437e-02
      3.66257085e-03 3.54442338e-04 7.08884676e-04 0.</_>
    <_>
      4.17492390e-02 3.22367549e-02 4.16171215e-02 5.68106733e-02
      1.39780685e-01 1.99101597e-01 2.84581840e-01 1.52860358e-01
      2.58950982e-02 6.34165667e-03 1.90249700e-02 0.</_>
    <_>
      3.38831812e-01 2.72714972e-01 1.58193614e-02 1.23039484e-02
      3.10978908e-02 3.78583022e-03 3.83991338e-02 4.73228768e-02
      3.42076793e-02 1.90643594e-02 1.79015681e-01 7.43645197e-03</_>
    <_>
      4.33071941e-01 3.17333698e-01 1.71714444e-02 8.78853444e-03
      3.31260152e-02 1.56841539e-02 2.29853969e-02 1.87939424e-02
      1.70362350e-02 1.00054080e-02 8.88318047e-02 1.71714444e-02</_>
    <_>
      2.04782672e-02 2.69520413e-02 3.42185237e-02 5.29792570e-02
      1.60258949e-01 4.03487921e-01 1.84040159e-01 7.67604709e-02
      2.06103846e-02 6.07742090e-03 1.37402564e-02 3.96353542e-04</_>
    <_>
      2.47025415e-01 6.24391556e-01 6.73336908e-02 7.43645197e-03
      2.83937273e-03 1.21687399e-03 4.05624654e-04 2.70416448e-03
      3.92103847e-03 5.54353697e-03 3.16387229e-02 5.54353697e-03</_>
    <_>
      2.41638318e-01 4.76473927e-01 7.65306130e-02 1.82823129e-02
      2.89115645e-02 1.48809524e-02 4.15249430e-02 3.98242623e-02
      1.65816322e-02 1.84240367e-03 3.81235816e-02 5.38548734e-03</_>
    <_>
      2.00648993e-01 3.70335311e-01 1.44267172e-01 5.86803667e-02
      7.69334808e-02 2.27149818e-02 1.32504059e-02 2.35262308e-02
      1.66306105e-02 1.75770686e-03 6.77393153e-02 3.51541373e-03</_>
    <_>
      1.71753205e-02 1.46650812e-02 2.65556872e-02 5.85282072e-02
      2.23675519e-01 4.68357772e-01 1.64883077e-01 1.99497957e-02
      6.60589256e-04 0. 5.54894982e-03 0.</_>
    <_>
      1.62655488e-01 2.54326671e-01 5.35424538e-02 2.12276913e-02
      7.80151412e-02 6.57111928e-02 1.83477551e-01 1.02352627e-01
      2.44726874e-02 5.27312048e-03 4.77285013e-02 1.21687399e-03</_>
    <_>
      3.40619087e-01 1.89626649e-01 2.61105858e-02 1.08695654e-02
      1.15784500e-02 5.43478271e-03 3.15453671e-02 9.36909243e-02
      6.40359148e-02 5.12759909e-02 1.57490551e-01 1.77221168e-02</_>
    <_>
      8.30320269e-02 6.12603307e-01 4.88119833e-02 4.05475199e-02
      6.79235533e-02 8.70351270e-02 3.52531001e-02 1.14927683e-02
      4.90702502e-03 7.74793385e-04 7.61880167e-03 0.</_>
    <_>
      1.53946131e-01 1.16020791e-01 2.95368619e-02 3.36720236e-02
      7.82136098e-02 5.90737239e-02 1.34806246e-01 1.41776934e-01
      8.06947052e-02 4.64319475e-02 1.20628543e-01 5.19848755e-03</_>
    <_>
      1.40346140e-01 9.66738760e-02 2.25797724e-02 1.60897784e-02
      7.30124414e-02 5.77339120e-02 2.33369395e-01 2.37966463e-01
      4.93509993e-02 1.81179009e-02 5.01622483e-02 4.59707947e-03</_>
    <_>
      8.68036747e-02 6.38182834e-02 2.65008118e-02 3.85343432e-02
      8.36938918e-02 1.13169283e-01 1.91049218e-01 1.68604657e-01
      7.15251490e-02 3.12330984e-02 1.18983231e-01 6.08436996e-03</_>
    <_>
      1.43744215e-01 3.63984674e-01 7.68925846e-02 3.30294631e-02
      4.80908975e-02 7.02866986e-02 1.05826400e-01 8.46875384e-02
      1.87607352e-02 7.53071718e-03 4.47879508e-02 2.37812125e-03</_>
    <_>
      4.10886519e-02 1.08732991e-01 1.24587134e-01 1.15735233e-01
      2.44814381e-01 2.46003434e-01 8.08561221e-02 1.66468490e-02
      5.02047827e-03 2.24600337e-03 1.42687280e-02 0.</_>
    <_>
      2.01446284e-02 7.10227294e-03 5.42355375e-03 1.85950417e-02
      6.41787201e-02 2.41089880e-01 4.98063028e-01 1.21900827e-01
      1.11053716e-02 1.80785125e-03 1.05888434e-02 0.</_>
    <_>
      2.52626508e-01 2.76295125e-01 9.70897228e-02 3.92464660e-02
      5.01147211e-02 2.22195387e-02 3.33293080e-02 3.63482684e-02
      3.47784087e-02 2.53592562e-02 1.25709459e-01 6.88322680e-03</_>
    <_>
      8.12241733e-02 1.26420453e-01 5.26859500e-02 6.06921501e-02
      1.67613640e-01 2.45480374e-01 1.63739666e-01 3.93853299e-02
      1.42045459e-02 2.71177688e-03 4.58419435e-02 0.</_>
    <_>
      2.32438017e-02 2.85382234e-02 1.51084708e-02 3.44783068e-02
      6.71487600e-02 1.58186987e-01 4.19938028e-01 1.82076439e-01
      4.72623967e-02 1.23966942e-02 1.12345042e-02 3.87396693e-04</_>
    <_>
      1.16263712e-02 5.28471405e-03 8.32342450e-03 5.16580790e-02
      1.67261198e-01 4.62544590e-01 2.62650281e-01 2.70841587e-02
      2.37812125e-03 1.32117842e-04 1.05694274e-03 0.</_>
    <_>
      3.60417485e-01 2.77315378e-01 4.13528867e-02 1.09657813e-02
      2.23279167e-02 1.03051923e-02 1.94213241e-02 4.35988903e-02
      2.43096836e-02 1.42687280e-02 1.43612102e-01 3.21046375e-02</_>
    <_>
      1.95770323e-01 2.02977315e-01 7.86862001e-02 6.91162571e-02
      8.81379992e-02 5.87192811e-02 5.43478243e-02 4.85586002e-02
      4.24149334e-02 1.97306238e-02 1.30907372e-01 1.06332703e-02</_>
    <_>
      3.19352537e-01 1.03260867e-01 1.99669190e-02 7.20699411e-03
      1.68950856e-02 8.74291081e-03 3.11909262e-02 5.65926284e-02
      5.03308140e-02 5.80103956e-02 2.62996227e-01 6.54536858e-02</_>
    <_>
      2.58624762e-01 2.16564268e-01 6.56899810e-02 3.02457474e-02
      3.68620045e-02 2.51654070e-02 3.26086953e-02 3.10727786e-02
      3.75708900e-02 3.46172005e-02 2.01323256e-01 2.96550095e-02</_>
    <_>
      7.46384263e-02 1.71875000e-01 1.37784094e-01 1.36234507e-01
      1.89436987e-01 1.62964880e-01 7.21849203e-02 1.22675616e-02
      4.77789249e-03 1.42045459e-03 3.56404968e-02 7.74793385e-04</_>
    <_>
      3.25800627e-01 2.36311987e-01 1.05630167e-01 2.98295449e-02
      2.11776868e-02 1.23966942e-02 1.51084708e-02 1.20092975e-02
      1.51084708e-02 3.44783068e-02 1.53538227e-01 3.86105366e-02</_>
    <_>
      1.17488660e-01 6.16071403e-01 9.36791375e-02 2.86281183e-02
      2.97619049e-02 2.12585032e-02 2.39512473e-02 2.31009070e-02
      1.47392293e-02 4.81859408e-03 2.62188204e-02 2.83446716e-04</_>
    <_>
      1.44274384e-01 1.69217691e-01 1.61989793e-01 1.49659857e-01
      1.14654198e-01 5.00283465e-02 3.92573699e-02 3.61394547e-02
      2.63605434e-02 2.99036279e-02 6.25000000e-02 1.60147399e-02</_>
    <_>
      1.29935101e-01 1.38182804e-01 1.14386156e-01 7.39588961e-02
      1.02893457e-01 7.42293149e-02 7.72038922e-02 8.26122239e-02
      3.86695527e-02 3.12330984e-02 1.14521362e-01 2.21741479e-02</_>
    <_>
      1.98863640e-01 1.67484507e-01 7.15392530e-02 6.55991733e-02
      1.12086780e-01 5.59142567e-02 6.70196265e-02 6.26291335e-02
      2.54390500e-02 1.60123967e-02 1.45919427e-01 1.14927683e-02</_>
    <_>
      1.46295011e-01 2.03774244e-01 2.94321328e-02 2.51038782e-02
      5.88642657e-02 1.35907203e-01 1.94771469e-01 9.05470923e-02
      4.57063727e-02 1.74861494e-02 5.00346273e-02 2.07756227e-03</_>
    <_>
      2.92651236e-01 5.52221179e-01 5.11578433e-02 1.33506618e-02
      2.45746691e-02 1.68950856e-02 1.41776940e-02 4.96219285e-03
      4.37145540e-03 2.36294908e-03 2.06758026e-02 2.59924377e-03</_>
    <_>
      1.34806246e-01 4.85586002e-02 2.19754260e-02 2.77646501e-02
      1.90689981e-01 2.25897923e-01 2.66776949e-01 4.57230620e-02
      6.97069941e-03 2.83553870e-03 2.77646501e-02 2.36294902e-04</_>
    <_>
      2.39318550e-01 6.38047576e-01 5.02974577e-02 5.81395347e-03
      2.43374798e-03 1.62249862e-03 3.10978899e-03 4.32666298e-03
      4.59707947e-03 6.21957798e-03 3.88047583e-02 5.40832896e-03</_>
    <_>
      0. 0. 0. 0. 7.24550162e-04 3.26047577e-02 8.46516132e-01
      1.19913056e-01 1.20758363e-04 0. 1.20758363e-04 0.</_>
    <_>
      6.34165667e-03 1.58541417e-03 6.60589256e-04 6.60589244e-03
      6.09063283e-02 2.80750424e-01 5.64671695e-01 7.66283497e-02
      6.60589256e-04 0. 1.18906063e-03 0.</_>
    <_>
      2.78591692e-01 2.85680532e-01 7.59688094e-02 3.52079384e-02
      5.52930050e-02 4.04064283e-02 2.12665405e-02 3.95793952e-02
      2.00850666e-02 1.60680525e-02 1.14130437e-01 1.77221168e-02</_>
    <_>
      7.06981448e-03 1.50233554e-02 1.81795228e-02 3.86314876e-02
      1.85077637e-01 5.29099882e-01 1.58692092e-01 3.39603573e-02
      3.66115384e-03 2.77742720e-03 7.06981448e-03 7.57480098e-04</_>
    <_>
      2.60847099e-02 3.15082632e-02 4.01601233e-02 6.10795468e-02
      1.64772734e-01 3.44524801e-01 2.12035120e-01 7.07644597e-02
      1.74328517e-02 1.20092975e-02 1.80785116e-02 1.54958677e-03</_>
    <_>
      7.68925846e-02 1.58541426e-01 6.22275062e-02 7.49108195e-02
      1.52596116e-01 2.18126565e-01 1.71753198e-01 4.58448939e-02
      1.34760207e-02 4.22777096e-03 1.92892067e-02 2.11388548e-03</_>
    <_>
      1.88888889e-02 8.95061716e-02 2.83456802e-01 2.89876550e-01
      1.76296294e-01 1.05679013e-01 2.39506178e-02 7.77777797e-03
      1.72839512e-03 3.70370370e-04 2.09876546e-03 3.70370370e-04</_>
    <_>
      1.84197530e-01 1.50370374e-01 4.72839512e-02 4.83950600e-02
      9.95061696e-02 5.14814816e-02 1.38518512e-01 1.12839505e-01
      4.08641957e-02 1.54320989e-02 1.10246912e-01 8.64197558e-04</_>
    <_>
      8.07240084e-02 6.61910400e-02 1.82322636e-02 2.45739203e-02
      9.40679088e-02 1.47971988e-01 3.34126055e-01 1.43612102e-01
      3.60681713e-02 6.47377456e-03 4.57127765e-02 2.24600337e-03</_>
    <_>
      7.97530860e-02 4.51851860e-02 1.99999996e-02 2.98765432e-02
      8.79012346e-02 1.00000001e-01 2.49135807e-01 2.74074078e-01
      5.53086437e-02 1.53086418e-02 4.32098769e-02 2.46913580e-04</_>
    <_>
      2.60370374e-01 3.20246905e-01 6.01234585e-02 1.59259252e-02
      2.45679021e-02 1.98765434e-02 2.91358028e-02 3.86419743e-02
      3.55555564e-02 1.54320989e-02 1.69506177e-01 1.06172841e-02</_>
    <_>
      1.90123450e-02 1.43209873e-02 2.18518525e-02 4.75308634e-02
      1.08888887e-01 2.40740746e-01 4.07407403e-01 1.23086423e-01
      5.43209864e-03 1.35802466e-03 9.87654366e-03 4.93827160e-04</_>
    <_>
      7.99141526e-02 1.84193909e-01 1.77502841e-01 2.37848759e-01
      2.17523038e-01 4.94887009e-02 1.38871353e-02 9.34225507e-03
      8.07978772e-03 2.14619376e-03 1.79270301e-02 2.14619376e-03</_>
    <_>
      1.55432105e-01 2.81851858e-01 6.86419755e-02 3.25925909e-02
      5.56790121e-02 4.93827164e-02 1.81481481e-01 7.81481490e-02
      2.08641980e-02 8.14814772e-03 6.74074069e-02 3.70370370e-04</_>
    <_>
      1.58944577e-01 2.03004673e-01 1.26877919e-01 1.68791816e-01
      1.53768465e-01 3.25716436e-02 6.05984079e-03 1.41396290e-02
      1.47708626e-02 6.69107446e-03 1.02764800e-01 1.16146952e-02</_>
    <_>
      2.49728292e-01 5.22762954e-01 9.74519998e-02 1.85967870e-02
      1.30419033e-02 7.72853522e-03 1.42494868e-02 2.30648480e-02
      1.44910039e-02 6.64170971e-03 2.52384972e-02 7.00398488e-03</_>
    <_>
      0. 0. 0. 2.58264452e-04 5.16528904e-04 2.58264467e-02
      8.07592988e-01 1.56250000e-01 6.06921501e-03 2.58264458e-03
      9.03925626e-04 0.</_>
    <_>
      2.34187603e-01 5.18873870e-01 9.01401341e-02 2.96679717e-02
      3.10566854e-02 1.33821489e-02 8.83726776e-03 8.83726776e-03
      6.31233444e-03 4.03989386e-03 4.53225598e-02 9.34225507e-03</_>
    <_>
      1.34452716e-01 2.86201239e-01 2.96553463e-01 1.98712289e-01
      2.28506494e-02 2.27244035e-03 1.26246689e-03 3.15616722e-03
      5.80734760e-03 6.31233444e-03 3.98939513e-02 2.52493378e-03</_>
    <_>
      2.12851912e-01 5.45511901e-01 1.07814670e-01 2.49968432e-02
      1.93157438e-02 5.17611392e-03 6.81732083e-03 1.40133826e-02
      7.19606131e-03 3.40866041e-03 4.39338461e-02 8.96351505e-03</_>
    <_>
      1.78359095e-02 2.27242708e-02 4.74303067e-02 5.74712642e-02
      1.53388828e-01 4.11414981e-01 2.59875804e-01 2.29885057e-02
      2.24600337e-03 1.32117842e-04 4.22777096e-03 2.64235685e-04</_>
    <_>
      1.30864203e-01 7.22222254e-02 1.40740741e-02 1.03703700e-02
      5.25925942e-02 2.41975300e-02 1.04074076e-01 2.72839516e-01
      1.41358018e-01 3.86419743e-02 1.38641968e-01 1.23456790e-04</_>
    <_>
      1.49498850e-01 1.76186457e-01 6.53302744e-02 7.57154897e-02
      1.12063758e-01 1.55536771e-01 1.14116654e-01 4.29899767e-02
      1.02644609e-02 6.40019309e-03 8.88781548e-02 3.01895896e-03</_>
    <_>
      1.13703705e-01 1.98148146e-01 3.61728407e-02 2.49382723e-02
      5.27160503e-02 3.02469134e-02 2.00370371e-01 2.03703701e-01
      6.60493821e-02 1.41975312e-02 5.66666685e-02 3.08641978e-03</_>
    <_>
      4.31094170e-02 1.83518007e-02 1.09072020e-02 1.88711919e-02
      3.68767306e-02 3.79155129e-02 2.05851793e-01 3.81232679e-01
      1.51142657e-01 2.66620498e-02 6.45775646e-02 4.50138515e-03</_>
    <_>
      9.16838869e-02 1.07050620e-01 7.29597136e-02 7.95454532e-02
      1.80914253e-01 2.16296494e-01 1.53667361e-01 4.04183902e-02
      1.34297516e-02 7.61880167e-03 3.48657034e-02 1.54958677e-03</_>
    <_>
      1.63209870e-01 1.80864200e-01 9.91358012e-02 4.03703712e-02
      1.25555560e-01 5.76543212e-02 1.23209879e-01 8.17283913e-02
      4.04938273e-02 6.79012341e-03 7.98765421e-02 1.11111114e-03</_>
    <_>
      4.18518521e-02 2.27160491e-02 1.60493832e-02 2.27160491e-02
      8.80246907e-02 1.25555560e-01 3.70370358e-01 2.48765439e-01
      3.49382721e-02 9.50617250e-03 1.95061732e-02 0.</_>
    <_>
      3.30678672e-02 3.37603875e-02 3.63573395e-02 6.40581697e-02
      2.08621889e-01 3.05055410e-01 2.41343483e-01 4.67451513e-02
      1.64473690e-02 2.77008303e-03 1.00415517e-02 1.73130189e-03</_>
    <_>
      1.43580243e-01 2.65185177e-01 1.14567898e-01 4.92592603e-02
      1.04938269e-01 5.04938290e-02 9.44444463e-02 5.69135807e-02
      3.64197530e-02 1.72839500e-02 6.58024698e-02 1.11111114e-03</_>
    <_>
      4.02882807e-02 4.04064283e-02 1.81947071e-02 3.66257094e-02
      7.99858198e-02 1.93407372e-01 3.55387509e-01 1.83601141e-01
      1.84310023e-02 6.49810955e-03 2.71739122e-02 0.</_>
    <_>
      3.30678672e-02 1.67936292e-02 1.03878118e-02 1.43698063e-02
      4.25900295e-02 4.89958450e-02 3.15270096e-01 3.71537387e-01
      8.79501402e-02 1.97368413e-02 3.34141292e-02 5.88642666e-03</_>
    <_>
      1.40740741e-02 4.81481478e-03 5.92592591e-03 1.06172841e-02
      6.29629642e-02 1.54197529e-01 5.37654340e-01 1.82839513e-01
      1.69135798e-02 4.19753091e-03 5.80246933e-03 0.</_>
    <_>
      1.72839500e-02 1.59259252e-02 3.82716046e-03 2.09876541e-02
      6.69135824e-02 1.42716050e-01 4.67530876e-01 2.30617285e-01
      1.34567898e-02 3.33333341e-03 1.74074080e-02 0.</_>
    <_>
      6.61532655e-02 7.28443414e-02 6.94356784e-02 8.16816092e-02
      1.42280012e-01 1.80027768e-01 2.07549557e-01 1.09203383e-01
      2.61330642e-02 6.69107446e-03 3.16879191e-02 6.31233444e-03</_>
    <_>
      4.39717203e-01 3.00972104e-01 3.09304371e-02 9.46850143e-03
      2.86579970e-02 1.06047215e-02 9.84724145e-03 1.83057692e-02
      9.72099509e-03 1.57808363e-02 1.05542228e-01 2.04519629e-02</_>
    <_>
      3.10348999e-02 4.91486527e-02 2.95857992e-02 3.33293080e-02
      9.51575860e-02 3.24356973e-01 3.41263145e-01 5.39789870e-02
      1.38872117e-02 1.02644609e-02 1.59401037e-02 2.05289223e-03</_>
    <_>
      1.61333174e-01 1.65076688e-01 6.60548210e-02 5.21676131e-02
      8.83951187e-02 9.43122804e-02 1.11942999e-01 5.19260950e-02
      2.76536644e-02 2.17365045e-02 1.48170516e-01 1.12305274e-02</_>
    <_>
      4.20918353e-02 1.50935367e-01 2.26899087e-01 1.53202951e-01
      1.65816322e-01 1.43282309e-01 7.48299286e-02 2.12585032e-02
      7.22789112e-03 3.11791385e-03 1.10544218e-02 2.83446716e-04</_>
    <_>
      1.09877130e-02 3.78071843e-03 3.54442350e-03 1.24054821e-02
      4.21786383e-02 1.11767486e-01 5.47377110e-01 2.27906421e-01
      2.81190928e-02 4.48960299e-03 7.44328927e-03 0.</_>
    <_>
      1.01252362e-01 1.76512286e-01 7.86862001e-02 4.61956523e-02
      7.38421530e-02 1.40949905e-01 1.25118151e-01 1.46975428e-01
      3.76890376e-02 1.09877130e-02 5.93100190e-02 2.48109642e-03</_>
    <_>
      7.22222254e-02 5.72839491e-02 1.30864196e-02 1.65432096e-02
      7.48148113e-02 8.65432099e-02 2.24320993e-01 2.98148155e-01
      7.43209869e-02 2.19753087e-02 5.98765425e-02 8.64197558e-04</_>
    <_>
      3.71935740e-02 2.76536644e-02 2.06496809e-02 2.28233300e-02
      4.81825881e-02 1.60970896e-01 4.10336912e-01 2.02149495e-01
      2.93442812e-02 1.01437028e-02 2.91027650e-02 1.44910032e-03</_>
    <_>
      2.91027665e-01 2.49486774e-01 9.60028991e-02 3.86426747e-02
      3.47784087e-02 1.89590622e-02 3.71935740e-02 2.98273154e-02
      1.83552708e-02 1.44910039e-02 1.52759328e-01 1.84760299e-02</_>
    <_>
      2.42346942e-01 5.52721083e-01 6.94444478e-02 1.81405898e-02
      2.77777780e-02 1.54478457e-02 2.23922897e-02 1.31802717e-02
      5.95238106e-03 2.40929704e-03 2.48015877e-02 5.38548734e-03</_>
    <_>
      1.51835173e-01 2.16066480e-01 3.06440443e-02 2.77008303e-02
      5.29778376e-02 1.10630192e-01 1.97368428e-01 1.18940443e-01
      3.68767306e-02 9.17590037e-03 4.08587269e-02 6.92520756e-03</_>
    <_>
      2.44444441e-02 2.28395071e-02 9.13580228e-03 2.13580243e-02
      6.03703707e-02 1.34567901e-01 4.16419744e-01 2.60864198e-01
      2.85185184e-02 2.83950614e-03 1.77777782e-02 8.64197558e-04</_>
    <_>
      6.68934211e-02 1.33503407e-01 7.70975053e-02 1.08985260e-01
      1.78429708e-01 2.23072559e-01 1.43424034e-01 2.90532876e-02
      6.66099787e-03 2.69274367e-03 2.93367356e-02 8.50340119e-04</_>
    <_>
      2.93805093e-01 2.11568654e-01 5.78432567e-02 2.37893965e-02
      3.65897827e-02 2.11327132e-02 3.56237181e-02 4.75787930e-02
      3.36915813e-02 3.06726247e-02 1.78239346e-01 2.94650402e-02</_>
    <_>
      9.72991660e-02 6.19979203e-01 1.48199439e-01 3.47991697e-02
      3.37603875e-02 2.83933524e-02 9.34903044e-03 6.75207749e-03
      4.50138515e-03 2.07756227e-03 1.48891965e-02 0.</_>
    <_>
      1.45975053e-01 1.93168938e-01 5.81065752e-02 4.59183678e-02
      8.78684819e-02 9.56632644e-02 1.37188211e-01 9.69387740e-02
      2.60770973e-02 1.64399091e-02 8.92857164e-02 7.36961467e-03</_>
    <_>
      1.48896813e-01 4.40216660e-01 1.28418550e-01 4.79587801e-02
      4.05601785e-02 4.16171215e-02 8.58765990e-02 3.03871054e-02
      7.92707130e-03 2.77447491e-03 2.08746195e-02 4.49200673e-03</_>
    <_>
      2.90182352e-01 3.78094435e-01 8.11496228e-02 2.84989737e-02
      2.43931897e-02 2.05289219e-02 2.72913892e-02 2.19780225e-02
      1.18343197e-02 8.81536026e-03 9.80557874e-02 9.17763542e-03</_>
    <_>
      1.67037040e-01 1.32098764e-01 2.16049384e-02 1.67901237e-02
      2.43209880e-02 1.70370378e-02 9.25925896e-02 1.49876550e-01
      1.07283950e-01 5.69135807e-02 1.94320992e-01 2.01234575e-02</_>
    <_>
      2.02028736e-01 1.70993835e-01 6.94360584e-02 4.95109297e-02
      6.18282817e-02 4.87863794e-02 8.38063061e-02 7.58362487e-02
      4.38352861e-02 2.75329072e-02 1.56382084e-01 1.00229438e-02</_>
    <_>
      2.58805715e-02 4.45650816e-02 6.57745227e-02 1.18293144e-01
      2.18785509e-01 4.24693853e-01 6.74157292e-02 1.59070827e-02
      4.67112754e-03 1.38871360e-03 1.12359552e-02 1.38871360e-03</_>
    <_>
      1.90864190e-01 3.70493829e-01 1.21358022e-01 4.18518521e-02
      6.04938269e-02 4.01234552e-02 3.45679000e-02 2.90123448e-02
      2.41975300e-02 1.16049387e-02 7.01234564e-02 5.30864205e-03</_>
    <_>
      1.20464854e-01 9.97732431e-02 3.52891162e-02 2.94784587e-02
      6.25000000e-02 4.57766429e-02 1.41156465e-01 1.49376422e-01
      7.99319744e-02 7.14285746e-02 1.59297049e-01 5.52721089e-03</_>
    <_>
      2.41477266e-02 2.09194217e-02 4.77789249e-03 8.26446246e-03
      2.69886367e-02 5.28150834e-02 4.04829532e-01 3.10563028e-01
      8.74225199e-02 3.26704532e-02 2.63429750e-02 2.58264452e-04</_>
    <_>
      1.21882088e-01 1.74603179e-01 5.25793657e-02 5.90986386e-02
      9.69387740e-02 1.17063493e-01 1.70918360e-01 7.42630363e-02
      2.32426301e-02 1.72902495e-02 8.95691589e-02 2.55102036e-03</_>
    <_>
      4.03332934e-02 2.99480744e-02 1.20758358e-02 4.05748114e-02
      9.76935178e-02 2.22557664e-01 3.36070538e-01 1.39113635e-01
      2.53592562e-02 1.18343197e-02 4.26277034e-02 1.81137549e-03</_>
    <_>
      3.30998659e-01 4.07801002e-01 7.88552091e-02 2.60838065e-02
      2.05289219e-02 9.05687734e-03 1.43702449e-02 3.17594483e-02
      1.40079698e-02 1.06267361e-02 4.26277034e-02 1.32834194e-02</_>
    <_>
      6.50617257e-02 5.01234569e-02 1.56790130e-02 3.62962969e-02
      9.06172842e-02 1.01111114e-01 2.80617297e-01 2.42839500e-01
      6.16049394e-02 1.66666675e-02 3.87654305e-02 6.17283978e-04</_>
    <_>
      3.13367963e-01 3.58048558e-01 1.15203477e-01 3.77973691e-02
      1.71476882e-02 9.41915251e-03 1.82345118e-02 1.82345118e-02
      1.20758358e-02 1.53363124e-02 6.79869577e-02 1.71476882e-02</_>
    <_>
      1.33568987e-01 2.02120945e-01 1.38240114e-01 1.88738793e-01
      1.35210201e-01 2.01994702e-02 5.17611392e-03 6.05984079e-03
      6.43858081e-03 6.56482764e-03 1.47456124e-01 1.02259815e-02</_>
    <_>
      2.55775779e-01 4.07650560e-01 1.24226741e-01 2.79005170e-02
      2.52493378e-02 1.98207293e-02 2.81530116e-02 2.31031440e-02
      1.08572152e-02 6.94356766e-03 5.73159941e-02 1.30034089e-02</_>
    <_>
      8.14909264e-02 8.06405917e-02 5.45634925e-02 7.58219957e-02
      1.50793657e-01 1.85232431e-01 2.12018147e-01 6.47675768e-02
      1.77154187e-02 7.65306130e-03 6.66099787e-02 2.69274367e-03</_>
    <_>
      2.47313127e-01 2.36565635e-01 6.24320731e-02 2.63253227e-02
      5.03562354e-02 3.99710163e-02 6.04999401e-02 6.26735911e-02
      2.58422904e-02 2.14949884e-02 1.53846160e-01 1.26796281e-02</_>
    <_>
      1.19253650e-01 3.02596003e-01 7.42293149e-02 5.28664142e-02
      8.08545128e-02 1.24391563e-01 1.26690105e-01 6.05732836e-02
      1.90643594e-02 8.78853444e-03 2.75824778e-02 3.10978899e-03</_>
    <_>
      2.65668402e-03 2.77744234e-03 5.43412613e-03 1.29211452e-02
      7.02813640e-02 3.57082486e-01 4.79531467e-01 5.88093214e-02
      5.19260950e-03 2.89820065e-03 2.41516717e-03 0.</_>
    <_>
      9.99527425e-02 2.33931951e-02 9.56994295e-03 1.08695654e-02
      3.08364835e-02 4.57230620e-02 3.41091692e-01 3.29276949e-01
      5.05671091e-02 2.31569000e-02 3.24905477e-02 3.07183363e-03</_>
    <_>
      2.04898372e-01 3.93005937e-01 2.25350335e-01 4.38075997e-02
      2.94154771e-02 2.53755841e-02 2.39868704e-02 1.85582619e-02
      5.80734760e-03 1.76745362e-03 2.62593105e-02 1.76745362e-03</_>
    <_>
      1.23090521e-01 1.44804955e-01 1.08824641e-01 1.03143543e-01
      2.13483140e-01 1.88865036e-01 2.92892307e-02 1.94419902e-02
      5.80734760e-03 1.89370033e-03 5.88309541e-02 2.52493378e-03</_>
    <_>
      4.81631100e-01 2.75975257e-01 3.45915928e-02 9.46850143e-03
      1.55283427e-02 1.07309679e-02 1.43921226e-02 1.59070827e-02
      1.21196816e-02 8.58477503e-03 8.82464349e-02 3.28241400e-02</_>
    <_>
      8.84353742e-02 2.70833343e-01 1.07993200e-01 7.27040842e-02
      1.09835602e-01 1.20323129e-01 1.14512473e-01 6.25000000e-02
      1.81405898e-02 6.23582769e-03 2.63605434e-02 2.12585041e-03</_>
    <_>
      1.95637122e-02 6.57894742e-03 3.46260378e-04 3.98199446e-03
      2.23337952e-02 3.93005535e-02 3.56128812e-01 4.53427970e-01
      5.57479225e-02 2.06024926e-02 1.90443210e-02 2.94321333e-03</_>
    <_>
      2.14285716e-01 5.27636051e-01 6.93027228e-02 2.93367356e-02
      1.82823129e-02 2.59353742e-02 3.98242623e-02 3.71315181e-02
      1.27551025e-02 3.40136047e-03 1.68650802e-02 5.24376426e-03</_>
    <_>
      1.03369161e-01 1.21845186e-01 3.75558510e-02 3.61067504e-02
      5.55488467e-02 1.00350201e-01 2.29682401e-01 1.74616590e-01
      5.61526380e-02 1.00229438e-02 7.20927417e-02 2.65668402e-03</_>
    <_>
      1.04335226e-01 8.53761658e-02 2.70498730e-02 2.76536644e-02
      6.79869577e-02 6.47264794e-02 1.86571673e-01 1.56261325e-01
      8.17534104e-02 4.51636277e-02 1.46479890e-01 6.64170971e-03</_>
    <_>
      2.13333338e-01 4.84197527e-01 1.11975312e-01 2.28395071e-02
      2.02469137e-02 1.48148146e-02 5.18518500e-03 1.02469139e-02
      1.49382716e-02 6.91358047e-03 9.00000036e-02 5.30864205e-03</_>
    <_>
      1.40235461e-02 2.49307472e-02 3.04709133e-02 7.70429373e-02
      2.44113579e-01 3.43663424e-01 2.35803321e-01 1.80055406e-02
      3.98199446e-03 1.38504151e-03 6.05955673e-03 5.19390567e-04</_>
    <_>
      8.00403953e-02 1.41901270e-01 1.66140646e-01 2.14871854e-01
      2.46054798e-01 5.84522150e-02 2.01994702e-02 1.61595754e-02
      9.08976141e-03 3.91364750e-03 4.09039259e-02 2.27244035e-03</_>
    <_>
      1.62790701e-01 1.64413199e-01 7.12547302e-02 5.50297461e-02
      8.92374292e-02 5.32720387e-02 1.17360733e-01 9.53217968e-02
      8.09897259e-02 2.93401834e-02 7.09843189e-02 1.00054080e-02</_>
    <_>
      3.10469747e-01 2.13500783e-01 4.69750017e-02 2.14949884e-02
      3.57444771e-02 1.77514795e-02 3.03103495e-02 4.00917754e-02
      3.90049517e-02 3.48991677e-02 1.83190435e-01 2.65668388e-02</_>
    <_>
      3.05390745e-01 1.46067411e-01 1.91894956e-02 2.19669230e-02
      2.07044557e-02 1.30034089e-02 3.69902775e-02 5.60535304e-02
      3.98939513e-02 3.37078646e-02 2.63981819e-01 4.30501215e-02</_>
    <_>
      1.90519746e-02 1.53939947e-02 1.92043893e-02 2.95686629e-02
      9.23639685e-02 2.30452672e-01 4.84987050e-01 8.82487446e-02
      1.50891636e-02 2.74348422e-03 2.74348422e-03 1.52415785e-04</_>
    <_>
      2.58271605e-01 2.01975316e-01 3.03703696e-02 1.13580246e-02
      1.80246904e-02 1.23456791e-02 6.17283955e-02 1.01604939e-01
      8.22222233e-02 3.79012339e-02 1.75679013e-01 8.51851888e-03</_>
    <_>
      1.40386313e-01 3.15364212e-01 1.38871357e-01 1.08445905e-01
      2.02752173e-01 3.08041908e-02 6.31233444e-03 9.84724145e-03
      3.66115384e-03 1.38871360e-03 3.74952666e-02 4.67112754e-03</_>
    <_>
      9.73708555e-02 1.97119832e-01 2.05575377e-01 1.53917298e-01
      1.47443518e-01 7.97991827e-02 6.39450401e-02 1.63826142e-02
      4.49200673e-03 1.32117851e-03 3.06513403e-02 1.98176783e-03</_>
    <_>
      2.35349715e-01 5.38752377e-02 2.29206048e-02 2.90642716e-02
      4.79678623e-02 3.83979194e-02 7.75047243e-02 1.50756150e-01
      8.40028375e-02 8.16398859e-02 1.61153123e-01 1.73676740e-02</_>
    <_>
      6.23456798e-02 5.29629625e-02 1.92592591e-02 3.20987664e-02
      7.65432119e-02 7.03703687e-02 2.59506166e-01 2.72222221e-01
      8.18518549e-02 1.79012343e-02 5.41975312e-02 7.40740739e-04</_>
    <_>
      2.25981567e-02 2.00732239e-02 1.38871353e-02 4.27976251e-02
      2.26739049e-01 3.90607238e-01 1.81290239e-01 6.74157292e-02
      1.22459289e-02 8.45852774e-03 1.13622015e-02 2.52493378e-03</_>
    <_>
      2.10200727e-01 1.80027768e-01 6.56482801e-02 2.95417253e-02
      5.34023494e-02 3.21929045e-02 5.88309541e-02 1.08193412e-01
      6.65320009e-02 4.54488061e-02 1.29024118e-01 2.09569503e-02</_>
    <_>
      2.25097835e-01 1.54147208e-01 3.08041908e-02 2.65118033e-02
      6.46383017e-02 4.38075997e-02 8.26915801e-02 1.14379495e-01
      5.34023494e-02 2.90367380e-02 1.51496023e-01 2.39868704e-02</_>
    <_>
      1.39113635e-01 1.23294286e-01 4.68542464e-02 3.53822000e-02
      8.44100937e-02 1.10856175e-01 1.30539790e-01 8.54969174e-02
      4.60089371e-02 2.20987797e-02 1.72563702e-01 3.38123413e-03</_>
    <_>
      1.30367041e-01 6.63088635e-02 1.80055406e-02 2.19875351e-02
      4.69182841e-02 8.43144059e-02 1.94078952e-01 1.76419660e-01
      9.21052620e-02 4.29362878e-02 1.20325483e-01 6.23268681e-03</_>
    <_>
      4.67901230e-02 2.34567896e-02 1.02469139e-02 2.59259250e-02
      1.09753087e-01 2.28888884e-01 3.90123457e-01 1.42098770e-01
      7.65432091e-03 1.85185182e-03 1.32098766e-02 0.</_>
    <_>
      1.32369608e-01 1.92743763e-01 5.64058945e-02 3.59977335e-02
      8.29081610e-02 1.22165531e-01 1.51502267e-01 8.61677974e-02
      2.57936511e-02 1.33219957e-02 9.69387740e-02 3.68480734e-03</_>
    <_>
      2.96174735e-01 2.79762655e-01 6.05984107e-02 1.90632492e-02
      2.38606241e-02 2.13356894e-02 3.00467107e-02 3.32028791e-02
      2.96679717e-02 1.84320156e-02 1.64120689e-01 2.37343777e-02</_>
    <_>
      1.83552708e-02 2.94650402e-02 8.00627917e-02 1.36215433e-01
      2.69411922e-01 3.20371926e-01 1.09407075e-01 2.36686394e-02
      2.53592571e-03 3.38123413e-03 5.91715984e-03 1.20758358e-03</_>
    <_>
      1.52638569e-01 1.14720441e-01 4.21446674e-02 3.21217254e-02
      6.96775764e-02 9.00857374e-02 1.54329181e-01 1.22448981e-01
      5.16845807e-02 2.00458877e-02 1.43219411e-01 6.88322680e-03</_>
    <_>
      5.21398820e-02 7.27180913e-02 5.84522150e-02 9.78411809e-02
      1.63110718e-01 1.45057440e-01 1.87855065e-01 1.42911255e-01
      2.73955315e-02 1.52758490e-02 2.97942180e-02 7.44855450e-03</_>
    <_>
      2.68652946e-01 2.69157946e-01 6.29970953e-02 2.36081295e-02
      2.97942180e-02 2.65118033e-02 3.08041908e-02 4.06514332e-02
      2.52493378e-02 1.78007819e-02 1.88865036e-01 1.59070827e-02</_>
    <_>
      1.66204982e-02 4.50138515e-03 5.19390567e-04 3.80886416e-03
      2.82202214e-02 7.15027675e-02 4.69529092e-01 3.00034612e-01
      6.76939040e-02 2.18144041e-02 1.50623266e-02 6.92520756e-04</_>
    <_>
      1.21728398e-01 3.78024697e-01 2.05925927e-01 8.40740725e-02
      6.29629642e-02 4.04938273e-02 2.77777780e-02 1.20987650e-02
      8.51851888e-03 6.54320978e-03 5.13580255e-02 4.93827160e-04</_>
    <_>
      5.01234569e-02 2.48148143e-02 1.41975312e-02 2.16049384e-02
      8.25925916e-02 1.28271610e-01 2.72345692e-01 2.87407398e-01
      6.28395081e-02 2.01234575e-02 3.56790125e-02 0.</_>
    <_>
      8.34750533e-02 2.05498859e-01 7.46882111e-02 4.56349216e-02
      8.78684819e-02 1.25850335e-01 2.01672330e-01 7.66723379e-02
      2.96201818e-02 1.30385486e-02 5.59807271e-02 0.</_>
    <_>
      1.07595704e-01 8.12703744e-02 2.11327132e-02 2.88612489e-02
      7.49909431e-02 7.18512237e-02 1.94420964e-01 1.74254313e-01
      7.53532201e-02 4.38352861e-02 1.24139600e-01 2.29440886e-03</_>
    <_>
      4.27693762e-02 4.50141765e-02 5.58837429e-02 4.86767478e-02
      1.15430057e-01 1.92225903e-01 3.13445181e-01 1.20864838e-01
      1.70132332e-02 6.61625713e-03 4.12334576e-02 8.27032141e-04</_>
    <_>
      1.65147316e-02 2.21957993e-02 3.56718190e-02 4.16171215e-02
      1.24587134e-01 4.30175722e-01 3.04663748e-01 1.77037921e-02
      1.84964994e-03 9.24824970e-04 3.43506411e-03 6.60589256e-04</_>
    <_>
      1.72579214e-01 1.45688683e-01 1.03648528e-01 6.37545735e-02
      8.53427574e-02 8.06716308e-02 8.73627067e-02 9.11501050e-02
      5.17611429e-02 2.80267652e-02 7.92829171e-02 1.07309679e-02</_>
    <_>
      2.77447477e-02 2.76126303e-02 3.36900502e-02 5.65464385e-02
      1.30136088e-01 3.05984944e-01 3.17347080e-01 7.09472820e-02
      9.51248500e-03 5.41683193e-03 1.44008454e-02 6.60589256e-04</_>
    <_>
      2.01523542e-01 8.10249299e-02 1.64473690e-02 1.07340720e-02
      2.04293635e-02 2.44113579e-02 1.32617727e-01 2.69217461e-01
      7.99861476e-02 5.24584502e-02 9.78185609e-02 1.33310249e-02</_>
    <_>
      3.26331072e-02 1.29475491e-02 9.24824923e-03 2.35169772e-02
      7.76852965e-02 2.63575107e-01 4.94120747e-01 7.22684637e-02
      4.88836039e-03 1.84964994e-03 7.00224610e-03 2.64235685e-04</_>
    <_>
      1.49018601e-01 1.14540286e-01 2.06611566e-02 9.55578499e-03
      1.84659082e-02 1.61415283e-02 2.24948347e-01 3.40521693e-01
      2.60847099e-02 1.36880167e-02 5.69473132e-02 9.42665245e-03</_>
    <_>
      7.91358054e-02 7.07407370e-02 5.22222221e-02 4.34567891e-02
      6.51851818e-02 8.32098797e-02 2.37037033e-01 2.18888894e-01
      7.44444430e-02 1.99999996e-02 5.51851839e-02 4.93827160e-04</_>
    <_>
      1.05300456e-01 6.29676878e-01 1.49801582e-01 4.09580506e-02
      2.97619049e-02 2.04081628e-02 7.51133775e-03 2.55102036e-03
      2.69274367e-03 1.41723361e-03 8.07823148e-03 1.84240367e-03</_>
    <_>
      8.15217383e-03 1.02788284e-02 6.85255183e-03 9.92438570e-03
      3.50897908e-02 1.04796790e-01 5.60255170e-01 2.30623811e-01
      2.16209833e-02 5.43478271e-03 6.97069941e-03 0.</_>
    <_>
      6.38271570e-02 3.17283943e-02 1.37037039e-02 1.35802468e-02
      5.76543212e-02 6.80246949e-02 2.81358033e-01 2.73703694e-01
      1.05925925e-01 3.17283943e-02 5.86419739e-02 1.23456790e-04</_>
    <_>
      2.52384990e-01 3.11677337e-01 1.15565754e-01 4.19031531e-02
      3.28462757e-02 1.94420964e-02 2.88612489e-02 2.37893965e-02
      2.40309145e-02 2.33063642e-02 1.11097693e-01 1.50947953e-02</_>
    <_>
      2.44726874e-02 4.61060032e-02 3.56949717e-02 5.53001612e-02
      8.05841014e-02 2.27555439e-01 3.87371540e-01 9.66738760e-02
      2.65008118e-02 6.62520295e-03 1.23039484e-02 8.11249309e-04</_>
    <_>
      1.31549045e-01 1.58313349e-01 5.97146824e-02 9.25388187e-02
      1.91263735e-01 2.12220684e-01 3.43391001e-02 1.76745355e-02
      9.21600778e-03 6.05984079e-03 8.47115293e-02 2.39868695e-03</_>
    <_>
      3.27013642e-01 3.11556578e-01 6.48472384e-02 3.39330994e-02
      3.64690237e-02 1.46117620e-02 1.95628554e-02 2.41516717e-02
      1.94420964e-02 2.59630475e-02 1.05422050e-01 1.70269292e-02</_>
    <_>
      2.46559784e-01 5.80356002e-01 6.93094283e-02 1.36346417e-02
      2.15881839e-02 1.13622015e-02 8.58477503e-03 6.69107446e-03
      2.77742720e-03 1.26246689e-03 3.00467107e-02 7.82729499e-03</_>
    <_>
      2.68199239e-02 4.76945452e-02 1.07411809e-01 1.48236230e-01
      2.71502167e-01 2.55119562e-01 1.26304671e-01 7.13436399e-03
      1.18906063e-03 2.64235685e-04 7.39859976e-03 9.24824970e-04</_>
    <_>
      9.81648192e-02 3.54916900e-02 1.05609419e-02 6.57894742e-03
      3.93005535e-02 2.99515240e-02 1.09418280e-01 2.30090022e-01
      1.45602494e-01 1.13573410e-01 1.70360118e-01 1.09072020e-02</_>
    <_>
      2.40878671e-01 5.79598546e-01 7.00669140e-02 1.88107565e-02
      2.00732239e-02 6.18608762e-03 1.03522278e-02 1.21196816e-02
      3.91364750e-03 3.53490724e-03 2.99204644e-02 4.54488071e-03</_>
    <_>
      1.09876543e-01 1.69876546e-01 2.79012341e-02 1.65432096e-02
      3.29629630e-02 4.55555543e-02 2.31851846e-01 2.27037042e-01
      4.81481478e-02 7.65432091e-03 8.23456794e-02 2.46913580e-04</_>
    <_>
      1.34162545e-01 1.98164478e-01 9.86595824e-02 7.40248784e-02
      1.37785286e-01 1.62903026e-01 6.17075227e-02 2.37893965e-02
      1.77514795e-02 7.97005184e-03 7.64400437e-02 6.64170971e-03</_>
    <_>
      1.35061726e-01 3.30987662e-01 2.06913576e-01 5.20987660e-02
      7.35802501e-02 6.50617257e-02 4.19753082e-02 1.91358030e-02
      1.24691362e-02 6.91358047e-03 5.33333346e-02 2.46913591e-03</_>
    <_>
      4.50195670e-01 2.25097835e-01 2.72692833e-02 8.33228137e-03
      2.13356894e-02 1.27509153e-02 1.79270301e-02 2.04519629e-02
      1.41396290e-02 2.87842453e-02 1.52379751e-01 2.13356894e-02</_>
    <_>
      2.80612241e-02 2.27182537e-01 2.94217676e-01 1.54620185e-01
      1.19472787e-01 1.24149658e-01 2.97619049e-02 5.10204071e-03
      2.40929704e-03 4.67687054e-03 9.21201799e-03 1.13378686e-03</_>
    <_>
      3.04709133e-02 1.83518007e-02 1.35041550e-02 5.36703598e-03
      1.93905812e-02 1.61011089e-02 1.72610804e-01 3.64958435e-01
      1.75380886e-01 9.71260369e-02 8.43144059e-02 2.42382265e-03</_>
    <_>
      1.01973683e-01 3.54916900e-02 2.00831033e-02 2.87396125e-02
      7.66966790e-02 2.03081712e-01 3.39681447e-01 1.14265926e-01
      3.94736826e-02 1.28116347e-02 2.54501384e-02 2.25069257e-03</_>
    <_>
      1.27004161e-01 3.05643231e-01 1.99596018e-01 1.64499432e-01
      1.11097082e-01 3.72427739e-02 1.00997351e-02 7.95354135e-03
      6.18608762e-03 2.01994693e-03 2.57543232e-02 2.90367380e-03</_>
    <_>
      1.13748267e-01 1.09203383e-01 8.02928954e-02 8.05453882e-02
      2.11968184e-01 2.08685771e-01 5.30236065e-02 2.99204644e-02
      2.15881839e-02 9.08976141e-03 7.62529969e-02 5.68110077e-03</_>
    <_>
      1.21845186e-01 1.16652578e-01 3.84011604e-02 3.76766101e-02
      8.83951187e-02 9.14140791e-02 2.06979826e-01 1.14478931e-01
      4.29899767e-02 1.92005802e-02 1.19792297e-01 2.17365054e-03</_>
    <_>
      3.50965783e-02 2.60068178e-02 1.89370029e-02 5.56747876e-02
      3.36321175e-01 2.43151113e-01 1.79901525e-01 6.89306930e-02
      1.41396290e-02 3.53490724e-03 1.67908091e-02 1.51496020e-03</_>
    <_>
      1.61844239e-01 1.24932393e-01 3.24499719e-02 1.77122764e-02
      4.71876673e-02 4.19145487e-02 1.33585721e-01 1.90508381e-01
      9.61330459e-02 4.09680903e-02 9.68090892e-02 1.59545708e-02</_>
    <_>
      0. 0. 0. 1.29132226e-04 1.80785125e-03 4.73915301e-02
      8.54338825e-01 9.01343003e-02 5.68181835e-03 5.16528904e-04 0. 0.</_>
    <_>
      8.48337933e-02 5.45360111e-02 1.09072020e-02 9.52216052e-03
      3.80886421e-02 2.85664815e-02 1.44736841e-01 2.61599720e-01
      1.55990303e-01 7.34072030e-02 1.31578952e-01 6.23268681e-03</_>
    <_>
      2.15855390e-01 9.48724002e-02 3.66257094e-02 2.87098307e-02
      4.11153138e-02 3.24905477e-02 7.96313807e-02 1.35278821e-01
      9.28638950e-02 6.94706962e-02 1.54418722e-01 1.86672974e-02</_>
    <_>
      3.70370370e-04 1.23456790e-04 3.70370370e-04 1.60493830e-03
      8.14814772e-03 1.90740734e-01 7.23456800e-01 7.48148113e-02
      3.70370370e-04 0. 0. 0.</_>
    <_>
      1.37613386e-01 1.20181404e-01 1.88492071e-02 3.57142873e-02
      7.82312900e-02 7.24206343e-02 1.56179145e-01 1.33645117e-01
      4.69104312e-02 2.87698414e-02 1.63973927e-01 7.51133775e-03</_>
    <_>
      1.93827152e-02 5.67901228e-03 1.14814816e-02 2.08641980e-02
      6.87654316e-02 2.49506176e-01 4.59135801e-01 1.36172846e-01
      1.71604939e-02 8.64197558e-04 1.09876543e-02 0.</_>
    <_>
      9.80113670e-02 1.32877067e-01 8.27737600e-02 6.48243800e-02
      1.53925613e-01 2.00154960e-01 1.33135334e-01 6.45661131e-02
      2.28564050e-02 4.51962790e-03 3.99018601e-02 2.45351251e-03</_>
    <_>
      6.93827197e-02 4.93827164e-02 3.22222225e-02 3.35802473e-02
      1.00000001e-01 1.48765430e-01 3.36543202e-01 1.63333327e-01
      3.39506157e-02 5.92592591e-03 2.65432093e-02 3.70370370e-04</_>
    <_>
      3.94647151e-01 3.89849752e-01 4.68375199e-02 1.38871353e-02
      3.06779444e-02 1.19934352e-02 5.93359442e-03 9.34225507e-03
      1.48971090e-02 1.07309679e-02 5.94621897e-02 1.17409416e-02</_>
    <_>
      1.16666667e-01 3.93827148e-02 1.70370378e-02 3.07407416e-02
      7.22222254e-02 3.72839496e-02 1.54567897e-01 3.16049397e-01
      9.90123451e-02 2.01234575e-02 9.65432078e-02 3.70370370e-04</_>
    <_>
      9.10382196e-02 1.34426653e-01 1.04984507e-01 8.81973132e-02
      1.38688013e-01 1.81818187e-01 1.38042361e-01 5.17820232e-02
      3.08626033e-02 1.29132234e-02 2.55681816e-02 1.67871895e-03</_>
    <_>
      1.84240367e-03 1.27551018e-03 1.41723361e-03 9.92063549e-04
      8.07823148e-03 1.77295923e-01 7.45606601e-01 5.31462580e-02
      4.81859408e-03 2.26757373e-03 3.25963716e-03 0.</_>
    <_>
      1.91481486e-01 1.89506173e-01 3.33333351e-02 1.55555559e-02
      2.20987648e-02 1.80246904e-02 8.14814791e-02 1.62962958e-01
      1.02839507e-01 5.74074090e-02 1.06913581e-01 1.83950625e-02</_>
    <_>
      4.62412462e-02 4.90157232e-02 1.44801170e-01 2.30677769e-01
      2.37019420e-01 1.80340871e-01 8.23094174e-02 1.62504949e-02
      2.90659280e-03 1.98176783e-03 7.92707130e-03 5.28471370e-04</_>
    <_>
      3.50556313e-03 5.33455284e-03 2.43865256e-03 4.42005787e-03
      2.68251784e-02 1.75582990e-01 6.73830211e-01 1.02728240e-01
      2.59106839e-03 7.62078969e-04 1.82898948e-03 1.52415785e-04</_>
    <_>
      8.68252590e-02 4.21446674e-02 1.75099634e-02 2.89820079e-02
      8.62214714e-02 7.88552091e-02 2.52505749e-01 2.25576624e-01
      7.39041194e-02 2.88612489e-02 7.68023208e-02 1.81137549e-03</_></support_vectors>
  <decision_functions>
    <_>
      <sv_count>297</sv_count>
      <rho>-1.9875166389857679e+00</rho>
      <alpha>
        1000. 1000. 1000. 1000. 1000. 1000. 1000. 5.4624961368832419e+02
        1000. 1.1185344327909588e+02 7.4449512037715152e+01
        1.3283528003079175e+02 1.4077491488759446e+01
        2.8035470503338661e+02 1000. 1.8957425670148332e+01
        9.7794419017073369e+02 2.1412152638928634e+02 1000. 1000. 1000.
        1.8440453325929096e+02 1000. 3.9645131627508869e+02
        7.5625716812777881e+01 1.8370867262526298e+02 1000.
        2.1329928533965580e+02 1000. 1.4763617942469750e+02 1000.
        4.0238135225582744e+02 1000. 1000. 1.1549136687021881e+02
        1.8931507563868604e+02 6.5911908868179694e+02 1000.
        5.9988731602360366e+00 1000. 5.0607328383974760e+02 1000.
        9.9907873845073311e+01 1000. 6.9285413343601158e+02
        6.9948229359561321e+02 9.5030290220056315e+02
        5.8609996732713194e+02 1.9926121995064454e+02 1000.
        7.5119797119582086e+02 1000. 1000. 1000. 6.2629077541529534e+02
        5.8684232288104022e+02 1000. 1000. 1.8826482175544788e+02 1000.
        1000. 1000. 2.8510836732326482e+02 4.7028976757258607e+02
        1.2784196246938411e+02 1000. 1000. 1000. 8.7606273054613791e+02
        1000. 1000. 1000. 4.2109855676045106e+02 8.7421179156867913e+02
        7.4970162462207918e+02 1000. 1.9602176388359059e+01
        4.1626767098283784e+02 3.5884987989692135e+01
        1.5191971947028316e+02 6.4984755015167286e+02 1000.
        3.3817616164487782e+02 6.9585979406942022e+02
        3.3325500484949134e+02 8.0447504935415668e+02 1000.
        1.2320066971942872e+01 1000. 1000. 7.0182909836427257e+01
        3.7563215252094352e+02 1000. 1000. 5.9277258279228818e+02
        8.8252531893777757e+02 1000. 2.8204750974525916e+02 1000. 1000.
        1000. 1000. 1000. 3.6540317031137391e+02 1.5716827365082750e+02
        1000. 1000. 1000. 6.4964610332344591e+02 8.1903216483259621e+02
        1000. 3.8270685824922589e+02 1000. 3.6707079810875723e+02
        8.9129296742276813e+02 1000. 1000. 2.1914087279650542e+02
        7.3272020024660276e+02 1000. 1000. 1000. 4.5564129272593954e+02
        1000. 1000. 1000. 1000. 6.1968755781489847e+02 1000.
        4.6543152425208450e+02 3.1276861791930685e+02 1000. 1000. 1000.
        1000. 4.4709603168585090e+02 2.8204074649826947e+02 1000. 1000.
        1000. 2.6937083794773588e+02 3.5216949843648604e+02
        7.9360379492452478e+02 6.3205313796261979e+00 1000. -1000.
        -1000. -1.4423397061777135e+02 -8.1188707096228245e+02 -1000.
        -1000. -1000. -1000. -1000. -1.0932428572289906e+02
        -4.1898358911406194e+02 -1000. -1000. -2.3968223509305173e+02
        -1000. -1.2067202935407869e+02 -1000. -6.7613313110849208e+02
        -1000. -8.2587704556243011e+02 -1000. -8.9177315670226915e+02
        -1000. -1000. -1000. -1000. -1000. -8.4005344473628355e+01
        -3.7142057894406797e+01 -1000. -1000. -1000. -1000.
        -3.3560392918539742e+02 -2.6667516585938483e+02 -1000. -1000.
        -2.0136729990909268e+02 -1000. -9.1367157703552289e+02
        -5.9230987070126844e+02 -1000. -1000. -1000. -1000. -1000.
        -1000. -5.9793396538009517e+02 -9.2770559282252336e+01 -1000.
        -8.9216840070066849e+02 -1.7037026691594556e+02
        -5.7186105900854318e+02 -1000. -1000. -3.0149383454297606e+01
        -1.9372775587301371e+02 -1000. -2.9203090413961445e+02 -1000.
        -7.1519674564320258e+02 -2.5946192270406226e+02 -1000. -1000.
        -1000. -3.4179087262113438e+02 -1000. -3.7953567170422644e+02
        -4.3916447279699526e+02 -2.8326579191687210e+02
        -3.4935407658116998e+02 -7.1373674322730039e+02
        -7.4284617876770767e+02 -6.5893813980577306e+02
        -1.7742907868655956e+02 -3.9198156588048147e+02 -1000.
        -6.5217693849918851e+02 -3.4572341159199300e+02
        -8.0842718506897177e+02 -1000. -1000. -4.6056918338249687e+02
        -5.1622247274917538e+02 -3.5444553706029012e+01
        -5.4148590269510134e+02 -4.9893811453438065e+02 -1000. -1000.
        -1000. -2.9501104134439714e+01 -1000. -8.0666565111069133e+02
        -1000. -1000. -9.9678865839351590e+02 -1000.
        -1.0634952086810985e+02 -3.9255664796305717e+02 -1000.
        -6.1636698416600302e+02 -1000. -5.9856100730281673e+02
        -3.0480476135938056e+02 -1000. -8.7060583755302858e+01
        -3.9435091769239712e+01 -8.1389350816050410e+02
        -9.8786908448651377e+02 -2.6638996330416637e+02
        -3.4603522141776601e+01 -1.7216843871499086e+02
        -2.2981556913336465e+02 -3.2479309712483479e+02 -1000. -1000.
        -1000. -2.9571142950697532e+02 -1.3720460269164519e+02 -1000.
        -1000. -8.2795694349565323e+01 -2.7504566818982545e+02 -1000.
        -6.1449164426675861e+02 -6.6237591101413238e+02
        -5.7988816539180320e+01 -8.6605350099312682e+02
        -3.5878343060386743e+02 -1.1252625117269668e+01
        -3.9320511303673794e+02 -3.4145761010300234e+01
        -8.3621597725798301e+02 -1.2419056647727743e+02
        -7.0815029062969757e+01 -1.1464474266282353e+02 -1000. -1000.
        -1000. -1000. -5.8138154935544810e+02 -1000. -1000. -1000.
        -1000. -3.1467917718675036e+01 -1.2716540313838809e+02
        -6.5862109299989459e+02 -5.0689745841311202e+02
        -5.3055919886992695e+02 -1000. -8.8356810889112683e+02</alpha>
      <index>
        0 1 2 3 4 5 6 7 8 9 10 11 12 13 14 15 16 17 18 19 20 21 22 23 24
        25 26 27 28 29 30 31 32 33 34 35 36 37 38 39 40 41 42 43 44 45
        46 47 48 49 50 51 52 53 54 55 56 57 58 59 60 61 62 63 64 65 66
        67 68 69 70 71 72 73 74 75 76 77 78 79 80 81 82 83 84 85 86 87
        88 89 90 91 92 93 94 95 96 97 98 99 100 101 102 103 104 105 106
        107 108 109 110 111 112 113 114 115 116 117 118 119 120 121 122
        123 124 125 126 127 128 129 130 131 132 133 134 135 136 137 138
        139 140 141 142 143 144 145 146 147 148 149 150 151 152 153 154
        155 156 157 158 159 160 161 162 163 164 165 166 167 168 169 170
        171 172 173 174 175 176 177 178 179 180 181 182 183 184 185 186
        187 188 189 190 191 192 193 194 195 196 197 198 199 200 201 202
        203 204 205 206 207 208 209 210 211 212 213 214 215 216 217 218
        219 220 221 222 223 224 225 226 227 228 229 230 231 232 233 234
        235 236 237 238 239 240 241 242 243 244 245 246 247 248 249 250
        251 252 253 254 255 256 257 258 259 260 261 262 263 264 265 266
        267 268 269 270 271 272 273 274 275 276 277 278 279 280 281 282
        283 284 285 286 287 288 289 290 291 292 293 294 295 296</index></_></decision_functions></my_svm>
</opencv_storage>
