<?xml version="1.0"?>
<opencv_storage>
<my_svm type_id="opencv-ml-svm">
  <svm_type>C_SVC</svm_type>
  <kernel><type>RBF</type>
    <gamma>10.</gamma></kernel>
  <C>100000.</C>
  <term_criteria><epsilon>9.9999999747524271e-07</epsilon>
    <iterations>1000000</iterations></term_criteria>
  <var_all>90</var_all>
  <var_count>90</var_count>
  <class_count>2</class_count>
  <class_labels type_id="opencv-matrix">
    <rows>1</rows>
    <cols>2</cols>
    <dt>i</dt>
    <data>
      -1 1</data></class_labels>
  <sv_total>362</sv_total>
  <support_vectors>
    <_>
      3.06779444e-02 1.66645627e-02 3.58540602e-02 2.82792579e-02
      4.44388352e-02 6.03459142e-02 7.94091672e-02 8.21865946e-02
      9.97348800e-02 7.49905333e-02 1.24731727e-01 8.68577212e-02
      4.74687554e-02 3.81264985e-02 2.27244035e-03 3.96414585e-02
      9.08976141e-03 2.10831966e-02 6.94356766e-03 1.89370033e-03
      1.51496020e-03 3.53490724e-03 0. 0. 5.04986732e-04 2.77742720e-03
      1.26246683e-04 3.78740049e-04 0. 0. 1.26246683e-04 0. 0.
      1.13622018e-03 0. 3.78740049e-04 1.26246683e-04 3.78740049e-04 0.
      0. 1.26246683e-04 0. 0. 0. 0. 0. 0. 0. 2.52493366e-04 0. 0. 0. 0.
      0. 0. 0. 0. 2.52493366e-04 0. 0. 2.52493366e-04 0. 0.
      1.26246683e-04 0. 0. 1.26246683e-04 0. 0. 0. 5.04986732e-04 0.
      3.78740049e-04 2.52493366e-04 0. 3.78740049e-04 5.04986732e-04 0.
      1.38871360e-03 3.78740049e-04 1.13622018e-03 2.14619376e-03
      5.42860758e-03 2.52493366e-04 2.77742720e-03 1.50233554e-02
      4.67112754e-03 5.04986756e-03 1.52758490e-02 1.64120691e-03</_>
    <_>
      9.51248500e-03 0. 0. 2.11388548e-03 0. 5.28471370e-04
      1.84964994e-03 0. 5.28471370e-04 5.28471370e-04 4.49200673e-03
      5.28471370e-04 2.90659280e-03 3.96353542e-04 0. 7.66283507e-03
      1.32117842e-04 2.90659280e-03 3.43506411e-03 1.32117842e-04
      1.18906063e-03 7.79495295e-03 2.64235685e-04 0. 1.18906063e-03
      1.94213241e-02 3.96353542e-04 7.39859976e-03 4.88836039e-03
      9.24824970e-04 9.11613181e-03 4.62412462e-03 2.51023914e-03
      3.54075842e-02 6.60589244e-03 2.37812120e-02 1.28154317e-02
      3.80499400e-02 1.14942528e-02 2.35169772e-02 8.19130689e-02
      3.85784134e-02 3.38221677e-02 6.27559796e-02 8.19130708e-03
      7.30611682e-02 3.84462923e-02 4.41273600e-02 5.33756092e-02
      3.81820574e-02 5.28471395e-02 4.21455950e-02 2.74805129e-02
      2.19315626e-02 1.78359095e-02 2.72162762e-02 8.32342450e-03
      1.71753205e-02 2.37812125e-03 1.32117842e-04 1.46650812e-02
      1.05694274e-03 5.68106771e-03 8.85189604e-03 7.92707084e-04
      1.71753205e-03 6.07742090e-03 1.32117842e-04 1.32117842e-04
      9.24824970e-04 6.60589244e-03 1.32117842e-04 1.18906063e-03
      6.60589256e-04 0. 6.60589256e-04 0. 0. 2.37812125e-03 0.
      3.96353542e-04 0. 4.49200673e-03 0. 0. 1.58541417e-03
      2.37812125e-03 0. 5.28471370e-04 0.</_>
    <_>
      1.71753205e-03 0. 0. 1.05694274e-03 0. 0. 0. 0. 0. 2.64235685e-04
      1.32117851e-03 0. 1.05694274e-03 0. 0. 1.32117851e-03
      7.92707084e-04 4.62412462e-03 1.98176783e-03 7.92707084e-04
      6.60589256e-04 6.07742090e-03 3.96353542e-04 5.28471370e-04
      9.24824970e-04 5.02047827e-03 1.32117842e-04 3.03871045e-03
      1.45329640e-03 0. 2.24600337e-03 1.18906063e-03 1.05694274e-03
      1.14942528e-02 1.45329640e-03 5.28471405e-03 2.77447491e-03
      9.11613181e-03 7.92707084e-04 5.94530301e-03 2.03461479e-02
      1.16263712e-02 6.87012821e-03 2.32527424e-02 1.32117842e-04
      2.33848598e-02 1.28154317e-02 2.70841587e-02 3.55397016e-02
      5.56216128e-02 6.26238585e-02 7.82137662e-02 1.01598628e-01
      1.05033688e-01 7.02866986e-02 1.12564407e-01 7.49108195e-02
      2.15352103e-02 3.54075842e-02 2.90659280e-03 2.20636800e-02
      5.28471405e-03 3.83141753e-03 3.96353565e-03 0. 0. 2.77447491e-03
      0. 0. 0. 1.32117851e-03 0. 2.64235685e-04 0. 0. 0. 0. 0.
      6.60589256e-04 0. 0. 0. 1.71753205e-03 0. 0. 6.60589256e-04
      1.18906063e-03 0. 0. 0.</_>
    <_>
      4.10640500e-02 1.29132226e-04 1.29132226e-04 1.09762400e-02
      7.74793385e-04 6.45661168e-03 1.87241733e-02 3.35743790e-03
      7.61880167e-03 2.94421483e-02 7.36053735e-02 2.78925616e-02
      1.01368800e-01 2.28564050e-02 6.84400834e-03 1.49664253e-01
      1.29132234e-02 8.36776868e-02 8.75516534e-02 1.03305783e-02
      8.52272753e-03 6.10795468e-02 4.13223123e-03 1.29132229e-03
      4.90702502e-03 5.77221066e-02 3.61570250e-03 9.81405005e-03
      5.29442169e-03 1.29132226e-04 4.00309917e-03 2.06611562e-03
      3.87396693e-04 1.34297516e-02 3.09917354e-03 5.16528916e-03
      2.19524791e-03 2.85382234e-02 2.58264452e-04 1.80785125e-03
      9.81405005e-03 1.21384300e-02 1.54958677e-03 4.64876043e-03 0.
      5.16528916e-03 1.03305781e-03 1.29132226e-04 3.74483480e-03
      5.16528904e-04 0. 1.16219011e-03 0. 2.58264452e-04 1.42045459e-03
      3.74483480e-03 0. 1.03305781e-03 0. 0. 1.00723142e-02 0. 0.
      5.16528904e-04 0. 0. 3.87396693e-04 0. 0. 0. 3.74483480e-03 0.
      2.58264452e-04 0. 0. 2.58264452e-04 0. 0. 3.87396693e-04 0.
      6.45661145e-04 6.45661145e-04 1.57541316e-02 0. 0. 2.58264458e-03
      4.90702502e-03 0. 6.45661145e-04 0.</_>
    <_>
      5.15259616e-02 2.24600337e-03 9.24824923e-03 5.24507873e-02
      2.08746195e-02 4.70339544e-02 8.20451826e-02 7.49108195e-02
      1.19698770e-01 9.01043713e-02 1.09393582e-01 3.97674739e-02
      3.48791108e-02 1.44008454e-02 2.77447491e-03 3.05192228e-02
      3.03871045e-03 4.75624250e-03 5.81318559e-03 1.32117842e-04
      6.60589256e-04 4.62412462e-03 0. 0. 1.32117842e-04 8.58766027e-03
      0. 1.71753205e-03 0. 0. 3.96353542e-04 0. 0. 3.56718199e-03 0.
      9.24824970e-04 0. 5.15259616e-03 0. 0. 2.64235685e-04
      1.32117851e-03 0. 0. 0. 0. 0. 0. 6.60589256e-04 0. 1.32117842e-04
      3.96353542e-04 1.32117842e-04 0. 1.32117842e-04 2.90659280e-03 0.
      1.05694274e-03 0. 0. 6.87012821e-03 0. 7.92707084e-04
      2.90659280e-03 0. 2.64235685e-04 4.88836039e-03 0. 0.
      6.60589256e-04 8.45554192e-03 1.32117842e-04 5.54894982e-03
      5.28471370e-04 0. 1.32117851e-03 3.96353542e-04 0. 1.00409565e-02
      1.32117842e-04 5.68106771e-03 3.96353542e-04 4.16171215e-02 0.
      6.60589256e-04 3.43506411e-02 3.85784134e-02 0. 7.26648187e-03
      1.32117842e-04</_>
    <_>
      1.84310023e-02 3.54442338e-04 2.36294902e-04 1.77221175e-03
      1.18147451e-04 1.18147454e-03 1.53591682e-03 0. 3.54442338e-04
      4.72589803e-04 6.02551969e-03 4.72589803e-04 2.71739135e-03 0. 0.
      4.96219285e-03 0. 1.41776935e-03 5.90737269e-04 1.18147451e-04
      3.54442338e-04 8.27032141e-04 0. 0. 5.90737269e-04 6.02551969e-03
      2.36294902e-04 2.36294902e-04 0. 0. 7.08884676e-04 3.54442338e-04
      2.36294902e-04 8.15217383e-03 1.29962189e-03 2.95368629e-03
      1.41776935e-03 3.33175808e-02 0. 1.65406428e-03 1.85491499e-02
      2.07939502e-02 2.36294902e-04 1.54773155e-02 0. 2.15028357e-02
      3.89886578e-03 8.74291081e-03 5.15122861e-02 2.35113427e-02
      4.86767478e-02 8.31758007e-02 2.93005668e-02 5.12759909e-02
      6.67533055e-02 9.67627615e-02 3.65075618e-02 7.95132294e-02
      2.55198479e-02 2.36294902e-04 7.25425333e-02 3.42627591e-03
      4.11153138e-02 2.56379955e-02 1.53591682e-03 9.45179607e-04
      1.51228737e-02 4.72589803e-04 0. 8.27032141e-04 1.54773155e-02
      4.72589803e-04 3.07183363e-03 1.18147451e-04 0. 1.77221175e-03 0.
      0. 7.32514169e-03 0. 2.71739135e-03 0. 1.19328918e-02 0.
      4.72589803e-04 5.19848755e-03 6.61625713e-03 2.36294902e-04
      1.65406428e-03 2.36294902e-04</_>
    <_>
      4.06746045e-02 1.30385486e-02 1.96995456e-02 6.81689307e-02
      4.40759622e-02 6.44841269e-02 9.59467143e-02 4.50680256e-02
      6.40589595e-02 5.76814041e-02 1.04024947e-01 5.47052138e-02
      5.86734712e-02 3.95408161e-02 6.80272095e-03 5.93820848e-02
      8.92857183e-03 2.42346935e-02 8.36167764e-03 2.55102036e-03
      7.08616804e-04 2.40929704e-03 1.41723358e-04 1.41723358e-04 0.
      1.70068024e-03 0. 0. 0. 0. 0. 0. 0. 0. 0. 0. 0. 2.26757373e-03 0.
      0. 0. 4.25170059e-04 0. 0. 0. 0. 0. 0. 8.50340119e-04 0. 0. 0. 0.
      0. 0. 0. 0. 0. 0. 0. 5.66893432e-04 0. 0. 0. 0. 0. 4.25170059e-04
      0. 0. 0. 1.84240367e-03 0. 4.25170059e-04 0. 0. 0. 0. 0.
      3.96825420e-03 1.41723358e-04 9.92063549e-04 1.98412710e-03
      1.30385486e-02 1.41723358e-04 2.83446722e-03 2.90532876e-02
      3.21712010e-02 5.10204071e-03 1.77154187e-02 8.50340119e-04</_>
    <_>
      7.18537420e-02 1.27551018e-03 4.25170083e-03 3.34467106e-02
      9.35374107e-03 2.63605434e-02 5.79648539e-02 6.94444450e-03
      1.55895688e-02 3.00453510e-02 4.76190485e-02 7.36961467e-03
      5.56972772e-02 7.08616804e-04 0. 6.06575981e-02 1.41723358e-04
      1.79988667e-02 2.70691607e-02 2.83446722e-03 2.55102036e-03
      3.40136066e-02 7.08616804e-04 0. 4.53514745e-03 4.91780043e-02
      1.98412710e-03 1.34637188e-02 3.25963716e-03 0. 4.10997728e-03
      4.25170059e-04 0. 2.77777780e-02 9.92063549e-04 1.31802717e-02
      8.21995456e-03 5.98072559e-02 0. 1.55895692e-03 3.04705221e-02
      4.42176871e-02 0. 8.78684781e-03 0. 1.43140592e-02 0. 0.
      2.57936511e-02 1.98412710e-03 1.07709747e-02 9.92063526e-03
      1.84240367e-03 1.70068024e-03 1.27551018e-03 1.65816322e-02 0.
      1.21882083e-02 0. 0. 1.79988667e-02 0. 1.84240367e-03
      4.10997728e-03 0. 0. 3.25963716e-03 0. 0. 0. 5.66893443e-03 0.
      2.83446716e-04 0. 0. 1.41723358e-04 0. 0. 4.25170083e-03 0.
      1.55895692e-03 4.25170059e-04 2.89115645e-02 0. 2.83446716e-04
      1.43140592e-02 2.63605434e-02 1.27551018e-03 6.51927432e-03 0.</_>
    <_>
      1.11395177e-02 7.30460219e-04 1.64353545e-03 4.01753094e-03
      3.65230109e-04 2.92184087e-03 4.56537632e-03 1.82615055e-04
      2.73922575e-03 1.82615046e-03 4.01753094e-03 1.64353545e-03
      3.28707090e-03 3.65230109e-04 0. 3.65230092e-03 0. 2.19138060e-03
      2.19138060e-03 0. 3.65230109e-04 2.00876547e-03 0. 0.
      1.82615055e-04 3.83491605e-03 3.65230109e-04 2.19138060e-03
      1.82615055e-04 0. 3.65230109e-04 7.30460219e-04 0. 4.74799145e-03
      0. 2.19138060e-03 1.27830531e-03 1.18699782e-02 0. 7.30460219e-04
      8.94813705e-03 8.94813705e-03 9.13075230e-04 8.40029214e-03 0.
      1.38787432e-02 3.83491605e-03 5.29583637e-03 2.99488679e-02
      1.80788897e-02 2.50182617e-02 7.12198690e-02 2.59313360e-02
      5.89846596e-02 6.57414198e-02 1.13586560e-01 4.91234474e-02
      8.40029195e-02 2.94010229e-02 2.00876547e-03 9.31336731e-02
      1.68005843e-02 6.28195778e-02 1.88093502e-02 1.18699782e-02
      6.02629641e-03 2.24616509e-02 1.09569030e-03 1.82615055e-04
      3.46968579e-03 1.55222788e-02 1.82615046e-03 1.07742874e-02
      1.09569030e-03 0. 3.46968579e-03 7.30460219e-04 0. 6.75675692e-03
      0. 3.65230092e-03 2.00876547e-03 6.02629641e-03 0. 1.82615055e-04
      2.37399573e-03 4.01753094e-03 7.30460219e-04 2.19138060e-03
      1.82615055e-04</_>
    <_>
      3.87577340e-02 1.26246689e-03 4.29238752e-03 2.73955315e-02
      1.37608889e-02 1.90632492e-02 6.61532655e-02 2.28506494e-02
      4.06514332e-02 6.00934215e-02 9.67049599e-02 4.89837155e-02
      8.53427574e-02 3.33291255e-02 8.20603501e-03 8.23128372e-02
      9.46850143e-03 6.18608743e-02 3.21929045e-02 5.04986756e-03
      3.78740067e-03 2.51230914e-02 8.83726811e-04 0. 1.51496020e-03
      2.99204644e-02 0. 4.79737390e-03 5.04986732e-04 0. 1.51496020e-03
      1.26246683e-04 0. 1.09834615e-02 1.26246683e-04 4.03989386e-03
      1.13622018e-03 2.87842453e-02 0. 1.26246683e-04 8.96351505e-03
      1.67908091e-02 0. 3.78740049e-04 0. 3.15616722e-03 0. 0.
      8.20603501e-03 0. 6.31233444e-04 1.26246689e-03 0. 0. 0.
      1.09834615e-02 0. 1.51496020e-03 0. 0. 1.23721752e-02 0. 0.
      6.31233444e-04 0. 0. 3.78740049e-04 0. 0. 0. 1.28771616e-02 0.
      5.04986732e-04 0. 0. 2.52493366e-04 0. 0. 1.51496020e-03 0.
      7.57480098e-04 1.26246683e-04 3.13091800e-02 0. 5.04986732e-04
      5.55485440e-03 8.96351505e-03 0. 1.13622018e-03 1.26246683e-04</_>
    <_>
      8.20713863e-02 1.29799889e-02 2.04164404e-02 6.86857775e-02
      4.39426713e-02 5.27312048e-02 8.91022161e-02 3.98864262e-02
      6.03028648e-02 4.34018373e-02 9.72147137e-02 2.56895628e-02
      2.93401834e-02 1.14926985e-02 1.08166575e-03 2.90697683e-02
      2.43374798e-03 1.01406164e-02 9.46457591e-03 8.11249309e-04
      8.11249309e-04 3.92103847e-03 0. 0. 0. 7.84207694e-03 0.
      2.02812324e-03 0. 0. 1.35208218e-04 0. 0. 1.35208218e-04 0.
      2.70416436e-04 1.35208218e-04 7.16603547e-03 0. 0. 4.05624654e-04
      0. 0. 0. 0. 0. 0. 0. 4.05624654e-04 0. 0. 0. 0. 0. 0.
      1.35208224e-03 0. 0. 0. 0. 4.73228795e-03 0. 0. 1.35208218e-04 0.
      0. 2.56895623e-03 0. 0. 2.70416436e-04 1.44672794e-02 0.
      3.24499724e-03 0. 0. 1.21687399e-03 0. 0. 1.18983230e-02
      1.48729037e-03 9.59978346e-03 2.97458074e-03 6.94970265e-02 0.
      2.29853974e-03 4.24553826e-02 4.61060032e-02 7.70686846e-03
      2.27149818e-02 1.75770686e-03</_>
    <_>
      9.45290849e-02 5.21121882e-02 9.31440443e-02 4.15512472e-02
      7.91205019e-02 8.88157859e-02 6.59626052e-02 6.05955683e-02
      5.88642657e-02 2.96052638e-02 3.77423838e-02 1.78324096e-02
      1.47160664e-02 7.61772832e-03 0. 1.31578948e-02 6.92520756e-04
      7.44459825e-03 5.02077583e-03 2.25069257e-03 1.73130189e-04
      1.38504151e-03 5.19390567e-04 0. 0. 2.59695295e-03 0.
      3.46260378e-04 0. 0. 0. 0. 0. 3.46260378e-04 0. 0. 0.
      1.03878113e-03 0. 0. 0. 3.46260378e-04 0. 0. 0. 0. 0. 0. 0. 0. 0.
      0. 0. 0. 0. 0. 0. 0. 0. 0. 2.59695295e-03 0. 0. 1.73130189e-04 0.
      0. 1.73130189e-04 0. 0. 0. 3.28947371e-03 0. 1.55817170e-03
      3.46260378e-04 0. 6.92520756e-04 1.73130189e-04 1.73130189e-04
      7.44459825e-03 2.42382265e-03 1.05609419e-02 6.05955673e-03
      1.40235461e-02 4.84764529e-03 1.40235461e-02 3.32409963e-02
      6.75207749e-03 4.17243764e-02 5.41897491e-02 1.80055406e-02</_>
    <_>
      4.24845032e-02 7.74793385e-04 2.58264458e-03 9.55578499e-03
      4.39049583e-03 1.09762400e-02 1.85950417e-02 2.06611566e-02
      3.43491733e-02 3.03460751e-02 7.69628063e-02 7.38636330e-02
      8.61312002e-02 6.59865737e-02 1.93698350e-02 6.34039268e-02
      2.40185950e-02 6.19834699e-02 2.09194217e-02 1.39462808e-02
      1.03305783e-02 3.26704532e-02 3.35743790e-03 2.58264452e-04
      4.51962790e-03 3.69318165e-02 1.54958677e-03 7.48966960e-03
      4.26136376e-03 0. 7.48966960e-03 5.16528904e-04 0. 2.31146701e-02
      6.45661145e-04 8.00619833e-03 3.87396693e-04 3.25413235e-02
      1.29132226e-04 9.03925626e-04 1.34297516e-02 2.23398767e-02 0.
      1.03305781e-03 0. 8.00619833e-03 0. 0. 1.08471075e-02 0.
      1.93698343e-03 2.84090918e-03 0. 1.29132226e-04 2.32438021e-03
      1.69163216e-02 0. 4.51962790e-03 0. 0. 1.33006200e-02 0.
      1.29132226e-04 1.16219011e-03 0. 0. 1.80785125e-03 1.29132226e-04
      0. 1.29132226e-04 9.16838832e-03 0. 1.16219011e-03 6.45661145e-04
      0. 5.16528904e-04 0. 0. 3.09917354e-03 0. 6.45661145e-04
      7.74793385e-04 1.57541316e-02 0. 2.58264452e-04 2.84090918e-03
      5.29442169e-03 3.87396693e-04 2.06611562e-03 0.</_>
    <_>
      4.93285134e-02 0. 0. 9.29752085e-03 0. 1.54958677e-03
      8.78099166e-03 5.16528904e-04 1.29132229e-03 1.38171492e-02
      4.64876033e-02 3.35743790e-03 6.57283068e-02 6.32747915e-03
      2.19524791e-03 8.92303735e-02 6.32747915e-03 5.96590899e-02
      6.93440065e-02 8.91012419e-03 1.71745867e-02 7.17975199e-02
      2.58264458e-03 1.29132226e-04 9.81405005e-03 7.90289268e-02
      2.19524791e-03 2.09194217e-02 1.13636367e-02 7.74793385e-04
      1.16219008e-02 5.03615709e-03 1.42045459e-03 5.10072298e-02
      3.09917354e-03 1.78202484e-02 1.16219008e-02 6.40495867e-02
      1.54958677e-03 1.42045459e-03 3.43491733e-02 4.62293401e-02
      2.58264452e-04 3.35743790e-03 0. 7.87706580e-03 0. 0.
      1.75619833e-02 3.87396693e-04 2.45351251e-03 5.68181835e-03 0.
      1.29132226e-04 1.03305781e-03 1.83367766e-02 0. 2.32438021e-03 0.
      0. 9.16838832e-03 0. 5.16528904e-04 2.06611562e-03 0. 0. 0. 0. 0.
      0. 2.58264458e-03 0. 0. 0. 0. 0. 0. 0. 2.58264452e-04 0.
      1.29132226e-04 0. 1.57541316e-02 0. 0. 3.87396693e-04
      2.58264458e-03 0. 0. 0.</_>
    <_>
      6.05984079e-03 0. 0. 2.90367380e-03 5.04986732e-04 6.31233444e-04
      2.14619376e-03 0. 7.57480098e-04 1.13622018e-03 6.69107446e-03
      1.26246689e-03 5.55485440e-03 2.27244035e-03 7.57480098e-04
      1.32559016e-02 2.01994693e-03 1.40133826e-02 8.71102139e-03
      5.55485440e-03 1.03522278e-02 2.67642979e-02 8.71102139e-03
      9.46850143e-03 2.04519629e-02 2.81530116e-02 1.94419902e-02
      2.57543232e-02 3.13091800e-02 1.22459289e-02 2.75217779e-02
      3.16879191e-02 1.56545900e-02 5.93359433e-02 5.28973602e-02
      4.93624546e-02 5.02461828e-02 7.04456493e-02 5.20136356e-02
      2.71430369e-02 6.94356784e-02 2.24719103e-02 3.47178392e-02
      3.09304371e-02 6.31233444e-03 2.42393631e-02 1.06047215e-02
      1.51496027e-02 1.02259815e-02 9.46850143e-03 8.58477503e-03
      8.33228137e-03 2.39868695e-03 2.65118037e-03 2.01994693e-03
      8.96351505e-03 1.38871360e-03 2.65118037e-03 5.04986732e-04 0.
      4.54488071e-03 2.52493366e-04 1.89370033e-03 2.39868695e-03
      1.26246683e-04 2.52493366e-04 2.39868695e-03 1.26246683e-04 0.
      5.04986732e-04 3.40866041e-03 0. 3.78740049e-04 1.26246683e-04 0.
      6.31233444e-04 0. 0. 8.83726811e-04 0. 3.78740049e-04
      3.78740049e-04 2.65118037e-03 0. 0. 1.89370033e-03 2.52493378e-03
      0. 0. 0.</_>
    <_>
      2.03461479e-02 1.45329640e-03 8.71977769e-03 9.90883913e-03
      1.99497957e-02 4.06922959e-02 6.64552748e-02 9.52569693e-02
      8.50838944e-02 6.27559796e-02 7.95349479e-02 5.93209155e-02
      2.68199239e-02 2.19315626e-02 3.69929988e-03 1.74395554e-02
      9.24824923e-03 1.49293169e-02 4.62412462e-03 1.32117851e-03
      5.28471370e-04 6.20953878e-03 1.32117842e-04 0. 5.28471370e-04
      4.88836039e-03 2.64235685e-04 2.37812125e-03 7.92707084e-04 0.
      9.24824970e-04 5.28471370e-04 0. 7.13436399e-03 5.28471370e-04
      3.30294622e-03 1.84964994e-03 1.50614344e-02 0. 2.11388548e-03
      1.07015455e-02 9.24824923e-03 1.05694274e-03 4.49200673e-03 0.
      1.09657813e-02 3.30294622e-03 7.66283507e-03 1.45329637e-02
      1.00409565e-02 1.20227244e-02 2.36490946e-02 1.13621354e-02
      1.47971995e-02 1.09657813e-02 3.31615806e-02 4.49200673e-03
      2.53666267e-02 1.18906063e-03 0. 2.27242708e-02 5.28471370e-04
      1.09657813e-02 7.66283507e-03 1.05694274e-03 5.28471370e-04
      8.32342450e-03 1.32117842e-04 0. 5.28471370e-04 8.71977769e-03 0.
      1.45329640e-03 6.60589256e-04 0. 5.28471370e-04 0. 0.
      3.96353565e-03 0. 1.32117851e-03 5.28471370e-04 1.07015455e-02 0.
      0. 4.09565354e-03 7.53071718e-03 0. 2.37812125e-03 0.</_>
    <_>
      5.45841195e-02 3.66257085e-03 6.49810955e-03 2.45746691e-02
      5.67107741e-03 1.07514178e-02 1.58317573e-02 5.19848755e-03
      5.43478271e-03 8.03402625e-03 2.90642716e-02 3.78071843e-03
      1.33506618e-02 3.54442338e-04 0. 1.96124762e-02 0. 1.29962189e-03
      4.48960299e-03 0. 2.36294902e-04 2.36294908e-03 0. 0. 0.
      3.54442350e-03 0. 5.90737269e-04 1.18147451e-04 0. 3.54442338e-04
      0. 0. 1.65406428e-03 0. 3.54442338e-04 0. 1.73676740e-02 0. 0.
      8.27032141e-04 4.72589815e-03 0. 1.53591682e-03 0. 3.66257085e-03
      1.18147451e-04 2.36294902e-04 1.54773155e-02 7.08884676e-04
      5.67107741e-03 1.71313807e-02 4.72589803e-04 3.54442350e-03
      1.52410204e-02 4.27693762e-02 7.32514169e-03 7.77410194e-02
      1.07514178e-02 0. 7.52599239e-02 2.83553870e-03 6.59262761e-02
      4.78497148e-02 1.13421548e-02 1.79584119e-02 5.61200380e-02
      3.18998098e-03 5.90737269e-04 8.15217383e-03 5.51748574e-02
      2.00850656e-03 1.83128547e-02 5.67107741e-03 0. 8.27032141e-03
      2.95368629e-03 1.18147451e-04 3.98156904e-02 2.36294902e-04
      1.31143667e-02 5.08034043e-03 4.18241955e-02 0. 2.36294908e-03
      2.80009452e-02 3.37901711e-02 7.08884676e-04 6.49810955e-03
      1.18147451e-04</_>
    <_>
      2.35169772e-02 0. 0. 2.11388548e-03 0. 5.28471370e-04
      2.64235685e-04 0. 1.32117842e-04 1.32117842e-04 3.69929988e-03
      3.96353542e-04 9.24824970e-04 3.96353542e-04 2.64235685e-04
      5.02047827e-03 2.64235685e-04 5.28471405e-03 2.51023914e-03
      1.32117851e-03 1.05694274e-03 3.56718199e-03 7.92707084e-04
      1.32117842e-04 5.28471370e-04 1.34760207e-02 1.32117842e-04
      4.88836039e-03 7.92707084e-04 1.32117842e-04 1.58541417e-03
      6.60589256e-04 0. 1.54577885e-02 3.96353542e-04 4.75624250e-03
      3.43506411e-03 5.33756092e-02 2.64235685e-04 4.09565354e-03
      3.55397016e-02 5.15259616e-02 7.79495295e-03 2.78768670e-02
      3.96353542e-04 5.36398478e-02 2.60272156e-02 3.11798118e-02
      1.01070158e-01 4.90157232e-02 6.30202144e-02 7.46465847e-02
      2.80089844e-02 3.48791108e-02 4.00317088e-02 7.34575242e-02
      1.18906060e-02 4.49200682e-02 2.64235702e-03 0. 3.73893529e-02
      2.64235685e-04 1.34760207e-02 1.03051923e-02 1.18906063e-03
      3.96353542e-04 3.83141753e-03 1.32117842e-04 0. 0. 6.73801033e-03
      0. 5.28471370e-04 1.32117842e-04 0. 1.32117842e-04 0. 0.
      2.64235702e-03 0. 1.32117842e-04 0. 7.53071718e-03 0. 0.
      1.32117842e-04 1.18906063e-03 0. 0. 0.</_>
    <_>
      6.21133707e-02 3.72427739e-02 6.72894865e-02 5.54222949e-02
      7.25918412e-02 1.02891050e-01 1.10213354e-01 8.74889567e-02
      7.58742616e-02 3.83789912e-02 4.35551070e-02 1.67908091e-02
      1.43921226e-02 8.20603501e-03 1.89370033e-03 1.13622015e-02
      1.64120691e-03 5.55485440e-03 3.15616722e-03 3.78740049e-04
      2.52493366e-04 1.89370033e-03 0. 0. 0. 2.01994693e-03 0.
      3.78740049e-04 0. 0. 0. 0. 0. 1.13622018e-03 0. 0. 0.
      2.65118037e-03 0. 0. 0. 7.57480098e-04 0. 0. 0. 0. 0. 0.
      6.31233444e-04 0. 0. 1.26246683e-04 0. 0. 0. 1.76745362e-03 0.
      5.04986732e-04 0. 0. 1.89370033e-03 0. 6.31233444e-04
      7.57480098e-04 0. 0. 2.14619376e-03 0. 0. 5.04986732e-04
      4.29238752e-03 2.52493366e-04 3.28241382e-03 1.13622018e-03
      2.52493366e-04 8.83726811e-04 8.83726811e-04 6.31233444e-04
      5.93359442e-03 7.57480098e-04 4.03989386e-03 2.90367380e-03
      1.50233554e-02 1.38871360e-03 9.08976141e-03 3.32028791e-02
      1.45183690e-02 2.12094430e-02 3.83789912e-02 7.44855450e-03</_>
    <_>
      1.40754133e-02 9.03925626e-04 5.16528916e-03 9.81405005e-03
      7.10227294e-03 1.35588842e-02 3.11208684e-02 3.87396701e-02
      7.21849203e-02 6.65031001e-02 1.09245867e-01 8.65185931e-02
      6.45661131e-02 7.67045468e-02 1.75619833e-02 3.04752067e-02
      2.84090918e-02 4.04183902e-02 1.02014467e-02 4.13223123e-03
      4.00309917e-03 9.55578499e-03 5.16528904e-04 0. 9.03925626e-04
      1.04597108e-02 2.58264452e-04 4.77789249e-03 5.16528904e-04 0.
      2.06611562e-03 1.29132226e-04 5.16528904e-04 7.61880167e-03
      1.29132226e-04 3.09917354e-03 1.54958677e-03 1.23966942e-02 0.
      1.80785125e-03 1.05888434e-02 8.78099166e-03 1.80785125e-03
      8.26446246e-03 3.87396693e-04 1.36880167e-02 4.39049583e-03
      8.65185913e-03 1.92407016e-02 1.12345042e-02 2.16942150e-02
      2.06611566e-02 7.61880167e-03 9.29752085e-03 5.03615709e-03
      1.45919425e-02 3.35743790e-03 8.78099166e-03 6.45661145e-04
      2.58264452e-04 1.14927683e-02 6.45661145e-04 4.39049583e-03
      2.06611562e-03 0. 2.58264452e-04 1.03305781e-03 0. 0. 0.
      2.58264458e-03 0. 3.87396693e-04 0. 0. 1.29132226e-04 0. 0.
      1.16219011e-03 0. 2.58264452e-04 0. 4.64876043e-03 0. 0.
      3.87396693e-04 2.19524791e-03 2.58264452e-04 1.03305781e-03
      3.87396693e-04</_>
    <_>
      5.05977534e-02 1.32834201e-03 4.58881771e-03 4.21446674e-02
      1.00229438e-02 1.89590622e-02 5.78432567e-02 1.00229438e-02
      1.60608627e-02 2.87404899e-02 7.88552091e-02 1.75099634e-02
      7.28172958e-02 1.07474942e-02 1.81137549e-03 8.15118924e-02
      1.00229438e-02 5.73602207e-02 3.70728187e-02 7.12474342e-03
      6.03791792e-03 3.74350920e-02 2.29440886e-03 1.20758363e-04
      3.62275098e-03 3.90049517e-02 1.08682527e-03 1.09890113e-02
      1.93213380e-03 0. 3.50199244e-03 1.08682527e-03 6.03791792e-04
      1.54570704e-02 1.81137549e-03 9.29839350e-03 1.93213380e-03
      3.29670347e-02 0. 0. 1.00229438e-02 1.67854130e-02 0.
      6.03791792e-04 0. 2.89820065e-03 0. 0. 7.97005184e-03 0.
      1.44910032e-03 3.98502592e-03 0. 0. 8.45308532e-04 2.81366985e-02
      0. 5.19260950e-03 0. 0. 2.43931897e-02 0. 7.24550162e-04
      1.32834201e-03 2.41516726e-04 1.20758363e-04 1.32834201e-03 0. 0.
      0. 7.48701859e-03 0. 6.03791792e-04 1.20758363e-04 0.
      3.62275081e-04 0. 0. 8.69460218e-03 1.20758363e-04 2.53592571e-03
      1.69061706e-03 4.46805954e-02 0. 6.03791792e-04 1.11097693e-02
      2.53592562e-02 1.20758363e-04 6.15867646e-03 0.</_>
    <_>
      7.70635530e-02 1.27830531e-03 4.74799145e-03 1.51570486e-02
      4.01753094e-03 1.07742874e-02 1.60701238e-02 6.20891154e-03
      8.21767747e-03 1.04090581e-02 3.78013141e-02 5.66106662e-03
      1.91745795e-02 4.93060611e-03 2.55661062e-03 5.66106662e-02
      1.82615046e-03 9.67859756e-03 1.75310448e-02 9.13075230e-04
      2.19138060e-03 1.66179687e-02 1.82615055e-04 0. 9.13075230e-04
      3.56099345e-02 0. 4.56537632e-03 1.82615055e-04 0. 1.46092044e-03
      0. 0. 2.13659611e-02 7.30460219e-04 6.39152667e-03 1.09569030e-03
      5.91672771e-02 9.13075230e-04 9.13075230e-04 2.42878012e-02
      4.32797670e-02 7.30460219e-04 1.46092037e-02 1.82615055e-04
      1.71658136e-02 2.00876547e-03 3.83491605e-03 4.78451438e-02
      4.38276120e-03 1.22352084e-02 2.88531780e-02 2.19138060e-03
      6.93937158e-03 1.22352084e-02 5.60628213e-02 2.19138060e-03
      3.06793284e-02 9.13075230e-04 0. 5.36888242e-02 7.30460219e-04
      1.64353549e-02 1.66179687e-02 9.13075230e-04 2.00876547e-03
      1.07742874e-02 3.65230109e-04 1.82615055e-04 2.19138060e-03
      3.21402475e-02 1.82615046e-03 2.92184087e-03 1.64353545e-03 0.
      1.09569030e-03 0. 0. 8.76552239e-03 0. 2.37399573e-03
      1.09569030e-03 4.01753113e-02 0. 7.30460219e-04 8.21767747e-03
      1.64353549e-02 5.47845149e-04 4.01753094e-03 5.47845149e-04</_>
    <_>
      2.93401834e-02 0. 0. 2.83937273e-03 0. 4.05624654e-04
      5.40832873e-04 0. 0. 0. 3.65062198e-03 0. 2.70416436e-04 0. 0.
      9.19415895e-03 0. 4.05624654e-04 1.48729037e-03 0. 0.
      7.84207694e-03 0. 0. 0. 1.48729039e-02 0. 2.97458074e-03
      4.05624654e-04 0. 1.08166575e-03 0. 4.05624654e-04 1.78474858e-02
      4.05624654e-04 7.70686846e-03 6.48999447e-03 4.48891297e-02
      4.32666298e-03 1.81179009e-02 8.95078406e-02 5.04326671e-02
      2.56895628e-02 6.40886948e-02 5.67874545e-03 7.40941018e-02
      3.00162248e-02 3.86695527e-02 7.97728524e-02 3.21795568e-02
      4.46187146e-02 5.81395365e-02 1.41968634e-02 1.36560304e-02
      2.09572744e-02 5.20551652e-02 3.10978899e-03 3.19091417e-02
      9.46457556e-04 0. 3.74526754e-02 0. 7.57166045e-03 1.13574909e-02
      2.70416436e-04 8.11249309e-04 7.16603547e-03 0. 0. 1.35208218e-04
      9.46457591e-03 0. 9.46457556e-04 0. 0. 0. 0. 0. 1.48729037e-03 0.
      1.35208218e-04 1.35208218e-04 1.20335314e-02 0. 0. 8.11249309e-04
      4.86749597e-03 0. 1.35208218e-04 0.</_>
    <_>
      8.11672956e-02 5.67107741e-03 3.07183363e-03 2.81190928e-02
      4.25330829e-03 1.41776940e-02 2.09120978e-02 3.42627591e-03
      4.60775057e-03 7.91587867e-03 3.06001883e-02 2.48109642e-03
      1.44139882e-02 3.42627591e-03 5.90737269e-04 2.04395093e-02 0.
      1.77221175e-03 8.97920597e-03 0. 0. 4.60775057e-03 0. 0. 0.
      1.41776940e-02 0. 1.65406428e-03 0. 0. 3.54442338e-04 0. 0.
      2.12665414e-03 0. 8.27032141e-04 2.36294902e-04 2.75283549e-02 0.
      0. 3.07183363e-03 5.55292983e-03 1.29962189e-03 1.18147454e-03
      2.36294902e-04 5.31663513e-03 3.54442338e-04 1.06332707e-03
      1.28780715e-02 2.36294908e-03 4.13516071e-03 1.79584119e-02
      1.89035921e-03 3.66257085e-03 1.06332703e-02 3.27268429e-02
      2.59924377e-03 5.26937619e-02 0. 0. 5.80103956e-02 0.
      4.70226854e-02 3.99338380e-02 1.18147451e-04 9.45179630e-03
      4.78497148e-02 2.36294902e-04 0. 3.30812857e-03 5.34026474e-02
      1.89035921e-03 1.73676740e-02 5.55292983e-03 3.54442338e-04
      8.03402625e-03 5.90737269e-04 1.18147451e-04 2.50472594e-02
      1.18147451e-04 8.62476416e-03 2.48109642e-03 7.70321339e-02
      1.18147451e-04 3.18998098e-03 4.28875238e-02 5.62381856e-02
      3.30812857e-03 1.97306238e-02 8.27032141e-04</_>
    <_>
      7.47380406e-02 4.54488071e-03 1.45183690e-02 5.20136356e-02
      1.84320156e-02 3.88839804e-02 6.84257075e-02 3.37078646e-02
      3.71165238e-02 3.26978900e-02 9.00138840e-02 2.08307039e-02
      4.60800417e-02 9.72099509e-03 2.77742720e-03 5.47910631e-02
      2.77742720e-03 1.84320156e-02 1.47708626e-02 1.64120691e-03
      2.14619376e-03 1.00997351e-02 6.31233444e-04 2.52493366e-04
      6.31233444e-04 1.35083953e-02 0. 3.66115384e-03 1.26246683e-04 0.
      6.31233444e-04 1.26246683e-04 0. 4.16614069e-03 0. 1.00997346e-03
      2.52493366e-04 1.69170555e-02 0. 0. 4.16614069e-03 4.41863388e-03
      3.78740049e-04 1.64120691e-03 0. 1.51496020e-03 0. 0.
      5.04986756e-03 1.26246683e-04 1.64120691e-03 4.92362073e-03 0.
      1.26246683e-04 2.27244035e-03 1.16146952e-02 1.00997346e-03
      8.45852774e-03 5.04986732e-04 0. 3.05516981e-02 0. 2.77742720e-03
      7.95354135e-03 0. 5.04986732e-04 9.46850143e-03 1.26246683e-04 0.
      1.26246683e-04 2.60068178e-02 3.78740049e-04 3.91364750e-03
      1.00997346e-03 0. 2.01994693e-03 6.31233444e-04 0. 1.41396290e-02
      2.52493366e-04 5.17611392e-03 4.41863388e-03 7.03194067e-02
      7.57480098e-04 2.27244035e-03 1.95682365e-02 3.92627195e-02
      4.92362073e-03 1.41396290e-02 3.78740049e-04</_>
    <_>
      1.21882083e-02 2.69274367e-03 3.11791385e-03 1.61564630e-02
      6.23582769e-03 1.16213150e-02 2.08333340e-02 8.78684781e-03
      1.85657591e-02 1.96995456e-02 4.76190485e-02 2.96201818e-02
      3.92573699e-02 3.38718817e-02 1.57312918e-02 6.93027228e-02
      3.65646258e-02 1.19189344e-01 2.90532876e-02 4.25170064e-02
      2.15419494e-02 4.90362793e-02 1.81405898e-02 1.96995456e-02
      3.18877548e-02 3.13208625e-02 1.61564630e-02 2.15419494e-02
      1.94160994e-02 5.24376426e-03 1.13378689e-02 8.78684781e-03
      2.83446722e-03 2.15419494e-02 1.03458054e-02 9.77891125e-03
      6.66099787e-03 1.54478457e-02 2.83446722e-03 2.40929704e-03
      1.06292516e-02 5.24376426e-03 1.41723361e-03 3.25963716e-03 0.
      4.67687054e-03 7.08616804e-04 1.13378686e-03 4.39342391e-03
      9.92063549e-04 2.40929704e-03 1.41723361e-03 2.83446716e-04
      4.25170059e-04 7.08616804e-04 4.53514745e-03 7.08616804e-04
      1.55895692e-03 0. 0. 5.66893443e-03 0. 7.08616804e-04
      2.40929704e-03 1.13378686e-03 2.83446716e-04 1.27551018e-03 0. 0.
      4.25170059e-04 4.10997728e-03 4.25170059e-04 5.66893432e-04
      7.08616804e-04 0. 0. 0. 2.83446716e-04 3.25963716e-03
      2.83446716e-04 1.70068024e-03 8.50340119e-04 6.80272095e-03
      2.83446716e-04 9.92063549e-04 3.54308379e-03 4.67687054e-03
      1.55895692e-03 4.81859408e-03 1.41723358e-04</_>
    <_>
      3.92390005e-02 0. 0. 1.45329640e-03 0. 0. 1.05694274e-03 0.
      6.60589256e-04 9.24824970e-04 5.94530301e-03 6.60589256e-04
      5.28471405e-03 5.28471370e-04 0. 1.82322636e-02 6.60589256e-04
      7.13436399e-03 7.13436399e-03 7.92707084e-04 3.43506411e-03
      2.02140305e-02 9.24824970e-04 1.32117851e-03 5.02047827e-03
      2.49702726e-02 3.17082833e-03 8.05918872e-03 5.28471405e-03 0.
      8.32342450e-03 1.98176783e-03 7.92707084e-04 2.82732192e-02
      3.56718199e-03 2.14030910e-02 8.98401346e-03 7.00224563e-02
      1.05694274e-03 5.68106771e-03 3.81820574e-02 8.79904851e-02
      5.68106771e-03 1.88928526e-02 1.32117851e-03 3.42185237e-02
      6.87012821e-03 5.94530301e-03 7.70247057e-02 6.87012821e-03
      2.33848598e-02 4.39952426e-02 1.45329640e-03 5.02047827e-03
      1.05694281e-02 1.16263710e-01 1.84964994e-03 5.07332534e-02 0. 0.
      8.13845918e-02 0. 2.77447491e-03 1.61183774e-02 3.96353542e-04 0.
      4.49200673e-03 0. 0. 0. 2.10067388e-02 0. 1.45329640e-03 0. 0. 0.
      0. 0. 4.88836039e-03 0. 6.60589256e-04 2.64235685e-04
      1.14942528e-02 0. 0. 1.84964994e-03 4.75624250e-03 0. 0. 0.</_>
    <_>
      6.22637048e-02 6.26181485e-03 1.39413988e-02 5.42296804e-02
      2.39839312e-02 3.60349715e-02 6.00189045e-02 2.18572784e-02
      2.56379955e-02 3.14272195e-02 8.21124762e-02 1.76039692e-02
      6.04914948e-02 6.37996197e-03 1.18147451e-04 6.19092621e-02
      1.06332707e-03 2.59924382e-02 2.52835546e-02 2.00850656e-03
      2.95368629e-03 1.74858216e-02 9.45179607e-04 2.36294902e-04
      1.77221175e-03 2.18572784e-02 5.90737269e-04 5.31663513e-03
      1.65406428e-03 0. 3.07183363e-03 9.45179607e-04 4.72589803e-04
      1.80765595e-02 2.36294908e-03 5.55292983e-03 2.24480149e-03
      2.55198479e-02 3.54442338e-04 7.08884676e-04 1.20510394e-02
      1.65406428e-02 1.89035921e-03 2.59924377e-03 2.36294902e-04
      5.43478271e-03 7.08884676e-04 9.45179607e-04 5.55292983e-03
      2.36294902e-04 4.72589803e-04 4.13516071e-03 4.72589803e-04
      1.18147451e-04 5.90737269e-04 9.68809053e-03 1.18147451e-04
      7.56143685e-03 0. 0. 2.24480145e-02 0. 3.54442350e-03
      5.90737257e-03 0. 3.54442338e-04 4.01701313e-03 0. 0. 0.
      1.55954631e-02 1.18147451e-04 2.83553870e-03 4.72589803e-04 0.
      1.29962189e-03 1.18147451e-04 0. 1.12240072e-02 1.18147451e-04
      5.67107741e-03 2.59924377e-03 4.66682427e-02 2.36294902e-04
      2.71739135e-03 2.23298669e-02 3.21361050e-02 1.77221175e-03
      1.70132332e-02 7.08884676e-04</_>
    <_>
      5.16528916e-03 1.67871895e-03 7.48966960e-03 9.81405005e-03
      1.45919425e-02 2.82799583e-02 4.33884300e-02 6.93440065e-02
      9.69783068e-02 7.20557868e-02 1.57024801e-01 1.09891526e-01
      6.39204532e-02 8.67768601e-02 2.42768601e-02 2.87964884e-02
      2.37603299e-02 1.92407016e-02 4.90702502e-03 2.71177688e-03
      1.54958677e-03 4.39049583e-03 1.29132226e-04 0. 5.16528904e-04
      4.26136376e-03 1.29132226e-04 5.16528904e-04 3.87396693e-04 0.
      6.45661145e-04 0. 2.58264452e-04 3.09917354e-03 5.16528904e-04
      1.16219011e-03 1.54958677e-03 4.64876043e-03 0. 6.45661145e-04
      3.61570250e-03 3.61570250e-03 2.58264452e-04 4.51962790e-03
      3.87396693e-04 5.16528916e-03 2.06611562e-03 3.22830584e-03
      5.03615709e-03 4.13223123e-03 3.87396687e-03 8.26446246e-03
      4.26136376e-03 7.10227294e-03 4.26136376e-03 8.91012419e-03
      1.80785125e-03 5.16528916e-03 6.45661145e-04 0. 6.32747915e-03
      5.16528904e-04 2.71177688e-03 7.74793385e-04 0. 2.58264452e-04
      1.42045459e-03 0. 0. 0. 1.80785125e-03 0. 3.87396693e-04 0. 0.
      7.74793385e-04 0. 0. 2.45351251e-03 0. 1.03305781e-03 0.
      3.61570250e-03 0. 2.58264452e-04 1.54958677e-03 3.35743790e-03
      2.58264452e-04 1.67871895e-03 0.</_>
    <_>
      0. 0. 0. 0. 0. 0. 0. 0. 0. 0. 0. 0. 0. 0. 0. 1.35208218e-04 0. 0.
      0. 0. 0. 0. 0. 0. 0. 2.70416436e-04 0. 0. 0. 0. 0. 0. 0.
      1.35208218e-04 1.35208218e-04 2.70416436e-04 0. 4.05624654e-04
      5.40832873e-04 1.62249862e-03 5.94916148e-03 3.38020548e-03
      2.13628989e-02 2.14981064e-02 1.64954029e-02 7.28772283e-02
      4.65116277e-02 1.08436994e-01 1.87939424e-02 1.12493239e-01
      1.35749057e-01 1.30611137e-01 1.27636567e-01 7.16603547e-02
      3.32612209e-02 3.42076793e-02 1.83883179e-02 3.92103847e-03
      4.05624649e-03 0. 3.38020548e-03 8.11249309e-04 2.43374798e-03
      5.40832873e-04 1.35208218e-04 0. 4.05624654e-04 0. 0. 0.
      1.08166575e-03 0. 0. 0. 0. 0. 0. 0. 0. 0. 0. 0. 4.05624654e-04 0.
      0. 0. 0. 0. 0. 0.</_>
    <_>
      5.31663513e-03 0. 0. 3.54442338e-04 0. 2.36294902e-04
      4.72589803e-04 0. 0. 2.36294902e-04 4.72589803e-04 0.
      2.36294902e-04 0. 0. 1.41776935e-03 0. 1.41776935e-03
      4.72589803e-04 0. 0. 2.59924377e-03 0. 0. 0. 6.97069941e-03 0.
      1.29962189e-03 0. 0. 1.18147451e-04 0. 0. 3.78071843e-03
      5.90737269e-04 2.00850656e-03 1.06332707e-03 1.31143667e-02
      5.90737269e-04 6.02551969e-03 2.15028357e-02 9.09735356e-03
      9.21550114e-03 2.45746691e-02 3.18998098e-03 3.30812857e-02
      1.54773155e-02 2.97731571e-02 4.54867668e-02 5.18667288e-02
      8.08128566e-02 9.18005705e-02 7.14792088e-02 8.23487714e-02
      5.17485812e-02 8.80198479e-02 4.86767478e-02 4.58412096e-02
      3.53260860e-02 2.71739135e-03 3.22542526e-02 1.02788284e-02
      2.22117193e-02 1.50047261e-02 1.41776935e-03 3.30812857e-03
      8.38846900e-03 7.08884676e-04 1.18147451e-04 1.06332707e-03
      3.54442350e-03 5.90737269e-04 1.65406428e-03 8.27032141e-04 0.
      7.08884676e-04 1.18147451e-04 0. 1.89035921e-03 0. 7.08884676e-04
      1.18147451e-04 2.59924377e-03 0. 0. 2.36294902e-04 1.41776935e-03
      0. 0. 0.</_>
    <_>
      5.02047827e-03 0. 0. 2.64235685e-04 0. 0. 9.24824970e-04 0. 0.
      7.92707084e-04 3.56718199e-03 2.90659280e-03 1.12300171e-02
      1.88928526e-02 1.20227244e-02 1.63826142e-02 1.51935527e-02
      5.20544313e-02 1.94213241e-02 3.76535878e-02 2.57629808e-02
      6.19632713e-02 2.07425021e-02 2.43096836e-02 4.46558334e-02
      4.94120754e-02 2.40454488e-02 3.60681713e-02 4.20134775e-02
      5.28471405e-03 3.32936980e-02 2.20636800e-02 6.87012821e-03
      4.75624241e-02 1.58541426e-02 2.94622798e-02 2.60272156e-02
      3.23688723e-02 6.07742090e-03 2.12709736e-02 6.56625703e-02
      1.77037921e-02 1.08336639e-02 3.64645272e-02 1.71753205e-03
      2.94622798e-02 1.10978996e-02 4.62412462e-03 1.88928526e-02
      5.41683193e-03 1.00409565e-02 8.05918872e-03 1.45329640e-03
      1.32117842e-04 5.28471370e-04 2.24600337e-03 0. 1.71753205e-03 0.
      0. 7.92707084e-04 0. 1.32117842e-04 2.64235685e-04 0. 0. 0. 0. 0.
      0. 3.96353542e-04 0. 0. 0. 0. 0. 0. 0. 0. 0. 0. 0. 9.24824970e-04
      0. 0. 0. 0. 0. 0. 0.</_>
    <_>
      1.92892067e-02 6.60589256e-04 3.96353565e-03 6.34165667e-03
      1.08336639e-02 1.70432031e-02 3.23688723e-02 6.36808053e-02
      9.85599160e-02 1.03844628e-01 1.47047162e-01 1.06090635e-01
      4.57127765e-02 8.21773037e-02 2.19315626e-02 3.42185237e-02
      1.71753205e-02 2.43096836e-02 8.45554192e-03 2.77447491e-03
      2.77447491e-03 7.53071718e-03 1.45329640e-03 3.96353542e-04
      2.51023914e-03 1.20227244e-02 1.32117851e-03 2.90659280e-03
      2.24600337e-03 2.64235685e-04 1.18906063e-03 7.92707084e-04 0.
      5.02047827e-03 1.05694274e-03 3.96353565e-03 2.24600337e-03
      9.90883913e-03 1.32117842e-04 1.84964994e-03 7.92707130e-03
      5.81318559e-03 1.05694274e-03 4.88836039e-03 0. 4.35988884e-03
      1.58541417e-03 5.28471370e-04 7.66283507e-03 7.92707084e-04
      3.30294622e-03 4.49200673e-03 2.64235685e-04 1.05694274e-03
      1.05694274e-03 9.38036758e-03 0. 5.28471405e-03 0. 0.
      3.30294622e-03 0. 1.18906063e-03 2.51023914e-03 0. 0.
      3.83141753e-03 0. 0. 0. 4.09565354e-03 0. 1.58541417e-03 0. 0.
      2.64235685e-04 0. 0. 2.11388548e-03 0. 5.28471370e-04
      2.64235685e-04 7.79495295e-03 0. 3.96353542e-04 1.58541417e-03
      3.03871045e-03 5.28471370e-04 1.45329640e-03 0.</_>
    <_>
      4.82230149e-02 1.18906063e-03 4.35988884e-03 2.88016908e-02
      6.73801033e-03 1.36081381e-02 4.88836057e-02 4.62412462e-03
      8.71977769e-03 3.01228687e-02 7.99312964e-02 6.87012821e-03
      1.43347859e-01 3.30294622e-03 9.24824970e-04 9.68423858e-02
      6.20953878e-03 9.05007273e-02 5.20544313e-02 3.43506411e-03
      3.43506411e-03 4.32025380e-02 1.05694274e-03 0. 2.24600337e-03
      2.80089844e-02 7.92707084e-04 7.13436399e-03 1.05694274e-03
      1.32117842e-04 3.30294622e-03 7.92707084e-04 3.96353542e-04
      1.20227244e-02 1.05694274e-03 6.87012821e-03 2.24600337e-03
      2.58950982e-02 3.96353542e-04 2.24600337e-03 1.26833133e-02
      8.85189604e-03 3.83141753e-03 6.47377456e-03 0. 5.81318559e-03
      5.28471370e-04 1.32117842e-04 6.73801033e-03 1.32117842e-04
      1.45329640e-03 9.24824970e-04 0. 0. 1.32117842e-04 9.77672078e-03
      0. 2.64235702e-03 0. 0. 1.38723738e-02 0. 1.32117842e-04
      2.77447491e-03 0. 0. 2.64235685e-04 0. 0. 0. 1.51935527e-02 0.
      5.28471370e-04 1.32117842e-04 0. 0. 0. 0. 4.09565354e-03 0.
      1.71753205e-03 2.64235685e-04 4.28061821e-02 0. 3.96353542e-04
      1.21548418e-02 2.21957993e-02 0. 2.37812125e-03 0.</_>
    <_>
      6.85255229e-02 5.19848755e-03 3.78071843e-03 4.31238189e-02
      9.09735356e-03 3.02457474e-02 6.32088855e-02 6.14366727e-03
      1.24054821e-02 3.14272195e-02 7.25425333e-02 1.00425333e-02
      1.06805295e-01 7.20699411e-03 9.45179607e-04 7.49054849e-02
      3.54442350e-03 5.35207950e-02 4.01701331e-02 3.54442350e-03
      6.37996197e-03 3.42627615e-02 1.29962189e-03 8.27032141e-04
      3.30812857e-03 4.02882807e-02 8.27032141e-04 5.31663513e-03
      1.89035921e-03 4.72589803e-04 2.00850656e-03 1.41776935e-03
      7.08884676e-04 1.09877130e-02 3.54442338e-04 1.18147454e-03
      2.36294902e-04 3.03638950e-02 0. 0. 6.14366727e-03 1.60680525e-02
      0. 0. 0. 1.77221175e-03 0. 0. 7.20699411e-03 0. 9.45179607e-04
      1.41776935e-03 0. 0. 1.18147451e-04 1.57136098e-02 0.
      2.83553870e-03 0. 0. 1.93761811e-02 0. 1.89035921e-03
      4.25330829e-03 7.08884676e-04 7.08884676e-04 2.95368629e-03 0. 0.
      0. 1.15784500e-02 0. 1.06332707e-03 0. 0. 9.45179607e-04 0. 0.
      9.80623811e-03 1.18147451e-04 4.60775057e-03 9.45179607e-04
      3.39083187e-02 2.36294902e-04 3.07183363e-03 2.11483929e-02
      2.90642716e-02 4.72589803e-04 1.24054821e-02 0.</_>
    <_>
      9.90883913e-03 0. 0. 1.32117851e-03 1.32117842e-04 2.64235685e-04
      1.45329640e-03 1.32117842e-04 0. 7.92707084e-04 2.51023914e-03 0.
      4.49200673e-03 0. 0. 5.68106771e-03 0. 6.07742090e-03
      3.43506411e-03 1.45329640e-03 1.58541417e-03 9.24824923e-03
      1.71753205e-03 6.60589256e-04 5.28471405e-03 1.44008454e-02
      1.45329640e-03 8.05918872e-03 4.35988884e-03 3.96353542e-04
      6.47377456e-03 2.11388548e-03 7.92707084e-04 2.25921515e-02
      4.35988884e-03 1.26833133e-02 1.08336639e-02 4.96763103e-02
      3.96353542e-04 4.88836039e-03 7.51750544e-02 5.02047837e-02
      2.90659280e-03 3.52754667e-02 0. 5.54894954e-02 1.61183774e-02
      1.42687280e-02 8.29700083e-02 2.65556872e-02 7.45144635e-02
      9.35394391e-02 2.58950982e-02 3.88426483e-02 3.40864062e-02
      7.30611682e-02 9.64460336e-03 4.17492390e-02 3.83141753e-03 0.
      2.33848598e-02 9.24824970e-04 7.92707130e-03 7.92707130e-03
      1.18906063e-03 1.32117842e-04 7.92707084e-04 0. 0. 0.
      1.58541417e-03 0. 0. 0. 0. 0. 0. 0. 0. 0. 0. 0. 2.24600337e-03 0.
      0. 0. 1.32117842e-04 0. 0. 0.</_>
    <_>
      4.27693762e-02 3.54442338e-04 5.90737269e-04 9.56994295e-03
      1.53591682e-03 5.55292983e-03 7.20699411e-03 3.30812857e-03
      4.96219285e-03 4.96219285e-03 2.78827976e-02 4.96219285e-03
      1.53591679e-02 7.20699411e-03 1.18147451e-04 2.54017022e-02
      7.08884676e-04 6.97069941e-03 1.53591679e-02 0. 2.36294908e-03
      1.27599239e-02 0. 0. 7.08884676e-04 2.69376189e-02 1.18147451e-04
      2.24480149e-03 1.18147454e-03 0. 1.77221175e-03 0. 0.
      7.79773155e-03 0. 4.60775057e-03 5.90737269e-04 5.38752377e-02 0.
      2.24480149e-03 1.50047261e-02 2.64650285e-02 2.36294908e-03
      8.86105839e-03 0. 2.35113427e-02 4.01701313e-03 4.84404527e-03
      6.63988665e-02 7.91587867e-03 3.22542526e-02 6.13185242e-02
      8.27032141e-03 1.22873345e-02 2.41020788e-02 9.23913047e-02
      9.45179630e-03 4.86767478e-02 3.30812857e-03 0. 8.76654088e-02
      8.27032141e-04 1.09877130e-02 3.35538760e-02 2.00850656e-03
      2.24480149e-03 1.81947071e-02 0. 0. 0. 2.62287334e-02 0.
      4.25330829e-03 8.27032141e-04 0. 1.18147451e-04 2.36294902e-04 0.
      1.12240072e-02 0. 2.00850656e-03 0. 3.14272195e-02 0. 0.
      4.25330829e-03 9.92438570e-03 0. 5.90737269e-04 0.</_>
    <_>
      3.89886578e-03 2.36294902e-04 2.36294902e-04 2.00850656e-03
      2.36294902e-04 1.18147451e-04 1.53591682e-03 0. 1.18147451e-04
      4.72589803e-04 3.89886578e-03 3.54442338e-04 2.24480149e-03
      3.54442338e-04 0. 4.60775057e-03 5.90737269e-04 4.25330829e-03
      1.89035921e-03 2.48109642e-03 3.07183363e-03 1.08695654e-02
      2.71739135e-03 3.54442350e-03 8.50661658e-03 1.58317573e-02
      8.15217383e-03 1.55954631e-02 1.87854450e-02 8.38846900e-03
      1.65406428e-02 2.39839312e-02 1.11058597e-02 4.40689996e-02
      3.81616242e-02 3.20179574e-02 3.94612476e-02 6.80529326e-02
      7.21880943e-02 3.39083187e-02 1.09050095e-01 4.58412096e-02
      5.17485812e-02 5.15122861e-02 1.65406428e-02 4.37145568e-02
      2.03213617e-02 2.25661620e-02 2.05576569e-02 1.39413988e-02
      1.39413988e-02 1.55954631e-02 7.32514169e-03 7.67958397e-03
      6.26181485e-03 1.07514178e-02 2.36294908e-03 7.44328927e-03
      4.72589803e-04 0. 5.31663513e-03 3.54442338e-04 2.24480149e-03
      3.18998098e-03 3.54442338e-04 2.36294902e-04 3.07183363e-03
      1.18147451e-04 0. 3.54442338e-04 2.00850656e-03 2.36294902e-04
      3.54442338e-04 3.54442338e-04 0. 5.90737269e-04 1.18147451e-04 0.
      1.65406428e-03 0. 5.90737269e-04 3.54442338e-04 2.00850656e-03 0.
      2.36294902e-04 1.41776935e-03 1.18147454e-03 2.36294902e-04
      1.29962189e-03 0.</_>
    <_>
      4.91478406e-02 2.64235685e-04 1.05694274e-03 4.75624250e-03
      2.11388548e-03 5.02047827e-03 8.05918872e-03 3.30294622e-03
      5.15259616e-03 5.15259616e-03 1.75716747e-02 4.75624250e-03
      1.00409565e-02 3.83141753e-03 1.32117842e-04 1.84964985e-02
      3.96353542e-04 4.88836039e-03 4.88836039e-03 3.96353542e-04
      1.18906063e-03 5.15259616e-03 1.32117842e-04 0. 5.28471370e-04
      1.95534416e-02 1.32117842e-04 1.84964994e-03 6.60589256e-04 0.
      1.05694274e-03 0. 0. 8.98401346e-03 0. 4.49200673e-03
      1.18906063e-03 5.81318550e-02 0. 9.24824970e-04 1.30796675e-02
      1.57220233e-02 3.96353542e-04 7.00224610e-03 2.64235685e-04
      1.61183774e-02 1.58541417e-03 3.30294622e-03 5.06011359e-02
      6.34165667e-03 2.52345093e-02 4.84872498e-02 3.96353565e-03
      7.39859976e-03 2.24600341e-02 1.00805916e-01 8.58766027e-03
      9.30109695e-02 3.96353565e-03 0. 8.57444853e-02 5.28471370e-04
      4.66376022e-02 5.64143211e-02 4.88836039e-03 1.34760207e-02
      2.69520413e-02 2.24600337e-03 0. 1.58541417e-03 3.62002924e-02 0.
      3.43506411e-03 5.28471370e-04 0. 9.24824970e-04 0. 0.
      3.56718199e-03 1.32117842e-04 1.32117851e-03 1.32117842e-04
      2.25921515e-02 1.32117842e-04 3.96353542e-04 4.22777096e-03
      3.17082833e-03 0. 3.03871045e-03 0.</_>
    <_>
      4.38075997e-02 9.84724145e-03 1.06047215e-02 6.40070662e-02
      2.34818831e-02 3.88839804e-02 9.46850181e-02 3.85052375e-02
      7.61267543e-02 5.74422404e-02 1.15894459e-01 4.99936864e-02
      5.64322695e-02 1.46446154e-02 1.51496020e-03 4.27976251e-02
      4.54488071e-03 1.17409416e-02 8.33228137e-03 8.83726811e-04
      2.65118037e-03 6.69107446e-03 1.26246683e-04 0. 1.26246683e-04
      7.44855450e-03 0. 1.51496020e-03 1.26246683e-04 0. 6.31233444e-04
      0. 0. 1.38871360e-03 0. 8.83726811e-04 7.57480098e-04
      9.97348782e-03 0. 2.52493366e-04 8.83726811e-04 4.41863388e-03 0.
      0. 0. 1.26246683e-04 0. 0. 2.90367380e-03 0. 0. 2.52493366e-04 0.
      0. 0. 8.71102139e-03 0. 1.38871360e-03 0. 0. 1.50233554e-02 0.
      2.90367380e-03 3.02992039e-03 0. 0. 6.56482764e-03 0. 0. 0.
      2.43656095e-02 0. 2.65118037e-03 0. 0. 3.02992039e-03 0. 0.
      1.24984216e-02 0. 3.40866041e-03 2.52493366e-04 4.82262336e-02 0.
      6.31233444e-04 1.37608889e-02 4.03989404e-02 1.51496020e-03
      5.93359442e-03 3.78740049e-04</_>
    <_>
      4.27319221e-02 7.30460219e-04 1.82615055e-04 2.50182617e-02
      2.55661062e-03 1.00438278e-02 2.22790353e-02 1.64353545e-03
      4.38276120e-03 5.47845149e-03 2.72096414e-02 7.48721696e-03
      2.08181161e-02 2.55661062e-03 0. 2.30094958e-02 5.47845149e-04
      1.89919658e-02 1.20525928e-02 5.47845149e-04 1.09569030e-03
      1.07742874e-02 0. 0. 1.82615055e-04 1.15047479e-02 0.
      2.55661062e-03 0. 0. 7.30460219e-04 0. 0. 9.31336731e-03 0.
      3.65230092e-03 7.30460219e-04 3.65230106e-02 0. 0. 1.33308982e-02
      1.89919658e-02 3.65230109e-04 3.28707090e-03 0. 1.51570486e-02
      7.30460219e-04 1.27830531e-03 4.20014597e-02 3.10445577e-03
      1.09569030e-02 3.72534692e-02 1.64353545e-03 4.38276120e-03
      2.68444121e-02 7.06720203e-02 4.01753094e-03 6.46457300e-02
      3.65230092e-03 0. 1.07195035e-01 9.13075230e-04 4.41928431e-02
      3.12271733e-02 3.65230092e-03 6.75675692e-03 3.41490135e-02
      9.13075230e-04 0. 1.82615046e-03 3.30533236e-02 3.65230109e-04
      9.67859756e-03 1.46092044e-03 0. 2.55661062e-03 5.47845149e-04
      3.65230109e-04 2.02702694e-02 1.82615055e-04 8.03506188e-03
      4.56537632e-03 2.37399563e-02 0. 7.30460219e-04 1.07742874e-02
      1.95398107e-02 9.13075230e-04 4.01753094e-03 7.30460219e-04</_>
    <_>
      1.00661628e-01 1.18147451e-04 0. 1.64224952e-02 0. 1.77221175e-03
      6.73440471e-03 0. 0. 3.07183363e-03 2.33931951e-02 1.18147451e-04
      1.19328918e-02 0. 0. 1.71313807e-02 0. 2.24480149e-03
      2.71739135e-03 8.27032141e-04 1.18147451e-04 8.27032141e-04 0. 0.
      0. 8.27032141e-03 0. 5.90737269e-04 0. 0. 5.90737269e-04 0.
      2.36294902e-04 3.89886578e-03 1.18147451e-04 7.08884676e-04
      2.36294902e-04 4.48960289e-02 0. 4.72589803e-04 4.84404527e-03
      2.10302453e-02 1.18147451e-04 1.89035921e-03 0. 8.03402625e-03
      2.36294902e-04 1.65406428e-03 3.30812857e-02 2.36294908e-03
      1.14603024e-02 3.13090719e-02 1.06332707e-03 3.78071843e-03
      1.50047261e-02 7.41965994e-02 6.37996197e-03 5.42296804e-02
      2.83553870e-03 0. 1.03615314e-01 0. 2.19754260e-02 3.85160670e-02
      2.00850656e-03 2.59924377e-03 3.04820407e-02 3.54442338e-04 0. 0.
      5.88374287e-02 0. 6.73440471e-03 0. 0. 2.12665414e-03 0. 0.
      3.23724002e-02 1.18147451e-04 5.67107741e-03 1.65406428e-03
      9.40453708e-02 0. 2.36294902e-04 2.45746691e-02 5.05671091e-02 0.
      1.89035921e-03 0.</_>
    <_>
      0. 0. 0. 0. 0. 0. 0. 0. 0. 0. 0. 0. 0. 0. 0. 0. 0. 0. 0. 0. 0. 0.
      0. 0. 0. 0. 0. 0. 0. 0. 0. 0. 0. 0. 0. 0. 0. 1.20758363e-04
      2.41516726e-04 3.62275081e-04 1.20758363e-04 0. 8.45308532e-04
      1.56985875e-03 1.08682527e-03 6.88322680e-03 4.83033434e-03
      1.72684453e-02 7.12474342e-03 4.17823941e-02 1.05180532e-01
      1.39958948e-01 1.65680468e-01 1.72080666e-01 1.04214467e-01
      1.10493898e-01 5.92923574e-02 2.39101555e-02 2.39101555e-02
      5.07185142e-03 2.17365054e-03 3.74350930e-03 1.81137549e-03 0. 0.
      0. 0. 0. 0. 0. 1.20758363e-04 0. 0. 0. 0. 0. 0. 0. 0. 0. 0. 0.
      1.20758363e-04 0. 0. 0. 0. 0. 0. 0.</_>
    <_>
      9.77531001e-02 1.29132229e-03 2.45351251e-03 3.52531001e-02
      5.29442169e-03 1.69163216e-02 2.41477266e-02 4.13223123e-03
      7.23140500e-03 8.65185913e-03 5.25568165e-02 2.84090918e-03
      3.09917349e-02 1.42045459e-03 0. 4.11931835e-02 6.45661145e-04
      1.08471075e-02 8.78099166e-03 1.54958677e-03 2.58264458e-03
      4.51962790e-03 9.03925626e-04 6.45661145e-04 1.67871895e-03
      1.73037183e-02 3.87396693e-04 1.42045459e-03 5.16528904e-04 0.
      9.03925626e-04 3.87396693e-04 0. 6.97314041e-03 1.80785125e-03
      1.42045459e-03 9.03925626e-04 4.98450398e-02 6.45661145e-04
      1.42045459e-03 6.06921501e-03 1.58832651e-02 1.16219011e-03
      3.09917354e-03 0. 5.16528916e-03 2.58264452e-04 0. 2.24690083e-02
      6.45661145e-04 8.52272753e-03 2.27272734e-02 6.45661145e-04
      1.80785125e-03 5.81095042e-03 4.81663235e-02 6.45661145e-04
      3.71900834e-02 6.45661145e-04 0. 6.97314069e-02 0. 1.66580584e-02
      1.44628100e-02 0. 7.74793385e-04 1.23966942e-02 0. 0.
      6.45661145e-04 6.98605403e-02 0. 1.93698343e-03 0. 0.
      1.42045459e-03 0. 0. 1.67871900e-02 0. 7.61880167e-03
      1.80785125e-03 9.09090936e-02 0. 0. 2.45351233e-02 3.96435969e-02
      0. 1.67871895e-03 0.</_>
    <_>
      3.30294622e-03 0. 0. 0. 0. 0. 0. 0. 0. 0. 0. 0. 0. 0. 0.
      1.71753205e-03 0. 0. 0. 2.64235685e-04 0. 1.05694274e-03
      1.32117842e-04 2.64235685e-04 2.64235685e-04 5.02047827e-03
      6.60589256e-04 5.15259616e-03 6.47377456e-03 7.92707084e-04
      1.37402564e-02 3.17082833e-03 1.05694274e-03 2.02140305e-02
      5.15259616e-03 4.25419472e-02 1.94213241e-02 2.91980449e-02
      5.54894982e-03 3.42185237e-02 2.11784914e-01 5.27150221e-02
      1.62504949e-02 1.11507468e-01 1.84964994e-03 1.16131589e-01
      1.74395554e-02 1.00409565e-02 9.65781510e-02 1.71753205e-02
      5.33756092e-02 3.68608795e-02 6.73801033e-03 5.15259616e-03
      1.10978996e-02 1.50614344e-02 1.45329640e-03 7.53071718e-03
      7.92707084e-04 0. 7.00224610e-03 0. 6.60589256e-04 1.05694274e-03
      0. 0. 2.64235685e-04 0. 0. 0. 1.45329640e-03 0. 0. 0. 0. 0. 0. 0.
      0. 0. 0. 0. 6.60589256e-04 0. 0. 0. 0. 0. 0. 0.</_>
    <_>
      7.65595436e-02 0. 0. 1.57136098e-02 1.53591682e-03 5.90737257e-03
      1.55954631e-02 2.24480149e-03 4.60775057e-03 1.06332703e-02
      4.58412096e-02 7.79773155e-03 5.08034043e-02 8.38846900e-03
      1.65406428e-03 8.10491517e-02 6.73440471e-03 3.44990566e-02
      5.31663522e-02 3.42627591e-03 4.25330829e-03 2.72920597e-02
      8.27032141e-04 2.36294902e-04 2.24480149e-03 4.35964093e-02
      1.18147454e-03 1.24054821e-02 2.36294902e-04 0. 9.45179607e-04 0.
      0. 1.79584119e-02 0. 6.61625713e-03 3.30812857e-03 6.56899810e-02
      2.36294902e-04 5.55292983e-03 2.77646501e-02 4.89130430e-02
      5.90737269e-04 1.07514178e-02 0. 1.86672974e-02 1.53591682e-03
      5.90737269e-04 3.87523621e-02 2.12665414e-03 8.74291081e-03
      1.84310023e-02 2.12665414e-03 1.41776935e-03 5.31663513e-03
      5.30482046e-02 1.53591682e-03 2.52835546e-02 1.18147451e-04 0.
      2.82372404e-02 0. 2.71739135e-03 6.02551969e-03 0. 7.08884676e-04
      4.37145540e-03 0. 0. 3.54442338e-04 1.20510394e-02 0.
      1.41776935e-03 1.18147451e-04 0. 4.72589803e-04 0. 0.
      3.66257085e-03 0. 1.89035921e-03 0. 3.82797718e-02 0. 0.
      2.83553870e-03 1.22873345e-02 0. 1.18147451e-04 0.</_>
    <_>
      4.76945452e-02 8.58766027e-03 2.07425021e-02 4.45237160e-02
      3.63324098e-02 5.21865487e-02 7.91385919e-02 5.79997376e-02
      5.13938442e-02 4.32025380e-02 5.85282072e-02 2.37812120e-02
      1.79680269e-02 8.71977769e-03 2.24600337e-03 2.11388562e-02
      7.92707084e-04 3.69929988e-03 4.35988884e-03 2.64235685e-04 0.
      2.37812125e-03 0. 0. 0. 8.19130708e-03 0. 7.92707084e-04 0. 0. 0.
      0. 0. 1.18906063e-03 0. 7.92707084e-04 1.32117842e-04
      2.31206231e-02 0. 0. 1.45329640e-03 1.09657813e-02 0.
      6.60589256e-04 0. 9.64460336e-03 0. 0. 2.14030910e-02 0.
      2.77447491e-03 7.13436399e-03 0. 0. 0. 4.28061821e-02 0.
      1.03051923e-02 0. 0. 3.14440466e-02 0. 0. 7.13436399e-03 0. 0.
      3.96353565e-03 0. 0. 0. 4.20134775e-02 0. 1.18906063e-03 0. 0.
      1.32117842e-04 0. 0. 1.59862600e-02 0. 6.07742090e-03
      1.58541417e-03 6.02457374e-02 0. 2.90659280e-03 3.42185237e-02
      4.42594811e-02 2.90659280e-03 1.79680269e-02 9.24824970e-04</_>
    <_>
      8.18741694e-02 1.20758358e-03 2.17365054e-03 5.22883721e-02
      2.77744234e-03 1.26796281e-02 3.99710163e-02 3.74350930e-03
      7.36626005e-03 1.25588700e-02 8.00627917e-02 8.81536026e-03
      5.78432567e-02 7.24550197e-03 4.83033451e-04 6.33981377e-02
      1.20758363e-04 1.66646540e-02 1.85967870e-02 1.81137549e-03
      1.69061706e-03 1.23173529e-02 0. 0. 1.20758363e-04 2.30648480e-02
      0. 1.69061706e-03 6.03791792e-04 0. 1.32834201e-03 0. 0.
      9.05687734e-03 0. 3.74350930e-03 1.93213380e-03 2.77744234e-02 0.
      1.08682527e-03 1.06267361e-02 2.39101555e-02 2.41516717e-03
      4.95109288e-03 0. 5.07185142e-03 9.66066902e-04 0. 2.14949884e-02
      4.83033451e-04 5.55488467e-03 1.08682523e-02 1.20758363e-04 0.
      5.91715984e-03 3.03103495e-02 0. 1.64231379e-02 0. 0.
      2.18572635e-02 0. 6.03791792e-04 1.00229438e-02 0. 2.41516726e-04
      1.06267361e-02 0. 0. 0. 1.94420964e-02 0. 5.19260950e-03
      2.41516726e-04 0. 5.43412613e-03 1.20758363e-04 0. 2.54800152e-02
      2.41516726e-04 1.61816198e-02 5.31336805e-03 8.46516117e-02
      1.20758363e-04 2.29440886e-03 3.64690237e-02 5.18053360e-02
      3.62275081e-04 8.09080992e-03 0.</_>
    <_>
      8.06716308e-02 4.14089113e-02 6.74157292e-02 6.13558888e-02
      8.64789784e-02 1.05037242e-01 8.83726776e-02 7.94091672e-02
      7.37280622e-02 3.56015638e-02 5.04986756e-02 2.63855569e-02
      1.07309679e-02 1.09834615e-02 1.26246689e-03 6.81732083e-03
      1.89370033e-03 5.17611392e-03 1.26246689e-03 1.13622018e-03
      5.04986732e-04 1.38871360e-03 0. 1.26246683e-04 1.26246683e-04
      2.52493366e-04 0. 0. 0. 0. 0. 0. 0. 0. 0. 0. 0. 0. 0. 0. 0. 0. 0.
      0. 0. 0. 0. 0. 0. 0. 0. 0. 0. 0. 0. 0. 0. 0. 0. 0. 1.26246683e-04
      0. 0. 0. 0. 0. 6.31233444e-04 0. 0. 1.26246683e-04 2.01994693e-03
      0. 2.52493366e-04 1.26246683e-04 0. 5.04986732e-04 0.
      1.26246683e-04 6.05984079e-03 1.13622018e-03 6.18608762e-03
      4.29238752e-03 1.38871353e-02 5.04986732e-04 5.93359442e-03
      4.54488061e-02 1.71695501e-02 1.69170555e-02 3.43391001e-02
      6.18608762e-03</_>
    <_>
      1.07696280e-01 0. 0. 8.26446246e-03 1.42045459e-03 2.58264458e-03
      8.26446246e-03 3.87396693e-04 1.29132229e-03 4.77789249e-03
      3.82231399e-02 9.03925626e-04 2.69886367e-02 5.16528904e-04
      1.29132226e-04 4.99741733e-02 1.16219011e-03 2.53099166e-02
      2.11776868e-02 2.71177688e-03 5.16528916e-03 2.16942150e-02
      1.80785125e-03 0. 3.09917354e-03 4.59710732e-02 1.67871895e-03
      1.34297516e-02 4.39049583e-03 0. 1.13636367e-02 3.48657020e-03
      1.54958677e-03 3.68026868e-02 2.19524791e-03 1.89824384e-02
      4.26136376e-03 1.20480374e-01 1.29132226e-04 6.45661145e-04
      4.62293401e-02 7.42510334e-02 2.45351251e-03 7.10227294e-03
      5.16528904e-04 2.37603299e-02 2.06611562e-03 2.58264458e-03
      2.46642567e-02 4.77789249e-03 8.65185913e-03 1.02014467e-02
      4.39049583e-03 2.71177688e-03 2.32438021e-03 4.32592966e-02
      1.80785125e-03 1.23966942e-02 1.29132229e-03 0. 3.80940065e-02 0.
      2.71177688e-03 2.32438021e-03 0. 0. 1.93698343e-03 0. 0. 0.
      1.40754133e-02 0. 3.87396693e-04 0. 0. 0. 0. 0. 4.26136376e-03 0.
      5.16528904e-04 0. 4.55836765e-02 0. 0. 2.71177688e-03
      1.23966942e-02 0. 6.45661145e-04 0.</_>
    <_>
      1.17510334e-01 3.35743790e-03 3.48657020e-03 1.91115700e-02
      2.45351251e-03 8.65185913e-03 1.43336775e-02 1.23966942e-02
      1.60123967e-02 1.11053716e-02 4.88119833e-02 1.38171492e-02
      1.73037183e-02 8.65185913e-03 3.09917354e-03 5.32024801e-02
      2.45351251e-03 7.74793373e-03 7.61880167e-03 1.80785125e-03
      6.45661145e-04 9.81405005e-03 9.03925626e-04 0. 1.16219011e-03
      3.12500000e-02 2.58264452e-04 2.45351251e-03 2.58264452e-04 0.
      1.29132229e-03 2.58264452e-04 0. 1.30423550e-02 3.87396693e-04
      4.26136376e-03 7.74793385e-04 6.84400797e-02 0. 3.87396693e-04
      1.35588842e-02 2.18233466e-02 0. 6.45661168e-03 0. 1.17510334e-02
      1.29132229e-03 1.29132229e-03 3.30578499e-02 1.67871895e-03
      5.03615709e-03 1.66580584e-02 1.54958677e-03 2.06611562e-03
      9.55578499e-03 6.58574402e-02 1.80785125e-03 3.03460751e-02
      6.45661145e-04 0. 7.32179731e-02 0. 9.81405005e-03 1.30423550e-02
      0. 9.03925626e-04 1.20092975e-02 0. 0. 7.74793385e-04
      5.57851233e-02 0. 4.13223123e-03 6.45661145e-04 0. 9.03925626e-04
      1.29132226e-04 0. 1.51084708e-02 0. 6.19834708e-03 1.67871895e-03
      3.74483466e-02 0. 1.42045459e-03 1.11053716e-02 1.51084708e-02 0.
      7.61880167e-03 0.</_>
    <_>
      3.87396687e-03 0. 1.29132226e-04 3.87396693e-04 6.45661145e-04
      2.32438021e-03 9.16838832e-03 2.73760334e-02 6.92148730e-02
      5.94008267e-02 8.65185931e-02 8.08367804e-02 7.94163197e-02
      9.25878063e-02 4.79080565e-02 2.10485533e-02 3.16373967e-02
      3.15082632e-02 9.16838832e-03 8.65185913e-03 4.00309917e-03
      1.03305783e-02 2.97004124e-03 1.16219011e-03 2.84090918e-03
      1.07179750e-02 1.16219011e-03 5.16528916e-03 1.93698343e-03 0.
      4.00309917e-03 1.03305781e-03 2.58264452e-04 9.29752085e-03
      9.03925626e-04 9.03925579e-03 8.00619833e-03 1.12345042e-02
      2.19524791e-03 6.58574374e-03 3.06043383e-02 1.07179750e-02
      1.21384300e-02 2.28564050e-02 2.97004124e-03 3.57696265e-02
      8.00619833e-03 1.18801650e-02 2.58264467e-02 1.09762400e-02
      2.15650834e-02 1.04597108e-02 5.29442169e-03 3.61570250e-03
      1.54958677e-03 1.30423550e-02 6.45661145e-04 3.48657020e-03 0. 0.
      5.81095042e-03 0. 1.03305781e-03 1.03305781e-03 1.29132226e-04
      1.29132226e-04 1.54958677e-03 1.29132226e-04 0. 0. 1.67871895e-03
      0. 1.29132226e-04 0. 0. 1.29132226e-04 0. 1.29132226e-04
      2.58264452e-04 1.29132226e-04 0. 0. 9.03925626e-04 0. 0.
      2.58264452e-04 5.16528904e-04 0. 0. 0.</_>
    <_>
      5.77741005e-02 3.89886578e-03 4.25330829e-03 3.31994332e-02
      5.55292983e-03 1.57136098e-02 1.97306238e-02 4.60775057e-03
      8.86105839e-03 8.50661658e-03 3.82797718e-02 2.12665414e-03
      2.00850666e-02 0. 0. 2.95368619e-02 0. 8.15217383e-03
      1.34688094e-02 3.54442338e-04 4.72589803e-04 7.56143685e-03 0. 0.
      5.90737269e-04 1.68950856e-02 1.18147451e-04 1.29962189e-03
      1.18147451e-04 0. 1.18147451e-04 1.18147451e-04 3.54442338e-04
      5.90737257e-03 3.54442338e-04 1.53591682e-03 4.72589803e-04
      3.76890376e-02 0. 4.72589803e-04 1.67769380e-02 1.94943286e-02
      5.90737269e-04 6.85255183e-03 0. 2.00850666e-02 1.89035921e-03
      2.36294908e-03 3.63894142e-02 9.92438570e-03 1.22873345e-02
      3.73345949e-02 3.66257085e-03 3.66257085e-03 1.26417773e-02
      6.36814758e-02 1.41776935e-03 6.12003766e-02 5.90737269e-04 0.
      6.92344010e-02 0. 2.58742906e-02 3.27268429e-02 1.06332707e-03
      4.72589815e-03 3.26086953e-02 0. 0. 1.77221175e-03 3.86342146e-02
      5.90737269e-04 8.86105839e-03 1.18147454e-03 0. 3.66257085e-03 0.
      0. 1.25236297e-02 0. 6.61625713e-03 1.89035921e-03 3.20179574e-02
      0. 1.18147454e-03 2.26843096e-02 2.41020788e-02 1.06332707e-03
      1.79584119e-02 0.</_>
    <_>
      7.99319744e-02 8.50340119e-04 8.50340119e-04 3.16043086e-02
      3.25963716e-03 1.11961449e-02 4.09580506e-02 4.53514745e-03
      9.77891125e-03 2.53684800e-02 9.82142836e-02 8.50340165e-03
      6.97278902e-02 5.10204071e-03 4.25170059e-04 8.02154168e-02
      2.55102036e-03 1.95578225e-02 2.90532876e-02 8.50340119e-04
      7.08616804e-04 1.99829936e-02 0. 0. 2.83446716e-04 3.86904776e-02
      0. 2.69274367e-03 5.66893432e-04 0. 1.55895692e-03 1.41723358e-04
      0. 1.62981860e-02 0. 8.21995456e-03 5.81065752e-03 8.75850320e-02
      0. 6.37755124e-03 3.74149643e-02 3.82653065e-02 3.82653065e-03
      2.25340128e-02 0. 2.40929704e-02 5.66893432e-04 0. 2.94784587e-02
      0. 1.55895692e-03 1.70068024e-03 0. 0. 2.83446716e-04
      2.43764166e-02 0. 1.27551018e-03 0. 0. 1.47392293e-02 0.
      1.41723358e-04 8.50340119e-04 0. 0. 1.13378686e-03 0. 0. 0.
      1.23299323e-02 0. 0. 0. 0. 0. 0. 0. 1.98412710e-03 0.
      2.83446716e-04 0. 5.11621311e-02 0. 2.83446716e-04 3.40136047e-03
      1.45975053e-02 1.41723358e-04 2.12585041e-03 0.</_>
    <_>
      4.00317088e-02 2.24600337e-03 5.02047827e-03 1.49293169e-02
      1.10978996e-02 2.16673277e-02 4.34667729e-02 3.22367549e-02
      6.72479868e-02 7.64962360e-02 1.40705511e-01 8.54802504e-02
      9.84277949e-02 4.28061821e-02 1.20227244e-02 6.64552748e-02
      1.04373097e-02 4.82230149e-02 2.37812120e-02 8.58766027e-03
      5.28471405e-03 2.41775662e-02 1.45329640e-03 1.32117851e-03
      1.98176783e-03 1.70432031e-02 9.24824970e-04 5.94530301e-03
      1.32117851e-03 0. 1.05694274e-03 0. 0. 5.81318559e-03 0.
      1.32117851e-03 1.32117842e-04 1.87607352e-02 0. 0. 6.60589256e-04
      5.68106771e-03 0. 0. 0. 0. 0. 0. 5.28471370e-04 0. 0.
      3.96353542e-04 0. 0. 1.32117842e-04 2.11388548e-03 0.
      7.92707084e-04 0. 0. 3.96353565e-03 0. 2.64235685e-04
      3.96353542e-04 0. 0. 4.22777096e-03 0. 0. 0. 6.20953878e-03 0.
      6.60589256e-04 0. 0. 2.64235685e-04 0. 0. 2.90659280e-03 0.
      1.05694274e-03 1.32117842e-04 2.04782672e-02 0. 2.64235685e-04
      2.77447491e-03 6.73801033e-03 1.32117842e-04 1.32117851e-03 0.</_>
    <_>
      2.36294902e-04 1.18147451e-04 0. 1.18147451e-04 0. 0. 0. 0. 0. 0.
      0. 0. 0. 0. 0. 0. 0. 0. 0. 0. 0. 0. 0. 0. 0. 0. 0. 0. 0. 0. 0. 0.
      0. 0. 0. 0. 4.72589803e-04 4.72589803e-04 0. 7.08884676e-04
      1.18147451e-04 0. 2.36294902e-04 1.53591682e-03 5.90737269e-04
      1.41776935e-03 3.07183363e-03 9.21550114e-03 2.95368629e-03
      1.38232512e-02 4.30056714e-02 7.45510384e-02 1.27481103e-01
      1.65288284e-01 1.35515124e-01 1.40595466e-01 1.00307181e-01
      6.62807152e-02 6.87618181e-02 2.15028357e-02 5.43478271e-03
      1.16965976e-02 2.59924377e-03 3.54442338e-04 4.72589803e-04
      1.18147451e-04 0. 0. 0. 0. 2.36294902e-04 0. 0. 0. 0. 0. 0. 0. 0.
      0. 0. 0. 0. 0. 0. 2.36294902e-04 0. 2.36294902e-04 2.36294902e-04
      0.</_>
    <_>
      1.83643810e-02 0. 0. 4.62412462e-03 3.96353542e-04 9.24824970e-04
      5.54894982e-03 3.96353542e-04 3.96353542e-04 8.19130708e-03
      1.84964985e-02 3.43506411e-03 2.98586339e-02 5.94530301e-03 0.
      4.67697196e-02 4.09565354e-03 4.98084277e-02 2.88016908e-02
      3.07834595e-02 2.65556872e-02 8.94437805e-02 1.75716747e-02
      6.20953878e-03 4.18813564e-02 8.41590688e-02 1.94213241e-02
      3.89747657e-02 3.65966447e-02 1.58541417e-03 2.85374559e-02
      1.47971995e-02 5.68106771e-03 5.95851503e-02 1.33439023e-02
      2.72162762e-02 1.30796675e-02 4.55806591e-02 2.51023914e-03
      7.66283507e-03 4.29382995e-02 2.52345093e-02 4.35988884e-03
      1.05694281e-02 2.64235685e-04 1.13621354e-02 2.51023914e-03
      2.51023914e-03 9.11613181e-03 1.84964994e-03 5.54894982e-03
      3.96353565e-03 9.24824970e-04 7.92707084e-04 1.05694274e-03
      1.21548418e-02 0. 2.11388548e-03 0. 0. 9.64460336e-03 0.
      1.32117842e-04 2.51023914e-03 0. 0. 1.18906063e-03 0. 0. 0.
      1.71753205e-03 0. 0. 0. 0. 0. 0. 0. 2.64235685e-04 0. 0. 0.
      7.66283507e-03 0. 0. 7.92707084e-04 1.58541417e-03 0. 0. 0.</_>
    <_>
      5.60018905e-02 8.15217383e-03 8.27032141e-03 7.43147433e-02
      1.66587904e-02 6.56899810e-02 1.06805295e-01 1.57136098e-02
      3.55623811e-02 6.25000000e-02 8.51843134e-02 1.96124762e-02
      6.35633245e-02 1.34688094e-02 5.31663513e-03 4.92674857e-02
      6.02551969e-03 2.39839312e-02 1.39413988e-02 4.96219285e-03
      2.83553870e-03 1.35869561e-02 9.45179607e-04 9.45179607e-04
      2.24480149e-03 1.07514178e-02 8.27032141e-04 2.12665414e-03
      1.29962189e-03 0. 1.53591682e-03 4.72589803e-04 1.18147451e-04
      4.72589815e-03 1.06332707e-03 2.12665414e-03 1.18147454e-03
      4.37145540e-03 0. 3.54442338e-04 1.89035921e-03 4.48960299e-03 0.
      0. 0. 5.90737269e-04 0. 0. 8.27032141e-04 0. 0. 0. 0. 0. 0.
      1.53591682e-03 0. 9.45179607e-04 0. 0. 4.13516071e-03 0.
      1.65406428e-03 2.48109642e-03 0. 3.54442338e-04 3.66257085e-03
      1.18147451e-04 0. 4.72589803e-04 1.39413988e-02 0. 2.00850656e-03
      2.36294902e-04 0. 8.27032141e-04 0. 0. 1.24054821e-02
      9.45179607e-04 9.45179630e-03 2.83553870e-03 3.86342146e-02
      9.45179607e-04 3.18998098e-03 3.69801521e-02 3.99338380e-02
      2.36294908e-03 2.54017022e-02 2.36294902e-04</_>
    <_>
      1.48532782e-02 1.56985875e-03 2.29440886e-03 5.19260950e-03
      2.89820065e-03 5.67564322e-03 1.79929957e-02 1.44910039e-02
      2.37893965e-02 2.81366985e-02 5.25298864e-02 3.58652323e-02
      2.92235240e-02 3.58652323e-02 4.95109288e-03 3.16386893e-02
      8.81536026e-03 2.01666467e-02 8.69460218e-03 1.93213380e-03
      5.07185142e-03 1.63023788e-02 2.41516726e-04 1.20758363e-04
      1.93213380e-03 9.29839350e-03 7.24550162e-04 3.13971750e-03
      8.45308532e-04 0. 1.69061706e-03 3.62275081e-04 0. 1.38872117e-02
      0. 9.05687734e-03 3.74350930e-03 2.14949884e-02 3.62275081e-04
      7.48701859e-03 3.47784087e-02 1.87175460e-02 4.58881771e-03
      3.04311067e-02 7.24550162e-04 4.15408760e-02 1.56985875e-02
      1.12305274e-02 5.76017387e-02 3.53822000e-02 3.24839987e-02
      4.67334874e-02 2.17365045e-02 2.11327132e-02 2.04081628e-02
      4.45598364e-02 1.05059771e-02 3.27255167e-02 6.27943501e-03 0.
      2.25818139e-02 1.44910032e-03 9.66066867e-03 6.88322680e-03
      1.56985875e-03 9.66066902e-04 2.41516717e-03 7.24550162e-04 0.
      3.62275081e-04 4.83033434e-03 0. 1.32834201e-03 1.20758363e-04 0.
      3.62275081e-04 0. 0. 1.44910032e-03 0. 8.45308532e-04
      2.41516726e-04 7.00398488e-03 0. 4.83033451e-04 2.17365054e-03
      2.77744234e-03 6.03791792e-04 9.66066902e-04 6.03791792e-04</_>
    <_>
      4.01753113e-02 0. 0. 4.38276120e-03 3.65230109e-04 1.09569030e-03
      3.10445577e-03 7.30460219e-04 7.30460219e-04 1.27830531e-03
      1.27830533e-02 2.55661062e-03 3.10445577e-03 7.30460219e-04 0.
      1.15047479e-02 0. 9.13075230e-04 4.38276120e-03 1.82615055e-04
      1.82615055e-04 6.02629641e-03 0. 0. 0. 1.57048944e-02 0.
      2.00876547e-03 0. 0. 3.65230092e-03 0. 0. 1.57048944e-02
      1.82615055e-04 8.03506188e-03 1.46092044e-03 4.78451438e-02
      5.47845149e-04 9.13075230e-04 2.64791828e-02 4.65668365e-02 0.
      8.03506188e-03 0. 3.10445577e-02 2.55661062e-03 2.55661062e-03
      5.86194284e-02 8.58290680e-03 2.19138060e-02 5.44192828e-02
      5.11322124e-03 1.84441190e-02 2.75748726e-02 9.14901420e-02
      1.33308982e-02 8.96639898e-02 4.38276120e-03 0. 7.79766217e-02
      1.64353545e-03 5.31409793e-02 3.57925482e-02 1.46092044e-03
      6.39152667e-03 2.84879468e-02 1.46092044e-03 0. 5.84368175e-03
      2.28268802e-02 2.92184087e-03 9.13075265e-03 2.73922575e-03 0.
      3.65230109e-04 0. 0. 7.85244722e-03 0. 4.20014607e-03
      2.37399573e-03 1.75310448e-02 0. 1.82615046e-03 5.84368175e-03
      6.75675692e-03 0. 2.37399573e-03 0.</_>
    <_>
      1.07632324e-01 8.27032141e-04 1.18147451e-04 2.44565215e-02
      1.29962189e-03 8.27032141e-03 1.07514178e-02 5.90737269e-04
      8.27032141e-04 3.42627591e-03 4.92674857e-02 1.29962189e-03
      2.48109642e-02 1.18147451e-04 0. 3.62712666e-02 0. 7.32514169e-03
      1.14603024e-02 0. 7.08884676e-04 1.00425333e-02 0. 0.
      3.54442338e-04 2.70557664e-02 9.45179607e-04 3.54442350e-03
      5.90737269e-04 0. 1.06332707e-03 1.18147451e-04 0. 1.28780715e-02
      1.18147451e-04 6.02551969e-03 2.48109642e-03 5.61200380e-02 0.
      5.90737269e-04 1.32325143e-02 2.43383739e-02 0. 3.78071843e-03 0.
      1.46502834e-02 1.06332707e-03 2.00850656e-03 3.54442336e-02
      5.31663513e-03 1.34688094e-02 2.35113427e-02 8.27032141e-04
      1.18147454e-03 6.61625713e-03 4.84404527e-02 4.72589803e-04
      4.12334576e-02 1.18147451e-04 0. 6.27362952e-02 0. 1.08695654e-02
      2.63468809e-02 7.08884676e-04 4.72589803e-04 2.12665405e-02
      1.18147451e-04 0. 4.72589803e-04 5.76559529e-02 0. 1.37051037e-02
      2.12665414e-03 0. 3.30812857e-03 0. 0. 2.72920597e-02 0.
      1.11058597e-02 2.36294908e-03 7.67958388e-02 0. 3.54442338e-04
      5.55292983e-03 2.38657836e-02 5.90737269e-04 5.19848755e-03 0.</_>
    <_>
      6.94252104e-02 2.25069257e-03 6.40581734e-03 2.73545701e-02
      1.57548469e-02 2.28531864e-02 4.12049852e-02 2.14681439e-02
      3.89542952e-02 3.42797786e-02 7.79085904e-02 1.93905812e-02
      3.42797786e-02 3.11634340e-03 1.03878113e-03 4.43213284e-02
      8.65650945e-04 1.12534622e-02 1.05609419e-02 1.21191132e-03
      6.92520756e-04 1.19459834e-02 6.92520756e-04 0. 5.19390567e-04
      1.88711919e-02 5.19390567e-04 2.42382265e-03 6.92520756e-04
      3.46260378e-04 2.07756227e-03 3.46260378e-04 0. 4.67451522e-03
      1.73130189e-04 1.73130189e-03 6.92520756e-04 3.54916900e-02 0.
      1.73130189e-04 3.28947371e-03 1.31578948e-02 0. 0. 0.
      2.07756227e-03 1.73130189e-04 1.73130189e-04 1.05609419e-02
      5.19390567e-04 5.19390567e-04 9.86842066e-03 1.73130189e-04
      3.46260378e-04 3.46260378e-03 2.92590037e-02 1.90443208e-03
      2.71814410e-02 5.19390567e-04 0. 4.29362878e-02 0. 2.38919668e-02
      2.87396125e-02 2.42382265e-03 5.71329659e-03 2.99515240e-02
      5.19390567e-04 0. 2.25069257e-03 2.80470923e-02 2.42382265e-03
      3.80886416e-03 2.07756227e-03 0. 1.03878113e-03 0. 0.
      1.95637122e-02 1.73130189e-04 1.10803321e-02 2.94321333e-03
      5.19390590e-02 1.73130189e-04 2.25069257e-03 2.44113579e-02
      2.82202214e-02 1.90443208e-03 1.33310249e-02 1.03878113e-03</_>
    <_>
      8.24390873e-02 6.31233444e-04 0. 2.32293904e-02 1.13622018e-03
      1.16146952e-02 2.63855569e-02 5.17611392e-03 1.51496027e-02
      2.34818831e-02 8.33228156e-02 3.10566854e-02 1.08319655e-01
      2.17144303e-02 5.80734760e-03 1.00366116e-01 8.83726776e-03
      7.01931566e-02 4.29238714e-02 5.80734760e-03 5.42860758e-03
      4.24188860e-02 5.04986732e-04 2.52493366e-04 1.00997346e-03
      3.78740057e-02 5.04986732e-04 6.31233444e-03 7.57480098e-04 0.
      1.89370033e-03 0. 0. 5.93359442e-03 0. 2.77742720e-03
      1.26246683e-04 5.11299074e-02 0. 0. 2.90367380e-03 2.19669230e-02
      0. 0. 0. 6.31233444e-04 0. 0. 1.12359552e-02 0. 8.83726811e-04
      2.27244035e-03 0. 5.04986732e-04 5.04986732e-04 1.17409416e-02 0.
      1.26246689e-03 0. 0. 1.45183690e-02 0. 2.14619376e-03
      2.90367380e-03 0. 0. 1.38871360e-03 0. 0. 2.52493366e-04
      4.41863388e-03 0. 2.52493366e-04 0. 0. 0. 0. 0. 4.03989386e-03 0.
      1.51496020e-03 1.26246683e-04 5.37810884e-02 0. 5.04986732e-04
      9.08976141e-03 2.31031440e-02 0. 3.53490724e-03 0.</_>
    <_>
      9.52268466e-02 3.54442338e-04 4.72589803e-04 3.56805287e-02
      4.72589803e-04 5.31663513e-03 1.91398859e-02 7.08884676e-04
      1.41776935e-03 7.79773155e-03 7.07703233e-02 4.01701313e-03
      4.19423431e-02 1.53591682e-03 3.54442338e-04 4.33601141e-02
      2.36294902e-04 9.09735356e-03 1.51228737e-02 1.53591682e-03
      5.90737269e-04 5.55292983e-03 1.18147451e-04 0. 4.72589803e-04
      1.76039692e-02 1.18147451e-04 1.06332707e-03 1.18147451e-04 0.
      9.45179607e-04 0. 0. 4.84404527e-03 0. 1.89035921e-03
      4.72589803e-04 5.56474477e-02 5.90737269e-04 5.90737269e-04
      9.21550114e-03 2.16209833e-02 2.36294902e-04 3.30812857e-03 0.
      4.84404527e-03 3.54442338e-04 2.00850656e-03 1.38232512e-02
      2.48109642e-03 6.26181485e-03 1.15784500e-02 1.06332707e-03
      7.08884676e-04 2.83553870e-03 4.19423431e-02 7.08884676e-04
      2.68194713e-02 3.54442338e-04 1.18147451e-04 7.83317611e-02
      5.90737269e-04 9.09735356e-03 2.67013237e-02 2.36294902e-04
      5.90737269e-04 2.12665405e-02 0. 0. 4.72589803e-04 6.47448003e-02
      1.18147451e-04 3.78071843e-03 4.72589803e-04 0. 1.89035921e-03
      4.72589803e-04 0. 3.08364835e-02 0. 9.09735356e-03 1.18147454e-03
      8.83742943e-02 0. 1.18147451e-04 1.66587904e-02 4.86767478e-02 0.
      8.27032141e-04 0.</_>
    <_>
      1.02788284e-02 0. 0. 3.78071843e-03 2.36294902e-04 2.00850656e-03
      4.37145540e-03 6.02551969e-03 1.40595464e-02 1.55954631e-02
      4.19423431e-02 5.17485812e-02 8.19943324e-02 6.22637048e-02
      2.76465025e-02 5.15122861e-02 2.41020788e-02 6.03733473e-02
      2.35113427e-02 1.94943286e-02 1.22873345e-02 4.93856333e-02
      4.25330829e-03 1.41776935e-03 1.06332703e-02 4.13516052e-02
      4.84404527e-03 2.39839312e-02 1.07514178e-02 1.18147451e-04
      1.63043477e-02 3.42627591e-03 8.27032141e-04 4.38327044e-02
      4.96219285e-03 2.11483929e-02 1.60680525e-02 3.89886573e-02
      3.07183363e-03 9.45179630e-03 4.37145568e-02 2.97731571e-02
      3.54442350e-03 1.07514178e-02 1.18147451e-04 1.57136098e-02
      1.41776935e-03 2.36294908e-03 1.20510394e-02 2.59924377e-03
      4.37145540e-03 5.78922499e-03 1.77221175e-03 1.18147454e-03
      8.27032141e-04 1.48865785e-02 7.08884676e-04 3.54442350e-03
      1.18147451e-04 0. 5.55292983e-03 0. 9.45179607e-04 2.24480149e-03
      0. 0. 1.18147454e-03 0. 0. 2.36294902e-04 4.84404527e-03 0.
      3.54442338e-04 4.72589803e-04 0. 7.08884676e-04 0. 0.
      1.77221175e-03 0. 1.18147451e-04 0. 5.90737257e-03 0. 0.
      1.18147451e-04 2.12665414e-03 0. 1.18147451e-04 0.</_>
    <_>
      3.83141753e-03 0. 1.32117842e-04 5.28471370e-04 3.96353542e-04
      5.28471370e-04 5.28471370e-04 0. 6.60589256e-04 6.60589256e-04
      3.69929988e-03 1.05694274e-03 3.43506411e-03 6.60589256e-04
      2.64235685e-04 6.07742090e-03 1.98176783e-03 9.24824923e-03
      5.54894982e-03 3.30294622e-03 2.77447491e-03 8.85189604e-03
      5.28471370e-04 3.96353542e-04 6.60589256e-04 1.01730740e-02
      7.92707084e-04 4.88836039e-03 2.24600337e-03 2.64235685e-04
      4.75624250e-03 1.98176783e-03 1.18906063e-03 1.50614344e-02
      2.51023914e-03 9.64460336e-03 4.75624250e-03 1.73074380e-02
      5.28471370e-04 8.85189604e-03 4.49200682e-02 3.39542888e-02
      1.25511959e-02 5.66785559e-02 1.18906063e-03 5.07332534e-02
      2.57629808e-02 3.39542888e-02 6.97582215e-02 6.26238585e-02
      7.53071755e-02 7.94028267e-02 6.52662143e-02 7.01545775e-02
      3.14440466e-02 6.15669191e-02 3.56718190e-02 1.55899059e-02
      1.09657813e-02 1.58541417e-03 8.45554192e-03 2.11388548e-03
      3.17082833e-03 2.51023914e-03 0. 0. 1.32117842e-04 0. 0. 0.
      3.96353542e-04 0. 0. 0. 0. 0. 0. 0. 1.32117842e-04 0. 0. 0.
      3.30294622e-03 0. 0. 0. 0. 0. 0. 0.</_>
    <_>
      7.48642832e-02 1.48971090e-02 2.27244031e-02 5.79472296e-02
      3.33291255e-02 3.86314876e-02 5.99671751e-02 2.20931694e-02
      3.39603573e-02 1.88107565e-02 7.25918412e-02 6.56482764e-03
      3.66115384e-02 2.52493378e-03 0. 2.65118033e-02 5.04986732e-04
      9.72099509e-03 1.24984216e-02 1.51496020e-03 8.83726811e-04
      4.41863388e-03 0. 0. 0. 4.92362073e-03 0. 1.51496020e-03 0. 0. 0.
      0. 0. 7.57480098e-04 0. 0. 0. 1.09834615e-02 0. 0. 1.26246683e-04
      1.38871360e-03 0. 1.00997346e-03 0. 1.00997346e-03 0. 0.
      4.41863388e-03 0. 1.26246683e-04 5.04986732e-04 0. 0.
      5.04986732e-04 2.38606241e-02 0. 3.78740067e-03 0. 0.
      3.39603573e-02 0. 1.26246683e-04 5.04986756e-03 0. 0.
      9.46850143e-03 0. 0. 0. 3.40866037e-02 0. 9.34225507e-03 0. 0.
      1.76745362e-03 0. 0. 2.41131168e-02 1.13622018e-03 1.07309679e-02
      4.16614069e-03 7.70104751e-02 0. 8.07978772e-03 7.57480115e-02
      5.52960485e-02 1.12359552e-02 3.02992053e-02 1.89370033e-03</_>
    <_>
      8.87138397e-02 3.74483480e-03 6.71487581e-03 1.65289249e-02
      1.40754133e-02 1.87241733e-02 3.08626033e-02 1.98863633e-02
      2.76342984e-02 2.28564050e-02 4.51962799e-02 1.83367766e-02
      2.89256200e-02 9.16838832e-03 1.67871895e-03 4.04183902e-02
      9.03925626e-04 1.25258267e-02 1.69163216e-02 1.16219011e-03
      1.54958677e-03 1.21384300e-02 5.16528904e-04 1.29132226e-04
      9.03925626e-04 1.94989666e-02 2.58264452e-04 3.35743790e-03 0. 0.
      1.29132226e-04 0. 0. 1.00723142e-02 0. 2.58264452e-04
      1.03305781e-03 4.90702465e-02 0. 1.29132226e-04 1.36880167e-02
      2.87964884e-02 0. 6.19834708e-03 0. 1.40754133e-02 2.58264452e-04
      5.16528904e-04 3.08626033e-02 3.61570250e-03 1.33006200e-02
      3.12500000e-02 2.58264458e-03 4.13223123e-03 1.22675616e-02
      4.58419435e-02 4.13223123e-03 4.19679768e-02 9.03925626e-04 0.
      4.44214866e-02 1.29132226e-04 2.06611566e-02 2.23398767e-02
      1.67871895e-03 1.16219011e-03 1.51084708e-02 9.03925626e-04 0.
      2.84090918e-03 2.28564050e-02 1.67871895e-03 1.67871895e-03
      7.74793385e-04 0. 3.87396693e-04 2.58264452e-04 0. 7.48966960e-03
      0. 7.74793385e-04 2.58264452e-04 4.10640500e-02 0. 1.03305781e-03
      1.04597108e-02 1.54958675e-02 1.54958677e-03 6.58574374e-03 0.</_>
    <_>
      1.67789664e-02 0. 0. 0. 0. 0. 0. 0. 0. 1.32117842e-04
      6.60589256e-04 1.32117842e-04 3.43506411e-03 3.96353542e-04
      3.96353542e-04 1.04373097e-02 2.77447491e-03 8.58766027e-03
      2.77447491e-03 2.51023914e-03 6.60589256e-04 3.56718199e-03
      7.92707084e-04 3.96353542e-04 2.64235702e-03 2.95943990e-02
      1.18906063e-03 4.62412462e-03 2.64235702e-03 0. 5.41683193e-03
      9.24824970e-04 2.64235685e-04 2.98586339e-02 3.30294622e-03
      2.41775662e-02 1.13621354e-02 8.37627128e-02 1.58541417e-03
      9.38036758e-03 1.65015191e-01 1.15338884e-01 9.64460336e-03
      1.03051923e-01 9.24824970e-04 9.78993252e-02 1.74395554e-02
      8.85189604e-03 9.80314463e-02 8.19130708e-03 3.38221677e-02
      3.03871054e-02 1.32117851e-03 2.11388548e-03 2.11388548e-03
      2.90659275e-02 0. 6.60589244e-03 0. 0. 2.24600337e-03 0.
      6.60589256e-04 6.60589256e-04 0. 0. 1.32117842e-04 0. 0. 0.
      3.96353542e-04 0. 0. 0. 0. 0. 0. 0. 0. 0. 0. 0. 9.24824970e-04 0.
      0. 0. 0. 0. 0. 0.</_>
    <_>
      2.40670629e-02 6.76041096e-03 1.97404008e-02 4.52947542e-02
      4.27257977e-02 4.77285013e-02 8.26122239e-02 4.79989201e-02
      7.86911845e-02 7.22011924e-02 1.21687397e-01 7.54461884e-02
      5.96268252e-02 4.00216319e-02 4.59707947e-03 5.82747422e-02
      1.02758249e-02 2.20389403e-02 1.13574909e-02 1.75770686e-03
      2.43374798e-03 1.09518655e-02 4.05624654e-04 1.35208218e-04
      1.75770686e-03 5.00270398e-03 6.76041120e-04 1.08166575e-03
      1.35208218e-04 0. 1.35208218e-04 0. 0. 2.70416448e-03 0.
      5.40832873e-04 0. 7.16603547e-03 0. 0. 1.21687399e-03
      3.92103847e-03 0. 0. 0. 2.70416436e-04 0. 0. 1.35208218e-04 0. 0.
      1.35208218e-04 0. 0. 0. 9.46457556e-04 0. 1.35208218e-04 0. 0.
      1.48729037e-03 0. 1.35208218e-04 9.46457556e-04 0. 0.
      1.08166575e-03 0. 0. 0. 6.89561944e-03 0. 1.21687399e-03
      1.35208218e-04 0. 1.35208218e-04 0. 0. 6.21957798e-03
      1.35208218e-04 1.75770686e-03 9.46457556e-04 2.31206063e-02 0.
      3.51541373e-03 1.23039484e-02 1.54137369e-02 2.70416436e-04
      1.14926985e-02 0.</_>
    <_>
      2.40929704e-02 8.50340119e-04 4.10997728e-03 1.06292516e-02
      9.77891125e-03 1.95578225e-02 4.43594120e-02 6.22165538e-02
      9.24036279e-02 6.71768710e-02 9.84977335e-02 6.93027228e-02
      5.88151924e-02 5.17290235e-02 1.11961449e-02 5.04535139e-02
      1.06292516e-02 3.34467106e-02 1.37471659e-02 4.39342391e-03
      4.96031763e-03 1.88492071e-02 2.26757373e-03 4.25170059e-04
      1.84240367e-03 1.65816322e-02 2.83446716e-04 4.25170083e-03
      1.98412710e-03 2.83446716e-04 2.69274367e-03 1.55895692e-03
      1.41723361e-03 7.51133775e-03 7.08616804e-04 1.02040814e-02
      2.69274367e-03 2.18253974e-02 2.83446716e-04 8.50340119e-04
      9.21201799e-03 1.55895688e-02 4.25170059e-04 3.96825420e-03 0.
      4.96031763e-03 5.66893432e-04 0. 1.43140592e-02 0. 1.70068024e-03
      6.23582769e-03 0. 0. 3.11791385e-03 1.70068033e-02 0.
      9.07029491e-03 0. 0. 1.64399091e-02 0. 6.66099787e-03
      1.21882083e-02 1.41723358e-04 1.41723358e-04 5.24376426e-03 0. 0.
      0. 6.80272095e-03 0. 1.55895692e-03 1.41723358e-04 0.
      2.83446716e-04 0. 0. 2.83446722e-03 0. 1.13378686e-03
      4.25170059e-04 1.36054419e-02 0. 2.83446716e-04 9.92063549e-04
      5.10204071e-03 2.83446716e-04 5.66893432e-04 1.41723358e-04</_>
    <_>
      7.02866986e-02 0. 0. 5.02047827e-03 0. 3.96353542e-04
      1.05694274e-03 0. 0. 5.28471370e-04 1.08336639e-02 3.96353542e-04
      5.02047827e-03 0. 0. 2.58950982e-02 1.71753205e-03 1.62504949e-02
      1.01730740e-02 4.75624250e-03 3.17082833e-03 1.73074380e-02
      1.45329640e-03 9.24824970e-04 2.90659280e-03 3.02549880e-02
      1.58541417e-03 4.22777096e-03 3.03871045e-03 3.96353542e-04
      4.22777096e-03 2.90659280e-03 1.45329640e-03 1.49293169e-02
      2.11388548e-03 1.07015455e-02 6.73801033e-03 9.14255530e-02
      1.32117842e-04 4.62412462e-03 2.81411018e-02 4.90157232e-02
      1.05694274e-03 1.51935527e-02 2.64235685e-04 2.66878046e-02
      3.56718199e-03 4.75624250e-03 4.92799580e-02 8.45554192e-03
      2.33848598e-02 4.65054847e-02 5.41683193e-03 1.32117849e-02
      1.81001462e-02 6.11705631e-02 7.92707130e-03 6.43413961e-02
      2.90659280e-03 3.96353542e-04 7.14757591e-02 1.32117851e-03
      2.57629808e-02 2.29885057e-02 3.17082833e-03 2.51023914e-03
      1.58541426e-02 3.96353542e-04 0. 3.96353542e-04 1.94213241e-02
      5.28471370e-04 4.88836039e-03 7.92707084e-04 0. 2.37812125e-03 0.
      0. 3.17082833e-03 0. 1.84964994e-03 5.28471370e-04 2.23279167e-02
      0. 0. 3.17082833e-03 1.00409565e-02 0. 3.96353542e-04 0.</_>
    <_>
      5.76559529e-02 4.48960299e-03 8.86105839e-03 4.92674857e-02
      1.53591679e-02 3.65075618e-02 5.86011335e-02 2.26843096e-02
      3.54442336e-02 3.47353481e-02 7.96313807e-02 2.76465025e-02
      5.87192811e-02 1.76039692e-02 3.89886578e-03 6.40359148e-02
      8.62476416e-03 4.93856333e-02 2.52835546e-02 1.12240072e-02
      7.79773155e-03 2.69376189e-02 2.71739135e-03 2.12665414e-03
      2.95368629e-03 2.80009452e-02 2.36294908e-03 1.05151227e-02
      2.24480149e-03 1.18147451e-04 4.96219285e-03 8.27032141e-04 0.
      1.34688094e-02 1.18147451e-04 5.55292983e-03 2.59924377e-03
      1.45321358e-02 0. 2.36294902e-04 6.73440471e-03 6.85255183e-03 0.
      3.54442338e-04 0. 1.41776935e-03 0. 0. 1.29962189e-03 0.
      2.36294902e-04 2.36294902e-04 0. 0. 0. 6.37996197e-03 0.
      2.48109642e-03 0. 0. 9.45179630e-03 0. 3.54442338e-04
      2.95368629e-03 0. 0. 2.71739135e-03 0. 0. 0. 1.54773155e-02 0.
      1.53591682e-03 7.08884676e-04 0. 2.71739135e-03 4.72589803e-04
      2.36294902e-04 1.24054821e-02 3.54442338e-04 8.86105839e-03
      4.48960299e-03 3.37901711e-02 0. 4.01701313e-03 2.94187143e-02
      3.27268429e-02 2.83553870e-03 1.00425333e-02 7.08884676e-04</_>
    <_>
      5.42296804e-02 9.45179607e-04 2.00850656e-03 2.23298669e-02
      5.19848755e-03 1.26417773e-02 1.93761811e-02 2.95368629e-03
      5.78922499e-03 7.91587867e-03 4.46597338e-02 5.90737257e-03
      3.33175808e-02 3.54442350e-03 8.27032141e-04 5.06852567e-02
      2.59924377e-03 2.87098307e-02 2.54017022e-02 7.08884699e-03
      5.19848755e-03 3.18998098e-02 2.24480149e-03 2.59924377e-03
      6.37996197e-03 4.83223051e-02 3.30812857e-03 1.03969751e-02
      5.19848755e-03 4.72589803e-04 6.26181485e-03 2.83553870e-03
      7.08884676e-04 2.63468809e-02 5.19848755e-03 1.21691870e-02
      8.15217383e-03 7.26606771e-02 6.02551969e-03 6.02551969e-03
      3.95793952e-02 3.69801521e-02 5.31663513e-03 1.21691870e-02
      9.45179607e-04 1.83128547e-02 2.71739135e-03 3.78071843e-03
      3.30812857e-02 4.60775057e-03 9.80623811e-03 1.22873345e-02
      1.18147454e-03 8.27032141e-04 2.48109642e-03 3.50897908e-02
      1.18147451e-04 1.32325143e-02 1.18147451e-04 0. 2.96550095e-02 0.
      5.19848755e-03 8.27032141e-03 0. 3.54442338e-04 6.14366727e-03 0.
      0. 4.72589803e-04 1.94943286e-02 1.18147451e-04 2.12665414e-03
      7.08884676e-04 0. 9.45179607e-04 3.54442338e-04 0. 7.32514169e-03
      2.36294902e-04 1.53591682e-03 1.06332707e-03 4.66682427e-02 0.
      1.18147451e-04 1.02788284e-02 2.46928167e-02 0. 3.07183363e-03 0.</_>
    <_>
      4.92674857e-02 1.14603024e-02 1.78402644e-02 6.40359148e-02
      3.57986763e-02 5.56474477e-02 1.06096409e-01 4.45415862e-02
      5.45841195e-02 5.35207950e-02 8.86105895e-02 3.83979194e-02
      6.37996197e-02 2.17391308e-02 3.42627591e-03 4.74952757e-02
      7.44328927e-03 2.42202263e-02 1.65406428e-02 2.12665414e-03
      3.54442350e-03 1.07514178e-02 5.90737269e-04 2.36294902e-04
      2.59924377e-03 1.66587904e-02 1.18147451e-04 1.77221175e-03
      7.08884676e-04 0. 3.54442338e-04 0. 0. 5.78922499e-03 0.
      3.18998098e-03 1.06332707e-03 1.11058597e-02 0. 5.90737269e-04
      5.67107741e-03 4.60775057e-03 0. 4.72589803e-04 0. 7.08884676e-04
      2.36294902e-04 1.18147451e-04 1.77221175e-03 0. 0. 3.54442338e-04
      0. 0. 0. 4.01701313e-03 0. 1.29962189e-03 0. 0. 6.26181485e-03 0.
      4.72589803e-04 3.54442338e-04 0. 0. 1.65406428e-03 0. 0. 0.
      7.79773155e-03 0. 2.00850656e-03 1.18147451e-04 0. 7.08884676e-04
      0. 0. 6.49810955e-03 2.36294902e-04 5.78922499e-03 1.53591682e-03
      1.91398859e-02 0. 1.89035921e-03 1.87854450e-02 2.16209833e-02
      1.06332707e-03 1.89035926e-02 2.36294902e-04</_>
    <_>
      4.83033434e-03 0. 0. 0. 0. 0. 0. 0. 0. 0. 4.22654254e-03
      1.32834201e-03 1.81137549e-03 3.38123413e-03 1.93213380e-03
      5.79640130e-03 3.98502592e-03 6.40019309e-03 3.38123413e-03
      5.79640130e-03 2.17365054e-03 1.31626613e-02 3.01895896e-03
      3.38123413e-03 4.58881771e-03 2.00458877e-02 1.93213380e-03
      7.84929376e-03 3.98502592e-03 1.56985875e-03 6.40019309e-03
      3.38123413e-03 1.93213380e-03 2.35478804e-02 6.15867646e-03
      2.11327132e-02 1.43702449e-02 3.90049517e-02 2.77744234e-03
      3.10348999e-02 1.28124624e-01 4.67334874e-02 2.25818139e-02
      1.26433998e-01 3.38123413e-03 1.14116654e-01 2.46347059e-02
      8.57384410e-03 1.11339211e-01 7.24550197e-03 3.88841927e-02
      3.07933819e-02 2.77744234e-03 2.17365054e-03 5.91715984e-03
      3.74350920e-02 6.03791792e-04 1.26796281e-02 0. 0. 1.09890113e-02
      0. 1.56985875e-03 3.62275098e-03 0. 0. 1.08682527e-03 0. 0. 0.
      1.56985875e-03 0. 0. 0. 0. 0. 0. 0. 0. 0. 0. 0. 2.41516717e-03 0.
      0. 0. 0. 0. 0. 0.</_>
    <_>
      1.27004161e-01 1.89370033e-03 1.26246689e-03 3.25716436e-02
      4.29238752e-03 1.78007819e-02 3.68640311e-02 1.04784751e-02
      2.18406767e-02 2.47443505e-02 8.05453882e-02 2.19669230e-02
      5.23923747e-02 1.07309679e-02 3.78740049e-04 5.70635013e-02
      3.02992039e-03 1.91894956e-02 1.51496027e-02 1.64120691e-03
      1.26246689e-03 6.56482764e-03 5.04986732e-04 0. 2.52493366e-04
      1.06047215e-02 0. 7.57480098e-04 0. 0. 0. 0. 0. 2.65118037e-03 0.
      1.76745362e-03 0. 4.05251868e-02 0. 0. 3.66115384e-03
      1.57808363e-02 0. 2.52493366e-04 0. 4.67112754e-03 0. 0.
      1.79270301e-02 2.52493366e-04 1.26246689e-03 1.17409416e-02
      5.04986732e-04 5.04986732e-04 1.89370033e-03 5.36548421e-02
      3.78740049e-04 2.71430369e-02 0. 0. 6.03459142e-02 0.
      3.66115384e-03 1.42658753e-02 0. 0. 7.19606131e-03 0. 0. 0.
      3.96414585e-02 1.26246683e-04 2.52493378e-03 1.00997346e-03 0.
      3.78740049e-04 0. 0. 1.36346417e-02 0. 3.15616722e-03
      1.26246689e-03 5.88309541e-02 0. 1.26246683e-04 1.16146952e-02
      3.15616727e-02 0. 5.30236075e-03 0.</_>
    <_>
      2.07756236e-02 2.25069257e-03 3.11634340e-03 4.74376716e-02
      4.67451522e-03 1.59279779e-02 7.37534612e-02 5.88642666e-03
      2.97783930e-02 4.57063727e-02 8.88157859e-02 4.81301956e-02
      1.25865653e-01 2.94321328e-02 1.38504151e-03 9.72991660e-02
      6.23268681e-03 8.48337933e-02 3.60110812e-02 1.03878118e-02
      9.34903044e-03 3.39335166e-02 6.92520756e-04 3.46260378e-04
      3.80886416e-03 1.85249299e-02 1.73130189e-04 9.52216052e-03
      3.11634340e-03 0. 2.77008303e-03 5.19390567e-04 1.73130189e-04
      1.21191135e-02 8.65650945e-04 5.71329659e-03 5.19390567e-04
      9.17590037e-03 1.73130189e-04 2.59695295e-03 1.17728533e-02
      5.71329659e-03 0. 5.19390590e-03 0. 2.07756227e-03 0. 0.
      3.11634340e-03 0. 0. 6.92520756e-04 0. 0. 0. 3.63573409e-03 0.
      1.03878113e-03 0. 0. 3.98199446e-03 0. 0. 1.55817170e-03 0. 0.
      1.73130189e-04 0. 0. 0. 3.46260378e-03 0. 1.38504151e-03 0. 0.
      1.73130189e-03 0. 0. 1.02146817e-02 0. 4.67451522e-03
      1.21191132e-03 1.59279779e-02 0. 0. 1.05609419e-02 1.48891965e-02
      1.73130189e-04 5.02077583e-03 0.</_>
    <_>
      6.54407814e-02 2.93401834e-02 5.13791256e-02 7.07139000e-02
      6.01676591e-02 8.11249316e-02 1.02623038e-01 6.26014099e-02
      6.81449398e-02 4.90805842e-02 7.54461884e-02 2.58247703e-02
      4.28610072e-02 9.87020042e-03 9.46457556e-04 2.70416439e-02
      2.16333149e-03 5.67874545e-03 7.03082746e-03 9.46457556e-04
      1.35208218e-04 9.46457556e-04 0. 0. 0. 2.29853974e-03 0. 0. 0. 0.
      0. 0. 0. 6.76041120e-04 0. 5.40832873e-04 1.35208218e-04
      6.76041120e-04 0. 0. 0. 0. 0. 0. 0. 0. 0. 0. 0. 0. 0. 0. 0. 0. 0.
      2.70416436e-04 0. 2.70416436e-04 0. 0. 4.05624654e-04 0. 0. 0. 0.
      0. 0. 0. 0. 0. 2.83937273e-03 0. 2.29853974e-03 0. 0.
      2.83937273e-03 0. 0. 8.24770145e-03 0. 5.00270398e-03
      2.70416448e-03 1.13574909e-02 1.08166575e-03 2.97458074e-03
      3.16387229e-02 3.94808017e-02 5.81395347e-03 3.55597623e-02
      3.38020548e-03</_>
    <_>
      4.27631587e-02 3.46260378e-03 2.07756227e-03 1.55817177e-02
      3.80886416e-03 9.86842066e-03 1.57548469e-02 3.28947371e-03
      2.42382265e-03 3.80886416e-03 1.73130203e-02 5.19390567e-04
      9.52216052e-03 0. 0. 2.09487528e-02 0. 2.25069257e-03
      3.46260378e-03 5.19390567e-04 0. 6.05955673e-03 0. 0.
      1.73130189e-04 9.69529059e-03 0. 2.07756227e-03 0. 0.
      2.25069257e-03 0. 0. 4.67451522e-03 6.92520756e-04 4.32825508e-03
      5.19390567e-04 2.47576181e-02 0. 1.21191132e-03 6.75207749e-03
      1.02146817e-02 3.46260378e-04 2.94321333e-03 0. 1.15997232e-02
      1.55817170e-03 1.03878113e-03 2.12950148e-02 3.63573409e-03
      1.09072020e-02 2.56232694e-02 2.42382265e-03 8.48337915e-03
      1.78324096e-02 4.43213284e-02 1.50623266e-02 5.48822731e-02
      1.81786697e-02 6.92520756e-04 9.00276974e-02 7.44459825e-03
      8.37950110e-02 3.99930738e-02 1.28116347e-02 1.88711919e-02
      6.14612177e-02 2.42382265e-03 3.46260378e-04 7.79085886e-03
      4.36288081e-02 1.55817170e-03 1.67936292e-02 6.23268681e-03 0.
      9.17590037e-03 1.38504151e-03 1.73130189e-04 2.40650978e-02
      1.90443208e-03 1.05609419e-02 5.02077583e-03 2.78739613e-02
      1.73130189e-04 3.98199446e-03 2.28531864e-02 1.40235461e-02
      2.94321333e-03 1.10803321e-02 0.</_>
    <_>
      3.03871045e-03 1.32117842e-04 0. 7.92707084e-04 0. 2.64235685e-04
      1.32117851e-03 9.24824970e-04 1.18906063e-03 3.56718199e-03
      1.01730740e-02 1.58541426e-02 3.96353565e-02 4.84872498e-02
      3.67287621e-02 2.23279167e-02 4.12207693e-02 8.32342431e-02
      2.32527424e-02 3.55397016e-02 2.62914523e-02 6.75122216e-02
      2.04782672e-02 2.81411018e-02 4.88836057e-02 4.34667729e-02
      2.12709736e-02 3.28973457e-02 4.01638262e-02 4.49200673e-03
      2.91980449e-02 2.21957993e-02 8.71977769e-03 4.43915986e-02
      1.40044922e-02 2.60272156e-02 1.98176783e-02 2.44418029e-02
      3.83141753e-03 1.10978996e-02 4.14850041e-02 9.51248500e-03
      1.98176783e-03 1.22869601e-02 1.32117842e-04 1.14942528e-02
      2.11388548e-03 2.64235685e-04 6.60589244e-03 7.92707084e-04
      1.58541417e-03 5.28471370e-04 0. 1.32117842e-04 0. 2.77447491e-03
      0. 3.96353542e-04 0. 0. 2.64235685e-04 0. 2.64235685e-04
      1.32117842e-04 0. 0. 2.64235685e-04 0. 0. 0. 6.60589256e-04 0.
      3.96353542e-04 0. 0. 0. 0. 0. 1.32117842e-04 0. 0. 0.
      7.92707084e-04 0. 0. 0. 0. 0. 0. 0.</_>
    <_>
      7.81466961e-02 2.00732239e-02 2.95417253e-02 6.80469647e-02
      3.05516981e-02 5.79472296e-02 7.13293776e-02 4.09039259e-02
      4.75950018e-02 3.30766328e-02 6.80469647e-02 1.95682365e-02
      4.34288606e-02 1.02259815e-02 1.51496020e-03 2.70167906e-02
      1.89370033e-03 1.12359552e-02 1.27509153e-02 1.00997346e-03
      1.38871360e-03 5.55485440e-03 2.52493366e-04 2.52493366e-04
      5.04986732e-04 7.82729499e-03 0. 2.01994693e-03 1.26246683e-04 0.
      1.76745362e-03 0. 0. 3.02992039e-03 0. 1.13622018e-03
      1.26246683e-04 7.82729499e-03 0. 0. 6.31233444e-04 2.52493378e-03
      0. 0. 0. 6.31233444e-04 0. 0. 1.76745362e-03 0. 0. 8.83726811e-04
      0. 2.52493366e-04 2.52493366e-04 7.44855450e-03 5.04986732e-04
      4.41863388e-03 0. 0. 1.48971090e-02 0. 6.31233444e-04
      2.39868695e-03 0. 0. 2.90367380e-03 0. 0. 3.78740049e-04
      1.80532765e-02 3.78740049e-04 3.15616722e-03 2.52493366e-04 0.
      1.51496020e-03 5.04986732e-04 2.52493366e-04 1.07309679e-02
      1.38871360e-03 8.07978772e-03 4.16614069e-03 4.41863388e-02
      2.65118037e-03 1.30034089e-02 4.87312190e-02 4.62062880e-02
      1.09834615e-02 3.72427739e-02 2.27244035e-03</_>
    <_>
      7.17399940e-02 4.35988884e-03 7.26648187e-03 3.42185237e-02
      1.71753205e-02 3.34258154e-02 7.62320012e-02 3.48791108e-02
      5.78676164e-02 5.25829047e-02 1.02787688e-01 2.88016908e-02
      9.52569693e-02 1.26833133e-02 4.35988884e-03 7.53071755e-02
      3.17082833e-03 1.79680269e-02 2.93301623e-02 1.45329640e-03
      7.92707084e-04 1.20227244e-02 1.32117842e-04 1.32117842e-04
      1.32117842e-04 1.99497957e-02 0. 1.58541417e-03 0. 0.
      9.24824970e-04 0. 0. 6.20953878e-03 0. 2.37812125e-03
      3.96353542e-04 3.03871054e-02 0. 3.96353542e-04 3.83141753e-03
      1.34760207e-02 0. 2.64235685e-04 0. 3.83141753e-03 0.
      3.96353542e-04 8.32342450e-03 6.60589256e-04 4.62412462e-03
      5.68106771e-03 1.32117842e-04 0. 0. 1.22869601e-02 0.
      2.24600337e-03 0. 0. 8.71977769e-03 0. 1.71753205e-03
      3.83141753e-03 0. 1.32117842e-04 2.11388548e-03 0. 0.
      1.32117842e-04 9.51248500e-03 0. 7.92707084e-04 0. 0.
      1.32117842e-04 0. 0. 6.20953878e-03 3.96353542e-04 1.32117851e-03
      6.60589256e-04 3.27652283e-02 0. 2.37812125e-03 1.12300171e-02
      1.51935527e-02 5.28471370e-04 1.00409565e-02 1.32117842e-04</_>
    <_>
      4.87528332e-02 7.93650839e-03 8.36167764e-03 2.66439915e-02
      1.26133785e-02 2.11167801e-02 3.62811796e-02 1.51643995e-02
      1.70068033e-02 2.22505666e-02 5.10204099e-02 1.36054419e-02
      4.59183678e-02 1.13378689e-02 2.69274367e-03 5.39966002e-02
      1.09126987e-02 6.33503422e-02 3.27380970e-02 1.78571437e-02
      1.85657591e-02 3.85487527e-02 5.52721089e-03 3.54308379e-03
      1.00623583e-02 2.62188204e-02 3.40136047e-03 1.13378689e-02
      6.80272095e-03 1.13378686e-03 6.37755124e-03 4.96031763e-03
      2.97619053e-03 1.55895688e-02 3.25963716e-03 5.52721089e-03
      3.40136047e-03 2.05498859e-02 2.12585041e-03 3.40136047e-03
      1.21882083e-02 8.50340165e-03 4.39342391e-03 7.08616758e-03
      4.25170059e-04 8.36167764e-03 3.40136047e-03 2.55102036e-03
      9.49546508e-03 1.84240367e-03 3.96825420e-03 6.51927432e-03
      1.70068024e-03 1.27551018e-03 3.11791385e-03 1.21882083e-02
      8.50340119e-04 7.93650839e-03 2.26757373e-03 4.25170059e-04
      1.70068033e-02 8.50340119e-04 7.65306130e-03 6.23582769e-03
      1.84240367e-03 1.84240367e-03 9.92063526e-03 4.25170059e-04
      1.41723358e-04 1.55895692e-03 1.30385486e-02 8.50340119e-04
      4.81859408e-03 1.70068024e-03 0. 3.82653065e-03 4.25170059e-04 0.
      1.28968256e-02 1.41723361e-03 8.36167764e-03 6.09410414e-03
      2.39512473e-02 5.66893432e-04 4.53514745e-03 2.22505666e-02
      1.48809524e-02 5.10204071e-03 1.47392293e-02 1.70068024e-03</_>
    <_>
      2.90659280e-03 0. 0. 3.96353542e-04 0. 0. 0. 0. 0. 3.96353542e-04
      1.18906063e-03 0. 6.60589256e-04 0. 0. 1.32117851e-03 0.
      3.96353542e-04 5.28471370e-04 0. 1.32117842e-04 7.79495295e-03
      6.60589256e-04 7.92707084e-04 1.71753205e-03 1.18906060e-02
      1.71753205e-03 3.30294622e-03 4.62412462e-03 1.32117842e-04
      6.60589244e-03 4.35988884e-03 1.98176783e-03 2.16673277e-02
      1.09657813e-02 2.62914523e-02 2.72162762e-02 4.24098298e-02
      1.59862600e-02 4.47879508e-02 1.93288416e-01 5.48289083e-02
      5.53573780e-02 1.07543930e-01 8.71977769e-03 9.14255530e-02
      2.62914523e-02 2.15352103e-02 6.75122216e-02 1.71753205e-02
      3.93711179e-02 2.64235698e-02 7.00224610e-03 3.96353565e-03
      4.09565354e-03 1.84964985e-02 1.32117842e-04 4.75624250e-03
      2.64235685e-04 0. 3.96353565e-03 0. 1.32117842e-04 1.32117851e-03
      0. 0. 3.96353542e-04 0. 0. 0. 7.92707084e-04 0. 0. 0. 0. 0. 0. 0.
      0. 0. 0. 0. 1.05694274e-03 0. 0. 6.60589256e-04 1.32117842e-04 0.
      5.28471370e-04 0.</_>
    <_>
      5.12561537e-02 1.50233554e-02 3.15616727e-02 5.28973602e-02
      5.42860739e-02 8.53427574e-02 1.20313093e-01 9.29175615e-02
      1.06930941e-01 8.04191381e-02 9.25388187e-02 4.38075997e-02
      3.77477594e-02 2.07044557e-02 5.04986756e-03 1.26246689e-02
      3.02992039e-03 7.70104770e-03 3.53490724e-03 8.83726811e-04
      8.83726811e-04 1.89370033e-03 0. 0. 3.78740049e-04 1.26246689e-03
      0. 0. 0. 0. 0. 0. 0. 1.26246683e-04 0. 0. 0. 3.78740049e-04 0. 0.
