<?xml version="1.0"?>
<opencv_storage>
<my_svm type_id="opencv-ml-svm">
  <svm_type>C_SVC</svm_type>
  <kernel><type>LINEAR</type></kernel>
  <C>1.</C>
  <term_criteria><epsilon>1.0000000474974513e-03</epsilon>
    <iterations>100000</iterations></term_criteria>
  <var_all>90</var_all>
  <var_count>90</var_count>
  <class_count>2</class_count>
  <class_labels type_id="opencv-matrix">
    <rows>1</rows>
    <cols>2</cols>
    <dt>i</dt>
    <data>
      -1 1</data></class_labels>
  <sv_total>1</sv_total>
  <support_vectors>
    <_>
      4.91344643e+00 -6.52880859e+00 -5.19787025e+00 3.60133457e+00
      2.84932184e+00 8.66905403e+00 5.94492769e+00 7.51329231e+00
      4.37336683e+00 6.73481464e+00 5.37163925e+00 1.65133679e+00
      4.55903339e+00 6.69595909e+00 1.39354718e+00 2.96863866e+00
      4.83053732e+00 5.89602470e+00 3.39351988e+00 1.73676968e+00
      4.90868664e+00 7.21852827e+00 1.41090393e+00 2.10824442e+00
      4.92582369e+00 9.18792439e+00 9.36903536e-01 2.64891839e+00
      3.90103579e+00 -7.02638179e-02 -2.08104444e+00 -9.92699564e-01
      -1.48555362e+00 6.34299946e+00 -6.91835976e+00 2.51502061e+00
      -2.97758198e+00 5.08148813e+00 -6.96249485e+00 -8.41948509e+00
      -7.05331230e+00 9.32753944e+00 -1.61048908e+01 -1.52813129e+01
      -5.06666136e+00 -2.36475983e+01 -1.16037216e+01 -1.35608492e+01
      5.22963619e+00 -4.19816875e+00 2.67077160e+00 6.66748285e+00
      1.40972395e+01 3.49382925e+00 -9.98346567e-01 4.22623062e+00
      -1.51136227e+01 3.85018039e+00 -1.01110220e+01 -1.79238677e+00
      5.38044167e+00 -4.06360388e+00 -1.07698498e+01 6.72834063e+00
      -4.87660837e+00 -3.94192743e+00 -1.36237681e+00 -2.53687620e+00
      -1.74775004e+00 -3.44133329e+00 6.04290295e+00 -1.73669970e+00
      -1.98818803e-01 -2.01392555e+00 -5.28032243e-01 -3.49021745e+00
      -1.26258373e+00 -5.65608919e-01 4.20779562e+00 -8.43329072e-01
      2.19679499e+00 8.47749412e-01 5.02831793e+00 -7.96073228e-02
      5.62794983e-01 6.05386877e+00 3.52562118e+00 -6.34272432e+00
      -1.49758533e-01 -8.30289459e+00</_></support_vectors>
  <decision_functions>
    <_>
      <sv_count>1</sv_count>
      <rho>3.5271414861380150e+00</rho>
      <alpha>
        1.</alpha>
      <index>
        0</index></_></decision_functions></my_svm>
</opencv_storage>
