<?xml version="1.0"?>
<opencv_storage>
<my_svm type_id="opencv-ml-svm">
  <svm_type>C_SVC</svm_type>
  <kernel><type>LINEAR</type></kernel>
  <C>100000.</C>
  <term_criteria><epsilon>1.0000000474974513e-03</epsilon>
    <iterations>100000</iterations></term_criteria>
  <var_all>45</var_all>
  <var_count>45</var_count>
  <class_count>2</class_count>
  <class_labels type_id="opencv-matrix">
    <rows>1</rows>
    <cols>2</cols>
    <dt>i</dt>
    <data>
      -1 1</data></class_labels>
  <sv_total>1</sv_total>
  <support_vectors>
    <_>
      1.17001137e+02 6.05786562e+00 1.56566725e+01 2.08158607e+01
      6.05770836e+01 4.79203568e+01 6.78677292e+01 5.21103363e+01
      -5.30626221e+01 3.63780518e+01 -2.98329773e+01 9.70522785e+00
      6.27849121e+01 5.61922913e+01 -1.38380527e+01 1.49607058e+01
      1.26685059e+02 -2.13016357e+01 7.29172974e+01 -1.10987808e+02
      7.59926682e+01 -2.46491028e+02 -8.49233856e+01 -1.09372444e+02
      3.88517151e+01 5.17918777e+01 4.99200783e+01 4.26285706e+01
      4.40455589e+01 4.54419975e+01 6.31954803e+01 -2.51780281e+01
      -4.08800545e+01 -1.82790718e+01 -4.10298920e+01 -3.12538185e+01
      -3.19776249e+01 -2.06645718e+01 -1.47197447e+01 -3.51046028e+01
      -3.13560257e+01 -6.31953583e+01 -4.45158577e+01 -9.84581680e+01
      -1.30742130e+01</_></support_vectors>
  <decision_functions>
    <_>
      <sv_count>1</sv_count>
      <rho>4.2371016627992283e+01</rho>
      <alpha>
        1.</alpha>
      <index>
        0</index></_></decision_functions></my_svm>
</opencv_storage>
