<?xml version="1.0"?>
<opencv_storage>
<my_svm type_id="opencv-ml-svm">
  <svm_type>C_SVC</svm_type>
  <kernel><type>RBF</type>
    <gamma>10.</gamma></kernel>
  <C>100000.</C>
  <term_criteria><epsilon>9.9999999747524271e-07</epsilon>
    <iterations>1000000</iterations></term_criteria>
  <var_all>180</var_all>
  <var_count>180</var_count>
  <class_count>2</class_count>
  <class_labels type_id="opencv-matrix">
    <rows>1</rows>
    <cols>2</cols>
    <dt>i</dt>
    <data>
      -1 1</data></class_labels>
  <sv_total>336</sv_total>
  <support_vectors>
    <_>
      9.51248500e-03 0. 0. 0. 0. 0. 2.11388548e-03 0. 0. 0. 0.
      5.28471370e-04 0. 1.84964994e-03 0. 0. 5.28471370e-04 0. 0.
      5.28471370e-04 3.96353565e-03 5.28471370e-04 1.32117842e-04
      3.96353542e-04 1.58541417e-03 1.32117851e-03 3.96353542e-04 0. 0.
      0. 7.66283507e-03 0. 1.32117842e-04 0. 2.64235685e-04
      2.64235702e-03 3.43506411e-03 0. 1.32117842e-04 0. 1.18906063e-03
      0. 5.68106771e-03 2.11388548e-03 0. 2.64235685e-04 0. 0.
      1.18906063e-03 0. 1.59862600e-02 3.43506411e-03 3.96353542e-04 0.
      5.28471370e-04 6.87012821e-03 3.43506411e-03 1.45329640e-03
      9.24824970e-04 0. 9.11613181e-03 0. 1.58541417e-03 3.03871045e-03
      0. 2.51023914e-03 3.28973457e-02 2.51023914e-03 3.69929988e-03
      2.90659280e-03 2.23279167e-02 1.45329640e-03 1.05694274e-03
      1.17584886e-02 1.71753205e-02 2.08746195e-02 6.60589244e-03
      4.88836039e-03 7.92707084e-04 2.27242708e-02 7.75531754e-02
      4.35988884e-03 2.64235702e-03 3.59360538e-02 1.92892067e-02
      1.45329637e-02 1.45329640e-03 6.13026805e-02 6.47377456e-03
      1.71753205e-03 7.09472820e-02 2.11388548e-03 1.36081381e-02
      2.48381551e-02 3.96353542e-04 4.37310077e-02 5.27150221e-02
      6.60589256e-04 3.27652283e-02 5.41683193e-03 3.56718199e-03
      4.92799580e-02 4.35988884e-03 3.77857052e-02 1.88928526e-02
      8.58766027e-03 1.79680269e-02 3.96353565e-03 4.49200673e-03
      1.33439023e-02 1.59862600e-02 1.12300171e-02 4.35988884e-03
      3.96353565e-03 1.07015455e-02 6.47377456e-03 2.37812125e-03 0.
      1.32117842e-04 0. 1.46650812e-02 0. 1.05694274e-03 0.
      1.18906063e-03 4.49200673e-03 8.71977769e-03 1.32117842e-04
      3.96353542e-04 3.96353542e-04 1.71753205e-03 0. 4.09565354e-03
      1.98176783e-03 0. 1.32117842e-04 1.32117842e-04 0. 9.24824970e-04
      0. 4.62412462e-03 1.98176783e-03 1.32117842e-04 0. 1.32117842e-04
      1.05694274e-03 5.28471370e-04 1.32117842e-04 0. 0. 6.60589256e-04
      0. 0. 0. 0. 0. 2.37812125e-03 0. 0. 0. 3.96353542e-04 0. 0. 0. 0.
      4.49200673e-03 0. 0. 0. 0. 1.58541417e-03 0. 0. 2.37812125e-03 0.
      0. 0. 5.28471370e-04 0. 0.</_>
    <_>
      1.71753205e-03 0. 0. 0. 0. 0. 1.05694274e-03 0. 0. 0. 0. 0. 0. 0.
      0. 0. 0. 0. 0. 2.64235685e-04 1.32117851e-03 0. 0. 0.
      7.92707084e-04 2.64235685e-04 0. 0. 0. 0. 1.32117851e-03 0.
      7.92707084e-04 0. 1.45329640e-03 3.17082833e-03 1.58541417e-03
      3.96353542e-04 3.96353542e-04 3.96353542e-04 6.60589256e-04 0.
      2.90659280e-03 3.17082833e-03 0. 3.96353542e-04 5.28471370e-04 0.
      9.24824970e-04 0. 3.03871045e-03 1.98176783e-03 1.32117842e-04 0.
      1.32117842e-04 2.90659280e-03 1.18906063e-03 2.64235685e-04 0. 0.
      2.24600337e-03 0. 0. 1.18906063e-03 0. 1.05694274e-03
      1.14942528e-02 0. 1.45329640e-03 0. 5.28471405e-03 0. 0.
      2.77447491e-03 4.35988884e-03 4.75624250e-03 7.92707084e-04 0. 0.
      5.94530301e-03 1.99497957e-02 3.96353542e-04 0. 1.16263712e-02
      4.09565354e-03 2.77447491e-03 0. 2.32527424e-02 1.32117842e-04 0.
      2.33848598e-02 0. 2.11388548e-03 1.07015455e-02 0. 2.70841587e-02
      3.55397016e-02 0. 5.23186699e-02 3.30294622e-03 1.84964994e-03
      6.07742108e-02 5.94530301e-03 7.22684637e-02 6.96261078e-02
      3.19725201e-02 8.98401365e-02 1.51935527e-02 4.39952426e-02
      2.62914523e-02 4.05601785e-02 7.20042288e-02 3.48791108e-02
      4.00317088e-02 7.13436399e-03 1.44008454e-02 3.51433493e-02
      2.64235685e-04 2.90659280e-03 0. 2.20636800e-02 0. 5.28471405e-03
      0. 1.05694274e-03 2.77447491e-03 3.96353565e-03 0. 0. 0. 0. 0.
      1.18906063e-03 1.58541417e-03 0. 0. 0. 0. 0. 0. 9.24824970e-04
      3.96353542e-04 0. 0. 0. 2.64235685e-04 0. 0. 0. 0. 0. 0. 0. 0. 0.
      0. 6.60589256e-04 0. 0. 0. 0. 0. 0. 0. 0. 1.71753205e-03 0. 0. 0.
      0. 6.60589256e-04 0. 0. 1.18906063e-03 0. 0. 0. 0. 0. 0.</_>
    <_>
      4.10640500e-02 0. 0. 1.29132226e-04 0. 1.29132226e-04
      1.09762400e-02 0. 7.74793385e-04 0. 0. 6.45661168e-03
      2.58264452e-04 1.84659082e-02 1.03305781e-03 2.32438021e-03
      5.55268582e-03 2.06611562e-03 2.58264458e-03 2.68595032e-02
      4.10640500e-02 3.25413235e-02 1.45919425e-02 1.33006200e-02
      5.61725199e-02 4.51962799e-02 2.18233466e-02 1.03305781e-03
      3.61570250e-03 3.22830584e-03 1.49018601e-01 6.45661145e-04
      7.61880167e-03 5.29442169e-03 2.18233466e-02 6.18543401e-02
      8.49690065e-02 2.58264458e-03 8.00619833e-03 2.32438021e-03
      8.00619833e-03 5.16528904e-04 3.92562002e-02 2.18233466e-02
      9.03925626e-04 3.22830584e-03 1.29132229e-03 0. 4.90702502e-03 0.
      4.98450398e-02 7.87706580e-03 3.35743790e-03 2.58264452e-04
      1.42045459e-03 8.39359500e-03 3.09917354e-03 2.19524791e-03
      1.29132226e-04 0. 4.00309917e-03 0. 1.29132226e-04 1.93698343e-03
      0. 3.87396693e-04 1.29132234e-02 5.16528904e-04 1.16219011e-03
      1.93698343e-03 5.03615709e-03 1.29132226e-04 1.29132226e-04
      2.06611562e-03 1.29132229e-03 2.72468999e-02 2.58264452e-04 0. 0.
      1.80785125e-03 9.68491752e-03 1.29132226e-04 0. 1.21384300e-02
      1.03305781e-03 5.16528904e-04 0. 4.64876043e-03 0. 0.
      5.16528916e-03 0. 1.29132226e-04 9.03925626e-04 0. 1.29132226e-04
      3.74483480e-03 0. 5.16528904e-04 0. 0. 0. 0. 1.16219011e-03 0. 0.
      2.58264452e-04 0. 0. 1.42045459e-03 2.84090918e-03 9.03925626e-04
      0. 0. 5.16528904e-04 5.16528904e-04 0. 0. 0. 0. 1.00723142e-02 0.
      0. 0. 0. 0. 5.16528904e-04 0. 0. 0. 0. 0. 2.58264452e-04
      1.29132226e-04 0. 0. 0. 0. 0. 0. 3.74483480e-03 0. 0. 0. 0.
      2.58264452e-04 0. 0. 0. 0. 2.58264452e-04 0. 0. 0. 0. 0.
      3.87396693e-04 0. 0. 0. 6.45661145e-04 0. 0. 6.45661145e-04
      1.29132226e-04 1.56250000e-02 0. 0. 0. 0. 2.58264458e-03 0. 0.
      4.90702502e-03 0. 0. 0. 6.45661145e-04 0. 0.</_>
    <_>
      1.83128547e-02 1.18147451e-04 1.18147451e-04 2.36294902e-04 0.
      2.36294902e-04 1.77221175e-03 0. 1.18147451e-04 0. 0.
      1.18147454e-03 0. 1.53591682e-03 0. 0. 3.54442338e-04 0. 0.
      4.72589803e-04 4.96219285e-03 1.06332707e-03 0. 4.72589803e-04
      2.12665414e-03 5.90737269e-04 0. 0. 0. 0. 4.96219285e-03 0. 0. 0.
      8.27032141e-04 5.90737269e-04 5.90737269e-04 0. 1.18147451e-04 0.
      3.54442338e-04 0. 8.27032141e-04 0. 0. 0. 0. 0. 5.90737269e-04 0.
      6.02551969e-03 0. 2.36294902e-04 0. 0. 2.36294902e-04 0. 0. 0. 0.
      7.08884676e-04 0. 0. 3.54442338e-04 0. 2.36294902e-04
      7.44328927e-03 7.08884676e-04 5.90737269e-04 7.08884676e-04
      2.95368629e-03 0. 0. 1.41776935e-03 1.65406428e-03 3.16635147e-02
      0. 0. 0. 1.65406428e-03 1.85491499e-02 0. 0. 2.07939502e-02 0.
      2.36294902e-04 0. 1.54773155e-02 0. 0. 2.15028357e-02 0.
      2.36294902e-04 3.66257085e-03 0. 8.74291081e-03 5.15122861e-02 0.
      2.35113427e-02 0. 0. 4.86767478e-02 1.18147451e-04 8.30576569e-02
      2.48109642e-02 4.48960299e-03 5.06852567e-02 5.90737269e-04
      7.79773155e-03 5.89555763e-02 4.54867668e-02 5.12759909e-02
      1.07514178e-02 2.57561430e-02 3.49716432e-02 4.45415862e-02
      2.55198479e-02 0. 2.36294902e-04 0. 7.25425333e-02 0.
      3.42627591e-03 0. 1.26417773e-02 2.84735356e-02 2.56379955e-02 0.
      1.06332707e-03 4.72589803e-04 9.45179607e-04 0. 1.13421548e-02
      3.78071843e-03 0. 4.72589803e-04 0. 0. 8.27032141e-04 0.
      1.28780715e-02 2.59924377e-03 2.36294902e-04 2.36294902e-04
      2.36294902e-04 2.83553870e-03 1.18147451e-04 0. 0. 0.
      1.77221175e-03 0. 0. 0. 0. 0. 7.32514169e-03 0. 0. 0.
      2.71739135e-03 0. 0. 0. 0. 1.19328918e-02 0. 0. 0. 4.72589803e-04
      5.19848755e-03 0. 0. 6.61625713e-03 1.18147451e-04 1.18147451e-04
      1.18147451e-04 1.53591682e-03 1.18147451e-04 1.18147451e-04</_>
    <_>
      3.13683078e-02 0. 1.21687399e-03 2.70416448e-03 0. 4.86749597e-03
      2.39318553e-02 0. 1.58193614e-02 1.21687399e-03 1.35208218e-04
      1.87939424e-02 0. 4.12385091e-02 1.31151974e-02 2.43374798e-03
      4.36722562e-02 1.62249862e-03 1.13574909e-02 3.23147662e-02
      4.57003787e-02 6.04380742e-02 1.90643594e-02 4.62412126e-02
      4.34018373e-02 4.58355881e-02 4.50243391e-02 1.35208218e-04
      1.48729037e-03 1.35208224e-03 9.45105478e-02 0. 9.73499194e-03 0.
      2.29853969e-02 4.48891297e-02 4.31314223e-02 0. 7.57166045e-03
      2.56895623e-03 1.02758249e-02 0. 1.85235254e-02 1.47376964e-02 0.
      5.00270398e-03 1.08166575e-03 0. 5.54353697e-03 6.76041120e-04
      2.87993513e-02 7.70686846e-03 2.97458074e-03 2.70416436e-04
      6.76041120e-04 3.92103847e-03 3.10978899e-03 2.70416436e-04 0. 0.
      1.62249862e-03 0. 0. 8.11249309e-04 0. 0. 9.87020042e-03 0. 0. 0.
      2.02812324e-03 0. 0. 4.05624654e-04 0. 1.54137369e-02 0. 0. 0. 0.
      1.35208218e-04 0. 0. 7.03082746e-03 0. 0. 0. 0. 0. 0. 0. 0. 0. 0.
      0. 0. 1.21687399e-03 0. 0. 0. 0. 0. 0. 0. 0. 0. 0. 0. 0. 0.
      5.27312048e-03 0. 0. 0. 3.51541373e-03 0. 0. 0. 0. 0.
      1.10870739e-02 0. 0. 0. 0. 5.40832873e-04 2.97458074e-03 0. 0. 0.
      0. 0. 5.00270398e-03 8.11249309e-04 0. 0. 0. 0. 0. 0.
      1.13574909e-02 0. 0. 0. 0. 1.35208218e-04 0. 0. 0. 0. 0. 0. 0. 0.
      0. 0. 1.75770686e-03 0. 0. 0. 1.62249862e-03 0. 0. 2.70416436e-04
      1.35208218e-04 1.90643594e-02 0. 0. 0. 4.05624654e-04
      2.56895623e-03 0. 0. 7.57166045e-03 0. 4.05624654e-04 0.
      3.51541373e-03 0. 0.</_>
    <_>
      4.06746045e-02 0. 4.39342391e-03 8.64512473e-03 0. 1.96995456e-02
      6.80272132e-02 1.41723358e-04 4.03911583e-02 3.68480734e-03
      1.41723358e-04 6.43424019e-02 1.41723361e-03 9.45294797e-02
      3.21712010e-02 1.28968256e-02 5.64058945e-02 7.65306130e-03
      1.41723352e-02 4.35090698e-02 4.33673486e-02 6.06575981e-02
      2.15419494e-02 3.31632644e-02 2.73526069e-02 3.13208625e-02
      3.71315181e-02 2.40929704e-03 2.69274367e-03 4.10997728e-03
      5.93820848e-02 0. 7.36961467e-03 1.55895692e-03 9.21201799e-03
      1.50226755e-02 8.36167764e-03 0. 1.70068024e-03 8.50340119e-04
      7.08616804e-04 0. 9.92063549e-04 1.41723361e-03 1.41723358e-04 0.
      1.41723358e-04 0. 0. 0. 1.70068024e-03 0. 0. 0. 0. 0. 0. 0. 0. 0.
      0. 0. 0. 0. 0. 0. 0. 0. 0. 0. 0. 0. 0. 0. 0. 2.26757373e-03 0. 0.
      0. 0. 0. 0. 0. 4.25170059e-04 0. 0. 0. 0. 0. 0. 0. 0. 0. 0. 0. 0.
      8.50340119e-04 0. 0. 0. 0. 0. 0. 0. 0. 0. 0. 0. 0. 0. 0. 0. 0. 0.
      0. 0. 0. 0. 0. 0. 5.66893432e-04 0. 0. 0. 0. 0. 0. 0. 0. 0. 0. 0.
      4.25170059e-04 0. 0. 0. 0. 0. 0. 0. 1.84240367e-03 0. 0. 0. 0.
      4.25170059e-04 0. 0. 0. 0. 0. 0. 0. 0. 0. 0. 3.96825420e-03 0. 0.
      1.41723358e-04 9.92063549e-04 0. 0. 1.98412710e-03 5.66893432e-04
      1.24716554e-02 1.41723358e-04 0. 0. 2.83446722e-03 2.90532876e-02
      0. 0. 3.21712010e-02 2.69274367e-03 2.40929704e-03 0.
      1.77154187e-02 8.50340119e-04 0.</_>
    <_>
      7.18537420e-02 0. 1.41723358e-04 1.13378686e-03 0. 4.25170083e-03
      3.31632644e-02 2.83446716e-04 8.78684781e-03 5.66893432e-04
      4.25170059e-04 2.59353742e-02 2.83446716e-04 5.76814041e-02
      6.51927432e-03 4.25170059e-04 1.51643995e-02 4.25170059e-04
      8.50340119e-04 2.91950107e-02 2.70691607e-02 2.05498859e-02
      1.55895692e-03 5.81065752e-03 2.94784587e-02 2.62188204e-02
      7.08616804e-04 0. 0. 0. 6.06575981e-02 0. 1.41723358e-04 0.
      4.39342391e-03 1.36054419e-02 2.66439915e-02 4.25170059e-04
      1.55895692e-03 1.27551018e-03 2.55102036e-03 0. 2.05498859e-02
      1.34637188e-02 0. 7.08616804e-04 0. 0. 4.53514745e-03 0.
      4.19501141e-02 7.22789112e-03 1.98412710e-03 0. 0. 1.34637188e-02
      2.69274367e-03 5.66893432e-04 0. 0. 4.10997728e-03 0. 0.
      4.25170059e-04 0. 0. 2.77777780e-02 0. 8.50340119e-04
      1.41723358e-04 1.31802717e-02 0. 0. 8.21995456e-03 3.54308379e-03
      5.62641732e-02 0. 0. 0. 1.55895692e-03 3.04705221e-02 0. 0.
      4.42176871e-02 0. 0. 0. 8.78684781e-03 0. 0. 1.43140592e-02 0. 0.
      0. 0. 0. 2.57936511e-02 0. 1.98412710e-03 0. 0. 1.07709747e-02 0.
      9.92063526e-03 1.84240367e-03 0. 1.70068024e-03 0. 0.
      1.27551018e-03 1.58730168e-02 7.08616804e-04 0. 0. 8.92857183e-03
      3.25963716e-03 0. 0. 0. 0. 1.79988667e-02 0. 0. 0. 2.83446716e-04
      1.55895692e-03 4.10997728e-03 0. 0. 0. 0. 0. 2.83446722e-03
      4.25170059e-04 0. 0. 0. 0. 0. 0. 5.52721089e-03 1.41723358e-04 0.
      0. 0. 2.83446716e-04 0. 0. 0. 0. 1.41723358e-04 0. 0. 0. 0. 0.
      4.25170083e-03 0. 0. 0. 1.55895692e-03 0. 0. 4.25170059e-04
      8.50340119e-04 2.80612241e-02 0. 0. 0. 2.83446716e-04
      1.43140592e-02 0. 0. 2.63605434e-02 0. 1.27551018e-03 0.
      6.51927432e-03 0. 0.</_>
    <_>
      1.11681990e-01 0. 0. 8.11249309e-04 0. 3.78583022e-03
      2.98810173e-02 0. 1.27095729e-02 0. 5.40832873e-04 1.96051914e-02
      2.70416436e-04 4.90805842e-02 1.37912389e-02 1.62249862e-03
      2.96106003e-02 2.16333149e-03 4.59707947e-03 4.04272564e-02
      5.53001612e-02 5.42184971e-02 1.01406164e-02 2.58247703e-02
      3.96160074e-02 4.05624658e-02 1.87939424e-02 0. 0. 0.
      1.01406164e-01 0. 8.65332596e-03 1.62249862e-03 1.81179009e-02
      2.71768533e-02 2.69064363e-02 0. 2.43374798e-03 2.70416436e-04
      6.76041096e-03 1.35208218e-04 1.51433209e-02 5.81395347e-03
      1.35208218e-04 0. 0. 0. 4.05624654e-04 0. 2.32558139e-02
      2.70416436e-04 0. 0. 0. 2.83937273e-03 0. 0. 0. 0. 1.35208224e-03
      0. 0. 0. 0. 0. 1.13574909e-02 0. 0. 0. 3.65062198e-03 0. 0.
      1.21687399e-03 0. 3.31260152e-02 0. 0. 0. 1.35208218e-04
      3.51541373e-03 0. 0. 1.50081124e-02 0. 0. 0. 0. 0. 0. 0. 0. 0. 0.
      0. 0. 1.75770686e-03 0. 0. 0. 0. 0. 0. 0. 0. 0. 0. 0. 0. 0.
      7.30124395e-03 0. 0. 0. 9.46457556e-04 0. 0. 0. 0. 0.
      1.21687399e-02 0. 0. 0. 0. 2.70416436e-04 6.76041120e-04 0. 0. 0.
      0. 0. 0. 0. 0. 0. 0. 0. 0. 0. 7.30124395e-03 2.70416436e-04 0. 0.
      0. 1.35208224e-03 0. 0. 0. 0. 0. 0. 0. 0. 0. 0. 4.59707947e-03 0.
      0. 0. 5.40832873e-04 0. 0. 0. 0. 5.81395365e-02 0. 0. 0. 0.
      6.48999447e-03 0. 0. 2.02812329e-02 0. 0. 0. 2.16333149e-03 0. 0.</_>
    <_>
      3.87577340e-02 0. 5.04986732e-04 7.57480098e-04 0. 4.29238752e-03
      2.68905442e-02 5.04986732e-04 1.28771616e-02 8.83726811e-04
      7.57480098e-04 1.83057692e-02 2.52493378e-03 6.36283308e-02
      1.07309679e-02 1.21196816e-02 3.08041908e-02 9.84724145e-03
      8.83726776e-03 5.12561537e-02 4.39338461e-02 5.27711138e-02
      2.60068178e-02 2.29768977e-02 4.22926396e-02 4.30501215e-02
      3.13091800e-02 2.01994693e-03 5.42860758e-03 2.77742720e-03
      8.21865946e-02 1.26246683e-04 6.81732083e-03 2.65118037e-03
      2.14619357e-02 4.03989404e-02 3.11829317e-02 1.00997346e-03
      3.78740067e-03 1.26246689e-03 3.78740067e-03 0. 1.56545900e-02
      9.46850143e-03 0. 8.83726811e-04 0. 0. 1.51496020e-03 0.
      2.72692833e-02 2.65118037e-03 0. 0. 0. 4.79737390e-03
      5.04986732e-04 0. 0. 0. 1.51496020e-03 0. 0. 1.26246683e-04 0. 0.
      1.09834615e-02 0. 1.26246683e-04 0. 4.03989386e-03 0. 0.
      1.13622018e-03 0. 2.87842453e-02 0. 0. 0. 1.26246683e-04
      8.96351505e-03 0. 0. 1.67908091e-02 0. 0. 0. 3.78740049e-04 0. 0.
      3.15616722e-03 0. 0. 0. 0. 0. 8.20603501e-03 0. 0. 0. 0.
      6.31233444e-04 0. 1.26246689e-03 0. 0. 0. 0. 0. 0. 1.09834615e-02
      0. 0. 0. 1.26246689e-03 2.52493366e-04 0. 0. 0. 0. 1.23721752e-02
      0. 0. 0. 0. 0. 6.31233444e-04 0. 0. 0. 0. 0. 3.78740049e-04 0. 0.
      0. 0. 0. 0. 0. 1.28771616e-02 0. 0. 0. 0. 5.04986732e-04 0. 0. 0.
      0. 2.52493366e-04 0. 0. 0. 0. 0. 1.51496020e-03 0. 0. 0.
      7.57480098e-04 0. 0. 1.26246683e-04 2.52493366e-04 3.10566854e-02
      0. 0. 0. 5.04986732e-04 5.55485440e-03 0. 0. 8.96351505e-03 0. 0.
      0. 1.13622018e-03 1.26246683e-04 0.</_>
    <_>
      8.15305561e-02 5.40832873e-04 1.62249862e-03 1.13574909e-02 0.
      2.04164404e-02 6.86857775e-02 0. 3.96160074e-02 4.32666298e-03
      4.05624654e-04 5.23255803e-02 3.92103847e-03 8.51811767e-02
      3.16387229e-02 8.24770145e-03 5.67874536e-02 3.51541373e-03
      1.08166579e-02 3.25851813e-02 5.85451610e-02 3.86695527e-02
      1.13574909e-02 1.43320709e-02 1.79826934e-02 1.13574909e-02
      1.14926985e-02 0. 9.46457556e-04 1.35208218e-04 2.90697683e-02 0.
      2.43374798e-03 0. 3.38020548e-03 6.76041096e-03 9.46457591e-03 0.
      6.76041120e-04 1.35208218e-04 8.11249309e-04 0. 3.92103847e-03 0.
      0. 0. 0. 0. 0. 0. 6.62520295e-03 1.21687399e-03 0. 0. 0.
      2.02812324e-03 0. 0. 0. 0. 1.35208218e-04 0. 0. 0. 0. 0.
      1.35208218e-04 0. 0. 0. 2.70416436e-04 0. 0. 1.35208218e-04 0.
      7.16603547e-03 0. 0. 0. 0. 4.05624654e-04 0. 0. 0. 0. 0. 0. 0. 0.
      0. 0. 0. 0. 0. 0. 0. 4.05624654e-04 0. 0. 0. 0. 0. 0. 0. 0. 0. 0.
      0. 0. 0. 1.35208224e-03 0. 0. 0. 0. 0. 0. 0. 0. 0. 4.73228795e-03
      0. 0. 0. 0. 0. 1.35208218e-04 0. 0. 0. 0. 0. 2.56895623e-03 0. 0.
      0. 0. 0. 2.70416436e-04 0. 1.39264464e-02 5.40832873e-04 0. 0. 0.
      3.24499724e-03 0. 0. 0. 0. 1.21687399e-03 0. 0. 0. 0. 0.
      1.18983230e-02 0. 6.76041120e-04 8.11249309e-04 8.78853444e-03
      8.11249309e-04 0. 2.97458074e-03 1.08166575e-03 6.84153587e-02 0.
      0. 0. 2.29853974e-03 4.24553826e-02 0. 0. 4.61060032e-02
      4.32666298e-03 3.38020548e-03 0. 2.27149818e-02 1.75770686e-03 0.</_>
    <_>
      1.01108037e-01 0. 0. 1.73130189e-03 0. 1.73130189e-03
      5.48822731e-02 0. 3.11634340e-03 1.73130189e-04 0. 1.45429363e-02
      0. 3.67036015e-02 6.92520756e-04 1.21191132e-03 4.84764529e-03
      6.92520756e-04 6.92520756e-04 1.35041550e-02 6.66551217e-02
      1.05609419e-02 6.92520756e-04 2.77008303e-03 3.04709133e-02
      1.09072020e-02 1.03878113e-03 0. 0. 0. 5.99030480e-02 0.
      3.46260378e-04 0. 4.67451522e-03 1.47160664e-02 2.09487528e-02 0.
      1.38504151e-03 5.19390567e-04 4.50138515e-03 0. 1.10803321e-02
      5.88642666e-03 0. 1.73130189e-04 0. 0. 1.21191132e-03 0.
      1.43698063e-02 1.73130189e-04 3.46260378e-04 0. 1.73130189e-04
      2.59695295e-03 1.73130189e-04 0. 0. 0. 1.73130189e-04 0. 0. 0. 0.
      0. 6.23268681e-03 0. 0. 0. 4.32825508e-03 0. 0. 5.19390567e-04 0.
      2.87396125e-02 0. 0. 0. 6.92520756e-04 6.40581734e-03 0. 0.
      5.36703598e-03 0. 0. 0. 3.11634340e-03 0. 0. 4.50138515e-03 0. 0.
      5.19390567e-04 0. 0. 8.31024908e-03 0. 0. 0. 0. 3.46260378e-03 0.
      4.15512454e-03 0. 0. 0. 0. 0. 1.73130189e-04 2.14681439e-02 0. 0.
      0. 3.98199446e-03 1.21191132e-03 0. 0. 0. 0. 3.79155129e-02 0. 0.
      0. 0. 1.21191132e-03 6.23268681e-03 0. 0. 0. 0. 0. 5.54016605e-03
      1.55817170e-03 0. 0. 0. 0. 3.46260378e-04 0. 4.27631587e-02
      3.46260378e-04 0. 0. 0. 3.28947371e-03 0. 0. 0. 0. 5.19390567e-04
      0. 0. 0. 0. 0. 3.41066495e-02 0. 0. 0. 1.62742380e-02 0. 0.
      8.48337915e-03 8.65650945e-04 9.10664797e-02 5.19390567e-04 0. 0.
      2.94321333e-03 4.72645424e-02 0. 0. 6.54432103e-02 1.55817170e-03
      3.28947371e-03 0. 2.31994465e-02 0. 0.</_>
    <_>
      4.24845032e-02 0. 1.29132226e-04 6.45661145e-04 0. 2.58264458e-03
      9.55578499e-03 0. 4.00309917e-03 3.87396693e-04 0. 1.09762400e-02
      7.74793385e-04 1.78202484e-02 9.94318165e-03 1.07179750e-02
      2.05320250e-02 1.38171492e-02 1.17510334e-02 1.85950417e-02
      3.24121900e-02 4.45506200e-02 4.37758267e-02 3.00878100e-02
      5.08781001e-02 3.52531001e-02 6.08212799e-02 5.16528916e-03
      1.03305783e-02 9.03925579e-03 6.28874004e-02 5.16528904e-04
      1.88533049e-02 5.16528916e-03 1.78202484e-02 4.41632234e-02
      1.97572317e-02 1.16219011e-03 9.29752085e-03 4.64876043e-03
      9.81405005e-03 5.16528904e-04 1.65289249e-02 1.61415283e-02 0.
      3.35743790e-03 2.58264452e-04 0. 4.39049583e-03 1.29132226e-04
      3.02169416e-02 6.71487581e-03 1.54958677e-03 0. 0. 7.48966960e-03
      3.61570250e-03 6.45661145e-04 0. 0. 7.48966960e-03 0. 0.
      5.16528904e-04 0. 0. 2.31146701e-02 0. 5.16528904e-04
      1.29132226e-04 8.00619833e-03 0. 0. 3.87396693e-04 7.74793385e-04
      3.17665301e-02 1.29132226e-04 0. 0. 9.03925626e-04 1.34297516e-02
      0. 0. 2.23398767e-02 0. 0. 0. 1.03305781e-03 0. 0. 8.00619833e-03
      0. 0. 0. 0. 0. 1.08471075e-02 0. 0. 0. 0. 1.93698343e-03 0.
      2.84090918e-03 0. 0. 1.29132226e-04 0. 0. 2.32438021e-03
      1.66580584e-02 2.58264452e-04 0. 0. 4.00309917e-03 5.16528904e-04
      0. 0. 0. 0. 1.33006200e-02 0. 0. 0. 0. 1.29132226e-04
      1.16219011e-03 0. 0. 0. 0. 0. 1.80785125e-03 0. 0. 1.29132226e-04
      0. 0. 1.29132226e-04 0. 9.16838832e-03 0. 0. 0. 0. 1.16219011e-03
      5.16528904e-04 1.29132226e-04 0. 0. 5.16528904e-04 0. 0. 0. 0. 0.
      3.09917354e-03 0. 0. 0. 6.45661145e-04 0. 0. 7.74793385e-04
      1.29132226e-04 1.56250000e-02 0. 0. 0. 2.58264452e-04
      2.84090918e-03 0. 0. 5.29442169e-03 1.29132226e-04 2.58264452e-04
      0. 2.06611562e-03 0. 0.</_>
    <_>
      4.93285134e-02 0. 0. 0. 0. 0. 9.29752085e-03 0. 0. 0. 0.
      1.54958677e-03 0. 8.78099166e-03 2.58264452e-04 2.58264452e-04
      1.03305781e-03 2.58264452e-04 7.74793385e-04 1.30423550e-02
      4.06766534e-02 5.81095042e-03 6.45661145e-04 2.71177688e-03
      3.35743800e-02 3.21539268e-02 5.42355375e-03 9.03925626e-04
      7.74793385e-04 1.42045459e-03 8.92303735e-02 0. 3.87396687e-03
      2.45351251e-03 1.29132234e-02 4.67458665e-02 6.84400797e-02
      9.03925626e-04 6.97314041e-03 1.93698343e-03 1.71745867e-02 0.
      3.91270667e-02 3.26704532e-02 5.16528904e-04 2.06611562e-03
      1.29132226e-04 0. 9.81405005e-03 0. 6.59865737e-02 1.30423550e-02
      2.19524791e-03 0. 5.16528904e-04 2.04028934e-02 8.78099166e-03
      2.58264458e-03 7.74793385e-04 0. 1.16219008e-02 0. 9.03925626e-04
      4.13223123e-03 0. 1.42045459e-03 5.06198332e-02 3.87396693e-04
      1.93698343e-03 1.16219011e-03 1.76911149e-02 1.29132226e-04 0.
      1.16219008e-02 5.81095042e-03 5.82386367e-02 1.54958677e-03 0. 0.
      1.42045459e-03 3.43491733e-02 0. 0. 4.62293401e-02 0.
      2.58264452e-04 0. 3.35743790e-03 0. 0. 7.87706580e-03 0. 0. 0. 0.
      0. 1.75619833e-02 0. 3.87396693e-04 0. 0. 2.45351251e-03 0.
      5.68181835e-03 0. 0. 1.29132226e-04 0. 0. 1.03305781e-03
      1.78202484e-02 5.16528904e-04 0. 0. 2.19524791e-03 1.29132226e-04
      0. 0. 0. 0. 9.16838832e-03 0. 0. 0. 0. 5.16528904e-04
      2.06611562e-03 0. 0. 0. 0. 0. 0. 0. 0. 0. 0. 0. 0. 0.
      2.58264458e-03 0. 0. 0. 0. 0. 0. 0. 0. 0. 0. 0. 0. 0. 0. 0.
      2.58264452e-04 0. 0. 0. 1.29132226e-04 0. 0. 0. 0. 1.57541316e-02
      0. 0. 0. 0. 3.87396693e-04 0. 0. 2.58264458e-03 0. 0. 0. 0. 0. 0.</_>
    <_>
      9.45247933e-02 0. 0. 0. 0. 0. 2.15650834e-02 0. 7.74793385e-04 0.
      0. 5.55268582e-03 0. 1.61415283e-02 2.58264452e-04 0.
      2.58264452e-04 0. 0. 5.68181835e-03 5.22985533e-02 2.32438021e-03
      0. 5.16528904e-04 3.43491733e-02 1.38171492e-02 2.58264452e-04 0.
      0. 0. 7.06353337e-02 0. 2.58264452e-04 3.87396693e-04
      5.68181835e-03 1.30423550e-02 4.27427702e-02 2.58264452e-04
      2.58264458e-03 1.42045459e-03 2.58264458e-03 0. 2.76342984e-02
      9.68491752e-03 5.16528904e-04 1.42045459e-03 1.42045459e-03 0.
      5.42355375e-03 7.74793385e-04 4.91993800e-02 5.81095042e-03
      2.58264458e-03 3.87396693e-04 6.45661145e-04 1.66580584e-02
      6.32747915e-03 7.74793385e-04 0. 0. 1.40754133e-02 0.
      6.45661145e-04 2.71177688e-03 0. 6.45661145e-04 4.90702465e-02
      9.03925626e-04 1.03305781e-03 1.80785125e-03 1.53667359e-02 0. 0.
      4.26136376e-03 3.48657020e-03 6.89566135e-02 0. 0. 0.
      2.06611562e-03 1.96281001e-02 0. 0. 4.91993800e-02 0.
      2.58264452e-04 0. 6.71487581e-03 0. 0. 1.00723142e-02 0. 0.
      5.16528904e-04 0. 1.29132226e-04 2.40185950e-02 0. 1.67871895e-03
      0. 0. 5.16528916e-03 0. 1.39462808e-02 2.58264452e-04 0. 0. 0. 0.
      4.77789249e-03 4.01601233e-02 1.80785125e-03 1.29132226e-04 0.
      1.05888434e-02 4.51962790e-03 0. 0. 0. 0. 2.94421483e-02 0. 0. 0.
      6.45661145e-04 2.32438021e-03 3.22830584e-03 0. 0. 0. 0. 0.
      5.16528904e-04 3.87396693e-04 0. 0. 0. 0. 0. 0. 5.55268582e-03
      3.87396693e-04 0. 0. 0. 6.45661145e-04 0. 0. 0. 0. 0. 0. 0. 0. 0.
      0. 6.71487581e-03 0. 0. 0. 2.58264458e-03 0. 0. 1.03305781e-03
      5.16528904e-04 3.83522734e-02 0. 0. 0. 6.45661145e-04
      9.55578499e-03 0. 0. 2.01446284e-02 0. 0. 0. 1.54958677e-03 0. 0.</_>
    <_>
      2.84863953e-02 0. 2.83446716e-04 2.12585041e-03 0. 3.82653065e-03
      2.19671205e-02 7.08616804e-04 1.84240360e-02 1.27551018e-03
      2.97619053e-03 2.60770973e-02 5.24376426e-03 4.54931967e-02
      2.62188204e-02 3.50056700e-02 5.30045368e-02 3.88321988e-02
      2.94784587e-02 5.68310656e-02 4.46428582e-02 7.34127015e-02
      4.39342409e-02 3.64229009e-02 2.28174608e-02 1.81405898e-02
      3.95408161e-02 1.27551018e-03 6.37755124e-03 2.26757373e-03
      3.25963721e-02 0. 1.27551025e-02 1.70068024e-03 4.67687054e-03
      9.07029491e-03 6.66099787e-03 8.50340119e-04 2.55102036e-03
      2.83446716e-04 8.50340119e-04 0. 4.53514745e-03 4.25170083e-03
      1.41723358e-04 7.08616804e-04 0. 0. 1.13378686e-03 0.
      8.21995456e-03 1.84240367e-03 1.41723358e-04 0. 0. 2.69274367e-03
      9.92063549e-04 1.41723358e-04 0. 0. 2.12585041e-03 0. 0.
      8.50340119e-04 0. 5.66893432e-04 6.80272095e-03 0. 8.50340119e-04
      0. 3.25963716e-03 0. 0. 1.55895692e-03 1.41723358e-04
      3.01870741e-02 0. 0. 0. 4.25170059e-04 6.80272095e-03 0. 0.
      1.45975053e-02 0. 0. 0. 1.70068024e-03 0. 0. 6.09410414e-03 0. 0.
      8.50340119e-04 0. 0. 1.26133785e-02 0. 0. 0. 0. 2.69274367e-03 0.
      3.25963716e-03 0. 0. 0. 0. 0. 4.25170059e-04 2.28174608e-02 0. 0.
      0. 5.52721089e-03 1.41723358e-04 0. 0. 0. 0. 1.20464852e-02 0. 0.
      0. 7.08616804e-04 2.26757373e-03 5.95238106e-03 0. 0. 0.
      1.41723358e-04 0. 1.41723361e-03 2.83446716e-04 0. 0. 0. 0. 0. 0.
      5.95238106e-03 0. 0. 0. 0. 4.25170059e-04 0. 0. 0. 0.
      9.92063549e-04 0. 0. 1.41723358e-04 0. 0. 7.51133775e-03 0. 0. 0.
      1.27551018e-03 0. 0. 2.83446716e-04 0. 1.94160994e-02 0. 0. 0.
      2.83446716e-04 8.64512473e-03 0. 0. 1.68650802e-02 0.
      4.25170059e-04 0. 8.64512473e-03 1.41723358e-04 0.</_>
    <_>
      6.05984079e-03 0. 0. 0. 0. 0. 2.90367380e-03 0. 5.04986732e-04 0.
      0. 6.31233444e-04 0. 2.14619376e-03 0. 0. 7.57480098e-04 0. 0.
      1.13622018e-03 4.67112754e-03 2.01994693e-03 1.26246683e-04
      1.13622018e-03 2.65118037e-03 2.90367380e-03 2.14619376e-03
      1.26246683e-04 3.78740049e-04 3.78740049e-04 1.32559016e-02 0.
      1.38871360e-03 6.31233444e-04 5.42860758e-03 8.58477503e-03
      7.57480133e-03 1.13622018e-03 3.66115384e-03 1.89370033e-03
      9.72099509e-03 6.31233444e-04 1.14884488e-02 1.52758490e-02
      1.76745362e-03 6.94356766e-03 8.71102139e-03 7.57480098e-04
      1.80532765e-02 2.39868695e-03 1.14884488e-02 1.66645627e-02
      1.28771616e-02 6.56482764e-03 7.82729499e-03 1.79270301e-02
      1.76745355e-02 1.36346417e-02 8.96351505e-03 3.28241382e-03
      2.48705968e-02 2.65118037e-03 1.45183690e-02 1.71695501e-02
      2.77742720e-03 1.28771616e-02 3.74952666e-02 2.18406767e-02
      1.62858218e-02 3.66115384e-02 2.70167906e-02 2.23456640e-02
      2.52493378e-02 2.49968432e-02 5.03724292e-02 2.00732239e-02
      2.38606241e-02 2.81530116e-02 5.42860758e-03 2.17144303e-02
      6.00934215e-02 9.34225507e-03 8.71102139e-03 1.37608889e-02
      2.34818831e-02 1.12359552e-02 3.28241382e-03 2.76480243e-02
      3.91364750e-03 2.39868695e-03 2.25981567e-02 1.64120691e-03
      3.02992039e-03 7.57480133e-03 6.31233444e-04 1.45183690e-02
      9.97348782e-03 2.52493366e-04 6.94356766e-03 2.52493378e-03
      1.00997346e-03 7.57480133e-03 1.26246689e-03 7.06981448e-03
      1.51496020e-03 8.83726811e-04 2.39868695e-03 2.52493366e-04
      5.04986732e-04 1.51496020e-03 6.31233444e-03 2.65118037e-03
      7.57480098e-04 6.31233444e-04 1.00997346e-03 1.64120691e-03
      5.04986732e-04 0. 0. 0. 4.54488071e-03 0. 2.52493366e-04 0.
      8.83726811e-04 1.00997346e-03 2.39868695e-03 0. 1.26246683e-04 0.
      2.52493366e-04 0. 1.51496020e-03 8.83726811e-04 0. 1.26246683e-04
      0. 0. 5.04986732e-04 0. 2.77742720e-03 6.31233444e-04 0. 0. 0.
      3.78740049e-04 1.26246683e-04 0. 0. 0. 6.31233444e-04 0. 0. 0. 0.
      0. 8.83726811e-04 0. 0. 0. 3.78740049e-04 0. 0. 3.78740049e-04 0.
      2.65118037e-03 0. 0. 0. 0. 1.89370033e-03 0. 0. 2.52493378e-03 0.
      0. 0. 0. 0. 0.</_>
    <_>
      2.03461479e-02 0. 0. 1.45329640e-03 0. 8.71977769e-03
      9.24824923e-03 6.60589256e-04 1.81001462e-02 1.84964994e-03
      5.41683193e-03 3.52754667e-02 2.90659275e-02 3.73893529e-02
      4.08244170e-02 5.44325523e-02 6.15669191e-02 2.35169772e-02
      3.67287621e-02 2.60272156e-02 3.18404026e-02 4.76945452e-02
      2.97265165e-02 2.95943990e-02 1.08336639e-02 1.59862600e-02
      2.10067388e-02 9.24824970e-04 2.37812125e-03 1.32117851e-03
      1.70432031e-02 3.96353542e-04 6.87012821e-03 2.37812125e-03
      6.20953878e-03 8.71977769e-03 4.22777096e-03 3.96353542e-04
      7.92707084e-04 5.28471370e-04 3.96353542e-04 1.32117842e-04
      4.09565354e-03 2.11388548e-03 0. 1.32117842e-04 0. 0.
      5.28471370e-04 0. 3.83141753e-03 1.05694274e-03 2.64235685e-04 0.
      0. 2.37812125e-03 7.92707084e-04 0. 0. 0. 9.24824970e-04 0. 0.
      5.28471370e-04 0. 0. 7.13436399e-03 0. 5.28471370e-04 0.
      3.30294622e-03 0. 0. 1.84964994e-03 2.77447491e-03 1.22869601e-02
      0. 0. 0. 2.11388548e-03 1.07015455e-02 0. 0. 9.24824923e-03 0.
      1.05694274e-03 0. 4.49200673e-03 0. 0. 1.09657813e-02 0.
      6.60589256e-04 2.64235702e-03 0. 7.66283507e-03 1.45329637e-02 0.
      9.51248500e-03 5.28471370e-04 2.64235685e-04 1.17584886e-02
      2.11388548e-03 2.15352103e-02 8.19130708e-03 3.17082833e-03
      1.40044922e-02 7.92707084e-04 2.11388548e-03 8.85189604e-03
      2.28563882e-02 1.03051923e-02 2.77447491e-03 1.71753205e-03
      1.40044922e-02 1.13621354e-02 1.18906063e-03 0. 0. 0.
      2.27242708e-02 0. 5.28471370e-04 0. 2.77447491e-03 8.19130708e-03
      7.66283507e-03 0. 5.28471370e-04 5.28471370e-04 5.28471370e-04 0.
      4.49200673e-03 3.83141753e-03 0. 1.32117842e-04 0. 0.
      5.28471370e-04 0. 6.07742090e-03 2.64235702e-03 0. 0. 0.
      1.45329640e-03 6.60589256e-04 0. 0. 0. 5.28471370e-04 0. 0. 0. 0.
      0. 3.96353565e-03 0. 0. 0. 1.32117851e-03 0. 0. 5.28471370e-04
      1.32117842e-04 1.05694281e-02 0. 0. 0. 0. 4.09565354e-03 0. 0.
      7.53071718e-03 0. 0. 0. 2.37812125e-03 0. 0.</_>
    <_>
      2.35169772e-02 0. 0. 0. 0. 0. 2.11388548e-03 0. 0. 0. 0.
      5.28471370e-04 0. 2.64235685e-04 0. 0. 0. 1.32117842e-04
      1.32117842e-04 0. 2.90659280e-03 7.92707084e-04 1.32117842e-04
      2.64235685e-04 6.60589256e-04 2.64235685e-04 3.96353542e-04 0. 0.
      2.64235685e-04 5.02047827e-03 0. 1.32117842e-04 1.32117842e-04
      2.11388548e-03 3.17082833e-03 1.98176783e-03 5.28471370e-04
      1.05694274e-03 2.64235685e-04 7.92707084e-04 2.64235685e-04
      2.37812125e-03 1.18906063e-03 5.28471370e-04 2.64235685e-04
      1.32117842e-04 0. 3.96353542e-04 1.32117842e-04 1.22869601e-02
      1.18906063e-03 0. 1.32117842e-04 2.64235685e-04 4.62412462e-03
      5.28471370e-04 2.64235685e-04 0. 1.32117842e-04 1.58541417e-03 0.
      1.32117842e-04 5.28471370e-04 0. 0. 1.51935527e-02 2.64235685e-04
      3.96353542e-04 0. 4.62412462e-03 1.32117842e-04 0. 3.43506411e-03
      1.32117851e-03 5.20544313e-02 2.64235685e-04 0. 0. 4.09565354e-03
      3.54075842e-02 1.32117842e-04 0. 5.15259616e-02 1.98176783e-03
      5.81318559e-03 0. 2.78768670e-02 3.96353542e-04 0. 5.36398478e-02
      0. 4.09565354e-03 2.19315626e-02 0. 3.11798118e-02 1.01070158e-01
      0. 4.65054847e-02 2.51023914e-03 9.24824970e-04 6.20953888e-02
      7.92707084e-04 7.38538802e-02 2.44418029e-02 3.56718199e-03
      3.26331072e-02 2.24600337e-03 5.02047827e-03 3.50112282e-02
      4.62412462e-02 2.72162762e-02 3.43506411e-03 8.45554192e-03
      2.41775662e-02 2.07425021e-02 2.64235702e-03 0. 0. 0.
      3.73893529e-02 0. 2.64235685e-04 0. 3.43506411e-03 1.00409565e-02
      1.03051923e-02 0. 1.18906063e-03 0. 3.96353542e-04 0.
      2.24600337e-03 1.58541417e-03 0. 1.32117842e-04 0. 0. 0. 0.
      6.73801033e-03 0. 0. 0. 0. 5.28471370e-04 1.32117842e-04 0. 0. 0.
      1.32117842e-04 0. 0. 0. 0. 0. 2.64235702e-03 0. 0. 0.
      1.32117842e-04 0. 0. 0. 0. 7.53071718e-03 0. 0. 0. 0.
      1.32117842e-04 0. 0. 1.18906063e-03 0. 0. 0. 0. 0. 0.</_>
    <_>
      4.89130430e-02 0. 0. 0. 0. 0. 2.24480149e-03 0. 0. 0. 0. 0. 0.
      1.18147451e-04 0. 0. 0. 0. 0. 0. 6.02551969e-03 0. 0. 0.
      1.41776935e-03 7.08884676e-04 0. 0. 0. 0. 1.34688094e-02 0. 0. 0.
      0. 0. 8.27032141e-04 0. 0. 0. 3.54442338e-04 0. 7.08884676e-04
      5.90737269e-04 0. 0. 0. 0. 0. 0. 5.31663513e-03 0. 0. 0. 0.
      1.06332707e-03 0. 0. 0. 0. 1.29962189e-03 0. 0. 2.36294902e-04 0.
      4.72589803e-04 7.08884699e-03 0. 8.27032141e-04 0. 2.71739135e-03
      0. 0. 1.53591682e-03 1.18147454e-03 4.41871472e-02 0. 0. 0.
      1.89035921e-03 1.63043477e-02 0. 0. 2.77646501e-02 0.
      2.36294902e-04 0. 1.46502834e-02 0. 0. 2.58742906e-02 0. 0.
      4.84404527e-03 0. 4.13516071e-03 4.44234386e-02 0. 1.01606809e-02
      0. 0. 2.76465025e-02 0. 6.87618181e-02 6.14366727e-03
      1.18147451e-04 1.39413988e-02 0. 0. 3.26086953e-02 8.04584101e-02
      2.23298669e-02 1.65406428e-03 9.33364872e-03 4.97400761e-02
      3.54442336e-02 2.24480149e-03 0. 0. 0. 1.02433838e-01 0.
      8.27032141e-04 0. 1.33506618e-02 2.58742906e-02 5.19848764e-02 0.
      1.18147451e-04 0. 5.31663513e-03 0. 3.40264663e-02 1.54773155e-02
      0. 3.54442338e-04 0. 0. 3.54442350e-03 0. 4.41871472e-02
      1.05151227e-02 1.29962189e-03 0. 0. 7.67958397e-03 3.54442338e-04
      0. 0. 0. 1.53591682e-03 0. 0. 0. 0. 0. 8.38846900e-03 0. 0. 0.
      9.45179607e-04 0. 0. 1.18147451e-04 0. 2.24480145e-02 0. 0. 0. 0.
      9.45179607e-04 0. 0. 6.26181485e-03 0. 0. 0. 0. 0. 0.</_>
    <_>
      5.19390567e-04 0. 0. 0. 0. 0. 0. 0. 0. 0. 0. 0. 0. 1.73130189e-04
      0. 0. 0. 0. 0. 0. 5.19390567e-04 5.19390567e-04 0. 0.
      5.19390567e-04 3.46260378e-04 1.73130189e-04 0. 0. 0.
      1.73130189e-03 0. 0. 0. 1.21191132e-03 1.73130189e-03
      1.38504151e-03 6.92520756e-04 2.25069257e-03 1.73130189e-04
      1.21191132e-03 0. 1.73130189e-03 3.11634340e-03 1.73130189e-03
      2.42382265e-03 2.94321333e-03 1.73130189e-04 6.05955673e-03
      1.55817170e-03 2.07756227e-03 4.67451522e-03 5.71329659e-03
      3.11634340e-03 7.27146817e-03 9.86842066e-03 8.65651015e-03
      6.92520756e-03 9.86842066e-03 3.28947371e-03 1.78324096e-02
      4.67451522e-03 1.26385046e-02 2.64889188e-02 7.79085886e-03
      1.35041550e-02 3.30678672e-02 3.28947380e-02 1.35041550e-02
      5.45360111e-02 2.73545701e-02 2.57963985e-02 2.85664815e-02
      3.44529077e-02 5.93836568e-02 4.15512472e-02 5.12465388e-02
      6.04224391e-02 2.25069243e-02 2.14681439e-02 8.43144059e-02
      1.29847648e-02 2.06024926e-02 1.67936292e-02 2.92590037e-02
      1.73130203e-02 7.44459825e-03 2.85664815e-02 8.48337915e-03
      3.80886416e-03 2.21606642e-02 6.05955673e-03 4.15512454e-03
      4.67451522e-03 3.80886416e-03 9.17590037e-03 6.75207749e-03
      1.03878113e-03 4.67451522e-03 1.21191132e-03 5.19390567e-04
      4.50138515e-03 5.19390567e-04 4.15512454e-03 8.65650945e-04
      1.03878113e-03 1.55817170e-03 1.73130189e-04 0. 1.38504151e-03
      1.21191132e-03 5.19390567e-04 3.46260378e-04 1.73130189e-04
      1.21191132e-03 3.46260378e-04 1.73130189e-04 0. 0. 0.
      1.38504151e-03 0. 0. 0. 5.19390567e-04 3.46260378e-04
      1.03878113e-03 0. 1.73130189e-04 0. 1.73130189e-04 0. 0. 0. 0. 0.
      0. 0. 0. 0. 0. 0. 0. 0. 0. 0. 0. 0. 0. 0. 0. 0. 0. 0. 0. 0. 0. 0.
      0. 0. 0. 0. 0. 0. 0. 3.46260378e-04 0. 0. 0. 0. 0. 0. 0. 0. 0. 0.
      0. 0. 0. 0.</_>
    <_>
      5.05977534e-02 0. 6.03791792e-04 7.24550162e-04 2.41516726e-04
      4.34730109e-03 4.21446674e-02 0. 9.41915251e-03 6.03791792e-04
      3.62275081e-04 1.85967870e-02 6.03791792e-04 5.72394654e-02
      7.97005184e-03 2.05289223e-03 1.46117620e-02 1.44910032e-03
      1.44910032e-03 2.72913892e-02 5.21676131e-02 2.66875979e-02
      3.98502592e-03 1.35249365e-02 4.00917754e-02 3.27255167e-02
      1.05059771e-02 2.41516726e-04 9.66066902e-04 8.45308532e-04
      8.15118924e-02 0. 5.55488467e-03 4.46805963e-03 1.82345118e-02
      3.91257107e-02 3.50199267e-02 2.05289223e-03 5.43412613e-03
      1.69061706e-03 5.79640130e-03 2.41516726e-04 2.19780225e-02
      1.54570704e-02 2.41516726e-04 2.05289223e-03 1.20758363e-04 0.
      3.38123413e-03 2.41516726e-04 3.18802074e-02 7.12474342e-03
      8.45308532e-04 2.41516726e-04 4.83033451e-04 1.05059771e-02
      1.81137549e-03 1.20758363e-04 0. 0. 3.50199244e-03 0.
      1.20758363e-04 9.66066902e-04 0. 6.03791792e-04 1.52155533e-02
      2.41516726e-04 7.24550162e-04 1.08682527e-03 9.29839350e-03 0. 0.
      1.93213380e-03 6.03791792e-04 3.23632397e-02 0. 0. 0. 0.
      1.00229438e-02 0. 0. 1.67854130e-02 0. 0. 0. 6.03791792e-04 0. 0.
      2.89820065e-03 0. 0. 0. 0. 0. 7.97005184e-03 0. 0. 0. 0.
      1.44910032e-03 0. 3.98502592e-03 0. 0. 0. 0. 0. 8.45308532e-04
      2.81366985e-02 0. 0. 0. 3.98502592e-03 1.20758358e-03 0. 0. 0. 0.
      2.43931897e-02 0. 0. 0. 3.62275081e-04 3.62275081e-04
      1.20758358e-03 1.20758363e-04 1.20758363e-04 1.20758363e-04
      1.20758363e-04 0. 1.08682527e-03 2.41516726e-04 0. 0. 0. 0. 0. 0.
      7.24550197e-03 2.41516726e-04 0. 0. 0. 6.03791792e-04
      1.20758363e-04 0. 0. 0. 3.62275081e-04 0. 0. 0. 0. 0.
      8.69460218e-03 0. 1.20758363e-04 0. 2.53592571e-03 0. 0.
      1.69061706e-03 1.32834201e-03 4.33522537e-02 0. 0. 0.
      6.03791792e-04 1.11097693e-02 0. 0. 2.53592562e-02 0.
      1.20758363e-04 0. 6.15867646e-03 0. 0.</_>
    <_>
      7.70635530e-02 0. 5.47845149e-04 7.30460219e-04 0. 4.74799145e-03
      1.51570486e-02 0. 3.83491605e-03 1.82615055e-04 1.82615055e-04
      1.05916727e-02 1.46092044e-03 1.46092037e-02 4.38276120e-03
      1.82615046e-03 7.48721696e-03 7.30460219e-04 1.64353545e-03
      8.76552239e-03 2.77574863e-02 1.00438278e-02 1.82615046e-03
      3.83491605e-03 1.22352084e-02 6.93937158e-03 4.74799145e-03
      1.82615055e-04 7.30460219e-04 1.82615046e-03 5.66106662e-02 0.
      9.13075230e-04 9.13075230e-04 2.00876547e-03 7.66983209e-03
      1.71658136e-02 3.65230109e-04 9.13075230e-04 0. 2.19138060e-03 0.
      1.24178231e-02 4.20014607e-03 0. 1.82615055e-04 0. 0.
      9.13075230e-04 0. 3.32359374e-02 2.37399573e-03 0. 0. 0.
      4.56537632e-03 1.82615055e-04 0. 0. 0. 1.46092044e-03 0. 0. 0. 0.
      0. 2.13659611e-02 0. 7.30460219e-04 0. 6.39152667e-03 0. 0.
      1.09569030e-03 0. 5.91672771e-02 9.13075230e-04 0. 0.
      9.13075230e-04 2.42878012e-02 0. 0. 4.32797670e-02 1.82615055e-04
      5.47845149e-04 0. 1.46092037e-02 1.82615055e-04 0. 1.71658136e-02
      0. 5.47845149e-04 1.46092044e-03 0. 3.83491605e-03 4.78451438e-02
      0. 4.38276120e-03 0. 0. 1.22352084e-02 0. 2.88531780e-02
      9.13075230e-04 1.27830531e-03 6.93937158e-03 0. 1.64353545e-03
      1.05916727e-02 4.96712923e-02 6.39152667e-03 1.46092044e-03
      7.30460219e-04 2.44704168e-02 6.20891154e-03 9.13075230e-04 0. 0.
      0. 5.36888242e-02 0. 7.30460219e-04 0. 1.64353545e-03
      1.47918193e-02 1.66179687e-02 0. 9.13075230e-04 0. 2.00876547e-03
      0. 7.85244722e-03 2.92184087e-03 0. 3.65230109e-04 1.82615055e-04
      0. 2.19138060e-03 0. 2.99488679e-02 2.19138060e-03 1.82615046e-03
      0. 0. 2.92184087e-03 1.64353545e-03 0. 0. 0. 1.09569030e-03 0. 0.
      0. 0. 0. 8.76552239e-03 0. 0. 0. 2.37399573e-03 0. 0.
      1.09569030e-03 0. 4.01753113e-02 0. 0. 0. 7.30460219e-04
      8.21767747e-03 0. 0. 1.64353549e-02 3.65230109e-04 1.82615055e-04
      0. 4.01753094e-03 5.47845149e-04 0.</_>
    <_>
      2.93401834e-02 0. 0. 0. 0. 0. 2.83937273e-03 0. 0. 0. 0.
      4.05624654e-04 0. 5.40832873e-04 0. 0. 0. 0. 0. 0. 3.65062198e-03
      0. 0. 0. 2.70416436e-04 0. 0. 0. 0. 0. 9.19415895e-03 0. 0. 0. 0.
      4.05624654e-04 1.48729037e-03 0. 0. 0. 0. 0. 6.62520295e-03
      1.21687399e-03 0. 0. 0. 0. 0. 0. 1.41968634e-02 6.76041120e-04 0.
      0. 0. 2.97458074e-03 4.05624654e-04 0. 0. 0. 1.08166575e-03 0. 0.
      0. 0. 4.05624654e-04 1.78474858e-02 0. 4.05624654e-04 0.
      7.43645197e-03 2.70416436e-04 0. 6.48999447e-03 8.78853444e-03
      3.61005962e-02 4.05624649e-03 2.70416436e-04 0. 1.81179009e-02
      8.82909670e-02 1.21687399e-03 0. 5.04326671e-02 1.13574909e-02
      1.43320709e-02 4.05624654e-04 6.36830702e-02 4.19145497e-03
      1.48729037e-03 7.35532716e-02 5.40832873e-04 6.89561944e-03
      2.31206063e-02 1.08166575e-03 3.75878848e-02 7.95024335e-02
      2.70416436e-04 2.97458079e-02 2.43374798e-03 2.70416436e-04
      4.43482958e-02 0. 5.81395365e-02 1.13574909e-02 2.83937273e-03
      1.33856134e-02 2.70416436e-04 1.48729037e-03 1.94699839e-02
      4.20497581e-02 1.00054080e-02 9.46457556e-04 2.16333149e-03
      2.13628989e-02 1.05462410e-02 9.46457556e-04 0. 0. 0.
      3.74526754e-02 0. 0. 0. 2.29853974e-03 5.27312048e-03
      1.13574909e-02 0. 2.70416436e-04 0. 8.11249309e-04 0.
      5.27312048e-03 1.89291511e-03 0. 0. 0. 0. 1.35208218e-04 0.
      9.32936743e-03 1.35208218e-04 0. 0. 0. 9.46457556e-04 0. 0. 0. 0.
      0. 0. 0. 0. 0. 0. 1.48729037e-03 0. 0. 0. 1.35208218e-04 0. 0.
      1.35208218e-04 0. 1.20335314e-02 0. 0. 0. 0. 8.11249309e-04 0. 0.
      4.86749597e-03 0. 0. 0. 1.35208218e-04 0. 0.</_>
    <_>
      0. 0. 0. 0. 0. 0. 0. 0. 0. 0. 0. 0. 0. 0. 0. 0. 0. 0. 0. 0. 0. 0.
      0. 0. 0. 0. 0. 0. 0. 0. 0. 0. 0. 0. 0. 0. 0. 0. 0. 0. 0. 0. 0. 0.
      0. 0. 0. 0. 0. 0. 0. 0. 0. 0. 0. 0. 0. 0. 0. 0. 3.96353542e-04 0.
      0. 0. 0. 0. 2.64235685e-04 0. 0. 1.32117842e-04 7.92707084e-04
      3.96353542e-04 1.05694274e-03 7.92707084e-04 3.56718199e-03
      1.18906063e-03 1.45329640e-03 5.54894982e-03 1.71753205e-03
      5.02047827e-03 1.51935527e-02 3.56718199e-03 8.32342450e-03
      8.05918872e-03 2.14030910e-02 1.28154317e-02 1.28154317e-02
      3.30294631e-02 1.28154317e-02 1.69110838e-02 5.16580790e-02
      3.21046375e-02 2.77447477e-02 2.48381551e-02 3.09155770e-02
      8.41590688e-02 3.50112282e-02 2.27242708e-02 7.25326985e-02
      4.28061821e-02 4.25419472e-02 7.01545775e-02 3.40864062e-02
      4.25419472e-02 2.90659275e-02 3.95032354e-02 2.64235698e-02
      1.77037921e-02 1.05694281e-02 1.77037921e-02 1.16263712e-02
      1.82322636e-02 1.00409565e-02 6.60589244e-03 2.51023914e-03
      6.47377456e-03 1.05694281e-02 5.28471370e-04 2.77447491e-03
      6.60589256e-04 3.43506411e-03 0. 2.24600337e-03 0. 1.32117842e-04
      1.45329640e-03 5.28471370e-04 0. 1.32117842e-04 0. 0. 0. 0. 0. 0.
      0. 0. 0. 0. 0. 0. 0. 0. 0. 0. 0. 0. 0. 0. 0. 0. 0. 0. 0. 0. 0. 0.
      0. 0. 0. 0. 0. 0. 0. 0. 0. 0. 0. 0. 0. 0. 0. 0. 0. 0. 0. 0. 0. 0.
      0.</_>
    <_>
      8.11672956e-02 0. 3.54442338e-04 5.31663513e-03 0. 3.07183363e-03
      2.81190928e-02 0. 4.13516071e-03 1.18147451e-04 0. 1.41776940e-02
      0. 2.09120978e-02 2.95368629e-03 4.72589803e-04 4.60775057e-03 0.
      4.72589803e-04 7.44328927e-03 2.33931951e-02 7.20699411e-03
      7.08884676e-04 1.77221175e-03 1.13421548e-02 3.07183363e-03
      2.95368629e-03 4.72589803e-04 2.36294902e-04 3.54442338e-04
      2.04395093e-02 0. 0. 0. 0. 1.77221175e-03 8.97920597e-03 0. 0. 0.
      0. 0. 3.18998098e-03 1.41776935e-03 0. 0. 0. 0. 0. 0.
      1.29962191e-02 1.18147454e-03 0. 0. 0. 1.65406428e-03 0. 0. 0. 0.
      3.54442338e-04 0. 0. 0. 0. 0. 2.12665414e-03 0. 0. 0.
      8.27032141e-04 0. 0. 2.36294902e-04 0. 2.75283549e-02 0. 0. 0. 0.
      3.07183363e-03 0. 0. 5.55292983e-03 1.18147454e-03 1.18147451e-04
      0. 1.18147454e-03 2.36294902e-04 0. 5.31663513e-03 0. 0.
      3.54442338e-04 0. 1.06332707e-03 1.28780715e-02 0. 2.36294908e-03
      0. 0. 4.13516071e-03 0. 1.79584119e-02 1.77221175e-03
      1.18147451e-04 3.66257085e-03 0. 1.18147451e-04 1.05151227e-02
      2.55198479e-02 7.20699411e-03 2.36294902e-04 2.36294908e-03
      3.11909262e-02 2.15028357e-02 0. 0. 0. 0. 5.80103956e-02 0. 0. 0.
      1.71313807e-02 2.98913047e-02 3.99338380e-02 0. 1.18147451e-04 0.
      9.45179630e-03 0. 2.98913047e-02 1.79584119e-02 0. 2.36294902e-04
      0. 0. 3.30812857e-03 0. 4.43052948e-02 9.09735356e-03
      1.89035921e-03 0. 1.18147451e-04 1.72495283e-02 4.13516071e-03
      1.41776935e-03 3.54442338e-04 0. 8.03402625e-03 0. 0.
      5.90737269e-04 0. 1.18147451e-04 2.50472594e-02 0. 1.18147451e-04
      0. 8.62476416e-03 0. 0. 2.48109642e-03 1.41776935e-03
      7.56143704e-02 1.18147451e-04 0. 0. 3.18998098e-03 4.27693762e-02
      1.18147451e-04 0. 5.62381856e-02 7.08884676e-04 2.59924377e-03 0.
      1.97306238e-02 8.27032141e-04 0.</_>
    <_>
      1.17630381e-02 4.25170059e-04 4.25170059e-04 2.26757373e-03 0.
      3.11791385e-03 1.61564630e-02 0. 5.38548734e-03 8.50340119e-04
      1.41723358e-04 1.14795920e-02 5.66893432e-04 2.02664398e-02
      5.66893443e-03 3.11791385e-03 1.58730168e-02 2.69274367e-03
      5.24376426e-03 1.44557822e-02 1.98412705e-02 2.77777780e-02
      1.06292516e-02 1.89909302e-02 1.81405898e-02 2.11167801e-02
      3.14625837e-02 2.40929704e-03 8.07823148e-03 7.65306130e-03
      6.91609979e-02 1.41723358e-04 2.60770973e-02 1.04875285e-02
      4.01077084e-02 7.90816322e-02 1.61564630e-02 1.28968256e-02
      2.80612241e-02 1.44557822e-02 1.79988667e-02 3.54308379e-03
      1.94160994e-02 2.96201818e-02 5.38548734e-03 1.27551025e-02
      1.65816322e-02 3.11791385e-03 2.65022684e-02 5.38548734e-03
      1.10544218e-02 2.02664398e-02 1.07709747e-02 5.38548734e-03
      8.64512473e-03 1.28968256e-02 1.27551025e-02 6.66099787e-03
      3.11791385e-03 2.12585041e-03 1.06292516e-02 7.08616804e-04
      4.53514745e-03 4.25170083e-03 1.41723358e-04 2.69274367e-03
      1.72902495e-02 4.25170083e-03 3.25963716e-03 7.08616758e-03
      7.22789112e-03 2.55102036e-03 1.13378686e-03 5.52721089e-03
      9.21201799e-03 6.23582769e-03 2.55102036e-03 2.83446716e-04 0.
      2.40929704e-03 1.00623583e-02 5.66893432e-04 0. 5.24376426e-03
      1.13378686e-03 2.83446716e-04 0. 3.25963716e-03 0. 0.
      4.67687054e-03 0. 1.41723358e-04 5.66893432e-04 0. 1.13378686e-03
      4.39342391e-03 0. 9.92063549e-04 0. 0. 2.40929704e-03 0.
      1.41723361e-03 1.41723358e-04 1.41723358e-04 4.25170059e-04 0.
      2.83446716e-04 4.25170059e-04 3.96825420e-03 5.66893432e-04
      2.83446716e-04 4.25170059e-04 1.13378686e-03 4.25170059e-04 0. 0.
      0. 0. 5.66893443e-03 0. 0. 0. 2.83446716e-04 4.25170059e-04
      2.26757373e-03 1.41723358e-04 9.92063549e-04 1.41723358e-04
      2.83446716e-04 0. 8.50340119e-04 4.25170059e-04 0. 0. 0. 0.
      2.83446716e-04 1.41723358e-04 3.68480734e-03 4.25170059e-04
      4.25170059e-04 0. 1.41723358e-04 4.25170059e-04 4.25170059e-04
      2.83446716e-04 0. 0. 0. 0. 0. 0. 0. 2.83446716e-04 3.25963716e-03
      0. 2.83446716e-04 0. 1.41723361e-03 2.83446716e-04 0.
      8.50340119e-04 1.41723358e-04 6.66099787e-03 2.83446716e-04 0. 0.
      9.92063549e-04 3.54308379e-03 0. 0. 4.67687054e-03 7.08616804e-04
      8.50340119e-04 0. 4.81859408e-03 1.41723358e-04 0.</_>
    <_>
      6.20274097e-02 2.36294902e-04 5.90737269e-04 5.67107741e-03 0.
      1.39413988e-02 5.42296804e-02 0. 2.15028357e-02 2.48109642e-03
      1.65406428e-03 3.43809091e-02 1.06332707e-03 5.89555763e-02
      1.68950856e-02 4.96219285e-03 2.41020788e-02 1.53591682e-03
      4.96219285e-03 2.64650285e-02 5.57655953e-02 2.63468809e-02
      6.26181485e-03 1.13421548e-02 3.75708900e-02 2.29206048e-02
      6.37996197e-03 0. 1.18147451e-04 0. 6.19092621e-02 0.
      1.06332707e-03 0. 7.08884699e-03 1.89035926e-02 2.50472594e-02
      2.36294902e-04 1.53591682e-03 4.72589803e-04 2.83553870e-03
      1.18147451e-04 1.03969751e-02 7.08884699e-03 1.18147451e-04
      8.27032141e-04 2.36294902e-04 0. 1.53591682e-03 2.36294902e-04
      2.02032141e-02 1.65406428e-03 5.90737269e-04 0. 3.54442338e-04
      4.96219285e-03 1.18147454e-03 4.72589803e-04 0. 0. 3.07183363e-03
      0. 1.18147451e-04 8.27032141e-04 0. 4.72589803e-04 1.76039692e-02
      4.72589803e-04 1.53591682e-03 8.27032141e-04 5.19848755e-03
      3.54442338e-04 0. 2.24480149e-03 2.48109642e-03 2.30387524e-02
      3.54442338e-04 0. 0. 7.08884676e-04 1.20510394e-02 0. 0.
      1.65406428e-02 9.45179607e-04 9.45179607e-04 0. 2.59924377e-03
      2.36294902e-04 0. 5.43478271e-03 0. 1.18147451e-04 5.90737269e-04
      0. 9.45179607e-04 5.55292983e-03 0. 2.36294902e-04 0. 0.
      4.72589803e-04 0. 4.13516071e-03 4.72589803e-04 0. 1.18147451e-04
      0. 0. 5.90737269e-04 9.33364872e-03 3.54442338e-04 0.
      1.18147451e-04 5.67107741e-03 1.89035921e-03 0. 0. 0. 0.
      2.24480145e-02 0. 0. 0. 4.72589803e-04 3.07183363e-03
      5.90737257e-03 0. 0. 0. 3.54442338e-04 0. 2.95368629e-03
      1.06332707e-03 0. 0. 0. 0. 0. 0. 1.50047261e-02 5.90737269e-04
      1.18147451e-04 0. 0. 2.83553870e-03 3.54442338e-04 1.18147451e-04
      0. 0. 1.29962189e-03 0. 1.18147451e-04 0. 0. 0. 1.12240072e-02 0.
      1.18147451e-04 0. 5.67107741e-03 0. 1.18147451e-04 2.48109642e-03
      9.45179607e-04 4.57230620e-02 1.18147451e-04 1.18147451e-04 0.
      2.71739135e-03 2.23298669e-02 0. 1.18147451e-04 3.20179574e-02
      8.27032141e-04 9.45179607e-04 1.18147451e-04 1.68950856e-02
      5.90737269e-04 1.18147451e-04</_>
    <_>
      6.90976381e-02 0. 0. 2.64235685e-04 0. 0. 2.24600337e-03 0.
      2.64235685e-04 0. 0. 3.96353542e-04 0. 3.17082833e-03 0. 0. 0. 0.
      0. 1.18906063e-03 5.41683193e-03 7.92707084e-04 0. 0.
      6.07742090e-03 3.56718199e-03 0. 0. 0. 0. 1.50614344e-02 0. 0. 0.
      2.64235702e-03 7.53071718e-03 8.05918872e-03 0. 7.92707084e-04
      5.28471370e-04 2.51023914e-03 0. 1.28154317e-02 5.94530301e-03 0.
      2.64235685e-04 0. 0. 2.64235702e-03 0. 3.23688723e-02
      6.47377456e-03 1.98176783e-03 2.64235685e-04 1.18906063e-03
      1.34760207e-02 4.22777096e-03 1.05694274e-03 0. 0. 6.07742090e-03
      0. 1.32117842e-04 6.60589256e-04 0. 6.60589256e-04 3.79178226e-02
      6.60589256e-04 2.51023914e-03 6.60589256e-04 1.63826142e-02
      7.92707084e-04 1.32117842e-04 9.64460336e-03 6.07742090e-03
      9.53890905e-02 7.92707084e-04 6.60589256e-04 0. 4.88836039e-03
      5.31113744e-02 9.24824970e-04 2.64235685e-04 9.02364925e-02
      7.92707130e-03 5.68106771e-03 1.32117842e-04 2.62914523e-02
      3.96353542e-04 2.64235685e-04 4.26740646e-02 2.64235685e-04
      1.58541417e-03 8.58766027e-03 1.32117842e-04 1.22869601e-02
      8.52160156e-02 0. 7.66283507e-03 1.32117842e-04 0. 2.24600341e-02
      1.32117842e-04 3.30294631e-02 1.45329640e-03 3.96353542e-04
      1.71753205e-03 0. 3.96353542e-04 5.54894982e-03 8.86510760e-02
      9.24824970e-04 0. 1.32117842e-04 2.21957993e-02 4.49200673e-03
      1.32117842e-04 0. 0. 0. 3.56718190e-02 0. 0. 0. 9.24824970e-04
      4.49200673e-03 9.90883913e-03 0. 1.32117842e-04 0. 3.96353542e-04
      0. 1.18906063e-03 1.58541417e-03 0. 0. 0. 0. 2.64235685e-04 0.
      4.35988884e-03 3.96353542e-04 0. 0. 0. 3.96353542e-04
      1.32117842e-04 0. 0. 0. 5.28471370e-04 0. 0. 0. 0. 0.
      1.71753205e-03 0. 0. 1.32117842e-04 5.28471370e-04 0. 0. 0.
      5.28471370e-04 1.07015455e-02 0. 0. 0. 5.28471370e-04
      3.96353542e-04 0. 0. 2.90659280e-03 0. 0. 0. 3.96353542e-04 0. 0.</_>
    <_>
      4.13528867e-02 0. 1.18906063e-03 6.87012821e-03 1.05694274e-03
      1.57220233e-02 5.79997376e-02 6.60589256e-04 2.65556872e-02
      7.92707130e-03 7.39859976e-03 7.22684637e-02 1.98176783e-02
      1.12828642e-01 3.56718190e-02 4.78266627e-02 6.56625703e-02
      3.52754667e-02 3.23688723e-02 4.98084277e-02 4.06922959e-02
      4.51843031e-02 1.59862600e-02 2.27242708e-02 3.11798118e-02
      2.35169772e-02 2.10067388e-02 2.64235685e-04 6.60589256e-04
      1.18906063e-03 2.02140305e-02 0. 1.84964994e-03 0. 3.69929988e-03
      6.87012821e-03 9.24824923e-03 0. 3.96353542e-04 3.96353542e-04
      6.60589256e-04 0. 1.58541417e-03 1.98176783e-03 0. 0. 0. 0.
      6.60589256e-04 0. 3.03871045e-03 1.32117842e-04 1.32117842e-04 0.
      0. 2.64235685e-04 0. 0. 0. 0. 0. 0. 0. 0. 0. 0. 6.60589256e-04 0.
      0. 0. 1.32117842e-04 0. 0. 0. 0. 1.84964994e-03 0. 0. 0. 0.
      1.32117842e-04 0. 0. 0. 0. 0. 0. 0. 0. 0. 0. 0. 0. 0. 0. 0. 0. 0.
      0. 0. 0. 0. 0. 0. 0. 0. 0. 0. 0. 0. 9.24824970e-04 0. 0. 0.
      1.32117842e-04 0. 0. 0. 0. 0. 6.47377456e-03 0. 0. 0. 0.
      1.32117842e-04 1.18906063e-03 0. 1.32117842e-04 0. 0. 0.
      3.30294622e-03 7.92707084e-04 0. 0. 0. 0. 0. 0. 7.26648187e-03
      7.92707084e-04 0. 0. 0. 2.90659280e-03 2.64235685e-04 0. 0. 0.
      1.32117851e-03 0. 0. 0. 0. 0. 6.87012821e-03 0. 6.60589256e-04 0.
      3.43506411e-03 0. 0. 1.18906063e-03 1.58541417e-03 1.09657813e-02
      2.64235685e-04 0. 0. 4.09565354e-03 1.79680269e-02 0. 0.
      1.09657813e-02 6.60589256e-04 7.92707084e-04 0. 1.99497957e-02
      3.96353542e-04 0.</_>
    <_>
      5.31663513e-03 0. 0. 0. 0. 0. 3.54442338e-04 0. 0. 0. 0.
      2.36294902e-04 0. 4.72589803e-04 0. 0. 0. 0. 0. 2.36294902e-04
      4.72589803e-04 0. 0. 0. 0. 2.36294902e-04 0. 0. 0. 0.
      1.41776935e-03 0. 0. 0. 5.90737269e-04 8.27032141e-04
      4.72589803e-04 0. 0. 0. 0. 0. 2.48109642e-03 1.18147451e-04 0. 0.
      0. 0. 0. 0. 6.85255183e-03 1.18147451e-04 0. 0. 0. 1.29962189e-03
      0. 0. 0. 0. 1.18147451e-04 0. 0. 0. 0. 0. 3.78071843e-03 0.
      4.72589803e-04 1.18147451e-04 1.89035921e-03 1.18147451e-04
      2.36294902e-04 8.27032141e-04 2.36294908e-03 1.07514178e-02
      4.72589803e-04 1.18147451e-04 0. 6.02551969e-03 2.15028357e-02 0.
      0. 9.09735356e-03 3.54442350e-03 5.67107741e-03 0. 2.45746691e-02
      2.95368629e-03 2.36294902e-04 3.23724002e-02 7.08884676e-04
      4.01701313e-03 1.14603024e-02 0. 2.97731571e-02 4.53686193e-02
      1.18147451e-04 4.41871472e-02 7.67958397e-03 4.13516071e-03
      7.66776949e-02 6.85255183e-03 8.49480182e-02 4.06427234e-02
      3.08364835e-02 7.36058578e-02 8.74291081e-03 2.24480145e-02
      2.93005668e-02 3.83979194e-02 4.96219285e-02 1.78402644e-02
      3.08364835e-02 2.25661620e-02 2.32750475e-02 3.46172005e-02
      7.08884676e-04 2.48109642e-03 2.36294902e-04 3.22542526e-02 0.
      1.00425333e-02 2.36294902e-04 5.43478271e-03 1.67769380e-02
      1.45321358e-02 4.72589803e-04 9.45179607e-04 4.72589803e-04
      3.30812857e-03 0. 4.84404527e-03 3.54442350e-03 1.18147451e-04
      5.90737269e-04 1.18147451e-04 0. 9.45179607e-04 1.18147451e-04
      2.12665414e-03 1.41776935e-03 5.90737269e-04 0. 0. 1.65406428e-03
      8.27032141e-04 0. 0. 0. 7.08884676e-04 0. 0. 1.18147451e-04 0. 0.
      1.89035921e-03 0. 0. 0. 7.08884676e-04 0. 0. 1.18147451e-04 0.
      2.59924377e-03 0. 0. 0. 0. 2.36294902e-04 0. 0. 1.41776935e-03 0.
      0. 0. 0. 0. 0.</_>
    <_>
      5.02047827e-03 0. 0. 0. 0. 0. 2.64235685e-04 0. 0. 0. 0. 0. 0.
      9.24824970e-04 0. 0. 0. 0. 0. 7.92707084e-04 9.24824970e-04
      2.64235702e-03 1.32117851e-03 1.58541417e-03 6.34165667e-03
      4.88836039e-03 1.58541426e-02 3.03871045e-03 4.62412462e-03
      7.39859976e-03 1.63826142e-02 0. 8.58766027e-03 6.60589244e-03
      1.79680269e-02 3.40864062e-02 1.03051923e-02 9.11613181e-03
      2.48381551e-02 1.28154317e-02 2.08746195e-02 4.88836039e-03
      2.08746195e-02 4.10886519e-02 4.88836039e-03 1.58541426e-02
      2.37812120e-02 5.28471370e-04 4.08244170e-02 3.83141753e-03
      1.47971995e-02 3.46148759e-02 2.14030910e-02 2.64235702e-03
      1.36081381e-02 2.24600341e-02 2.89338082e-02 1.30796675e-02
      4.22777096e-03 1.05694274e-03 3.27652283e-02 5.28471370e-04
      4.22777096e-03 1.78359095e-02 2.64235685e-04 6.60589244e-03
      4.24098298e-02 5.15259616e-03 8.58766027e-03 7.26648187e-03
      2.74805129e-02 1.98176783e-03 2.90659280e-03 2.31206231e-02
      2.69520413e-02 5.41683193e-03 4.09565354e-03 1.98176783e-03
      1.32117842e-04 2.11388562e-02 6.52662143e-02 3.96353542e-04
      3.96353542e-04 1.73074380e-02 5.68106771e-03 5.15259616e-03
      3.96353542e-04 3.60681713e-02 1.45329640e-03 2.64235685e-04
      2.90659275e-02 3.96353542e-04 1.05694274e-03 1.00409565e-02
      2.64235685e-04 4.35988884e-03 1.87607352e-02 1.32117842e-04
      5.15259616e-03 2.64235685e-04 1.32117842e-04 9.90883913e-03
      2.64235685e-04 7.79495295e-03 1.45329640e-03 0. 1.32117842e-04 0.
      1.32117842e-04 3.96353542e-04 2.11388548e-03 1.32117842e-04 0. 0.
      9.24824970e-04 7.92707084e-04 0. 0. 0. 0. 7.92707084e-04 0. 0. 0.
      0. 1.32117842e-04 2.64235685e-04 0. 0. 0. 0. 0. 0. 0. 0. 0. 0. 0.
      0. 0. 3.96353542e-04 0. 0. 0. 0. 0. 0. 0. 0. 0. 0. 0. 0. 0. 0. 0.
      0. 0. 0. 0. 0. 0. 0. 0. 0. 9.24824970e-04 0. 0. 0. 0. 0. 0. 0. 0.
      0. 0. 0. 0. 0. 0.</_>
    <_>
      1.92892067e-02 0. 2.64235685e-04 3.96353542e-04 0. 3.96353565e-03
      6.34165667e-03 0. 8.98401346e-03 1.84964994e-03 3.96353542e-04
      1.66468490e-02 9.11613181e-03 2.32527424e-02 2.36490946e-02
      4.00317088e-02 6.22275062e-02 3.63324098e-02 3.46148759e-02
      6.92297518e-02 5.24507873e-02 9.45963785e-02 6.98903427e-02
      3.62002924e-02 1.74395554e-02 2.82732192e-02 7.66283497e-02
      5.54894982e-03 1.03051923e-02 1.16263712e-02 3.09155770e-02
      3.30294622e-03 1.34760207e-02 3.69929988e-03 8.58766027e-03
      1.57220233e-02 7.92707130e-03 5.28471370e-04 1.45329640e-03
      1.32117851e-03 2.64235702e-03 1.32117842e-04 4.35988884e-03
      3.17082833e-03 0. 1.45329640e-03 3.96353542e-04 0. 2.51023914e-03
      0. 9.51248500e-03 2.51023914e-03 7.92707084e-04 5.28471370e-04
      1.32117842e-04 2.77447491e-03 1.84964994e-03 3.96353542e-04
      2.64235685e-04 0. 1.18906063e-03 0. 3.96353542e-04 3.96353542e-04
      0. 0. 4.88836039e-03 1.32117842e-04 6.60589256e-04 3.96353542e-04
      3.69929988e-03 2.64235685e-04 0. 2.24600337e-03 1.32117851e-03
      8.58766027e-03 1.32117842e-04 0. 0. 1.84964994e-03 7.92707130e-03
      0. 0. 5.81318559e-03 3.96353542e-04 6.60589256e-04 0.
      4.88836039e-03 0. 0. 4.35988884e-03 0. 0. 1.58541417e-03 0.
      5.28471370e-04 7.66283507e-03 0. 7.92707084e-04 0. 0.
      3.30294622e-03 0. 4.49200673e-03 2.64235685e-04 0. 1.05694274e-03
      0. 0. 1.05694274e-03 8.85189604e-03 5.28471370e-04 0. 0.
      4.35988884e-03 9.24824970e-04 0. 0. 0. 0. 3.30294622e-03 0. 0. 0.
      0. 1.18906063e-03 2.51023914e-03 0. 0. 0. 0. 0. 1.84964994e-03
      1.98176783e-03 0. 0. 0. 0. 0. 0. 3.30294622e-03 7.92707084e-04 0.
      0. 0. 1.58541417e-03 0. 0. 0. 0. 2.64235685e-04 0. 0. 0. 0. 0.
      2.11388548e-03 0. 0. 0. 5.28471370e-04 0. 0. 2.64235685e-04
      1.32117842e-04 7.66283507e-03 0. 0. 0. 3.96353542e-04
      1.58541417e-03 0. 0. 3.03871045e-03 0. 5.28471370e-04 0.
      1.45329640e-03 0. 0.</_>
    <_>
      4.82230149e-02 0. 0. 1.18906063e-03 0. 4.35988884e-03
      2.88016908e-02 0. 6.73801033e-03 0. 0. 1.36081381e-02 0.
      4.88836057e-02 4.49200673e-03 1.32117842e-04 8.71977769e-03 0.
      1.71753205e-03 2.84053367e-02 6.19632713e-02 1.79680269e-02
      7.92707084e-04 6.07742090e-03 8.17809477e-02 6.15669191e-02
      2.90659280e-03 3.96353542e-04 3.96353542e-04 5.28471370e-04
      9.68423858e-02 0. 6.07742090e-03 1.32117842e-04 2.21957993e-02
      6.83049262e-02 5.20544313e-02 0. 1.71753205e-03 1.71753205e-03
      3.43506411e-03 0. 2.48381551e-02 1.83643810e-02 0. 1.05694274e-03
      0. 0. 2.24600337e-03 0. 2.35169772e-02 4.49200673e-03
      7.92707084e-04 0. 0. 7.13436399e-03 3.96353542e-04 6.60589256e-04
      1.32117842e-04 0. 3.30294622e-03 0. 3.96353542e-04 3.96353542e-04
      0. 3.96353542e-04 1.18906060e-02 1.32117842e-04 6.60589256e-04
      3.96353542e-04 6.87012821e-03 0. 2.64235685e-04 1.98176783e-03
      3.43506411e-03 2.24600341e-02 1.32117842e-04 2.64235685e-04 0.
      2.24600337e-03 1.25511959e-02 1.32117842e-04 0. 8.85189604e-03
      1.45329640e-03 2.37812125e-03 0. 6.47377456e-03 0. 0.
      5.81318559e-03 0. 0. 5.28471370e-04 0. 1.32117842e-04
      6.73801033e-03 0. 1.32117842e-04 0. 0. 1.45329640e-03 0.
      9.24824970e-04 0. 0. 0. 0. 0. 1.32117842e-04 9.77672078e-03 0. 0.
      0. 2.51023914e-03 1.32117842e-04 0. 0. 0. 0. 1.38723738e-02 0. 0.
      0. 0. 1.32117842e-04 2.77447491e-03 0. 0. 0. 0. 0. 2.64235685e-04
      0. 0. 0. 0. 0. 0. 0. 1.50614344e-02 1.32117842e-04 0. 0. 0.
      5.28471370e-04 1.32117842e-04 0. 0. 0. 0. 0. 0. 0. 0. 0.
      4.09565354e-03 0. 0. 0. 1.71753205e-03 0. 0. 2.64235685e-04
      2.64235685e-04 4.25419472e-02 0. 0. 0. 3.96353542e-04
      1.21548418e-02 0. 0. 2.21957993e-02 0. 0. 0. 2.37812125e-03 0. 0.</_>
    <_>
      4.00309917e-03 0. 0. 6.45661145e-04 1.29132226e-04 2.84090918e-03
      8.13533086e-03 2.58264452e-04 9.03925579e-03 1.93698343e-03
      7.10227294e-03 2.60847099e-02 2.14359500e-02 5.91425635e-02
      3.48657034e-02 5.48812002e-02 7.87706599e-02 1.05242766e-01
      8.80681798e-02 6.55991733e-02 5.37190065e-02 8.09659064e-02
      4.80371900e-02 3.29287201e-02 1.35588842e-02 2.18233466e-02
      5.61725199e-02 1.54958677e-03 5.16528916e-03 4.26136376e-03
      2.75051650e-02 2.58264452e-04 1.25258267e-02 3.48657020e-03
      8.78099166e-03 1.60123967e-02 8.39359500e-03 5.16528904e-04
      2.19524791e-03 1.29132226e-04 5.68181835e-03 2.58264452e-04
      3.22830584e-03 4.26136376e-03 1.29132226e-04 2.58264452e-04
      3.87396693e-04 1.29132226e-04 1.29132226e-04 0. 2.06611562e-03
      1.03305781e-03 0. 0. 2.58264452e-04 1.67871895e-03 2.58264452e-04
      0. 0. 0. 7.74793385e-04 0. 0. 0. 0. 0. 1.29132229e-03 0.
      5.16528904e-04 2.58264452e-04 1.29132226e-04 0. 0. 1.29132226e-04
      2.58264452e-04 1.16219011e-03 9.03925626e-04 0. 0. 0. 0. 0. 0. 0.
      0. 0. 0. 0. 0. 0. 0. 0. 0. 0. 0. 0. 2.58264452e-04 0. 0. 0. 0. 0.
      0. 0. 0. 0. 0. 0. 0. 0. 2.58264452e-04 0. 0. 0. 0. 0. 0. 0. 0. 0.
      5.16528904e-04 0. 0. 0. 0. 0. 3.87396693e-04 0. 0. 0. 0. 0. 0. 0.
      0. 0. 0. 0. 0. 0. 0. 0. 0. 0. 0. 2.58264452e-04 0. 0. 0. 0. 0. 0.
      0. 0. 0. 0. 2.58264452e-04 0. 0. 0. 0. 0. 0. 0. 0. 1.29132226e-04
      0. 0. 0. 3.87396693e-04 9.03925626e-04 0. 0. 2.45351251e-03 0. 0.
      0. 2.84090918e-03 0. 0.</_>
    <_>
      9.90883913e-03 0. 0. 0. 0. 0. 1.32117851e-03 0. 1.32117842e-04 0.
      0. 2.64235685e-04 0. 1.45329640e-03 1.32117842e-04 0. 0. 0. 0.
      7.92707084e-04 2.11388548e-03 3.96353542e-04 0. 0. 2.37812125e-03
      2.11388548e-03 0. 0. 0. 0. 5.68106771e-03 0. 0. 0. 2.11388548e-03
      3.96353565e-03 3.43506411e-03 0. 6.60589256e-04 7.92707084e-04
      1.58541417e-03 0. 5.68106771e-03 3.56718199e-03 0. 1.71753205e-03
      6.60589256e-04 0. 5.02047827e-03 2.64235685e-04 1.10978996e-02
      3.30294622e-03 9.24824970e-04 5.28471370e-04 1.18906063e-03
      6.87012821e-03 2.51023914e-03 1.84964994e-03 3.96353542e-04 0.
      6.47377456e-03 0. 5.28471370e-04 1.58541417e-03 0. 7.92707084e-04
      2.17994452e-02 7.92707084e-04 3.03871045e-03 1.32117851e-03
      1.22869601e-02 3.96353542e-04 1.32117842e-04 1.07015455e-02
      4.75624250e-03 4.49200682e-02 3.96353542e-04 0. 0. 4.88836039e-03
      7.51750544e-02 0. 0. 5.02047837e-02 1.05694274e-03 1.84964994e-03
      0. 3.52754667e-02 0. 0. 5.54894954e-02 0. 1.18906063e-03
      1.49293169e-02 0. 1.42687280e-02 8.29700083e-02 0. 2.53666267e-02
      1.18906063e-03 0. 7.45144635e-02 1.32117842e-04 9.34073180e-02
      2.41775662e-02 1.71753205e-03 3.76535878e-02 1.18906063e-03
      4.62412462e-03 2.94622798e-02 4.65054847e-02 2.65556872e-02
      2.24600337e-03 7.39859976e-03 2.94622798e-02 1.22869601e-02
      3.83141753e-03 0. 0. 0. 2.33848598e-02 0. 9.24824970e-04 0.
      1.98176783e-03 5.94530301e-03 7.92707130e-03 0. 9.24824970e-04
      2.64235685e-04 1.32117842e-04 0. 7.92707084e-04 0. 0. 0. 0. 0. 0.
      0. 1.58541417e-03 0. 0. 0. 0. 0. 0. 0. 0. 0. 0. 0. 0. 0. 0. 0. 0.
      0. 0. 0. 0. 0. 0. 0. 0. 2.24600337e-03 0. 0. 0. 0. 0. 0. 0.
      1.32117842e-04 0. 0. 0. 0. 0. 0.</_>
    <_>
      4.27693762e-02 0. 0. 3.54442338e-04 0. 5.90737269e-04
      9.56994295e-03 0. 1.53591682e-03 0. 0. 5.55292983e-03 0.
      7.20699411e-03 3.07183363e-03 2.36294902e-04 4.96219285e-03 0.
      2.48109642e-03 2.48109642e-03 2.17391308e-02 6.14366727e-03
      1.18147454e-03 3.78071843e-03 9.80623811e-03 5.55292983e-03
      7.20699411e-03 0. 0. 1.18147451e-04 2.54017022e-02 0.
      7.08884676e-04 0. 2.12665414e-03 4.84404527e-03 1.53591679e-02 0.
      0. 0. 2.36294908e-03 0. 1.05151227e-02 2.24480149e-03 0. 0. 0. 0.
      7.08884676e-04 0. 2.54017022e-02 1.53591682e-03 1.18147451e-04 0.
      0. 2.24480149e-03 1.18147454e-03 0. 0. 0. 1.77221175e-03 0. 0. 0.
      0. 0. 7.79773155e-03 0. 0. 0. 4.60775057e-03 0. 0. 5.90737269e-04
      3.54442338e-04 5.35207950e-02 0. 0. 0. 2.24480149e-03
      1.50047261e-02 0. 0. 2.64650285e-02 7.08884676e-04 1.65406428e-03
      0. 8.86105839e-03 0. 0. 2.35113427e-02 0. 0. 4.01701313e-03 0.
      4.84404527e-03 6.63988665e-02 0. 7.91587867e-03 0. 0.
      3.22542526e-02 0. 6.13185242e-02 7.91587867e-03 3.54442338e-04
      1.22873345e-02 0. 0. 2.41020788e-02 7.30151236e-02 1.93761811e-02
      7.08884676e-04 8.74291081e-03 3.08364835e-02 1.78402644e-02
      3.30812857e-03 0. 0. 0. 8.76654088e-02 0. 8.27032141e-04 0.
      2.95368629e-03 8.03402625e-03 3.35538760e-02 0. 2.00850656e-03 0.
      2.24480149e-03 0. 1.72495283e-02 9.45179607e-04 0. 0. 0. 0. 0. 0.
      2.46928167e-02 1.53591682e-03 0. 0. 0. 4.25330829e-03
      8.27032141e-04 0. 0. 0. 1.18147451e-04 0. 0. 2.36294902e-04 0. 0.
      1.12240072e-02 0. 0. 0. 2.00850656e-03 0. 0. 0. 0. 3.14272195e-02
      0. 0. 0. 0. 4.25330829e-03 0. 0. 9.92438570e-03 0. 0. 0.
      5.90737269e-04 0. 0.</_>
    <_>
      1.55489454e-02 4.05624654e-04 2.70416436e-04 2.56895623e-03 0.
      6.89561944e-03 3.50189283e-02 5.40832873e-04 8.92374292e-03
      3.24499724e-03 1.89291511e-03 2.50135213e-02 1.02758249e-02
      6.94970265e-02 2.52839364e-02 4.16441336e-02 4.92157936e-02
      6.11141175e-02 5.61114103e-02 6.39534891e-02 8.95078406e-02
      5.84099516e-02 4.74580862e-02 2.47431044e-02 5.59762046e-02
      2.79881023e-02 2.94753928e-02 2.70416448e-03 4.86749597e-03
      3.10978899e-03 4.93509993e-02 4.05624654e-04 5.00270398e-03
      1.75770686e-03 9.46457591e-03 1.86587349e-02 1.96051914e-02
      1.35208218e-04 1.48729037e-03 0. 2.97458074e-03 0. 5.54353697e-03
      2.70416448e-03 0. 0. 0. 0. 2.70416436e-04 0. 6.62520295e-03
      4.05624654e-04 0. 0. 0. 1.35208218e-04 0. 0. 0. 0. 0. 0. 0. 0. 0.
      0. 1.08166575e-03 0. 2.70416436e-04 0. 5.40832873e-04 0. 0. 0. 0.
      9.46457556e-04 0. 0. 0. 0. 5.40832873e-04 0. 0. 6.76041120e-04 0.
      0. 0. 0. 0. 0. 0. 0. 0. 0. 0. 0. 0. 0. 0. 0. 0. 0. 0. 0. 0. 0. 0.
      0. 0. 0. 4.05624654e-04 0. 0. 0. 2.70416436e-04 0. 0. 0. 0. 0.
      1.48729037e-03 0. 0. 0. 0. 2.70416436e-04 6.76041120e-04 0.
      1.35208218e-04 0. 0. 0. 5.40832873e-04 6.76041120e-04 0. 0. 0. 0.
      1.35208218e-04 0. 2.29853974e-03 1.35208218e-04 0. 0. 0.
      8.11249309e-04 0. 0. 0. 0. 1.21687399e-03 0. 0. 0. 0. 0.
      3.51541373e-03 0. 0. 0. 9.46457556e-04 0. 0. 1.35208218e-04
      1.35208218e-04 1.67658199e-02 0. 0. 0. 4.05624654e-04
      4.73228795e-03 0. 0. 8.51811748e-03 0. 0. 0. 5.54353697e-03 0. 0.</_>
    <_>
      4.91478406e-02 0. 0. 2.64235685e-04 0. 1.05694274e-03
      4.75624250e-03 0. 2.11388548e-03 0. 0. 5.02047827e-03 0.
      8.05918872e-03 1.58541417e-03 1.71753205e-03 4.22777096e-03
      9.24824970e-04 1.58541417e-03 3.56718199e-03 1.08336639e-02
      6.73801033e-03 1.71753205e-03 3.03871045e-03 5.81318559e-03
      4.22777096e-03 3.83141753e-03 0. 1.32117842e-04 0. 1.84964985e-02
      0. 3.96353542e-04 0. 1.05694274e-03 3.83141753e-03 4.88836039e-03
      0. 1.32117842e-04 2.64235685e-04 1.18906063e-03 0. 3.56718199e-03
      1.58541417e-03 0. 1.32117842e-04 0. 0. 5.28471370e-04 0.
      1.91570874e-02 3.96353542e-04 1.32117842e-04 0. 0. 1.84964994e-03
      6.60589256e-04 0. 0. 0. 1.05694274e-03 0. 0. 0. 0. 0.
      8.98401346e-03 0. 0. 0. 4.49200673e-03 0. 0. 1.18906063e-03
      1.32117842e-04 5.79997376e-02 0. 0. 0. 9.24824970e-04
      1.30796675e-02 0. 0. 1.57220233e-02 1.32117842e-04 2.64235685e-04
      0. 7.00224610e-03 2.64235685e-04 0. 1.61183774e-02 0.
      7.92707084e-04 7.92707084e-04 0. 3.30294622e-03 5.06011359e-02 0.
      6.34165667e-03 0. 0. 2.52345093e-02 0. 4.84872498e-02
      3.56718199e-03 3.96353542e-04 7.39859976e-03 0. 2.64235685e-04
      2.21957993e-02 8.57444853e-02 1.50614344e-02 9.24824970e-04
      7.66283507e-03 6.15669191e-02 3.14440466e-02 3.96353565e-03 0. 0.
      0. 8.57444853e-02 0. 5.28471370e-04 0. 1.45329637e-02
      3.21046375e-02 5.64143211e-02 0. 3.69929988e-03 1.18906063e-03
      1.34760207e-02 0. 1.57220233e-02 1.12300171e-02 0. 2.24600337e-03
      0. 0. 1.58541417e-03 0. 3.38221677e-02 2.37812125e-03 0. 0. 0.
      3.43506411e-03 5.28471370e-04 0. 0. 0. 9.24824970e-04 0. 0. 0. 0.
      0. 3.56718199e-03 0. 1.32117842e-04 0. 1.32117851e-03 0. 0.
      1.32117842e-04 1.32117842e-04 2.24600341e-02 1.32117842e-04 0. 0.
      3.96353542e-04 4.22777096e-03 0. 0. 3.17082833e-03 0. 0. 0.
      3.03871045e-03 0. 0.</_>
    <_>
      7.30124414e-02 9.46457556e-04 2.97458074e-03 1.48729037e-03
      9.46457556e-04 1.05462410e-02 4.66468371e-02 2.29853974e-03
      1.67658199e-02 8.24770145e-03 1.44672794e-02 5.57057858e-02
      2.90697683e-02 8.85613859e-02 3.52893472e-02 5.08382916e-02
      4.12385091e-02 3.17739323e-02 1.67658199e-02 2.56895628e-02
      3.86695527e-02 1.89291518e-02 1.08166579e-02 5.94916148e-03
      1.40616549e-02 7.43645197e-03 4.59707947e-03 0. 8.11249309e-04
      2.70416436e-04 1.82531103e-02 0. 1.08166575e-03 0. 2.70416436e-04
      1.89291511e-03 3.78583022e-03 0. 0. 0. 2.70416436e-04 0.
      9.46457556e-04 5.40832873e-04 0. 2.70416436e-04 0. 0.
      2.70416436e-04 0. 2.70416448e-03 0. 0. 0. 0. 1.35208218e-04 0. 0.
      0. 0. 1.35208218e-04 0. 1.35208218e-04 1.35208218e-04 0.
      1.35208218e-04 6.76041120e-04 0. 0. 0. 0. 0. 0. 0. 0.
      9.19415895e-03 0. 0. 0. 0. 2.70416436e-04 0. 0. 1.08166575e-03 0.
      0. 0. 0. 0. 0. 1.35208218e-04 0. 0. 0. 0. 0. 1.21687399e-03 0. 0.
      0. 0. 0. 0. 0. 0. 0. 0. 0. 0. 0. 4.86749597e-03 0. 0. 0.
      1.35208218e-04 0. 0. 0. 0. 0. 9.32936743e-03 0. 0. 0. 0. 0.
      1.08166575e-03 0. 0. 0. 0. 0. 8.11249309e-04 0. 0. 0. 0. 0. 0. 0.
      1.16279069e-02 0. 1.35208218e-04 0. 0. 1.35208224e-03
      4.05624654e-04 0. 0. 0. 5.40832873e-04 0. 0. 0. 0. 0.
      8.11249297e-03 0. 0. 1.35208218e-04 1.06814494e-02 0. 0.
      1.62249862e-03 1.21687399e-03 8.36938918e-02 2.70416436e-04 0. 0.
      2.70416448e-03 6.59816116e-02 0. 0. 8.62628445e-02 4.05624654e-04
      1.89291511e-03 0. 7.84207694e-03 0. 5.40832873e-04</_>
    <_>
      1.00661628e-01 0. 0. 1.18147451e-04 0. 0. 1.64224952e-02 0. 0. 0.
      0. 1.77221175e-03 0. 6.73440471e-03 0. 0. 0. 0. 0. 3.07183363e-03
      2.29206048e-02 4.72589803e-04 0. 1.18147451e-04 8.50661658e-03
      3.42627591e-03 0. 0. 0. 0. 1.71313807e-02 0. 0. 0. 8.27032141e-04
      1.41776935e-03 2.71739135e-03 0. 7.08884676e-04 1.18147451e-04
      1.18147451e-04 0. 5.90737269e-04 2.36294902e-04 0. 0. 0. 0. 0. 0.
      8.27032141e-03 0. 0. 0. 0. 5.90737269e-04 0. 0. 0. 0.
      5.90737269e-04 0. 0. 0. 0. 2.36294902e-04 3.89886578e-03 0.
      1.18147451e-04 0. 7.08884676e-04 0. 0. 2.36294902e-04
      2.36294902e-04 4.46597338e-02 0. 0. 0. 4.72589803e-04
      4.84404527e-03 0. 0. 2.10302453e-02 0. 1.18147451e-04 0.
      1.89035921e-03 0. 0. 8.03402625e-03 0. 0. 2.36294902e-04 0.
      1.65406428e-03 3.30812857e-02 0. 2.36294908e-03 0. 0.
      1.14603024e-02 0. 3.13090719e-02 9.45179607e-04 1.18147451e-04
      3.78071843e-03 0. 1.18147454e-03 1.38232512e-02 6.40359148e-02
      1.01606809e-02 2.36294908e-03 4.01701313e-03 3.75708900e-02
      1.66587904e-02 2.83553870e-03 0. 0. 0. 1.03615314e-01 0. 0. 0.
      6.73440471e-03 1.52410204e-02 3.85160670e-02 0. 1.89035921e-03
      1.18147451e-04 2.59924377e-03 0. 2.38657836e-02 6.61625713e-03 0.
      3.54442338e-04 0. 0. 0. 0. 5.69470711e-02 1.89035921e-03 0. 0. 0.
      6.73440471e-03 0. 0. 0. 0. 2.12665414e-03 0. 0. 0. 0. 0.
      3.23724002e-02 0. 1.18147451e-04 0. 5.67107741e-03 0. 0.
      1.65406428e-03 9.45179607e-04 9.31001902e-02 0. 0. 0.
      2.36294902e-04 2.45746691e-02 0. 0. 5.05671091e-02 0. 0. 0.
      1.89035921e-03 0. 0.</_>
    <_>
      3.46148759e-02 0. 0. 3.96353542e-04 0. 0. 2.90659280e-03 0. 0. 0.
      0. 1.05694274e-03 0. 4.09565354e-03 0. 0. 7.92707084e-04 0. 0.
      1.45329640e-03 6.07742090e-03 3.17082833e-03 0. 1.71753205e-03
      2.90659280e-03 2.77447491e-03 7.92707084e-04 0. 0. 0.
      1.82322636e-02 0. 3.96353542e-04 0. 3.56718199e-03 5.54894982e-03
      3.83141753e-03 5.28471370e-04 2.51023914e-03 1.18906063e-03
      2.11388548e-03 3.96353542e-04 7.00224610e-03 6.07742090e-03
      5.28471370e-04 2.37812125e-03 1.45329640e-03 0. 3.43506411e-03
      2.64235685e-04 2.06103846e-02 1.98176783e-03 1.32117851e-03
      9.24824970e-04 3.96353542e-04 4.49200673e-03 1.84964994e-03
      1.84964994e-03 5.28471370e-04 0. 2.77447491e-03 0. 1.18906063e-03
      2.64235685e-04 0. 1.18906063e-03 1.71753205e-02 5.28471370e-04
      1.32117842e-04 1.45329640e-03 5.94530301e-03 1.32117842e-04
      2.64235685e-04 2.90659280e-03 2.64235702e-03 5.08653708e-02 0.
      5.28471370e-04 0. 5.81318559e-03 5.43004349e-02 0. 2.64235685e-04
      4.69018370e-02 3.69929988e-03 6.34165667e-03 1.32117842e-04
      2.74805129e-02 5.28471370e-04 0. 4.71660718e-02 0. 9.24824970e-04
      4.22777096e-03 0. 3.17082833e-03 7.13436380e-02 0. 1.04373097e-02
      1.18906063e-03 0. 2.86695734e-02 1.32117842e-04 5.35077304e-02
      5.94530301e-03 1.18906063e-03 1.26833133e-02 2.64235685e-04
      1.45329640e-03 1.42687280e-02 5.86603247e-02 1.91570874e-02
      1.98176783e-03 8.85189604e-03 4.82230149e-02 2.24600341e-02
      5.02047827e-03 0. 0. 0. 6.16990365e-02 0. 2.90659280e-03 0.
      5.41683193e-03 1.38723738e-02 2.61593349e-02 0. 3.96353542e-04 0.
      1.18906063e-03 0. 9.64460336e-03 4.62412462e-03 0. 0. 0. 0.
      7.92707084e-04 0. 1.58541426e-02 1.84964994e-03 2.64235685e-04 0.
      1.32117842e-04 2.90659280e-03 0. 0. 0. 0. 1.32117842e-04 0. 0. 0.
      0. 0. 7.13436399e-03 0. 2.64235685e-04 0. 2.51023914e-03 0. 0.
      9.24824970e-04 0. 1.63826142e-02 0. 0. 0. 5.28471370e-04
      6.47377456e-03 0. 0. 5.94530301e-03 0. 0. 0. 1.45329640e-03 0. 0.</_>
    <_>
      1.34760207e-02 0. 0. 1.58541417e-03 0. 3.03871045e-03
      7.13436399e-03 0. 7.39859976e-03 3.96353542e-04 2.64235685e-04
      1.38723738e-02 5.28471370e-04 2.76126303e-02 1.44008454e-02
      2.68199239e-02 4.30704206e-02 2.31206231e-02 3.25009897e-02
      2.35169772e-02 3.69929969e-02 7.17399940e-02 3.97674739e-02
      4.59770113e-02 1.25511959e-02 2.25921515e-02 5.43004349e-02
      1.32117851e-03 2.11388548e-03 7.92707084e-04 1.83643810e-02
      2.64235685e-04 4.22777096e-03 6.60589256e-04 6.47377456e-03
      1.28154317e-02 6.47377456e-03 1.05694274e-03 3.83141753e-03
      1.05694274e-03 2.37812125e-03 1.32117842e-04 4.75624250e-03
      3.56718199e-03 0. 1.05694274e-03 1.32117842e-04 0. 5.28471370e-04
      0. 9.24824923e-03 1.71753205e-03 6.60589256e-04 0. 0.
      2.77447491e-03 1.05694274e-03 5.28471370e-04 0. 0. 1.32117851e-03
      0. 0. 2.64235685e-04 0. 0. 9.64460336e-03 0. 1.32117851e-03
      2.64235685e-04 4.22777096e-03 1.32117842e-04 1.32117842e-04
      2.24600337e-03 1.32117851e-03 1.79680269e-02 0. 0. 0.
      2.64235702e-03 1.70432031e-02 0. 0. 1.54577885e-02 5.28471370e-04
      1.58541417e-03 0. 1.28154317e-02 3.96353542e-04 0. 3.06513403e-02
      0. 1.32117842e-04 1.84964994e-03 0. 4.22777096e-03 3.67287621e-02
      0. 7.39859976e-03 1.18906063e-03 1.32117842e-04 2.40454488e-02 0.
      4.01638262e-02 5.28471405e-03 0. 9.77672078e-03 0. 3.96353542e-04
      1.65147316e-02 2.10067388e-02 1.13621354e-02 7.92707084e-04
      2.37812125e-03 2.03461479e-02 8.58766027e-03 3.96353542e-04 0.
      3.96353542e-04 0. 1.24190776e-02 0. 5.28471370e-04 0.
      2.24600337e-03 4.09565354e-03 1.32117849e-02 0. 0. 0.
      3.96353542e-04 0. 3.03871045e-03 1.18906063e-03 0. 0. 0. 0. 0. 0.
      4.49200673e-03 0. 0. 0. 0. 6.60589256e-04 0. 0. 0. 0.
      1.32117842e-04 0. 0. 0. 0. 0. 1.18906063e-03 0. 0. 0.
      5.28471370e-04 0. 0. 2.64235685e-04 0. 5.15259616e-03 0. 0. 0.
      2.64235685e-04 2.90659280e-03 0. 0. 2.51023914e-03 0. 0. 0.
      1.05694274e-03 0. 0.</_>
    <_>
      9.77531001e-02 0. 0. 1.29132229e-03 0. 2.45351251e-03
      3.52531001e-02 0. 4.39049583e-03 9.03925626e-04 1.29132226e-04
      1.67871900e-02 0. 2.41477266e-02 3.09917354e-03 1.03305781e-03
      6.84400834e-03 3.87396693e-04 7.74793385e-04 7.87706580e-03
      4.13223132e-02 1.12345042e-02 1.29132226e-04 2.71177688e-03
      2.29855366e-02 8.00619833e-03 1.42045459e-03 0. 0. 0.
      4.11931835e-02 0. 6.45661145e-04 0. 4.13223123e-03 6.71487581e-03
      8.78099166e-03 0. 1.03305781e-03 5.16528904e-04 2.58264458e-03 0.
      2.71177688e-03 1.80785125e-03 0. 9.03925626e-04 6.45661145e-04 0.
      1.67871895e-03 0. 1.63997933e-02 9.03925626e-04 3.87396693e-04 0.
      7.74793385e-04 6.45661145e-04 5.16528904e-04 0. 0. 0.
      9.03925626e-04 0. 1.29132226e-04 2.58264452e-04 0. 0.
      6.84400834e-03 1.29132226e-04 1.03305781e-03 7.74793385e-04
      1.03305781e-03 3.87396693e-04 2.58264452e-04 6.45661145e-04
      1.03305781e-03 4.88119833e-02 5.16528904e-04 1.29132226e-04 0.
      1.42045459e-03 5.81095042e-03 2.58264452e-04 0. 1.58832651e-02
      7.74793385e-04 3.87396693e-04 0. 3.09917354e-03 0. 0.
      5.16528916e-03 0. 0. 2.58264452e-04 0. 0. 2.24690083e-02 0.
      6.45661145e-04 0. 0. 8.52272753e-03 0. 2.27272734e-02
      6.45661145e-04 0. 1.80785125e-03 0. 0. 5.81095042e-03
      4.58419435e-02 2.32438021e-03 0. 6.45661145e-04 2.81508267e-02
      9.03925579e-03 6.45661145e-04 0. 0. 0. 6.97314069e-02 0. 0. 0.
      3.87396687e-03 1.27840908e-02 1.44628100e-02 0. 0. 0.
      7.74793385e-04 0. 8.78099166e-03 3.61570250e-03 0. 0. 0. 0.
      6.45661145e-04 0. 6.88274801e-02 1.03305781e-03 0. 0. 0.
      1.93698343e-03 0. 0. 0. 0. 1.42045459e-03 0. 0. 0. 0. 0.
      1.67871900e-02 0. 0. 0. 7.61880167e-03 0. 0. 1.80785125e-03 0.
      9.09090936e-02 0. 0. 0. 0. 2.45351233e-02 0. 0. 3.96435969e-02 0.
      0. 0. 1.67871895e-03 0. 0.</_>
    <_>
      3.30294622e-03 0. 0. 0. 0. 0. 0. 0. 0. 0. 0. 0. 0. 0. 0. 0. 0. 0.
      0. 0. 0. 0. 0. 0. 0. 0. 0. 0. 0. 0. 1.71753205e-03 0. 0. 0. 0. 0.
      0. 0. 2.64235685e-04 0. 0. 0. 5.28471370e-04 5.28471370e-04 0.
      1.32117842e-04 2.64235685e-04 0. 2.64235685e-04 0. 4.62412462e-03
      3.96353542e-04 1.32117842e-04 5.28471370e-04 1.32117842e-04
      5.02047827e-03 5.54894982e-03 9.24824970e-04 7.92707084e-04 0.
      1.37402564e-02 0. 1.98176783e-03 1.18906063e-03 0. 1.05694274e-03
      1.95534416e-02 6.60589256e-04 2.64235702e-03 2.51023914e-03
      4.10886519e-02 1.45329640e-03 0. 1.94213241e-02 1.66468490e-02
      1.25511959e-02 5.41683193e-03 1.32117842e-04 0. 3.42185237e-02
      2.11520672e-01 2.64235685e-04 2.64235685e-04 5.24507873e-02
      7.13436399e-03 9.11613181e-03 2.64235685e-04 1.11243226e-01
      1.58541417e-03 2.64235685e-04 1.16131589e-01 0. 9.24824970e-04
      1.65147316e-02 0. 1.00409565e-02 9.65781510e-02 0. 1.71753205e-02
      0. 0. 5.33756092e-02 0. 3.68608795e-02 6.60589244e-03
      1.32117842e-04 4.88836039e-03 2.64235685e-04 3.96353542e-04
      1.07015455e-02 1.00409565e-02 5.02047827e-03 0. 1.45329640e-03
      3.43506411e-03 4.09565354e-03 7.92707084e-04 0. 0. 0.
      7.00224610e-03 0. 0. 0. 1.32117842e-04 5.28471370e-04
      1.05694274e-03 0. 0. 0. 0. 0. 2.64235685e-04 0. 0. 0. 0. 0. 0. 0.
      1.45329640e-03 0. 0. 0. 0. 0. 0. 0. 0. 0. 0. 0. 0. 0. 0. 0. 0. 0.
      0. 0. 0. 0. 0. 0. 0. 6.60589256e-04 0. 0. 0. 0. 0. 0. 0. 0. 0. 0.
      0. 0. 0. 0.</_>
    <_>
      7.65595436e-02 0. 0. 0. 0. 0. 1.57136098e-02 0. 1.53591682e-03 0.
      0. 5.90737257e-03 0. 1.55954631e-02 2.24480149e-03 0.
      4.60775057e-03 0. 9.45179607e-04 9.68809053e-03 3.68620045e-02
      8.97920597e-03 4.72589803e-04 7.32514169e-03 2.94187143e-02
      2.13846881e-02 8.38846900e-03 0. 7.08884676e-04 9.45179607e-04
      8.10491517e-02 0. 4.25330829e-03 2.48109642e-03 8.97920597e-03
      2.55198479e-02 5.31663522e-02 0. 2.24480149e-03 1.18147454e-03
      4.25330829e-03 0. 1.84310023e-02 8.86105839e-03 0. 8.27032141e-04
      2.36294902e-04 0. 2.12665414e-03 1.18147451e-04 4.14697528e-02
      2.12665414e-03 1.18147454e-03 0. 2.36294902e-04 1.21691870e-02
      2.36294902e-04 0. 0. 0. 9.45179607e-04 0. 0. 0. 0. 0.
      1.79584119e-02 0. 0. 0. 6.61625713e-03 0. 0. 3.30812857e-03
      2.00850656e-03 6.36814758e-02 2.36294902e-04 0. 0. 5.55292983e-03
      2.77646501e-02 0. 0. 4.89130430e-02 0. 5.90737269e-04 0.
      1.07514178e-02 0. 0. 1.86672974e-02 0. 0. 1.53591682e-03 0.
      5.90737269e-04 3.87523621e-02 0. 2.12665414e-03 0. 0.
      8.74291081e-03 0. 1.84310023e-02 1.77221175e-03 3.54442338e-04
      1.41776935e-03 0. 8.27032141e-04 4.48960299e-03 5.13941385e-02
      1.65406428e-03 4.72589803e-04 1.06332707e-03 1.84310023e-02
      6.85255183e-03 1.18147451e-04 0. 0. 0. 2.82372404e-02 0. 0. 0. 0.
      2.71739135e-03 6.02551969e-03 0. 0. 0. 7.08884676e-04 0.
      2.83553870e-03 1.53591682e-03 0. 0. 0. 0. 3.54442338e-04 0.
      1.11058597e-02 9.45179607e-04 0. 0. 0. 1.41776935e-03
      1.18147451e-04 0. 0. 0. 4.72589803e-04 0. 0. 0. 0. 0.
      3.66257085e-03 0. 0. 0. 1.89035921e-03 0. 0. 0. 0. 3.82797718e-02
      0. 0. 0. 0. 2.83553870e-03 0. 0. 1.22873345e-02 0. 0. 0.
      1.18147451e-04 0. 0.</_>
    <_>
      8.18741694e-02 0. 1.20758363e-04 1.08682527e-03 0. 2.17365054e-03
      5.22883721e-02 0. 2.77744234e-03 0. 1.20758363e-04 1.25588700e-02
      4.83033451e-04 3.94879840e-02 3.13971750e-03 6.03791792e-04
      7.00398488e-03 3.62275081e-04 1.32834201e-03 1.12305274e-02
      6.95568174e-02 1.05059771e-02 2.77744234e-03 6.03791792e-03
      3.52614410e-02 2.25818139e-02 7.00398488e-03 2.41516726e-04
      4.83033451e-04 0. 6.33981377e-02 0. 1.20758363e-04 0.
      4.95109288e-03 1.17135616e-02 1.85967870e-02 0. 1.20758358e-03
      6.03791792e-04 1.69061706e-03 0. 9.53991059e-03 2.77744234e-03 0.
      0. 0. 0. 1.20758363e-04 0. 2.11327132e-02 1.93213380e-03 0. 0. 0.
      1.69061706e-03 6.03791792e-04 0. 0. 0. 1.32834201e-03 0. 0. 0. 0.
      0. 9.05687734e-03 0. 0. 0. 3.74350930e-03 0. 0. 1.93213380e-03
      3.62275081e-04 2.74121482e-02 0. 0. 0. 1.08682527e-03
      1.06267361e-02 0. 0. 2.39101555e-02 8.45308532e-04 1.56985875e-03
      0. 4.95109288e-03 0. 0. 5.07185142e-03 0. 0. 9.66066902e-04 0. 0.
      2.14949884e-02 0. 4.83033451e-04 0. 0. 5.55488467e-03 0.
      1.08682523e-02 1.20758363e-04 0. 0. 0. 0. 5.91715984e-03
      3.00688315e-02 2.41516726e-04 0. 0. 1.34041784e-02 3.01895896e-03
      0. 0. 0. 0. 2.18572635e-02 0. 0. 0. 0. 6.03791792e-04
      1.00229438e-02 0. 0. 0. 2.41516726e-04 0. 9.90218576e-03
      7.24550162e-04 0. 0. 0. 0. 0. 0. 1.94420964e-02 0. 0. 0. 0.
      5.19260950e-03 2.41516726e-04 0. 0. 0. 5.43412613e-03 0. 0.
      1.20758363e-04 0. 0. 2.54800152e-02 0. 2.41516726e-04 0.
      1.61816198e-02 0. 0. 5.31336805e-03 2.53592571e-03 8.21156874e-02
      1.20758363e-04 0. 0. 2.29440886e-03 3.64690237e-02 0. 0.
      5.18053360e-02 2.41516726e-04 1.20758363e-04 0. 8.09080992e-03 0.
      0.</_>
    <_>
      3.70708555e-02 0. 0. 0. 0. 0. 9.13075230e-04 0. 0. 0. 0. 0. 0. 0.
      0. 0. 0. 0. 0. 0. 2.37399573e-03 0. 0. 0. 3.65230109e-04 0. 0. 0.
      0. 0. 1.33308982e-02 0. 0. 0. 0. 0. 9.13075230e-04 0. 0. 0. 0. 0.
      4.38276120e-03 0. 0. 0. 0. 0. 0. 0. 2.19138060e-02 7.30460219e-04
      0. 0. 0. 4.01753094e-03 1.82615055e-04 0. 0. 0. 1.82615046e-03 0.
      0. 0. 0. 0. 2.15485748e-02 0. 1.82615055e-04 0. 1.04090581e-02 0.
      0. 5.47845149e-03 3.46968579e-03 5.71585111e-02 0. 0. 0.
      3.46968579e-03 4.60189916e-02 0. 0. 5.49671277e-02 0.
      1.82615055e-04 0. 2.11833455e-02 0. 0. 4.54711467e-02 0.
      7.30460219e-04 5.66106662e-03 0. 2.37399573e-03 7.48721659e-02 0.
      8.40029214e-03 0. 0. 4.09057699e-02 0. 9.73338187e-02
      2.19138060e-03 0. 8.40029214e-03 0. 3.65230109e-04 3.41490135e-02
      5.78889698e-02 2.20964216e-02 3.28707090e-03 8.58290680e-03
      6.68371096e-02 3.19576338e-02 2.92184087e-03 0. 0. 0.
      4.32797670e-02 0. 1.27830531e-03 0. 1.07742874e-02 2.24616509e-02
      2.39225719e-02 0. 1.46092044e-03 2.00876547e-03 3.65230092e-03 0.
      1.11395177e-02 8.76552239e-03 0. 0. 0. 0. 1.27830531e-03 0.
      1.16873635e-02 1.82615046e-03 1.82615055e-04 0. 1.82615055e-04
      4.01753094e-03 9.13075230e-04 0. 0. 0. 2.19138060e-03 0. 0. 0. 0.
      0. 4.74799145e-03 0. 0. 0. 0. 0. 0. 0. 0. 1.51570486e-02 0. 0. 0.
      0. 0. 0. 0. 2.55661062e-03 0. 0. 0. 0. 0. 0.</_>
    <_>
      3.87396687e-03 0. 0. 0. 0. 1.29132226e-04 3.87396693e-04 0.
      5.16528904e-04 1.29132226e-04 2.58264452e-04 2.06611562e-03
      2.32438021e-03 6.84400834e-03 5.03615709e-03 2.23398767e-02
      2.05320250e-02 4.86828499e-02 1.21384300e-02 4.72623967e-02
      3.75774801e-02 4.89411168e-02 7.10227266e-02 9.81405005e-03
      6.65031001e-02 1.29132234e-02 7.28305802e-02 1.97572317e-02
      2.51807850e-02 2.27272734e-02 2.10485533e-02 0. 2.29855366e-02
      8.65185913e-03 1.07179750e-02 2.07902901e-02 5.94008248e-03
      3.22830584e-03 6.06921501e-03 2.58264458e-03 3.48657020e-03
      5.16528904e-04 4.26136376e-03 6.06921501e-03 3.87396693e-04
      2.58264458e-03 1.16219011e-03 0. 2.84090918e-03 0. 6.58574374e-03
      4.13223123e-03 1.16219011e-03 0. 1.29132226e-04 5.03615709e-03
      1.93698343e-03 0. 0. 0. 4.00309917e-03 0. 5.16528904e-04
      5.16528904e-04 0. 2.58264452e-04 8.78099166e-03 5.16528904e-04
      5.16528904e-04 3.87396693e-04 8.65185913e-03 3.87396693e-04
      9.03925626e-04 7.10227294e-03 4.13223123e-03 7.10227294e-03
      1.93698343e-03 2.58264452e-04 0. 6.58574374e-03 3.06043383e-02 0.
      0. 1.07179750e-02 6.32747915e-03 5.81095042e-03 0. 2.28564050e-02
      2.84090918e-03 1.29132226e-04 3.53822298e-02 3.87396693e-04
      1.16219011e-03 6.84400834e-03 0. 1.18801650e-02 2.58264467e-02 0.
      8.78099166e-03 2.19524791e-03 1.03305781e-03 2.05320250e-02
      1.42045459e-03 9.03925579e-03 2.45351251e-03 2.84090918e-03
      3.35743790e-03 2.58264452e-04 1.29132226e-04 1.42045459e-03
      1.03305783e-02 2.71177688e-03 2.58264452e-04 3.87396693e-04
      2.84090918e-03 6.45661145e-04 0. 0. 0. 0. 5.81095042e-03 0. 0. 0.
      3.87396693e-04 6.45661145e-04 1.03305781e-03 0. 0. 1.29132226e-04
      1.29132226e-04 0. 9.03925626e-04 6.45661145e-04 0. 1.29132226e-04
      0. 0. 0. 0. 1.54958677e-03 1.29132226e-04 0. 0. 0. 1.29132226e-04
      0. 0. 0. 0. 1.29132226e-04 0. 0. 0. 0. 1.29132226e-04
      2.58264452e-04 0. 1.29132226e-04 0. 0. 0. 0. 0. 0. 9.03925626e-04
      0. 0. 0. 0. 2.58264452e-04 0. 0. 5.16528904e-04 0. 0. 0. 0. 0. 0.</_>
    <_>
      7.89473653e-02 0. 0. 2.07756227e-03 0. 8.65650945e-04
      4.98614945e-02 0. 2.59695295e-03 0. 0. 1.67936292e-02 0.
      2.64889188e-02 1.38504151e-03 1.73130189e-04 2.94321333e-03 0. 0.
      1.14265932e-02 5.17659262e-02 8.48337915e-03 1.73130189e-04
      1.90443208e-03 2.45844871e-02 1.10803321e-02 2.59695295e-03
      3.46260378e-04 3.46260378e-04 0. 3.77423838e-02 0. 3.46260378e-04
      0. 3.11634340e-03 7.79085886e-03 1.29847648e-02 0. 1.03878113e-03
      1.73130189e-04 2.42382265e-03 0. 6.05955673e-03 4.84764529e-03 0.
      5.19390567e-04 0. 0. 1.21191132e-03 0. 1.15997232e-02
      2.42382265e-03 1.73130189e-04 0. 0. 3.80886416e-03 8.65650945e-04
      3.46260378e-04 0. 0. 2.77008303e-03 0. 1.73130189e-04
      1.73130189e-04 0. 3.46260378e-04 8.65651015e-03 0. 3.46260378e-04
      0. 3.28947371e-03 0. 0. 1.03878113e-03 1.73130189e-04
      3.09903044e-02 0. 0. 0. 8.65650945e-04 7.79085886e-03 0. 0.
      1.38504151e-02 1.90443208e-03 3.46260378e-04 0. 4.15512454e-03 0.
      0. 9.86842066e-03 0. 0. 5.19390567e-04 0. 1.73130189e-04
      1.97368413e-02 0. 2.07756227e-03 0. 0. 6.40581734e-03 0.
      1.12534622e-02 1.73130189e-04 0. 3.46260378e-04 0. 0.
      2.94321333e-03 3.80886421e-02 1.73130189e-03 0. 1.38504151e-03
      9.86842066e-03 4.50138515e-03 0. 0. 0. 0. 6.16343506e-02 0. 0. 0.
      6.92520756e-04 4.50138515e-03 1.33310249e-02 0. 0. 0.
      3.46260378e-04 0. 1.35041550e-02 5.54016605e-03 0. 3.46260378e-04
      0. 0. 8.65650945e-04 0. 5.81717454e-02 2.42382265e-03
      1.21191132e-03 0. 0. 8.82964022e-03 2.59695295e-03 3.46260378e-04
      0. 0. 3.98199446e-03 0. 0. 8.65650945e-04 0. 0. 3.93005535e-02 0.
      1.73130189e-03 8.65650945e-04 1.50623266e-02 0. 0. 7.61772832e-03
      3.46260378e-03 7.16758966e-02 0. 0. 0. 3.63573409e-03
      3.09903044e-02 0. 0. 5.40166199e-02 8.65650945e-04 5.19390567e-04
      0. 1.28116347e-02 0. 0.</_>
    <_>
      4.73771282e-02 0. 2.36294902e-04 3.18998098e-03 0. 7.44328927e-03
      2.45746691e-02 0. 4.96219285e-03 0. 0. 1.13421548e-02 0.
      2.25661620e-02 4.13516071e-03 3.54442338e-04 4.60775057e-03 0.
      9.45179607e-04 1.03969751e-02 2.61105858e-02 1.02788284e-02
      9.45179607e-04 4.72589815e-03 2.37476379e-02 1.40595464e-02
      2.95368629e-03 0. 1.18147451e-04 2.36294902e-04 3.73345949e-02 0.
      1.41776935e-03 0. 5.67107741e-03 1.41776940e-02 1.81947071e-02
      3.54442338e-04 1.77221175e-03 1.41776935e-03 5.67107741e-03 0.
      1.50047261e-02 1.06332703e-02 0. 1.53591682e-03 2.36294902e-04 0.
      5.55292983e-03 1.18147451e-04 2.26843096e-02 6.14366727e-03
      3.54442338e-04 2.36294902e-04 2.36294902e-04 1.11058597e-02
      3.18998098e-03 9.45179607e-04 4.72589803e-04 0. 7.67958397e-03 0.
      8.27032141e-04 2.12665414e-03 0. 1.53591682e-03 1.91398859e-02
      9.45179607e-04 1.06332707e-03 1.29962189e-03 7.44328927e-03
      2.36294902e-04 1.18147451e-04 4.72589815e-03 3.78071843e-03
      3.53260860e-02 1.41776935e-03 0. 0. 5.78922499e-03 2.15028357e-02
      0. 0. 2.42202263e-02 1.77221175e-03 2.48109642e-03 0.
      1.41776940e-02 3.54442338e-04 0. 1.71313807e-02 0. 7.08884676e-04
      2.95368629e-03 0. 4.01701313e-03 2.84735356e-02 0. 4.25330829e-03
      0. 0. 1.35869561e-02 0. 2.82372404e-02 2.48109642e-03
      2.36294902e-04 4.48960299e-03 4.72589803e-04 9.45179607e-04
      1.02788284e-02 3.14272195e-02 5.67107741e-03 9.45179607e-04
      8.27032141e-04 1.87854450e-02 7.44328927e-03 1.53591682e-03 0. 0.
      0. 4.01701331e-02 0. 1.29962189e-03 0. 4.13516071e-03
      9.56994295e-03 1.45321358e-02 0. 3.54442338e-04 0. 2.71739135e-03
      0. 7.67958397e-03 4.48960299e-03 0. 3.54442338e-04 1.18147451e-04
      0. 1.53591682e-03 0. 2.38657836e-02 3.78071843e-03 1.29962189e-03
      0. 2.36294902e-04 7.44328927e-03 2.36294908e-03 4.72589803e-04 0.
      0. 4.60775057e-03 0. 0. 1.41776935e-03 0. 4.72589803e-04
      1.85491499e-02 1.18147451e-04 7.08884676e-04 3.54442338e-04
      9.68809053e-03 1.18147451e-04 0. 5.78922499e-03 4.01701313e-03
      2.72920597e-02 7.08884676e-04 0. 0. 4.48960299e-03 2.39839312e-02
      0. 0. 2.36294903e-02 2.83553870e-03 2.36294908e-03 0.
      9.56994295e-03 2.36294902e-04 0.</_>
    <_>
      5.77741005e-02 0. 5.90737269e-04 3.30812857e-03 0. 4.25330829e-03
      3.31994332e-02 0. 5.55292983e-03 0. 0. 1.57136098e-02 0.
      1.97306238e-02 4.01701313e-03 5.90737269e-04 8.74291081e-03
      1.18147451e-04 1.29962189e-03 7.20699411e-03 3.03638950e-02
      7.91587867e-03 7.08884676e-04 1.41776935e-03 1.31143667e-02
      6.97069941e-03 0. 0. 0. 0. 2.95368619e-02 0. 0. 0. 1.77221175e-03
      6.37996197e-03 1.34688094e-02 0. 2.36294902e-04 1.18147451e-04
      4.72589803e-04 0. 5.90737257e-03 1.65406428e-03 0. 0. 0. 0.
      5.90737269e-04 0. 1.58317573e-02 1.06332707e-03 1.18147451e-04 0.
      0. 1.29962189e-03 0. 1.18147451e-04 0. 0. 1.18147451e-04 0. 0.
      1.18147451e-04 0. 3.54442338e-04 5.90737257e-03 0. 2.36294902e-04
      1.18147451e-04 1.53591682e-03 0. 0. 4.72589803e-04 1.29962189e-03
      3.63894142e-02 0. 0. 0. 4.72589803e-04 1.67769380e-02 0. 0.
      1.94943286e-02 0. 5.90737269e-04 0. 6.85255183e-03 0. 0.
      2.00850666e-02 0. 0. 1.89035921e-03 0. 2.36294908e-03
      3.63894142e-02 0. 9.92438570e-03 0. 0. 1.22873345e-02 0.
      3.73345949e-02 3.66257085e-03 0. 3.66257085e-03 0. 0.
      1.26417773e-02 5.99007569e-02 3.78071843e-03 0. 1.41776935e-03
      4.66682427e-02 1.45321358e-02 5.90737269e-04 0. 0. 0.
      6.92344010e-02 0. 0. 0. 9.09735356e-03 1.67769380e-02
      3.27268429e-02 0. 1.06332707e-03 0. 4.72589815e-03 0.
      2.15028357e-02 1.11058597e-02 0. 0. 0. 0. 1.77221175e-03 0.
      3.46172005e-02 4.01701313e-03 5.90737269e-04 0. 0. 8.86105839e-03
      1.18147454e-03 0. 0. 0. 3.66257085e-03 0. 0. 0. 0. 0.
      1.25236297e-02 0. 0. 0. 6.61625713e-03 0. 0. 1.89035921e-03
      1.18147454e-03 3.08364835e-02 0. 0. 0. 1.18147454e-03
      2.26843096e-02 0. 0. 2.41020788e-02 1.18147451e-04 9.45179607e-04
      0. 1.79584119e-02 0. 0.</_>
    <_>
      7.99319744e-02 0. 0. 8.50340119e-04 0. 8.50340119e-04
      3.16043086e-02 0. 2.55102036e-03 7.08616804e-04 0. 1.11961449e-02
      1.41723358e-04 4.08163257e-02 3.96825420e-03 5.66893432e-04
      9.63718817e-03 1.41723358e-04 1.41723361e-03 2.39512473e-02
      8.03571418e-02 1.78571437e-02 2.26757373e-03 6.23582769e-03
      4.06746045e-02 2.90532876e-02 5.10204071e-03 0. 2.83446716e-04
      1.41723358e-04 8.02154168e-02 0. 2.55102036e-03 0. 2.55102036e-03
      1.70068033e-02 2.90532876e-02 0. 8.50340119e-04 0. 7.08616804e-04
      0. 1.70068033e-02 2.97619053e-03 0. 0. 0. 0. 2.83446716e-04 0.
      3.75566892e-02 1.13378686e-03 0. 0. 0. 2.69274367e-03
      5.66893432e-04 0. 0. 0. 1.55895692e-03 0. 0. 1.41723358e-04 0. 0.
      1.62981860e-02 0. 0. 0. 8.21995456e-03 0. 0. 5.81065752e-03
      3.25963716e-03 8.43253955e-02 0. 0. 0. 6.37755124e-03
      3.74149643e-02 0. 0. 3.82653065e-02 1.55895692e-03 2.26757373e-03
      0. 2.25340128e-02 0. 0. 2.40929704e-02 0. 0. 5.66893432e-04 0. 0.
      2.94784587e-02 0. 0. 0. 0. 1.55895692e-03 0. 1.70068024e-03 0. 0.
      0. 0. 0. 2.83446716e-04 2.43764166e-02 0. 0. 0. 5.66893432e-04
      7.08616804e-04 0. 0. 0. 0. 1.47392293e-02 0. 0. 0. 0.
      1.41723358e-04 8.50340119e-04 0. 0. 0. 0. 0. 1.13378686e-03 0. 0.
      0. 0. 0. 0. 0. 1.23299323e-02 0. 0. 0. 0. 0. 0. 0. 0. 0. 0. 0. 0.
      0. 0. 0. 1.98412710e-03 0. 0. 0. 2.83446716e-04 0. 0. 0. 0.
      5.11621311e-02 0. 0. 0. 2.83446716e-04 3.40136047e-03 0. 0.
      1.45975053e-02 0. 1.41723358e-04 0. 2.12585041e-03 0. 0.</_>
    <_>
      4.00317088e-02 0. 1.05694274e-03 1.18906063e-03 0. 5.02047827e-03
      1.47971995e-02 1.32117842e-04 9.77672078e-03 1.32117851e-03
      5.28471370e-04 2.11388562e-02 4.09565354e-03 3.93711179e-02
      1.42687280e-02 1.79680269e-02 3.87105308e-02 2.85374559e-02
      2.15352103e-02 5.49610257e-02 6.72479868e-02 7.34575242e-02
      6.01136200e-02 2.53666267e-02 6.02457374e-02 3.81820574e-02
      3.72572318e-02 5.54894982e-03 7.39859976e-03 4.62412462e-03
      6.60589263e-02 3.96353542e-04 7.92707130e-03 2.51023914e-03
      1.54577885e-02 3.27652283e-02 2.31206231e-02 6.60589256e-04
      6.07742090e-03 2.51023914e-03 5.28471405e-03 0. 1.30796675e-02
      1.10978996e-02 0. 1.45329640e-03 1.32117851e-03 0. 1.71753205e-03
      2.64235685e-04 1.50614344e-02 1.98176783e-03 9.24824970e-04 0. 0.
      5.94530301e-03 1.05694274e-03 2.64235685e-04 0. 0. 1.05694274e-03
      0. 0. 0. 0. 0. 5.81318559e-03 0. 0. 0. 1.32117851e-03 0. 0.
      1.32117842e-04 0. 1.87607352e-02 0. 0. 0. 0. 6.60589256e-04 0. 0.
      5.68106771e-03 0. 0. 0. 0. 0. 0. 0. 0. 0. 0. 0. 0. 5.28471370e-04
      0. 0. 0. 0. 0. 0. 3.96353542e-04 0. 0. 0. 0. 0. 1.32117842e-04
      2.11388548e-03 0. 0. 0. 2.64235685e-04 5.28471370e-04 0. 0. 0. 0.
      3.96353565e-03 0. 0. 0. 1.32117842e-04 1.32117842e-04
      3.96353542e-04 0. 0. 0. 0. 0. 3.03871045e-03 1.18906063e-03 0. 0.
      0. 0. 0. 0. 6.20953878e-03 0. 0. 0. 0. 6.60589256e-04 0. 0. 0. 0.
      2.64235685e-04 0. 0. 0. 0. 0. 2.90659280e-03 0. 0. 0.
      1.05694274e-03 0. 0. 1.32117842e-04 0. 2.04782672e-02 0. 0. 0.
      2.64235685e-04 2.77447491e-03 0. 0. 6.73801033e-03 0.
      1.32117842e-04 0. 1.32117851e-03 0. 0.</_>
    <_>
      1.83643810e-02 0. 0. 0. 0. 0. 4.62412462e-03 0. 3.96353542e-04 0.
      0. 9.24824970e-04 0. 5.54894982e-03 3.96353542e-04 0.
      2.64235685e-04 1.32117842e-04 0. 8.19130708e-03 1.46650812e-02
      3.83141753e-03 3.96353542e-04 3.03871045e-03 1.45329637e-02
      1.53256701e-02 5.94530301e-03 0. 0. 0. 4.67697196e-02 0.
      4.09565354e-03 0. 1.47971995e-02 3.50112282e-02 2.44418029e-02
      4.35988884e-03 2.23279167e-02 8.45554192e-03 2.65556872e-02 0.
      3.91068831e-02 5.03369011e-02 6.60589256e-04 1.69110838e-02
      6.20953878e-03 0. 4.06922959e-02 1.18906063e-03 4.69018370e-02
      3.72572318e-02 1.86286159e-02 7.92707084e-04 5.15259616e-03
      3.38221677e-02 2.70841587e-02 9.51248500e-03 1.58541417e-03 0.
      2.85374559e-02 0. 3.43506411e-03 1.13621354e-02 0. 5.68106771e-03
      5.65464385e-02 3.03871045e-03 8.19130708e-03 5.15259616e-03
      2.62914523e-02 9.24824970e-04 3.96353542e-04 1.26833133e-02
      9.51248500e-03 3.60681713e-02 2.11388548e-03 3.96353542e-04 0.
      7.66283507e-03 4.26740646e-02 2.64235685e-04 1.32117842e-04
      2.51023918e-02 2.24600337e-03 2.11388548e-03 0. 1.05694281e-02
      2.64235685e-04 0. 1.13621354e-02 0. 7.92707084e-04 1.71753205e-03
      0. 2.51023914e-03 9.11613181e-03 0. 1.58541417e-03 2.64235685e-04
      0. 5.54894982e-03 0. 3.96353565e-03 9.24824970e-04 0.
      7.92707084e-04 0. 0. 1.05694274e-03 1.20227244e-02 1.32117842e-04
      0. 0. 1.58541417e-03 5.28471370e-04 0. 0. 0. 0. 9.64460336e-03 0.
      0. 0. 0. 1.32117842e-04 2.51023914e-03 0. 0. 0. 0. 0.
      1.18906063e-03 0. 0. 0. 0. 0. 0. 0. 1.71753205e-03 0. 0. 0. 0. 0.
      0. 0. 0. 0. 0. 0. 0. 0. 0. 0. 2.64235685e-04 0. 0. 0. 0. 0. 0. 0.
      0. 7.66283507e-03 0. 0. 0. 0. 7.92707084e-04 0. 0. 1.58541417e-03
      0. 0. 0. 0. 0. 0.</_>
    <_>
      5.60018905e-02 0. 2.36294902e-04 7.91587867e-03 0. 8.27032141e-03
      7.43147433e-02 0. 1.64224952e-02 2.36294902e-04 0. 6.56899810e-02
      1.18147451e-04 1.06687143e-01 1.38232512e-02 1.89035921e-03
      3.46172005e-02 9.45179607e-04 4.01701313e-03 5.84829859e-02
      3.99338380e-02 4.52504717e-02 6.26181485e-03 1.33506618e-02
      3.41446139e-02 2.94187143e-02 1.26417773e-02 8.27032141e-04
      3.18998098e-03 2.12665414e-03 4.92674857e-02 0. 5.31663513e-03
      7.08884676e-04 7.56143685e-03 1.64224952e-02 1.19328918e-02
      2.00850656e-03 3.66257085e-03 1.29962189e-03 2.59924377e-03
      2.36294902e-04 7.08884699e-03 6.49810955e-03 1.18147451e-04
      8.27032141e-04 8.27032141e-04 1.18147451e-04 2.00850656e-03
      2.36294902e-04 9.92438570e-03 8.27032141e-04 4.72589803e-04
      3.54442338e-04 8.27032141e-04 1.29962189e-03 8.27032141e-04
      4.72589803e-04 0. 0. 1.53591682e-03 0. 1.18147451e-04
      3.54442338e-04 0. 1.18147451e-04 4.25330829e-03 4.72589803e-04
      8.27032141e-04 2.36294902e-04 2.12665414e-03 0. 0. 1.18147454e-03
      5.90737269e-04 3.78071843e-03 0. 0. 0. 3.54442338e-04
      1.89035921e-03 0. 0. 4.48960299e-03 0. 0. 0. 0. 0. 0.
      5.90737269e-04 0. 0. 0. 0. 0. 8.27032141e-04 0. 0. 0. 0. 0. 0. 0.
      0. 0. 0. 0. 0. 0. 1.53591682e-03 0. 0. 0. 3.54442338e-04
      5.90737269e-04 0. 0. 0. 0. 4.13516071e-03 0. 0. 0. 1.18147451e-04
      1.53591682e-03 2.48109642e-03 0. 0. 0. 3.54442338e-04 0.
      2.71739135e-03 9.45179607e-04 0. 1.18147451e-04 0. 0.
      4.72589803e-04 0. 1.35869561e-02 3.54442338e-04 0. 0.
      2.36294902e-04 1.77221175e-03 2.36294902e-04 0. 0. 0.
