<?xml version="1.0"?>
<opencv_storage>
<my_svm type_id="opencv-ml-svm">
  <svm_type>C_SVC</svm_type>
  <kernel><type>RBF</type>
    <gamma>10.</gamma></kernel>
  <C>100000.</C>
  <term_criteria><epsilon>9.9999999747524271e-07</epsilon>
    <iterations>1000000</iterations></term_criteria>
  <var_all>45</var_all>
  <var_count>45</var_count>
  <class_count>2</class_count>
  <class_labels type_id="opencv-matrix">
    <rows>1</rows>
    <cols>2</cols>
    <dt>i</dt>
    <data>
      -1 1</data></class_labels>
  <sv_total>443</sv_total>
  <support_vectors>
    <_>
      4.73425090e-02 6.41333163e-02 1.04784749e-01 1.61595762e-01
      1.74725413e-01 2.11589441e-01 8.55952501e-02 4.19139005e-02
      3.01729571e-02 8.83726776e-03 5.04986756e-03 0. 3.28241382e-03
      5.04986732e-04 0. 1.26246683e-04 1.13622018e-03 3.78740049e-04
      5.04986732e-04 0. 1.26246683e-04 0. 0. 0. 2.52493366e-04 0. 0. 0.
      2.52493366e-04 0. 2.52493366e-04 1.26246683e-04 0. 1.26246683e-04
      0. 5.04986732e-04 6.31233444e-04 3.78740049e-04 5.04986732e-04
      1.76745362e-03 3.28241382e-03 5.68110077e-03 1.78007819e-02
      9.72099509e-03 1.69170555e-02</_>
    <_>
      9.51248500e-03 2.11388548e-03 5.28471370e-04 1.84964994e-03
      1.05694274e-03 5.02047827e-03 3.30294622e-03 7.66283507e-03
      3.03871045e-03 3.56718199e-03 8.98401346e-03 2.64235685e-04
      2.06103846e-02 7.79495295e-03 5.81318559e-03 1.37402564e-02
      3.79178226e-02 3.03871054e-02 5.08653708e-02 3.50112282e-02
      1.20491475e-01 9.65781510e-02 8.12524781e-02 8.25736523e-02
      9.15576667e-02 9.49927345e-02 4.94120754e-02 4.50521857e-02
      2.54987441e-02 2.51023914e-03 1.57220233e-02 1.45329637e-02
      2.51023914e-03 6.20953878e-03 1.05694274e-03 6.73801033e-03
      1.84964994e-03 6.60589256e-04 0. 2.37812125e-03 3.96353542e-04
      4.49200673e-03 1.58541417e-03 2.37812125e-03 5.28471370e-04</_>
    <_>
      9.69744995e-02 9.15576667e-02 7.04188123e-02 1.00145333e-01
      1.02919802e-01 1.13092877e-01 5.48289083e-02 5.69427945e-02
      1.70432031e-02 1.75716747e-02 9.24824923e-03 0. 1.38723738e-02
      7.92707084e-04 0. 3.96353542e-04 5.68106771e-03 0. 2.02140305e-02
      1.32117842e-04 4.22777096e-03 5.28471370e-04 1.18906063e-03 0.
      1.71753205e-03 3.96353542e-04 0. 4.09565354e-03 0. 0.
      8.32342450e-03 6.60589256e-04 0. 1.98176783e-03 0. 7.66283507e-03
      0. 0. 0. 7.00224610e-03 7.92707084e-04 7.35896453e-02
      3.56718190e-02 6.98903427e-02 1.04373097e-02</_>
    <_>
      1.71753205e-03 1.05694274e-03 0. 0. 2.64235685e-04 1.32117851e-03
      1.05694274e-03 1.32117851e-03 5.41683193e-03 2.77447491e-03
      6.73801033e-03 9.24824970e-04 5.94530301e-03 3.17082833e-03
      1.45329640e-03 3.43506411e-03 1.25511959e-02 6.73801033e-03
      1.18906060e-02 6.73801033e-03 3.19725201e-02 3.01228687e-02
      2.35169772e-02 3.98995914e-02 9.11613181e-02 1.40837625e-01
      2.06632316e-01 1.82851106e-01 9.64460298e-02 3.83141749e-02
      2.73483954e-02 7.79495295e-03 0. 2.77447491e-03 0. 1.32117851e-03
      2.64235685e-04 0. 0. 6.60589256e-04 0. 1.71753205e-03
      6.60589256e-04 1.18906063e-03 0.</_>
    <_>
      4.11931835e-02 1.11053716e-02 7.23140500e-03 2.20816117e-02
      3.70609500e-02 1.01497933e-01 1.24225207e-01 1.56508267e-01
      9.65909064e-02 9.78822336e-02 6.96022734e-02 5.42355375e-03
      6.26291335e-02 1.34297516e-02 5.42355375e-03 6.06921501e-03
      1.38171492e-02 8.26446246e-03 3.07334717e-02 2.06611562e-03
      2.19524801e-02 6.19834708e-03 5.16528916e-03 1.16219011e-03
      4.26136376e-03 1.16219011e-03 2.58264452e-04 5.16528916e-03
      1.03305781e-03 0. 1.00723142e-02 5.16528904e-04 0. 3.87396693e-04
      0. 3.74483480e-03 2.58264452e-04 2.58264452e-04 0. 3.87396693e-04
      1.29132229e-03 1.57541316e-02 2.58264458e-03 4.90702502e-03
      6.45661145e-04</_>
    <_>
      8.16657618e-02 1.32774472e-01 1.71444029e-01 1.63331524e-01
      9.07247141e-02 8.36938918e-02 3.51541378e-02 1.62249859e-02
      4.73228795e-03 3.51541373e-03 1.89291511e-03 1.35208218e-04
      1.35208224e-03 1.21687399e-03 0. 1.35208218e-04 1.35208218e-04 0.
      2.29853974e-03 0. 2.70416436e-04 0. 1.35208218e-04 0.
      2.70416436e-04 0. 0. 1.48729037e-03 6.76041120e-04 0.
      2.70416448e-03 5.40832873e-04 0. 5.40832873e-04 0. 7.70686846e-03
      0. 1.89291511e-03 0. 7.70686846e-03 9.32936743e-03 2.29853969e-02
      7.93672279e-02 4.32666317e-02 3.06922663e-02</_>
    <_>
      1.87854450e-02 2.00850656e-03 1.29962189e-03 1.53591682e-03
      8.27032141e-04 6.49810955e-03 2.71739135e-03 4.96219285e-03
      1.41776935e-03 7.08884676e-04 1.18147454e-03 0. 6.61625713e-03
      4.72589803e-04 0. 1.06332707e-03 8.38846900e-03 4.25330829e-03
      3.47353481e-02 1.65406428e-03 3.93431000e-02 1.57136098e-02
      2.15028357e-02 1.26417773e-02 7.50236288e-02 1.31852552e-01
      8.05765614e-02 1.63516074e-01 1.16020791e-01 2.57561430e-02
      7.59688094e-02 6.67533055e-02 2.48109642e-03 1.55954631e-02
      8.27032141e-04 1.59499049e-02 3.18998098e-03 1.77221175e-03 0.
      7.32514169e-03 2.71739135e-03 1.19328918e-02 5.67107741e-03
      6.85255183e-03 1.89035921e-03</_>
    <_>
      7.31292516e-02 3.76984142e-02 3.57142873e-02 6.49092942e-02
      4.56349216e-02 5.49886636e-02 5.64058945e-02 6.06575981e-02
      1.81405898e-02 2.99036279e-02 3.65646258e-02 7.08616804e-04
      5.37131503e-02 1.54478457e-02 3.25963716e-03 4.53514745e-03
      2.77777780e-02 1.41723352e-02 6.80272132e-02 1.55895692e-03
      7.46882111e-02 8.78684781e-03 1.43140592e-02 0. 2.77777780e-02
      2.06916109e-02 3.54308379e-03 1.78571437e-02 1.21882083e-02 0.
      1.79988667e-02 5.95238106e-03 0. 3.25963716e-03 0. 5.66893443e-03
      2.83446716e-04 1.41723358e-04 0. 4.25170083e-03 1.98412710e-03
      2.89115645e-02 1.45975053e-02 2.76360549e-02 6.51927432e-03</_>
    <_>
      7.17155039e-02 2.52835546e-02 1.45321358e-02 3.49716432e-02
      2.30387524e-02 5.90737239e-02 4.46597338e-02 5.28119095e-02
      3.56805287e-02 2.50472594e-02 3.67438570e-02 2.95368629e-03
      4.93856333e-02 1.60680525e-02 5.78922499e-03 6.61625713e-03
      2.89461240e-02 1.22873345e-02 8.17580372e-02 5.55292983e-03
      5.65926284e-02 1.01606809e-02 1.44139882e-02 6.14366727e-03
      3.18998098e-02 1.52410204e-02 1.65406428e-03 3.78071852e-02
      1.09877130e-02 0. 3.17816623e-02 1.27599239e-02 3.54442338e-04
      1.15784500e-02 4.72589803e-04 2.41020788e-02 6.14366727e-03
      1.29962189e-03 0. 8.27032141e-03 5.78922499e-03 4.70226854e-02
      9.09735356e-03 1.64224952e-02 7.08884699e-03</_>
    <_>
      1.12493239e-01 3.36668454e-02 3.28555964e-02 6.47647381e-02
      7.67982677e-02 1.45484045e-01 9.89724174e-02 1.01406164e-01
      5.55705801e-02 2.96106003e-02 2.78528929e-02 1.35208218e-04
      2.39318553e-02 2.83937273e-03 0. 1.35208224e-03 1.13574909e-02
      3.65062198e-03 3.43428887e-02 1.35208218e-04 1.85235254e-02 0. 0.
      0. 1.75770686e-03 0. 0. 7.30124395e-03 9.46457556e-04 0.
      1.21687399e-02 9.46457556e-04 0. 0. 0. 7.57166045e-03
      1.35208224e-03 0. 0. 4.59707947e-03 5.40832873e-04 5.81395365e-02
      6.48999447e-03 2.02812329e-02 2.16333149e-03</_>
    <_>
      4.83033451e-04 0. 0. 0. 0. 4.83033451e-04 2.41516726e-04
      8.45308532e-04 7.24550162e-04 2.41516726e-04 2.29440886e-03 0.
      2.89820065e-03 2.17365054e-03 0. 2.17365054e-03 3.74350930e-03
      5.91715984e-03 8.21156893e-03 7.24550197e-03 2.24610548e-02
      2.63253227e-02 2.51177400e-02 6.11037314e-02 8.25987235e-02
      1.42857149e-01 2.16036707e-01 1.72201425e-01 1.00953989e-01
      3.67105417e-02 4.09370847e-02 2.37893965e-02 5.07185142e-03
      3.74350930e-03 2.41516726e-04 9.66066902e-04 8.45308532e-04 0. 0.
      0. 0. 3.62275081e-04 0. 0. 0.</_>
    <_>
      9.90702678e-03 2.24051215e-02 6.56912029e-02 1.28943756e-01
      2.02255756e-01 3.02697748e-01 1.53177872e-01 5.31931110e-02
      4.31336686e-02 7.62078958e-03 1.67657365e-03 1.06691057e-03
      1.06691057e-03 0. 0. 0. 0. 0. 1.52415785e-04 0. 0. 0. 0. 0. 0. 0.
      0. 0. 0. 0. 0. 0. 0. 0. 0. 0. 1.52415785e-04 0. 0. 1.52415785e-04
      1.52415785e-04 2.13382114e-03 2.43865256e-03 1.52415794e-03
      4.57247370e-04</_>
    <_>
      9.50513780e-02 8.91022161e-02 9.66738760e-02 1.28988639e-01
      1.03704706e-01 1.22904271e-01 4.08328809e-02 3.01514324e-02
      1.25743644e-02 1.02758249e-02 4.73228795e-03 0. 7.84207694e-03
      2.02812324e-03 0. 1.35208218e-04 1.35208218e-04 2.70416436e-04
      7.30124395e-03 0. 4.05624654e-04 0. 0. 0. 4.05624654e-04 0. 0.
      1.35208224e-03 0. 0. 4.73228795e-03 1.35208218e-04 0.
      2.56895623e-03 2.70416436e-04 1.44672794e-02 3.24499724e-03
      1.21687399e-03 0. 1.33856134e-02 1.25743644e-02 6.94970265e-02
      4.47539203e-02 5.38128726e-02 2.44726874e-02</_>
    <_>
      1.46641269e-01 1.34695292e-01 1.67936295e-01 1.26558170e-01
      8.84695277e-02 5.55747934e-02 2.23337952e-02 1.31578948e-02
      8.13711900e-03 7.27146817e-03 1.55817170e-03 5.19390567e-04
      2.59695295e-03 3.46260378e-04 0. 0. 3.46260378e-04 0.
      1.03878113e-03 0. 3.46260378e-04 0. 0. 0. 0. 0. 0. 0. 0. 0.
      2.59695295e-03 1.73130189e-04 0. 1.73130189e-04 0. 3.28947371e-03
      1.90443208e-03 6.92520756e-04 3.46260378e-04 9.86842066e-03
      1.66204982e-02 1.88711919e-02 4.72645424e-02 4.84764539e-02
      7.21952915e-02</_>
    <_>
      3.08956914e-02 2.65022684e-02 4.87528332e-02 1.11961454e-01
      1.78146258e-01 1.98412701e-01 8.17743763e-02 4.12414968e-02
      2.82029472e-02 1.03458054e-02 9.63718817e-03 8.50340119e-04
      1.11961449e-02 2.83446722e-03 1.13378686e-03 2.97619053e-03
      7.36961467e-03 4.10997728e-03 3.18877548e-02 4.25170059e-04
      2.14002263e-02 1.70068024e-03 6.09410414e-03 8.50340119e-04
      1.26133785e-02 5.95238106e-03 0. 2.32426301e-02 5.66893443e-03 0.
      1.20464852e-02 8.92857183e-03 1.41723358e-04 1.70068024e-03 0.
      5.95238106e-03 4.25170059e-04 9.92063549e-04 1.41723358e-04
      7.51133775e-03 1.55895692e-03 1.94160994e-02 8.92857183e-03
      1.72902495e-02 8.78684781e-03</_>
    <_>
      6.05984079e-03 2.90367380e-03 1.13622018e-03 2.14619376e-03
      1.89370033e-03 7.95354135e-03 7.82729499e-03 1.40133826e-02
      1.60333291e-02 1.42658753e-02 3.71165238e-02 1.81795228e-02
      4.86049727e-02 4.51963134e-02 4.35551070e-02 5.92096969e-02
      7.49905333e-02 1.02259815e-01 1.20691828e-01 7.91566744e-02
      9.19075906e-02 6.56482801e-02 3.05516981e-02 2.57543232e-02
      1.96944829e-02 1.69170555e-02 5.04986756e-03 1.09834615e-02
      4.03989386e-03 5.04986732e-04 4.79737390e-03 4.29238752e-03
      3.78740049e-04 2.52493378e-03 5.04986732e-04 3.40866041e-03
      5.04986732e-04 6.31233444e-04 0. 8.83726811e-04 7.57480098e-04
      2.65118037e-03 1.89370033e-03 2.52493378e-03 0.</_>
    <_>
      0. 0. 0. 0. 0. 0. 0. 0. 0. 0. 1.35208218e-04 0. 2.70416436e-04 0.
      1.35208218e-04 1.35208218e-04 1.35208224e-03 3.92103847e-03
      5.67874545e-03 1.36560304e-02 3.09626833e-02 7.32828528e-02
      8.80205482e-02 1.44537583e-01 1.29664689e-01 2.29718760e-01
      1.71579227e-01 6.67928606e-02 2.62303948e-02 8.24770145e-03
      4.05624649e-03 1.48729037e-03 1.35208218e-04 0. 0. 0. 0. 0. 0. 0.
      0. 0. 0. 0. 0.</_>
    <_>
      2.17994452e-02 1.86286159e-02 6.06420934e-02 1.61712244e-01
      1.47839874e-01 1.38855860e-01 4.87514846e-02 2.11388562e-02
      2.41775662e-02 5.94530301e-03 6.73801033e-03 1.32117842e-04
      5.41683193e-03 2.64235702e-03 7.92707084e-04 1.45329640e-03
      7.13436399e-03 3.83141753e-03 1.69110838e-02 2.11388548e-03
      1.99497957e-02 5.54894982e-03 1.09657813e-02 1.09657813e-02
      2.45739203e-02 3.56718190e-02 2.61593349e-02 4.41273600e-02
      2.98586339e-02 1.18906063e-03 2.32527424e-02 1.86286159e-02
      1.58541417e-03 8.45554192e-03 5.28471370e-04 8.71977769e-03
      2.11388548e-03 5.28471370e-04 0. 3.96353565e-03 1.84964994e-03
      1.07015455e-02 4.09565354e-03 7.53071718e-03 2.37812125e-03</_>
    <_>
      5.82466908e-02 3.10727786e-02 1.64224952e-02 2.10302453e-02
      1.34688094e-02 3.28449905e-02 1.37051037e-02 1.96124762e-02
      1.29962189e-03 4.48960299e-03 2.59924377e-03 0. 3.54442350e-03
      5.90737269e-04 1.18147451e-04 3.54442338e-04 1.65406428e-03
      3.54442338e-04 1.73676740e-02 0. 5.55292983e-03 1.53591682e-03
      3.66257085e-03 3.54442338e-04 1.61862001e-02 2.28024572e-02
      4.01701313e-03 5.80103956e-02 8.50661620e-02 1.07514178e-02
      7.80954659e-02 1.13775991e-01 2.93005668e-02 5.93100190e-02
      8.74291081e-03 5.71833663e-02 2.39839312e-02 8.27032141e-03
      3.07183363e-03 4.00519855e-02 1.81947071e-02 4.18241955e-02
      3.03638950e-02 3.44990566e-02 6.61625713e-03</_>
    <_>
      1.06332707e-03 1.06332707e-03 8.27032141e-04 1.53591682e-03
      1.18147454e-03 2.24480149e-03 4.48960299e-03 6.14366727e-03
      1.42958416e-02 1.38232512e-02 3.33175808e-02 2.95368619e-02
      5.99007569e-02 6.67533055e-02 7.52599239e-02 8.77835527e-02
      1.07159734e-01 1.11531191e-01 1.20155953e-01 6.88799620e-02
      7.23062381e-02 4.60775048e-02 2.12665405e-02 1.58317573e-02
      1.25236297e-02 6.49810955e-03 4.25330829e-03 2.83553870e-03
      2.71739135e-03 9.45179607e-04 1.18147454e-03 9.45179607e-04 0.
      8.27032141e-04 0. 5.90737269e-04 2.36294902e-04 0. 2.36294902e-04
      3.54442338e-04 5.90737269e-04 1.06332707e-03 9.45179607e-04
      4.72589803e-04 3.54442338e-04</_>
    <_>
      2.35169772e-02 2.11388548e-03 5.28471370e-04 2.64235685e-04
      2.64235685e-04 4.09565354e-03 1.32117851e-03 5.28471405e-03
      5.54894982e-03 3.83141753e-03 4.62412462e-03 9.24824970e-04
      1.40044922e-02 5.02047827e-03 9.24824970e-04 2.24600337e-03
      1.54577885e-02 5.15259616e-03 5.68106733e-02 4.35988884e-03
      8.70656595e-02 3.56718190e-02 5.40362000e-02 5.72070293e-02
      1.50085881e-01 1.37666792e-01 6.28880933e-02 1.13489233e-01
      5.68106733e-02 2.64235702e-03 3.76535878e-02 2.37812120e-02
      1.58541417e-03 3.96353565e-03 0. 6.73801033e-03 6.60589256e-04
      1.32117842e-04 0. 2.64235702e-03 1.32117842e-04 7.53071718e-03
      1.32117842e-04 1.18906063e-03 0.</_>
    <_>
      9.93561447e-02 1.22711778e-01 1.75482899e-01 1.97702304e-01
      1.14253253e-01 6.03459142e-02 2.25981567e-02 1.32559016e-02
      7.19606131e-03 3.53490724e-03 2.14619376e-03 0. 2.01994693e-03
      3.78740049e-04 0. 0. 1.13622018e-03 0. 2.65118037e-03 0.
      7.57480098e-04 0. 0. 0. 6.31233444e-04 1.26246683e-04 0.
      1.76745362e-03 5.04986732e-04 0. 1.89370033e-03 1.38871360e-03 0.
      2.14619376e-03 5.04986732e-04 4.54488071e-03 4.41863388e-03
      1.13622018e-03 1.51496020e-03 6.69107446e-03 6.94356766e-03
      1.64120700e-02 4.22926396e-02 3.57278138e-02 4.58275452e-02</_>
    <_>
      8.58725756e-02 8.48337933e-02 7.79085904e-02 9.74723026e-02
      6.07686974e-02 6.75207749e-02 3.93005535e-02 2.99515240e-02
      7.96398893e-03 6.75207749e-03 1.15997232e-02 1.38504151e-03
      1.85249299e-02 5.88642666e-03 5.19390567e-04 3.46260378e-04
      3.28947371e-03 1.21191132e-03 2.82202214e-02 1.73130189e-04
      1.88711919e-02 4.50138515e-03 5.88642666e-03 6.92520756e-04
      1.17728533e-02 1.09072020e-02 6.92520756e-04 2.80470923e-02
      1.59279779e-02 0. 3.37603875e-02 2.68351808e-02 1.73130189e-03
      2.35457066e-02 3.46260378e-03 2.94321328e-02 7.44459825e-03
      4.15512454e-03 8.65650945e-04 1.74861494e-02 1.43698063e-02
      3.58379483e-02 2.40650978e-02 2.94321328e-02 2.07756236e-02</_>
    <_>
      5.19390567e-04 0. 0. 1.73130189e-04 0. 1.03878113e-03
      1.03878113e-03 1.73130189e-03 2.94321333e-03 4.50138515e-03
      6.05955673e-03 7.27146817e-03 1.43698063e-02 2.59695295e-02
      2.87396125e-02 6.16343506e-02 8.72576162e-02 1.21191137e-01
      1.63954288e-01 1.55644044e-01 1.34695292e-01 8.25830996e-02
      4.05124649e-02 2.18144041e-02 1.36772851e-02 9.69529059e-03
      3.63573409e-03 3.11634340e-03 2.07756227e-03 1.73130189e-04
      1.38504151e-03 1.90443208e-03 3.46260378e-04 0. 0. 0. 0. 0. 0. 0.
      0. 3.46260378e-04 0. 0. 0.</_>
    <_>
      7.83418566e-02 1.99050400e-02 1.47918193e-02 2.22790353e-02
      1.86267346e-02 4.34623808e-02 2.41051856e-02 5.91672771e-02
      1.15047479e-02 1.84441190e-02 1.88093502e-02 1.82615055e-04
      3.65230106e-02 4.56537632e-03 1.82615055e-04 1.46092044e-03
      2.13659611e-02 7.12198671e-03 6.02629669e-02 1.82615046e-03
      6.75675645e-02 1.53396642e-02 1.73484292e-02 5.84368175e-03
      5.22279032e-02 4.10883874e-02 9.13075265e-03 6.82980269e-02
      3.28707099e-02 9.13075230e-04 5.44192828e-02 3.30533236e-02
      2.92184087e-03 1.11395177e-02 2.37399573e-03 3.39663997e-02
      4.56537632e-03 1.09569030e-03 0. 8.76552239e-03 3.46968579e-03
      4.01753113e-02 8.94813705e-03 1.69831999e-02 4.56537632e-03</_>
    <_>
      1.06923439e-01 4.38327044e-02 2.56379955e-02 2.56379955e-02
      1.32325143e-02 2.87098307e-02 9.56994295e-03 1.78402644e-02
      3.07183363e-03 4.25330829e-03 8.03402625e-03 1.18147451e-04
      8.03402625e-03 2.00850656e-03 1.18147454e-03 1.06332707e-03
      4.13516071e-03 2.59924377e-03 2.03213617e-02 2.36294902e-04
      1.14603024e-02 1.06332707e-03 2.12665414e-03 5.90737269e-04
      7.79773155e-03 7.32514169e-03 9.45179607e-04 1.90217383e-02
      9.56994295e-03 1.18147451e-04 4.18241955e-02 1.59499049e-02
      2.95368629e-03 1.47684310e-02 5.90737269e-04 8.76654088e-02
      1.20510394e-02 6.02551969e-03 1.18147454e-03 4.76134233e-02
      3.73345949e-02 8.68383721e-02 1.42013237e-01 9.31001902e-02
      2.36294903e-02</_>
    <_>
      1.21575557e-01 3.53490710e-02 2.56280769e-02 9.49375108e-02
      9.59474817e-02 6.28708526e-02 4.50700670e-02 4.40600924e-02
      1.37608889e-02 1.42658753e-02 1.26246689e-02 0. 1.32559016e-02
      2.14619376e-03 1.26246683e-04 7.57480098e-04 5.68110077e-03
      7.57480098e-04 4.44388352e-02 1.26246683e-04 1.50233554e-02
      6.31233444e-04 1.00997346e-03 7.57480098e-04 1.08572152e-02
      5.04986732e-04 0. 3.54753174e-02 4.03989386e-03 0. 5.66847622e-02
      4.16614069e-03 0. 3.02992039e-03 0. 3.35816182e-02 1.13622018e-03
      6.31233444e-04 0. 1.35083953e-02 6.81732083e-03 1.11475825e-01
      2.04519629e-02 4.02726941e-02 6.56482764e-03</_>
    <_>
      7.92829171e-02 6.65320009e-02 5.73159941e-02 1.02133572e-01
      6.98144138e-02 1.10844590e-01 5.58010340e-02 5.75684905e-02
      2.12094430e-02 1.64120700e-02 1.22459289e-02 8.83726811e-04
      1.41396290e-02 3.66115384e-03 1.26246683e-04 7.57480098e-04
      4.16614069e-03 1.00997346e-03 1.71695501e-02 0. 8.58477503e-03
      2.01994693e-03 1.51496020e-03 0. 5.17611392e-03 6.56482764e-03
      1.26246683e-04 1.38871353e-02 9.46850143e-03 5.04986732e-04
      3.05516981e-02 1.07309679e-02 5.04986732e-04 9.59474780e-03
      1.26246683e-04 2.63855569e-02 4.92362073e-03 2.01994693e-03
      6.31233444e-04 1.43921226e-02 9.59474780e-03 7.10768849e-02
      2.18406767e-02 4.41863388e-02 1.45183690e-02</_>
    <_>
      1.12493239e-01 3.58301774e-02 3.93455923e-02 6.92266077e-02
      5.02974577e-02 1.06408872e-01 5.54353707e-02 5.51649556e-02
      2.32558139e-02 1.25743644e-02 9.05895047e-03 0. 2.16333158e-02
      1.48729037e-03 0. 5.40832873e-04 1.17631154e-02 1.75770686e-03
      5.88155761e-02 0. 1.82531103e-02 0. 2.43374798e-03 0.
      1.04110334e-02 2.56895623e-03 0. 3.15035172e-02 2.43374798e-03 0.
      5.23255803e-02 2.43374798e-03 0. 3.92103847e-03 0. 3.54245529e-02
      3.92103847e-03 2.70416436e-04 0. 1.16279069e-02 3.92103847e-03
      7.95024335e-02 2.63656024e-02 3.97512168e-02 7.84207694e-03</_>
    <_>
      4.21455950e-02 5.82639724e-02 1.58937767e-01 1.89456999e-01
      2.10860088e-01 2.24336103e-01 7.84780011e-02 1.29475491e-02
      8.58766027e-03 2.64235685e-04 6.60589256e-04 0. 0. 0. 0. 0. 0. 0.
      0. 0. 0. 0. 0. 0. 0. 0. 0. 0. 0. 0. 0. 0. 0. 0. 0. 0. 0.
      1.32117842e-04 0. 0. 5.28471370e-04 5.28471370e-04 2.64235702e-03
      4.09565354e-03 7.13436399e-03</_>
    <_>
      2.52770092e-02 2.96052638e-02 1.81786697e-02 5.47091402e-02
      5.05540185e-02 9.83379483e-02 1.31232694e-01 1.18767314e-01
      9.93767306e-02 6.73476458e-02 7.61772841e-02 8.82964022e-03
      5.40166199e-02 1.78324096e-02 6.57894742e-03 5.88642666e-03
      9.34903044e-03 2.94321333e-03 2.04293635e-02 1.03878113e-03
      8.65651015e-03 1.38504151e-03 2.25069257e-03 0. 7.79085886e-03
      4.50138515e-03 0. 9.00277030e-03 6.05955673e-03 0. 8.13711900e-03
      3.80886416e-03 0. 1.21191132e-03 0. 5.02077583e-03 1.21191132e-03
      5.19390567e-04 0. 2.25069257e-03 1.55817170e-03 2.14681439e-02
      4.50138515e-03 1.00415517e-02 4.15512454e-03</_>
    <_>
      6.85255229e-02 6.81710765e-02 6.00189045e-02 8.18761811e-02
      5.70652187e-02 9.97164473e-02 6.68714568e-02 6.20274097e-02
      2.70557664e-02 2.72920597e-02 2.04395093e-02 1.18147454e-03
      2.36294903e-02 5.90737257e-03 1.65406428e-03 4.01701313e-03
      1.85491499e-02 7.91587867e-03 2.77646501e-02 1.06332707e-03
      2.85916831e-02 4.48960299e-03 5.67107741e-03 1.65406428e-03
      5.78922499e-03 4.60775057e-03 5.90737269e-04 1.02788284e-02
      7.67958397e-03 0. 2.24480145e-02 9.45179630e-03 3.54442338e-04
      4.01701313e-03 0. 1.57136098e-02 3.30812857e-03 1.29962189e-03
      1.18147451e-04 1.13421548e-02 8.27032141e-03 4.69045378e-02
      2.50472594e-02 3.39083187e-02 1.77221168e-02</_>
    <_>
      6.84400834e-03 1.73037183e-02 4.28718999e-02 1.12732440e-01
      1.69034094e-01 2.66916335e-01 1.50697321e-01 5.30733466e-02
      4.30010334e-02 7.61880167e-03 5.94008248e-03 1.29132226e-04
      4.77789249e-03 6.45661145e-04 3.87396693e-04 6.45661145e-04
      3.35743790e-03 1.67871895e-03 6.19834708e-03 6.45661145e-04
      7.23140500e-03 4.77789249e-03 5.55268582e-03 5.29442169e-03
      9.16838832e-03 1.21384300e-02 1.13636367e-02 1.31714875e-02
      6.97314041e-03 6.45661145e-04 6.84400834e-03 3.48657020e-03
      2.58264452e-04 1.42045459e-03 0. 1.80785125e-03 3.87396693e-04
      7.74793385e-04 0. 2.45351251e-03 1.03305781e-03 3.61570250e-03
      1.80785125e-03 3.61570250e-03 1.67871895e-03</_>
    <_>
      5.31663513e-03 3.54442338e-04 2.36294902e-04 4.72589803e-04
      2.36294902e-04 4.72589803e-04 2.36294902e-04 1.41776935e-03
      1.41776935e-03 4.72589803e-04 2.59924377e-03 0. 6.97069941e-03
      1.29962189e-03 0. 1.18147451e-04 3.78071843e-03 2.59924377e-03
      1.41776940e-02 6.61625713e-03 3.06001883e-02 3.37901711e-02
      3.62712666e-02 4.52504717e-02 9.73534957e-02 1.72613427e-01
      1.53827980e-01 1.39768437e-01 9.45179611e-02 3.80434766e-02
      4.25330810e-02 3.72164473e-02 4.72589815e-03 9.09735356e-03
      1.18147454e-03 4.13516071e-03 2.48109642e-03 7.08884676e-04
      1.18147451e-04 1.89035921e-03 8.27032141e-04 2.59924377e-03
      2.36294902e-04 1.41776935e-03 0.</_>
    <_>
      5.02047827e-03 2.64235685e-04 0. 9.24824970e-04 7.92707084e-04
      6.47377456e-03 3.01228687e-02 2.84053367e-02 6.72479868e-02
      5.70749119e-02 8.77262503e-02 4.50521857e-02 9.40679088e-02
      6.01136200e-02 4.72981893e-02 5.53573780e-02 5.44325523e-02
      4.53164205e-02 5.83960898e-02 2.73483954e-02 8.33663642e-02
      4.72981893e-02 3.11798118e-02 1.57220233e-02 2.43096836e-02
      1.81001462e-02 1.58541417e-03 2.77447491e-03 1.71753205e-03 0.
      7.92707084e-04 3.96353542e-04 0. 0. 0. 3.96353542e-04 0. 0. 0. 0.
      0. 9.24824970e-04 0. 0. 0.</_>
    <_>
      1.99497957e-02 1.03051923e-02 2.78768670e-02 9.60496739e-02
      2.02404544e-01 2.53137797e-01 1.27890080e-01 5.61500862e-02
      4.14850041e-02 1.12300171e-02 1.03051923e-02 1.84964994e-03
      1.45329637e-02 4.22777096e-03 2.51023914e-03 1.98176783e-03
      5.02047827e-03 5.02047827e-03 1.21548418e-02 1.98176783e-03
      1.37402564e-02 5.94530301e-03 4.35988884e-03 2.11388548e-03
      8.45554192e-03 7.79495295e-03 1.32117851e-03 1.04373097e-02
      5.28471405e-03 0. 3.30294622e-03 3.69929988e-03 0. 3.83141753e-03
      0. 4.09565354e-03 1.58541417e-03 2.64235685e-04 0. 2.11388548e-03
      7.92707084e-04 7.79495295e-03 1.98176783e-03 3.56718199e-03
      1.45329640e-03</_>
    <_>
      9.90883913e-03 1.32117851e-03 3.96353542e-04 1.58541417e-03
      7.92707084e-04 2.51023914e-03 4.49200673e-03 5.68106771e-03
      6.07742090e-03 4.88836039e-03 1.08336639e-02 2.37812125e-03
      1.96855590e-02 9.51248500e-03 4.75624250e-03 8.58766027e-03
      2.33848598e-02 1.70432031e-02 6.05099760e-02 5.28471405e-03
      1.25379845e-01 3.81820574e-02 5.54894954e-02 3.03871054e-02
      1.09525695e-01 1.68053910e-01 6.47377446e-02 1.07147574e-01
      5.13938442e-02 3.83141753e-03 2.43096836e-02 1.58541426e-02
      1.32117851e-03 7.92707084e-04 0. 1.58541417e-03 0. 0. 0. 0. 0.
      2.24600337e-03 0. 1.32117842e-04 0.</_>
    <_>
      3.43506411e-03 0. 0. 0. 0. 0. 0. 7.92707084e-04 9.24824970e-04
      1.45329640e-03 1.08336639e-02 6.47377456e-03 2.60272156e-02
      2.68199239e-02 1.62504949e-02 1.81001462e-02 3.13119292e-02
      3.84462923e-02 6.97582215e-02 6.46056309e-02 2.47060373e-01
      1.99365839e-01 8.54802504e-02 2.98586339e-02 6.59268051e-02
      3.67287621e-02 4.88836039e-03 7.39859976e-03 2.37812125e-03
      3.96353542e-04 2.11388548e-03 1.32117851e-03 3.96353542e-04
      3.96353542e-04 0. 0. 0. 0. 0. 0. 0. 9.24824970e-04 0.
      1.32117842e-04 0.</_>
    <_>
      2.64235685e-04 0. 0. 0. 0. 0. 1.32117842e-04 1.32117842e-04
      2.64235685e-04 1.32117842e-04 2.64235685e-04 0. 5.28471370e-04
      1.18906063e-03 1.32117851e-03 1.98176783e-03 3.03871045e-03
      3.96353565e-03 1.20227244e-02 2.89338082e-02 8.33663642e-02
      1.62372842e-01 1.70167789e-01 1.72281682e-01 1.20623596e-01
      1.23662308e-01 6.20953888e-02 2.80089844e-02 1.07015455e-02
      3.17082833e-03 3.69929988e-03 4.49200673e-03 7.92707084e-04
      1.32117842e-04 1.32117842e-04 0. 1.32117842e-04 0. 0. 0. 0. 0. 0.
      0. 0.</_>
    <_>
      1.45329637e-02 3.23688723e-02 6.14348017e-02 1.42290920e-01
      1.82983220e-01 2.47324616e-01 1.49821639e-01 7.30611682e-02
      4.30704206e-02 2.40454488e-02 4.49200673e-03 1.32117842e-04
      2.51023914e-03 2.64235685e-04 0. 0. 0. 0. 2.64235685e-04 0. 0. 0.
      0. 0. 0. 0. 0. 0. 0. 0. 5.28471370e-04 0. 0. 0. 0. 2.64235685e-04
      0. 0. 0. 1.05694274e-03 3.96353542e-04 5.81318559e-03
      3.83141753e-03 5.41683193e-03 4.09565354e-03</_>
    <_>
      4.34623808e-02 2.52008773e-02 1.26004387e-02 2.39225719e-02
      9.86121222e-03 3.46968584e-02 2.33747270e-02 2.30094958e-02
      1.95398107e-02 1.26004387e-02 1.18699782e-02 0. 1.16873635e-02
      2.55661062e-03 0. 7.30460219e-04 9.31336731e-03 3.65230092e-03
      3.72534692e-02 0. 3.23228650e-02 3.65230092e-03 1.51570486e-02
      2.00876547e-03 4.51059155e-02 4.82103713e-02 6.02629641e-03
      9.75164324e-02 6.86632544e-02 3.65230092e-03 1.08108111e-01
      7.54200146e-02 1.04090581e-02 3.50620896e-02 1.82615046e-03
      3.34185548e-02 1.11395177e-02 2.55661062e-03 9.13075230e-04
      2.04528850e-02 1.26004387e-02 2.37399563e-02 1.15047479e-02
      2.04528850e-02 4.74799145e-03</_>
    <_>
      1.16735540e-01 3.39617766e-02 5.53977266e-02 1.25516534e-01
      8.93595070e-02 6.25000000e-02 2.23398767e-02 3.12500000e-02
      8.91012419e-03 1.14927683e-02 4.90702502e-03 6.45661145e-04
      1.25258267e-02 9.03925626e-04 1.29132226e-04 5.16528904e-04
      3.74483480e-03 5.16528904e-04 4.08057868e-02 1.29132226e-04
      1.53667359e-02 7.74793385e-04 5.29442169e-03 2.58264452e-04
      1.51084708e-02 9.94318165e-03 0. 2.47933883e-02 1.09762400e-02 0.
      4.40340899e-02 1.83367766e-02 2.58264452e-04 1.08471075e-02
      6.45661145e-04 2.28564050e-02 4.13223123e-03 2.58264452e-04 0.
      1.03305783e-02 5.29442169e-03 8.27737600e-02 4.41632234e-02
      4.15805802e-02 9.68491752e-03</_>
    <_>
      0. 0. 0. 0. 0. 0. 0. 0. 0. 0. 0. 0. 0. 0. 0. 0. 0. 0.
      1.20758363e-04 6.03791792e-04 1.20758363e-04 2.41516717e-03
      7.97005184e-03 2.20987797e-02 4.89071384e-02 2.45139480e-01
      3.37761134e-01 2.14708373e-01 8.32025111e-02 2.89820079e-02
      5.91715984e-03 1.81137549e-03 0. 0. 0. 1.20758363e-04 0. 0. 0. 0.
      0. 1.20758363e-04 0. 0. 0.</_>
    <_>
      1.23090521e-01 1.24100491e-01 1.29907846e-01 1.18293144e-01
      8.01666453e-02 6.37545735e-02 3.01729571e-02 1.41396290e-02
      8.96351505e-03 6.56482764e-03 4.16614069e-03 0. 3.15616722e-03
      6.31233444e-04 0. 2.52493366e-04 5.04986732e-04 2.52493366e-04
      3.40866041e-03 0. 8.83726811e-04 0. 3.78740049e-04 0.
      7.57480098e-04 1.51496020e-03 2.52493366e-04 1.00997346e-03
      3.78740049e-04 0. 1.13622018e-03 3.78740049e-04 0. 1.13622018e-03
      0. 4.29238752e-03 1.38871360e-03 1.26246689e-03 1.26246683e-04
      8.20603501e-03 1.71695501e-02 2.65118033e-02 8.92564058e-02
      4.53225598e-02 8.71102139e-02</_>
    <_>
      7.65595436e-02 1.57136098e-02 7.44328927e-03 1.78402644e-02
      1.52410204e-02 5.36389425e-02 5.91918714e-02 8.27032104e-02
      4.12334576e-02 5.65926284e-02 3.15453671e-02 1.06332707e-03
      4.58412096e-02 1.35869561e-02 2.36294902e-04 9.45179607e-04
      1.79584119e-02 6.61625713e-03 6.89981133e-02 5.78922499e-03
      7.66776949e-02 1.13421548e-02 1.86672974e-02 2.12665414e-03
      4.08790186e-02 2.71739122e-02 3.54442350e-03 5.83648384e-02
      2.68194713e-02 1.18147451e-04 2.82372404e-02 8.74291081e-03
      7.08884676e-04 4.37145540e-03 3.54442338e-04 1.20510394e-02
      1.53591682e-03 4.72589803e-04 0. 3.66257085e-03 1.89035921e-03
      3.82797718e-02 2.83553870e-03 1.22873345e-02 1.18147451e-04</_>
    <_>
      5.62822036e-02 6.52662143e-02 8.85189623e-02 1.37138322e-01
      9.45963785e-02 8.23094174e-02 2.66878046e-02 2.33848598e-02
      4.49200673e-03 4.62412462e-03 2.37812125e-03 0. 8.19130708e-03
      7.92707084e-04 0. 0. 1.18906063e-03 7.92707084e-04 2.32527424e-02
      0. 1.24190776e-02 6.60589256e-04 9.64460336e-03 0. 2.14030910e-02
      9.90883913e-03 0. 4.28061821e-02 1.03051923e-02 0. 3.14440466e-02
      7.13436399e-03 0. 3.96353565e-03 0. 4.20134775e-02 1.18906063e-03
      1.32117842e-04 0. 1.59862600e-02 7.66283507e-03 6.02457374e-02
      3.71251144e-02 4.71660718e-02 1.88928526e-02</_>
    <_>
      7.93382451e-02 6.41226918e-02 2.48762220e-02 5.73602207e-02
      4.41975594e-02 1.12063758e-01 9.87803414e-02 7.90967271e-02
      4.74580377e-02 3.45368907e-02 2.95857992e-02 2.77744234e-03
      4.55259010e-02 7.72853522e-03 1.56985875e-03 1.08682527e-03
      1.03852190e-02 8.45308532e-04 2.40309145e-02 7.24550162e-04
      1.48532782e-02 4.83033451e-04 1.20758358e-03 0. 4.46805963e-03
      1.81137549e-03 0. 1.19550778e-02 4.10578446e-03 0. 1.09890113e-02
      2.29440886e-03 2.41516726e-04 3.98502592e-03 3.62275081e-04
      1.40079698e-02 3.74350930e-03 1.69061706e-03 0. 1.06267361e-02
      3.74350930e-03 5.56696057e-02 2.93442812e-02 4.19031531e-02
      1.64231379e-02</_>
    <_>
      1.20867766e-01 2.25981399e-02 1.11053716e-02 2.67303716e-02
      2.71177683e-02 6.26291335e-02 2.59555783e-02 5.63016534e-02
      1.02014467e-02 9.42665245e-03 1.04597108e-02 9.03925626e-04
      3.24121900e-02 2.71177688e-03 2.58264452e-04 1.54958677e-03
      1.30423550e-02 4.64876043e-03 6.92148730e-02 3.87396693e-04
      3.53822298e-02 6.45661168e-03 1.17510334e-02 2.58264458e-03
      3.47365700e-02 2.16942150e-02 3.61570250e-03 7.54132196e-02
      3.21539268e-02 6.45661145e-04 7.32179731e-02 2.28564050e-02
      9.03925626e-04 1.20092975e-02 7.74793385e-04 5.57851233e-02
      4.77789249e-03 9.03925626e-04 1.29132226e-04 1.51084708e-02
      7.87706580e-03 3.74483466e-02 1.25258267e-02 1.51084708e-02
      7.61880167e-03</_>
    <_>
      5.77339120e-02 6.62520304e-02 7.20659792e-02 2.00513795e-01
      2.32152522e-01 1.40481338e-01 8.43699276e-02 2.08220668e-02
      9.46457591e-03 5.00270398e-03 3.92103847e-03 2.70416436e-04
      2.83937273e-03 4.05624654e-04 1.35208218e-04 6.76041120e-04
      5.40832873e-04 1.35208218e-04 4.73228795e-03 0. 1.35208218e-04 0.
      0. 0. 0. 0. 0. 4.05624654e-04 6.76041120e-04 0. 2.16333149e-03
      1.08166575e-03 5.40832873e-04 2.56895623e-03 1.35208218e-04
      2.70416448e-03 1.21687399e-03 5.40832873e-04 0. 6.48999447e-03
      4.32666298e-03 8.78853444e-03 2.08220668e-02 2.43374798e-02
      2.05516499e-02</_>
    <_>
      3.87396687e-03 5.16528904e-04 2.97004124e-03 3.65444198e-02
      1.28615707e-01 1.67355374e-01 1.72004133e-01 6.89566135e-02
      6.31456599e-02 1.78202484e-02 1.43336775e-02 4.13223123e-03
      1.35588842e-02 6.32747915e-03 1.93698343e-03 5.03615709e-03
      9.55578499e-03 9.94318165e-03 1.92407016e-02 8.78099166e-03
      4.13223132e-02 3.49948332e-02 3.87396701e-02 1.98863633e-02
      3.68026868e-02 3.20247933e-02 8.91012419e-03 1.45919425e-02
      4.13223123e-03 0. 5.81095042e-03 2.06611562e-03 2.58264452e-04
      1.67871895e-03 0. 1.67871895e-03 1.29132226e-04 1.29132226e-04
      1.29132226e-04 3.87396693e-04 0. 9.03925626e-04 2.58264452e-04
      5.16528904e-04 0.</_>
    <_>
      8.17174539e-02 1.41966762e-02 3.98199446e-03 9.34903044e-03
      6.40581734e-03 2.75277011e-02 1.59279779e-02 2.90858727e-02
      8.82964022e-03 1.28116347e-02 8.13711900e-03 5.19390567e-04
      1.48891965e-02 1.55817170e-03 8.65650945e-04 1.21191132e-03
      1.09072020e-02 3.63573409e-03 3.51454280e-02 5.19390567e-04
      3.02977841e-02 4.84764529e-03 1.17728533e-02 5.02077583e-03
      2.00831033e-02 2.52770092e-02 4.67451522e-03 5.14196679e-02
      2.57963985e-02 5.19390567e-04 6.75207749e-02 2.80470923e-02
      5.02077583e-03 4.88227159e-02 1.21191132e-03 1.01973683e-01
      1.64473690e-02 1.09072020e-02 1.03878113e-03 4.01662067e-02
      2.49307472e-02 9.07202214e-02 2.99515240e-02 5.79986162e-02
      8.31024908e-03</_>
    <_>
      2.51807850e-02 1.25258267e-02 1.75619833e-02 5.59142567e-02
      7.72210732e-02 1.69808879e-01 1.80010334e-01 8.21281001e-02
      1.16735540e-01 5.30733466e-02 5.59142567e-02 7.36053707e-03
      2.86673550e-02 9.81405005e-03 7.23140500e-03 8.39359500e-03
      6.06921501e-03 2.32438021e-03 1.29132234e-02 0. 8.26446246e-03
      2.06611562e-03 2.71177688e-03 2.58264452e-04 6.97314041e-03
      3.09917354e-03 6.45661145e-04 6.06921501e-03 6.45661145e-04 0.
      8.91012419e-03 1.67871895e-03 0. 2.58264452e-04 0. 3.22830584e-03
      0. 0. 0. 5.16528904e-04 1.29132229e-03 1.53667359e-02
      3.35743790e-03 4.64876043e-03 1.16219011e-03</_>
    <_>
      5.08034043e-02 3.20179574e-02 1.63043477e-02 2.70557664e-02
      1.59499049e-02 4.20604907e-02 4.07608710e-02 3.76890376e-02
      2.12665405e-02 2.17391308e-02 3.13090719e-02 1.77221175e-03
      3.44990566e-02 1.19328918e-02 4.60775057e-03 1.06332703e-02
      2.16209833e-02 1.00425333e-02 4.39508520e-02 7.20699411e-03
      4.57230620e-02 1.84310023e-02 1.74858216e-02 7.67958397e-03
      3.27268429e-02 4.18241955e-02 7.67958397e-03 4.83223051e-02
      2.80009452e-02 1.53591682e-03 4.14697528e-02 2.82372404e-02
      3.07183363e-03 1.25236297e-02 1.65406428e-03 2.89461240e-02
      1.05151227e-02 4.60775057e-03 1.89035921e-03 1.97306238e-02
      1.55954631e-02 3.20179574e-02 2.84735356e-02 2.88279764e-02
      9.80623811e-03</_>
    <_>
      9.50637534e-02 1.27761647e-01 1.71064258e-01 1.68413073e-01
      1.24731727e-01 9.48112607e-02 3.25716436e-02 1.57808363e-02
      5.80734760e-03 3.53490724e-03 1.64120691e-03 5.04986732e-04
      3.78740049e-04 1.26246683e-04 0. 1.26246683e-04 0. 0. 0. 0. 0. 0.
      0. 0. 0. 0. 0. 0. 0. 0. 0. 0. 0. 0. 0. 0. 7.57480098e-04
      8.83726811e-04 1.26246683e-04 3.28241382e-03 9.08976141e-03
      7.44855450e-03 4.40600924e-02 2.22194176e-02 6.98144138e-02</_>
    <_>
      6.16729669e-02 3.74527425e-02 2.12665405e-02 2.43383739e-02
      1.73676740e-02 4.04064283e-02 2.00850666e-02 2.95368619e-02
      8.15217383e-03 1.38232512e-02 8.03402625e-03 0. 1.74858216e-02
      1.41776935e-03 1.18147451e-04 2.36294902e-04 6.26181485e-03
      1.89035921e-03 3.81616242e-02 4.72589803e-04 3.62712666e-02
      7.44328927e-03 2.00850666e-02 4.25330829e-03 4.63137999e-02
      4.96219285e-02 7.32514169e-03 7.63232484e-02 6.26181439e-02
      5.90737269e-04 6.92344010e-02 5.86011335e-02 5.78922499e-03
      3.26086953e-02 1.77221175e-03 3.92249525e-02 1.00425333e-02
      3.66257085e-03 0. 1.25236297e-02 8.50661658e-03 3.20179574e-02
      2.38657836e-02 2.51654070e-02 1.79584119e-02</_>
    <_>
      8.07823166e-02 3.24546471e-02 1.44557822e-02 4.54931967e-02
      3.51473913e-02 1.06717683e-01 7.48299286e-02 8.06405917e-02
      2.21088436e-02 2.99036279e-02 2.06916109e-02 0. 3.89739238e-02
      2.69274367e-03 5.66893432e-04 1.70068024e-03 1.62981860e-02
      8.21995456e-03 9.33956951e-02 6.37755124e-03 7.56802708e-02
      2.63605434e-02 2.40929704e-02 5.66893432e-04 2.94784587e-02
      3.25963716e-03 0. 2.46598646e-02 1.27551018e-03 0. 1.47392293e-02
      9.92063549e-04 0. 1.13378686e-03 0. 1.23299323e-02 0. 0. 0.
      1.98412710e-03 2.83446716e-04 5.11621311e-02 3.68480734e-03
      1.47392293e-02 2.12585041e-03</_>
    <_>
      4.22777124e-02 1.99497957e-02 3.27652283e-02 7.57035241e-02
      1.43744215e-01 2.26185754e-01 1.41233981e-01 7.84780011e-02
      5.86603247e-02 3.23688723e-02 2.94622798e-02 2.77447491e-03
      1.90249700e-02 6.87012821e-03 1.32117851e-03 1.05694274e-03
      5.81318559e-03 1.32117851e-03 1.88928526e-02 0. 6.34165667e-03 0.
      0. 0. 5.28471370e-04 3.96353542e-04 0. 2.24600337e-03
      7.92707084e-04 0. 3.96353565e-03 6.60589256e-04 0. 4.22777096e-03
      0. 6.20953878e-03 6.60589256e-04 2.64235685e-04 0. 2.90659280e-03
      1.18906063e-03 2.04782672e-02 3.03871045e-03 6.87012821e-03
      1.32117851e-03</_>
    <_>
      1.32231399e-01 3.64152901e-02 9.29752085e-03 2.09194217e-02
      1.40754133e-02 5.24276868e-02 3.04752067e-02 7.05062002e-02
      1.82076450e-02 2.38894634e-02 2.73760334e-02 2.06611562e-03
      5.39772734e-02 9.42665245e-03 9.03925626e-04 1.29132229e-03
      2.41477266e-02 1.27840908e-02 7.41218999e-02 1.03305781e-03
      4.53254133e-02 4.26136376e-03 5.81095042e-03 5.16528904e-04
      1.87241733e-02 1.04597108e-02 9.03925626e-04 3.69318165e-02
      1.58832651e-02 1.29132226e-04 3.46074365e-02 1.20092975e-02
      1.29132226e-04 5.81095042e-03 0. 1.94989666e-02 3.22830584e-03 0.
      0. 1.27840908e-02 6.06921501e-03 8.26446265e-02 2.44059917e-02
      3.27995867e-02 1.14927683e-02</_>
    <_>
      5.26448674e-02 8.34490582e-02 9.44325179e-02 1.74977913e-01
      1.40891299e-01 1.63236961e-01 6.46383017e-02 3.73690203e-02
      2.01994702e-02 1.26246689e-02 4.41863388e-03 5.04986732e-04
      4.67112754e-03 6.31233444e-04 0. 5.04986732e-04 1.26246683e-04
      5.04986732e-04 8.83726811e-04 0. 1.26246683e-04 0. 2.52493366e-04
      0. 7.57480098e-04 1.26246683e-04 0. 5.04986732e-04 0. 0.
      4.54488071e-03 0. 0. 6.31233444e-04 0. 5.42860758e-03
      2.01994693e-03 1.00997346e-03 0. 7.06981448e-03 3.53490724e-03
      2.81530116e-02 2.15881839e-02 4.36813533e-02 2.38606241e-02</_>
    <_>
      3.54442338e-04 1.18147451e-04 0. 0. 0. 0. 0. 0. 0. 0. 0. 0. 0. 0.
      0. 0. 0. 0. 9.45179607e-04 7.08884676e-04 1.18147451e-04
      1.77221175e-03 2.00850656e-03 1.22873345e-02 1.67769380e-02
      1.17556714e-01 2.92769372e-01 2.76110590e-01 1.66587904e-01
      9.02646482e-02 1.71313807e-02 2.95368629e-03 5.90737269e-04 0. 0.
      2.36294902e-04 0. 0. 0. 0. 0. 0. 2.36294902e-04 2.36294902e-04
      2.36294902e-04</_>
    <_>
      8.24099705e-02 1.10976458e-01 1.40581712e-01 1.35907203e-01
      1.14092797e-01 9.08933505e-02 3.51454280e-02 2.45844871e-02
      1.83518007e-02 6.05955673e-03 9.69529059e-03 6.92520756e-04
      4.67451522e-03 5.19390567e-04 0. 3.46260378e-04 1.55817170e-03
      5.19390567e-04 1.55817170e-03 0. 1.03878113e-03 0. 0. 0.
      1.73130189e-04 6.92520756e-04 0. 2.07756227e-03 3.63573409e-03 0.
      5.88642666e-03 2.94321333e-03 0. 1.73130189e-03 0. 9.52216052e-03
      1.21191132e-03 1.38504151e-03 3.46260378e-04 6.40581734e-03
      1.35041550e-02 2.40650978e-02 4.60526310e-02 3.54916900e-02
      6.52700812e-02</_>
    <_>
      1.83643810e-02 4.62412462e-03 1.32117851e-03 5.94530301e-03
      8.58766027e-03 2.19315626e-02 3.58039364e-02 4.67697196e-02
      5.39040826e-02 5.95851503e-02 1.15999475e-01 2.37812120e-02
      1.26040429e-01 5.83960898e-02 3.81820574e-02 4.33346555e-02
      6.52662143e-02 4.05601785e-02 5.86603247e-02 1.01730740e-02
      6.81728125e-02 1.49293169e-02 1.16263712e-02 5.02047827e-03
      1.09657813e-02 9.51248500e-03 1.71753205e-03 1.32117849e-02
      2.11388548e-03 0. 9.64460336e-03 2.64235702e-03 0. 1.18906063e-03
      0. 1.71753205e-03 0. 0. 0. 2.64235685e-04 0. 7.66283507e-03
      7.92707084e-04 1.58541417e-03 0.</_>
    <_>
      6.41540661e-02 8.25850666e-02 8.23487714e-02 1.22518905e-01
      9.80623811e-02 1.04796790e-01 7.70321339e-02 5.45841195e-02
      3.00094523e-02 1.89035926e-02 1.64224952e-02 1.89035921e-03
      1.29962191e-02 2.95368629e-03 1.29962189e-03 2.00850656e-03
      4.84404527e-03 3.18998098e-03 5.55292983e-03 3.54442338e-04
      6.37996197e-03 0. 5.90737269e-04 0. 8.27032141e-04 0. 0.
      1.53591682e-03 9.45179607e-04 0. 4.13516071e-03 4.13516071e-03
      3.54442338e-04 3.78071843e-03 4.72589803e-04 1.39413988e-02
      2.24480149e-03 8.27032141e-04 0. 1.33506618e-02 1.22873345e-02
      3.95793952e-02 4.01701331e-02 4.22967859e-02 2.56379955e-02</_>
    <_>
      1.64231379e-02 7.48701859e-03 8.57384410e-03 3.24839987e-02
      5.19260950e-02 8.83951187e-02 6.50887564e-02 3.65897827e-02
      2.89820079e-02 1.06267361e-02 2.13742293e-02 3.62275081e-04
      1.12305274e-02 3.86426761e-03 8.45308532e-04 2.05289223e-03
      1.38872117e-02 9.05687734e-03 2.52384972e-02 7.84929376e-03
      5.34959547e-02 3.50199267e-02 4.22654264e-02 2.69291140e-02
      9.29839388e-02 7.92174861e-02 4.28692177e-02 6.49679974e-02
      4.32314947e-02 6.27943501e-03 2.40309145e-02 1.65438950e-02
      2.53592571e-03 3.13971750e-03 3.62275081e-04 4.83033434e-03
      1.44910032e-03 3.62275081e-04 0. 1.44910032e-03 1.08682527e-03
      7.00398488e-03 2.65668402e-03 3.38123413e-03 1.56985875e-03</_>
    <_>
      1.86971337e-01 3.19404118e-02 1.45183690e-02 2.51230914e-02
      1.48971090e-02 4.26713787e-02 1.62858218e-02 4.48175743e-02
      5.68110077e-03 1.03522278e-02 1.03522278e-02 0. 1.83057692e-02
      2.52493366e-04 0. 1.64120691e-03 8.83726776e-03 4.41863388e-03
      8.26915801e-02 0. 3.88839804e-02 3.78740049e-04 2.27244035e-03 0.
      1.27509153e-02 3.40866041e-03 0. 3.11829317e-02 8.07978772e-03 0.
      5.73159941e-02 8.20603501e-03 0. 5.80734760e-03 0. 2.81530116e-02
      1.51496020e-03 2.52493366e-04 0. 1.62858218e-02 5.80734760e-03
      1.44678697e-01 4.06514332e-02 6.46383017e-02 9.97348782e-03</_>
    <_>
      4.14514467e-02 5.21694198e-02 5.32024801e-02 1.01110540e-01
      1.01239666e-01 1.53409094e-01 1.10666320e-01 6.71487600e-02
      5.16528934e-02 3.42200398e-02 3.86105366e-02 3.22830584e-03
      3.12500000e-02 1.11053716e-02 1.93698343e-03 1.67871895e-03
      1.22675616e-02 2.45351251e-03 1.74328517e-02 5.16528904e-04
      8.39359500e-03 2.32438021e-03 1.29132229e-03 1.29132226e-04
      4.90702502e-03 1.67871895e-03 0. 7.23140500e-03 2.84090918e-03
      2.58264452e-04 1.33006200e-02 1.29132229e-03 0. 2.58264452e-04 0.
      5.42355375e-03 0. 0. 0. 4.51962790e-03 1.67871895e-03
      2.71177683e-02 6.06921501e-03 1.85950417e-02 5.94008248e-03</_>
    <_>
      2.97065563e-02 8.81536026e-03 2.05289223e-03 7.48701859e-03
      2.65668402e-03 1.21965948e-02 8.93611927e-03 1.47325201e-02
      8.45308509e-03 1.38872117e-02 1.13512864e-02 3.26047582e-03
      2.43931897e-02 7.84929376e-03 8.45308509e-03 9.78142768e-03
      1.95628554e-02 2.19780225e-02 6.24320731e-02 2.52384972e-02
      1.35732397e-01 6.85907528e-02 6.11037314e-02 2.57215314e-02
      1.03972949e-01 1.06146604e-01 2.57215314e-02 6.21905550e-02
      3.63482684e-02 4.83033451e-04 2.40309145e-02 2.12534722e-02 0.
      4.22654254e-03 2.41516726e-04 4.58881771e-03 8.45308532e-04
      3.62275081e-04 0. 9.66066902e-04 1.20758363e-04 1.06267361e-02
      2.05289223e-03 1.20758358e-03 2.41516726e-04</_>
    <_>
      3.56718199e-03 2.64235685e-04 0. 0. 0. 4.22777096e-03
      1.28154317e-02 2.00819131e-02 6.18311539e-02 3.76535878e-02
      6.92297518e-02 1.53256701e-02 6.01136200e-02 3.50112282e-02
      2.68199239e-02 3.36900502e-02 5.70749119e-02 5.40362000e-02
      7.53071755e-02 3.05192228e-02 1.42290920e-01 7.39859939e-02
      3.65966447e-02 4.26740646e-02 3.85784134e-02 3.11798118e-02
      1.75716747e-02 1.32117849e-02 1.98176783e-03 2.64235685e-04
      9.24824970e-04 2.64235685e-04 0. 0. 0. 7.92707084e-04 0. 0. 0.
      5.28471370e-04 3.96353542e-04 7.92707084e-04 1.32117842e-04
      2.64235685e-04 0.</_>
    <_>
      4.58355881e-02 4.81341258e-02 7.62574375e-02 1.36695504e-01
      1.35884255e-01 1.76717147e-01 9.59978402e-02 8.01784769e-02
      3.66414264e-02 3.00162248e-02 2.67712269e-02 6.76041120e-04
      1.35208219e-02 2.97458074e-03 4.05624654e-04 2.70416436e-04
      3.65062198e-03 2.56895623e-03 1.06814494e-02 2.70416436e-04
      2.70416448e-03 4.05624654e-04 0. 0. 0. 0. 0. 2.56895623e-03 0. 0.
      4.32666298e-03 1.35208218e-04 0. 1.35208224e-03 0. 4.46187146e-03
      1.08166575e-03 1.35208218e-04 0. 4.59707947e-03 2.83937273e-03
      2.17685234e-02 4.73228795e-03 1.94699839e-02 5.27312048e-03</_>
    <_>
      4.01753113e-02 4.38276120e-03 1.46092044e-03 3.83491605e-03
      2.00876547e-03 1.53396642e-02 3.83491605e-03 1.15047479e-02
      9.13075230e-04 4.56537632e-03 6.20891154e-03 0. 1.57048944e-02
      2.00876547e-03 0. 3.65230092e-03 1.57048944e-02 8.21767747e-03
      4.93060611e-02 1.46092044e-03 7.30460212e-02 8.03506188e-03
      3.10445577e-02 5.11322124e-03 6.72023371e-02 7.63330907e-02
      2.35573407e-02 1.19065009e-01 1.02994889e-01 4.38276120e-03
      7.96201602e-02 8.89335275e-02 7.85244722e-03 2.99488679e-02
      5.84368175e-03 2.57487223e-02 1.18699782e-02 3.65230109e-04 0.
      7.85244722e-03 6.57414179e-03 1.75310448e-02 7.66983209e-03
      6.75675692e-03 2.37399573e-03</_>
    <_>
      9.22731534e-02 4.37145568e-02 1.47684310e-02 1.57136098e-02
      5.08034043e-03 1.96124762e-02 6.26181485e-03 1.02788284e-02
      2.95368629e-03 3.89886578e-03 4.60775057e-03 1.18147451e-04
      6.61625713e-03 1.18147454e-03 2.36294902e-04 2.36294902e-04
      8.27032141e-04 1.18147454e-03 1.86672974e-02 0. 6.02551969e-03
      2.83553870e-03 5.08034043e-03 1.29962189e-03 1.71313807e-02
      1.01606809e-02 1.89035921e-03 4.30056714e-02 2.31569000e-02 0.
      8.88468772e-02 3.04820407e-02 1.77221175e-03 2.96550095e-02
      4.72589803e-04 8.15217420e-02 1.52410204e-02 5.19848755e-03
      9.45179607e-04 4.84404527e-02 3.14272195e-02 1.31734401e-01
      8.18761811e-02 8.37665424e-02 9.80623811e-03</_>
    <_>
      7.77410194e-02 8.38846862e-02 9.72353518e-02 1.24409266e-01
      9.39272195e-02 1.20628543e-01 8.04584101e-02 4.85586002e-02
      2.03213617e-02 1.61862001e-02 1.53591679e-02 1.18147451e-04
      1.42958416e-02 1.65406428e-03 1.89035921e-03 1.89035921e-03
      8.27032141e-04 1.18147451e-04 8.86105839e-03 0. 3.66257085e-03 0.
      2.36294902e-04 0. 1.06332707e-03 7.08884676e-04 0. 8.03402625e-03
      5.90737269e-04 0. 7.44328927e-03 2.59924377e-03 0. 3.07183363e-03
      0. 6.26181485e-03 3.54442338e-04 1.41776935e-03 0. 6.02551969e-03
      8.86105839e-03 2.25661620e-02 4.63137999e-02 2.59924382e-02
      4.64319475e-02</_>
    <_>
      1.00229438e-02 1.69061706e-03 1.32834201e-03 3.86426761e-03
      2.77744234e-03 6.76246826e-03 8.81536026e-03 9.66066867e-03
      1.38872117e-02 1.17135616e-02 2.42724307e-02 6.64170971e-03
      3.23632397e-02 2.66875979e-02 2.23402977e-02 3.87634337e-02
      6.61755800e-02 8.44100937e-02 1.13754377e-01 7.68023208e-02
      1.31626621e-01 9.44330394e-02 4.04540524e-02 3.01895905e-02
      3.35708261e-02 2.75329072e-02 1.09890113e-02 1.77514795e-02
      1.23173529e-02 1.69061706e-03 8.93611927e-03 7.00398488e-03
      1.08682527e-03 2.53592571e-03 3.62275081e-04 3.86426761e-03
      1.08682527e-03 2.41516726e-04 0. 1.20758358e-03 8.45308532e-04
      6.15867646e-03 9.66066902e-04 1.93213380e-03 4.83033451e-04</_>
    <_>
      7.16758966e-02 3.37603875e-02 3.86080332e-02 6.26731291e-02
      7.32340738e-02 9.72991660e-02 3.73961218e-02 4.53601107e-02
      1.21191135e-02 1.17728533e-02 1.26385046e-02 6.92520756e-04
      1.93905812e-02 2.94321333e-03 1.03878113e-03 2.42382265e-03
      4.67451522e-03 1.90443208e-03 3.61842103e-02 1.73130189e-04
      1.64473690e-02 0. 2.07756227e-03 3.46260378e-04 1.10803321e-02
      1.03878118e-02 5.19390567e-04 3.27216052e-02 2.90858727e-02
      5.19390567e-04 4.29362878e-02 5.26315793e-02 8.13711900e-03
      3.04709133e-02 2.25069257e-03 3.04709133e-02 5.88642666e-03
      1.03878113e-03 0. 1.97368413e-02 1.40235461e-02 5.21121882e-02
      2.66620498e-02 3.01246531e-02 1.43698063e-02</_>
    <_>
      9.55812857e-02 3.61531191e-02 5.78922499e-03 1.98487714e-02
      9.21550114e-03 7.47873336e-02 4.34782617e-02 4.37145568e-02
      9.33364872e-03 1.66587904e-02 6.14366727e-03 1.18147451e-04
      1.80765595e-02 1.18147454e-03 1.18147451e-04 9.45179607e-04
      4.84404527e-03 1.89035921e-03 5.61200380e-02 1.18147454e-03
      3.08364835e-02 3.54442350e-03 4.84404527e-03 2.36294908e-03
      1.63043477e-02 1.78402644e-02 1.77221175e-03 4.47778814e-02
      2.75283549e-02 4.72589803e-04 7.89224952e-02 3.57986763e-02
      8.27032141e-04 2.12665405e-02 4.72589803e-04 6.48629516e-02
      4.25330829e-03 1.89035921e-03 4.72589803e-04 3.08364835e-02
      1.02788284e-02 8.83742943e-02 1.67769380e-02 4.86767478e-02
      8.27032141e-04</_>
    <_>
      2.33910214e-02 4.47539203e-02 4.82693352e-02 1.43726334e-01
      2.74743110e-01 1.97809622e-01 1.14521362e-01 4.47539203e-02
      2.08220668e-02 1.79826934e-02 8.51811748e-03 0. 4.19145497e-03
      6.76041120e-04 0. 0. 5.40832873e-04 0. 2.43374798e-03 0.
      8.11249309e-04 0. 0. 0. 4.05624654e-04 0. 0. 1.21687399e-03
      4.05624654e-04 0. 6.08436996e-03 2.70416436e-04 0. 1.75770686e-03
      0. 5.00270398e-03 2.70416436e-04 4.05624654e-04 1.35208218e-04
      2.02812324e-03 3.38020548e-03 1.33856134e-02 5.40832896e-03
      1.05462410e-02 1.35208224e-03</_>
    <_>
      2.40670629e-02 6.82801530e-02 9.82963741e-02 1.76987559e-01
      1.82260677e-01 1.73877776e-01 1.09924287e-01 4.89453748e-02
      4.24553826e-02 1.63601954e-02 9.19415895e-03 1.35208218e-04
      3.38020548e-03 6.76041120e-04 5.40832873e-04 0. 1.35208218e-04 0.
      2.70416436e-04 0. 1.35208224e-03 0. 0. 0. 0. 0. 0. 0. 0. 0.
      5.40832873e-04 0. 0. 4.05624654e-04 0. 1.08166575e-03
      1.08166575e-03 1.35208224e-03 2.70416436e-04 2.29853974e-03
      3.38020548e-03 7.30124395e-03 8.24770145e-03 8.92374292e-03
      7.97728542e-03</_>
    <_>
      1.02788284e-02 3.78071843e-03 2.24480149e-03 1.03969751e-02
      2.96550095e-02 9.36909243e-02 1.44258037e-01 7.91587904e-02
      8.44754279e-02 4.30056714e-02 6.16729669e-02 5.67107741e-03
      5.19848764e-02 2.88279764e-02 1.08695654e-02 1.97306238e-02
      4.46597338e-02 2.61105858e-02 5.50567098e-02 1.25236297e-02
      7.34877139e-02 1.42958416e-02 1.58317573e-02 3.78071843e-03
      1.46502834e-02 1.01606809e-02 2.95368629e-03 1.57136098e-02
      4.25330829e-03 1.18147451e-04 5.55292983e-03 3.18998098e-03 0.
      1.18147454e-03 2.36294902e-04 4.84404527e-03 8.27032141e-04
      7.08884676e-04 0. 1.77221175e-03 1.18147451e-04 5.90737257e-03
      1.18147451e-04 2.12665414e-03 1.18147451e-04</_>
    <_>
      8.70746672e-02 3.17816623e-02 1.57136098e-02 2.74102073e-02
      1.34688094e-02 4.98582236e-02 3.79253291e-02 4.08790186e-02
      2.10302453e-02 2.54017022e-02 2.19754260e-02 2.83553870e-03
      3.03638950e-02 1.21691870e-02 6.37996197e-03 3.89886578e-03
      1.66587904e-02 6.73440471e-03 7.11247623e-02 5.19848755e-03
      5.91918714e-02 2.38657836e-02 1.27599239e-02 4.60775057e-03
      2.85916831e-02 1.21691870e-02 3.54442338e-04 4.53686193e-02
      9.92438570e-03 0. 5.82466908e-02 1.20510394e-02 0. 8.50661658e-03
      0. 3.83979194e-02 4.72589815e-03 2.95368629e-03 9.45179607e-04
      2.42202263e-02 6.02551969e-03 6.06096424e-02 1.32325143e-02
      3.52079384e-02 1.01606809e-02</_>
    <_>
      1.48729039e-02 5.40832873e-04 5.40832873e-04 4.05624654e-04
      4.05624654e-04 1.35208224e-03 8.11249309e-04 5.94916148e-03
      9.46457556e-04 5.40832873e-04 5.94916148e-03 0. 1.46024879e-02
      7.30124395e-03 3.38020548e-03 8.38290993e-03 1.94699839e-02
      1.91995669e-02 4.38074619e-02 2.06868574e-02 1.03299081e-01
      8.43699276e-02 8.46403465e-02 9.80259627e-02 1.13710113e-01
      1.32098436e-01 4.62412126e-02 6.00324497e-02 3.43428887e-02
      2.97458074e-03 2.48783119e-02 1.31151974e-02 1.48729037e-03
      5.67874545e-03 9.46457556e-04 7.84207694e-03 3.24499724e-03
      8.11249309e-04 4.05624654e-04 1.35208224e-03 1.35208218e-04
      5.94916148e-03 1.75770686e-03 3.38020548e-03 1.35208218e-04</_>
    <_>
      3.83141753e-03 6.60589256e-04 9.24824970e-04 5.28471370e-04
      1.32117851e-03 4.75624250e-03 4.09565354e-03 6.34165667e-03
      1.12300171e-02 8.85189604e-03 1.16263712e-02 9.24824970e-04
      1.08336639e-02 5.68106771e-03 2.51023914e-03 6.73801033e-03
      1.62504949e-02 1.21548418e-02 2.20636800e-02 9.38036758e-03
      7.88743570e-02 6.92297518e-02 5.19223139e-02 5.97172678e-02
      1.32382080e-01 1.54709995e-01 1.35420799e-01 9.30109695e-02
      5.12617268e-02 1.25511959e-02 1.05694281e-02 5.68106771e-03 0.
      1.32117842e-04 0. 3.96353542e-04 0. 0. 0. 1.32117842e-04 0.
      3.30294622e-03 0. 0. 0.</_>
    <_>
      1.55489454e-02 3.10978908e-02 4.21849638e-02 1.50486752e-01
      2.66089767e-01 2.00108171e-01 1.28718227e-01 4.31314223e-02
      2.59599779e-02 1.41968634e-02 1.00054080e-02 1.35208218e-04
      4.19145497e-03 8.11249309e-04 4.05624654e-04 4.05624654e-04
      6.76041120e-04 2.70416436e-04 1.48729037e-03 0. 1.35208224e-03 0.
      2.70416436e-04 0. 4.05624654e-04 1.08166575e-03 0. 1.62249862e-03
      9.46457556e-04 0. 2.70416448e-03 6.76041120e-04 0. 1.21687399e-03
      0. 3.38020548e-03 1.75770686e-03 4.05624654e-04 0. 4.05624649e-03
      2.29853974e-03 1.04110334e-02 9.73499194e-03 1.63601954e-02
      5.40832896e-03</_>
    <_>
      8.97613913e-02 8.06716308e-02 7.19606131e-02 8.20603445e-02
      5.27711138e-02 7.91566744e-02 3.91364731e-02 2.65118033e-02
      1.02259815e-02 1.40133826e-02 5.30236075e-03 0. 4.92362073e-03
      1.51496020e-03 0. 0. 7.57480098e-04 0. 1.09834615e-02 0.
      1.51496020e-03 1.00997346e-03 1.00997346e-03 0. 4.41863388e-03
      6.31233444e-04 0. 2.43656095e-02 3.78740067e-03 0. 3.39603573e-02
      5.17611392e-03 0. 9.46850143e-03 0. 3.40866037e-02 9.34225507e-03
      1.76745362e-03 0. 2.52493378e-02 1.48971090e-02 7.70104751e-02
      8.38278010e-02 6.65320009e-02 3.21929045e-02</_>
    <_>
      4.56537632e-03 3.65230109e-04 0. 3.65230109e-04 5.47845149e-04
      1.64353545e-03 7.30460219e-04 3.65230092e-03 1.27830531e-03
      7.30460219e-04 5.66106662e-03 3.65230109e-04 9.67859756e-03
      1.00438278e-02 1.16873635e-02 2.68444121e-02 4.14536148e-02
      7.03067929e-02 1.33491606e-01 1.11943021e-01 1.62710011e-01
      1.33308992e-01 7.99853876e-02 5.36888242e-02 3.81665453e-02
      3.26880924e-02 2.02702694e-02 1.57048944e-02 7.66983209e-03
      5.47845149e-04 6.57414179e-03 4.01753094e-03 1.46092044e-03
      1.46092044e-03 1.82615055e-04 1.09569030e-03 1.82615055e-04 0. 0.
      1.82615055e-04 0. 3.10445577e-03 0. 1.64353545e-03 0.</_>
    <_>
      9.24586803e-02 2.32438017e-02 3.27995867e-02 5.07489666e-02
      5.04907034e-02 6.35330603e-02 3.80940065e-02 4.20971066e-02
      1.34297516e-02 1.80785116e-02 1.36880167e-02 6.45661145e-04
      2.04028934e-02 3.61570250e-03 0. 1.29132226e-04 1.00723142e-02
      2.58264452e-04 5.01033068e-02 1.29132226e-04 4.24845032e-02
      6.19834708e-03 1.40754133e-02 7.74793385e-04 3.44783068e-02
      4.45506200e-02 6.71487581e-03 5.81095032e-02 4.61002067e-02
      9.03925626e-04 4.45506200e-02 4.30010334e-02 2.84090918e-03
      1.60123967e-02 2.84090918e-03 2.45351233e-02 2.45351251e-03
      3.87396693e-04 2.58264452e-04 7.48966960e-03 1.03305781e-03
      4.10640500e-02 1.14927683e-02 1.70454551e-02 6.58574374e-03</_>
    <_>
      1.66179687e-02 1.82615046e-03 2.37399573e-03 3.65230092e-03
      3.83491605e-03 1.38787432e-02 1.20525928e-02 1.55222788e-02
      5.11322124e-03 5.84368175e-03 5.47845149e-03 5.47845149e-04
      7.85244722e-03 3.46968579e-03 1.09569030e-03 2.19138060e-03
      6.75675692e-03 3.46968579e-03 2.37399563e-02 2.00876547e-03
      1.35135138e-02 6.39152667e-03 9.67859756e-03 6.57414179e-03
      3.81665453e-02 9.49598253e-02 5.51497452e-02 1.45544186e-01
      1.46092042e-01 2.70270277e-02 1.06829800e-01 1.17969319e-01
      1.57048944e-02 3.01314835e-02 2.19138060e-03 1.24178231e-02
      6.39152667e-03 3.65230109e-04 0. 8.21767747e-03 1.27830531e-03
      8.76552239e-03 4.01753094e-03 4.93060611e-03 3.65230109e-04</_>
    <_>
      4.09680903e-02 4.96214181e-02 2.89345589e-02 1.02758251e-01
      8.27474296e-02 1.57652780e-01 1.71714440e-01 1.06408872e-01
      7.92320147e-02 3.88047583e-02 1.12222824e-02 2.56895623e-03
      1.16279069e-02 4.05624649e-03 2.02812324e-03 6.76041120e-04
      1.35208224e-03 4.05624654e-04 8.24770145e-03 0. 1.35208224e-03
      2.70416436e-04 2.70416436e-04 0. 1.35208218e-04 0. 0.
      2.02812324e-03 9.46457556e-04 0. 4.73228795e-03 2.70416436e-04 0.
      8.11249309e-04 0. 5.00270398e-03 1.21687399e-03 9.46457556e-04
      1.35208218e-04 5.81395347e-03 3.78583022e-03 3.25851813e-02
      1.36560304e-02 1.70362350e-02 7.97728542e-03</_>
    <_>
      2.49433108e-02 1.47392293e-02 2.93367356e-02 1.06575966e-01
      1.59580499e-01 1.67800456e-01 1.10544220e-01 6.16496615e-02
      4.40759622e-02 1.81405898e-02 2.38095243e-02 2.69274367e-03
      1.84240360e-02 4.53514745e-03 2.26757373e-03 4.25170083e-03
      8.92857183e-03 1.09126987e-02 2.45181397e-02 1.13378686e-03
      2.48015877e-02 4.39342391e-03 4.96031763e-03 5.66893432e-04
      1.43140592e-02 7.93650839e-03 0. 2.01247167e-02 9.07029491e-03 0.
      1.64399091e-02 1.88492071e-02 2.83446716e-04 5.24376426e-03 0.
      6.80272095e-03 1.70068024e-03 2.83446716e-04 0. 2.83446722e-03
      1.55895692e-03 1.36054419e-02 1.27551018e-03 5.38548734e-03
      7.08616804e-04</_>
    <_>
      7.02866986e-02 5.02047827e-03 3.96353542e-04 1.05694274e-03
      5.28471370e-04 1.12300171e-02 5.02047827e-03 2.58950982e-02
      1.79680269e-02 1.49293169e-02 2.04782672e-02 2.37812125e-03
      3.31615806e-02 5.81318559e-03 3.43506411e-03 7.13436399e-03
      1.63826142e-02 1.28154317e-02 9.81635600e-02 4.75624250e-03
      7.71568269e-02 1.62504949e-02 2.69520413e-02 8.32342450e-03
      5.77354990e-02 6.98903427e-02 1.86286159e-02 7.92707130e-02
      7.22684637e-02 3.30294622e-03 7.27969334e-02 4.87514846e-02
      5.68106771e-03 1.62504949e-02 3.96353542e-04 1.99497957e-02
      5.68106771e-03 2.37812125e-03 0. 3.17082833e-03 2.37812125e-03
      2.23279167e-02 3.17082833e-03 1.00409565e-02 3.96353542e-04</_>
    <_>
      7.88743570e-02 8.77262503e-02 6.97582215e-02 1.24719247e-01
      8.78583714e-02 1.46650806e-01 9.08970833e-02 5.33756092e-02
      1.67789664e-02 1.95534416e-02 5.81318559e-03 0. 1.17584886e-02
      1.45329640e-03 0. 0. 3.69929988e-03 3.96353542e-04 1.22869601e-02
      1.32117842e-04 4.88836039e-03 1.32117842e-04 1.05694274e-03 0.
      1.84964994e-03 3.83141753e-03 1.18906063e-03 3.43506411e-03
      2.37812125e-03 0. 1.33439023e-02 4.35988884e-03 1.32117851e-03
      4.35988884e-03 0. 1.04373097e-02 1.05694274e-03 0. 0.
      6.20953878e-03 2.90659280e-03 5.44325523e-02 2.11388562e-02
      2.88016908e-02 2.11388562e-02</_>
    <_>
      6.07277900e-02 8.18761811e-02 9.14461240e-02 1.50637999e-01
      1.08104914e-01 1.27008513e-01 8.55387524e-02 5.09215519e-02
      3.16635147e-02 1.86672974e-02 1.42958416e-02 8.27032141e-04
      1.92580335e-02 1.89035921e-03 7.08884676e-04 3.54442338e-04
      5.78922499e-03 3.18998098e-03 1.21691870e-02 5.90737269e-04
      1.02788284e-02 4.72589803e-04 7.08884676e-04 3.54442338e-04
      1.77221175e-03 3.54442338e-04 0. 4.01701313e-03 1.29962189e-03 0.
      6.26181485e-03 8.27032141e-04 0. 1.65406428e-03 0. 7.79773155e-03
      2.12665414e-03 7.08884676e-04 0. 6.73440471e-03 7.32514169e-03
      1.91398859e-02 2.06758026e-02 2.26843096e-02 1.91398859e-02</_>
    <_>
      0. 0. 0. 0. 0. 0. 0. 0. 0. 0. 0. 0. 0. 0. 0. 0. 0. 0. 0.
      1.32117842e-04 6.60589256e-04 1.98176783e-03 5.54894982e-03
      1.96855590e-02 1.22473247e-01 4.08112049e-01 3.17082852e-01
      9.12934318e-02 2.94622798e-02 3.30294622e-03 2.64235685e-04 0. 0.
      0. 0. 0. 0. 0. 0. 0. 0. 0. 0. 0. 0.</_>
    <_>
      7.12429136e-02 1.53591679e-02 5.55292983e-03 7.44328927e-03
      1.65406428e-03 2.15028357e-02 7.91587867e-03 1.83128547e-02
      4.01701313e-03 3.89886578e-03 8.97920597e-03 2.36294902e-04
      2.05576569e-02 2.12665414e-03 1.18147451e-04 1.65406428e-03
      7.91587867e-03 4.96219285e-03 4.70226854e-02 9.45179607e-04
      3.34357284e-02 3.78071843e-03 1.02788284e-02 2.83553870e-03
      4.22967859e-02 4.40689996e-02 1.15784500e-02 1.20155953e-01
      7.04158768e-02 1.06332707e-03 9.51086953e-02 6.29725903e-02
      4.96219285e-03 3.26086953e-02 1.06332707e-03 5.48204146e-02
      6.85255183e-03 1.29962189e-03 7.08884676e-04 1.83128547e-02
      6.14366727e-03 7.31332675e-02 1.33506618e-02 3.61531191e-02
      1.18147454e-03</_>
    <_>
      4.83033434e-03 0. 0. 0. 0. 5.55488467e-03 5.19260950e-03
      7.72853522e-03 1.03852190e-02 9.17763542e-03 1.53363124e-02
      6.40019309e-03 2.46347059e-02 9.78142768e-03 5.55488467e-03
      9.78142768e-03 2.54800152e-02 2.72913892e-02 5.33751957e-02
      3.38123403e-02 1.74858108e-01 1.49015814e-01 1.17497884e-01
      3.32085490e-02 1.18584715e-01 6.96775764e-02 4.95109288e-03
      4.33522537e-02 1.32834194e-02 0. 1.09890113e-02 5.19260950e-03 0.
      1.08682527e-03 0. 1.56985875e-03 0. 0. 0. 0. 0. 2.41516717e-03 0.
      0. 0.</_>
    <_>
      7.50258267e-02 2.32438021e-03 0. 9.03925626e-04 3.87396693e-04
      1.47210741e-02 5.55268582e-03 4.13223132e-02 3.87396687e-03
      7.36053707e-03 4.39049583e-03 1.03305781e-03 3.44783068e-02
      4.64876043e-03 2.19524791e-03 7.61880167e-03 4.10640500e-02
      2.02737600e-02 9.14256200e-02 6.45661168e-03 1.59220040e-01
      3.79648767e-02 5.19111566e-02 8.65185913e-03 9.63326469e-02
      6.55991733e-02 9.42665245e-03 8.14824402e-02 3.99018601e-02
      1.54958677e-03 3.22830565e-02 1.08471075e-02 2.58264452e-04
      2.58264458e-03 0. 6.06921501e-03 1.03305781e-03 0. 0.
      4.51962790e-03 0. 2.16942150e-02 0. 3.61570250e-03 0.</_>
    <_>
      9.47809592e-02 1.22093022e-01 1.41292587e-01 1.65224448e-01
      1.17225528e-01 1.01270959e-01 5.27312048e-02 2.79881023e-02
      7.84207694e-03 7.97728542e-03 1.08166575e-03 0. 2.29853974e-03 0.
      0. 0. 6.76041120e-04 5.40832873e-04 8.11249309e-04 0. 0. 0. 0. 0.
      0. 0. 0. 2.70416436e-04 2.70416436e-04 0. 4.05624654e-04 0. 0. 0.
      0. 2.83937273e-03 2.29853974e-03 2.83937273e-03 0. 8.24770145e-03
      7.70686846e-03 1.24391560e-02 3.46133038e-02 4.52947542e-02
      3.89399678e-02</_>
    <_>
      4.62257601e-02 1.76592804e-02 1.36772851e-02 1.90443210e-02
      6.23268681e-03 1.78324096e-02 9.52216052e-03 2.09487528e-02
      2.25069257e-03 3.98199446e-03 6.05955673e-03 0. 9.86842066e-03
      2.07756227e-03 0. 2.25069257e-03 4.67451522e-03 5.02077583e-03
      2.52770092e-02 1.21191132e-03 1.69667583e-02 3.28947371e-03
      1.15997232e-02 2.59695295e-03 2.49307472e-02 3.65304723e-02
      1.09072020e-02 6.21537380e-02 6.99445978e-02 1.88711919e-02
      9.74723026e-02 1.23788089e-01 3.16828266e-02 6.38850406e-02
      8.13711900e-03 4.51869816e-02 2.30263155e-02 9.17590037e-03
      1.55817170e-03 2.59695295e-02 1.55817177e-02 2.80470923e-02
      2.68351808e-02 1.69667583e-02 1.10803321e-02</_>
    <_>
      5.90859912e-02 8.46403465e-02 6.84153587e-02 1.51433215e-01
      1.12628445e-01 1.37506753e-01 1.17360733e-01 5.30016236e-02
      3.38020548e-02 2.58247703e-02 1.50081124e-02 5.40832873e-04
      7.70686846e-03 8.11249309e-04 5.40832873e-04 4.05624654e-04
      1.62249862e-03 0. 3.65062198e-03 0. 3.24499724e-03 0. 0. 0. 0.
      2.70416436e-04 0. 1.48729037e-03 4.05624654e-04 0. 2.56895623e-03
      0. 0. 6.76041120e-04 0. 2.56895623e-03 1.89291511e-03
      2.56895623e-03 0. 7.97728542e-03 7.97728542e-03 2.25797724e-02
      2.66360193e-02 2.27149818e-02 2.24445648e-02</_>
    <_>
      9.82199237e-02 9.75886881e-02 8.84989277e-02 1.12233303e-01
      8.06716308e-02 8.76151994e-02 5.36548421e-02 2.85317507e-02
      1.31296553e-02 1.37608889e-02 6.94356766e-03 5.04986732e-04
      8.33228137e-03 2.01994693e-03 1.26246683e-04 1.76745362e-03
      3.02992039e-03 1.13622018e-03 7.95354135e-03 0. 3.15616722e-03 0.
      6.31233444e-04 0. 1.76745362e-03 8.83726811e-04 2.52493366e-04
      7.70104770e-03 4.92362073e-03 0. 1.48971090e-02 3.02992039e-03 0.
      2.90367380e-03 3.78740049e-04 1.84320156e-02 3.40866041e-03
      1.51496020e-03 7.57480098e-04 1.21196816e-02 1.22459289e-02
      4.68375199e-02 6.17346279e-02 5.71897477e-02 3.95152122e-02</_>
    <_>
      1.21932635e-02 7.62078958e-03 7.16354232e-03 3.23121473e-02
      5.45648523e-02 1.14007011e-01 1.31992072e-01 1.31077573e-01
      1.90214902e-01 8.13900307e-02 1.03033073e-01 1.63084902e-02
      4.20667566e-02 2.11857948e-02 1.08215213e-02 6.55387901e-03
      7.92562123e-03 3.65797896e-03 6.55387901e-03 0. 7.31595792e-03 0.
      4.57247370e-04 0. 1.82898948e-03 0. 0. 2.28623697e-03
      1.52415785e-04 0. 2.89590005e-03 0. 0. 0. 0. 4.57247370e-04 0. 0.
      0. 0. 1.52415785e-04 2.89590005e-03 0. 9.14494740e-04 0.</_>
    <_>
      7.60998800e-02 4.14850041e-02 5.06011359e-02 1.11111112e-01
      1.10450521e-01 1.31589383e-01 1.07940286e-01 7.96670616e-02
      2.11388562e-02 3.07834595e-02 1.28154317e-02 2.64235685e-04
      2.00819131e-02 1.58541417e-03 0. 9.24824970e-04 6.20953878e-03
      2.37812125e-03 3.07834595e-02 3.96353542e-04 1.73074380e-02
      2.64235685e-04 3.83141753e-03 3.96353542e-04 8.98401346e-03
      1.03051923e-02 1.32117842e-04 1.22869601e-02 2.24600337e-03 0.
      8.71977769e-03 5.54894982e-03 1.32117842e-04 2.11388548e-03
      1.32117842e-04 9.51248500e-03 7.92707084e-04 1.32117842e-04 0.
      6.60589244e-03 1.98176783e-03 3.27652283e-02 1.36081381e-02
      1.57220233e-02 1.01730740e-02</_>
    <_>
      5.66893406e-02 3.50056700e-02 3.37301604e-02 5.14455773e-02
      3.92573699e-02 6.46258518e-02 5.72562367e-02 5.66893406e-02
      7.42630363e-02 5.05952388e-02 5.71145117e-02 9.07029491e-03
      3.62811796e-02 1.47392293e-02 7.93650839e-03 1.13378689e-02
      1.85657591e-02 8.78684781e-03 2.39512473e-02 5.52721089e-03
      2.06916109e-02 1.14795920e-02 8.78684781e-03 5.95238106e-03
      1.13378689e-02 1.04875285e-02 2.97619053e-03 1.53061226e-02
      8.78684781e-03 2.69274367e-03 1.78571437e-02 1.38888890e-02
      3.68480734e-03 1.03458054e-02 1.70068024e-03 1.38888890e-02
      6.51927432e-03 3.82653065e-03 4.25170059e-04 1.43140592e-02
      1.44557822e-02 2.45181397e-02 2.67857146e-02 1.99829936e-02
      1.64399091e-02</_>
    <_>
      6.62795082e-02 8.44590366e-02 1.39628828e-01 2.13230655e-01
      1.87350079e-01 1.36346415e-01 5.84522150e-02 1.76745355e-02
      1.07309679e-02 4.41863388e-03 2.77742720e-03 0. 1.64120691e-03 0.
      0. 0. 1.26246683e-04 0. 3.78740049e-04 0. 1.26246683e-04 0. 0. 0.
      0. 0. 0. 3.78740049e-04 0. 0. 3.15616722e-03 5.04986732e-04 0.
      2.52493366e-04 0. 1.38871360e-03 0. 0. 0. 2.01994693e-03
      2.52493378e-03 1.02259815e-02 1.89370029e-02 1.28771616e-02
      2.41131168e-02</_>
    <_>
      4.57127765e-02 8.46875384e-02 1.05033688e-01 1.67525426e-01
      1.74924031e-01 1.76113099e-01 7.39859939e-02 4.45237160e-02
      2.82732192e-02 9.77672078e-03 1.17584886e-02 0. 1.98176783e-03
      3.96353542e-04 0. 0. 2.64235685e-04 0. 1.05694274e-03 0.
      5.28471370e-04 0. 0. 0. 0. 0. 0. 2.64235685e-04 0. 0.
      1.18906063e-03 0. 0. 1.58541417e-03 0. 3.69929988e-03 0.
      1.32117842e-04 1.32117842e-04 3.43506411e-03 1.84964994e-03
      1.05694281e-02 1.41366096e-02 1.40044922e-02 2.24600341e-02</_>
    <_>
      7.71645904e-02 5.60318790e-02 4.98732030e-02 8.39270651e-02
      6.33981377e-02 1.04818262e-01 7.70438388e-02 7.49909431e-02
      4.58881781e-02 4.85448614e-02 4.03332934e-02 1.44910032e-03
      3.58652323e-02 7.00398488e-03 2.77744234e-03 3.86426761e-03
      7.36626005e-03 2.17365054e-03 2.81366985e-02 1.20758363e-04
      7.60777667e-03 1.20758363e-04 3.62275081e-04 0. 4.83033434e-03
      8.45308532e-04 0. 6.03791792e-03 1.20758358e-03 0. 1.02644609e-02
      3.01895896e-03 2.41516726e-04 1.56985875e-03 0. 1.26796281e-02
      1.44910032e-03 1.08682527e-03 0. 7.60777667e-03 3.74350930e-03
      5.10807857e-02 2.53592562e-02 3.21217254e-02 1.79929957e-02</_>
    <_>
      7.68842325e-02 7.49905333e-02 7.63792470e-02 1.00744858e-01
      1.16273195e-01 1.60207048e-01 6.03459142e-02 3.50965783e-02
      1.33821489e-02 1.32559016e-02 5.17611392e-03 7.57480098e-04
      6.94356766e-03 1.00997346e-03 1.26246683e-04 0. 2.39868695e-03 0.
      9.59474780e-03 0. 1.76745362e-03 0. 0. 0. 7.57480098e-04
      6.31233444e-04 0. 4.92362073e-03 2.52493378e-03 0. 1.47708626e-02
      4.54488071e-03 5.04986732e-04 1.89370033e-03 0. 2.27244031e-02
      1.13622018e-03 5.04986732e-04 1.26246683e-04 1.64120700e-02
      1.41396290e-02 6.71632364e-02 2.96679717e-02 4.63325344e-02
      1.59070827e-02</_>
    <_>
      3.77857052e-02 6.69837520e-02 9.01043713e-02 1.95798650e-01
      1.73338622e-01 1.84304401e-01 1.00013211e-01 4.09565344e-02
      1.55899059e-02 1.98176783e-02 2.51023914e-03 0. 5.28471405e-03
      1.32117842e-04 0. 0. 1.05694274e-03 0. 5.94530301e-03 0.
      2.77447491e-03 0. 0. 0. 9.24824970e-04 0. 0. 0. 0. 0.
      1.32117851e-03 0. 0. 3.96353542e-04 0. 1.84964994e-03
      1.32117842e-04 1.32117842e-04 1.32117842e-04 1.05694274e-03
      1.32117851e-03 1.66468490e-02 1.12300171e-02 1.67789664e-02
      5.68106771e-03</_>
    <_>
      1.08336639e-02 4.22777096e-03 1.18906063e-03 6.60589244e-03
      6.20953878e-03 2.74805129e-02 5.83960898e-02 7.91385919e-02
      9.92205068e-02 9.01043713e-02 1.45065397e-01 2.33848598e-02
      9.67102647e-02 5.28471395e-02 1.74395554e-02 3.64645272e-02
      5.83960898e-02 3.76535878e-02 4.32025380e-02 3.96353565e-03
      6.09063283e-02 3.69929988e-03 6.20953878e-03 0. 1.33439023e-02
      1.58541417e-03 0. 6.73801033e-03 1.45329640e-03 0. 3.03871045e-03
      1.32117842e-04 0. 1.32117842e-04 0. 7.92707084e-04 0. 0. 0.
      1.32117842e-04 0. 2.24600337e-03 3.96353542e-04 5.28471370e-04
      1.32117842e-04</_>
    <_>
      7.62078969e-04 3.20073171e-03 5.79180010e-03 2.72824261e-02
      5.21261990e-02 1.74820915e-01 2.43865266e-01 1.38393536e-01
      2.38835543e-01 5.62414266e-02 3.58177125e-02 7.62078958e-03
      6.85871067e-03 2.89590005e-03 1.52415785e-04 0. 0. 0.
      1.52415785e-04 0. 0. 0. 0. 0. 0. 0. 0. 4.57247370e-04 0. 0.
      6.09663140e-04 3.04831570e-04 0. 0. 0. 7.62078969e-04
      7.62078969e-04 0. 0. 4.57247370e-04 0. 9.14494740e-04 0.
      9.14494740e-04 0.</_>
    <_>
      9.41374004e-02 8.14824402e-02 4.86828499e-02 7.03770667e-02
      4.63584699e-02 9.72365737e-02 7.74793401e-02 7.14101270e-02
      2.98295449e-02 3.58987600e-02 2.54390500e-02 1.42045459e-03
      3.43491733e-02 5.55268582e-03 1.16219011e-03 2.58264458e-03
      6.45661168e-03 3.09917354e-03 2.75051650e-02 0. 7.87706580e-03
      5.16528904e-04 1.16219011e-03 0. 6.45661168e-03 2.32438021e-03 0.
      1.20092975e-02 6.71487581e-03 0. 1.34297516e-02 6.45661168e-03 0.
      3.35743790e-03 0. 9.42665245e-03 9.03925626e-04 1.16219011e-03 0.
      5.94008248e-03 4.51962790e-03 8.14824402e-02 1.62706617e-02
      3.71900834e-02 2.23398767e-02</_>
    <_>
      1.79988667e-02 1.53061226e-02 2.63605434e-02 1.05300456e-01
      1.87216550e-01 2.08191603e-01 1.02182537e-01 5.76814041e-02
      4.45011333e-02 1.64399091e-02 1.95578225e-02 5.66893432e-04
      1.92743763e-02 4.10997728e-03 1.27551018e-03 2.97619053e-03
      9.63718817e-03 1.70068024e-03 1.64399091e-02 0. 1.41723352e-02
      1.27551018e-03 6.66099787e-03 9.92063549e-04 1.21882083e-02
      7.08616758e-03 7.08616804e-04 1.43140592e-02 6.37755124e-03
      4.25170059e-04 1.53061226e-02 1.44557822e-02 5.66893432e-04
      1.02040814e-02 0. 1.00623583e-02 8.50340119e-04 0. 1.41723358e-04
      1.84240367e-03 2.83446716e-04 1.58730168e-02 4.25170059e-04
      8.50340165e-03 5.66893432e-04</_>
    <_>
      2.75872573e-02 1.52415785e-04 1.52415785e-04 6.09663140e-04
      3.04831570e-04 2.43865256e-03 1.52415794e-03 8.23045243e-03
      1.82898948e-03 2.59106839e-03 5.33455284e-03 0. 1.69181526e-02
      1.06691057e-03 3.04831570e-04 1.37174211e-03 1.72229838e-02
      1.72229838e-02 4.66392301e-02 3.20073171e-03 1.39155611e-01
      2.53010206e-02 7.34644085e-02 1.15836002e-02 1.21170551e-01
      9.52598676e-02 1.09739369e-02 1.21627800e-01 5.54793477e-02
      6.09663140e-04 7.54458159e-02 5.01447953e-02 1.37174211e-03
      2.08809637e-02 3.04831570e-04 1.99664682e-02 3.65797896e-03
      1.06691057e-03 0. 6.09663175e-03 1.37174211e-03 4.42005787e-03
      1.82898948e-03 4.11522621e-03 0.</_>
    <_>
      4.00201976e-02 5.49173094e-02 7.01931566e-02 1.40512556e-01
      1.74725413e-01 2.18028024e-01 1.03648528e-01 6.16083816e-02
      4.10301723e-02 1.66645627e-02 9.34225507e-03 1.76745362e-03
      1.26246689e-03 3.78740049e-04 0. 0. 0. 0. 3.78740049e-04 0. 0. 0.
      0. 0. 0. 0. 0. 0. 0. 0. 7.57480098e-04 0. 0. 0. 0. 1.38871360e-03
      3.78740049e-04 0. 0. 1.38871360e-03 4.03989386e-03 4.67112754e-03
      2.05782093e-02 8.45852774e-03 2.38606241e-02</_>
    <_>
      4.81859408e-02 2.76360549e-02 6.07993193e-02 1.04591839e-01
      1.21882088e-01 1.77862808e-01 8.68764147e-02 6.43424019e-02
      3.48639451e-02 1.92743763e-02 1.14795920e-02 7.08616804e-04
      1.68650802e-02 3.11791385e-03 1.41723358e-04 4.25170059e-04
      4.96031763e-03 1.13378686e-03 2.04081628e-02 0. 1.43140592e-02
      1.70068024e-03 3.54308379e-03 0. 1.78571437e-02 5.95238106e-03 0.
      1.92743763e-02 3.68480734e-03 0. 2.29591839e-02 7.65306130e-03
      2.83446716e-04 3.96825420e-03 0. 1.37471659e-02 2.40929704e-03
      8.50340119e-04 0. 6.51927432e-03 2.83446722e-03 3.06122452e-02
      1.10544218e-02 1.99829936e-02 5.24376426e-03</_>
    <_>
      4.54485416e-02 3.60681713e-02 3.27652283e-02 3.19725201e-02
      2.58950982e-02 4.38631251e-02 3.46148759e-02 4.18813564e-02
      3.84462923e-02 2.85374559e-02 3.65966447e-02 1.12300171e-02
      2.91980449e-02 1.42687280e-02 8.45554192e-03 9.77672078e-03
      1.50614344e-02 1.17584886e-02 2.69520413e-02 7.92707130e-03
      2.80089844e-02 1.73074380e-02 1.30796675e-02 8.85189604e-03
      2.15352103e-02 2.64235698e-02 8.32342450e-03 2.77447477e-02
      1.94213241e-02 3.56718199e-03 2.17994452e-02 2.58950982e-02
      7.53071718e-03 1.83643810e-02 8.19130708e-03 1.69110838e-02
      1.59862600e-02 7.53071718e-03 8.05918872e-03 2.89338082e-02
      2.61593349e-02 3.01228687e-02 3.50112282e-02 2.21957993e-02
      2.23279167e-02</_>
    <_>
      2.78925616e-02 4.17097099e-02 4.49380167e-02 9.80113670e-02
      1.43982440e-01 2.01833680e-01 1.38817146e-01 6.72778934e-02
      7.73502067e-02 3.29287201e-02 2.75051650e-02 2.45351251e-03
      1.65289249e-02 5.03615709e-03 1.93698343e-03 1.03305781e-03
      4.26136376e-03 1.16219011e-03 8.00619833e-03 0. 1.54958677e-03
      2.58264452e-04 5.16528904e-04 0. 1.16219011e-03 1.54958677e-03
      1.03305781e-03 3.48657020e-03 3.22830584e-03 0. 5.29442169e-03
      2.19524791e-03 0. 5.16528904e-04 0. 3.48657020e-03 1.42045459e-03
      1.29132226e-04 0. 2.97004124e-03 7.74793385e-04 8.39359500e-03
      3.87396687e-03 1.11053716e-02 4.39049583e-03</_>
    <_>
      9.64083150e-02 9.23913047e-02 1.00897923e-01 1.03497162e-01
      8.34120959e-02 9.56994295e-02 4.24149334e-02 5.31663522e-02
      1.67769380e-02 1.39413988e-02 1.53591679e-02 1.29962189e-03
      2.26843096e-02 4.01701313e-03 1.77221175e-03 1.77221175e-03
      8.86105839e-03 4.01701313e-03 2.25661620e-02 0. 1.26417773e-02 0.
      5.90737269e-04 0. 3.07183363e-03 1.29962189e-03 0. 6.97069941e-03
      2.71739135e-03 0. 1.06332703e-02 5.55292983e-03 5.90737269e-04
      4.60775057e-03 4.72589803e-04 1.05151227e-02 2.71739135e-03
      1.41776935e-03 2.36294902e-04 9.92438570e-03 9.33364872e-03
      3.33175808e-02 3.93431000e-02 3.59168239e-02 2.71739122e-02</_>
    <_>
      2.17144303e-02 4.01464477e-02 6.08509034e-02 1.39502585e-01
      1.70559272e-01 2.36965030e-01 1.31549045e-01 7.00669140e-02
      4.51963134e-02 1.35083953e-02 7.82729499e-03 3.78740049e-04
      3.91364750e-03 5.04986732e-04 7.57480098e-04 0. 3.78740049e-04
      3.78740049e-04 1.13622018e-03 0. 2.52493366e-04 0. 0. 0. 0. 0. 0.
      0. 0. 0. 2.52493366e-04 0. 0. 2.52493366e-04 0. 2.52493378e-03
      1.26246683e-04 1.26246683e-04 0. 3.28241382e-03 3.66115384e-03
      1.13622015e-02 1.22459289e-02 1.24984216e-02 8.07978772e-03</_>
    <_>
      1.23299323e-02 3.00453510e-02 6.27834499e-02 1.11819729e-01
      1.60147399e-01 2.63747156e-01 1.63265303e-01 9.38208625e-02
      7.07199574e-02 1.10544218e-02 3.25963716e-03 0. 0. 0. 0. 0. 0. 0.
      0. 0. 0. 0. 0. 0. 0. 0. 0. 0. 0. 0. 0. 0. 0. 0. 0. 0. 0. 0. 0.
      2.83446716e-04 2.83446716e-04 2.97619053e-03 2.97619053e-03
      2.69274367e-03 7.79478438e-03</_>
    <_>
      2.78827976e-02 5.16304336e-02 5.25756143e-02 1.36224002e-01
      1.31498113e-01 1.98842153e-01 1.30671084e-01 6.93525523e-02
      5.36389425e-02 3.02457474e-02 2.31569000e-02 5.55292983e-03
      1.38232512e-02 4.60775057e-03 1.77221175e-03 2.36294908e-03
      4.72589815e-03 2.48109642e-03 4.13516071e-03 1.18147451e-04
      3.54442350e-03 4.72589803e-04 5.90737269e-04 0. 1.41776935e-03
      5.90737269e-04 0. 2.36294908e-03 1.06332707e-03 0. 2.24480149e-03
      5.90737269e-04 0. 3.54442338e-04 0. 7.08884676e-04 3.54442338e-04
      9.45179607e-04 0. 9.45179607e-04 2.48109642e-03 9.92438570e-03
      8.74291081e-03 7.08884699e-03 1.02788284e-02</_>
    <_>
      8.04584101e-02 3.88705097e-02 3.04820407e-02 2.70557664e-02
      1.02788284e-02 4.63137999e-02 1.31143667e-02 2.06758026e-02
      4.01701313e-03 5.67107741e-03 1.77221175e-03 2.36294902e-04
      5.31663513e-03 1.53591682e-03 3.54442338e-04 2.36294902e-04
      2.83553870e-03 1.06332707e-03 2.91824192e-02 1.18147451e-04
      2.00850666e-02 3.42627591e-03 1.00425333e-02 2.48109642e-03
      3.47353481e-02 1.52410204e-02 2.71739135e-03 5.22211716e-02
      2.49291118e-02 1.29962189e-03 5.05671091e-02 6.28544390e-02
      7.79773155e-03 2.71739122e-02 2.48109642e-03 4.79678623e-02
      8.03402625e-03 2.36294908e-03 7.08884676e-04 3.96975428e-02
      2.50472594e-02 6.13185242e-02 7.20699430e-02 7.46691898e-02
      3.04820407e-02</_>
    <_>
      1.61564633e-01 5.66893443e-03 6.51927432e-03 1.77154187e-02
      3.03287990e-02 7.65306130e-02 6.03741482e-02 6.71768710e-02
      3.89739238e-02 2.06916109e-02 1.91326533e-02 6.09410414e-03
      2.32426301e-02 2.55102036e-03 1.27551018e-03 1.70068024e-03
      4.53514745e-03 2.12585041e-03 9.58049893e-02 1.41723358e-04
      3.34467106e-02 1.70068024e-03 7.51133775e-03 1.41723358e-04
      1.96995456e-02 1.41723361e-03 0. 6.19331077e-02 8.64512473e-03 0.
      6.44841269e-02 1.50226755e-02 7.08616804e-04 3.54308379e-03 0.
      2.73526069e-02 1.98412710e-03 7.08616804e-04 2.83446716e-04
      8.50340165e-03 1.41723361e-03 7.29875267e-02 3.82653065e-03
      2.19671205e-02 5.66893432e-04</_>
    <_>
      8.12854469e-02 6.66351616e-02 2.46928167e-02 2.03213617e-02
      9.21550114e-03 1.94943286e-02 1.03969751e-02 7.32514169e-03
      8.27032141e-04 1.41776935e-03 5.90737269e-04 0. 1.77221175e-03 0.
      0. 0. 8.27032141e-04 1.18147451e-04 2.59924377e-03 0.
      8.27032141e-04 3.54442338e-04 4.72589803e-04 3.54442338e-04
      1.53591682e-03 9.45179607e-04 0. 4.48960299e-03 1.18147454e-03 0.
      1.38232512e-02 4.01701313e-03 9.45179607e-04 4.13516071e-03
      8.27032141e-04 4.46597338e-02 9.56994295e-03 7.44328927e-03
      1.41776935e-03 7.02977329e-02 8.63657817e-02 6.58081248e-02
      2.56616265e-01 9.25094485e-02 8.38846862e-02</_>
    <_>
      1.14631988e-01 1.19555615e-01 1.92021206e-01 1.58692092e-01
      8.34490582e-02 7.41068050e-02 2.71430369e-02 7.06981448e-03
      6.18608762e-03 2.52493378e-03 1.38871360e-03 0. 8.83726811e-04
      2.52493366e-04 0. 1.26246683e-04 0. 0. 1.26246683e-04 0. 0. 0. 0.
      0. 0. 0. 0. 0. 0. 0. 0. 0. 0. 0. 0. 1.26246683e-04 2.52493366e-04
      3.78740049e-04 2.52493366e-04 4.29238752e-03 1.16146952e-02
      1.19934352e-02 7.03194067e-02 5.21398820e-02 6.04721643e-02</_>
    <_>
      1.06805295e-01 3.95793952e-02 1.58317573e-02 3.04820407e-02
      1.97306238e-02 4.53686193e-02 2.67013237e-02 4.34782617e-02
      4.25330829e-03 1.24054821e-02 6.85255183e-03 5.90737269e-04
      2.45746691e-02 3.07183363e-03 1.41776935e-03 5.90737269e-04
      4.84404527e-03 8.27032141e-04 3.87523621e-02 0. 1.52410204e-02
      5.90737269e-04 2.48109642e-03 0. 1.06332703e-02 1.35869561e-02
      9.45179607e-04 3.43809091e-02 3.10727786e-02 7.08884676e-04
      5.76559529e-02 6.42722100e-02 6.49810955e-03 3.98156904e-02
      3.66257085e-03 4.37145568e-02 1.61862001e-02 3.42627591e-03 0.
      2.46928167e-02 1.59499049e-02 7.58506581e-02 4.69045378e-02
      5.32844998e-02 1.22873345e-02</_>
    <_>
      7.78174102e-02 1.08336639e-02 3.43506411e-03 7.79495295e-03
      7.13436399e-03 2.82732192e-02 1.42687280e-02 2.02140305e-02
      1.66468490e-02 8.32342450e-03 6.20953878e-03 1.71753205e-03
      1.49293169e-02 2.11388548e-03 2.37812125e-03 3.96353565e-03
      7.53071718e-03 4.62412462e-03 5.06011359e-02 7.92707084e-04
      2.97265165e-02 5.68106771e-03 1.84964985e-02 4.62412462e-03
      5.56216128e-02 5.16580790e-02 4.62412462e-03 9.81635600e-02
      5.99815026e-02 7.92707084e-04 7.37217590e-02 5.00726663e-02
      3.83141753e-03 2.16673277e-02 1.45329640e-03 5.43004349e-02
      4.88836039e-03 9.24824970e-04 0. 2.97265165e-02 1.41366096e-02
      6.65873960e-02 1.91570874e-02 3.75214703e-02 3.03871045e-03</_>
    <_>
      1.85950417e-02 2.58264458e-03 1.29132229e-03 5.16528916e-03
      5.81095042e-03 2.05320250e-02 3.15082632e-02 5.44937998e-02
      4.49380167e-02 4.67458665e-02 1.11053720e-01 1.66580584e-02
      1.05371900e-01 6.81818202e-02 3.09917349e-02 3.88687998e-02
      8.22572336e-02 6.00464866e-02 7.15392530e-02 6.84400834e-03
      9.23295468e-02 1.20092975e-02 1.82076450e-02 1.67871895e-03
      1.33006200e-02 8.13533086e-03 0. 1.40754133e-02 1.29132229e-03 0.
      8.52272753e-03 1.16219011e-03 0. 0. 0. 1.29132229e-03 0. 0. 0.
      3.87396693e-04 0. 3.35743790e-03 0. 7.74793385e-04 0.</_>
    <_>
      8.65185931e-02 3.52531001e-02 1.27840908e-02 3.43491733e-02
      3.17665301e-02 9.11673531e-02 7.37345070e-02 5.44937998e-02
      2.73760334e-02 2.49225199e-02 2.05320250e-02 2.32438021e-03
      3.49948332e-02 6.06921501e-03 2.32438021e-03 2.58264458e-03
      1.57541316e-02 5.55268582e-03 5.78512400e-02 6.45661145e-04
      6.17252067e-02 3.48657020e-03 1.00723142e-02 5.16528904e-04
      3.73192132e-02 2.19524801e-02 5.42355375e-03 3.78357433e-02
      1.25258267e-02 0. 2.97004133e-02 5.68181835e-03 6.45661145e-04
      5.55268582e-03 0. 2.16942150e-02 1.16219011e-03 1.03305781e-03 0.
      1.11053716e-02 8.26446246e-03 5.60433902e-02 1.36880167e-02
      2.95712817e-02 4.00309917e-03</_>
    <_>
      4.69018370e-02 1.90249700e-02 4.35988884e-03 2.89338082e-02
      1.63826142e-02 6.03778586e-02 6.13026805e-02 1.00013211e-01
      5.20544313e-02 5.13938442e-02 5.16580790e-02 4.75624250e-03
      7.94028267e-02 2.06103846e-02 9.11613181e-03 1.16263712e-02
      4.18813564e-02 1.99497957e-02 6.89655170e-02 2.77447491e-03
      8.40269551e-02 8.58766027e-03 1.36081381e-02 4.09565354e-03
      2.23279167e-02 1.36081381e-02 1.45329640e-03 2.12709736e-02
      4.62412462e-03 0. 1.66468490e-02 3.30294622e-03 0. 3.03871045e-03
      0. 1.03051923e-02 3.96353542e-04 0. 0. 3.30294622e-03
      5.28471370e-04 2.54987441e-02 1.71753205e-03 1.01730740e-02 0.</_>
    <_>
      8.20451826e-02 4.05601785e-02 2.08746195e-02 3.71251144e-02
      1.21548418e-02 5.68106733e-02 3.63324098e-02 4.58448939e-02
      1.54577885e-02 2.40454488e-02 2.78768670e-02 2.90659280e-03
      3.38221677e-02 8.32342450e-03 3.56718199e-03 6.47377456e-03
      1.36081381e-02 7.66283507e-03 4.95441929e-02 2.90659280e-03
      3.77857052e-02 9.77672078e-03 1.01730740e-02 2.37812125e-03
      2.16673277e-02 1.99497957e-02 1.05694274e-03 2.39133313e-02
      1.59862600e-02 0. 3.68608795e-02 2.21957993e-02 1.71753205e-03
      1.88928526e-02 1.58541417e-03 4.06922959e-02 8.19130708e-03
      3.30294622e-03 0. 1.50614344e-02 1.37402564e-02 5.76033816e-02
      4.41273600e-02 5.04690185e-02 1.49293169e-02</_>
    <_>
      1.55817170e-03 1.73130189e-04 3.46260378e-04 6.92520756e-04
      6.92520756e-04 2.77008303e-03 3.28947371e-03 6.75207749e-03
      9.69529059e-03 1.99099723e-02 3.77423838e-02 3.49722989e-02
      6.66551217e-02 6.05955683e-02 6.31925240e-02 7.72160664e-02
      8.56994465e-02 9.81648192e-02 1.10803321e-01 7.18490332e-02
      8.43144059e-02 5.21121882e-02 2.51038782e-02 1.69667583e-02
      1.74861494e-02 1.80055406e-02 5.54016605e-03 8.82964022e-03
      4.84764529e-03 1.21191132e-03 3.46260378e-03 2.07756227e-03
      3.46260378e-04 8.65650945e-04 5.19390567e-04 1.03878113e-03
      8.65650945e-04 3.46260378e-04 1.73130189e-04 1.73130189e-04 0.
      1.73130189e-03 0. 5.19390567e-04 6.92520756e-04</_>
    <_>
      1.57726839e-01 3.27268429e-02 1.27599239e-02 2.63468809e-02
      1.68950856e-02 5.36389425e-02 1.85491499e-02 3.80434766e-02
      4.25330829e-03 5.90737257e-03 6.37996197e-03 0. 1.99669190e-02
      1.18147454e-03 1.18147451e-04 8.27032141e-04 4.96219285e-03
      1.41776935e-03 6.53355420e-02 2.36294902e-04 4.01701331e-02
      6.61625713e-03 1.15784500e-02 2.95368629e-03 2.78827976e-02
      2.80009452e-02 4.60775057e-03 6.46266565e-02 2.42202263e-02 0.
      7.36058578e-02 2.74102073e-02 4.72589803e-04 6.97069941e-03
      5.90737269e-04 2.09120978e-02 2.71739135e-03 8.27032141e-04 0.
      1.18147451e-02 3.07183363e-03 9.31001902e-02 2.11483929e-02
      5.45841195e-02 4.84404527e-03</_>
    <_>
      1.21642560e-01 8.57437998e-02 5.86260334e-02 7.58006200e-02
      3.33161168e-02 8.12241733e-02 3.89979333e-02 3.47365700e-02
      8.78099166e-03 1.11053716e-02 9.55578499e-03 3.87396693e-04
      1.45919425e-02 2.71177688e-03 1.29132226e-04 0. 2.58264458e-03
      1.29132226e-04 3.20247933e-02 0. 4.26136376e-03 0. 6.45661145e-04
      0. 4.26136376e-03 1.80785125e-03 1.29132226e-04 1.29132234e-02
      3.74483480e-03 1.16219011e-03 3.18956599e-02 6.06921501e-03
      1.42045459e-03 6.84400834e-03 0. 3.52531001e-02 1.42045459e-03
      3.87396693e-04 0. 2.63429750e-02 1.96281001e-02 9.29752067e-02
      5.08781001e-02 5.90134300e-02 2.68595032e-02</_>
    <_>
      3.76535878e-02 1.71753205e-02 2.06103846e-02 6.83049262e-02
      1.19830891e-01 1.10582642e-01 8.04597735e-02 5.31113744e-02
      3.88426483e-02 2.03461479e-02 1.62504949e-02 1.45329640e-03
      1.92892067e-02 7.00224610e-03 2.37812125e-03 4.35988884e-03
      9.11613181e-03 5.68106771e-03 3.15761678e-02 1.71753205e-03
      3.88426483e-02 8.32342450e-03 1.88928526e-02 4.22777096e-03
      2.88016908e-02 3.36900502e-02 7.00224610e-03 3.63324098e-02
      2.32527424e-02 7.92707084e-04 3.23688723e-02 2.82732192e-02
      1.05694274e-03 6.34165667e-03 0. 1.13621354e-02 1.32117851e-03
      6.60589256e-04 2.64235685e-04 5.28471405e-03 2.11388548e-03
      2.12709736e-02 8.05918872e-03 1.33439023e-02 2.37812125e-03</_>
    <_>
      6.47647381e-02 3.51541378e-02 6.76041096e-03 3.09626833e-02
      3.16387229e-02 9.26176310e-02 1.17495947e-01 9.62682515e-02
      6.54407814e-02 6.13845326e-02 7.97728524e-02 6.48999447e-03
      5.77339120e-02 1.78474858e-02 5.67874545e-03 6.62520295e-03
      1.35208219e-02 6.35478646e-03 4.34018373e-02 6.76041120e-04
      2.40670629e-02 2.70416448e-03 6.76041120e-04 0. 3.65062198e-03 0.
      0. 1.31151974e-02 5.00270398e-03 0. 1.55489454e-02 3.65062198e-03
      0. 1.35208224e-03 0. 1.10870739e-02 1.21687399e-03 0. 0.
      3.10978899e-03 5.40832873e-04 3.73174697e-02 6.89561944e-03
      2.85289343e-02 9.46457556e-04</_>
    <_>
      2.12709736e-02 1.10978996e-02 1.18906063e-03 7.53071718e-03
      8.45554192e-03 2.54987441e-02 2.85374559e-02 4.62412462e-02
      2.84053367e-02 3.19725201e-02 6.24917410e-02 1.71753205e-03
      6.03778586e-02 2.61593349e-02 7.53071718e-03 2.16673277e-02
      6.53983355e-02 4.51843031e-02 8.61408412e-02 4.80908975e-02
      1.39252216e-01 6.27559796e-02 3.07834595e-02 1.32117849e-02
      3.19725201e-02 2.70841587e-02 3.69929988e-03 1.81001462e-02
      6.87012821e-03 2.64235685e-04 7.39859976e-03 2.11388548e-03 0.
      5.28471370e-04 0. 4.49200673e-03 2.64235685e-04 0. 0.
      1.98176783e-03 1.32117842e-04 9.51248500e-03 7.92707084e-04
      3.83141753e-03 0.</_>
    <_>
      4.91493382e-02 1.45321358e-02 4.84404527e-03 1.31143667e-02
      9.33364872e-03 3.55623811e-02 3.70982997e-02 6.42722100e-02
      4.85586002e-02 4.79678623e-02 5.81285432e-02 2.42202263e-02
      7.37240091e-02 4.76134233e-02 3.65075618e-02 4.47778814e-02
      5.45841195e-02 4.56049144e-02 6.60444200e-02 1.90217383e-02
      4.80860099e-02 1.27599239e-02 1.06332703e-02 3.78071843e-03
      1.13421548e-02 7.91587867e-03 9.45179607e-04 1.80765595e-02
      2.12665414e-03 0. 1.70132332e-02 3.89886578e-03 2.36294902e-04
      7.67958397e-03 0. 1.16965976e-02 1.41776935e-03 2.36294902e-04
      2.36294902e-04 4.96219285e-03 5.90737269e-04 2.96550095e-02
      1.53591682e-03 8.86105839e-03 1.65406428e-03</_>
    <_>
      7.90968090e-02 6.74689040e-02 1.19253650e-01 1.56571120e-01
      1.07896157e-01 6.50351569e-02 1.36560304e-02 1.71714444e-02
      1.62249862e-03 1.62249862e-03 8.11249309e-04 0. 4.32666298e-03 0.
      0. 0. 8.11249309e-04 0. 1.28447814e-02 0. 3.65062198e-03 0.
      1.35208218e-04 0. 8.11249309e-04 1.35208218e-04 0. 2.56895623e-03
      5.40832873e-04 0. 5.94916148e-03 9.46457556e-04 0. 2.70416436e-04
      0. 2.58247703e-02 9.46457556e-04 4.05624654e-04 1.35208218e-04
      1.41968634e-02 1.23039484e-02 9.46457535e-02 8.03136826e-02
      9.73499194e-02 1.06814494e-02</_>
    <_>
      4.50521857e-02 5.25829047e-02 5.74712642e-02 1.12300172e-01
      1.63826138e-01 1.84040159e-01 9.55212042e-02 4.90157232e-02
      3.14440466e-02 2.32527424e-02 1.51935527e-02 1.84964994e-03
      2.36490946e-02 3.69929988e-03 6.60589256e-04 1.05694274e-03
      7.79495295e-03 1.84964994e-03 2.43096836e-02 1.32117842e-04
      1.44008454e-02 2.64235685e-04 6.60589256e-04 0. 1.98176783e-03
      1.05694274e-03 0. 3.69929988e-03 1.58541417e-03 0. 7.00224610e-03
      4.75624250e-03 1.32117842e-04 1.18906063e-03 0. 3.69929988e-03
      3.96353542e-04 7.92707084e-04 0. 3.03871045e-03 1.58541417e-03
      2.93301623e-02 7.39859976e-03 1.46650812e-02 7.66283507e-03</_>
    <_>
      2.77634300e-02 2.35020667e-02 2.98295449e-02 8.17406997e-02
      1.29519626e-01 1.98476240e-01 1.15444213e-01 5.90134300e-02
      6.59865737e-02 1.62706617e-02 2.77634300e-02 5.29442169e-03
      2.04028934e-02 6.84400834e-03 1.03305781e-03 1.03305781e-03
      5.55268582e-03 3.87396693e-04 1.66580584e-02 0. 1.73037183e-02
      1.03305781e-03 6.58574374e-03 2.58264452e-04 1.65289249e-02
      1.42045459e-02 1.54958677e-03 1.56250000e-02 6.45661168e-03
      2.58264452e-04 1.23966942e-02 5.29442169e-03 1.54958677e-03
      4.26136376e-03 1.29132226e-04 1.07179750e-02 1.93698343e-03
      5.16528904e-04 0. 4.90702502e-03 3.35743790e-03 1.76911149e-02
      7.36053707e-03 1.00723142e-02 7.48966960e-03</_>
    <_>
      6.84370473e-02 5.04690185e-02 6.65873960e-02 1.58409297e-01
      1.70828372e-01 1.42555162e-01 6.61910400e-02 3.93711179e-02
      1.99497957e-02 1.54577885e-02 9.11613181e-03 0. 1.13621354e-02
      2.90659280e-03 1.32117842e-04 0. 3.69929988e-03 0. 1.08336639e-02
      0. 1.03051923e-02 1.32117842e-04 1.32117851e-03 0. 2.11388548e-03
      9.24824970e-04 1.32117842e-04 2.90659280e-03 1.05694274e-03 0.
      4.09565354e-03 2.37812125e-03 1.32117842e-04 3.17082833e-03 0.
      9.64460336e-03 1.58541417e-03 0. 5.28471370e-04 3.69929988e-03
      2.11388548e-03 5.02047837e-02 2.24600341e-02 3.35579328e-02
      1.12300171e-02</_>
    <_>
      2.90532876e-02 2.21088436e-02 4.83276658e-02 9.82142836e-02
      1.53202951e-01 2.25765303e-01 1.04875281e-01 4.39342409e-02
      3.21712010e-02 1.31802717e-02 1.47392293e-02 7.08616804e-04
      1.91326533e-02 6.09410414e-03 2.83446722e-03 5.52721089e-03
      1.04875285e-02 7.08616758e-03 2.35260762e-02 2.83446716e-04
      2.56519280e-02 1.41723361e-03 4.10997728e-03 1.41723358e-04
      9.49546508e-03 6.37755124e-03 2.83446716e-04 1.79988667e-02
      3.96825420e-03 0. 1.34637188e-02 2.69274367e-03 2.83446716e-04
      1.98412710e-03 1.41723358e-04 5.95238106e-03 1.55895692e-03
      2.83446716e-04 1.41723358e-04 3.40136047e-03 1.55895692e-03
      1.82823129e-02 3.68480734e-03 1.07709747e-02 5.10204071e-03</_>
    <_>
      6.43078536e-02 7.50258267e-02 7.14101270e-02 1.23966940e-01
      1.18801653e-01 1.24354340e-01 6.81818202e-02 3.92562002e-02
      2.27272734e-02 2.11776868e-02 1.51084708e-02 1.29132229e-03
      1.74328517e-02 2.71177688e-03 5.16528904e-04 1.16219011e-03
      4.51962790e-03 2.19524791e-03 1.82076450e-02 1.29132226e-04
      1.05888434e-02 5.16528904e-04 2.19524791e-03 0. 5.81095042e-03
      4.26136376e-03 0. 7.74793373e-03 5.68181835e-03 0. 1.07179750e-02
      4.64876043e-03 0. 3.48657020e-03 0. 1.34297516e-02 2.45351251e-03
      1.80785125e-03 2.58264452e-04 4.90702502e-03 1.09762400e-02
      3.95144634e-02 3.03460751e-02 2.93130167e-02 1.88533049e-02</_>
    <_>
      7.30460219e-04 1.82615055e-04 7.30460219e-04 9.13075230e-04
      1.82615055e-04 2.00876547e-03 2.73922575e-03 3.83491605e-03
      1.33308982e-02 1.99050400e-02 3.96274664e-02 5.64280488e-02
      7.94375464e-02 8.47333819e-02 9.31336731e-02 9.29510593e-02
      1.11395180e-01 1.13221332e-01 1.09569028e-01 5.88020459e-02
      5.13148271e-02 3.23228650e-02 1.27830533e-02 6.57414179e-03
      2.19138060e-03 3.65230092e-03 1.27830531e-03 2.37399573e-03
      1.27830531e-03 1.82615055e-04 5.47845149e-04 3.65230109e-04
      5.47845149e-04 1.82615055e-04 0. 3.65230109e-04 0. 0. 0. 0. 0. 0.
      1.82615055e-04 0. 0.</_>
    <_>
      7.08151683e-02 6.88333958e-02 8.25736523e-02 9.89562720e-02
      8.28378946e-02 1.00277446e-01 6.43413961e-02 5.40362000e-02
      5.76033816e-02 2.27242708e-02 2.51023918e-02 7.26648187e-03
      2.10067388e-02 6.20953878e-03 4.62412462e-03 3.83141753e-03
      7.66283507e-03 3.83141753e-03 8.45554192e-03 2.64235702e-03
      8.05918872e-03 3.17082833e-03 2.11388548e-03 3.96353542e-04
      2.24600337e-03 7.92707084e-04 2.64235685e-04 3.43506411e-03
      1.71753205e-03 3.96353542e-04 3.83141753e-03 3.56718199e-03 0.
      4.09565354e-03 0. 7.66283507e-03 1.71753205e-03 1.45329640e-03
      1.32117851e-03 1.03051923e-02 1.22869601e-02 1.79680269e-02
      4.34667729e-02 3.36900502e-02 4.24098298e-02</_>
    <_>
      1.02433838e-01 7.28969723e-02 2.48109642e-02 3.35538760e-02
      1.32325143e-02 5.64744808e-02 2.55198479e-02 2.97731571e-02
      1.20510394e-02 6.97069941e-03 4.25330829e-03 2.36294902e-04
      6.97069941e-03 2.12665414e-03 1.18147451e-04 5.90737269e-04
      1.53591682e-03 2.36294902e-04 2.41020788e-02 0. 7.44328927e-03
      1.18147451e-04 2.48109642e-03 0. 7.44328927e-03 1.96124762e-02
      2.95368629e-03 2.97731571e-02 2.07939502e-02 4.72589803e-04
      4.66682427e-02 1.66587904e-02 2.36294902e-04 2.88279764e-02
      1.18147451e-04 6.56899810e-02 1.11058597e-02 3.42627591e-03
      2.36294902e-04 3.16635147e-02 2.05576569e-02 1.12358220e-01
      5.03308140e-02 8.28213617e-02 2.03213617e-02</_>
    <_>
      9.49121937e-02 4.19679768e-02 9.94318165e-03 8.39359500e-03
      3.48657020e-03 4.24845032e-02 1.04597108e-02 3.74483466e-02
      8.26446246e-03 9.68491752e-03 6.84400834e-03 5.16528904e-04
      1.07179750e-02 1.93698343e-03 3.87396693e-04 2.32438021e-03
      4.26136376e-03 9.03925626e-04 2.49225199e-02 1.29132226e-04
      1.89824384e-02 9.03925626e-04 3.09917354e-03 2.32438021e-03
      1.65289249e-02 6.58574374e-03 3.74483480e-03 4.27427702e-02
      1.96281001e-02 5.16528904e-04 6.09504133e-02 3.09917349e-02
      4.77789249e-03 1.78202484e-02 3.87396687e-03 6.54700398e-02
      1.05888434e-02 2.58264458e-03 1.80785125e-03 2.99586784e-02
      2.60847099e-02 9.31043401e-02 1.15702480e-01 8.01911131e-02
      2.10485533e-02</_>
    <_>
      9.96168554e-02 3.75214703e-02 2.82732192e-02 5.78676164e-02
      4.62412462e-02 5.52252606e-02 1.17584886e-02 2.07425021e-02
      3.17082833e-03 5.02047827e-03 6.60589256e-04 0. 8.85189604e-03 0.
      0. 0. 1.45329640e-03 0. 3.14440466e-02 6.60589256e-04
      9.38036758e-03 1.71753205e-03 3.69929988e-03 2.64235685e-04
      1.42687280e-02 1.17584886e-02 7.92707084e-04 3.32936980e-02
      2.10067388e-02 0. 6.38129190e-02 2.97265165e-02 1.32117842e-04
      2.04782672e-02 5.28471370e-04 8.34984779e-02 3.03871045e-03
      1.32117851e-03 2.64235685e-04 5.33756092e-02 2.43096836e-02
      9.73708555e-02 3.88426483e-02 7.25326985e-02 6.07742090e-03</_>
    <_>
      6.34165667e-03 5.28471370e-04 1.32117842e-04 1.18906063e-03
      2.37812125e-03 4.35988884e-03 2.90659280e-03 6.60589244e-03
      7.00224610e-03 7.92707130e-03 9.24824923e-03 3.17082833e-03
      1.75716747e-02 7.92707130e-03 5.02047827e-03 6.07742090e-03
      2.23279167e-02 2.04782672e-02 3.77857052e-02 2.85374559e-02
      9.23503786e-02 7.08151683e-02 5.44325523e-02 6.97582215e-02
      1.15867354e-01 1.47575632e-01 1.27229482e-01 7.97991827e-02
      2.57629808e-02 4.22777096e-03 8.32342450e-03 1.45329640e-03 0.
      5.28471370e-04 0. 1.71753205e-03 0. 0. 0. 0. 0. 2.11388548e-03 0.
      5.28471370e-04 0.</_>
    <_>
      4.10640500e-02 7.61880167e-03 3.74483480e-03 2.93130167e-02
      3.09917349e-02 7.37345070e-02 1.56637400e-01 1.22159094e-01
      8.50981399e-02 7.99328536e-02 5.74638434e-02 3.87396687e-03
      5.46229333e-02 1.88533049e-02 4.39049583e-03 1.45919425e-02
      2.89256200e-02 1.49793392e-02 4.18388434e-02 5.16528904e-04
      3.55113633e-02 5.03615709e-03 4.64876043e-03 2.58264452e-04
      1.33006200e-02 4.64876043e-03 5.16528904e-04 1.29132234e-02
      2.97004124e-03 0. 8.13533086e-03 1.16219011e-03 0. 0. 0.
      4.00309917e-03 9.03925626e-04 7.74793385e-04 0. 1.80785125e-03
      6.45661145e-04 2.44059917e-02 1.67871895e-03 6.06921501e-03
      2.58264452e-04</_>
    <_>
      5.02972119e-03 4.57247370e-04 0. 0. 0. 1.67657365e-03
      4.57247370e-04 1.67657365e-03 1.52415785e-04 4.57247370e-04
      3.20073171e-03 0. 8.99253134e-03 8.07803683e-03 5.63938404e-03
      2.01188847e-02 4.38957475e-02 5.07544577e-02 9.70888585e-02
      8.96204859e-02 2.44170099e-01 1.39765278e-01 8.12376142e-02
      1.75278150e-02 6.40146285e-02 5.34979440e-02 4.26764227e-03
      3.18549015e-02 1.24980947e-02 6.09663140e-04 1.08215213e-02
      1.06691057e-03 0. 1.52415785e-04 0. 0. 0. 0. 0. 0. 0.
      1.21932628e-03 0. 0. 0.</_>
    <_>
      6.15197420e-02 9.28880498e-02 6.01676591e-02 1.17360733e-01
      8.92374292e-02 1.33450508e-01 1.09113038e-01 6.94970265e-02
      4.78637107e-02 2.67712269e-02 1.81179009e-02 1.35208224e-03
