<?xml version="1.0"?>
<opencv_storage>
<my_svm type_id="opencv-ml-svm">
  <svm_type>C_SVC</svm_type>
  <kernel><type>RBF</type>
    <gamma>10.</gamma></kernel>
  <C>100000.</C>
  <term_criteria><epsilon>9.9999999747524271e-07</epsilon>
    <iterations>1000000</iterations></term_criteria>
  <var_all>6</var_all>
  <var_count>6</var_count>
  <class_count>2</class_count>
  <class_labels type_id="opencv-matrix">
    <rows>1</rows>
    <cols>2</cols>
    <dt>i</dt>
    <data>
      -1 1</data></class_labels>
  <sv_total>3588</sv_total>
  <support_vectors>
    <_>
      9.27663624e-01 7.16603547e-03 0. 1.35208218e-04 7.16603547e-03
      5.78691177e-02</_>
    <_>
      8.91680360e-01 4.79737408e-02 2.14619376e-03 8.83726811e-04
      3.91364750e-03 5.34023494e-02</_>
    <_>
      2.02812329e-01 1.05597623e-01 1.61844239e-01 3.30989718e-01
      1.00189291e-01 9.85667929e-02</_>
    <_>
      1.38180271e-01 6.85941055e-02 3.71882081e-01 2.79336721e-01
      6.15079366e-02 8.04988667e-02</_>
    <_>
      3.35485548e-01 3.77970040e-01 2.09710747e-01 4.48088832e-02
      6.06921501e-03 2.59555783e-02</_>
    <_>
      1.84964994e-03 1.10978996e-02 3.51037115e-01 6.35486841e-01
      5.28471370e-04 0.</_>
    <_>
      8.04488897e-01 4.00216319e-02 1.24391560e-02 2.06868574e-02
      2.24445648e-02 9.99188721e-02</_>
    <_>
      6.95240498e-01 4.96149473e-02 1.02259815e-02 1.47708626e-02
      2.72692833e-02 2.02878430e-01</_>
    <_>
      3.10476944e-02 6.38129190e-02 5.35077274e-01 3.39278638e-01
      2.14030910e-02 9.38036758e-03</_>
    <_>
      6.34924412e-01 8.03402662e-02 6.92344010e-02 5.52930050e-02
      4.60775048e-02 1.14130437e-01</_>
    <_>
      6.86880708e-01 5.89245595e-02 3.19725201e-02 1.51935527e-02
      1.66468490e-02 1.90381825e-01</_>
    <_>
      3.30584109e-01 4.59707938e-02 5.46241216e-02 6.09789081e-02
      1.04921579e-01 4.02920485e-01</_>
    <_>
      0. 1.53591682e-03 2.07466915e-01 7.90170133e-01 8.27032141e-04 0.</_>
    <_>
      4.18241955e-02 3.52079384e-02 4.91611540e-01 4.10798669e-01
      1.48865785e-02 5.67107741e-03</_>
    <_>
      2.87448347e-01 2.43285120e-01 2.88610548e-01 8.96177664e-02
      2.32438017e-02 6.77944198e-02</_>
    <_>
      6.81077167e-02 6.17075227e-02 3.64086449e-01 4.39439684e-01
      3.17594483e-02 3.48991677e-02</_>
    <_>
      6.89021111e-01 1.30475938e-01 1.10870739e-02 1.32504059e-02
      2.44726874e-02 1.31692812e-01</_>
    <_>
      2.05922127e-01 3.97647381e-01 3.34369928e-01 3.94808017e-02
      3.24499724e-03 1.93347763e-02</_>
    <_>
      3.63746524e-01 8.50069225e-02 9.69529077e-02 2.40477845e-01
      1.02839336e-01 1.10976458e-01</_>
    <_>
      6.73801033e-03 2.98586339e-02 1.63429782e-01 7.91385889e-01
      5.02047827e-03 3.56718199e-03</_>
    <_>
      2.91378111e-01 1.95290864e-01 2.19182819e-01 1.43698066e-01
      5.88642657e-02 9.15858746e-02</_>
    <_>
      3.20578694e-01 1.11546785e-01 2.19037324e-01 1.62249863e-01
      6.17901571e-02 1.24797188e-01</_>
    <_>
      4.18123811e-01 1.16965972e-01 9.19187143e-02 1.00425333e-01
      7.92769343e-02 1.93289220e-01</_>
    <_>
      5.00903904e-01 3.57050627e-01 8.93595070e-02 2.24690083e-02
      5.03615709e-03 2.51807850e-02</_>
    <_>
      6.74621910e-02 4.58412096e-02 2.66658783e-01 5.60609639e-01
      3.78071852e-02 2.16209833e-02</_>
    <_>
      9.06072438e-01 9.34225507e-03 0. 0. 1.26246689e-03 8.33228156e-02</_>
    <_>
      7.75013506e-01 1.29799889e-02 2.83937273e-03 5.67874545e-03
      1.78474858e-02 1.85640886e-01</_>
    <_>
      2.90547520e-01 1.08212806e-01 3.01652879e-01 1.91503093e-01
      2.67303716e-02 8.13533068e-02</_>
    <_>
      1.87871575e-01 2.41775662e-01 4.22909230e-01 1.33571148e-01
      8.71977769e-03 5.15259616e-03</_>
    <_>
      4.08408016e-01 3.66115384e-02 6.35020807e-02 1.61595762e-01
      9.79674309e-02 2.31915161e-01</_>
    <_>
      1.66266888e-01 9.08976141e-03 4.22926396e-02 2.78373957e-01
      3.10945600e-01 1.93031177e-01</_>
    <_>
      3.86342146e-02 1.14603024e-02 1.38232514e-01 7.35467851e-01
      4.71408330e-02 2.90642716e-02</_>
    <_>
      9.05139387e-01 3.32936980e-02 3.96353542e-04 0. 1.18906063e-03
      5.99815026e-02</_>
    <_>
      3.38485926e-01 9.93526205e-02 2.04254195e-01 1.73999205e-01
      5.33756092e-02 1.30532429e-01</_>
    <_>
      1.89154059e-01 9.16824192e-02 2.65713602e-01 2.91115314e-01
      7.06521720e-02 9.16824192e-02</_>
    <_>
      6.48999453e-01 2.36884803e-01 3.48837227e-02 2.46078968e-02
      1.90643594e-02 3.55597623e-02</_>
    <_>
      5.96074402e-01 5.15237600e-02 8.81973132e-02 1.67871907e-01
      4.53254133e-02 5.10072298e-02</_>
    <_>
      7.52807498e-01 5.09974882e-02 7.26648187e-03 1.37402564e-02
      1.92892067e-02 1.55899063e-01</_>
    <_>
      9.34013426e-01 6.84400834e-03 1.29132226e-04 3.74483480e-03
      4.77789249e-03 5.04907034e-02</_>
    <_>
      8.36026073e-01 4.91780043e-02 2.69274367e-03 1.41723361e-03
      6.80272095e-03 1.03883222e-01</_>
    <_>
      1.00189038e-01 1.01488657e-01 4.31592613e-01 2.59451807e-01
      5.22211716e-02 5.50567098e-02</_>
    <_>
      6.31261826e-01 1.34806246e-01 6.02551997e-02 2.52835546e-02
      2.45746691e-02 1.23818524e-01</_>
    <_>
      7.50789046e-01 1.60207048e-01 1.64120700e-02 5.17611392e-03
      7.32230768e-03 6.00934215e-02</_>
    <_>
      9.77672115e-02 1.24190778e-01 4.99801815e-01 2.34641299e-01
      1.91570874e-02 2.44418029e-02</_>
    <_>
      4.29138333e-01 1.62273243e-01 2.09325403e-01 1.06009074e-01
      1.36054419e-02 7.96485245e-02</_>
    <_>
      8.74291122e-01 8.67202282e-02 6.85255183e-03 3.89886578e-03
      3.66257085e-03 2.45746691e-02</_>
    <_>
      4.99273360e-01 2.24468231e-01 7.60998800e-02 6.43413961e-02
      2.80089844e-02 1.07808165e-01</_>
    <_>
      1.86854333e-01 3.47494841e-01 3.67122948e-01 5.66890500e-02
      9.42665245e-03 3.24121900e-02</_>
    <_>
      3.26086968e-01 1.78284496e-01 2.15855390e-01 1.42131373e-01
      5.22211716e-02 8.54206085e-02</_>
    <_>
      2.70925403e-01 8.43327865e-02 3.24580222e-01 1.89117536e-01
      4.15351614e-02 8.95088986e-02</_>
    <_>
      2.05340266e-01 3.79253291e-02 1.14012286e-01 3.91186208e-01
      1.52646497e-01 9.88894105e-02</_>
    <_>
      4.64919694e-02 4.99939620e-02 2.63494760e-01 6.22992396e-01
      1.11097693e-02 5.91715984e-03</_>
    <_>
      6.66441321e-01 1.41292587e-01 6.80097342e-02 2.31206063e-02
      1.35208219e-02 8.76149237e-02</_>
    <_>
      8.61441135e-01 1.71745867e-02 3.22830584e-03 9.81405005e-03
      9.81405005e-03 9.85278934e-02</_>
    <_>
      6.87539458e-01 1.91894956e-02 8.33228137e-03 1.47708626e-02
      3.13091800e-02 2.38858730e-01</_>
    <_>
      0. 0. 1.98347107e-01 8.01265478e-01 3.87396693e-04 0.</_>
    <_>
      7.65595436e-02 1.37287334e-01 5.13586938e-01 2.29442343e-01
      2.00850666e-02 2.30387524e-02</_>
    <_>
      2.05289223e-03 1.05059771e-02 1.60125583e-01 8.16085041e-01
      1.08682523e-02 3.62275081e-04</_>
    <_>
      4.30971496e-02 1.46092037e-02 7.10372552e-02 7.64609218e-01
      8.52812305e-02 2.13659611e-02</_>
    <_>
      9.42665245e-03 8.65185913e-03 1.87112600e-01 7.67174602e-01
      2.22107433e-02 5.42355375e-03</_>
    <_>
      8.10810775e-02 4.05405387e-02 3.13550025e-01 4.83199418e-01
      4.25493047e-02 3.90796214e-02</_>
    <_>
      7.94556737e-01 7.47787058e-02 3.71251144e-02 1.92892067e-02
      1.54577885e-02 5.87924421e-02</_>
    <_>
      5.75025797e-01 3.12500000e-02 2.71177688e-03 1.12345042e-02
      2.29855366e-02 3.56792361e-01</_>
    <_>
      2.30941996e-01 1.26436785e-01 2.87356317e-01 2.37283662e-01
      3.47469933e-02 8.32342431e-02</_>
    <_>
      1.03142723e-01 1.37051046e-01 4.94210780e-01 2.12192819e-01
      2.50472594e-02 2.83553880e-02</_>
    <_>
      9.38271582e-01 5.45648523e-02 1.52415785e-04 0. 3.04831570e-04
      6.70629460e-03</_>
    <_>
      2.65203472e-02 4.40481640e-02 3.62292320e-01 5.38637400e-01
      1.88995581e-02 9.60219465e-03</_>
    <_>
      6.49160445e-01 1.76745355e-01 7.44855478e-02 3.56015638e-02
      1.55283427e-02 4.84787263e-02</_>
    <_>
      7.69612491e-01 1.29725903e-01 4.79678623e-02 1.80765595e-02
      8.86105839e-03 2.57561430e-02</_>
    <_>
      1.75220385e-01 1.48049757e-01 2.81004697e-01 2.45743275e-01
      6.78661987e-02 8.21156874e-02</_>
    <_>
      7.07409382e-01 3.75878848e-02 8.11249297e-03 6.62520295e-03
      3.51541378e-02 2.05110878e-01</_>
    <_>
      7.18192637e-01 5.03369011e-02 5.90566769e-02 2.89338082e-02
      1.55899059e-02 1.27890080e-01</_>
    <_>
      9.31034505e-01 1.83643810e-02 1.32117842e-04 7.92707084e-04
      3.30294622e-03 4.63733636e-02</_>
    <_>
      3.28555964e-02 5.46241216e-02 4.64440227e-01 4.05895084e-01
      2.28501894e-02 1.93347763e-02</_>
    <_>
      6.91162586e-01 1.46502838e-01 9.27457437e-02 5.04489616e-02
      6.85255183e-03 1.22873345e-02</_>
    <_>
      7.55367041e-01 2.04293635e-02 1.73130189e-03 2.77008303e-03
      1.62742380e-02 2.03427970e-01</_>
    <_>
      4.18628812e-01 8.34487528e-02 6.04224391e-02 8.81232694e-02
      8.84695277e-02 2.60907203e-01</_>
    <_>
      1.96853742e-01 1.18055552e-01 2.94217676e-01 2.64597505e-01
      5.99489808e-02 6.63265288e-02</_>
    <_>
      6.99971676e-01 1.53911561e-01 1.23299323e-02 2.97619053e-03
      9.35374107e-03 1.21456914e-01</_>
    <_>
      7.88397908e-01 6.81710765e-02 3.74527425e-02 5.42296804e-02
      2.28024572e-02 2.89461240e-02</_>
    <_>
      5.60433865e-01 2.30242774e-01 1.10537194e-01 5.41064031e-02
      1.66580584e-02 2.80216951e-02</_>
    <_>
      2.97908068e-01 3.76678705e-01 2.44059920e-01 5.96590899e-02
      2.84090918e-03 1.88533049e-02</_>
    <_>
      4.39843446e-01 2.36081295e-02 5.73159941e-02 1.45057440e-01
      1.38240114e-01 1.95934862e-01</_>
    <_>
      5.23797512e-01 2.10453227e-01 7.19606131e-02 2.52493378e-02
      3.98939513e-02 1.28645375e-01</_>
    <_>
      3.55623811e-02 1.83128551e-01 6.29371464e-01 1.47920609e-01
      2.36294908e-03 1.65406428e-03</_>
    <_>
      4.60775057e-03 3.18998098e-03 2.33341217e-01 7.54135132e-01
      4.01701313e-03 7.08884676e-04</_>
    <_>
      3.18956614e-01 2.15650827e-01 2.34116733e-01 1.42691121e-01
      1.42045459e-02 7.43801668e-02</_>
    <_>
      1.32601736e-02 2.21002903e-02 3.10470968e-01 6.38164937e-01
      1.31077580e-02 2.89590005e-03</_>
    <_>
      9.09235060e-01 1.53256701e-02 7.53071718e-03 1.13621354e-02
      1.05694281e-02 4.59770113e-02</_>
    <_>
      3.86426747e-02 1.50102645e-01 5.58869720e-01 2.44656444e-01
      3.13971750e-03 4.58881771e-03</_>
    <_>
      7.04188123e-02 3.03474694e-01 5.12485147e-01 9.59175602e-02
      6.87012821e-03 1.08336639e-02</_>
    <_>
      3.20652187e-01 4.83223051e-02 9.71172005e-02 2.10420609e-01
      1.19565219e-01 2.03922495e-01</_>
    <_>
      7.17687070e-01 6.71768710e-02 7.38378689e-02 6.84523806e-02
      1.68650802e-02 5.59807271e-02</_>
    <_>
      3.39330994e-02 5.74809797e-02 2.48641461e-01 5.91595232e-01
      4.00917754e-02 2.82574575e-02</_>
    <_>
      5.32256007e-01 6.61532655e-02 7.23393485e-02 3.93889658e-02
      3.50965783e-02 2.54765809e-01</_>
    <_>
      6.20953878e-03 1.91570874e-02 3.95428717e-01 5.73787808e-01
      3.96353565e-03 1.45329640e-03</_>
    <_>
      4.39338461e-02 2.82161355e-01 5.90960741e-01 6.62795082e-02
      8.83726776e-03 7.82729499e-03</_>
    <_>
      4.97423708e-01 5.53573780e-02 4.53164205e-02 6.72479868e-02
      1.07543930e-01 2.27110580e-01</_>
    <_>
      6.19368494e-01 4.72981893e-02 7.74210617e-02 2.03461483e-01
      2.58950982e-02 2.65556872e-02</_>
    <_>
      2.43055552e-01 1.53486401e-01 2.32993200e-01 2.21938774e-01
      5.99489808e-02 8.85770991e-02</_>
    <_>
      7.14201331e-01 2.13728741e-01 5.45841195e-02 1.02788284e-02
      1.77221175e-03 5.43478271e-03</_>
    <_>
      2.06403598e-01 1.29962191e-02 3.04820407e-02 3.88705105e-01
      2.29914933e-01 1.31498113e-01</_>
    <_>
      1.63826138e-01 1.07940286e-01 2.84317613e-01 4.21059579e-01
      1.14942528e-02 1.13621354e-02</_>
    <_>
      3.52433830e-01 2.30387524e-02 4.96219285e-02 7.95132294e-02
      8.43572766e-02 4.11034971e-01</_>
    <_>
      3.02234560e-01 6.81732073e-02 1.47961110e-01 1.73210457e-01
      1.02764800e-01 2.05655858e-01</_>
    <_>
      4.99172956e-01 4.32419665e-02 2.49291118e-02 2.46928167e-02
      5.47022671e-02 3.53260875e-01</_>
    <_>
      2.78237253e-01 4.33601141e-02 1.34688094e-01 3.44636112e-01
      9.36909243e-02 1.05387524e-01</_>
    <_>
      2.41477266e-01 2.06095040e-01 3.77582639e-01 1.03951447e-01
      1.63997933e-02 5.44937998e-02</_>
    <_>
      7.26068139e-01 3.16387229e-02 8.92374292e-03 1.21687399e-02
      3.16387229e-02 1.89561918e-01</_>
    <_>
      4.73527879e-01 7.28305802e-02 7.92871937e-02 7.02479333e-02
      3.82231399e-02 2.65883267e-01</_>
    <_>
      4.73180532e-01 1.45321358e-02 3.54442336e-02 1.48983926e-01
      1.64343104e-01 1.63516074e-01</_>
    <_>
      7.42502287e-02 3.83141749e-02 4.51975167e-01 3.96353543e-01
      2.02140305e-02 1.88928526e-02</_>
    <_>
      8.44754279e-02 1.86672974e-02 1.11294895e-01 5.70652187e-01
      1.49456516e-01 6.54536858e-02</_>
    <_>
      6.98080063e-01 9.20768008e-02 4.85397503e-02 5.04326671e-02
      1.69010274e-02 9.39697102e-02</_>
    <_>
      3.73893529e-02 3.71251144e-02 3.15761656e-01 5.85017860e-01
      1.57220233e-02 8.98401346e-03</_>
    <_>
      6.31456599e-02 2.90289253e-01 5.22727251e-01 1.12474173e-01
      6.06921501e-03 5.29442169e-03</_>
    <_>
      3.43690932e-01 1.61862001e-02 3.22542526e-02 2.32159734e-01
      2.14910209e-01 1.60798684e-01</_>
    <_>
      8.05706322e-01 1.52758490e-02 4.54488071e-03 6.31233444e-03
      2.09569503e-02 1.47203639e-01</_>
    <_>
      5.43628812e-01 5.29778376e-02 6.28462583e-02 1.27943218e-01
      8.81232694e-02 1.24480613e-01</_>
    <_>
      4.82750475e-01 1.28308132e-01 1.39413983e-01 7.04158768e-02
      4.71408330e-02 1.31970704e-01</_>
    <_>
      1.39177695e-01 3.57986763e-02 1.15075618e-01 3.61531198e-01
      2.11011335e-01 1.37405485e-01</_>
    <_>
      8.64839330e-02 2.09120978e-02 1.14012286e-01 4.52268422e-01
      2.29796782e-01 9.65264663e-02</_>
    <_>
      4.31592613e-01 4.78497148e-02 1.23227790e-01 1.16729677e-01
      6.48629516e-02 2.15737239e-01</_>
    <_>
      2.11388562e-02 5.43004349e-02 5.78808308e-01 3.34126055e-01
      5.15259616e-03 6.47377456e-03</_>
    <_>
      6.44240677e-01 1.16348140e-01 8.36776868e-02 1.41012400e-01
      5.55268582e-03 9.16838832e-03</_>
    <_>
      8.64663541e-01 9.77149382e-02 1.38871360e-03 1.13622018e-03
      4.67112754e-03 3.04254517e-02</_>
    <_>
      3.54733557e-01 6.15079366e-02 2.30442181e-01 2.20804989e-01
      3.92573699e-02 9.32539701e-02</_>
    <_>
      5.03562391e-01 2.18693390e-01 9.23801437e-02 7.40248784e-02
      1.90798212e-02 9.22593921e-02</_>
    <_>
      6.38723612e-01 1.25878856e-01 5.28664142e-02 2.66360193e-02
      2.23093573e-02 1.33585721e-01</_>
    <_>
      2.80679315e-01 9.16727558e-02 1.96676403e-01 2.92001456e-01
      6.48283437e-02 7.41417110e-02</_>
    <_>
      2.25779772e-01 2.44801506e-01 3.31403583e-01 1.38232514e-01
      1.78402644e-02 4.19423431e-02</_>
    <_>
      4.62412126e-02 2.90697683e-02 4.78366673e-01 4.07923192e-01
      2.02812329e-02 1.81179009e-02</_>
    <_>
      7.68140554e-02 1.17913835e-01 4.79591846e-01 3.03287983e-01
      1.58730168e-02 6.51927432e-03</_>
    <_>
      1.15074649e-01 9.57854390e-02 4.55278099e-01 3.01096588e-01
      8.32342450e-03 2.44418029e-02</_>
    <_>
      5.65728605e-01 2.20636800e-02 8.98401346e-03 1.20227244e-02
      2.47060377e-02 3.66494924e-01</_>
    <_>
      2.45274097e-01 3.15453671e-02 4.87948954e-02 2.86507547e-01
      1.73440456e-01 2.14437619e-01</_>
    <_>
      5.60978889e-01 1.82531103e-02 2.92049758e-02 5.85451610e-02
      5.39480783e-02 2.79069781e-01</_>
    <_>
      3.00964475e-01 3.58039379e-01 1.65147305e-01 7.45144635e-02
      3.34258154e-02 6.79085776e-02</_>
    <_>
      5.25438726e-01 5.69372550e-02 6.84257075e-02 1.11728318e-01
      5.18873893e-02 1.85582623e-01</_>
    <_>
      7.15657115e-01 3.08274738e-02 2.14981064e-02 3.12330984e-02
      5.40832877e-02 1.46700919e-01</_>
    <_>
      5.30482046e-02 1.84310023e-02 5.67107759e-02 6.29016995e-01
      1.99314743e-01 4.34782617e-02</_>
    <_>
      4.61751878e-01 3.30558866e-01 1.05958514e-01 4.01638262e-02
      1.78359095e-02 4.37310077e-02</_>
    <_>
      2.69662917e-01 3.61065529e-02 1.02386065e-01 2.68021703e-01
      1.13117032e-01 2.10705712e-01</_>
    <_>
      5.99292994e-01 6.94356784e-02 3.44653465e-02 7.70104751e-02
      5.85784614e-02 1.61217019e-01</_>
    <_>
      3.55300456e-01 4.81434226e-01 9.89229009e-02 2.62188204e-02
      1.27551025e-02 2.53684800e-02</_>
    <_>
      5.24202287e-01 6.85505643e-02 9.30232555e-02 1.01676583e-01
      5.51649556e-02 1.57382369e-01</_>
    <_>
      1.63805693e-01 4.38276120e-02 1.40796199e-01 3.88970047e-01
      1.62344784e-01 1.00255661e-01</_>
    <_>
      5.09974882e-02 8.83868411e-02 3.68212432e-01 4.55145985e-01
      2.08746195e-02 1.63826142e-02</_>
    <_>
      7.39859939e-02 9.84277949e-02 3.38882297e-01 4.37442213e-01
      3.22367549e-02 1.90249700e-02</_>
    <_>
      1.49574667e-01 5.78922499e-03 2.13846881e-02 4.16351616e-01
      2.88516074e-01 1.18383743e-01</_>
    <_>
      4.74303067e-02 8.71977806e-02 5.63746870e-01 2.60800630e-01
      2.66878046e-02 1.41366096e-02</_>
    <_>
      1.66351601e-01 6.62807152e-02 3.59758973e-01 3.56923431e-01
      2.57561430e-02 2.49291118e-02</_>
    <_>
      2.97731578e-01 5.29300570e-02 9.05009434e-02 3.02339315e-01
      1.37405485e-01 1.19092628e-01</_>
    <_>
      3.09665531e-01 9.43877548e-02 1.20464854e-01 3.19302708e-01
      8.34750533e-02 7.27040842e-02</_>
    <_>
      1.48500457e-01 1.07411809e-01 4.15774882e-01 2.65953243e-01
      2.11388562e-02 4.12207693e-02</_>
    <_>
      1.45015493e-01 1.82076439e-01 6.21513426e-01 4.90702465e-02
      3.87396693e-04 1.93698343e-03</_>
    <_>
      4.20132339e-01 4.64319475e-02 5.61200380e-02 1.05978258e-01
      1.44612476e-01 2.26724952e-01</_>
    <_>
      2.83446699e-01 3.43679130e-01 2.66014725e-01 6.12244904e-02
      8.21995456e-03 3.74149643e-02</_>
    <_>
      6.61789358e-01 2.29843006e-01 2.42341105e-02 1.37174213e-02
      9.29736346e-03 6.11187331e-02</_>
    <_>
      8.85453820e-01 8.40269551e-02 2.64235685e-04 2.64235685e-04
      3.43506411e-03 2.65556872e-02</_>
    <_>
      2.66304344e-01 4.24149334e-02 8.81379992e-02 2.31450856e-01
      1.84782609e-01 1.86909258e-01</_>
    <_>
      2.36927912e-01 1.67491853e-01 2.16519743e-01 2.02270254e-01
      8.09081048e-02 9.58821401e-02</_>
    <_>
      2.55668938e-01 2.56944448e-01 3.63803864e-01 7.80895725e-02
      1.14795920e-02 3.40136066e-02</_>
    <_>
      5.26662052e-01 3.36045712e-01 4.60526310e-02 3.93005535e-02
      1.02146817e-02 4.17243764e-02</_>
    <_>
      5.64272225e-01 1.11176752e-01 9.56994295e-02 6.08459376e-02
      3.61531191e-02 1.31852552e-01</_>
    <_>
      1.27711773e-01 2.11518601e-01 5.03615677e-01 1.37009293e-01
      6.06921501e-03 1.40754133e-02</_>
    <_>
      1.07543930e-01 1.11639582e-01 4.27929699e-01 3.25670511e-01
      1.12300171e-02 1.59862600e-02</_>
    <_>
      4.79796797e-01 1.06450848e-01 9.33364853e-02 7.49054849e-02
      6.87618181e-02 1.76748589e-01</_>
    <_>
      1.76748589e-01 6.87618181e-02 1.60916820e-01 3.68974477e-01
      1.36342153e-01 8.82561430e-02</_>
    <_>
      6.16990365e-02 3.19725201e-02 2.47720972e-01 5.44589758e-01
      7.57035241e-02 3.83141749e-02</_>
    <_>
      4.51869816e-02 4.74376716e-02 3.28601122e-01 4.96191144e-01
      5.88642657e-02 2.37188358e-02</_>
    <_>
      8.19473147e-01 6.31456599e-02 3.47365700e-02 6.37913197e-02
      7.10227294e-03 1.17510334e-02</_>
    <_>
      8.16792846e-01 5.84099516e-02 1.48729037e-03 4.86749597e-03
      1.52785294e-02 1.03163876e-01</_>
    <_>
      1.35208218e-04 2.70416436e-04 2.99621403e-01 6.97944820e-01
      1.62249862e-03 4.05624654e-04</_>
    <_>
      3.65736663e-01 1.06173463e-01 1.44299969e-01 1.76492870e-01
      4.39338461e-02 1.63363218e-01</_>
    <_>
      8.60879898e-01 3.09155770e-02 2.77447491e-03 8.85189604e-03
      2.43096836e-02 7.22684637e-02</_>
    <_>
      2.42724307e-02 2.19780225e-02 2.34875008e-01 6.30237877e-01
      7.48701841e-02 1.37664536e-02</_>
    <_>
      8.93156528e-02 1.87014177e-01 6.33744836e-01 6.90443516e-02
      6.24904735e-03 1.46319158e-02</_>
    <_>
      7.37764761e-02 4.40102257e-02 3.77647907e-01 4.37728256e-01
      4.60189916e-02 2.08181161e-02</_>
    <_>
      4.04300570e-01 1.18147451e-02 1.28780715e-02 4.13516052e-02
      7.77410194e-02 4.51913983e-01</_>
    <_>
      1.51342973e-01 9.95609537e-02 4.09736574e-01 2.65108466e-01
      2.49225199e-02 4.93285134e-02</_>
    <_>
      8.15427363e-01 5.20136356e-02 1.17409416e-02 1.90632492e-02
      2.56280769e-02 7.61267543e-02</_>
    <_>
      8.74291081e-03 1.28780715e-02 1.73086017e-01 7.75874317e-01
      2.43383739e-02 5.08034043e-03</_>
    <_>
      7.20042288e-02 5.13938427e-01 3.63059849e-01 4.96763103e-02
      3.96353542e-04 9.24824970e-04</_>
    <_>
      6.15669191e-02 5.04690185e-02 2.63707221e-01 5.67446172e-01
      4.49200682e-02 1.18906060e-02</_>
    <_>
      3.01625043e-01 8.66693109e-02 1.07543930e-01 1.42951518e-01
      1.34628087e-01 2.26582110e-01</_>
    <_>
      2.47546494e-01 4.38533068e-01 2.56198347e-01 4.73915301e-02
      2.19524791e-03 8.13533086e-03</_>
    <_>
      7.93764055e-01 8.81226063e-02 5.03369011e-02 4.02959436e-02
      1.18906060e-02 1.55899059e-02</_>
    <_>
      5.26489615e-01 2.43361071e-01 8.94437805e-02 3.85784134e-02
      2.02140305e-02 8.19130689e-02</_>
    <_>
      5.45604944e-01 1.99078456e-01 6.78166375e-02 5.37570901e-02
      2.78827976e-02 1.05860114e-01</_>
    <_>
      5.05113006e-01 8.09241235e-02 5.15086465e-02 3.92627195e-02
      5.34023494e-02 2.69789159e-01</_>
    <_>
      4.25330829e-03 4.54867668e-02 8.22660685e-01 1.20746695e-01
      3.78071843e-03 3.07183363e-03</_>
    <_>
      5.05907357e-01 1.54064268e-01 6.46266565e-02 3.66257094e-02
      4.54867668e-02 1.93289220e-01</_>
    <_>
      6.96292698e-01 4.72165197e-02 1.14720445e-02 9.05687734e-03
      2.78951824e-02 2.08066657e-01</_>
    <_>
      3.40277791e-01 2.78628111e-01 1.78004533e-01 5.88151924e-02
      2.25340128e-02 1.21740364e-01</_>
    <_>
      2.12429106e-01 1.98487714e-02 1.04914933e-01 2.95841217e-01
      1.49810970e-01 2.17155010e-01</_>
    <_>
      2.90642716e-02 6.35633245e-02 5.17603993e-01 3.57514173e-01
      2.28024572e-02 9.45179630e-03</_>
    <_>
      4.21446674e-02 8.23572055e-02 5.57058334e-01 3.03344995e-01
      1.01437028e-02 4.95109288e-03</_>
    <_>
      3.59522671e-01 1.13185257e-01 1.35633275e-01 1.47920609e-01
      1.07396029e-01 1.36342153e-01</_>
    <_>
      4.72707927e-01 1.50165409e-01 9.07372385e-02 6.41540661e-02
      4.93856333e-02 1.72849715e-01</_>
    <_>
      2.66878046e-02 6.67195171e-02 3.55661243e-01 5.44853985e-01
      3.69929988e-03 2.37812125e-03</_>
    <_>
      1.61743850e-01 7.11247623e-02 1.54182419e-01 4.99409258e-01
      6.53355420e-02 4.82041575e-02</_>
    <_>
      6.75039217e-02 1.31143585e-01 5.25781929e-01 2.45380998e-01
      1.60608627e-02 1.41287288e-02</_>
    <_>
      5.35589099e-01 3.29218119e-01 9.64791924e-02 1.05166892e-02
      7.16354232e-03 2.10333783e-02</_>
    <_>
      3.46016645e-01 1.71356857e-01 2.53137797e-01 1.28418550e-01
      2.73483954e-02 7.37217590e-02</_>
    <_>
      5.09215519e-02 1.48865785e-02 1.89154059e-01 6.53473556e-01
      6.93525523e-02 2.22117193e-02</_>
    <_>
      8.84943187e-01 3.55113633e-02 1.93698343e-03 2.45351251e-03
      4.51962790e-03 7.06353337e-02</_>
    <_>
      8.71416986e-01 7.47701451e-02 4.05624649e-03 3.10978899e-03
      9.46457591e-03 3.71822603e-02</_>
    <_>
      6.27362952e-02 1.91753313e-01 6.46857262e-01 8.61294866e-02
      3.54442338e-04 1.21691870e-02</_>
    <_>
      1.75229847e-01 1.10870741e-01 3.12736601e-01 2.76095182e-01
      4.81341258e-02 7.69334808e-02</_>
    <_>
      3.34357284e-02 7.00614378e-02 5.86129487e-01 2.76701331e-01
      2.23298669e-02 1.13421548e-02</_>
    <_>
      5.56612492e-01 1.09393582e-01 2.48381551e-02 2.57629808e-02
      8.90474319e-02 1.94345355e-01</_>
    <_>
      4.07231562e-02 1.05003655e-01 6.71110272e-01 1.55222788e-01
      1.68005843e-02 1.11395177e-02</_>
    <_>
      4.26136367e-02 1.74328517e-02 1.88274801e-01 6.88662171e-01
      4.40340899e-02 1.89824384e-02</_>
    <_>
      3.15099239e-01 3.35538760e-02 6.89981133e-02 1.78048208e-01
      1.74031198e-01 2.30269372e-01</_>
    <_>
      3.38435382e-01 4.12414968e-02 1.57738090e-01 2.28599772e-01
      8.63095224e-02 1.47675738e-01</_>
    <_>
      2.07644626e-01 1.13378100e-01 4.13094014e-01 2.03125000e-01
      1.69163216e-02 4.58419435e-02</_>
    <_>
      5.75496197e-01 1.51228741e-01 8.62476379e-02 4.30056714e-02
      2.18572784e-02 1.22164458e-01</_>
    <_>
      5.87479711e-01 2.30665222e-01 5.05678728e-02 3.16387229e-02
      1.82531103e-02 8.13953504e-02</_>
    <_>
      1.09762400e-01 2.74922520e-01 4.96384293e-01 1.07567146e-01
      2.58264458e-03 8.78099166e-03</_>
    <_>
      5.02834439e-01 3.96825410e-02 6.74603209e-02 4.62018140e-02
      3.74149643e-02 3.06405902e-01</_>
    <_>
      1.38855860e-01 4.08244170e-02 1.31193027e-01 5.60179651e-01
      9.39357877e-02 3.50112282e-02</_>
    <_>
      1.46258503e-01 2.53684800e-02 1.29393429e-01 4.82284576e-01
      1.21031746e-01 9.56632644e-02</_>
    <_>
      8.56123641e-02 3.83141749e-02 2.17465982e-01 5.44721901e-01
      5.73391467e-02 5.65464385e-02</_>
    <_>
      5.00568092e-01 2.39868704e-02 3.91364731e-02 2.28506494e-02
      3.21929045e-02 3.81264985e-01</_>
    <_>
      1.90616339e-01 7.01177269e-02 2.88781166e-01 2.87742376e-01
      6.94252104e-02 9.33171734e-02</_>
    <_>
      7.38669336e-01 4.48175743e-02 1.86845101e-02 3.42128538e-02
      4.91099618e-02 1.14505745e-01</_>
    <_>
      9.03818190e-01 7.45144635e-02 2.64235685e-04 5.28471370e-04
      1.32117851e-03 1.95534416e-02</_>
    <_>
      4.64034617e-01 1.60492152e-01 8.12601373e-02 7.88263902e-02
      3.67766358e-02 1.78610057e-01</_>
    <_>
      5.46668231e-01 2.56734401e-01 6.21455573e-02 3.09546310e-02
      2.03213617e-02 8.31758007e-02</_>
    <_>
      1.35847107e-01 1.40495867e-01 6.79235518e-01 4.35175635e-02 0.
      9.03925626e-04</_>
    <_>
      1.75448954e-01 2.13846881e-02 1.20037809e-01 3.23960304e-01
      1.93289220e-01 1.65879011e-01</_>
    <_>
      1.96616370e-02 1.88995581e-02 3.87136102e-01 5.53116918e-01
      1.66133214e-02 4.57247393e-03</_>
    <_>
      3.06301653e-01 1.67871907e-01 3.67252052e-01 9.46539268e-02
      7.74793373e-03 5.61725199e-02</_>
    <_>
      3.89542952e-02 2.06024926e-02 1.33829638e-01 6.41274214e-01
      1.27250686e-01 3.80886421e-02</_>
    <_>
      1.96128562e-01 5.89846596e-02 1.03360116e-01 4.52702701e-01
      1.15777940e-01 7.30460212e-02</_>
    <_>
      4.51869816e-02 2.00831033e-02 2.57790864e-01 6.20844901e-01
      4.81301956e-02 7.96398893e-03</_>
    <_>
      5.37060976e-01 4.00309935e-02 6.68904930e-02 1.23192146e-01
      4.93285134e-02 1.83496907e-01</_>
    <_>
      9.40546989e-01 4.84872498e-02 0. 0. 2.64235685e-04 1.07015455e-02</_>
    <_>
      6.73066497e-01 1.25743644e-02 1.14926985e-02 1.66306105e-02
      2.31206063e-02 2.63115197e-01</_>
    <_>
      2.67011732e-01 2.84055043e-02 1.31044060e-01 2.74712801e-01
      9.74624380e-02 2.01363459e-01</_>
    <_>
      1.28308132e-01 3.27268429e-02 2.29087904e-01 4.40099239e-01
      1.06450848e-01 6.33270293e-02</_>
    <_>
      3.83009642e-01 2.51288146e-01 2.51288146e-01 4.86193672e-02
      1.04373097e-02 5.53573780e-02</_>
    <_>
      1.81356326e-01 1.61862001e-02 8.83742943e-02 3.99810970e-01
      1.35633275e-01 1.78638935e-01</_>
    <_>
      6.72020316e-01 2.19176427e-01 2.58422904e-02 1.60608627e-02
      1.41287288e-02 5.27714044e-02</_>
    <_>
      2.67538637e-01 4.98876989e-01 1.88003704e-01 2.70841587e-02
      7.13436399e-03 1.13621354e-02</_>
    <_>
      5.73959112e-01 1.78232282e-01 2.99488679e-02 1.47918193e-02
      3.90796214e-02 1.63988307e-01</_>
    <_>
      8.09882432e-02 7.94028267e-02 2.84713954e-01 4.75492150e-01
      4.51843031e-02 3.42185237e-02</_>
    <_>
      6.69938028e-01 6.45661131e-02 3.74483466e-02 6.93440065e-02
      4.61002067e-02 1.12603307e-01</_>
    <_>
      4.89205897e-01 6.51432872e-02 6.12296425e-02 1.07940920e-01
      6.65320009e-02 2.09948242e-01</_>
    <_>
      8.00634176e-02 9.90883857e-02 3.46809357e-01 4.03223664e-01
      4.70339544e-02 2.37812120e-02</_>
    <_>
      0. 0. 3.33293080e-02 9.66429174e-01 1.20758363e-04 1.20758363e-04</_>
    <_>
      3.32128108e-01 5.30733466e-02 9.46539268e-02 2.50129133e-01
      1.03822313e-01 1.66193187e-01</_>
    <_>
      2.33223066e-01 1.10940456e-01 2.34758973e-01 2.11129487e-01
      8.56568962e-02 1.24291115e-01</_>
    <_>
      4.09565354e-03 2.47060377e-02 7.09472835e-01 2.57101327e-01
      3.56718199e-03 1.05694274e-03</_>
    <_>
      1.23415045e-01 8.27194750e-02 2.63011724e-01 3.44885886e-01
      9.44330394e-02 9.15348381e-02</_>
    <_>
      6.83625817e-01 2.37343777e-02 5.42860758e-03 5.42860758e-03
      1.64120700e-02 2.65370548e-01</_>
    <_>
      5.79180010e-03 1.76802315e-02 4.13504034e-01 5.52354813e-01
      8.53528455e-03 2.13382114e-03</_>
    <_>
      1.15929708e-01 1.10827662e-01 4.18509066e-01 2.73667812e-01
      4.80442159e-02 3.30215432e-02</_>
    <_>
      4.37145270e-02 8.88781548e-02 6.44366622e-01 1.95024759e-01
      1.65438950e-02 1.14720445e-02</_>
    <_>
      6.72479868e-02 4.69018370e-02 5.52648962e-01 3.15629542e-01
      1.25511959e-02 5.02047827e-03</_>
    <_>
      3.61413032e-01 2.29206055e-01 2.24834591e-01 9.10916850e-02
      3.03638950e-02 6.30907342e-02</_>
    <_>
      2.91587889e-01 4.67391312e-01 1.80883750e-01 2.16209833e-02
      9.21550114e-03 2.93005668e-02</_>
    <_>
      3.28331769e-01 1.91044420e-01 2.08175808e-01 1.93879962e-01
      2.31569000e-02 5.54111525e-02</_>
    <_>
      6.63601935e-01 6.63872361e-02 4.92157936e-02 4.11032997e-02
      2.59599779e-02 1.53731748e-01</_>
    <_>
      5.74184179e-01 2.04782672e-02 4.79587801e-02 1.23001717e-01
      6.32844493e-02 1.71092615e-01</_>
    <_>
      5.30245721e-01 3.69801521e-02 1.70132332e-02 1.25236288e-01
      1.15311906e-01 1.75212666e-01</_>
    <_>
      2.25594014e-01 4.50413227e-01 2.70532012e-01 3.86105366e-02
      3.74483480e-03 1.11053716e-02</_>
    <_>
      5.12088776e-01 1.31193027e-01 1.84172288e-01 3.30294631e-02
      1.44008454e-02 1.25115603e-01</_>
    <_>
      5.59835792e-01 1.70269296e-01 5.25298864e-02 3.56237181e-02
      3.46576497e-02 1.47083685e-01</_>
    <_>
      9.58161131e-02 6.88274801e-02 4.63842988e-01 3.30061972e-01
      1.88533049e-02 2.25981399e-02</_>
    <_>
      4.87438440e-01 7.82729462e-02 7.65054896e-02 7.81466961e-02
      5.41598275e-02 2.25476578e-01</_>
    <_>
      4.34488595e-01 7.80099034e-02 9.15348381e-02 1.23656563e-01
      6.70208931e-02 2.05289215e-01</_>
    <_>
      5.40540554e-02 3.39663997e-02 2.78305322e-01 5.61906517e-01
      5.40540554e-02 1.77136604e-02</_>
    <_>
      5.26753843e-01 2.07160786e-01 1.30928785e-01 4.98084277e-02
      1.42687280e-02 7.10794032e-02</_>
    <_>
      1.30385486e-02 1.17630381e-02 4.05045360e-01 5.59098661e-01
      9.21201799e-03 1.84240367e-03</_>
    <_>
      1.98526755e-01 8.70667771e-02 2.13742301e-01 2.99480736e-01
      8.73082951e-02 1.13875136e-01</_>
    <_>
      2.51420468e-01 1.62448347e-01 3.44008267e-01 1.59607440e-01
      2.06611566e-02 6.18543401e-02</_>
    <_>
      3.53305787e-01 6.79235533e-02 1.43465906e-01 2.64333665e-01
      9.03925598e-02 8.05785134e-02</_>
    <_>
      8.74391556e-01 2.27149818e-02 5.54353697e-03 4.32666298e-03
      1.41968634e-02 7.88263902e-02</_>
    <_>
      7.84971654e-01 1.16493382e-01 9.21550114e-03 8.03402625e-03
      1.45321358e-02 6.67533055e-02</_>
    <_>
      4.39291835e-01 1.00277446e-01 2.21165285e-01 1.30268201e-01
      2.24600341e-02 8.65371898e-02</_>
    <_>
      3.43428887e-02 1.66306105e-02 1.25608444e-01 7.10384011e-01
      9.93780419e-02 1.36560304e-02</_>
    <_>
      2.67840266e-01 1.03024572e-01 1.51110590e-01 1.57254249e-01
      1.15902647e-01 2.04867676e-01</_>
    <_>
      8.76601934e-01 5.61500862e-02 5.02047827e-03 5.41683193e-03
      7.53071718e-03 4.92799580e-02</_>
    <_>
      5.15954554e-01 1.46024879e-02 6.62520295e-03 2.73120608e-02
      7.54461884e-02 3.60059500e-01</_>
    <_>
      4.13516052e-02 1.74858216e-02 1.30671084e-01 7.54844069e-01
      4.44234386e-02 1.12240072e-02</_>
    <_>
      5.80836773e-01 1.26291320e-01 1.82463840e-01 1.04338840e-01
      4.39049583e-03 1.67871895e-03</_>
    <_>
      2.80646384e-01 3.72427739e-02 5.78209832e-02 2.42898628e-01
      1.66645631e-01 2.14745611e-01</_>
    <_>
      1.45691603e-01 3.24546471e-02 3.20294797e-01 4.29280043e-01
      4.52097505e-02 2.70691607e-02</_>
    <_>
      3.89483422e-01 6.15669191e-02 1.55634820e-01 3.25802624e-01
      3.91068831e-02 2.84053367e-02</_>
    <_>
      6.95016012e-02 9.54122841e-02 2.54381955e-01 5.59670806e-01
      1.90519746e-02 1.98140531e-03</_>
    <_>
      5.85775018e-01 3.74527425e-02 5.60018905e-02 1.30316630e-01
      9.31001902e-02 9.73534957e-02</_>
    <_>
      3.32583100e-01 6.28462583e-02 8.43144059e-02 1.78670362e-01
      1.40927970e-01 2.00657889e-01</_>
    <_>
      2.08614081e-01 2.99643278e-01 3.28180730e-01 1.06883340e-01
      1.46650812e-02 4.20134775e-02</_>
    <_>
      5.43412613e-03 4.95109288e-03 6.11037314e-02 8.63422275e-01
      6.27943501e-02 2.29440886e-03</_>
    <_>
      6.92671716e-01 2.03758791e-01 2.62303948e-02 1.09518655e-02
      5.81395347e-03 6.05732836e-02</_>
    <_>
      7.86138117e-01 5.68110077e-03 2.52493366e-04 1.26246683e-04
      6.05984079e-03 2.01742202e-01</_>
    <_>
      4.49597031e-01 4.54617530e-01 5.40362000e-02 1.67789664e-02
      7.92707130e-03 1.70432031e-02</_>
    <_>
      3.04702282e-01 9.33364853e-02 1.00070886e-01 2.32868627e-01
      9.85349715e-02 1.70486763e-01</_>
    <_>
      2.66776949e-01 1.04678638e-01 1.96833655e-01 2.04395086e-01
      7.99858198e-02 1.47329867e-01</_>
    <_>
      6.20351255e-01 2.87190080e-01 3.46074365e-02 2.80216951e-02
      4.00309917e-03 2.58264467e-02</_>
    <_>
      3.67510319e-01 2.00671494e-01 2.25077480e-01 1.00077480e-01
      3.16373967e-02 7.50258267e-02</_>
    <_>
      1.94727898e-01 1.29393429e-01 3.99092972e-01 2.25765303e-01
      2.39512473e-02 2.70691607e-02</_>
    <_>
      2.62641788e-01 1.37759924e-01 1.72140837e-01 2.29796782e-01
      8.29395056e-02 1.14721172e-01</_>
    <_>
      3.89455795e-01 1.98129252e-01 2.12018147e-01 1.00907028e-01
      1.72902495e-02 8.21995437e-02</_>
    <_>
      1.52415785e-04 3.04831570e-04 4.01005954e-01 5.97012639e-01
      1.52415794e-03 0.</_>
    <_>
      2.52126664e-01 4.92674857e-02 1.14839323e-01 3.70628536e-01
      1.05623819e-01 1.07514180e-01</_>
    <_>
      4.70521539e-01 1.16638325e-01 2.50992060e-01 7.44047612e-02
      1.54478457e-02 7.19954669e-02</_>
    <_>
      1.34684920e-01 4.17355359e-01 3.83393586e-01 5.50103299e-02
      3.22830584e-03 6.32747915e-03</_>
    <_>
      1.24190776e-02 1.54577885e-02 3.66627038e-01 5.93473375e-01
      7.26648187e-03 4.75624250e-03</_>
    <_>
      7.60338247e-01 1.51539177e-01 3.23688723e-02 8.58766027e-03
      1.42687280e-02 3.28973457e-02</_>
    <_>
      2.04276934e-01 1.59499049e-02 1.09286390e-01 3.10609639e-01
      1.73676744e-01 1.86200380e-01</_>
    <_>
      3.66348147e-01 1.37138426e-01 1.68001026e-01 1.29648760e-01
      4.14514467e-02 1.57412186e-01</_>
    <_>
      2.57511348e-01 1.26133785e-01 1.91043079e-01 1.93310663e-01
      1.02182537e-01 1.29818588e-01</_>
    <_>
      7.94618726e-01 5.62466197e-02 1.16279069e-02 6.21957798e-03
      1.24391560e-02 1.18848026e-01</_>
    <_>
      5.25623262e-01 9.69529077e-02 2.82202214e-02 1.92174520e-02
      3.84349041e-02 2.91551232e-01</_>
    <_>
      5.24639964e-01 1.10582642e-01 3.10476944e-02 4.25419472e-02
      6.23596236e-02 2.28828117e-01</_>
    <_>
      8.41695011e-01 8.31916109e-02 4.25170059e-04 2.83446716e-04
      3.68480734e-03 7.07199574e-02</_>
    <_>
      4.72589803e-04 0. 1.78402644e-02 9.80151236e-01 8.27032141e-04
      7.08884676e-04</_>
    <_>
      7.34591424e-01 4.03393358e-02 4.67451522e-03 1.54085876e-02
      2.06024926e-02 1.84383661e-01</_>
    <_>
      3.86105366e-02 7.15392530e-02 5.45583665e-01 3.12112600e-01
      2.32438017e-02 8.91012419e-03</_>
    <_>
      2.67390490e-01 9.98611301e-02 2.79888898e-01 1.77629083e-01
      4.33026142e-02 1.31927788e-01</_>
    <_>
      5.97469881e-02 4.77061421e-02 3.27236712e-01 4.89102274e-01
      5.28882779e-02 2.33196151e-02</_>
    <_>
      7.55273104e-01 3.33964303e-02 1.09518655e-02 8.92374292e-03
      1.40616549e-02 1.77393183e-01</_>
    <_>
      3.76842409e-01 2.99603164e-01 2.21230164e-01 4.77607697e-02
      5.81065752e-03 4.87528332e-02</_>
    <_>
      2.19138060e-02 9.14901420e-02 6.76588774e-01 1.72571227e-01
      2.62965672e-02 1.11395177e-02</_>
    <_>
      3.03140972e-02 2.22790353e-02 9.24032107e-02 7.96566844e-01
      4.89408337e-02 9.49598290e-03</_>
    <_>
      0. 0. 2.91723818e-01 7.08276153e-01 0. 0.</_>
    <_>
      1.43347859e-01 5.19223154e-01 2.74408787e-01 4.98084277e-02
      3.17082833e-03 1.00409565e-02</_>
    <_>
      3.74256343e-01 4.77285013e-02 1.24391563e-01 2.87452668e-01
      9.65386704e-02 6.96322322e-02</_>
    <_>
      6.86082244e-01 8.64839330e-02 2.09120978e-02 1.15784500e-02
      3.49716432e-02 1.59971640e-01</_>
    <_>
      5.80229759e-01 9.55687389e-02 7.51167759e-02 5.15086465e-02
      3.38341109e-02 1.63741946e-01</_>
    <_>
      5.82659125e-01 1.44306242e-01 4.95109297e-02 2.06496809e-02
      3.56237181e-02 1.67250335e-01</_>
    <_>
      7.67902434e-01 4.83033434e-02 4.97524440e-02 1.00591719e-01
      1.21965948e-02 2.12534722e-02</_>
    <_>
      9.67200398e-02 5.74638434e-02 4.42665279e-01 3.57179761e-01
      1.52376033e-02 3.07334717e-02</_>
    <_>
      3.06967765e-01 7.93382451e-02 2.13742301e-01 3.70124370e-01
      1.41287288e-02 1.56985875e-02</_>
    <_>
      9.34258580e-01 6.75675692e-03 0. 0. 4.01753094e-03 5.49671277e-02</_>
    <_>
      3.77225101e-01 4.65850271e-02 1.37482643e-01 1.20944329e-01
      5.20136356e-02 2.65749276e-01</_>
    <_>
      3.61531191e-02 3.49716432e-02 5.22920609e-01 3.83506626e-01
      1.38232512e-02 8.62476416e-03</_>
    <_>
      2.52362937e-01 3.60349715e-02 9.21550095e-02 3.14744800e-01
      1.85727790e-01 1.18974477e-01</_>
    <_>
      6.80397749e-01 1.73682854e-01 4.48088832e-02 3.15082632e-02
      1.02014467e-02 5.94008267e-02</_>
    <_>
      2.08878323e-01 1.20623596e-01 2.68859833e-01 2.52609342e-01
      6.14348017e-02 8.75941366e-02</_>
    <_>
      8.65837485e-02 8.74290541e-02 4.20359850e-01 3.80147338e-01
      1.12305274e-02 1.42494868e-02</_>
    <_>
      4.09565344e-02 3.39674979e-01 5.12485147e-01 1.03976749e-01
      1.32117851e-03 1.58541417e-03</_>
    <_>
      7.95700371e-01 1.11276366e-01 2.02812329e-02 7.03082746e-03
      1.16279069e-02 5.40832877e-02</_>
    <_>
      8.25420022e-02 3.30533236e-02 1.91928416e-01 5.62089145e-01
      8.94813761e-02 4.09057699e-02</_>
    <_>
      7.81368315e-01 4.81341258e-02 6.35478646e-03 5.40832896e-03
      1.79826934e-02 1.40751764e-01</_>
    <_>
      7.13305920e-02 4.78585586e-02 2.75720179e-01 5.12574315e-01
      6.00518212e-02 3.24645638e-02</_>
    <_>
      9.00118887e-01 3.54075842e-02 0. 6.60589256e-04 3.96353565e-03
      5.98493852e-02</_>
    <_>
      5.01123011e-01 6.26238585e-02 1.22076891e-01 1.85889810e-01
      3.76535878e-02 9.06328410e-02</_>
    <_>
      4.24418598e-01 5.04326671e-02 1.16819903e-01 3.04759324e-01
      5.23255803e-02 5.12439162e-02</_>
    <_>
      6.00410581e-01 6.75039217e-02 2.22195387e-02 1.87175460e-02
      5.80847710e-02 2.33063638e-01</_>
    <_>
      7.26843119e-01 7.17155039e-02 1.37051037e-02 2.04395093e-02
      1.71313807e-02 1.50165409e-01</_>
    <_>
      4.49221097e-02 1.76669478e-01 6.37845695e-01 1.19792297e-01
      1.03852190e-02 1.03852190e-02</_>
    <_>
      2.42341105e-02 6.06614836e-02 3.08641970e-01 5.99908531e-01
      3.96281062e-03 2.59106839e-03</_>
    <_>
      7.31932893e-02 1.31589383e-01 5.43004334e-01 2.21957982e-01
      1.00409565e-02 2.02140305e-02</_>
    <_>
      4.77143586e-01 6.65031001e-02 8.14824402e-02 1.53150827e-01
      8.43233466e-02 1.37396693e-01</_>
    <_>
      5.58858514e-01 5.12617268e-02 4.35988903e-02 4.24098298e-02
      5.69427945e-02 2.46928260e-01</_>
    <_>
      8.89940500e-01 3.65062198e-03 0. 0. 2.29853974e-03 1.04110330e-01</_>
    <_>
      8.49107653e-02 8.24770182e-02 3.77366155e-01 4.26176310e-01
      1.33856134e-02 1.56841539e-02</_>
    <_>
      2.69966930e-01 6.32088855e-02 1.37287334e-01 2.76583165e-01
      1.27126649e-01 1.25827029e-01</_>
    <_>
      2.69916773e-01 2.41115078e-01 2.64103591e-01 1.23926543e-01
      4.20134775e-02 5.89245595e-02</_>
    <_>
      6.78250268e-02 7.77320564e-02 3.46441090e-01 4.16399926e-01
      5.92897423e-02 3.23121473e-02</_>
    <_>
      4.60006922e-01 6.30193874e-02 6.18074797e-02 1.79882273e-01
      9.79916900e-02 1.37292251e-01</_>
    <_>
      3.38123403e-02 2.58422904e-02 2.70981759e-01 6.59582198e-01
      6.15867646e-03 3.62275098e-03</_>
    <_>
      4.68927234e-01 3.16635147e-02 4.33601141e-02 2.02622876e-01
      1.14603028e-01 1.38823256e-01</_>
    <_>
      5.26113927e-01 1.53214023e-01 1.31300226e-01 1.70927688e-01
      6.39152667e-03 1.20525928e-02</_>
    <_>
      8.90796185e-01 1.77136604e-02 7.30460219e-04 3.65230109e-04
      2.19138060e-03 8.82030651e-02</_>
    <_>
      5.87660193e-01 1.74263448e-01 6.24917410e-02 3.83141749e-02
      1.96855590e-02 1.17584884e-01</_>
    <_>
      6.77804708e-01 1.57375351e-01 2.94321328e-02 2.70083100e-02
      3.01246531e-02 7.82548487e-02</_>
    <_>
      1.98979586e-01 1.93735823e-01 3.64229023e-01 1.95436507e-01
      1.07709747e-02 3.68480720e-02</_>
    <_>
      5.94421588e-02 4.86206375e-02 3.20530415e-01 5.08154273e-01
      4.29812521e-02 2.02712994e-02</_>
    <_>
      1.63223147e-01 3.02556813e-01 4.38533068e-01 7.36053735e-02
      1.16219011e-03 2.09194217e-02</_>
    <_>
      3.35314730e-03 8.99253134e-03 4.82548386e-01 5.03429353e-01
      1.52415794e-03 1.52415785e-04</_>
    <_>
      8.84039462e-01 1.07012421e-01 6.02629641e-03 2.73922575e-03 0.
      1.82615055e-04</_>
    <_>
      2.14746907e-01 9.73656997e-02 3.09400827e-01 2.79571295e-01
      3.04752067e-02 6.84400797e-02</_>
    <_>
      1.21455580e-01 1.57136112e-01 4.83577490e-01 1.77339315e-01
      3.13090719e-02 2.91824192e-02</_>
    <_>
      6.18074797e-02 1.73130203e-02 2.07236841e-01 6.16343498e-01
      7.13296384e-02 2.59695295e-02</_>
    <_>
      1.10664718e-01 7.66983181e-02 3.19393724e-01 3.81117612e-01
      8.30898434e-02 2.90357918e-02</_>
    <_>
      7.90562451e-01 1.87939424e-02 3.10978899e-03 5.40832896e-03
      2.29853969e-02 1.59140080e-01</_>
    <_>
      5.39830804e-01 2.24719107e-01 8.54690075e-02 4.79737408e-02
      1.03522278e-02 9.16550905e-02</_>
    <_>
      3.07933819e-02 8.46516117e-02 4.78323877e-01 3.83649319e-01
      1.49740372e-02 7.60777667e-03</_>
    <_>
      8.61672640e-01 1.00409565e-02 7.92707084e-04 6.60589256e-04
      6.73801033e-03 1.20095126e-01</_>
    <_>
      3.28568041e-01 5.25756143e-02 1.05623819e-01 2.23416820e-01
      1.24881856e-01 1.64933830e-01</_>
    <_>
      2.42382265e-03 7.09833810e-03 6.40062332e-01 3.48337948e-01
      1.55817170e-03 5.19390567e-04</_>
    <_>
      2.81675249e-01 4.56070811e-01 2.24600345e-01 2.89338082e-02
      2.11388548e-03 6.60589244e-03</_>
    <_>
      2.37020016e-01 3.86695527e-02 1.30746350e-01 4.71335858e-01
      6.74689040e-02 5.47593310e-02</_>
    <_>
      6.06003225e-01 7.49053508e-02 7.76095167e-02 7.15251490e-02
      3.27203907e-02 1.37236342e-01</_>
    <_>
      5.89643061e-01 3.59653868e-02 9.87020042e-03 1.55489454e-02
      3.38020548e-02 3.15170348e-01</_>
    <_>
      2.67840266e-01 2.49291118e-02 9.39272195e-02 2.90760875e-01
      1.38705105e-01 1.83837429e-01</_>
    <_>
      3.69665742e-01 1.10846877e-01 2.25260928e-01 2.79297143e-01
      8.19130708e-03 6.73801033e-03</_>
    <_>
      2.78827965e-01 4.50141765e-02 1.04796790e-01 2.34758973e-01
      1.67414933e-01 1.69187143e-01</_>
    <_>
      1.06332704e-01 2.81190928e-02 1.85018897e-01 5.08388460e-01
      9.43998098e-02 7.77410194e-02</_>
    <_>
      7.27559626e-01 5.07511683e-02 1.84320156e-02 2.47443505e-02
      4.46913280e-02 1.33821487e-01</_>
    <_>
      8.64927709e-01 5.38481399e-02 1.71745867e-02 5.51394634e-02
      1.42045459e-03 7.48966960e-03</_>
    <_>
      1.98837861e-01 3.45804989e-02 2.79053301e-01 3.77834469e-01
      3.42970528e-02 7.53968284e-02</_>
    <_>
      8.91968608e-01 5.21903746e-02 3.78583022e-03 8.38290993e-03
      9.59978346e-03 3.40724699e-02</_>
    <_>
      4.62280363e-01 1.63033426e-01 6.63231611e-02 3.28973457e-02
      2.37812120e-02 2.51684517e-01</_>
    <_>
      6.31519258e-01 1.29818588e-01 3.50056700e-02 1.55895688e-02
      2.08333340e-02 1.67233557e-01</_>
    <_>
      8.82639289e-01 7.27420226e-02 1.75770686e-03 5.40832873e-04
      6.48999447e-03 3.58301774e-02</_>
    <_>
      9.22388613e-01 1.11395177e-02 0. 0. 1.64353545e-03 6.48283437e-02</_>
    <_>
      3.73464078e-01 3.06238174e-01 2.45746687e-01 5.65926284e-02
      9.56994295e-03 8.38846900e-03</_>
    <_>
      3.04111540e-01 1.24054819e-01 2.00141773e-01 1.66706055e-01
      7.97495246e-02 1.25236288e-01</_>
    <_>
      8.28961611e-01 1.06814494e-02 3.65062198e-03 2.16333149e-03
      1.74418613e-02 1.37101129e-01</_>
    <_>
      2.47991487e-01 9.67627615e-02 2.66776949e-01 2.60396987e-01
      4.30056714e-02 8.50661620e-02</_>
    <_>
      2.48783119e-02 4.11032997e-02 4.73499179e-01 4.27393198e-01
      2.17685234e-02 1.13574909e-02</_>
    <_>
      9.18483257e-01 1.67789664e-02 1.32117851e-03 1.18906063e-03
      1.03051923e-02 5.19223139e-02</_>
    <_>
      1.40447840e-01 1.80839002e-01 4.46428567e-01 1.97987527e-01
      7.93650839e-03 2.63605434e-02</_>
    <_>
      7.45606601e-01 9.83560085e-02 7.22789094e-02 5.04535139e-02
      1.26133785e-02 2.06916109e-02</_>
    <_>
      1.89154059e-01 2.81190928e-02 8.96739140e-02 3.75945181e-01
      1.50756150e-01 1.66351601e-01</_>
    <_>
      2.24600341e-02 5.83960898e-02 3.19593072e-01 5.95587254e-01
      6.60589256e-04 3.30294622e-03</_>
    <_>
      1.03969753e-01 4.66682427e-02 1.50637999e-01 5.82703233e-01
      8.19943324e-02 3.40264663e-02</_>
    <_>
      9.05954659e-01 5.08034043e-02 6.14366727e-03 3.18998098e-03
      1.01606809e-02 2.37476379e-02</_>
    <_>
      3.31776291e-01 1.80280268e-01 2.63350576e-01 1.12990782e-01
      1.67908091e-02 9.48112607e-02</_>
    <_>
      8.61952424e-01 8.63980502e-02 1.89291511e-03 1.21687399e-03
      7.43645197e-03 4.11032997e-02</_>
    <_>
      5.89774072e-01 2.83789128e-01 3.42185237e-02 2.57629808e-02
      1.07015455e-02 5.57537340e-02</_>
    <_>
      5.15591443e-01 4.34288606e-02 6.90569356e-02 1.05794720e-01
      7.70104751e-02 1.89117536e-01</_>
    <_>
      9.29015696e-01 1.71714444e-02 5.40832873e-04 6.76041120e-04
      2.97458074e-03 4.96214181e-02</_>
    <_>
      7.74210572e-01 1.83511689e-01 5.81318559e-03 3.30294622e-03
      5.28471405e-03 2.78768670e-02</_>
    <_>
      5.51745147e-02 4.38957475e-02 3.51623237e-01 5.27815878e-01
      1.47843314e-02 6.70629460e-03</_>
    <_>
      3.93763423e-01 7.65054896e-02 1.40386313e-01 1.32559016e-01
      5.99671751e-02 1.96818590e-01</_>
    <_>
      5.70984304e-01 2.02947542e-01 9.96484607e-02 3.67766358e-02
      1.83883179e-02 7.12547302e-02</_>
    <_>
      4.29238737e-01 6.16083816e-02 8.35753083e-02 1.48844838e-01
      7.09506348e-02 2.05782101e-01</_>
    <_>
      7.91571081e-01 5.94131127e-02 9.05687734e-03 1.03852190e-02
      1.92005802e-02 1.10373147e-01</_>
    <_>
      8.02087486e-01 4.00317088e-02 3.43506411e-03 2.51023914e-03
      8.19130708e-03 1.43744215e-01</_>
    <_>
      3.30694705e-01 9.23913047e-02 2.41138935e-01 2.21526459e-01
      1.76039692e-02 9.66446102e-02</_>
    <_>
      2.83574373e-01 1.08341940e-01 1.87370867e-01 2.22107440e-01
      4.45506200e-02 1.54054746e-01</_>
    <_>
      7.84780025e-01 1.31589383e-01 1.18906060e-02 1.21548418e-02
      8.32342450e-03 5.12617268e-02</_>
    <_>
      2.17509449e-01 2.75283549e-02 6.25000000e-02 3.51843089e-01
      2.01559544e-01 1.39059544e-01</_>
    <_>
      8.77366126e-01 5.61114103e-02 4.05624649e-03 7.43645197e-03
      1.08166579e-02 4.42130864e-02</_>
    <_>
      5.22030056e-01 3.59803066e-02 1.52758490e-02 7.23393485e-02
      7.99141526e-02 2.74460286e-01</_>
    <_>
      2.14906260e-02 5.57841808e-02 6.33287609e-01 2.88218260e-01
      4.57247370e-04 7.62078969e-04</_>
    <_>
      4.49196607e-01 1.99669190e-02 4.09971662e-02 2.75637984e-01
      1.44376189e-01 6.98251426e-02</_>
    <_>
      3.69614512e-01 1.15646258e-01 1.80413827e-01 1.93594098e-01
      3.84070277e-02 1.02324262e-01</_>
    <_>
      3.70458454e-01 3.85784134e-02 9.92205068e-02 1.40309155e-01
      7.80816525e-02 2.73351818e-01</_>
    <_>
      3.93465906e-01 6.99896663e-02 1.24096073e-01 2.78409094e-01
      5.68181835e-02 7.72210732e-02</_>
    <_>
      6.97589517e-02 3.15924026e-02 7.21329451e-02 7.31738508e-01
      7.54200146e-02 1.93571951e-02</_>
    <_>
      8.40720236e-01 1.13746539e-01 7.44459825e-03 2.77008303e-03
      5.36703598e-03 2.99515240e-02</_>
    <_>
      2.44704168e-02 3.32359374e-02 2.40869254e-01 6.62344754e-01
      3.14097889e-02 7.66983209e-03</_>
    <_>
      8.80823135e-01 2.99204644e-02 6.31233444e-04 8.83726811e-04
      6.31233444e-04 8.71102139e-02</_>
    <_>
      4.49464917e-01 2.98586339e-02 2.94622798e-02 8.29700083e-02
      8.21773037e-02 3.26066852e-01</_>
    <_>
      3.23688723e-02 6.90976381e-02 6.81860209e-01 2.15219975e-01
      5.28471370e-04 9.24824970e-04</_>
    <_>
      1.33308982e-02 7.83418566e-02 8.17384958e-01 8.67421478e-02
      2.92184087e-03 1.27830531e-03</_>
    <_>
      8.27474296e-01 6.81449398e-02 1.58193614e-02 3.92103847e-03
      1.58193614e-02 6.88209832e-02</_>
    <_>
      1.93559557e-01 1.47160664e-02 1.02146812e-01 3.13365638e-01
      1.29328251e-01 2.46883661e-01</_>
    <_>
      1.09934255e-01 7.59678632e-02 3.05697590e-01 3.85500371e-01
      6.33674189e-02 5.95325045e-02</_>
    <_>
      7.33560085e-01 1.22307256e-01 5.10204099e-02 4.70521525e-02
      1.95578225e-02 2.65022684e-02</_>
    <_>
      9.75897908e-02 1.54773155e-02 1.29607752e-01 6.33270323e-01
      9.22731534e-02 3.17816623e-02</_>
    <_>
      9.92063526e-03 1.70068024e-03 8.24829936e-02 8.81094098e-01
      2.23922897e-02 2.40929704e-03</_>
    <_>
      2.10420609e-01 6.34451807e-02 1.81001887e-01 3.60467851e-01
      8.28213617e-02 1.01843104e-01</_>
    <_>
      2.21606642e-01 6.31925240e-02 2.01350421e-01 2.46364266e-01
      1.07340723e-01 1.60145432e-01</_>
    <_>
      1.85330138e-01 8.30703229e-02 2.83550054e-01 3.04885745e-01
      5.81997223e-02 8.49640220e-02</_>
    <_>
      1.06146693e-01 1.26291320e-01 5.98527908e-01 1.44111574e-01
      3.87396687e-03 2.10485533e-02</_>
    <_>
      2.72250563e-01 4.97448966e-02 1.04024947e-01 4.63293642e-01
      5.54138310e-02 5.52721098e-02</_>
    <_>
      7.40805864e-01 1.50216326e-01 1.18983230e-02 8.11249297e-03
      1.39264464e-02 7.50405639e-02</_>
    <_>
      1.62925899e-01 5.32720387e-02 3.46673876e-01 3.14899951e-01
      5.58409952e-02 6.63872361e-02</_>
    <_>
      3.72440219e-01 1.70432031e-01 1.29475489e-01 8.90474319e-02
      6.83049262e-02 1.70299903e-01</_>
    <_>
      8.73936653e-01 2.00850666e-02 4.96219285e-03 1.76039692e-02
      2.07939502e-02 6.26181439e-02</_>
    <_>
      1.27770081e-01 2.56232694e-02 1.16170362e-01 4.91170347e-01
      1.79709136e-01 5.95567860e-02</_>
    <_>
      9.82142836e-02 1.60714284e-01 4.30130392e-01 2.73384362e-01
      1.38888890e-02 2.36678012e-02</_>
    <_>
      1.58163264e-01 1.57738090e-01 4.17800456e-01 2.05215424e-01
      1.87074821e-02 4.23752852e-02</_>
    <_>
      6.75170064e-01 1.18197277e-01 8.02154168e-02 8.67346972e-02
      1.71485264e-02 2.25340128e-02</_>
    <_>
      1.19434536e-01 1.05297923e-01 2.60800630e-01 4.22645003e-01
      5.35077304e-02 3.83141749e-02</_>
    <_>
      3.46288681e-01 3.20073158e-01 2.17192501e-01 5.60890101e-02
      1.15836002e-02 4.87730540e-02</_>
    <_>
      7.39859939e-01 5.53573780e-02 2.25921515e-02 3.03871054e-02
      2.33848598e-02 1.28418550e-01</_>
    <_>
      0. 2.36294902e-04 1.56899810e-01 8.42154980e-01 7.08884676e-04 0.</_>
    <_>
      6.93482935e-01 4.62412126e-02 8.78853444e-03 7.97728542e-03
      2.44726874e-02 2.19037324e-01</_>
    <_>
      3.95823807e-01 1.04404815e-01 1.39308035e-01 1.33363813e-01
      5.94421588e-02 1.67657375e-01</_>
    <_>
      5.75141788e-01 1.86082229e-01 5.18667288e-02 2.33931951e-02
      3.66257094e-02 1.26890361e-01</_>
    <_>
      1.35214686e-01 2.25069243e-02 1.85422435e-01 3.68594170e-01
      1.38677284e-01 1.49584487e-01</_>
    <_>
      2.72329867e-01 1.88917771e-01 2.57088840e-01 1.55954629e-01
      3.82797718e-02 8.74291137e-02</_>
    <_>
      6.39777780e-01 1.24381110e-01 2.93442812e-02 2.75329072e-02
      3.44161317e-02 1.44547760e-01</_>
    <_>
      7.56261826e-01 8.76654088e-02 3.35538760e-02 1.45321358e-02
      1.90217383e-02 8.89650285e-02</_>
    <_>
      4.62817729e-01 5.40832877e-02 1.59816116e-01 9.41049233e-02
      4.86749597e-02 1.80502981e-01</_>
    <_>
      8.89204562e-01 3.78357433e-02 3.09917354e-03 5.68181835e-03
      7.48966960e-03 5.66890500e-02</_>
    <_>
      4.23553705e-01 8.85847136e-02 1.59478307e-01 1.20738633e-01
      5.08781001e-02 1.56766534e-01</_>
    <_>
      1.40447840e-01 7.18537420e-02 3.36309522e-01 3.19869608e-01
      6.56179115e-02 6.59013614e-02</_>
    <_>
      6.81818202e-02 8.97468999e-02 3.93724173e-01 4.01859492e-01
      2.18233466e-02 2.46642567e-02</_>
    <_>
      4.80116278e-01 1.43215746e-01 2.02536657e-01 4.05601785e-02
      1.30796675e-02 1.20491475e-01</_>
    <_>
      5.52339315e-01 6.67533055e-02 4.13516052e-02 1.43549144e-01
      1.06096409e-01 8.99102092e-02</_>
    <_>
      1.48983926e-01 4.15879004e-02 1.11176752e-01 4.47660685e-01
      1.20628543e-01 1.29962191e-01</_>
    <_>
      4.39390361e-01 4.27693762e-02 3.69801521e-02 6.81710765e-02
      9.54631343e-02 3.17225903e-01</_>
    <_>
      3.83491591e-02 2.26442665e-02 5.56975901e-02 8.25602651e-01
      4.69320677e-02 1.07742874e-02</_>
    <_>
      1.01437028e-02 2.83782147e-02 4.37266022e-01 4.84120280e-01
      3.15179341e-02 8.57384410e-03</_>
    <_>
      1.21416301e-01 1.02655567e-01 5.76826513e-01 1.61448017e-01
      4.88836039e-03 3.27652283e-02</_>
    <_>
      2.33063642e-02 9.10518020e-02 6.14539325e-01 2.66030669e-01
      2.65668402e-03 2.41516717e-03</_>
    <_>
      2.14030921e-01 1.63165540e-01 4.08772618e-01 1.41762450e-01
      1.92892067e-02 5.29792570e-02</_>
    <_>
      2.29914933e-01 2.09120978e-02 5.00945188e-02 3.30812842e-01
      1.91635162e-01 1.76630437e-01</_>
    <_>
      3.44990551e-01 2.68194713e-02 8.75472575e-02 1.70014173e-01
      1.41422495e-01 2.29206055e-01</_>
    <_>
      5.01830578e-01 5.89572042e-02 6.93094283e-02 1.93536162e-01
      6.45120591e-02 1.11854561e-01</_>
    <_>
      3.41656744e-01 4.73906726e-01 1.40837625e-01 1.29475491e-02
      8.19130708e-03 2.24600341e-02</_>
    <_>
      4.04948622e-01 3.10573280e-01 9.88372117e-02 6.76041096e-02
      3.38020548e-02 8.42347220e-02</_>
    <_>
      2.80045360e-01 5.05952388e-02 2.69416094e-01 2.22789109e-01
      8.61677974e-02 9.09863934e-02</_>
    <_>
      1.36939988e-01 4.33522537e-02 2.82695323e-01 4.61296946e-01
      4.41975594e-02 3.15179341e-02</_>
    <_>
      1.40237600e-01 6.55991733e-02 4.16967988e-01 3.37422520e-01
      1.44628100e-02 2.53099166e-02</_>
    <_>
      7.99845040e-01 1.17122933e-01 1.79493800e-02 1.63997933e-02
      1.25258267e-02 3.61570232e-02</_>
    <_>
      7.02812314e-01 1.06814496e-01 8.11249297e-03 5.27312048e-03
      1.98756084e-02 1.57111958e-01</_>
    <_>
      5.66928089e-01 9.57274213e-02 7.50405639e-02 5.73282838e-02
      4.15089242e-02 1.63466737e-01</_>
    <_>
      1.49540290e-01 1.03975125e-01 2.61222273e-01 3.64386141e-01
      6.21957816e-02 5.86803667e-02</_>
    <_>
      6.40235484e-01 2.20221609e-01 5.60941845e-02 1.40235461e-02
      1.69667583e-02 5.24584502e-02</_>
    <_>
      8.41326475e-01 1.36609852e-01 2.64235702e-03 4.35988884e-03
      5.68106771e-03 9.38036758e-03</_>
    <_>
      4.72165197e-02 1.58434972e-01 4.98852789e-01 2.81004697e-01
      7.72853522e-03 6.76246826e-03</_>
    <_>
      2.53269911e-01 1.93552643e-01 2.97793627e-01 1.64618835e-01
      2.52345093e-02 6.55304566e-02</_>
    <_>
      5.82639724e-02 9.65781510e-02 5.72334528e-01 2.51420259e-01
      1.16263712e-02 9.77672078e-03</_>
    <_>
      7.49054849e-02 1.37051037e-02 9.77079421e-02 6.19801521e-01
      1.56663522e-01 3.72164473e-02</_>
    <_>
      7.23342597e-02 1.37302265e-01 4.29537505e-01 3.02499712e-01
      3.61067504e-02 2.22195387e-02</_>
    <_>
      2.80470923e-02 4.57063727e-02 4.62950140e-01 4.35422450e-01
      1.99099723e-02 7.96398893e-03</_>
    <_>
      8.22606802e-01 1.91995669e-02 2.02812324e-03 9.46457556e-04
      1.62249859e-02 1.38994053e-01</_>
    <_>
      4.93460178e-01 7.45144635e-02 1.03844628e-01 2.34641299e-01
      4.51843031e-02 4.83551323e-02</_>
    <_>
      1.51142657e-01 2.64889188e-02 7.06371218e-02 4.44598347e-01
      2.08621889e-01 9.85110775e-02</_>
    <_>
      7.05509335e-02 6.79085776e-02 4.21059579e-01 3.92125785e-01
      3.02549880e-02 1.81001462e-02</_>
    <_>
      3.78544420e-01 6.42722100e-02 6.62807152e-02 1.23936675e-01
      1.25118151e-01 2.41847828e-01</_>
    <_>
      1.84436515e-01 5.68238854e-01 2.31602594e-01 1.34760207e-02
      1.45329640e-03 7.92707084e-04</_>
    <_>
      9.22314703e-01 1.28154317e-02 0. 2.64235685e-04 6.47377456e-03
      5.81318550e-02</_>
    <_>
      6.57366514e-01 9.59474817e-02 7.66317397e-02 3.10566854e-02
      1.16146952e-02 1.27382904e-01</_>
    <_>
      8.71552169e-01 7.34180659e-02 6.76041096e-03 4.19145497e-03
      7.03082746e-03 3.70470509e-02</_>
    <_>
      2.93509066e-01 2.22505666e-02 9.33956951e-02 3.06264162e-01
      1.06009074e-01 1.78571433e-01</_>
    <_>
      1.39314055e-01 3.88321988e-02 1.83106571e-01 3.61252844e-01
      1.45266443e-01 1.32227898e-01</_>
    <_>
      7.84072459e-01 8.46403465e-02 8.51811748e-03 4.73228795e-03
      1.56841539e-02 1.02352627e-01</_>
    <_>
      5.15122861e-02 2.49291118e-02 1.68241963e-01 6.76866710e-01
      5.71833663e-02 2.12665405e-02</_>
    <_>
      6.47014260e-01 4.65850271e-02 1.59070827e-02 3.34553719e-02
      3.95152122e-02 2.17523038e-01</_>
    <_>
      4.90931273e-01 4.71574455e-01 2.59106848e-02 7.16354232e-03
      4.57247370e-04 3.96281062e-03</_>
    <_>
      1.78202480e-01 5.28150834e-02 2.58910120e-01 3.18569213e-01
      6.92148730e-02 1.22288220e-01</_>
    <_>
      3.04431826e-01 8.58591944e-02 2.05530733e-01 1.89832151e-01
      7.34210834e-02 1.40925005e-01</_>
    <_>
      8.82547259e-01 6.87012821e-03 6.60589256e-04 1.32117842e-04
      3.96353565e-03 1.05826400e-01</_>
    <_>
      7.08944380e-01 8.75941366e-02 6.15669191e-02 4.82230149e-02
      1.94213241e-02 7.42502287e-02</_>
    <_>
      2.50173122e-01 1.01108037e-01 1.81959838e-01 2.90858716e-01
      6.85595572e-02 1.07340723e-01</_>
    <_>
      1.40004724e-01 5.71833663e-02 2.49763712e-01 4.05363888e-01
      8.86105895e-02 5.90737239e-02</_>
    <_>
      8.94557834e-01 5.31462580e-02 0. 0. 2.83446722e-03 4.94614504e-02</_>
    <_>
      2.64581561e-01 7.95797631e-02 1.40804246e-01 1.95266277e-01
      1.21845186e-01 1.97922960e-01</_>
    <_>
      4.22613412e-01 2.71739122e-02 2.56379955e-02 8.77835527e-02
      1.08341210e-01 3.28449905e-01</_>
    <_>
      6.46160066e-01 1.77122764e-02 2.16333149e-03 2.83937273e-03
      1.60897784e-02 3.15035164e-01</_>
    <_>
      9.03421283e-01 1.95682365e-02 6.31233444e-04 4.03989386e-03
      3.66115384e-03 6.86782002e-02</_>
    <_>
      8.72506261e-01 5.21865487e-02 1.84964994e-03 1.45329640e-03
      8.98401346e-03 6.30202144e-02</_>
    <_>
      1.14957467e-01 2.77646501e-02 2.00496227e-01 5.29536843e-01
      7.08884671e-02 5.63563332e-02</_>
    <_>
      8.14909279e-01 1.04450114e-01 4.70521525e-02 1.57312918e-02
      6.66099787e-03 1.11961449e-02</_>
    <_>
      6.42092749e-02 4.50521857e-02 1.68186024e-01 6.52926385e-01
      4.61091287e-02 2.35169772e-02</_>
    <_>
      2.13435367e-01 3.35884355e-02 2.53117919e-01 3.98100913e-01
      4.28004526e-02 5.89569174e-02</_>
    <_>
      7.02436566e-01 5.41598275e-02 2.57543232e-02 2.18406767e-02
      1.99469756e-02 1.75861627e-01</_>
    <_>
      3.90164405e-01 5.08786850e-02 1.60147399e-01 1.43282309e-01
      2.96201818e-02 2.25907028e-01</_>
    <_>
      5.87247908e-01 1.85726359e-01 4.58881781e-02 2.62045655e-02
      2.46347059e-02 1.30298272e-01</_>
    <_>
      7.00921595e-01 4.06514332e-02 1.37608889e-02 2.81530116e-02
      4.33026142e-02 1.73210457e-01</_>
    <_>
      6.39565706e-01 1.10718347e-01 5.30236065e-02 5.44123203e-02
      3.28241400e-02 1.09455876e-01</_>
    <_>
      8.89285266e-01 4.33346555e-02 9.77672078e-03 2.24600337e-03
      3.69929988e-03 5.16580790e-02</_>
    <_>
      3.99823248e-01 9.98611301e-02 1.52253509e-01 1.50738537e-01
      7.66317397e-02 1.20691828e-01</_>
    <_>
      1.94081128e-01 5.61236620e-01 2.14030921e-01 2.62914523e-02
      1.05694274e-03 3.30294622e-03</_>
    <_>
      1.27366140e-01 4.63764183e-02 2.73796648e-01 4.39156294e-01
      7.55813941e-02 3.77230942e-02</_>
    <_>
      2.77919501e-01 5.41383214e-02 1.04591839e-01 2.11167797e-01
      9.66553316e-02 2.55527198e-01</_>
    <_>
      5.62112629e-01 1.35459706e-01 3.35743800e-02 2.71177683e-02
      4.95867766e-02 1.92148760e-01</_>
    <_>
      8.31065774e-01 1.26984134e-01 2.40929704e-03 1.13378686e-03
      5.24376426e-03 3.31632644e-02</_>
    <_>
      9.29052711e-01 1.33439023e-02 1.32117842e-04 5.28471370e-04
      4.22777096e-03 5.27150221e-02</_>
    <_>
      4.68690932e-01 1.39886573e-01 1.01370513e-01 9.49905515e-02
      6.45085052e-02 1.30552933e-01</_>
    <_>
      7.92707130e-03 7.26648187e-03 3.41656744e-01 6.41300023e-01
      6.60589256e-04 1.18906063e-03</_>
    <_>
      9.35235441e-01 6.56482764e-03 0. 0. 3.78740049e-04 5.78209832e-02</_>
    <_>
      2.14319468e-01 7.26606771e-02 1.31852552e-01 3.97211730e-01
      1.30907372e-01 5.30482046e-02</_>
    <_>
      4.90265012e-01 7.50405639e-02 5.97620346e-02 1.98620871e-01
      1.12087615e-01 6.42239079e-02</_>
    <_>
      2.83081293e-01 5.88374287e-02 9.46361050e-02 2.62641788e-01
      1.53946131e-01 1.46857277e-01</_>
    <_>
      1.05430044e-01 1.59862600e-02 2.67274410e-01 4.70471650e-01
      6.64552748e-02 7.43823498e-02</_>
    <_>
      1.39252216e-01 4.19474185e-01 3.31747919e-01 8.57444853e-02
      9.90883913e-03 1.38723738e-02</_>
    <_>
      6.43858090e-02 1.20565586e-01 4.69006449e-01 3.04128259e-01
      2.32293904e-02 1.86845101e-02</_>
    <_>
      8.13818276e-01 1.16549484e-01 1.06814494e-02 2.97458074e-03
      7.43645197e-03 4.85397503e-02</_>
    <_>
      1.47566170e-01 1.41776940e-02 1.60916820e-01 4.30056721e-01
      1.58553869e-01 8.87287334e-02</_>
    <_>
      5.87164283e-01 1.36234507e-01 4.66167368e-02 4.73915301e-02
      2.07902901e-02 1.61802679e-01</_>
    <_>
      1.65997073e-01 9.40467492e-02 2.02337474e-01 4.70781595e-01
      4.41928431e-02 2.26442665e-02</_>
    <_>
      1.65147316e-02 3.03871054e-02 2.37812132e-01 6.96789563e-01
      1.36081381e-02 4.88836039e-03</_>
    <_>
      2.35071331e-01 3.15616727e-02 4.70900126e-02 2.92892307e-01
      1.86087608e-01 2.07297057e-01</_>
    <_>
      2.49438494e-01 4.34799850e-01 2.22354338e-01 8.28378946e-02
      4.62412462e-03 5.94530301e-03</_>
    <_>
      3.40382785e-01 9.92438570e-02 1.67769372e-01 2.41138935e-01
      5.80103956e-02 9.34546292e-02</_>
    <_>
      7.20238090e-01 1.08701818e-01 5.08786850e-02 7.08616748e-02
      2.36678012e-02 2.56519280e-02</_>
    <_>
      4.09998484e-02 2.94162482e-02 3.33790570e-01 5.30711770e-01
      5.33455275e-02 1.17360158e-02</_>
    <_>
      2.36053720e-01 5.24276853e-01 1.93181813e-01 3.42200398e-02
      2.71177688e-03 9.55578499e-03</_>
    <_>
      8.63653600e-01 7.04456493e-02 3.78740049e-04 7.57480098e-04
      3.15616722e-03 6.16083816e-02</_>
    <_>
      6.32369637e-01 8.04988667e-02 1.03883222e-01 1.24716550e-01
      1.95578225e-02 3.89739238e-02</_>
    <_>
      2.72468999e-02 2.40185950e-02 3.05268586e-01 6.19963825e-01
      1.29132234e-02 1.05888434e-02</_>
    <_>
      6.73469365e-01 1.30419033e-02 4.46805963e-03 5.07185142e-03
      3.16386893e-02 2.72310108e-01</_>
    <_>
      2.42320418e-01 7.30151236e-02 2.60278821e-01 2.25425333e-01
      5.77741005e-02 1.41186208e-01</_>
    <_>
      6.92176878e-01 8.68764147e-02 4.60600890e-02 7.73809552e-02
      2.77777780e-02 6.97278902e-02</_>
    <_>
      3.43545198e-01 8.91632363e-02 8.24569389e-02 1.21018134e-01
      1.21475384e-01 2.42341101e-01</_>
    <_>
      6.75122201e-01 1.07676044e-01 9.11613181e-02 5.54894954e-02
      1.13621354e-02 5.91887981e-02</_>
    <_>
      7.07358956e-01 5.02047837e-02 2.36490946e-02 1.71753205e-02
      2.74805129e-02 1.74131319e-01</_>
    <_>
      6.41022146e-01 2.05110878e-01 6.30070344e-02 2.63656024e-02
      6.62520295e-03 5.78691177e-02</_>
    <_>
      2.92508930e-01 1.76509440e-01 1.28947020e-01 1.54709995e-01
      1.11507468e-01 1.35817155e-01</_>
    <_>
      2.67715424e-01 1.14087299e-01 1.74319729e-01 1.86082765e-01
      1.10969387e-01 1.46825403e-01</_>
    <_>
      6.69309020e-01 1.39516443e-01 1.94213241e-02 4.62412462e-03
      1.63826142e-02 1.50746465e-01</_>
    <_>
      2.00378075e-01 3.41446139e-02 1.00543477e-01 2.72211730e-01
      1.49692819e-01 2.43029296e-01</_>
    <_>
      5.86953223e-01 4.00396287e-01 1.08215213e-02 3.04831570e-04
      1.52415785e-04 1.37174211e-03</_>
    <_>
      4.23611104e-01 6.39172345e-02 3.51473913e-02 4.94614504e-02
      6.46258518e-02 3.63236964e-01</_>
    <_>
      1.60608627e-02 4.16616350e-02 4.93660182e-01 4.35333908e-01
      1.18343197e-02 1.44910032e-03</_>
    <_>
      5.09974882e-02 1.11639582e-01 6.44470870e-01 1.76641569e-01
      7.66283507e-03 8.58766027e-03</_>
    <_>
      2.13742293e-02 3.17594483e-02 3.56357932e-01 5.45103252e-01
      3.77973691e-02 7.60777667e-03</_>
    <_>
      5.70415854e-01 2.89106816e-01 1.16257086e-01 1.85491499e-02
      1.77221175e-03 3.89886578e-03</_>
    <_>
      7.64462829e-01 1.64772734e-01 1.57541316e-02 1.79493800e-02
      8.52272753e-03 2.85382234e-02</_>
    <_>
      2.57443279e-01 6.56899810e-02 8.89650285e-02 2.15500951e-01
      1.59499049e-01 2.12901697e-01</_>
    <_>
      1.35042533e-01 2.25189030e-01 3.98393184e-01 1.80529296e-01
      2.57561430e-02 3.50897908e-02</_>
    <_>
      6.66711748e-01 4.61060032e-02 2.97458079e-02 2.17685234e-02
      3.12330984e-02 2.04434827e-01</_>
    <_>
      2.70085067e-01 5.25756143e-02 9.40453708e-02 2.97849715e-01
      1.38350666e-01 1.47093579e-01</_>
    <_>
      0. 2.07756227e-03 8.87638509e-01 1.09937675e-01 3.46260378e-04 0.</_>
    <_>
      3.22562367e-01 1.07142858e-01 1.65958047e-01 2.50566900e-01
      6.59013614e-02 8.78684819e-02</_>
    <_>
      1.71077505e-01 6.49810955e-02 2.63705105e-01 3.03875238e-01
      7.59688094e-02 1.20392248e-01</_>
    <_>
      3.24481428e-01 3.77989173e-01 2.15087861e-01 3.69929969e-02
      2.11388548e-03 4.33346555e-02</_>
    <_>
      6.67887509e-01 7.76228756e-02 4.86767478e-02 3.02457474e-02
      3.04820407e-02 1.45085067e-01</_>
    <_>
      8.42585802e-01 1.17238857e-01 2.20964216e-02 7.66983209e-03
      4.01753094e-03 6.39152667e-03</_>
    <_>
      4.09544259e-01 6.35020807e-02 1.08950891e-01 2.17144296e-01
      1.00239865e-01 1.00618608e-01</_>
    <_>
      3.36720236e-02 4.01465029e-01 5.19966900e-01 3.85160670e-02
      3.78071843e-03 2.59924377e-03</_>
    <_>
      3.39729846e-01 1.60459533e-01 2.15629339e-01 1.76114127e-01
      3.11829317e-02 7.68842325e-02</_>
    <_>
      8.97959173e-01 8.50340128e-02 0. 0. 2.83446716e-04 1.67233553e-02</_>
    <_>
      5.45382500e-01 4.92799580e-02 1.47971995e-02 3.92390005e-02
      1.03712514e-01 2.47588843e-01</_>
    <_>
      2.80140221e-01 1.04404815e-01 2.58802027e-01 2.02103332e-01
      3.99329364e-02 1.14616677e-01</_>
    <_>
      5.36398478e-02 4.91478406e-02 6.34694159e-01 2.50363320e-01
      1.71753205e-03 1.04373097e-02</_>
    <_>
      2.04564661e-01 1.29815236e-01 2.21470833e-01 2.49486774e-01
      7.45079070e-02 1.20154567e-01</_>
    <_>
      4.71371889e-01 6.47675768e-02 6.50510192e-02 6.29251674e-02
      3.85487527e-02 2.97335595e-01</_>
    <_>
      8.80036175e-01 5.04907034e-02 7.74793373e-03 4.98450398e-02
      1.67871895e-03 1.02014467e-02</_>
    <_>
      7.98676729e-01 1.35160685e-01 1.60680525e-02 8.27032141e-03
      3.30812857e-03 3.85160670e-02</_>
    <_>
      2.67249525e-01 1.91398859e-02 6.92344010e-02 2.44565219e-01
      1.36224002e-01 2.63586968e-01</_>
    <_>
      6.22388601e-01 9.90218576e-03 7.24550162e-04 2.29440886e-03
      2.13742293e-02 3.43316019e-01</_>
    <_>
      7.23519742e-01 1.31675288e-01 2.90367380e-02 1.65383164e-02
      5.04986756e-03 9.41800252e-02</_>
    <_>
      1.05694279e-01 1.48764700e-01 4.15906996e-01 2.56969213e-01
      3.77857052e-02 3.48791108e-02</_>
    <_>
      3.68608803e-01 7.82137662e-02 2.12445498e-01 1.73867092e-01
      5.40362000e-02 1.12828642e-01</_>
    <_>
      7.00224563e-02 2.73483962e-01 5.65728605e-01 8.32342431e-02
      4.22777096e-03 3.30294622e-03</_>
    <_>
      3.32085490e-02 6.59340695e-02 3.55391860e-01 5.02475560e-01
      2.66875979e-02 1.63023788e-02</_>
    <_>
      0. 7.30460219e-04 2.26990506e-01 7.69539833e-01 2.73922575e-03 0.</_>
    <_>
      6.35904551e-01 7.36018196e-02 6.90569356e-02 8.06716308e-02
      2.95417253e-02 1.11223333e-01</_>
    <_>
      1.59202009e-01 5.69031596e-01 2.29885057e-01 3.67287621e-02
      1.58541417e-03 3.56718199e-03</_>
    <_>
      3.35314751e-01 3.68693799e-01 1.41289443e-01 4.87730540e-02
      4.00853530e-02 6.58436194e-02</_>
    <_>
      6.31523356e-02 1.03712514e-01 3.18271905e-01 4.91214156e-01
      1.51935527e-02 8.45554192e-03</_>
    <_>
      5.16316533e-01 1.46650812e-02 9.77672078e-03 3.39542888e-02
      1.02127098e-01 3.23160261e-01</_>
    <_>
      1.49854809e-01 2.31031440e-02 7.82729462e-02 4.10806715e-01
      2.09443256e-01 1.28519133e-01</_>
    <_>
      4.16982144e-01 7.47701451e-02 1.43726334e-01 2.85830170e-01
      2.97458079e-02 4.89453748e-02</_>
    <_>
      4.25878674e-01 1.13662131e-01 1.45408168e-01 1.71201810e-01
      4.30838987e-02 1.00765303e-01</_>
    <_>
      5.00708878e-01 1.52410204e-02 7.08884699e-03 8.50661658e-03
      4.93856333e-02 4.19068992e-01</_>
    <_>
      1.47802457e-01 5.35207950e-02 2.39721179e-01 4.07726854e-01
      7.96313807e-02 7.15973526e-02</_>
    <_>
      3.37074667e-01 3.39083165e-01 1.76748589e-01 7.28969723e-02
      2.24480145e-02 5.17485812e-02</_>
    <_>
      1.48502067e-02 2.35020667e-02 3.07980359e-01 6.51342988e-01
      9.03925626e-04 1.42045459e-03</_>
    <_>
      7.80862629e-01 7.27014467e-02 2.40185950e-02 1.08729340e-01
      4.13223123e-03 9.55578499e-03</_>
    <_>
      8.45935702e-01 9.77079421e-02 2.17391308e-02 1.91398859e-02
      7.20699411e-03 8.27032141e-03</_>
    <_>
      6.79869592e-01 1.09407075e-01 1.15928026e-02 1.48532782e-02
      2.12534722e-02 1.63023785e-01</_>
    <_>
      7.78150797e-01 1.06146693e-01 1.27840908e-02 6.32747915e-03
      6.58574374e-03 9.00051668e-02</_>
    <_>
      1.24178231e-02 1.26004387e-02 1.85719505e-01 7.33016789e-01
      5.05843684e-02 5.66106662e-03</_>
    <_>
      6.79507315e-01 1.67491853e-01 2.54800152e-02 1.37664536e-02
      1.75099634e-02 9.62444171e-02</_>
    <_>
      2.20816121e-01 3.75516534e-01 3.05010319e-01 5.64307868e-02
      1.30423550e-02 2.91838851e-02</_>
    <_>
      2.63468802e-01 8.51843134e-02 2.52835542e-01 1.66706055e-01
      8.19943324e-02 1.49810970e-01</_>
    <_>
      7.36649394e-01 1.48339853e-01 2.87842453e-02 1.18671888e-02
      1.03522278e-02 6.40070662e-02</_>
    <_>
      5.93927205e-01 2.19754249e-01 6.00189045e-02 2.42202263e-02
      2.36294903e-02 7.84499049e-02</_>
    <_>
      2.39366725e-01 4.60775057e-03 5.55292983e-03 2.59924382e-02
      1.39295846e-01 5.85184336e-01</_>
    <_>
      3.00719619e-01 3.19404118e-02 6.22396171e-02 2.23204136e-01
      1.51748523e-01 2.30147704e-01</_>
    <_>
      2.17606574e-01 1.94662482e-01 3.11073542e-01 1.24984905e-01
      3.06726247e-02 1.20999880e-01</_>
    <_>
      4.07312930e-01 3.06689352e-01 9.26870778e-02 4.70521525e-02
      4.13832217e-02 1.04875281e-01</_>
    <_>
      2.54987441e-02 2.20636800e-02 1.61712244e-01 6.76047027e-01
      1.00805916e-01 1.38723738e-02</_>
    <_>
      7.06462979e-01 2.69064363e-02 9.87020042e-03 1.51433209e-02
      2.12276913e-02 2.20389396e-01</_>
    <_>
      2.29488701e-01 5.15259616e-02 1.58145070e-01 2.53798395e-01
      1.24851368e-01 1.82190508e-01</_>
    <_>
      5.36980152e-01 6.29725903e-02 6.29725903e-02 1.29135162e-01
      8.75472575e-02 1.20392248e-01</_>
    <_>
      8.44266534e-01 3.16373967e-02 1.42045459e-02 1.17510334e-02
      1.29132234e-02 8.52272734e-02</_>
    <_>
      4.56285447e-01 4.17060480e-02 2.90642716e-02 3.98156904e-02
      6.02551997e-02 3.72873336e-01</_>
    <_>
      3.10061872e-01 3.26978922e-01 2.64613062e-01 6.08509034e-02
      6.69107446e-03 3.08041908e-02</_>
    <_>
      6.49810955e-03 7.44328927e-03 4.38681483e-01 5.44187129e-01
      2.00850656e-03 1.18147454e-03</_>
    <_>
      7.07887411e-01 3.55397016e-02 1.45329640e-03 4.75624250e-03
      2.35169772e-02 2.26846352e-01</_>
    <_>
      8.48592937e-01 7.26648187e-03 2.90659280e-03 1.98176783e-03
      1.24190776e-02 1.26833141e-01</_>
    <_>
      3.29985827e-01 2.62287334e-02 7.13610575e-02 1.39650285e-01
      1.35278821e-01 2.97495276e-01</_>
    <_>
      7.83587277e-01 1.56509697e-01 1.10803321e-02 6.40581734e-03
      9.69529059e-03 3.27216052e-02</_>
    <_>
      7.37528324e-01 1.05442174e-01 3.92573699e-02 2.72108838e-02
      2.23922897e-02 6.81689307e-02</_>
    <_>
      2.12430745e-01 9.85110775e-02 2.60907203e-01 2.87915498e-01
      6.78670332e-02 7.23684207e-02</_>
    <_>
      7.37155199e-01 2.03623578e-01 2.70416448e-03 3.24499724e-03
      6.89561944e-03 4.63764183e-02</_>
    <_>
      7.76669621e-01 1.13622015e-02 1.26246683e-04 0. 5.30236075e-03
      2.06539571e-01</_>
    <_>
      3.27977329e-01 5.37570901e-02 6.27362952e-02 2.13256150e-01
      1.37996227e-01 2.04276934e-01</_>
    <_>
      6.25827014e-01 1.54773155e-02 2.17391308e-02 1.68123811e-01
      1.07986771e-01 6.08459376e-02</_>
    <_>
      8.46088454e-02 9.28287953e-02 5.67602038e-01 2.11876422e-01
      2.04081628e-02 2.26757377e-02</_>
    <_>
      1.69771433e-01 5.62822036e-02 1.22076891e-01 3.94636005e-01
      1.16792180e-01 1.40441269e-01</_>
    <_>
      1.72258973e-01 8.34120959e-02 3.13445181e-01 2.95841217e-01
      5.42296804e-02 8.08128566e-02</_>
    <_>
      1.39979333e-01 4.62809920e-01 3.44912201e-01 4.64876033e-02
      1.67871895e-03 4.13223123e-03</_>
    <_>
      4.20067161e-01 1.21126033e-01 1.55604333e-01 1.50439054e-01
      4.11931835e-02 1.11570247e-01</_>
    <_>
      4.26157832e-01 9.65264663e-02 1.51465029e-01 1.76512286e-01
      4.79678623e-02 1.01370513e-01</_>
    <_>
      5.03426254e-01 2.43383739e-02 3.36720236e-02 9.92438570e-02
      1.29844040e-01 2.09475428e-01</_>
    <_>
      3.37296873e-01 2.80618310e-01 2.43889555e-01 8.32342431e-02
      1.70432031e-02 3.79178226e-02</_>
    <_>
      3.31747919e-01 1.22473247e-01 1.33835375e-01 1.41630337e-01
      8.94437805e-02 1.80869341e-01</_>
    <_>
      4.46805963e-03 1.73892044e-02 2.94167370e-01 6.68880582e-01
      1.34041784e-02 1.69061706e-03</_>
    <_>
      3.56687158e-01 3.86342146e-02 1.33270323e-01 2.50354439e-01
      4.43052948e-02 1.76748589e-01</_>
    <_>
      1.10924587e-01 1.83367774e-01 4.11802679e-01 2.16425613e-01
      3.17665301e-02 4.57128100e-02</_>
    <_>
      5.30087829e-01 4.72623967e-02 3.96435969e-02 6.19834699e-02
      7.16683865e-02 2.49354333e-01</_>
    <_>
      5.07728875e-01 1.09922051e-01 1.18377596e-01 1.90513939e-01
      2.62914523e-02 4.71660718e-02</_>
    <_>
      4.75662529e-01 3.00973505e-01 9.14007574e-02 4.09680903e-02
      1.67658199e-02 7.42293149e-02</_>
    <_>
      4.43171084e-01 6.27362952e-02 1.03260867e-01 1.81001887e-01
      1.05741963e-01 1.04087904e-01</_>
    <_>
      7.03488350e-01 4.36722562e-02 7.30124395e-03 3.78583022e-03
      1.16279069e-02 2.30124384e-01</_>
    <_>
      6.62569225e-01 1.17382273e-01 2.21606642e-02 7.09833810e-03
      2.06024926e-02 1.70186982e-01</_>
    <_>
      6.44672811e-01 1.48864254e-01 5.69226593e-02 3.15035172e-02
      1.94699839e-02 9.85667929e-02</_>
    <_>
      1.24190776e-02 2.07425021e-02 2.75201470e-01 6.73272550e-01
      1.55899059e-02 2.77447491e-03</_>
    <_>
      1.77393183e-01 5.44889122e-02 1.62249863e-01 3.54921579e-01
      1.34532183e-01 1.16414279e-01</_>
    <_>
      6.43353105e-01 1.02764800e-01 4.72162589e-02 3.25716436e-02
      2.68905442e-02 1.47203639e-01</_>
    <_>
      6.03382230e-01 7.62320012e-02 2.52345093e-02 3.36900502e-02
      3.52754667e-02 2.26185754e-01</_>
    <_>
      2.67131388e-01 5.04489616e-02 5.08034043e-02 4.38563317e-01
      1.07632324e-01 8.54206085e-02</_>
    <_>
      4.22344148e-01 1.53025448e-01 1.74820915e-01 9.43453759e-02
      4.02377695e-02 1.15226336e-01</_>
    <_>
      8.80668938e-01 2.35260762e-02 1.41723358e-04 0. 8.50340119e-04
      9.48129222e-02</_>
    <_>
      1.91632226e-01 1.32102266e-01 3.09271693e-01 2.81895667e-01
      2.33729333e-02 6.17252067e-02</_>
    <_>
      5.17485812e-02 3.83979194e-02 2.18218341e-01 6.00425303e-01
      6.12003766e-02 3.00094523e-02</_>
    <_>
      4.57127750e-01 5.74712642e-02 1.95534416e-02 3.97674739e-02
      9.56533253e-02 3.30426753e-01</_>
    <_>
      1.49821639e-01 2.40322366e-01 4.90817815e-01 9.75029692e-02
      7.26648187e-03 1.42687280e-02</_>
    <_>
      4.63294387e-01 2.62417823e-01 1.81701973e-01 7.56026283e-02
      2.55661062e-03 1.44265890e-02</_>
    <_>
      2.27906421e-01 3.81498098e-01 2.60515124e-01 6.13185242e-02
      2.64650285e-02 4.22967859e-02</_>
    <_>
      3.51849526e-01 3.56015638e-02 3.52228247e-02 7.62529969e-02
      1.25236720e-01 3.75836372e-01</_>
    <_>
      6.26149297e-01 8.38290993e-03 1.74418613e-02 1.09518655e-02
      4.17793393e-02 2.95294762e-01</_>
    <_>
      7.59809732e-01 1.00805916e-01 4.94120754e-02 2.00819131e-02
      9.24824923e-03 6.06420934e-02</_>
    <_>
      1.52528360e-01 5.69470711e-02 1.78993389e-01 4.89839315e-01
      8.66020769e-02 3.50897908e-02</_>
    <_>
      6.14568889e-01 4.26713787e-02 3.69902775e-02 3.18141654e-02
      4.55750525e-02 2.28380248e-01</_>
    <_>
      2.39248589e-01 9.31001902e-02 3.16280723e-01 2.10420609e-01
      4.54867668e-02 9.54631343e-02</_>
    <_>
      1.37051046e-01 2.50472594e-02 1.40831754e-01 4.63846892e-01
      1.62807181e-01 7.04158768e-02</_>
    <_>
      7.12929130e-01 9.13075265e-03 1.82615055e-04 0. 4.01753094e-03
      2.73739964e-01</_>
    <_>
      6.65289283e-01 1.44628093e-01 4.77789268e-02 7.23140463e-02
      2.40185950e-02 4.59710732e-02</_>
    <_>
      5.80043256e-01 3.01514324e-02 3.01514324e-02 3.23147662e-02
      4.93509993e-02 2.77988106e-01</_>
    <_>
      5.44457674e-01 8.97080228e-02 2.28563882e-02 7.92707130e-03
      2.65556872e-02 3.08495164e-01</_>
    <_>
      5.38954318e-01 2.56232694e-02 2.31994465e-02 8.79501402e-02
      1.04570635e-01 2.19702214e-01</_>
    <_>
      6.76934719e-01 1.01754829e-01 2.57543232e-02 1.28771616e-02
      3.21929045e-02 1.50486052e-01</_>
    <_>
      2.72187859e-01 1.53642222e-01 2.72566587e-01 1.98964775e-01
      2.71430369e-02 7.54955187e-02</_>
    <_>
      7.62848437e-01 5.89245595e-02 2.62914523e-02 1.36081381e-02
      1.87607352e-02 1.19566657e-01</_>
    <_>
      8.63894165e-01 7.65595436e-02 5.19848755e-03 1.89035921e-03
      4.72589815e-03 4.77315672e-02</_>
    <_>
      7.25481868e-01 9.43877548e-02 7.27040842e-02 5.42800464e-02
      1.37471659e-02 3.93990912e-02</_>
    <_>
      2.72160679e-01 8.69113579e-02 1.93905815e-01 2.73372591e-01
      9.26246569e-02 8.10249299e-02</_>
    <_>
      3.74858290e-01 3.67063507e-02 1.43990934e-01 1.92885488e-01
      7.35544190e-02 1.78004533e-01</_>
    <_>
      3.41265559e-01 7.88263902e-02 8.68036747e-02 1.51974037e-01
      1.07625745e-01 2.33504593e-01</_>
    <_>
      3.46268266e-01 2.94753928e-02 1.19794481e-01 2.67847478e-01
      1.03704706e-01 1.32909685e-01</_>
    <_>
      5.87074101e-01 1.72255278e-01 4.69172522e-02 1.89291518e-02
      2.43374798e-02 1.50486752e-01</_>
    <_>
      3.52315694e-01 3.08364835e-02 1.26890361e-01 9.64083150e-02
      5.99007569e-02 3.33648384e-01</_>
    <_>
      7.22980320e-01 1.09044798e-01 1.11097693e-02 6.27943501e-03
      1.20758358e-02 1.38509840e-01</_>
    <_>
      6.85304761e-01 8.21281001e-02 3.83522734e-02 3.88687998e-02
      2.63429750e-02 1.29003093e-01</_>
    <_>
      1.03883222e-01 7.27040842e-02 4.33815181e-01 2.85147399e-01
      5.90986386e-02 4.53514755e-02</_>
    <_>
      6.86316907e-01 5.27312048e-02 5.90859912e-02 6.93618208e-02
      4.50243391e-02 8.74797180e-02</_>
    <_>
      1.17256373e-01 7.68023208e-02 2.24006757e-01 4.09974635e-01
      7.84929320e-02 9.34669748e-02</_>
    <_>
      1.94860533e-01 1.35976240e-01 4.28848147e-01 1.63481399e-01
      2.09194217e-02 5.59142567e-02</_>
    <_>
      7.71266520e-01 9.90075618e-02 4.84404527e-03 4.60775057e-03
      9.45179630e-03 1.10822305e-01</_>
    <_>
      4.53804344e-01 2.57561445e-01 1.11767486e-01 4.60775048e-02
      2.65831761e-02 1.04206048e-01</_>
    <_>
      3.87105308e-02 8.03276524e-02 2.95283407e-01 5.37323296e-01
      4.06922959e-02 7.66283507e-03</_>
    <_>
      7.44189024e-01 1.94602266e-01 2.37603299e-02 1.16219008e-02
      7.36053707e-03 1.84659082e-02</_>
    <_>
      2.29914933e-01 6.86436668e-02 2.29914933e-01 2.49763712e-01
      7.97495246e-02 1.42013237e-01</_>
    <_>
      1.76394626e-01 1.25645667e-01 3.21151853e-01 2.88352281e-01
      2.24690083e-02 6.59865737e-02</_>
    <_>
      6.54761940e-02 2.97619049e-02 4.30413842e-01 4.27579373e-01
      2.14002263e-02 2.53684800e-02</_>
    <_>
      1.55470908e-01 1.12361498e-01 3.28601122e-01 2.84106642e-01
      5.76523542e-02 6.18074797e-02</_>
    <_>
      4.05245759e-02 1.29962191e-02 1.58672020e-01 7.22707927e-01
      4.96219285e-02 1.54773155e-02</_>
    <_>
      6.22671425e-01 1.48368344e-01 3.63324098e-02 1.62504949e-02
      2.65556872e-02 1.49821639e-01</_>
    <_>
      2.12429106e-01 1.84310023e-02 1.33624762e-01 3.54324192e-01
      1.17202267e-01 1.63988665e-01</_>
    <_>
      6.97133601e-01 3.27203907e-02 4.13737148e-02 4.71876673e-02
      3.50189283e-02 1.46565706e-01</_>
    <_>
      6.85898244e-01 1.18671888e-02 8.83726811e-04 3.28241382e-03
      6.31233444e-03 2.91756094e-01</_>
    <_>
      5.39073348e-01 4.55750525e-02 4.62062880e-02 4.57012989e-02
      3.95152122e-02 2.83928812e-01</_>
    <_>
      3.58695656e-01 3.33175808e-02 3.59168239e-02 1.44376189e-01
      1.41304344e-01 2.86389410e-01</_>
    <_>
      3.60549599e-01 1.77434266e-01 2.01215491e-01 9.68423858e-02
      4.09565344e-02 1.23001717e-01</_>
    <_>
      2.49096081e-01 4.06766534e-02 5.55268601e-02 1.81689054e-01
      1.36880159e-01 3.36131185e-01</_>
    <_>
      1.37613386e-01 1.61848068e-01 4.97874141e-01 1.64115652e-01
      1.13378689e-02 2.72108838e-02</_>
    <_>
      8.58729333e-02 2.00542361e-01 5.64178705e-01 1.25387400e-01
      1.30423550e-02 1.09762400e-02</_>
    <_>
      1.27711773e-01 1.37784094e-01 4.56095040e-01 2.35408053e-01
      1.70454551e-02 2.59555783e-02</_>
    <_>
      6.08695626e-01 1.40595464e-02 4.01701313e-03 5.31663513e-03
      2.89461240e-02 3.38965029e-01</_>
    <_>
      8.21124762e-02 1.81947071e-02 1.62334591e-01 5.85893214e-01
      9.99527425e-02 5.15122861e-02</_>
    <_>
      1.96849033e-01 4.74376716e-02 1.18767314e-01 2.05159277e-01
      2.19009697e-01 2.12777004e-01</_>
    <_>
      4.10680532e-01 1.24291115e-01 1.17320418e-01 1.42840266e-01
      7.53780752e-02 1.29489601e-01</_>
    <_>
      2.44418029e-02 6.39450401e-02 3.96485656e-01 5.10239124e-01
      2.24600337e-03 2.64235702e-03</_>
    <_>
      4.52504717e-02 1.65406421e-01 6.65406406e-01 9.90075618e-02
      9.80623811e-03 1.51228737e-02</_>
    <_>
      1.37471661e-01 7.53968284e-02 3.03004533e-01 3.27380955e-01
      8.81519243e-02 6.85941055e-02</_>
    <_>
      1.52646497e-01 2.52835546e-02 1.16138943e-01 4.54040647e-01
      1.35042533e-01 1.16847828e-01</_>
    <_>
      2.04254195e-01 1.60655305e-01 2.09671021e-01 1.83379576e-01
      1.15470998e-01 1.26568899e-01</_>
    <_>
      4.65263426e-01 3.18827480e-01 1.31714880e-01 4.36466932e-02
      7.48966960e-03 3.30578499e-02</_>
    <_>
      2.39721179e-01 9.88894105e-02 2.31096402e-01 2.44683370e-01
      6.87618181e-02 1.16847828e-01</_>
    <_>
      4.13836628e-01 2.89104916e-02 2.99204644e-02 2.14240626e-01
      1.39755085e-01 1.73336700e-01</_>
    <_>
      6.25992060e-01 2.08049893e-01 3.08956914e-02 1.95578225e-02
      1.89909302e-02 9.65136066e-02</_>
    <_>
      7.33234167e-01 1.06814496e-01 5.81395347e-03 6.21957798e-03
      1.47376964e-02 1.33180097e-01</_>
    <_>
      3.11436683e-01 6.78166375e-02 2.10775048e-01 1.65170133e-01
      5.31663522e-02 1.91635162e-01</_>
    <_>
      1.62689030e-01 2.17982039e-01 4.30174857e-01 1.45675808e-01
      1.26417773e-02 3.08364835e-02</_>
    <_>
      5.60941845e-02 2.83933524e-02 3.25138509e-01 5.12638509e-01
      5.48822731e-02 2.28531864e-02</_>
    <_>
      2.01086953e-01 7.02977329e-02 1.85137048e-01 2.91469753e-01
      1.33506611e-01 1.18501887e-01</_>
    <_>
      3.62948954e-01 2.74102073e-02 2.26843096e-02 2.81190928e-02
      7.59688094e-02 4.82868612e-01</_>
    <_>
      6.15705073e-01 9.16550905e-02 3.39603573e-02 8.31965655e-02
      4.78474945e-02 1.27635404e-01</_>
    <_>
      5.59146583e-01 2.31031440e-02 3.11829317e-02 6.18608743e-02
      5.26448674e-02 2.72061616e-01</_>
    <_>
      7.67847478e-01 1.21957816e-01 9.73499194e-03 5.81395347e-03
      1.44672794e-02 8.01784769e-02</_>
    <_>
      2.04237159e-02 2.78920904e-02 4.01768029e-01 5.29492438e-01
      1.43270846e-02 6.09663175e-03</_>
    <_>
      8.08367804e-02 2.90547516e-02 1.63094014e-01 6.05371892e-01
      9.06508267e-02 3.09917349e-02</_>
    <_>
      7.47675598e-02 5.37190065e-02 5.23889482e-01 3.21539253e-01
      1.05888434e-02 1.54958675e-02</_>
    <_>
      5.41666687e-01 1.73752829e-01 8.16326514e-02 2.63605434e-02
      2.53684800e-02 1.51218817e-01</_>
    <_>
      9.91257057e-02 2.15028357e-02 1.43903598e-01 5.69706976e-01
      8.97920579e-02 7.59688094e-02</_>
    <_>
      3.39162052e-01 7.01177269e-02 1.23614959e-01 2.27839336e-01
      1.09937675e-01 1.29328251e-01</_>
    <_>
      8.27982545e-01 1.61580130e-01 3.69929988e-03 2.24600337e-03
      1.32117851e-03 3.17082833e-03</_>
    <_>
      1.84441190e-02 2.13659611e-02 1.78962752e-01 7.52191365e-01
      2.20964216e-02 6.93937158e-03</_>
    <_>
      6.26562297e-01 1.33821487e-01 6.03459142e-02 2.95417253e-02
      3.58540602e-02 1.13874510e-01</_>
    <_>
      1.86554819e-01 1.99669190e-02 1.17674857e-01 4.33482975e-01
      1.08223066e-01 1.34097353e-01</_>
    <_>
      2.47046307e-01 6.27362952e-02 2.93596417e-01 2.46928170e-01
      3.61531191e-02 1.13539696e-01</_>
    <_>
      7.55712688e-01 9.59474780e-03 1.71695501e-02 3.11829317e-02
      4.24188860e-02 1.43921226e-01</_>
    <_>
      1.13421552e-01 6.87618181e-02 2.45510399e-01 4.55812842e-01
      7.24243820e-02 4.40689996e-02</_>
    <_>
      7.42698729e-01 1.77393183e-01 1.36560304e-02 9.05895047e-03
      1.23039484e-02 4.48891297e-02</_>
    <_>
      8.78715813e-01 3.25009897e-02 1.84964994e-03 1.32117851e-03
      1.44008454e-02 7.12115243e-02</_>
    <_>
      3.78426284e-01 5.12523651e-01 6.39177710e-02 1.46502834e-02
      4.37145540e-03 2.61105858e-02</_>
    <_>
      4.11931835e-02 7.87706580e-03 1.93569213e-01 7.33471096e-01
      1.66580584e-02 7.23140500e-03</_>
    <_>
      0. 0. 7.49905333e-02 9.24757004e-01 2.52493366e-04 0.</_>
    <_>
      2.53099166e-02 5.37190065e-02 5.19886374e-01 3.87913227e-01
      1.00723142e-02 3.09917354e-03</_>
    <_>
      3.46280873e-01 3.56189728e-01 2.31734708e-01 3.46148759e-02
      5.02047827e-03 2.61593349e-02</_>
    <_>
      9.02882814e-01 6.66351616e-02 2.36294908e-03 2.48109642e-03
      1.89035921e-03 2.37476379e-02</_>
    <_>
      6.45793974e-01 7.37240091e-02 2.11483929e-02 1.81947071e-02
      3.34357284e-02 2.07703218e-01</_>
    <_>
      8.66921782e-01 1.21456914e-01 5.10204071e-03 3.11791385e-03
      7.08616804e-04 2.69274367e-03</_>
    <_>
      4.48270977e-01 2.71258503e-01 9.52380970e-02 3.40136066e-02
      2.28174608e-02 1.28401354e-01</_>
    <_>
      3.33417505e-01 4.89837155e-02 7.56217614e-02 2.03762144e-01
      1.20565586e-01 2.17649281e-01</_>
    <_>
      6.47210717e-01 7.70919397e-02 5.11363633e-02 7.85124004e-02
      4.41632234e-02 1.01885334e-01</_>
    <_>
      1.47339880e-01 1.85563013e-01 5.11492789e-01 1.25258267e-01
      8.26446246e-03 2.20816117e-02</_>
    <_>
      1.58790171e-01 2.74102073e-02 9.08553898e-02 4.36318517e-01
      1.53709829e-01 1.32915884e-01</_>
    <_>
      7.92742789e-01 1.23192146e-01 1.74328517e-02 5.88842966e-02
      5.16528904e-04 7.23140500e-03</_>
    <_>
      2.11483929e-02 6.29725903e-02 6.39414012e-01 2.61224002e-01
      5.43478271e-03 9.80623811e-03</_>
    <_>
      1.55045345e-01 4.39342409e-02 1.69217691e-01 4.45719957e-01
      1.32369608e-01 5.37131503e-02</_>
    <_>
      6.11546755e-01 2.81233098e-02 3.48837227e-02 8.57220143e-02
      5.32720387e-02 1.86452135e-01</_>
    <_>
      8.43836725e-01 3.43506411e-02 1.05694274e-03 4.22777096e-03
      2.27242708e-02 9.38036740e-02</_>
    <_>
      4.13516052e-02 2.48109642e-02 2.57915884e-01 6.23109639e-01
      3.22542526e-02 2.05576569e-02</_>
    <_>
      1.74973324e-01 7.57506490e-02 3.72199357e-01 2.29843006e-01
      8.80963281e-02 5.91373257e-02</_>
    <_>
      5.23100913e-01 8.77267569e-02 4.29421775e-02 4.71938774e-02
      7.32709765e-02 2.25765303e-01</_>
    <_>
      1.43270846e-02 2.80445050e-02 7.25956380e-01 2.23593965e-01
      5.02972119e-03 3.04831588e-03</_>
    <_>
      4.42726910e-01 1.54313654e-01 1.15206763e-01 5.28471395e-02
      4.46558334e-02 1.90249696e-01</_>
    <_>
      4.69754249e-01 4.32419665e-02 2.58742906e-02 1.05151229e-01
      1.09404534e-01 2.46573731e-01</_>
    <_>
      5.27458668e-01 8.24390873e-02 6.95619211e-02 9.83461663e-02
      8.10503736e-02 1.41143799e-01</_>
    <_>
      7.50405610e-01 2.59599779e-02 4.88101691e-02 4.17793393e-02
      2.70416439e-02 1.06003247e-01</_>
    <_>
      1.21337429e-01 4.65500951e-02 1.70841217e-01 5.44541597e-01
      6.34451807e-02 5.32844998e-02</_>
    <_>
      1.37326628e-01 7.30071664e-02 3.12909603e-01 3.52994978e-01
      6.09663166e-02 6.27953038e-02</_>
    <_>
      2.76536644e-02 1.21482916e-01 5.67322791e-01 2.78468788e-01
      2.89820065e-03 2.17365054e-03</_>
    <_>
      6.33991361e-01 2.16333158e-02 1.31151974e-02 1.36560304e-02
      1.56841539e-02 3.01919967e-01</_>
    <_>
      3.24327737e-01 2.91629843e-02 1.11602068e-01 1.33947730e-01
      8.64789784e-02 3.14480484e-01</_>
    <_>
      4.92302999e-02 7.04160929e-02 3.17634493e-01 4.51607972e-01
      7.81892985e-02 3.29218097e-02</_>
    <_>
      8.85241747e-01 8.33228137e-03 1.13622018e-03 2.77742720e-03
      9.46850143e-03 9.30438042e-02</_>
    <_>
      0. 8.83726811e-04 9.94823873e-02 8.99002671e-01 6.31233444e-04 0.</_>
    <_>
      6.12898886e-01 2.77176853e-02 1.04110334e-02 2.13628989e-02
      4.50243391e-02 2.82585174e-01</_>
    <_>
      5.20015478e-01 1.45402893e-01 3.69318165e-02 3.08626033e-02
      4.20971066e-02 2.24690080e-01</_>
    <_>
      7.36626029e-01 4.38352861e-02 1.02644609e-02 9.90218576e-03
      2.62045655e-02 1.73167497e-01</_>
    <_>
      3.35656911e-01 1.66469753e-01 1.76984876e-01 2.48227790e-01
      3.06001883e-02 4.20604907e-02</_>
    <_>
      5.61647117e-01 7.51117021e-02 7.06436411e-02 5.66356704e-02
      4.85448614e-02 1.87416986e-01</_>
    <_>
      9.58161131e-02 5.50103299e-02 5.02711773e-01 3.08109492e-01
      9.03925579e-03 2.93130167e-02</_>
    <_>
      6.17381215e-01 1.08729340e-01 5.08781001e-02 3.56404968e-02
      3.09917349e-02 1.56379133e-01</_>
    <_>
      1.32646322e-01 3.21839094e-01 3.34390283e-01 1.98573127e-01
      5.28471405e-03 7.26648187e-03</_>
    <_>
      1.84964985e-02 3.38221677e-02 2.53798395e-01 6.87805533e-01
      3.56718199e-03 2.51023914e-03</_>
    <_>
      1.89744800e-01 1.63043477e-02 3.85160670e-02 2.71857291e-01
      2.68312842e-01 2.15264648e-01</_>
    <_>
      3.22367549e-02 8.81226063e-02 6.16065502e-01 2.56176502e-01
      4.09565354e-03 3.30294622e-03</_>
    <_>
      4.13584143e-01 7.29705840e-02 6.91831857e-02 1.19555615e-01
      1.00492366e-01 2.24214122e-01</_>
    <_>
      5.88842988e-01 8.81973132e-02 4.32592966e-02 3.99018601e-02
      4.41632234e-02 1.95635334e-01</_>
    <_>
      5.69226623e-01 6.39534891e-02 2.75824778e-02 8.51811748e-03
      3.04218493e-02 3.00297469e-01</_>
    <_>
      1.72849715e-01 8.06947052e-02 2.57915884e-01 3.59168231e-01
      5.08034043e-02 7.85680562e-02</_>
    <_>
      4.10578437e-02 2.62045655e-02 2.18089595e-01 5.64545333e-01
      1.11942999e-01 3.81596424e-02</_>
    <_>
      5.12168765e-01 2.79881023e-02 8.59924257e-02 1.36695504e-01
      4.36722562e-02 1.93482965e-01</_>
    <_>
      7.27014601e-01 1.02217413e-01 6.24661967e-02 2.79881023e-02
      5.13791246e-03 7.51757696e-02</_>
    <_>
      4.47055787e-01 2.44059917e-02 7.76084736e-02 3.90625000e-01
      3.62861566e-02 2.40185950e-02</_>
    <_>
      3.13350350e-01 5.79648539e-02 2.05640584e-01 2.40504533e-01
      5.32879829e-02 1.29251704e-01</_>
    <_>
      6.69551134e-01 1.63601954e-02 1.82531103e-02 1.36560304e-02
      3.43428887e-02 2.47836664e-01</_>
    <_>
      9.80623811e-02 5.05907357e-01 3.43336493e-01 3.42627615e-02
      7.56143685e-03 1.08695654e-02</_>
    <_>
      8.28089595e-01 6.05158731e-02 5.66893443e-03 3.82653065e-03
      1.79988667e-02 8.39002281e-02</_>
    <_>
      8.56805265e-01 1.06805295e-01 8.27032141e-03 4.48960299e-03
      4.72589815e-03 1.89035926e-02</_>
    <_>
      4.05219048e-01 4.89453748e-02 1.18848026e-01 3.23418051e-01
      3.81287187e-02 6.54407814e-02</_>
    <_>
      5.99890411e-01 1.47552952e-01 3.30533236e-02 2.22790353e-02
      3.78013141e-02 1.59422934e-01</_>
    <_>
      8.59162390e-01 4.41273600e-02 9.24824970e-04 2.64235702e-03
      5.81318559e-03 8.73299018e-02</_>
    <_>
      2.29560494e-01 5.93100190e-02 2.40548208e-01 3.18761826e-01
      7.02977329e-02 8.15217420e-02</_>
    <_>
      4.72417533e-01 3.52893472e-02 7.42293149e-02 9.15359631e-02
      5.13791256e-02 2.75148720e-01</_>
    <_>
      3.06779444e-02 1.69170555e-02 1.23974249e-01 7.35008180e-01
      8.05453882e-02 1.28771616e-02</_>
    <_>
      7.34503210e-01 1.38871353e-02 6.69107446e-03 9.97348782e-03
      2.24719103e-02 2.12473169e-01</_>
    <_>
      4.15378511e-01 3.18668246e-01 8.93116668e-02 4.54485416e-02
      4.99405451e-02 8.12524781e-02</_>
    <_>
      3.36131185e-01 9.09090936e-02 1.35201439e-01 2.26368800e-01
      4.81663235e-02 1.63223147e-01</_>
    <_>
      1.37138322e-01 3.30294631e-02 1.35156557e-01 6.01004124e-01
      6.43413961e-02 2.93301623e-02</_>
    <_>
      1.73676744e-01 9.33364872e-03 1.94943286e-02 3.82797718e-01
      2.87452728e-01 1.27244800e-01</_>
    <_>
      2.85680532e-01 1.28189981e-01 2.28260875e-01 1.76394135e-01
      7.38421530e-02 1.07632324e-01</_>
    <_>
      6.94939867e-02 1.25379845e-01 4.61223423e-01 3.24745685e-01
      7.92707130e-03 1.12300171e-02</_>
    <_>
      3.72164473e-02 8.97920597e-03 8.50661620e-02 7.60751426e-01
      8.28213617e-02 2.51654070e-02</_>
    <_>
      2.28623697e-03 1.15836002e-02 4.10912961e-01 5.73997855e-01
      4.57247370e-04 7.62078969e-04</_>
    <_>
      1.02623038e-01 1.14521362e-01 3.83180112e-01 3.30854505e-01
      1.81179009e-02 5.07030822e-02</_>
    <_>
      3.20984304e-01 4.93509993e-02 1.04921579e-01 3.98999453e-01
      6.05732836e-02 6.51703626e-02</_>
    <_>
      3.77453506e-01 5.08781001e-02 9.11673531e-02 2.30113640e-01
      7.58006200e-02 1.74586773e-01</_>
    <_>
      5.69295824e-01 3.83141749e-02 1.77037921e-02 1.87607352e-02
      4.21455950e-02 3.13779891e-01</_>
    <_>
      2.81227175e-02 3.70708555e-02 2.47260779e-01 6.28561020e-01
      5.47845140e-02 4.20014607e-03</_>
    <_>
      9.71512049e-02 6.72023371e-02 1.06464572e-01 6.62892640e-01
      4.76625264e-02 1.86267346e-02</_>
    <_>
      5.98566771e-01 2.65413731e-01 5.35424538e-02 1.55489454e-02
      1.02758249e-02 5.66522442e-02</_>
    <_>
      2.85123974e-01 6.92148730e-02 2.18879133e-01 2.42768601e-01
      7.06353337e-02 1.13378100e-01</_>
    <_>
      1.25903919e-01 3.21539268e-02 5.90134300e-02 3.63765508e-01
      3.05139452e-01 1.14023760e-01</_>
    <_>
      1.99905485e-01 8.61294866e-02 4.41162556e-01 2.25897923e-01
      2.23298669e-02 2.45746691e-02</_>
    <_>
      5.82228303e-02 1.03947572e-01 2.54991621e-01 5.69272995e-01
      7.01112626e-03 6.55387901e-03</_>
    <_>
      9.11438644e-01 4.00216319e-02 1.35208224e-03 1.08166575e-03
      2.29853974e-03 4.38074619e-02</_>
    <_>
      5.68488836e-01 9.48112607e-02 6.19871244e-02 4.67112735e-02
      4.02726941e-02 1.87728822e-01</_>
    <_>
      4.79042739e-01 2.80016214e-01 1.11546785e-01 1.91995669e-02
      1.43320709e-02 9.58626270e-02</_>
    <_>
      2.77008303e-03 6.23268681e-03 2.75103867e-01 6.98234081e-01
      1.69667583e-02 6.92520756e-04</_>
    <_>
      3.95278364e-01 1.34326473e-01 1.30917817e-01 8.21865946e-02
      6.31233454e-02 1.94167405e-01</_>
    <_>
      3.96882027e-01 9.42000300e-02 2.40982950e-01 1.12432286e-01
      2.32527424e-02 1.32249966e-01</_>
    <_>
      0. 1.32117842e-04 2.64235705e-01 7.35235810e-01 3.96353542e-04 0.</_>
    <_>
      7.66360223e-01 1.35749057e-01 2.04164404e-02 1.02758249e-02
      1.24391560e-02 5.47593310e-02</_>
    <_>
      1.49824724e-01 7.54458159e-02 1.72382265e-01 3.79667729e-01
      1.39612868e-01 8.30666050e-02</_>
    <_>
      2.03899801e-01 3.42716932e-01 3.78615707e-01 5.15237600e-02
      5.68181835e-03 1.75619833e-02</_>
    <_>
      2.49483466e-01 1.32747933e-01 3.54338855e-01 1.61931813e-01
