<?xml version="1.0"?>
<opencv_storage>
<my_svm type_id="opencv-ml-svm">
  <svm_type>C_SVC</svm_type>
  <kernel><type>LINEAR</type></kernel>
  <C>1.</C>
  <term_criteria><epsilon>1.0000000474974513e-03</epsilon>
    <iterations>100000</iterations></term_criteria>
  <var_all>23</var_all>
  <var_count>23</var_count>
  <class_count>2</class_count>
  <class_labels type_id="opencv-matrix">
    <rows>1</rows>
    <cols>2</cols>
    <dt>i</dt>
    <data>
      -1 1</data></class_labels>
  <sv_total>1</sv_total>
  <support_vectors>
    <_>
      2.04253387e+00 6.42432165e+00 4.30075264e+00 4.65797663e+00
      3.84913898e+00 5.26649380e+00 1.05583344e+01 -1.14941416e+01
      6.74113512e+00 5.40363646e+00 -5.48640728e+00 -3.49336433e+01
      8.75809383e+00 6.25391483e+00 -1.39348612e+01 9.47353077e+00
      -1.10928411e+01 3.88878751e+00 -6.36447191e+00 2.31536007e+00
      1.18952904e+01 3.95025349e+00 -1.24731894e+01</_></support_vectors>
  <decision_functions>
    <_>
      <sv_count>1</sv_count>
      <rho>3.3884361854668033e+00</rho>
      <alpha>
        1.</alpha>
      <index>
        0</index></_></decision_functions></my_svm>
</opencv_storage>
