<?xml version="1.0"?>
<opencv_storage>
<my_svm type_id="opencv-ml-svm">
  <svm_type>C_SVC</svm_type>
  <kernel><type>RBF</type>
    <gamma>5.</gamma></kernel>
  <C>1000.</C>
  <term_criteria><epsilon>9.9999999747524271e-07</epsilon>
    <iterations>1000000</iterations></term_criteria>
  <var_all>45</var_all>
  <var_count>45</var_count>
  <class_count>2</class_count>
  <class_labels type_id="opencv-matrix">
    <rows>1</rows>
    <cols>2</cols>
    <dt>i</dt>
    <data>
      -1 1</data></class_labels>
  <sv_total>179</sv_total>
  <support_vectors>
    <_>
      1.87854450e-02 2.00850656e-03 1.29962189e-03 1.53591682e-03
      8.27032141e-04 6.49810955e-03 2.71739135e-03 4.96219285e-03
      1.41776935e-03 7.08884676e-04 1.18147454e-03 0. 6.61625713e-03
      4.72589803e-04 0. 1.06332707e-03 8.38846900e-03 4.25330829e-03
      3.47353481e-02 1.65406428e-03 3.93431000e-02 1.57136098e-02
      2.15028357e-02 1.26417773e-02 7.50236288e-02 1.31852552e-01
      8.05765614e-02 1.63516074e-01 1.16020791e-01 2.57561430e-02
      7.59688094e-02 6.67533055e-02 2.48109642e-03 1.55954631e-02
      8.27032141e-04 1.59499049e-02 3.18998098e-03 1.77221175e-03 0.
      7.32514169e-03 2.71739135e-03 1.19328918e-02 5.67107741e-03
      6.85255183e-03 1.89035921e-03</_>
    <_>
      4.14514467e-02 5.21694198e-02 5.32024801e-02 1.01110540e-01
      1.01239666e-01 1.53409094e-01 1.10666320e-01 6.71487600e-02
      5.16528934e-02 3.42200398e-02 3.86105366e-02 3.22830584e-03
      3.12500000e-02 1.11053716e-02 1.93698343e-03 1.67871895e-03
      1.22675616e-02 2.45351251e-03 1.74328517e-02 5.16528904e-04
      8.39359500e-03 2.32438021e-03 1.29132229e-03 1.29132226e-04
      4.90702502e-03 1.67871895e-03 0. 7.23140500e-03 2.84090918e-03
      2.58264452e-04 1.33006200e-02 1.29132229e-03 0. 2.58264452e-04 0.
      5.42355375e-03 0. 0. 0. 4.51962790e-03 1.67871895e-03
      2.71177683e-02 6.06921501e-03 1.85950417e-02 5.94008248e-03</_>
    <_>
      7.64413998e-02 5.45841195e-02 3.76890376e-02 6.10822290e-02
      3.65075618e-02 8.42391327e-02 4.93856333e-02 6.08459376e-02
      3.13090719e-02 2.51654070e-02 2.33931951e-02 1.53591682e-03
      3.40264663e-02 9.68809053e-03 2.12665414e-03 5.31663513e-03
      1.83128547e-02 6.97069941e-03 4.59593572e-02 2.12665414e-03
      5.24574667e-02 4.37145540e-03 7.79773155e-03 2.36294902e-04
      1.85491499e-02 9.09735356e-03 0. 2.35113427e-02 5.55292983e-03 0.
      2.10302453e-02 4.96219285e-03 3.54442338e-04 6.26181485e-03
      1.18147451e-04 1.86672974e-02 1.77221175e-03 2.36294902e-04
      2.36294902e-04 9.92438570e-03 8.74291081e-03 6.08459376e-02
      3.04820407e-02 3.18998098e-02 1.61862001e-02</_>
    <_>
      5.00283465e-02 4.25170064e-02 6.33503422e-02 9.69387740e-02
      9.72222239e-02 1.33645117e-01 8.29081610e-02 5.22959195e-02
      3.16043086e-02 2.06916109e-02 1.51643995e-02 1.84240367e-03
      2.29591839e-02 4.67687054e-03 7.08616804e-04 2.69274367e-03
      1.09126987e-02 1.98412710e-03 2.60770973e-02 1.27551018e-03
      2.32426301e-02 8.50340119e-04 6.37755124e-03 0. 2.39512473e-02
      1.31802717e-02 1.84240367e-03 3.41553278e-02 1.23299323e-02 0.
      2.15419494e-02 1.64399091e-02 4.25170059e-04 1.06292516e-02 0.
      9.07029491e-03 1.13378686e-03 4.25170059e-04 0. 4.10997728e-03
      1.27551018e-03 3.23129259e-02 3.25963716e-03 1.85657591e-02
      5.38548734e-03</_>
    <_>
      4.13516071e-03 1.53591682e-03 2.36294902e-04 3.54442338e-04 0.
      2.00850656e-03 1.29962189e-03 4.72589815e-03 2.48109642e-03
      3.30812857e-03 7.32514169e-03 1.89035921e-03 1.77221168e-02
      8.50661658e-03 9.68809053e-03 2.24480145e-02 4.72589806e-02
      6.71077520e-02 1.16847828e-01 1.26181468e-01 2.16446131e-01
      1.46266535e-01 6.76984861e-02 4.22967859e-02 3.26086953e-02
      1.96124762e-02 1.08695654e-02 6.85255183e-03 2.48109642e-03 0.
      3.66257085e-03 9.45179607e-04 0. 0. 0. 1.18147454e-03 0. 0. 0.
      4.72589803e-04 2.36294902e-04 1.89035921e-03 2.36294902e-04
      1.18147454e-03 0.</_>
    <_>
      9.51248500e-03 2.11388548e-03 5.28471370e-04 1.84964994e-03
      1.05694274e-03 5.02047827e-03 3.30294622e-03 7.66283507e-03
      3.03871045e-03 3.56718199e-03 8.98401346e-03 2.64235685e-04
      2.06103846e-02 7.79495295e-03 5.81318559e-03 1.37402564e-02
      3.79178226e-02 3.03871054e-02 5.08653708e-02 3.50112282e-02
      1.20491475e-01 9.65781510e-02 8.12524781e-02 8.25736523e-02
      9.15576667e-02 9.49927345e-02 4.94120754e-02 4.50521857e-02
      2.54987441e-02 2.51023914e-03 1.57220233e-02 1.45329637e-02
      2.51023914e-03 6.20953878e-03 1.05694274e-03 6.73801033e-03
      1.84964994e-03 6.60589256e-04 0. 2.37812125e-03 3.96353542e-04
      4.49200673e-03 1.58541417e-03 2.37812125e-03 5.28471370e-04</_>
    <_>
      4.72589815e-03 0. 0. 0. 0. 2.36294902e-04 0. 1.53591682e-03
      1.18147451e-04 3.54442338e-04 7.08884676e-04 0. 3.42627591e-03
      1.06332707e-03 3.54442338e-04 1.41776935e-03 5.08034043e-03
      1.12240072e-02 3.08364835e-02 2.20935736e-02 1.30316630e-01
      8.19943324e-02 9.31001902e-02 6.40359148e-02 1.59499049e-01
      1.82065219e-01 7.62051046e-02 7.84499049e-02 2.59924382e-02
      2.36294902e-04 1.48865785e-02 6.85255183e-03 0. 9.45179607e-04 0.
      9.45179607e-04 0. 0. 0. 1.18147451e-04 0. 1.18147454e-03 0. 0. 0.</_>
    <_>
      0. 0. 0. 0. 0. 0. 0. 0. 0. 0. 0. 0. 0. 0. 3.78740049e-04
      5.04986732e-04 5.04986732e-04 1.26246689e-03 1.76745362e-03
      1.64120691e-03 2.14619376e-03 9.97348782e-03 1.67908091e-02
      6.53957799e-02 7.30968341e-02 2.42519885e-01 3.39856088e-01
      1.64751932e-01 4.97411937e-02 1.98207293e-02 7.19606131e-03
      2.01994693e-03 2.52493366e-04 3.78740049e-04 0. 0. 0. 0. 0. 0. 0.
      0. 0. 0. 0.</_>
    <_>
      1.08336639e-02 4.22777096e-03 1.18906063e-03 6.60589244e-03
      6.20953878e-03 2.74805129e-02 5.83960898e-02 7.91385919e-02
      9.92205068e-02 9.01043713e-02 1.45065397e-01 2.33848598e-02
      9.67102647e-02 5.28471395e-02 1.74395554e-02 3.64645272e-02
      5.83960898e-02 3.76535878e-02 4.32025380e-02 3.96353565e-03
      6.09063283e-02 3.69929988e-03 6.20953878e-03 0. 1.33439023e-02
      1.58541417e-03 0. 6.73801033e-03 1.45329640e-03 0. 3.03871045e-03
      1.32117842e-04 0. 1.32117842e-04 0. 7.92707084e-04 0. 0. 0.
      1.32117842e-04 0. 2.24600337e-03 3.96353542e-04 5.28471370e-04
      1.32117842e-04</_>
    <_>
      3.08956914e-02 2.65022684e-02 4.87528332e-02 1.11961454e-01
      1.78146258e-01 1.98412701e-01 8.17743763e-02 4.12414968e-02
      2.82029472e-02 1.03458054e-02 9.63718817e-03 8.50340119e-04
      1.11961449e-02 2.83446722e-03 1.13378686e-03 2.97619053e-03
      7.36961467e-03 4.10997728e-03 3.18877548e-02 4.25170059e-04
      2.14002263e-02 1.70068024e-03 6.09410414e-03 8.50340119e-04
      1.26133785e-02 5.95238106e-03 0. 2.32426301e-02 5.66893443e-03 0.
      1.20464852e-02 8.92857183e-03 1.41723358e-04 1.70068024e-03 0.
      5.95238106e-03 4.25170059e-04 9.92063549e-04 1.41723358e-04
      7.51133775e-03 1.55895692e-03 1.94160994e-02 8.92857183e-03
      1.72902495e-02 8.78684781e-03</_>
    <_>
      3.41446139e-02 5.37570901e-02 7.37240091e-02 1.44139886e-01
      1.51701316e-01 1.81710780e-01 9.95982960e-02 6.87618181e-02
      5.63563332e-02 1.94943286e-02 1.64224952e-02 3.30812857e-03
      5.31663513e-03 1.89035921e-03 5.90737269e-04 8.27032141e-04
      1.89035921e-03 7.08884676e-04 2.48109642e-03 0. 8.27032141e-04
      2.36294902e-04 1.18147451e-04 0. 8.27032141e-04 1.06332707e-03 0.
      1.77221175e-03 9.45179607e-04 0. 2.36294908e-03 8.27032141e-04
      2.36294902e-04 1.18147454e-03 0. 6.26181485e-03 1.29962189e-03
      1.18147454e-03 0. 3.89886578e-03 4.48960299e-03 1.19328918e-02
      1.70132332e-02 1.55954631e-02 1.11058597e-02</_>
    <_>
      2.65008118e-02 4.01568413e-02 5.02974577e-02 1.00865334e-01
      1.18712820e-01 1.92266092e-01 1.13439694e-01 1.00459710e-01
      7.69334808e-02 3.55597623e-02 3.52893472e-02 3.38020548e-03
      1.87939424e-02 6.48999447e-03 8.11249309e-04 1.35208218e-04
      3.92103847e-03 2.70416436e-04 4.59707947e-03 0. 4.59707947e-03 0.
      2.70416436e-04 0. 5.40832873e-04 0. 0. 1.75770686e-03
      1.08166575e-03 0. 3.78583022e-03 1.89291511e-03 0. 9.46457556e-04
      0. 6.76041096e-03 6.76041120e-04 1.35208218e-04 0. 3.78583022e-03
      3.78583022e-03 1.75770689e-02 7.30124395e-03 1.44672794e-02
      1.75770686e-03</_>
    <_>
      7.65595436e-02 1.57136098e-02 7.44328927e-03 1.78402644e-02
      1.52410204e-02 5.36389425e-02 5.91918714e-02 8.27032104e-02
      4.12334576e-02 5.65926284e-02 3.15453671e-02 1.06332707e-03
      4.58412096e-02 1.35869561e-02 2.36294902e-04 9.45179607e-04
      1.79584119e-02 6.61625713e-03 6.89981133e-02 5.78922499e-03
      7.66776949e-02 1.13421548e-02 1.86672974e-02 2.12665414e-03
      4.08790186e-02 2.71739122e-02 3.54442350e-03 5.83648384e-02
      2.68194713e-02 1.18147451e-04 2.82372404e-02 8.74291081e-03
      7.08884676e-04 4.37145540e-03 3.54442338e-04 1.20510394e-02
      1.53591682e-03 4.72589803e-04 0. 3.66257085e-03 1.89035921e-03
      3.82797718e-02 2.83553870e-03 1.22873345e-02 1.18147451e-04</_>
    <_>
      2.48783119e-02 7.03082746e-03 3.38020548e-03 1.01406164e-02
      7.84207694e-03 2.08220668e-02 2.24445648e-02 2.83937268e-02
      3.42076793e-02 2.75824778e-02 4.44835052e-02 8.24770145e-03
      4.54299636e-02 2.92049758e-02 1.97404008e-02 2.82585174e-02
      4.78637107e-02 4.48891297e-02 7.69334808e-02 3.78583036e-02
      8.38290974e-02 4.28610072e-02 2.77176853e-02 2.28501894e-02
      3.33964303e-02 3.43428887e-02 1.52785294e-02 3.61005962e-02
      2.25797724e-02 3.65062198e-03 2.37966459e-02 1.93347763e-02
      3.10978899e-03 1.17631154e-02 1.08166575e-03 1.24391560e-02
      4.32666298e-03 1.48729037e-03 4.05624654e-04 5.94916148e-03
      2.16333149e-03 9.32936743e-03 4.19145497e-03 6.48999447e-03
      1.89291511e-03</_>
    <_>
      2.35169772e-02 2.11388548e-03 5.28471370e-04 2.64235685e-04
      2.64235685e-04 4.09565354e-03 1.32117851e-03 5.28471405e-03
      5.54894982e-03 3.83141753e-03 4.62412462e-03 9.24824970e-04
      1.40044922e-02 5.02047827e-03 9.24824970e-04 2.24600337e-03
      1.54577885e-02 5.15259616e-03 5.68106733e-02 4.35988884e-03
      8.70656595e-02 3.56718190e-02 5.40362000e-02 5.72070293e-02
      1.50085881e-01 1.37666792e-01 6.28880933e-02 1.13489233e-01
      5.68106733e-02 2.64235702e-03 3.76535878e-02 2.37812120e-02
      1.58541417e-03 3.96353565e-03 0. 6.73801033e-03 6.60589256e-04
      1.32117842e-04 0. 2.64235702e-03 1.32117842e-04 7.53071718e-03
      1.32117842e-04 1.18906063e-03 0.</_>
    <_>
      6.10822290e-02 5.31663513e-03 1.77221175e-03 4.72589815e-03
      3.30812857e-03 1.35869561e-02 1.28780715e-02 1.86672974e-02
      5.67107741e-03 1.03969751e-02 7.44328927e-03 3.54442338e-04
      2.04395093e-02 1.18147454e-03 2.36294902e-04 8.27032141e-04
      9.09735356e-03 3.07183363e-03 7.06521720e-02 1.41776935e-03
      5.63563332e-02 6.49810955e-03 2.17391308e-02 2.00850656e-03
      6.32088855e-02 6.28544390e-02 1.37051037e-02 1.53946131e-01
      9.29820389e-02 2.12665414e-03 1.13657847e-01 4.20604907e-02
      1.89035921e-03 1.65406428e-02 2.36294902e-04 3.68620045e-02
      1.77221175e-03 7.08884676e-04 0. 5.43478271e-03 1.29962189e-03
      3.72164473e-02 1.41776935e-03 1.22873345e-02 1.06332707e-03</_>
    <_>
      5.85451610e-02 2.69064363e-02 8.92374292e-03 4.85397503e-02
      5.96268252e-02 1.58464029e-01 1.61032990e-01 1.18983231e-01
      6.61168173e-02 7.24716038e-02 3.05570588e-02 0. 3.02866418e-02
      3.65062198e-03 0. 2.02812324e-03 7.70686846e-03 1.48729037e-03
      4.50243391e-02 0. 8.38290993e-03 2.70416436e-04 1.35208218e-04 0.
      2.16333149e-03 0. 0. 9.59978346e-03 1.35208218e-04 0.
      8.78853444e-03 5.67874545e-03 0. 8.11249309e-04 0. 4.73228795e-03
      0. 0. 0. 1.08166575e-03 0. 4.57003787e-02 1.35208224e-03
      1.08166579e-02 0.</_>
    <_>
      3.18998098e-02 4.21786383e-02 9.97164473e-02 1.89272210e-01
      1.93998113e-01 1.73794895e-01 7.66776949e-02 2.55198479e-02
      1.87854450e-02 8.27032141e-03 4.37145540e-03 9.45179607e-04
      2.36294908e-03 9.45179607e-04 1.18147451e-04 0. 1.06332707e-03
      1.18147451e-04 5.55292983e-03 0. 0. 0. 0. 0. 4.72589803e-04 0. 0.
      2.24480149e-03 1.18147451e-04 0. 7.79773155e-03 2.12665414e-03
      4.72589803e-04 7.56143685e-03 1.29962189e-03 1.03969751e-02
      4.60775057e-03 2.12665414e-03 4.72589803e-04 7.79773155e-03
      8.27032141e-03 2.35113427e-02 1.97306238e-02 2.00850666e-02
      5.31663513e-03</_>
    <_>
      5.32844998e-02 7.32514169e-03 2.00850656e-03 2.59924377e-03
      1.29962189e-03 1.35869561e-02 3.07183363e-03 1.81947071e-02
      1.65406428e-03 3.07183363e-03 4.25330829e-03 0. 1.58317573e-02
      2.59924377e-03 0. 9.45179607e-04 6.97069941e-03 1.53591682e-03
      3.09546310e-02 0. 3.18998098e-02 1.27599239e-02 2.28024572e-02
      8.38846900e-03 6.13185242e-02 7.33695626e-02 2.85916831e-02
      1.24527410e-01 9.48724002e-02 7.32514169e-03 9.22731534e-02
      8.37665424e-02 1.41776935e-03 3.70982997e-02 0. 3.78071852e-02
      6.97069941e-03 1.06332707e-03 0. 2.09120978e-02 4.96219285e-03
      5.26937619e-02 3.30812857e-03 2.22117193e-02 4.72589803e-04</_>
    <_>
      7.71645904e-02 5.60318790e-02 4.98732030e-02 8.39270651e-02
      6.33981377e-02 1.04818262e-01 7.70438388e-02 7.49909431e-02
      4.58881781e-02 4.85448614e-02 4.03332934e-02 1.44910032e-03
      3.58652323e-02 7.00398488e-03 2.77744234e-03 3.86426761e-03
      7.36626005e-03 2.17365054e-03 2.81366985e-02 1.20758363e-04
      7.60777667e-03 1.20758363e-04 3.62275081e-04 0. 4.83033434e-03
      8.45308532e-04 0. 6.03791792e-03 1.20758358e-03 0. 1.02644609e-02
      3.01895896e-03 2.41516726e-04 1.56985875e-03 0. 1.26796281e-02
      1.44910032e-03 1.08682527e-03 0. 7.60777667e-03 3.74350930e-03
      5.10807857e-02 2.53592562e-02 3.21217254e-02 1.79929957e-02</_>
    <_>
      8.30817521e-02 5.44620231e-02 1.54570704e-02 4.37145270e-02
      1.99251305e-02 8.88781548e-02 6.50887564e-02 6.38811737e-02
      1.67854130e-02 2.04081628e-02 1.40079698e-02 0. 2.31856052e-02
      1.69061706e-03 6.03791792e-04 1.32834201e-03 9.05687734e-03
      3.74350930e-03 2.97065563e-02 1.08682527e-03 3.45368907e-02
      7.36626005e-03 5.07185142e-03 9.66066902e-04 2.19780225e-02
      1.64231379e-02 1.20758363e-04 3.62275094e-02 1.64231379e-02 0.
      2.18572635e-02 1.06267361e-02 2.41516726e-04 1.06267361e-02 0.
      1.94420964e-02 5.43412613e-03 5.43412613e-03 1.20758363e-04
      2.57215314e-02 2.14949884e-02 8.47723708e-02 3.87634337e-02
      5.21676131e-02 8.09080992e-03</_>
    <_>
      0. 0. 0. 0. 0. 0. 0. 0. 0. 0. 1.35208218e-04 0. 1.35208218e-04
      4.05624654e-04 0. 0. 6.76041120e-04 2.70416436e-04 9.46457556e-04
      1.35208224e-03 3.51541373e-03 8.78853444e-03 1.08166579e-02
      4.08328809e-02 4.59707938e-02 1.16414279e-01 2.35803142e-01
      2.52028137e-01 1.55489460e-01 8.40995163e-02 2.58247703e-02
      1.01406164e-02 3.38020548e-03 8.11249309e-04 1.35208218e-04
      5.40832873e-04 0. 1.35208218e-04 0. 4.05624654e-04 9.46457556e-04
      0. 0. 0. 0.</_>
    <_>
      9.67627615e-02 6.75803423e-02 5.64744808e-02 6.73440471e-02
      4.33601141e-02 6.95888475e-02 3.53260860e-02 3.33175808e-02
      1.15784500e-02 1.35869561e-02 8.50661658e-03 0. 7.79773155e-03
      9.45179607e-04 2.36294902e-04 5.90737269e-04 1.06332707e-03
      2.36294902e-04 1.72495283e-02 0. 5.67107741e-03 0. 1.65406428e-03
      0. 2.95368629e-03 6.14366727e-03 0. 1.77221168e-02 1.86672974e-02
      0. 3.68620045e-02 2.28024572e-02 4.01701313e-03 1.74858216e-02
      1.77221175e-03 3.30812857e-02 1.08695654e-02 4.72589815e-03
      8.27032141e-04 3.66257094e-02 1.98487714e-02 6.01370521e-02
      6.95888475e-02 6.78166375e-02 2.91824192e-02</_>
    <_>
      1.30796675e-02 1.18906063e-03 0. 7.92707084e-04 7.92707084e-04
      4.62412462e-03 2.11388548e-03 9.38036758e-03 4.75624250e-03
      4.22777096e-03 7.92707130e-03 5.28471370e-04 8.71977769e-03
      3.83141753e-03 1.45329640e-03 4.09565354e-03 1.45329637e-02
      8.32342450e-03 2.69520413e-02 5.54894982e-03 6.71158656e-02
      2.86695734e-02 5.39040826e-02 2.52345093e-02 1.17584884e-01
      1.77698508e-01 1.09129347e-01 1.30003959e-01 6.87012821e-02
      1.49293169e-02 4.04280610e-02 2.14030910e-02 1.58541417e-03
      2.90659280e-03 0. 9.38036758e-03 0. 0. 0. 1.32117842e-04 0.
      7.53071718e-03 0. 7.92707084e-04 0.</_>
    <_>
      4.55332398e-02 1.09072020e-02 1.21191132e-03 5.54016605e-03
      7.96398893e-03 2.75277011e-02 2.57963985e-02 4.01662067e-02
      1.15997232e-02 1.78324096e-02 1.28116347e-02 0. 1.17728533e-02
      3.80886416e-03 3.46260378e-04 2.59695295e-03 8.82964022e-03
      5.54016605e-03 2.89127417e-02 5.36703598e-03 4.41481993e-02
      2.18144041e-02 2.14681439e-02 1.66204982e-02 8.41412768e-02
      8.88157859e-02 5.79986162e-02 9.15858746e-02 5.66135719e-02
      1.07340720e-02 6.09418266e-02 5.76523542e-02 6.40581734e-03
      1.54085876e-02 3.46260378e-04 2.68351808e-02 3.98199446e-03
      1.73130189e-03 1.73130189e-04 7.79085886e-03 2.77008303e-03
      2.94321328e-02 3.11634340e-03 1.47160664e-02 6.92520756e-04</_>
    <_>
      5.26859500e-02 2.06611562e-03 1.29132226e-04 2.84090918e-03
      7.74793385e-04 1.12345042e-02 9.81405005e-03 1.62706617e-02
      3.61570250e-03 9.55578499e-03 7.61880167e-03 1.67871895e-03
      2.02737600e-02 6.58574374e-03 2.45351251e-03 3.22830584e-03
      2.23398767e-02 1.71745867e-02 9.68491733e-02 1.79493800e-02
      2.23915294e-01 4.37758267e-02 6.46952465e-02 1.60123967e-02
      1.00206614e-01 7.06353337e-02 7.23140500e-03 5.66890500e-02
      2.93130167e-02 5.16528904e-04 3.17665301e-02 1.17510334e-02
      9.03925626e-04 1.54958677e-03 0. 5.55268582e-03 0. 0. 0.
      1.03305781e-03 9.03925626e-04 2.19524801e-02 1.16219011e-03
      4.13223123e-03 1.16219011e-03</_>
    <_>
      4.21786383e-02 2.13846881e-02 2.74102073e-02 4.05245759e-02
      3.98156904e-02 4.96219285e-02 2.42202263e-02 2.19754260e-02
      1.65406428e-02 1.03969751e-02 9.68809053e-03 3.54442338e-04
      9.09735356e-03 2.24480149e-03 5.90737269e-04 1.53591682e-03
      3.54442350e-03 2.36294908e-03 1.47684310e-02 1.18147451e-04
      1.26417773e-02 4.25330829e-03 9.09735356e-03 4.01701313e-03
      3.06001883e-02 6.09640814e-02 1.33506618e-02 1.00661628e-01
      1.09168239e-01 1.06332707e-03 4.54867668e-02 7.72684291e-02
      4.25330829e-03 3.01275998e-02 2.48109642e-03 3.27268429e-02
      1.60680525e-02 5.19848755e-03 1.89035921e-03 1.48865785e-02
      8.50661658e-03 3.28449905e-02 1.59499049e-02 2.12665405e-02
      6.85255183e-03</_>
    <_>
      5.05671091e-02 5.11578433e-02 2.00850666e-02 6.19092621e-02
      4.85586002e-02 8.71928185e-02 1.22637048e-01 1.04560494e-01
      7.89224952e-02 6.87618181e-02 5.51748574e-02 3.30812857e-03
      3.10727786e-02 1.09877130e-02 3.89886578e-03 4.60775057e-03
      1.29962191e-02 8.86105839e-03 1.59499049e-02 2.12665414e-03
      1.90217383e-02 1.77221175e-03 1.29962189e-03 1.18147451e-04
      2.00850656e-03 1.77221175e-03 4.72589803e-04 7.91587867e-03
      2.59924377e-03 0. 1.29962191e-02 3.18998098e-03 0. 7.08884676e-04
      0. 8.50661658e-03 5.90737269e-04 2.36294902e-04 0. 1.02788284e-02
      1.53591682e-03 3.31994332e-02 1.78402644e-02 2.58742906e-02
      4.72589815e-03</_>
    <_>
      6.57283068e-02 6.71487581e-03 1.93698343e-03 2.19524791e-03
      1.16219011e-03 1.39462808e-02 5.68181835e-03 1.84659082e-02
      1.02014467e-02 4.90702502e-03 1.53667359e-02 1.80785125e-03
      3.37035134e-02 7.10227294e-03 1.42045459e-03 4.13223123e-03
      2.97004133e-02 9.42665245e-03 1.02143593e-01 1.16219011e-03
      7.74793401e-02 1.22675616e-02 3.02169416e-02 2.06611562e-03
      7.21849203e-02 4.68750000e-02 7.36053707e-03 1.41399801e-01
      6.49535134e-02 5.16528904e-04 6.98605403e-02 4.32592966e-02
      2.58264452e-04 1.40754133e-02 1.29132226e-04 2.60847099e-02
      2.58264458e-03 1.42045459e-03 0. 3.74483480e-03 9.03925626e-04
      3.47365700e-02 2.58264458e-03 7.61880167e-03 5.16528904e-04</_>
    <_>
      2.49433108e-02 9.77891125e-03 9.07029491e-03 1.30385486e-02
      1.10544218e-02 2.05498859e-02 2.02664398e-02 2.63605434e-02
      2.70691607e-02 3.14625837e-02 4.35090698e-02 6.94444450e-03
      3.89739238e-02 2.05498859e-02 1.09126987e-02 2.18253974e-02
      3.47222239e-02 3.96825410e-02 6.36337847e-02 3.89739238e-02
      7.31292516e-02 5.96655346e-02 4.12414968e-02 2.73526069e-02
      4.01077084e-02 3.99659872e-02 1.40306121e-02 2.89115645e-02
      2.29591839e-02 2.26757373e-03 1.85657591e-02 2.43764166e-02
      4.39342391e-03 1.44557822e-02 2.83446722e-03 1.20464852e-02
      7.22789112e-03 2.69274367e-03 1.41723361e-03 1.20464852e-02
      4.25170083e-03 1.21882083e-02 6.66099787e-03 8.36167764e-03
      5.52721089e-03</_>
    <_>
      1.02788284e-02 3.78071843e-03 2.24480149e-03 1.03969751e-02
      2.96550095e-02 9.36909243e-02 1.44258037e-01 7.91587904e-02
      8.44754279e-02 4.30056714e-02 6.16729669e-02 5.67107741e-03
      5.19848764e-02 2.88279764e-02 1.08695654e-02 1.97306238e-02
      4.46597338e-02 2.61105858e-02 5.50567098e-02 1.25236297e-02
      7.34877139e-02 1.42958416e-02 1.58317573e-02 3.78071843e-03
      1.46502834e-02 1.01606809e-02 2.95368629e-03 1.57136098e-02
      4.25330829e-03 1.18147451e-04 5.55292983e-03 3.18998098e-03 0.
      1.18147454e-03 2.36294902e-04 4.84404527e-03 8.27032141e-04
      7.08884676e-04 0. 1.77221175e-03 1.18147451e-04 5.90737257e-03
      1.18147451e-04 2.12665414e-03 1.18147451e-04</_>
    <_>
      1.02433838e-01 7.28969723e-02 2.48109642e-02 3.35538760e-02
      1.32325143e-02 5.64744808e-02 2.55198479e-02 2.97731571e-02
      1.20510394e-02 6.97069941e-03 4.25330829e-03 2.36294902e-04
      6.97069941e-03 2.12665414e-03 1.18147451e-04 5.90737269e-04
      1.53591682e-03 2.36294902e-04 2.41020788e-02 0. 7.44328927e-03
      1.18147451e-04 2.48109642e-03 0. 7.44328927e-03 1.96124762e-02
      2.95368629e-03 2.97731571e-02 2.07939502e-02 4.72589803e-04
      4.66682427e-02 1.66587904e-02 2.36294902e-04 2.88279764e-02
      1.18147451e-04 6.56899810e-02 1.11058597e-02 3.42627591e-03
      2.36294902e-04 3.16635147e-02 2.05576569e-02 1.12358220e-01
      5.03308140e-02 8.28213617e-02 2.03213617e-02</_>
    <_>
      1.83643810e-02 4.62412462e-03 1.32117851e-03 5.94530301e-03
      8.58766027e-03 2.19315626e-02 3.58039364e-02 4.67697196e-02
      5.39040826e-02 5.95851503e-02 1.15999475e-01 2.37812120e-02
      1.26040429e-01 5.83960898e-02 3.81820574e-02 4.33346555e-02
      6.52662143e-02 4.05601785e-02 5.86603247e-02 1.01730740e-02
      6.81728125e-02 1.49293169e-02 1.16263712e-02 5.02047827e-03
      1.09657813e-02 9.51248500e-03 1.71753205e-03 1.32117849e-02
      2.11388548e-03 0. 9.64460336e-03 2.64235702e-03 0. 1.18906063e-03
      0. 1.71753205e-03 0. 0. 0. 2.64235685e-04 0. 7.66283507e-03
      7.92707084e-04 1.58541417e-03 0.</_>
    <_>
      2.78827976e-02 5.16304336e-02 5.25756143e-02 1.36224002e-01
      1.31498113e-01 1.98842153e-01 1.30671084e-01 6.93525523e-02
      5.36389425e-02 3.02457474e-02 2.31569000e-02 5.55292983e-03
      1.38232512e-02 4.60775057e-03 1.77221175e-03 2.36294908e-03
      4.72589815e-03 2.48109642e-03 4.13516071e-03 1.18147451e-04
      3.54442350e-03 4.72589803e-04 5.90737269e-04 0. 1.41776935e-03
      5.90737269e-04 0. 2.36294908e-03 1.06332707e-03 0. 2.24480149e-03
      5.90737269e-04 0. 3.54442338e-04 0. 7.08884676e-04 3.54442338e-04
      9.45179607e-04 0. 9.45179607e-04 2.48109642e-03 9.92438570e-03
      8.74291081e-03 7.08884699e-03 1.02788284e-02</_>
    <_>
      4.06855941e-02 4.83033247e-02 4.38019373e-02 9.00276974e-02
      9.50484797e-02 1.37119114e-01 1.31405815e-01 9.14127454e-02
      7.32340738e-02 3.01246531e-02 2.71814410e-02 2.07756227e-03
      1.61011089e-02 6.05955673e-03 1.03878113e-03 1.55817170e-03
      6.92520756e-03 2.94321333e-03 1.02146817e-02 0. 8.31024908e-03 0.
      1.03878113e-03 0. 2.42382265e-03 2.25069257e-03 3.46260378e-04
      7.44459825e-03 5.02077583e-03 0. 7.09833810e-03 2.42382265e-03 0.
      3.11634340e-03 3.46260378e-04 1.03878118e-02 3.28947371e-03
      8.65650945e-04 0. 1.21191135e-02 6.05955673e-03 1.76592804e-02
      1.93905812e-02 2.11218838e-02 1.40235461e-02</_>
    <_>
      6.41540661e-02 8.25850666e-02 8.23487714e-02 1.22518905e-01
      9.80623811e-02 1.04796790e-01 7.70321339e-02 5.45841195e-02
      3.00094523e-02 1.89035926e-02 1.64224952e-02 1.89035921e-03
      1.29962191e-02 2.95368629e-03 1.29962189e-03 2.00850656e-03
      4.84404527e-03 3.18998098e-03 5.55292983e-03 3.54442338e-04
      6.37996197e-03 0. 5.90737269e-04 0. 8.27032141e-04 0. 0.
      1.53591682e-03 9.45179607e-04 0. 4.13516071e-03 4.13516071e-03
      3.54442338e-04 3.78071843e-03 4.72589803e-04 1.39413988e-02
      2.24480149e-03 8.27032141e-04 0. 1.33506618e-02 1.22873345e-02
      3.95793952e-02 4.01701331e-02 4.22967859e-02 2.56379955e-02</_>
    <_>
      2.60838065e-02 3.86426761e-03 3.74350930e-03 2.17365054e-03
      2.53592571e-03 7.72853522e-03 5.19260950e-03 2.10119542e-02
      1.01437028e-02 1.12305274e-02 2.16157474e-02 6.03791792e-03
      4.21446674e-02 1.95628554e-02 1.12305274e-02 1.53363124e-02
      4.23861854e-02 3.29670347e-02 7.95797631e-02 1.34041784e-02
      1.32471919e-01 5.36167137e-02 5.28921634e-02 2.22195387e-02
      7.37833604e-02 7.86136910e-02 1.42494868e-02 6.44849688e-02
      2.86197327e-02 3.62275081e-04 2.43931897e-02 1.79929957e-02
      1.93213380e-03 1.00229438e-02 3.62275081e-04 1.44910039e-02
      4.22654254e-03 7.24550162e-04 0. 4.34730109e-03 1.56985875e-03
      1.17135616e-02 3.01895896e-03 5.19260950e-03 7.24550162e-04</_>
    <_>
      6.45661168e-03 1.58832651e-02 2.77634300e-02 8.35485533e-02
      1.54054746e-01 2.88223147e-01 1.26936987e-01 8.98760334e-02
      7.29597136e-02 1.83367766e-02 1.87241733e-02 3.74483480e-03
      6.32747915e-03 1.93698343e-03 6.45661145e-04 5.16528904e-04
      9.03925626e-04 1.16219011e-03 1.42045459e-03 5.16528904e-04
      2.45351251e-03 1.93698343e-03 2.19524791e-03 6.84400834e-03
      1.05888434e-02 1.73037183e-02 1.58832651e-02 1.00723142e-02
      3.22830584e-03 7.74793385e-04 6.45661145e-04 3.87396693e-04 0. 0.
      0. 5.16528904e-04 0. 0. 0. 0. 1.29132226e-04 1.03305781e-03
      2.06611562e-03 2.45351251e-03 1.54958677e-03</_>
    <_>
      1.22869601e-02 1.32117842e-04 0. 0. 0. 1.32117851e-03
      1.84964994e-03 5.28471405e-03 2.64235702e-03 4.35988884e-03
      6.20953878e-03 5.28471370e-04 1.01730740e-02 3.30294622e-03
      1.71753205e-03 5.54894982e-03 1.04373097e-02 6.60589244e-03
      2.57629808e-02 3.03871045e-03 5.74712642e-02 3.19725201e-02
      3.77857052e-02 2.58950982e-02 1.06486984e-01 1.72942266e-01
      1.02391332e-01 1.74659804e-01 1.06883340e-01 1.42687280e-02
      3.34258154e-02 2.00819131e-02 1.32117851e-03 4.35988884e-03 0.
      2.24600337e-03 7.92707084e-04 0. 0. 1.58541417e-03 0.
      3.03871045e-03 0. 1.18906063e-03 0.</_>
    <_>
      4.22262400e-02 1.09762400e-02 2.06611562e-03 8.39359500e-03
      7.23140500e-03 2.80216951e-02 2.11776868e-02 3.03460751e-02
      1.30423550e-02 1.31714875e-02 1.42045459e-02 1.67871895e-03
      2.81508267e-02 5.68181835e-03 1.93698343e-03 3.74483480e-03
      1.74328517e-02 1.05888434e-02 4.84245867e-02 7.48966960e-03
      7.07644597e-02 4.82954532e-02 4.27427702e-02 2.16942150e-02
      1.00594006e-01 1.01239666e-01 1.92407016e-02 6.22417368e-02
      2.64721066e-02 2.97004124e-03 4.45506200e-02 1.35588842e-02 0.
      6.58574374e-03 0. 2.77634300e-02 2.19524791e-03 0. 0.
      1.42045459e-02 4.77789249e-03 3.38326432e-02 7.61880167e-03
      3.21539268e-02 5.16528904e-04</_>
    <_>
      1.00307181e-01 1.24054821e-02 1.29962189e-03 3.89886578e-03
      4.25330829e-03 2.81190928e-02 9.68809053e-03 2.23298669e-02
      1.29962189e-03 1.89035921e-03 1.53591682e-03 1.18147451e-04
      1.11058597e-02 3.54442338e-04 0. 2.36294902e-04 3.42627591e-03
      3.54442338e-04 5.22211716e-02 1.18147451e-04 3.22542526e-02
      7.67958397e-03 1.22873345e-02 3.66257085e-03 4.60775048e-02
      4.86767478e-02 1.34688094e-02 8.80198479e-02 5.18667288e-02
      1.65406428e-03 1.24054819e-01 6.86436668e-02 5.08034043e-03
      2.32750475e-02 1.18147454e-03 6.53355420e-02 5.55292983e-03
      2.12665414e-03 3.54442338e-04 2.51654070e-02 1.77221168e-02
      5.32844998e-02 1.45321358e-02 3.06001883e-02 2.48109642e-03</_>
    <_>
      1.18983231e-01 1.18442401e-01 1.48593828e-01 1.17090322e-01
      7.88263902e-02 6.36830702e-02 4.75932918e-02 3.13683078e-02
      7.57166045e-03 8.24770145e-03 1.21687399e-03 0. 3.78583022e-03
      4.05624654e-04 0. 0. 6.76041120e-04 1.35208218e-04 1.06814494e-02
      0. 8.11249309e-04 0. 0. 0. 1.35208218e-04 8.11249309e-04 0.
      1.35208224e-03 0. 0. 5.00270398e-03 2.29853974e-03 0.
      2.02812324e-03 0. 1.54137369e-02 2.43374798e-03 1.21687399e-03
      1.35208218e-04 1.43320709e-02 1.37912389e-02 4.54299636e-02
      5.44889122e-02 4.29962128e-02 4.00216319e-02</_>
    <_>
      6.07277900e-02 8.18761811e-02 9.14461240e-02 1.50637999e-01
      1.08104914e-01 1.27008513e-01 8.55387524e-02 5.09215519e-02
      3.16635147e-02 1.86672974e-02 1.42958416e-02 8.27032141e-04
      1.92580335e-02 1.89035921e-03 7.08884676e-04 3.54442338e-04
      5.78922499e-03 3.18998098e-03 1.21691870e-02 5.90737269e-04
      1.02788284e-02 4.72589803e-04 7.08884676e-04 3.54442338e-04
      1.77221175e-03 3.54442338e-04 0. 4.01701313e-03 1.29962189e-03 0.
      6.26181485e-03 8.27032141e-04 0. 1.65406428e-03 0. 7.79773155e-03
      2.12665414e-03 7.08884676e-04 0. 6.73440471e-03 7.32514169e-03
      1.91398859e-02 2.06758026e-02 2.26843096e-02 1.91398859e-02</_>
    <_>
      1.20867766e-01 2.25981399e-02 1.11053716e-02 2.67303716e-02
      2.71177683e-02 6.26291335e-02 2.59555783e-02 5.63016534e-02
      1.02014467e-02 9.42665245e-03 1.04597108e-02 9.03925626e-04
      3.24121900e-02 2.71177688e-03 2.58264452e-04 1.54958677e-03
      1.30423550e-02 4.64876043e-03 6.92148730e-02 3.87396693e-04
      3.53822298e-02 6.45661168e-03 1.17510334e-02 2.58264458e-03
      3.47365700e-02 2.16942150e-02 3.61570250e-03 7.54132196e-02
      3.21539268e-02 6.45661145e-04 7.32179731e-02 2.28564050e-02
      9.03925626e-04 1.20092975e-02 7.74793385e-04 5.57851233e-02
      4.77789249e-03 9.03925626e-04 1.29132226e-04 1.51084708e-02
      7.87706580e-03 3.74483466e-02 1.25258267e-02 1.51084708e-02
      7.61880167e-03</_>
    <_>
      8.68383721e-02 3.11909262e-02 1.84310023e-02 2.43383739e-02
      1.25236297e-02 3.30812857e-02 1.78402644e-02 2.10302453e-02
      1.77221175e-03 8.97920597e-03 4.60775057e-03 0. 1.41776940e-02
      1.65406428e-03 0. 3.54442338e-04 2.12665414e-03 8.27032141e-04
      2.77646501e-02 0. 8.62476416e-03 2.48109642e-03 5.55292983e-03
      1.41776935e-03 1.52410204e-02 2.20935736e-02 5.55292983e-03
      4.33601141e-02 5.52930050e-02 0. 5.80103956e-02 8.69565234e-02
      9.56994295e-03 4.80860099e-02 3.30812857e-03 5.52930050e-02
      2.29206048e-02 8.38846900e-03 7.08884676e-04 2.51654070e-02
      1.11058597e-02 7.71502852e-02 4.60775048e-02 5.95463142e-02
      2.05576569e-02</_>
    <_>
      3.08274738e-02 6.50351569e-02 9.04543027e-02 1.30611137e-01
      1.50892377e-01 1.97133586e-01 9.96484607e-02 6.28718212e-02
      3.23147662e-02 1.31151974e-02 1.33856134e-02 5.40832873e-04
      6.76041096e-03 1.75770686e-03 1.35208218e-04 1.35208218e-04
      2.70416448e-03 5.40832873e-04 7.16603547e-03 0. 5.13791246e-03 0.
      2.70416436e-04 0. 1.35208218e-04 1.35208218e-04 0. 9.46457556e-04
      1.35208218e-04 0. 1.48729037e-03 1.08166575e-03 0. 1.08166575e-03
      0. 6.89561944e-03 1.35208224e-03 1.35208218e-04 0. 6.35478646e-03
      2.70416448e-03 2.31206063e-02 1.58193614e-02 1.56841539e-02
      1.14926985e-02</_>
    <_>
      9.91735533e-02 9.14256200e-02 7.38636330e-02 7.03770667e-02
      4.82954532e-02 6.13378100e-02 3.99018601e-02 3.34452465e-02
      2.75051650e-02 1.73037183e-02 1.52376033e-02 2.71177688e-03
      1.22675616e-02 6.19834708e-03 2.06611562e-03 3.22830584e-03
      6.71487581e-03 5.03615709e-03 6.71487581e-03 7.74793385e-04
      7.23140500e-03 3.22830584e-03 1.42045459e-03 2.58264452e-04
      2.58264458e-03 3.09917354e-03 1.03305781e-03 2.45351251e-03
      3.22830584e-03 2.58264452e-04 9.55578499e-03 5.55268582e-03
      6.45661145e-04 6.71487581e-03 5.16528904e-04 1.18801650e-02
      6.19834708e-03 4.51962790e-03 3.35743790e-03 2.16942150e-02
      2.47933883e-02 4.42923568e-02 8.56146663e-02 6.12086765e-02
      6.50826469e-02</_>
    <_>
      7.49909431e-02 6.24320731e-02 5.18053360e-02 7.53532201e-02
      7.48701841e-02 1.33317232e-01 8.93611908e-02 7.76476264e-02
      3.62275094e-02 3.10348999e-02 2.53592562e-02 8.45308532e-04
      2.00458877e-02 8.45308509e-03 7.24550162e-04 1.69061706e-03
      4.83033434e-03 1.44910032e-03 1.77514795e-02 0. 4.46805963e-03 0.
      8.45308532e-04 0. 1.44910032e-03 1.08682527e-03 0. 3.86426761e-03
      1.81137549e-03 0. 1.53363124e-02 3.98502592e-03 0. 3.86426761e-03
      0. 1.48532782e-02 3.26047582e-03 8.45308532e-04 0. 1.15928026e-02
      3.74350930e-03 7.12474361e-02 1.71476882e-02 4.20239083e-02
      1.03852190e-02</_>
    <_>
      2.45746691e-02 2.11483929e-02 9.09735356e-03 2.48109642e-02
      1.90217383e-02 5.06852567e-02 7.21880943e-02 7.00614378e-02
      9.84168276e-02 7.04158768e-02 8.34120959e-02 1.83128547e-02
      7.86862001e-02 4.71408330e-02 3.18998098e-02 3.91068049e-02
      4.89130430e-02 3.44990566e-02 3.75708900e-02 1.07514178e-02
      2.69376189e-02 1.02788284e-02 5.67107741e-03 6.26181485e-03
      3.89886578e-03 1.53591682e-03 1.18147451e-04 3.07183363e-03
      1.65406428e-03 0. 7.44328927e-03 3.89886578e-03 0. 1.53591682e-03
      0. 4.72589815e-03 3.54442338e-04 3.54442338e-04 0. 2.24480149e-03
      1.89035921e-03 1.55954631e-02 2.83553870e-03 7.67958397e-03
      1.29962189e-03</_>
    <_>
      3.02549880e-02 1.32117842e-04 0. 3.96353542e-04 5.28471370e-04
      2.11388548e-03 3.83141753e-03 1.28154317e-02 7.53071718e-03
      2.77447491e-03 2.37812125e-03 1.32117842e-04 1.44008454e-02
      1.18906063e-03 1.32117842e-04 1.98176783e-03 1.18906060e-02
      1.01730740e-02 6.13026805e-02 9.90883913e-03 1.22737482e-01
      6.90976381e-02 8.89153108e-02 2.99907513e-02 1.67261198e-01
      1.40044913e-01 5.62822036e-02 6.53983355e-02 3.34258154e-02
      1.05694274e-03 2.32527424e-02 1.81001462e-02 1.45329640e-03
      2.11388548e-03 0. 1.84964994e-03 9.24824970e-04 0. 0.
      2.64235685e-04 0. 3.83141753e-03 0. 1.32117842e-04 0.</_>
    <_>
      5.11296093e-02 2.90659280e-03 1.32117842e-04 2.77447491e-03
      2.90659280e-03 1.53256701e-02 7.79495295e-03 3.21046375e-02
      4.35988884e-03 9.90883913e-03 1.16263712e-02 5.28471370e-04
      4.14850041e-02 1.17584886e-02 3.43506411e-03 1.26833133e-02
      4.18813564e-02 2.69520413e-02 9.27467272e-02 7.26648187e-03
      1.51274934e-01 5.09974882e-02 6.42092749e-02 1.99497957e-02
      1.00541681e-01 7.27969334e-02 1.08336639e-02 6.07742108e-02
      3.01228687e-02 0. 1.96855590e-02 6.34165667e-03 0. 2.64235685e-04
      0. 7.39859976e-03 0. 0. 0. 6.60589256e-04 3.96353542e-04
      1.70432031e-02 9.24824970e-04 6.07742090e-03 0.</_>
    <_>
      9.22120064e-02 6.71984851e-02 3.31260152e-02 6.21957816e-02
      6.04380742e-02 1.38318017e-01 6.31422400e-02 3.06922663e-02
      7.43645197e-03 1.67658199e-02 5.54353697e-03 0. 9.46457591e-03
      2.70416436e-04 0. 0. 1.35208224e-03 0. 2.54191458e-02 0.
      1.08166575e-03 0. 0. 0. 4.05624654e-04 1.35208218e-04 0.
      8.51811748e-03 1.35208224e-03 0. 2.67712269e-02 2.70416448e-03 0.
      3.38020548e-03 0. 4.00216319e-02 4.05624654e-04 6.76041120e-04 0.
      2.37966459e-02 7.30124395e-03 1.39534891e-01 2.62303948e-02
      1.01946995e-01 2.16333149e-03</_>
    <_>
      9.45247933e-02 2.15650834e-02 6.32747915e-03 1.63997933e-02
      5.94008248e-03 5.51394634e-02 4.84245867e-02 7.06353337e-02
      1.93698350e-02 4.70041335e-02 3.99018601e-02 3.35743790e-03
      6.12086765e-02 2.02737600e-02 7.10227294e-03 1.74328517e-02
      5.06198332e-02 1.82076450e-02 7.67045468e-02 2.06611562e-03
      6.88274801e-02 6.97314041e-03 1.00723142e-02 6.45661145e-04
      2.56973132e-02 1.91115700e-02 2.58264452e-04 4.67458665e-02
      1.52376033e-02 0. 2.94421483e-02 6.19834708e-03 0. 9.03925626e-04
      0. 5.94008248e-03 6.45661145e-04 0. 0. 6.71487581e-03
      3.61570250e-03 3.88687998e-02 1.02014467e-02 2.01446284e-02
      1.54958677e-03</_>
    <_>
      2.24690083e-02 2.67303716e-02 5.26859500e-02 8.61312002e-02
      9.71074402e-02 1.07050620e-01 3.80940065e-02 1.67871900e-02
      7.36053707e-03 5.42355375e-03 3.09917354e-03 1.03305781e-03
      4.00309917e-03 2.06611562e-03 6.45661145e-04 7.74793385e-04
      2.06611562e-03 2.58264458e-03 1.30423550e-02 1.03305781e-03
      2.24690083e-02 1.13636367e-02 1.35588842e-02 1.14927683e-02
      3.89979333e-02 6.88274801e-02 2.66012400e-02 6.74070269e-02
      8.09659064e-02 4.64876043e-03 5.37190065e-02 4.94576432e-02
      5.03615709e-03 1.47210741e-02 0. 9.29752085e-03 2.06611562e-03 0.
      2.58264452e-04 4.90702502e-03 2.32438021e-03 1.04597108e-02
      3.87396687e-03 3.61570250e-03 3.74483480e-03</_>
    <_>
      0. 0. 0. 0. 0. 0. 0. 1.35208218e-04 0. 0. 0. 0. 2.70416436e-04 0.
      0. 0. 1.35208218e-04 4.05624654e-04 4.05624654e-04 2.16333149e-03
      9.32936743e-03 4.28610072e-02 8.93726349e-02 1.54948622e-01
      1.31287187e-01 2.66360193e-01 1.99296921e-01 6.74689040e-02
      2.23093573e-02 4.05624649e-03 4.19145497e-03 2.97458074e-03
      1.35208218e-04 4.05624654e-04 0. 1.08166575e-03 0. 0. 0. 0. 0.
      4.05624654e-04 0. 0. 0.</_>
    <_>
      4.62257601e-02 1.76592804e-02 1.36772851e-02 1.90443210e-02
      6.23268681e-03 1.78324096e-02 9.52216052e-03 2.09487528e-02
      2.25069257e-03 3.98199446e-03 6.05955673e-03 0. 9.86842066e-03
      2.07756227e-03 0. 2.25069257e-03 4.67451522e-03 5.02077583e-03
      2.52770092e-02 1.21191132e-03 1.69667583e-02 3.28947371e-03
      1.15997232e-02 2.59695295e-03 2.49307472e-02 3.65304723e-02
      1.09072020e-02 6.21537380e-02 6.99445978e-02 1.88711919e-02
      9.74723026e-02 1.23788089e-01 3.16828266e-02 6.38850406e-02
      8.13711900e-03 4.51869816e-02 2.30263155e-02 9.17590037e-03
      1.55817170e-03 2.59695295e-02 1.55817177e-02 2.80470923e-02
      2.68351808e-02 1.69667583e-02 1.10803321e-02</_>
    <_>
      5.82639724e-02 7.66283507e-03 3.03871045e-03 7.66283507e-03
      6.73801033e-03 1.66468490e-02 1.29475491e-02 2.41775662e-02
      6.20953878e-03 3.30294622e-03 5.68106771e-03 3.96353542e-04
      1.38723738e-02 1.84964994e-03 5.28471370e-04 1.18906063e-03
      5.28471405e-03 3.30294622e-03 6.28880933e-02 6.60589256e-04
      3.89747657e-02 6.07742090e-03 1.51935527e-02 2.77447491e-03
      6.01136200e-02 8.01955312e-02 1.66468490e-02 1.23794422e-01
      9.10291970e-02 3.69929988e-03 1.14017703e-01 1.11507468e-01
      5.41683193e-03 2.56308634e-02 6.60589256e-04 2.12709736e-02
      5.02047827e-03 1.32117842e-04 2.64235685e-04 5.94530301e-03
      1.71753205e-03 1.87607352e-02 1.45329640e-03 7.39859976e-03 0.</_>
    <_>
      8.77913311e-02 1.16773337e-01 1.05784327e-01 1.26313254e-01
      8.05458277e-02 9.02064964e-02 6.32773787e-02 3.53822000e-02
      2.12534722e-02 1.96836125e-02 1.37664536e-02 9.66066902e-04
      6.88322680e-03 2.17365054e-03 1.08682527e-03 2.41516726e-04
      1.20758358e-03 2.41516726e-04 2.89820065e-03 0. 1.56985875e-03 0.
      0. 0. 1.20758363e-04 4.83033451e-04 0. 8.45308532e-04
      7.24550162e-04 0. 3.01895896e-03 1.32834201e-03 0. 3.62275081e-04
      0. 6.40019309e-03 1.81137549e-03 2.65668402e-03 4.83033451e-04
      1.07474942e-02 1.40079698e-02 3.77973691e-02 5.45827784e-02
      4.55259010e-02 4.10578437e-02</_>
    <_>
      7.60998800e-02 4.14850041e-02 5.06011359e-02 1.11111112e-01
      1.10450521e-01 1.31589383e-01 1.07940286e-01 7.96670616e-02
      2.11388562e-02 3.07834595e-02 1.28154317e-02 2.64235685e-04
      2.00819131e-02 1.58541417e-03 0. 9.24824970e-04 6.20953878e-03
      2.37812125e-03 3.07834595e-02 3.96353542e-04 1.73074380e-02
      2.64235685e-04 3.83141753e-03 3.96353542e-04 8.98401346e-03
      1.03051923e-02 1.32117842e-04 1.22869601e-02 2.24600337e-03 0.
      8.71977769e-03 5.54894982e-03 1.32117842e-04 2.11388548e-03
      1.32117842e-04 9.51248500e-03 7.92707084e-04 1.32117842e-04 0.
      6.60589244e-03 1.98176783e-03 3.27652283e-02 1.36081381e-02
      1.57220233e-02 1.01730740e-02</_>
    <_>
      7.87706580e-03 1.73037183e-02 5.28150834e-02 1.15315080e-01
      1.84529960e-01 2.56327480e-01 1.08471073e-01 3.82231399e-02
      4.61002067e-02 1.14927683e-02 6.06921501e-03 9.03925626e-04
      2.71177688e-03 2.84090918e-03 1.54958677e-03 1.03305781e-03
      1.93698343e-03 1.54958677e-03 1.93698343e-03 0. 6.84400834e-03
      1.54958677e-03 6.19834708e-03 4.00309917e-03 1.26549583e-02
      2.41477266e-02 1.65289249e-02 2.02737600e-02 1.53667359e-02
      8.13533086e-03 8.39359500e-03 3.22830584e-03 0. 1.16219011e-03 0.
      1.03305781e-03 5.16528904e-04 1.29132226e-04 0. 1.29132229e-03
      6.45661145e-04 1.16219011e-03 2.32438021e-03 2.58264458e-03
      2.84090918e-03</_>
    <_>
      7.53109753e-02 4.77285013e-02 5.17847501e-02 1.20200105e-01
      1.15738235e-01 1.33315310e-01 3.59653868e-02 3.28555964e-02
      1.08166579e-02 8.78853444e-03 4.05624649e-03 0. 3.38020548e-03
      6.76041120e-04 0. 0. 0. 0. 9.73499194e-03 0. 6.76041120e-04 0. 0.
      0. 2.16333149e-03 6.76041120e-04 0. 3.92103847e-03 1.08166575e-03
      0. 1.27095729e-02 8.11249309e-04 0. 2.43374798e-03 0.
      2.44726874e-02 1.08166575e-03 5.40832873e-04 0. 1.64954029e-02
      3.38020548e-03 1.33720934e-01 3.79935093e-02 1.05732828e-01
      1.75770686e-03</_>
    <_>
      7.32179731e-02 2.98295449e-02 1.74328517e-02 4.51962799e-02
      3.22830565e-02 5.97882234e-02 6.19834699e-02 8.92303735e-02
      6.09504133e-02 6.77944198e-02 7.23140463e-02 4.90702502e-03
      6.86983466e-02 1.67871900e-02 4.26136376e-03 7.61880167e-03
      1.83367766e-02 8.13533086e-03 5.73347099e-02 9.03925626e-04
      3.22830565e-02 2.58264458e-03 4.00309917e-03 1.93698343e-03
      1.08471075e-02 5.16528916e-03 1.29132229e-03 2.22107433e-02
      6.19834708e-03 0. 2.09194217e-02 7.87706580e-03 1.80785125e-03
      3.74483480e-03 0. 8.78099166e-03 3.87396693e-04 0. 0.
      3.22830584e-03 1.42045459e-03 4.00309935e-02 6.19834708e-03
      1.73037183e-02 4.77789249e-03</_>
    <_>
      1.57726839e-01 3.27268429e-02 1.27599239e-02 2.63468809e-02
      1.68950856e-02 5.36389425e-02 1.85491499e-02 3.80434766e-02
      4.25330829e-03 5.90737257e-03 6.37996197e-03 0. 1.99669190e-02
      1.18147454e-03 1.18147451e-04 8.27032141e-04 4.96219285e-03
      1.41776935e-03 6.53355420e-02 2.36294902e-04 4.01701331e-02
      6.61625713e-03 1.15784500e-02 2.95368629e-03 2.78827976e-02
      2.80009452e-02 4.60775057e-03 6.46266565e-02 2.42202263e-02 0.
      7.36058578e-02 2.74102073e-02 4.72589803e-04 6.97069941e-03
      5.90737269e-04 2.09120978e-02 2.71739135e-03 8.27032141e-04 0.
      1.18147451e-02 3.07183363e-03 9.31001902e-02 2.11483929e-02
      5.45841195e-02 4.84404527e-03</_>
    <_>
      7.24206343e-02 7.14285746e-02 1.96995456e-02 4.70521525e-02
      4.53514755e-02 1.41581640e-01 6.40589595e-02 8.39002281e-02
      5.25793657e-02 2.80612241e-02 2.25340128e-02 1.70068024e-03
      1.75736956e-02 5.52721089e-03 3.11791385e-03 5.24376426e-03
      1.14795920e-02 5.24376426e-03 2.32426301e-02 1.70068024e-03
      1.85657591e-02 6.23582769e-03 5.66893443e-03 3.11791385e-03
      9.49546508e-03 1.09126987e-02 2.55102036e-03 1.53061226e-02
      8.50340165e-03 8.50340119e-04 9.77891125e-03 4.10997728e-03 0.
      2.40929704e-03 2.83446716e-04 1.36054419e-02 1.41723361e-03
      1.13378686e-03 1.41723358e-04 1.00623583e-02 3.11791385e-03
      6.32086173e-02 2.87698414e-02 4.45011333e-02 1.27551025e-02</_>
    <_>
      7.17155039e-02 2.52835546e-02 1.45321358e-02 3.49716432e-02
      2.30387524e-02 5.90737239e-02 4.46597338e-02 5.28119095e-02
      3.56805287e-02 2.50472594e-02 3.67438570e-02 2.95368629e-03
      4.93856333e-02 1.60680525e-02 5.78922499e-03 6.61625713e-03
      2.89461240e-02 1.22873345e-02 8.17580372e-02 5.55292983e-03
      5.65926284e-02 1.01606809e-02 1.44139882e-02 6.14366727e-03
      3.18998098e-02 1.52410204e-02 1.65406428e-03 3.78071852e-02
      1.09877130e-02 0. 3.17816623e-02 1.27599239e-02 3.54442338e-04
      1.15784500e-02 4.72589803e-04 2.41020788e-02 6.14366727e-03
      1.29962189e-03 0. 8.27032141e-03 5.78922499e-03 4.70226854e-02
      9.09735356e-03 1.64224952e-02 7.08884699e-03</_>
    <_>
      8.35302472e-02 7.11247623e-02 4.02882807e-02 5.70652187e-02
      3.80434766e-02 8.11672956e-02 5.29300570e-02 4.80860099e-02
      2.31569000e-02 1.45321358e-02 1.59499049e-02 8.27032141e-04
      1.50047261e-02 2.83553870e-03 2.59924377e-03 2.12665414e-03
      6.61625713e-03 3.30812857e-03 2.23298669e-02 4.72589803e-04
      1.90217383e-02 2.95368629e-03 4.01701313e-03 3.54442338e-04
      7.56143685e-03 3.66257085e-03 3.54442338e-04 1.67769380e-02
      3.07183363e-03 0. 2.33931951e-02 4.48960299e-03 1.41776935e-03
      5.19848755e-03 3.54442338e-04 2.55198479e-02 6.26181485e-03
      3.07183363e-03 1.29962189e-03 2.32750475e-02 2.62287334e-02
      9.07372385e-02 5.82466908e-02 6.49810955e-02 2.57561430e-02</_>
    <_>
      9.45294797e-02 1.67233553e-02 8.36167764e-03 1.82823129e-02
      7.79478438e-03 3.25963721e-02 2.63605434e-02 4.84693870e-02
      1.33219957e-02 1.74319725e-02 3.27380970e-02 2.40929704e-03
      3.84070277e-02 6.51927432e-03 1.55895692e-03 2.55102036e-03
      1.45975053e-02 4.39342391e-03 4.57766429e-02 1.41723361e-03
      3.04705221e-02 9.07029491e-03 1.45975053e-02 9.92063526e-03
      3.20294797e-02 3.91156450e-02 2.15419494e-02 5.20124733e-02
      2.19671205e-02 2.12585041e-03 1.07426301e-01 3.41553278e-02
      2.97619053e-03 2.32426301e-02 1.84240367e-03 4.69104312e-02
      7.51133775e-03 1.41723361e-03 1.41723358e-04 1.41723352e-02
      4.25170083e-03 5.71145117e-02 9.49546508e-03 1.82823129e-02
      3.96825420e-03</_>
    <_>
      0. 0. 0. 0. 0. 0. 0. 0. 0. 0. 0. 0. 0. 0. 0. 0. 0. 0.
      2.58264452e-04 2.06611562e-03 8.39359500e-03 2.86673550e-02
      4.97159101e-02 1.09245867e-01 1.57024801e-01 2.62784094e-01
      2.17587814e-01 9.43956599e-02 4.10640500e-02 1.94989666e-02
      7.10227294e-03 1.80785125e-03 3.87396693e-04 0. 0. 0. 0. 0. 0. 0.
      0. 0. 0. 0. 0.</_>
    <_>
      7.30460219e-04 1.82615055e-04 7.30460219e-04 9.13075230e-04
      1.82615055e-04 2.00876547e-03 2.73922575e-03 3.83491605e-03
      1.33308982e-02 1.99050400e-02 3.96274664e-02 5.64280488e-02
      7.94375464e-02 8.47333819e-02 9.31336731e-02 9.29510593e-02
      1.11395180e-01 1.13221332e-01 1.09569028e-01 5.88020459e-02
      5.13148271e-02 3.23228650e-02 1.27830533e-02 6.57414179e-03
      2.19138060e-03 3.65230092e-03 1.27830531e-03 2.37399573e-03
      1.27830531e-03 1.82615055e-04 5.47845149e-04 3.65230109e-04
      5.47845149e-04 1.82615055e-04 0. 3.65230109e-04 0. 0. 0. 0. 0. 0.
      1.82615055e-04 0. 0.</_>
    <_>
      1.00229438e-02 1.69061706e-03 1.32834201e-03 3.86426761e-03
      2.77744234e-03 6.76246826e-03 8.81536026e-03 9.66066867e-03
      1.38872117e-02 1.17135616e-02 2.42724307e-02 6.64170971e-03
      3.23632397e-02 2.66875979e-02 2.23402977e-02 3.87634337e-02
      6.61755800e-02 8.44100937e-02 1.13754377e-01 7.68023208e-02
      1.31626621e-01 9.44330394e-02 4.04540524e-02 3.01895905e-02
      3.35708261e-02 2.75329072e-02 1.09890113e-02 1.77514795e-02
      1.23173529e-02 1.69061706e-03 8.93611927e-03 7.00398488e-03
      1.08682527e-03 2.53592571e-03 3.62275081e-04 3.86426761e-03
      1.08682527e-03 2.41516726e-04 0. 1.20758358e-03 8.45308532e-04
      6.15867646e-03 9.66066902e-04 1.93213380e-03 4.83033451e-04</_>
    <_>
      5.18707484e-02 2.63605434e-02 4.57766429e-02 1.17630385e-01
      1.28684804e-01 1.92035154e-01 1.02182537e-01 5.35714291e-02
      3.95408161e-02 2.02664398e-02 1.58730168e-02 8.50340119e-04
      1.74319725e-02 8.50340119e-04 0. 0. 3.40136047e-03 5.66893432e-04
      2.49433108e-02 0. 1.09126987e-02 1.27551018e-03 2.69274367e-03 0.
      8.07823148e-03 8.07823148e-03 0. 2.53684800e-02 8.50340165e-03 0.
      1.77154187e-02 1.36054419e-02 0. 2.55102036e-03 0. 1.40306121e-02
      0. 1.41723358e-04 0. 1.70068024e-03 2.55102036e-03 2.25340128e-02
      5.95238106e-03 7.08616758e-03 5.38548734e-03</_>
    <_>
      4.91493382e-02 1.45321358e-02 4.84404527e-03 1.31143667e-02
      9.33364872e-03 3.55623811e-02 3.70982997e-02 6.42722100e-02
      4.85586002e-02 4.79678623e-02 5.81285432e-02 2.42202263e-02
      7.37240091e-02 4.76134233e-02 3.65075618e-02 4.47778814e-02
      5.45841195e-02 4.56049144e-02 6.60444200e-02 1.90217383e-02
      4.80860099e-02 1.27599239e-02 1.06332703e-02 3.78071843e-03
      1.13421548e-02 7.91587867e-03 9.45179607e-04 1.80765595e-02
      2.12665414e-03 0. 1.70132332e-02 3.89886578e-03 2.36294902e-04
      7.67958397e-03 0. 1.16965976e-02 1.41776935e-03 2.36294902e-04
      2.36294902e-04 4.96219285e-03 5.90737269e-04 2.96550095e-02
      1.53591682e-03 8.86105839e-03 1.65406428e-03</_>
    <_>
      9.85667929e-02 3.52893472e-02 2.17685234e-02 4.50243391e-02
      4.08328809e-02 1.07896157e-01 1.05191998e-01 1.16414279e-01
      5.94916157e-02 4.48891297e-02 3.94808017e-02 4.05624654e-04
      5.44889122e-02 3.38020548e-03 5.40832873e-04 2.70416436e-04
      7.97728542e-03 2.43374798e-03 6.62520304e-02 2.70416436e-04
      2.27149818e-02 0. 0. 0. 1.89291511e-03 0. 0. 1.13574909e-02 0. 0.
      2.24445648e-02 1.08166575e-03 0. 6.76041120e-04 0. 1.59545708e-02
      0. 0. 0. 1.75770686e-03 1.62249862e-03 4.85397503e-02
      5.27312048e-03 1.23039484e-02 3.51541373e-03</_>
    <_>
      1.61183774e-02 7.92707084e-04 0. 2.64235685e-04 1.32117842e-04
      3.96353565e-03 1.58541417e-03 8.98401346e-03 3.43506411e-03
      5.68106771e-03 1.55899059e-02 1.84964994e-03 2.93301623e-02
      1.01730740e-02 5.81318559e-03 1.32117849e-02 3.63324098e-02
      4.10886519e-02 1.00541681e-01 4.57127765e-02 2.56572872e-01
      1.11111112e-01 6.28880933e-02 3.77857052e-02 7.90064707e-02
      5.62822036e-02 3.96353565e-03 2.56308634e-02 5.81318559e-03 0.
      1.05694281e-02 3.56718199e-03 0. 0. 0. 6.60589256e-04 0. 0. 0. 0.
      0. 5.41683193e-03 0. 1.32117842e-04 0.</_>
    <_>
      6.67533055e-02 5.19848764e-02 9.34546292e-02 1.28426269e-01
      8.37665424e-02 6.41540661e-02 2.50472594e-02 1.66587904e-02
      8.86105839e-03 8.97920597e-03 8.03402625e-03 2.36294902e-04
      8.86105839e-03 1.18147454e-03 3.54442338e-04 4.72589803e-04
      9.45179607e-04 1.18147451e-04 1.05151227e-02 0. 3.89886578e-03 0.
      1.53591682e-03 0. 4.48960299e-03 6.73440471e-03 7.08884676e-04
      1.96124762e-02 1.45321358e-02 8.27032141e-04 4.73771282e-02
      3.09546310e-02 1.29962189e-03 2.18572784e-02 5.90737269e-04
      4.02882807e-02 1.20510394e-02 4.48960299e-03 9.45179607e-04
      3.37901711e-02 2.52835546e-02 5.21030240e-02 4.59593572e-02
      3.41446139e-02 1.77221168e-02</_>
    <_>
      1.08459361e-01 2.45746691e-02 9.56994295e-03 1.13421548e-02
      4.25330829e-03 5.05671091e-02 2.49291118e-02 3.62712666e-02
      7.32514169e-03 1.14603024e-02 1.07514178e-02 0. 2.74102073e-02
      4.48960299e-03 5.90737269e-04 1.18147454e-03 1.28780715e-02
      6.14366727e-03 5.86011335e-02 5.90737269e-04 3.75708900e-02
      3.78071843e-03 1.46502834e-02 3.07183363e-03 4.07608710e-02
      3.69801521e-02 2.00850656e-03 5.50567098e-02 4.17060480e-02
      1.18147451e-04 6.27362952e-02 3.72164473e-02 1.18147454e-03
      2.13846881e-02 4.72589803e-04 5.76559529e-02 1.58317573e-02
      3.30812857e-03 0. 2.72920597e-02 1.34688094e-02 7.67958388e-02
      5.90737257e-03 2.44565215e-02 5.19848755e-03</_>
    <_>
      3.76535878e-02 1.71753205e-02 2.06103846e-02 6.83049262e-02
      1.19830891e-01 1.10582642e-01 8.04597735e-02 5.31113744e-02
      3.88426483e-02 2.03461479e-02 1.62504949e-02 1.45329640e-03
      1.92892067e-02 7.00224610e-03 2.37812125e-03 4.35988884e-03
      9.11613181e-03 5.68106771e-03 3.15761678e-02 1.71753205e-03
      3.88426483e-02 8.32342450e-03 1.88928526e-02 4.22777096e-03
      2.88016908e-02 3.36900502e-02 7.00224610e-03 3.63324098e-02
      2.32527424e-02 7.92707084e-04 3.23688723e-02 2.82732192e-02
      1.05694274e-03 6.34165667e-03 0. 1.13621354e-02 1.32117851e-03
      6.60589256e-04 2.64235685e-04 5.28471405e-03 2.11388548e-03
      2.12709736e-02 8.05918872e-03 1.33439023e-02 2.37812125e-03</_>
    <_>
      2.12709736e-02 1.10978996e-02 1.18906063e-03 7.53071718e-03
      8.45554192e-03 2.54987441e-02 2.85374559e-02 4.62412462e-02
      2.84053367e-02 3.19725201e-02 6.24917410e-02 1.71753205e-03
      6.03778586e-02 2.61593349e-02 7.53071718e-03 2.16673277e-02
      6.53983355e-02 4.51843031e-02 8.61408412e-02 4.80908975e-02
      1.39252216e-01 6.27559796e-02 3.07834595e-02 1.32117849e-02
      3.19725201e-02 2.70841587e-02 3.69929988e-03 1.81001462e-02
      6.87012821e-03 2.64235685e-04 7.39859976e-03 2.11388548e-03 0.
      5.28471370e-04 0. 4.49200673e-03 2.64235685e-04 0. 0.
      1.98176783e-03 1.32117842e-04 9.51248500e-03 7.92707084e-04
      3.83141753e-03 0.</_>
    <_>
      1.02644607e-01 5.68771884e-02 3.36915813e-02 5.94131127e-02
      4.64919694e-02 9.51575860e-02 7.30588064e-02 6.15867637e-02
      3.96087430e-02 3.22424844e-02 2.31856052e-02 2.05289223e-03
      2.75329072e-02 6.40019309e-03 1.08682527e-03 4.22654254e-03
      1.19550778e-02 3.74350930e-03 3.41746174e-02 2.41516726e-04
      1.78722385e-02 1.08682527e-03 3.01895896e-03 2.41516726e-04
      1.01437028e-02 1.93213380e-03 0. 2.12534722e-02 3.38123413e-03 0.
      2.71706320e-02 5.79640130e-03 4.83033451e-04 5.07185142e-03 0.
      2.92235240e-02 3.86426761e-03 1.81137549e-03 7.24550162e-04
      1.89590622e-02 6.76246826e-03 6.79869577e-02 1.88383050e-02
      3.21217254e-02 6.88322680e-03</_>
    <_>
      4.35988884e-03 3.96353542e-04 0. 0. 0. 1.45329640e-03
      1.18906063e-03 2.24600337e-03 1.84964994e-03 1.18906063e-03
      4.35988884e-03 2.64235685e-04 7.79495295e-03 6.34165667e-03
      3.30294622e-03 5.81318559e-03 1.86286159e-02 2.03461479e-02
      4.46558334e-02 6.13026805e-02 1.50482237e-01 1.53917298e-01
      1.01466507e-01 1.12564407e-01 9.75029692e-02 8.62729549e-02
      4.04280610e-02 3.63324098e-02 1.90249700e-02 1.84964994e-03
      8.19130708e-03 2.11388548e-03 1.05694274e-03 6.60589256e-04 0.
      1.05694274e-03 0. 0. 0. 2.64235685e-04 0. 2.64235685e-04
      3.96353542e-04 6.60589256e-04 0.</_>
    <_>
      8.32342431e-02 7.46465847e-02 7.63641149e-02 1.26172543e-01
      9.24824923e-02 8.98401365e-02 5.72070293e-02 3.77857052e-02
      1.47971995e-02 2.04782672e-02 6.07742090e-03 0. 8.71977769e-03
      1.32117851e-03 1.32117842e-04 7.92707084e-04 1.58541417e-03
      1.98176783e-03 1.87607352e-02 0. 1.00409565e-02 0. 2.64235685e-04
      0. 2.90659280e-03 2.64235702e-03 0. 1.38723738e-02 6.20953878e-03
      0. 2.84053367e-02 8.98401346e-03 0. 5.15259616e-03 0.
      1.91570874e-02 2.24600337e-03 5.28471370e-04 2.64235685e-04
      1.12300171e-02 4.88836039e-03 6.16990365e-02 3.43506411e-02
      4.26740646e-02 3.21046375e-02</_>
    <_>
      3.87396687e-03 5.16528904e-04 2.97004124e-03 3.65444198e-02
      1.28615707e-01 1.67355374e-01 1.72004133e-01 6.89566135e-02
      6.31456599e-02 1.78202484e-02 1.43336775e-02 4.13223123e-03
      1.35588842e-02 6.32747915e-03 1.93698343e-03 5.03615709e-03
      9.55578499e-03 9.94318165e-03 1.92407016e-02 8.78099166e-03
      4.13223132e-02 3.49948332e-02 3.87396701e-02 1.98863633e-02
      3.68026868e-02 3.20247933e-02 8.91012419e-03 1.45919425e-02
      4.13223123e-03 0. 5.81095042e-03 2.06611562e-03 2.58264452e-04
      1.67871895e-03 0. 1.67871895e-03 1.29132226e-04 1.29132226e-04
      1.29132226e-04 3.87396693e-04 0. 9.03925626e-04 2.58264452e-04
      5.16528904e-04 0.</_>
    <_>
      9.09735337e-02 6.65170103e-02 3.92249525e-02 6.19092621e-02
      4.19423431e-02 7.99858198e-02 5.08034043e-02 4.38327044e-02
      2.23298669e-02 2.17391308e-02 2.03213617e-02 1.29962189e-03
      1.87854450e-02 6.97069941e-03 2.00850656e-03 2.48109642e-03
      6.73440471e-03 3.78071843e-03 2.57561430e-02 5.90737269e-04
      1.29962191e-02 3.30812857e-03 8.62476416e-03 2.36294902e-04
      1.60680525e-02 2.83553870e-03 0. 1.37051037e-02 3.78071843e-03
      3.54442338e-04 2.12665405e-02 5.67107741e-03 7.08884676e-04
      6.61625713e-03 4.72589803e-04 2.97731571e-02 4.96219285e-03
      2.24480149e-03 7.08884676e-04 2.67013237e-02 2.04395093e-02
      6.82892278e-02 5.06852567e-02 6.19092621e-02 2.96550095e-02</_>
    <_>
      8.80681798e-02 8.22572336e-02 7.06353337e-02 8.48398730e-02
      5.28150834e-02 8.05785134e-02 5.59142567e-02 4.70041335e-02
      4.08057868e-02 3.12500000e-02 3.12500000e-02 2.32438021e-03
      2.10485533e-02 5.16528916e-03 1.80785125e-03 1.80785125e-03
      5.42355375e-03 1.29132229e-03 1.40754133e-02 3.87396693e-04
      8.39359500e-03 1.42045459e-03 2.19524791e-03 3.87396693e-04
      4.00309917e-03 3.48657020e-03 0. 7.61880167e-03 1.29132229e-03 0.
      7.36053707e-03 3.35743790e-03 3.87396693e-04 4.90702502e-03
      1.54958677e-03 8.26446246e-03 6.71487581e-03 2.19524791e-03
      3.48657020e-03 2.20816117e-02 1.71745867e-02 3.09917349e-02
      6.28874004e-02 4.24845032e-02 3.86105366e-02</_>
    <_>
      1.08931944e-01 1.70132332e-02 2.12665414e-03 8.38846900e-03
      3.18998098e-03 2.32750475e-02 2.26843096e-02 4.39508520e-02
      5.08034043e-03 1.26417773e-02 6.37996197e-03 0. 3.08364835e-02
      2.48109642e-03 2.36294902e-04 1.65406428e-03 1.18147451e-02
      5.31663513e-03 8.96739140e-02 1.06332707e-03 8.76654088e-02
      1.18147451e-02 2.69376189e-02 6.26181485e-03 5.08034043e-02
      4.78497148e-02 1.71313807e-02 7.19517991e-02 3.65075618e-02
      1.89035921e-03 6.27362952e-02 2.98913047e-02 4.60775057e-03
      1.83128547e-02 2.36294908e-03 2.96550095e-02 3.89886578e-03
      9.45179607e-04 0. 1.05151227e-02 2.12665414e-03 4.66682427e-02
      9.56994295e-03 2.31569000e-02 0.</_>
    <_>
      8.65332633e-02 2.19037309e-02 9.32936743e-03 4.24553826e-02
      3.52893472e-02 1.22228235e-01 1.40751764e-01 1.28988639e-01
      6.23309910e-02 6.07084893e-02 3.98864262e-02 2.16333149e-03
      5.08382916e-02 1.04110334e-02 2.56895623e-03 1.75770686e-03
      7.57166045e-03 2.43374798e-03 3.25851813e-02 0. 6.89561944e-03
      4.05624654e-04 4.05624654e-04 2.70416436e-04 1.89291511e-03
      2.70416436e-04 0. 1.69010274e-02 5.40832873e-04 0. 1.05462410e-02
      1.48729037e-03 0. 4.05624654e-04 0. 1.25743644e-02 1.35208218e-04
      0. 0. 5.13791246e-03 8.11249309e-04 6.53055683e-02 1.35208224e-03
      1.37912389e-02 1.35208218e-04</_>
    <_>
      1.84240360e-02 9.21201799e-03 1.53061226e-02 7.45464861e-02
      1.68509066e-01 2.55668938e-01 1.34353742e-01 5.75396828e-02
      4.81859408e-02 1.78571437e-02 2.49433108e-02 2.69274367e-03
      2.08333340e-02 5.52721089e-03 8.50340119e-04 1.41723361e-03
      8.50340165e-03 1.13378686e-03 1.95578225e-02 5.66893432e-04
      1.58730168e-02 1.55895692e-03 3.54308379e-03 2.83446716e-04
      7.65306130e-03 4.67687054e-03 4.25170059e-04 1.11961449e-02
      6.23582769e-03 0. 9.49546508e-03 7.36961467e-03 8.50340119e-04
      5.95238106e-03 0. 7.93650839e-03 1.70068024e-03 1.41723358e-04 0.
      2.97619053e-03 1.41723358e-04 1.53061226e-02 3.54308379e-03
      7.22789112e-03 2.83446716e-04</_>
    <_>
      9.92438570e-03 2.12665414e-03 2.36294902e-04 9.45179607e-04 0.
      4.84404527e-03 3.66257085e-03 7.32514169e-03 2.24480149e-03
      4.48960299e-03 9.09735356e-03 1.41776935e-03 2.02032141e-02
      8.50661658e-03 6.37996197e-03 1.12240072e-02 3.26086953e-02
      3.27268429e-02 5.43478243e-02 3.76890376e-02 1.27717391e-01
      1.03142723e-01 7.31332675e-02 5.62381856e-02 9.23913047e-02
      9.84168276e-02 3.36720236e-02 5.49385622e-02 3.24905477e-02
      7.79773155e-03 2.19754260e-02 1.58317573e-02 3.89886578e-03
      7.44328927e-03 1.18147454e-03 6.26181485e-03 1.53591682e-03
      7.08884676e-04 2.36294902e-04 1.53591682e-03 1.41776935e-03
      4.48960299e-03 1.29962189e-03 2.00850656e-03 2.36294902e-04</_>
    <_>
      3.64229009e-02 3.13208625e-02 3.58560085e-02 4.06746045e-02
      3.27380970e-02 4.88945581e-02 4.60600890e-02 4.15249430e-02
      5.90986386e-02 3.28798182e-02 5.14455773e-02 1.85657591e-02
      5.21541946e-02 3.51473913e-02 2.50850338e-02 3.72732431e-02
      3.64229009e-02 2.87698414e-02 3.59977335e-02 1.34637188e-02
      2.84863953e-02 1.10544218e-02 7.65306130e-03 2.83446722e-03
      1.00623583e-02 1.20464852e-02 2.55102036e-03 1.45975053e-02
      1.14795920e-02 8.50340119e-04 1.07709747e-02 1.30385486e-02
      4.39342391e-03 7.79478438e-03 2.97619053e-03 1.11961449e-02
      8.07823148e-03 3.54308379e-03 2.83446722e-03 1.54478457e-02
      7.36961467e-03 1.55895688e-02 2.35260762e-02 1.60147399e-02
      1.60147399e-02</_>
    <_>
      4.94120754e-02 3.31615806e-02 2.03461479e-02 5.35077304e-02
      3.88426483e-02 8.68014246e-02 1.46650806e-01 9.77672115e-02
      9.67102647e-02 5.54894954e-02 4.66376022e-02 1.05694274e-03
      3.02549880e-02 7.92707130e-03 1.18906063e-03 4.09565354e-03
      1.24190776e-02 7.92707130e-03 2.81411018e-02 2.64235702e-03
      2.15352103e-02 1.03051923e-02 5.81318559e-03 6.60589256e-04
      6.87012821e-03 2.37812125e-03 0. 9.90883913e-03 2.64235702e-03 0.
      1.38723738e-02 2.90659280e-03 0. 2.64235685e-04 0. 1.51935527e-02
      6.60589256e-04 0. 0. 4.09565354e-03 1.98176783e-03 4.28061821e-02
      1.25511959e-02 2.21957993e-02 2.37812125e-03</_>
    <_>
      3.96353542e-04 0. 0. 0. 0. 0. 0. 2.64235685e-04 0. 0.
      2.64235685e-04 0. 3.96353542e-04 3.96353542e-04 5.28471370e-04
      1.45329640e-03 1.98176783e-03 5.28471405e-03 8.05918872e-03
      1.42687280e-02 3.19725201e-02 9.02364925e-02 8.34984779e-02
      1.91174522e-01 1.38591617e-01 1.73867092e-01 1.35552913e-01
      7.30611682e-02 3.05192228e-02 7.39859976e-03 8.32342450e-03
      2.11388548e-03 0. 0. 0. 2.64235685e-04 0. 0. 0. 0. 0.
      1.32117842e-04 0. 0. 0.</_>
    <_>
      6.27366155e-02 3.35316397e-02 1.33856134e-02 2.02812329e-02
      1.52785294e-02 4.04272564e-02 3.83991338e-02 4.40778807e-02
      3.56949717e-02 2.86641419e-02 4.46187146e-02 5.40832896e-03
      3.82639281e-02 1.86587349e-02 6.76041096e-03 1.02758249e-02
      2.85289343e-02 1.89291518e-02 4.73228768e-02 8.11249297e-03
      4.63764183e-02 1.27095729e-02 1.08166579e-02 4.32666298e-03
      2.06868574e-02 2.12276913e-02 5.00270398e-03 3.02866418e-02
      2.14981064e-02 1.75770686e-03 2.85289343e-02 3.08274738e-02
      4.05624649e-03 1.47376964e-02 1.35208224e-03 1.85235254e-02
      7.43645197e-03 5.67874545e-03 2.56895623e-03 1.55489454e-02
      1.59545708e-02 3.62358019e-02 3.36668454e-02 2.86641419e-02
      2.21741479e-02</_>
    <_>
      0. 0. 0. 0. 0. 0. 0. 0. 0. 0. 0. 0. 0. 0. 0. 0. 0. 0.
      1.20758363e-04 6.03791792e-04 1.20758363e-04 2.41516717e-03
      7.97005184e-03 2.20987797e-02 4.89071384e-02 2.45139480e-01
      3.37761134e-01 2.14708373e-01 8.32025111e-02 2.89820079e-02
      5.91715984e-03 1.81137549e-03 0. 0. 0. 1.20758363e-04 0. 0. 0. 0.
      0. 1.20758363e-04 0. 0. 0.</_>
    <_>
      6.85255229e-02 6.81710765e-02 6.00189045e-02 8.18761811e-02
      5.70652187e-02 9.97164473e-02 6.68714568e-02 6.20274097e-02
      2.70557664e-02 2.72920597e-02 2.04395093e-02 1.18147454e-03
      2.36294903e-02 5.90737257e-03 1.65406428e-03 4.01701313e-03
      1.85491499e-02 7.91587867e-03 2.77646501e-02 1.06332707e-03
      2.85916831e-02 4.48960299e-03 5.67107741e-03 1.65406428e-03
      5.78922499e-03 4.60775057e-03 5.90737269e-04 1.02788284e-02
      7.67958397e-03 0. 2.24480145e-02 9.45179630e-03 3.54442338e-04
      4.01701313e-03 0. 1.57136098e-02 3.30812857e-03 1.29962189e-03
      1.18147451e-04 1.13421548e-02 8.27032141e-03 4.69045378e-02
      2.50472594e-02 3.39083187e-02 1.77221168e-02</_>
    <_>
      1.51496020e-03 1.00997346e-03 2.27244035e-03 2.27244035e-03
      2.27244035e-03 4.29238752e-03 4.54488071e-03 3.91364750e-03
      7.06981448e-03 4.67112754e-03 4.92362073e-03 1.51496020e-03
      1.11097088e-02 7.57480133e-03 6.56482764e-03 1.33821489e-02
      2.08307039e-02 3.37078646e-02 5.69372550e-02 7.36018196e-02
      2.37343773e-01 1.52001008e-01 7.91566744e-02 6.05984107e-02
      5.42860739e-02 5.06249219e-02 3.04254517e-02 2.33556367e-02
      1.52758490e-02 4.29238752e-03 1.09834615e-02 3.40866041e-03
      2.52493366e-04 1.26246689e-03 3.78740049e-04 1.76745362e-03
      3.78740049e-04 1.26246683e-04 0. 2.27244035e-03 2.27244035e-03
      1.51496020e-03 1.64120691e-03 1.64120691e-03 7.57480098e-04</_>
    <_>
      1.32098766e-02 1.97530864e-03 3.70370370e-04 3.33333341e-03
      4.93827183e-03 1.30864196e-02 2.80246921e-02 4.34567891e-02
      6.04938269e-02 6.49382696e-02 1.22098766e-01 3.59259248e-02
      1.23086423e-01 7.28395060e-02 3.59259248e-02 5.80246896e-02
      6.72839507e-02 4.76543196e-02 5.18518500e-02 9.50617250e-03
      6.22222237e-02 2.59259250e-02 1.29629625e-02 4.56790114e-03
      8.64197500e-03 3.08641978e-03 1.23456790e-04 1.20987650e-02
      2.46913591e-03 0. 4.19753091e-03 1.11111114e-03 0. 1.11111114e-03
      0. 6.17283978e-04 2.46913580e-04 1.23456790e-04 0. 0.
      1.23456790e-04 1.72839512e-03 0. 2.46913580e-04 3.70370370e-04</_>
    <_>
      1.41604945e-01 3.09876539e-02 2.34567910e-03 9.25925933e-03
      4.81481478e-03 5.64197525e-02 3.04938275e-02 5.86419739e-02
      1.43209873e-02 1.58024691e-02 1.41975312e-02 2.96296296e-03
      4.34567891e-02 2.83950614e-03 8.64197558e-04 1.23456796e-03
      1.37037039e-02 3.58024682e-03 8.22222233e-02 0. 3.66666652e-02
      3.08641978e-03 7.28395069e-03 4.44444455e-03 3.09876539e-02
      2.88888887e-02 6.66666683e-03 7.19753057e-02 3.55555564e-02
      2.46913580e-04 5.75308651e-02 1.95061732e-02 1.23456790e-04
      8.14814772e-03 1.23456790e-04 3.24691348e-02 3.20987660e-03
      7.40740739e-04 0. 1.14814816e-02 2.22222228e-03 7.48148113e-02
      6.29629614e-03 2.69135796e-02 8.64197558e-04</_>
    <_>
      8.93826559e-02 5.21398820e-02 3.34553719e-02 6.41333163e-02
      4.45650816e-02 8.84989277e-02 8.04191381e-02 5.51698022e-02
      3.28241400e-02 2.67642979e-02 2.00732239e-02 1.00997346e-03
      2.03257166e-02 9.59474780e-03 1.38871360e-03 2.65118037e-03
      6.31233444e-03 2.27244035e-03 1.72957964e-02 6.31233444e-04
      1.47708626e-02 2.27244035e-03 6.31233444e-03 1.13622018e-03
      9.34225507e-03 6.18608762e-03 1.26246683e-04 1.71695501e-02
      1.30034089e-02 6.31233444e-04 3.11829317e-02 1.52758490e-02
      1.26246689e-03 1.02259815e-02 2.52493366e-04 3.04254517e-02
      3.91364750e-03 1.13622018e-03 7.57480098e-04 1.11097088e-02
      6.18608762e-03 8.10503736e-02 1.75482891e-02 4.48175743e-02
      2.49968432e-02</_>
    <_>
      5.16348928e-02 2.72692833e-02 1.52758490e-02 2.04519629e-02
      1.65383164e-02 6.27446026e-02 3.47178392e-02 6.05984107e-02
      2.47443505e-02 2.51230914e-02 2.61330642e-02 4.29238752e-03
      4.78474945e-02 2.84055043e-02 3.01729571e-02 3.77477594e-02
      7.14556277e-02 5.51698022e-02 8.02928954e-02 3.11829317e-02
      4.29238714e-02 1.24984216e-02 5.04986756e-03 8.83726811e-04
      1.04784751e-02 6.94356766e-03 5.04986732e-04 1.51496027e-02
      2.52493378e-03 0. 1.59070827e-02 3.15616722e-03 7.57480098e-04
      2.90367380e-03 1.26246683e-04 1.51496027e-02 2.90367380e-03
      1.76745362e-03 3.78740049e-04 1.03522278e-02 4.92362073e-03
      3.43391001e-02 1.24984216e-02 4.09039259e-02 5.17611392e-03</_>
    <_>
      1.36772851e-02 1.38504151e-03 0. 0. 0. 1.21191132e-03
      5.19390567e-04 4.67451522e-03 1.38504151e-03 2.77008303e-03
      6.57894742e-03 0. 1.78324096e-02 3.63573409e-03 6.92520756e-04
      1.55817170e-03 1.05609419e-02 5.54016605e-03 3.99930738e-02
      2.77008303e-03 4.18975055e-02 3.06440443e-02 2.96052638e-02
      2.25069243e-02 7.47922435e-02 1.13227144e-01 9.55678672e-02
      1.72610804e-01 1.23614959e-01 1.95637122e-02 4.65720221e-02
      3.68767306e-02 5.19390590e-03 1.15997232e-02 2.94321333e-03
      1.00415517e-02 3.80886416e-03 2.77008303e-03 6.92520756e-04
      5.88642666e-03 2.42382265e-03 8.82964022e-03 7.61772832e-03
      1.12534622e-02 4.67451522e-03</_>
    <_>
      7.34567866e-02 3.45679023e-03 2.46913580e-04 2.59259250e-03
      2.96296296e-03 1.46913584e-02 7.53086433e-03 1.99999996e-02
      6.04938250e-03 4.44444455e-03 8.51851888e-03 9.87654319e-04
      2.27160491e-02 4.32098750e-03 8.64197558e-04 1.97530864e-03
      1.32098766e-02 7.16049364e-03 6.51851818e-02 2.34567910e-03
      5.90123460e-02 1.37037039e-02 1.95061732e-02 7.77777797e-03
      5.72839491e-02 7.07407370e-02 6.41975319e-03 1.14691354e-01
      1.02962963e-01 8.02469160e-03 8.98765400e-02 7.32098743e-02
      3.70370364e-03 1.74074080e-02 6.17283978e-04 3.35802473e-02
      5.30864205e-03 3.70370370e-04 0. 9.62962955e-03 2.83950614e-03
      3.11111119e-02 3.95061728e-03 5.30864205e-03 2.46913580e-04</_>
    <_>
      9.04938281e-02 4.37037051e-02 1.16049387e-02 1.37037039e-02
      8.27160478e-03 6.23456798e-02 3.95061746e-02 4.09876555e-02
      2.48148143e-02 1.60493832e-02 1.87654328e-02 1.11111114e-03
      1.87654328e-02 2.09876546e-03 3.70370370e-04 7.40740739e-04
      7.65432091e-03 9.87654319e-04 2.48148143e-02 1.23456790e-04
      1.44444443e-02 4.93827160e-04 1.23456796e-03 1.23456790e-04
      8.76543205e-03 1.64197534e-02 3.82716046e-03 3.43209878e-02
      3.37037034e-02 1.72839512e-03 6.43209890e-02 7.30864182e-02
      2.22222228e-03 3.18518505e-02 4.93827160e-04 4.22222205e-02
      6.79012341e-03 3.45679023e-03 2.46913580e-04 1.82716046e-02
      7.77777797e-03 1.00370370e-01 3.12345680e-02 6.95061758e-02
      6.17283955e-03</_>
    <_>
      8.16049352e-02 5.19753098e-02 4.53086421e-02 8.14814791e-02
      7.99999982e-02 1.23086423e-01 5.88888898e-02 5.82716055e-02
      2.96296291e-02 1.62962954e-02 1.37037039e-02 4.93827160e-04
      1.38271609e-02 1.60493830e-03 2.46913580e-04 2.46913580e-04
      5.06172841e-03 2.46913580e-04 1.90123450e-02 2.46913580e-04
      1.30864196e-02 1.72839512e-03 1.85185182e-03 3.20987660e-03
      8.27160478e-03 6.04938250e-03 3.08641978e-03 1.17283948e-02
      8.39506183e-03 0. 2.11111102e-02 9.13580228e-03 0. 6.29629614e-03
      0. 2.92592589e-02 3.70370370e-04 1.23456790e-04 0. 1.49382716e-02
      4.07407386e-03 8.30864161e-02 3.99999991e-02 4.23456803e-02
      1.06172841e-02</_>
    <_>
      5.39789870e-02 4.98732030e-02 6.53302744e-02 1.15807272e-01
      1.11701488e-01 1.22811258e-01 8.52554068e-02 5.49450554e-02
      3.50199267e-02 2.97065563e-02 2.42724307e-02 1.08682527e-03
      2.40309145e-02 4.34730109e-03 2.89820065e-03 2.41516717e-03
      6.88322680e-03 3.98502592e-03 1.92005802e-02 4.83033451e-04
      1.66646540e-02 2.41516717e-03 6.52095163e-03 3.50199244e-03
      9.17763542e-03 5.91715984e-03 1.81137549e-03 1.07474942e-02
      4.10578446e-03 0. 1.08682523e-02 5.91715984e-03 4.83033451e-04
      4.10578446e-03 0. 7.72853522e-03 3.74350930e-03 1.69061706e-03
      3.62275081e-04 7.84929376e-03 7.00398488e-03 1.87175460e-02
      2.37893965e-02 1.75099634e-02 1.53363124e-02</_>
    <_>
      3.67377847e-02 1.47708626e-02 8.58477503e-03 1.98207293e-02
      3.00467107e-02 5.23923747e-02 4.57012989e-02 5.60535304e-02
      5.89572042e-02 4.38075997e-02 6.84257075e-02 6.31233444e-03
      6.02196679e-02 4.07776795e-02 6.77944720e-02 6.90569356e-02
      9.12763551e-02 5.26448674e-02 6.32495880e-02 1.03522278e-02
      3.73690203e-02 6.81732083e-03 4.16614069e-03 1.13622018e-03
      5.04986756e-03 1.76745362e-03 0. 7.06981448e-03 2.14619376e-03 0.
      5.04986756e-03 2.14619376e-03 0. 8.83726811e-04 0. 7.19606131e-03
      5.04986732e-04 2.52493366e-04 0. 1.38871360e-03 2.52493366e-04
      1.03522278e-02 3.02992039e-03 4.29238752e-03 2.14619376e-03</_>
    <_>
      0. 0. 0. 0. 0. 0. 0. 0. 0. 0. 0. 0. 1.29132226e-04 1.29132226e-04
      0. 0. 0. 1.29132226e-04 2.58264452e-04 1.29132226e-04
      5.16528904e-04 3.87396687e-03 3.61570250e-03 1.78202484e-02
      4.15805802e-02 2.04803720e-01 3.22572321e-01 2.38636360e-01
      1.06017560e-01 3.33161168e-02 1.14927683e-02 5.42355375e-03
      2.19524791e-03 1.93698343e-03 6.45661145e-04 1.29132229e-03
      1.29132229e-03 2.58264452e-04 3.87396693e-04 6.45661145e-04
      2.58264452e-04 5.16528904e-04 1.29132226e-04 0. 0.</_>
    <_>
      3.11798118e-02 3.30294622e-03 2.24600337e-03 3.30294622e-03
      2.11388548e-03 1.26833133e-02 4.88836039e-03 3.46148759e-02
      1.51935527e-02 2.21957993e-02 4.04280610e-02 5.68106771e-03
      5.23186699e-02 2.45739203e-02 1.47971995e-02 2.61593349e-02
      6.87012821e-02 3.26331072e-02 7.99312964e-02 2.88016908e-02
      1.70564145e-01 5.44325523e-02 4.50521857e-02 2.74805129e-02
      4.61091287e-02 5.46967909e-02 3.56718190e-02 2.88016908e-02
      6.34165667e-03 0. 5.81318559e-03 1.45329640e-03 1.32117842e-04
      3.96353542e-04 2.64235685e-04 2.51023914e-03 1.32117842e-04
      1.32117842e-04 0. 2.11388548e-03 9.24824970e-04 5.54894982e-03
      1.32117851e-03 2.77447491e-03 1.58541417e-03</_>
    <_>
      8.75498131e-02 3.45368907e-02 1.64231379e-02 1.65438950e-02
      1.21965948e-02 5.15638217e-02 2.49969810e-02 5.24091311e-02
      1.92005802e-02 1.88383050e-02 2.98273154e-02 1.44910032e-03
      3.71935740e-02 1.05059771e-02 4.10578446e-03 8.09080992e-03
      2.91027650e-02 1.72684453e-02 5.60318790e-02 2.53592571e-03
      7.23342597e-02 1.15928026e-02 2.25818139e-02 1.07474942e-02
      2.93442812e-02 2.97065563e-02 1.30419033e-02 3.51406820e-02
      1.98043715e-02 2.29440886e-03 2.86197327e-02 1.40079698e-02
      2.29440886e-03 1.15928026e-02 9.66066902e-04 2.06496809e-02
      6.52095163e-03 3.86426761e-03 6.03791792e-04 1.63023788e-02
      1.00229438e-02 4.48013507e-02 1.76307205e-02 3.07933819e-02
      1.43702449e-02</_>
    <_>
      1.18641973e-01 2.46913582e-02 2.46913591e-03 1.74074080e-02
      1.39506171e-02 6.66666701e-02 4.29629646e-02 5.72839491e-02
      4.01234552e-02 3.11111119e-02 2.69135796e-02 9.87654319e-04
      2.97530871e-02 7.16049364e-03 1.11111114e-03 2.34567910e-03
      1.27160493e-02 4.19753091e-03 1.05802469e-01 2.83950614e-03
      4.83950600e-02 2.22222228e-03 5.55555569e-03 1.48148148e-03
      2.50617284e-02 1.90123450e-02 4.56790114e-03 7.45678991e-02
      1.91358030e-02 7.40740739e-04 4.95061725e-02 1.23456791e-02
      2.46913580e-04 1.27160493e-02 2.46913580e-04 2.72839498e-02
      3.08641978e-03 2.46913580e-04 0. 3.45679023e-03 0. 6.39506206e-02
      3.33333341e-03 1.25925923e-02 1.11111114e-03</_>
    <_>
      1.00987658e-01 1.65432096e-02 7.65432091e-03 1.83950625e-02
      1.29629625e-02 8.23456794e-02 6.86419755e-02 1.01234570e-01
      4.18518521e-02 4.54320982e-02 2.49382723e-02 2.34567910e-03
      4.06172834e-02 4.32098750e-03 2.22222228e-03 2.09876546e-03
      1.64197534e-02 9.38271638e-03 7.66666681e-02 2.46913591e-03
      3.06172837e-02 6.04938250e-03 9.01234522e-03 4.81481478e-03
      3.18518505e-02 1.62962954e-02 4.07407386e-03 4.22222205e-02
      1.01234568e-02 6.17283978e-04 3.90123464e-02 7.16049364e-03 0.
      1.85185182e-03 0. 3.45679000e-02 4.93827160e-04 1.23456790e-04 0.
      1.66666675e-02 1.60493830e-03 4.77777794e-02 3.82716046e-03
      1.25925923e-02 1.11111114e-03</_>
    <_>
      1.33333337e-02 3.70370370e-04 0. 3.70370370e-04 2.46913580e-04
      7.40740739e-04 8.64197558e-04 2.96296296e-03 1.11111114e-03
      9.87654319e-04 3.70370364e-03 1.23456790e-04 5.55555569e-03
      2.09876546e-03 6.17283978e-04 2.34567910e-03 1.33333337e-02
      1.11111114e-02 3.38271596e-02 4.69135819e-03 6.33333325e-02
      2.66666673e-02 4.41975296e-02 1.99999996e-02 1.11728393e-01
      1.59506172e-01 1.09259263e-01 1.57160491e-01 9.67901200e-02
      1.33333337e-02 4.86419760e-02 2.40740739e-02 1.48148148e-03
      8.14814772e-03 1.23456790e-04 7.16049364e-03 1.60493830e-03
      1.23456790e-04 0. 2.46913591e-03 4.93827160e-04 3.95061728e-03
      4.93827160e-04 8.64197558e-04 0.</_>
    <_>
      2.08333340e-02 5.38548734e-03 3.96825420e-03 1.19047621e-02
      1.36054419e-02 2.72108838e-02 5.25793657e-02 5.75396828e-02
      6.46258518e-02 5.93820848e-02 8.33333358e-02 1.95578225e-02
      7.82312900e-02 3.23129259e-02 1.88492071e-02 2.38095243e-02
      4.36507948e-02 3.95408161e-02 6.67517036e-02 1.58730168e-02
      8.40419531e-02 2.36678012e-02 2.22505666e-02 1.33219957e-02
      3.10374144e-02 2.26757377e-02 3.54308379e-03 1.75736956e-02
      6.23582769e-03 8.50340119e-04 9.49546508e-03 4.67687054e-03 0.
      1.13378686e-03 0. 6.09410414e-03 5.66893432e-04 5.66893432e-04 0.
      1.98412710e-03 8.50340119e-04 5.66893443e-03 8.50340119e-04
      3.68480734e-03 2.83446716e-04</_>
    <_>
      6.22222237e-02 4.32098750e-03 4.93827160e-04 5.18518500e-03
      1.85185182e-03 1.95061732e-02 1.24691362e-02 2.34567896e-02
      9.87654319e-04 4.81481478e-03 7.03703705e-03 2.46913580e-04
      1.24691362e-02 3.33333341e-03 1.23456790e-04 6.17283978e-04
      1.04938271e-02 4.44444455e-03 5.92592582e-02 6.17283978e-04
      4.61728387e-02 1.48148146e-02 2.09876541e-02 4.56790114e-03
      4.56790142e-02 5.67901246e-02 1.54320989e-02 1.06419750e-01
      7.75308609e-02 8.39506183e-03 9.80246887e-02 1.14197530e-01
      8.27160478e-03 3.12345680e-02 2.22222228e-03 3.25925909e-02
      7.40740728e-03 9.87654319e-04 0. 1.35802468e-02 4.69135819e-03
      3.01234573e-02 8.64197500e-03 1.64197534e-02 8.64197558e-04</_>
    <_>
      5.28395064e-02 2.03703698e-02 2.46913591e-03 2.56790128e-02
      1.06172841e-02 5.90123460e-02 5.86419739e-02 6.80246949e-02
      1.24691362e-02 3.14814821e-02 1.59259252e-02 0. 1.28395064e-02
      3.45679023e-03 8.64197558e-04 6.54320978e-03 9.25925933e-03
      5.30864205e-03 2.81481482e-02 9.87654366e-03 3.56790125e-02
      2.60493830e-02 2.60493830e-02 9.01234522e-03 4.75308634e-02
      9.09876525e-02 3.28395069e-02 1.08395062e-01 4.91358042e-02
      4.32098750e-03 4.45679016e-02 1.95061732e-02 1.85185182e-03
      3.70370364e-03 3.70370370e-04 9.99999978e-03 3.70370370e-04 0. 0.
      1.60493830e-03 4.93827160e-04 3.96296307e-02 1.35802466e-03
      1.24691362e-02 2.46913580e-04</_>
    <_>
      3.11798118e-02 1.07015455e-02 8.45554192e-03 2.52345093e-02
      4.74303067e-02 4.63733636e-02 2.49702726e-02 2.56308634e-02
      1.37402564e-02 1.26833133e-02 2.14030910e-02 2.37812125e-03
      3.75214703e-02 1.28154317e-02 5.94530301e-03 1.30796675e-02
      3.02549880e-02 2.51023918e-02 5.93209155e-02 1.13621354e-02
      9.26146135e-02 3.89747657e-02 4.59770113e-02 2.20636800e-02
      7.35896453e-02 5.74712642e-02 1.77037921e-02 6.97582215e-02
      1.92892067e-02 1.98176783e-03 2.28563882e-02 1.13621354e-02
      7.92707084e-04 5.02047827e-03 0. 1.00409565e-02 2.51023914e-03
      3.96353542e-04 0. 5.28471405e-03 1.71753205e-03 2.12709736e-02
      4.22777096e-03 7.79495295e-03 1.71753205e-03</_>
    <_>
      7.01606050e-02 8.32025111e-02 5.44620231e-02 8.32025111e-02
      5.51865734e-02 7.52324611e-02 6.03791811e-02 5.86885624e-02
      3.33293080e-02 3.12764160e-02 2.95857992e-02 1.81137549e-03
      2.37893965e-02 6.40019309e-03 4.10578446e-03 4.34730109e-03
      1.14720445e-02 3.38123413e-03 1.92005802e-02 7.24550162e-04
      1.38872117e-02 9.66066902e-04 2.89820065e-03 1.20758358e-03
      9.29839350e-03 9.29839350e-03 3.98502592e-03 1.46117620e-02
      8.09080992e-03 1.20758363e-04 1.52155533e-02 6.40019309e-03
      3.62275081e-04 3.26047582e-03 1.20758363e-04 1.46117620e-02
      3.38123413e-03 2.41516717e-03 1.20758363e-04 8.57384410e-03
      9.41915251e-03 5.69979474e-02 4.74580377e-02 3.88841927e-02
      1.84760299e-02</_>
    <_>
      2.36678012e-02 3.54308374e-02 6.91609979e-02 1.14087299e-01
      1.64824262e-01 2.36961454e-01 9.90646258e-02 5.18707484e-02
      3.54308374e-02 1.72902495e-02 1.61564630e-02 5.66893432e-04
      1.02040814e-02 5.38548734e-03 5.66893432e-04 1.98412710e-03
      8.36167764e-03 1.27551018e-03 1.75736956e-02 5.66893432e-04
      1.09126987e-02 8.50340119e-04 3.54308379e-03 1.41723358e-04
      8.64512473e-03 4.67687054e-03 0. 9.07029491e-03 3.96825420e-03 0.
      5.81065752e-03 3.40136047e-03 0. 2.12585041e-03 0. 3.82653065e-03
      5.66893432e-04 1.41723358e-04 1.41723358e-04 1.55895692e-03
      1.55895692e-03 1.14795920e-02 4.25170083e-03 7.51133775e-03
      5.38548734e-03</_>
    <_>
      4.84693870e-02 3.82653065e-03 5.10204071e-03 9.49546508e-03
      6.37755124e-03 3.38718817e-02 4.98866215e-02 4.33673486e-02
      1.84240360e-02 2.65022684e-02 3.16043086e-02 5.66893432e-04
      7.76643977e-02 1.38888890e-02 5.95238106e-03 1.14795920e-02
      5.08786850e-02 3.18877548e-02 8.30498859e-02 1.26133785e-02
      1.11819729e-01 3.06122452e-02 3.72732431e-02 4.33673486e-02
      5.72562367e-02 4.02494334e-02 1.11961449e-02 3.47222239e-02
      1.06292516e-02 1.84240367e-03 1.20464852e-02 4.53514745e-03 0.
      3.11791385e-03 0. 3.54308379e-03 1.13378686e-03 0. 0.
      1.55895692e-03 0. 2.63605434e-02 5.66893432e-04 2.40929704e-03
      8.50340119e-04</_>
    <_>
      7.46117905e-02 1.26246689e-02 1.00997351e-02 1.57808363e-02
      1.74220428e-02 3.37078646e-02 2.42393631e-02 4.40600924e-02
      2.09569503e-02 3.02992053e-02 5.56747876e-02 1.79270301e-02
      8.71102139e-02 7.95354098e-02 9.10238624e-02 6.41333163e-02
      4.41863388e-02 2.66380515e-02 7.10768849e-02 9.34225507e-03
      3.48440856e-02 1.64120691e-03 1.76745362e-03 7.57480098e-04
      7.32230768e-03 1.64120691e-03 0. 1.67908091e-02 1.76745362e-03 0.
      1.80532765e-02 1.51496020e-03 1.26246683e-04 1.51496020e-03 0.
      3.53490724e-03 7.57480098e-04 6.31233444e-04 0. 2.01994693e-03
      8.83726811e-04 3.82527448e-02 8.07978772e-03 2.29768977e-02
      4.67112754e-03</_>
    <_>
      1.48891965e-02 6.92520756e-03 1.14265932e-02 6.40581697e-02
      1.25173137e-01 2.26800561e-01 1.74688369e-01 9.33171734e-02
      8.31024945e-02 3.44529077e-02 2.57963985e-02 4.84764529e-03
      2.19875351e-02 6.92520756e-03 2.07756227e-03 3.80886416e-03
      9.17590037e-03 4.84764529e-03 1.73130203e-02 2.42382265e-03
      2.18144041e-02 3.63573409e-03 2.94321333e-03 0. 2.94321333e-03
      1.38504151e-03 0. 5.02077583e-03 1.38504151e-03 0. 4.50138515e-03
      8.65650945e-04 0. 1.73130189e-04 1.73130189e-04 4.15512454e-03
      8.65650945e-04 1.73130189e-04 0. 1.03878113e-03 1.03878113e-03
      1.21191135e-02 6.92520756e-04 1.03878113e-03 0.</_>
    <_>
      7.00113401e-02 2.90532876e-02 1.11961449e-02 3.57142873e-02
      1.41723352e-02 7.02947825e-02 5.37131503e-02 5.49886636e-02
      1.21882083e-02 2.38095243e-02 2.15419494e-02 5.66893432e-04
      3.42970528e-02 7.36961467e-03 9.92063549e-04 3.25963716e-03
      1.60147399e-02 5.10204071e-03 6.51927441e-02 1.55895692e-03
      5.38548753e-02 9.77891125e-03 2.63605434e-02 5.66893443e-03
      4.50680256e-02 4.50680256e-02 4.39342391e-03 4.26587313e-02
      3.89739238e-02 8.50340119e-04 3.34467106e-02 2.36678012e-02
      1.84240367e-03 4.96031763e-03 4.25170059e-04 1.88492071e-02
      4.67687054e-03 1.27551018e-03 0. 1.04875285e-02 7.08616758e-03
      4.84693870e-02 9.63718817e-03 2.40929704e-02 7.36961467e-03</_>
    <_>
      5.48242964e-02 3.20009664e-02 2.94650402e-02 5.49450554e-02
      4.95109297e-02 9.29839388e-02 8.81536081e-02 8.83951187e-02
      5.79640158e-02 4.57674190e-02 4.89071384e-02 3.38123413e-03
      4.62504514e-02 9.90218576e-03 2.65668402e-03 7.12474342e-03
      2.00458877e-02 9.66066867e-03 4.34730090e-02 1.93213380e-03
      3.09141409e-02 1.14720445e-02 1.08682523e-02 2.65668402e-03
      1.61816198e-02 7.24550197e-03 1.44910032e-03 1.82345118e-02
      9.29839350e-03 6.03791792e-04 1.73892044e-02 6.88322680e-03
      6.03791792e-04 2.41516717e-03 1.20758363e-04 1.19550778e-02
      7.24550162e-04 2.41516726e-04 0. 7.60777667e-03 1.32834201e-03
      2.82574575e-02 5.79640130e-03 1.58193447e-02 4.58881771e-03</_>
    <_>
      4.73372787e-02 6.40019327e-02 5.72394654e-02 1.21603668e-01
      1.20637603e-01 1.28969938e-01 7.94590041e-02 4.90278937e-02
      3.52614410e-02 2.16157474e-02 2.37893965e-02 4.83033451e-04
      1.94420964e-02 5.07185142e-03 1.56985875e-03 2.41516717e-03
      7.12474342e-03 3.13971750e-03 1.38872117e-02 2.41516726e-04
      1.08682523e-02 4.58881771e-03 3.86426761e-03 1.20758358e-03
      5.91715984e-03 8.57384410e-03 1.81137549e-03 1.09890113e-02
      4.34730109e-03 0. 1.26796281e-02 4.95109288e-03 1.20758363e-04
      2.77744234e-03 1.20758363e-04 8.81536026e-03 8.45308532e-04
      7.24550162e-04 0. 7.24550197e-03 7.48701859e-03 3.58652323e-02
      2.51177400e-02 2.95857992e-02 9.17763542e-03</_>
    <_>
      1.18671888e-02 5.04986756e-03 3.66115384e-03 5.30236075e-03
      3.78740067e-03 1.17409416e-02 1.27509153e-02 1.62858218e-02
      1.86845101e-02 1.35083953e-02 2.47443505e-02 8.83726776e-03
      3.77477594e-02 2.84055043e-02 1.84320156e-02 3.37078646e-02
      4.43125851e-02 3.73690203e-02 6.64057583e-02 7.06981421e-02
      1.78891554e-01 1.46572396e-01 5.89572042e-02 4.02726941e-02
      3.06779444e-02 1.88107565e-02 4.79737390e-03 1.31296553e-02
      3.91364750e-03 2.52493366e-04 8.58477503e-03 3.15616722e-03
      1.26246683e-04 1.13622018e-03 0. 3.40866041e-03 5.04986732e-04 0.
      0. 8.83726811e-04 5.04986732e-04 6.43858081e-03 1.26246689e-03
      3.02992039e-03 1.38871360e-03</_>
    <_>
      7.53086433e-02 3.79012339e-02 2.59259250e-02 5.17283939e-02
      4.54320982e-02 1.27283946e-01 1.12962961e-01 8.48148167e-02
      5.85185178e-02 3.65432091e-02 2.29629632e-02 3.33333341e-03
      3.41975316e-02 5.55555569e-03 1.60493830e-03 4.93827160e-04
      8.64197500e-03 4.32098750e-03 4.62962948e-02 1.23456796e-03
      2.80246921e-02 4.69135819e-03 3.82716046e-03 3.58024682e-03
      9.50617250e-03 4.07407386e-03 2.46913580e-04 2.07407400e-02
      2.83950614e-03 0. 2.46913582e-02 1.48148148e-03 2.46913580e-04
      4.56790114e-03 0. 1.93827152e-02 2.96296296e-03 4.93827160e-04 0.
      8.14814772e-03 5.06172841e-03 3.55555564e-02 1.07407412e-02
      1.87654328e-02 5.30864205e-03</_>
    <_>
      8.34750533e-02 1.72902495e-02 1.06292516e-02 9.07029491e-03
      4.67687054e-03 3.67063507e-02 1.91326533e-02 3.92573699e-02
      9.07029491e-03 1.33219957e-02 1.13378689e-02 1.55895692e-03
      1.92743763e-02 4.67687054e-03 2.83446722e-03 2.69274367e-03
      9.77891125e-03 5.38548734e-03 4.62018140e-02 1.13378686e-03
      2.76360549e-02 4.25170083e-03 1.17630381e-02 2.12585041e-03
      2.73526069e-02 3.62811796e-02 1.14795920e-02 6.60430863e-02
      4.52097505e-02 4.53514745e-03 6.26417249e-02 3.69897969e-02
      5.81065752e-03 1.57312918e-02 2.69274367e-03 5.56972772e-02
      7.51133775e-03 6.66099787e-03 1.55895692e-03 5.56972772e-02
      2.16836743e-02 6.67517036e-02 2.38095243e-02 4.70521525e-02
      5.52721089e-03</_>
    <_>
      6.49092942e-02 3.47222239e-02 3.82653065e-03 1.84240360e-02
      4.81859408e-03 5.88151924e-02 4.42176871e-02 6.67517036e-02
      1.03458054e-02 2.49433108e-02 1.68650802e-02 4.25170059e-04
      3.79818603e-02 1.10544218e-02 2.83446722e-03 7.22789112e-03
      2.62188204e-02 1.78571437e-02 4.97448966e-02 3.11791385e-03
      6.27834499e-02 1.70068033e-02 2.49433108e-02 1.23299323e-02
      6.27834499e-02 5.41383214e-02 1.21882083e-02 4.18083891e-02
      2.86281183e-02 1.13378686e-03 3.23129259e-02 1.21882083e-02
      1.84240367e-03 5.52721089e-03 7.08616804e-04 1.51643995e-02
      3.68480734e-03 2.12585041e-03 2.83446716e-04 1.11961449e-02
      4.96031763e-03 4.80442159e-02 1.24716554e-02 2.40929704e-02
      2.55102036e-03</_>
    <_>
      1.13243274e-01 6.86782002e-02 4.22926396e-02 4.65850271e-02
      2.44918577e-02 5.18873893e-02 3.02992053e-02 3.39603573e-02
      1.32559016e-02 1.46446154e-02 1.02259815e-02 8.83726811e-04
      2.43656095e-02 4.03989386e-03 8.83726811e-04 2.27244035e-03
      9.21600778e-03 3.78740067e-03 3.10566854e-02 6.31233444e-04
      1.42658753e-02 2.90367380e-03 4.41863388e-03 1.64120691e-03
      1.67908091e-02 1.11097088e-02 1.64120691e-03 2.61330642e-02
      8.83726776e-03 2.52493366e-04 3.72427739e-02 1.48971090e-02
      3.53490724e-03 1.26246689e-02 2.39868695e-03 3.85052375e-02
      8.45852774e-03 5.80734760e-03 2.65118037e-03 3.06779444e-02
      1.66645627e-02 6.51432872e-02 5.13824001e-02 5.78209832e-02
      3.74952666e-02</_>
    <_>
      5.38271591e-02 5.92592591e-03 9.87654319e-04 4.32098750e-03
      7.40740739e-04 1.49382716e-02 7.53086433e-03 2.69135796e-02
      2.34567910e-03 7.03703705e-03 6.29629614e-03 0. 2.79012341e-02
      2.71604932e-03 2.83950614e-03 2.83950614e-03 1.34567898e-02
      4.32098750e-03 7.02469125e-02 2.59259250e-03 5.66666685e-02
      1.46913584e-02 2.37037037e-02 6.04938250e-03 6.80246949e-02
      8.01234543e-02 2.97530871e-02 1.02716051e-01 8.50617290e-02
      1.35802468e-02 7.30864182e-02 7.11111128e-02 1.17283948e-02
      2.45679021e-02 1.97530864e-03 2.33333334e-02 8.51851888e-03
      1.23456796e-03 2.46913580e-04 6.66666683e-03 1.23456796e-03
      3.06172837e-02 7.40740739e-04 6.17283955e-03 6.17283978e-04</_>
    <_>
      5.56696057e-02 6.13452494e-02 6.83492348e-02 1.28003865e-01
      1.01678543e-01 1.05180532e-01 9.93841290e-02 5.18053360e-02
      4.85448614e-02 3.24839987e-02 2.89820079e-02 5.19260950e-03
      2.24610548e-02 9.29839350e-03 2.89820065e-03 3.13971750e-03
      6.27943501e-03 2.41516717e-03 8.21156893e-03 2.41516726e-04
      6.88322680e-03 2.41516726e-04 1.56985875e-03 7.24550162e-04
      3.13971750e-03 3.98502592e-03 2.41516717e-03 8.69460218e-03
      3.98502592e-03 2.41516726e-04 1.02644609e-02 3.74350930e-03
      2.41516726e-04 2.89820065e-03 3.62275081e-04 8.57384410e-03
      2.77744234e-03 3.01895896e-03 9.66066902e-04 8.57384410e-03
      6.03791792e-03 2.28233300e-02 2.02874057e-02 1.88383050e-02
      1.71476882e-02</_>
    <_>
      5.89569174e-02 6.94444450e-03 6.23582769e-03 5.66893443e-03
      2.40929704e-03 1.77154187e-02 1.16213150e-02 2.97619049e-02
      1.14795920e-02 1.07709747e-02 1.47392293e-02 1.13378686e-03
      2.43764166e-02 5.95238106e-03 2.12585041e-03 4.25170083e-03
      1.53061226e-02 7.93650839e-03 3.72732431e-02 1.84240367e-03
      5.20124733e-02 1.26133785e-02 2.74943318e-02 1.00623583e-02
      7.42630363e-02 7.76643977e-02 4.20918353e-02 9.16950107e-02
      5.34297042e-02 4.39342391e-03 5.90986386e-02 3.85487527e-02
      7.08616758e-03 2.33843531e-02 2.26757373e-03 2.93367356e-02
      9.77891125e-03 2.83446722e-03 9.92063549e-04 1.71485264e-02
      7.65306130e-03 5.00283465e-02 1.31802717e-02 1.30385486e-02
      3.40136047e-03</_>
    <_>
      5.78209832e-02 6.02196679e-02 4.73425090e-02 9.03926268e-02
      9.48112607e-02 1.31296560e-01 1.02386065e-01 7.91566744e-02
      6.79207146e-02 3.01729571e-02 2.36081295e-02 2.52493378e-03
      1.98207293e-02 4.79737390e-03 2.14619376e-03 1.13622018e-03
      7.32230768e-03 2.65118037e-03 1.41396290e-02 1.13622018e-03
      7.57480133e-03 3.28241382e-03 4.79737390e-03 4.16614069e-03
      5.93359442e-03 7.44855450e-03 3.53490724e-03 1.12359552e-02
      9.08976141e-03 2.52493366e-04 7.06981448e-03 6.69107446e-03
      7.57480098e-04 3.53490724e-03 3.78740049e-04 6.18608762e-03
      2.27244035e-03 5.04986732e-04 1.26246683e-04 4.03989386e-03
      1.64120691e-03 3.09304371e-02 8.96351505e-03 1.57808363e-02
      1.30034089e-02</_>
    <_>
      9.25009027e-02 6.88322634e-02 3.53822000e-02 3.50199267e-02
      2.22195387e-02 4.33522537e-02 1.87175460e-02 2.47554649e-02
      4.34730109e-03 7.84929376e-03 3.98502592e-03 4.83033451e-04
      7.00398488e-03 4.83033451e-04 1.20758363e-04 3.62275081e-04
      2.41516717e-03 1.81137549e-03 1.13512864e-02 0. 9.05687734e-03
      1.32834201e-03 3.13971750e-03 2.89820065e-03 1.09890113e-02
      1.98043715e-02 9.05687734e-03 3.24839987e-02 3.23632397e-02
      4.10578446e-03 4.79410701e-02 4.58881781e-02 1.61816198e-02
      2.92235240e-02 4.95109288e-03 3.21217254e-02 1.53363124e-02
      3.98502592e-03 3.26047582e-03 3.06726247e-02 3.27255167e-02
      4.85448614e-02 8.47723708e-02 6.30358681e-02 3.51406820e-02</_>
    <_>
      8.54969174e-02 7.84929320e-02 6.48472384e-02 8.50138888e-02
      5.63941561e-02 8.39270651e-02 4.69750017e-02 4.02125344e-02
      1.67854130e-02 1.31626613e-02 1.37664536e-02 3.62275081e-04
      2.60838065e-02 4.58881771e-03 9.66066902e-04 1.93213380e-03
      1.20758358e-02 1.69061706e-03 2.91027650e-02 9.66066902e-04
      3.00688315e-02 2.05289223e-03 4.95109288e-03 1.32834201e-03
      1.43702449e-02 6.40019309e-03 1.44910032e-03 1.82345118e-02
      8.45308509e-03 4.83033451e-04 1.90798212e-02 6.03791792e-03
      2.41516726e-04 4.22654254e-03 7.24550162e-04 1.70269292e-02
      3.50199244e-03 1.69061706e-03 3.62275081e-04 1.26796281e-02
      8.33232701e-03 5.15638217e-02 4.87863794e-02 4.67334874e-02
      2.83782147e-02</_>
    <_>
      9.66066902e-04 6.03791792e-04 4.83033451e-04 6.03791792e-04
      4.83033451e-04 4.83033451e-04 8.45308532e-04 9.66066902e-04
      7.24550162e-04 1.56985875e-03 2.17365054e-03 9.66066902e-04
      3.26047582e-03 2.29440886e-03 3.13971750e-03 4.22654254e-03
      7.72853522e-03 1.44910039e-02 2.23402977e-02 2.57215314e-02
      5.15638217e-02 9.28631797e-02 9.23801437e-02 1.20275326e-01
      1.23656563e-01 1.80292234e-01 1.19067743e-01 5.65149151e-02
      2.69291140e-02 1.00229438e-02 1.42494868e-02 7.60777667e-03
      1.56985875e-03 1.56985875e-03 4.83033451e-04 1.56985875e-03
      1.20758358e-03 4.83033451e-04 3.62275081e-04 8.45308532e-04
      4.83033451e-04 9.66066902e-04 3.62275081e-04 6.03791792e-04 0.</_>
    <_>
      3.98939513e-02 1.04784751e-02 8.07978772e-03 9.21600778e-03
      7.19606131e-03 2.77742706e-02 1.99469756e-02 4.44388352e-02
      3.19404118e-02 2.96679717e-02 4.94887009e-02 1.48971090e-02
      7.03194067e-02 4.03989404e-02 2.25981567e-02 3.02992053e-02
      8.76151994e-02 1.00113623e-01 1.42153770e-01 4.59537953e-02
      6.89306930e-02 6.94356766e-03 5.42860758e-03 6.31233444e-04
      1.79270301e-02 4.79737390e-03 1.26246683e-04 1.60333291e-02
      3.15616722e-03 0. 8.71102139e-03 3.53490724e-03 0. 5.04986732e-04
      2.52493366e-04 3.28241382e-03 3.78740049e-04 1.26246683e-04
      1.26246683e-04 1.26246689e-03 1.26246683e-04 1.52758490e-02
      2.14619376e-03 5.04986756e-03 2.77742720e-03</_>
    <_>
      1.78571437e-02 2.52267569e-02 5.22959195e-02 1.18905894e-01
      1.70776650e-01 2.07766443e-01 1.00340135e-01 4.87528332e-02
      3.91156450e-02 1.14795920e-02 1.71485264e-02 1.55895692e-03
      1.36054419e-02 8.36167764e-03 4.10997728e-03 3.25963716e-03
      4.67687054e-03 3.96825420e-03 8.07823148e-03 1.55895692e-03
      1.40306121e-02 4.81859408e-03 4.96031763e-03 2.12585041e-03
      9.63718817e-03 1.68650802e-02 2.26757373e-03 1.10544218e-02
      1.74319725e-02 0. 6.51927432e-03 1.31802717e-02 1.41723361e-03
      5.52721089e-03 2.83446716e-04 5.52721089e-03 1.13378686e-03
      4.25170059e-04 0. 1.84240367e-03 1.13378686e-03 4.96031763e-03
      4.39342391e-03 6.37755124e-03 5.24376426e-03</_>
    <_>
      4.53086421e-02 4.85185198e-02 3.55555564e-02 8.39506164e-02
      9.93827134e-02 1.81358024e-01 1.09753087e-01 9.37037021e-02
      5.79012334e-02 2.99999993e-02 1.95061732e-02 4.56790114e-03
      1.70370378e-02 3.33333341e-03 1.11111114e-03 1.35802466e-03
      5.55555569e-03 2.83950614e-03 1.17283948e-02 1.23456790e-04
      4.81481478e-03 5.55555569e-03 2.96296296e-03 1.48148148e-03
      1.85185182e-03 8.64197558e-04 0. 2.46913591e-03 1.48148148e-03 0.
      4.56790114e-03 4.19753091e-03 1.23456790e-04 3.82716046e-03
      4.93827160e-04 1.04938271e-02 1.48148148e-03 4.93827160e-04 0.
      4.93827183e-03 4.19753091e-03 4.43209894e-02 6.54320978e-03
      3.49382721e-02 5.30864205e-03</_>
    <_>
      3.71165238e-02 1.28771616e-02 9.72099509e-03 2.03257166e-02
      1.64120700e-02 4.09039259e-02 3.81264985e-02 4.64587808e-02
      4.38075997e-02 3.97677049e-02 6.16083816e-02 2.09569503e-02
      8.40802938e-02 4.64587808e-02 3.76215130e-02 4.67112735e-02
      9.03926268e-02 5.99671751e-02 7.92829171e-02 1.64120700e-02
      4.46913280e-02 5.42860758e-03 7.82729499e-03 5.04986732e-04
      7.95354135e-03 3.91364750e-03 0. 8.33228137e-03 2.14619376e-03 0.
      1.11097088e-02 2.90367380e-03 0. 2.65118037e-03 0. 6.43858081e-03
      7.57480098e-04 1.26246683e-04 0. 3.02992039e-03 1.00997346e-03
      2.46181041e-02 8.45852774e-03 6.81732083e-03 2.27244035e-03</_>
    <_>
      3.72839496e-02 2.03703698e-02 3.95061728e-03 3.16049382e-02
      2.45679021e-02 6.49382696e-02 1.11975312e-01 1.08641975e-01
      8.09876546e-02 6.66666701e-02 7.37037063e-02 2.71604932e-03
      4.27160487e-02 1.28395064e-02 5.06172841e-03 6.17283955e-03
      2.23456789e-02 9.13580228e-03 4.04938273e-02 6.17283978e-04
      3.48148160e-02 9.01234522e-03 1.13580246e-02 4.69135819e-03
      2.79012341e-02 2.39506178e-02 5.30864205e-03 1.98765434e-02
      6.04938250e-03 0. 1.81481484e-02 5.30864205e-03 0. 3.20987660e-03
      0. 1.22222221e-02 1.35802466e-03 0. 0. 6.54320978e-03
      1.60493830e-03 2.55555548e-02 2.09876546e-03 1.40740741e-02
      1.23456790e-04</_>
    <_>
      1.92462191e-01 2.74102073e-02 7.32514169e-03 8.15217383e-03
      3.18998098e-03 2.15028357e-02 9.68809053e-03 1.94943286e-02
      6.02551969e-03 7.79773155e-03 8.62476416e-03 4.72589803e-04
      2.02032141e-02 4.01701313e-03 1.77221175e-03 3.07183363e-03
      8.27032141e-03 4.25330829e-03 3.44990566e-02 9.45179607e-04
      2.04395093e-02 4.48960299e-03 7.08884699e-03 6.37996197e-03
      1.38232512e-02 1.47684310e-02 1.26417773e-02 3.62712666e-02
      3.08364835e-02 1.87854450e-02 4.99763712e-02 5.11578433e-02
      1.55954631e-02 2.63468809e-02 1.05151227e-02 3.15453671e-02
      2.20935736e-02 1.06332703e-02 7.32514169e-03 4.15879004e-02
      2.44565215e-02 5.41115329e-02 4.15879004e-02 4.09971662e-02
      1.73676740e-02</_>
    <_>
      5.32098748e-02 6.17283955e-03 6.17283978e-04 2.34567910e-03
      1.48148148e-03 2.03703698e-02 9.62962955e-03 2.14814823e-02
      4.07407386e-03 7.16049364e-03 7.77777797e-03 2.46913580e-04
      2.19753087e-02 6.41975319e-03 7.40740739e-04 2.96296296e-03
      1.46913584e-02 5.18518500e-03 5.43209873e-02 2.34567910e-03
      4.98765446e-02 6.17283955e-03 1.13580246e-02 2.96296296e-03
      4.80246916e-02 6.01234585e-02 2.60493830e-02 1.25308648e-01
      7.65432119e-02 3.58024682e-03 1.17901236e-01 7.41975307e-02
      8.39506183e-03 2.83950623e-02 4.93827160e-04 4.45679016e-02
      6.66666683e-03 9.87654319e-04 2.46913580e-04 9.99999978e-03
      1.97530864e-03 3.53086405e-02 5.06172841e-03 1.18518518e-02
      7.40740739e-04</_>
    <_>
      9.72099509e-03 4.29238752e-03 3.91364750e-03 4.67112754e-03
      3.02992039e-03 5.30236075e-03 5.17611392e-03 6.56482764e-03
      2.39868695e-03 3.53490724e-03 5.93359442e-03 2.01994693e-03
      1.40133826e-02 8.07978772e-03 6.05984079e-03 1.46446154e-02
      2.76480243e-02 3.19404118e-02 8.38278010e-02 8.33228156e-02
      2.08812013e-01 1.00997351e-01 6.05984107e-02 2.01994702e-02
      5.65585159e-02 6.96881711e-02 1.86845101e-02 3.63590457e-02
      3.11829317e-02 2.14619376e-03 2.10831966e-02 1.30034089e-02
      1.13622018e-03 5.93359442e-03 5.04986732e-04 4.67112754e-03
      2.27244035e-03 3.78740049e-04 3.78740049e-04 5.42860758e-03
      1.26246689e-03 3.91364750e-03 1.89370033e-03 4.29238752e-03
      2.52493378e-03</_>
    <_>
