<?xml version="1.0"?>
<opencv_storage>
<my_svm type_id="opencv-ml-svm">
  <svm_type>C_SVC</svm_type>
  <kernel><type>LINEAR</type></kernel>
  <C>100000.</C>
  <term_criteria><epsilon>1.0000000474974513e-03</epsilon>
    <iterations>100000</iterations></term_criteria>
  <var_all>180</var_all>
  <var_count>180</var_count>
  <class_count>2</class_count>
  <class_labels type_id="opencv-matrix">
    <rows>1</rows>
    <cols>2</cols>
    <dt>i</dt>
    <data>
      -1 1</data></class_labels>
  <sv_total>1</sv_total>
  <support_vectors>
    <_>
      9.23109341e+00 6.81069046e-02 -1.82098830e+00 -2.25796890e+00
      -1.14028439e-01 -3.89713597e+00 -1.96173847e+00 9.09146592e-02
      -1.97087944e+00 -2.34189093e-01 -2.77942270e-01 2.17178321e+00
      3.36324900e-01 8.60739231e+00 5.54436147e-01 3.49332428e+00
      1.50679779e+01 1.54505670e+00 -2.61236966e-01 -1.38399630e+01
      1.78828478e+00 3.95203056e+01 -2.97891331e+00 -5.15723646e-01
      3.25724716e+01 2.65727978e+01 -6.53309679e+00 1.40505927e-02
      -5.38196683e-01 8.18232000e-01 1.95186119e+01 7.27317274e-01
      -2.33550578e-01 4.36580747e-01 -8.28250790e+00 -9.59983253e+00
      1.13806190e+01 4.96725053e-01 -4.48052615e-01 3.84221882e-01
      -1.48557246e-01 1.09097588e+00 5.92744112e+00 6.94702673e+00
      3.36384225e+00 2.26246166e+00 3.32912993e+00 8.06260228e-01
      1.66381490e+00 1.36371994e+00 8.99428177e+00 -1.25011075e+00
      3.83433670e-01 3.63658637e-01 2.86794573e-01 -1.19104996e+01
      -3.94815564e-01 -1.23548195e-01 9.09146592e-02 0. -2.74205416e-01
      0. -4.42856342e-01 4.80859354e-02 3.63658637e-01 2.84649283e-02
      -8.22491074e+00 2.23015100e-02 -2.30983305e+00 -1.94111794e-01
      -8.28002357e+00 -6.05691612e-01 8.49101692e-02 -2.77003288e+00
      -6.49145126e+00 3.22775497e+01 -2.28853035e+00 -3.12627494e-01 0.
      -4.78788567e+00 -1.92504654e+01 -4.87764239e-01 -4.26192403e-01
      9.22603893e+00 -6.18526697e+00 -3.77711749e+00 -4.61526722e-01
      -2.57371750e+01 -2.06800461e+00 -2.07453728e+00 -3.20324669e+01
      -3.85561991e+00 -7.43914223e+00 -1.61279545e+01 -4.82568836e+00
      -2.85677605e+01 1.76570072e+01 -2.18050289e+01 7.67457533e+00
      -3.55327187e+01 -2.49547634e+01 -1.41677122e+01 1.00918188e+01
      3.14669514e+01 7.24061430e-01 1.38872328e+01 1.47679281e+01
      1.70711651e+01 -1.79802155e+00 2.64413357e+00 1.49892931e+01
      3.36034508e+01 3.49360991e+00 -7.38130665e+00 7.92068672e+00
      8.97003078e+00 2.24773102e+01 6.65106010e+00 1.49996364e+00
      1.83405514e+01 6.96579266e+00 1.32861834e+01 2.25773342e-02
      2.32882347e+01 -2.30932975e+00 -1.64530964e+01 -8.64857578e+00
      -3.75850272e+00 -5.16653919e+00 -1.55068314e+00 -4.22510338e+00
      -1.31673443e+00 -5.19474697e+00 -5.59185457e+00 -1.36628732e-01
      -1.26184070e+00 -3.66627550e+00 -1.36628732e-01 -2.96996498e+00
      -1.28240049e+00 -8.54596901e+00 -9.86313522e-01 -1.86501884e+00
      -6.83031797e-01 -2.10194898e+00 -1.93577743e+00 -8.39989126e-01
      -2.04909539e+00 -6.83031797e-01 -1.09280610e+00 -2.41040826e+00 0.
      -1.50269234e+00 -1.46013892e+00 0. -6.83031797e-01 -2.06595063e+00
      -3.48336124e+00 -4.55488384e-01 -9.56289232e-01 -1.47070777e+00
      -7.51346171e-01 -1.09280610e+00 -2.15815806e+00 -2.63182569e+00
      -1.70574081e+00 -3.56488895e+00 -1.88986623e+00 -1.70752347e+00
      -9.88013387e-01 -9.02513027e+00 -5.72941840e-01 -5.18532467e+00
      -6.44800472e+00 -8.62623978e+00 -6.28157663e+00 -2.00815082e+00
      -9.06757450e+00 -2.86525965e+00 -7.72823930e-01</_></support_vectors>
  <decision_functions>
    <_>
      <sv_count>1</sv_count>
      <rho>1.0176641743473166e+01</rho>
      <alpha>
        1.</alpha>
      <index>
        0</index></_></decision_functions></my_svm>
</opencv_storage>
