<?xml version="1.0"?>
<opencv_storage>
<my_svm type_id="opencv-ml-svm">
  <svm_type>C_SVC</svm_type>
  <kernel><type>RBF</type>
    <gamma>10.</gamma></kernel>
  <C>100000.</C>
  <term_criteria><epsilon>9.9999999747524271e-07</epsilon>
    <iterations>1000000</iterations></term_criteria>
  <var_all>3</var_all>
  <var_count>3</var_count>
  <class_count>2</class_count>
  <class_labels type_id="opencv-matrix">
    <rows>1</rows>
    <cols>2</cols>
    <dt>i</dt>
    <data>
      -1 1</data></class_labels>
  <sv_total>3192</sv_total>
  <support_vectors>
    <_>
      9.34829652e-01 1.35208218e-04 6.50351569e-02</_>
    <_>
      9.39654112e-01 3.02992039e-03 5.73159941e-02</_>
    <_>
      3.08409959e-01 4.92833972e-01 1.98756084e-01</_>
    <_>
      9.59711730e-01 3.07183363e-03 3.72164473e-02</_>
    <_>
      2.06774384e-01 6.51218832e-01 1.42006800e-01</_>
    <_>
      7.13455558e-01 2.54519641e-01 3.20247933e-02</_>
    <_>
      3.29749525e-01 1.55600190e-01 5.14650285e-01</_>
    <_>
      1.29475491e-02 9.86523986e-01 5.28471370e-04</_>
    <_>
      8.44510555e-01 3.31260152e-02 1.22363441e-01</_>
    <_>
      7.44855464e-01 2.49968432e-02 2.30147704e-01</_>
    <_>
      4.86495830e-02 9.10837948e-01 4.05124649e-02</_>
    <_>
      9.48606133e-02 8.74355912e-01 3.07834595e-02</_>
    <_>
      7.15264678e-01 1.24527410e-01 1.60207942e-01</_>
    <_>
      7.45805264e-01 4.71660718e-02 2.07028672e-01</_>
    <_>
      7.70321339e-02 9.02410209e-01 2.05576569e-02</_>
    <_>
      5.30733466e-01 3.78228307e-01 9.10382196e-02</_>
    <_>
      8.95144641e-01 6.30165264e-02 4.18388434e-02</_>
    <_>
      1.29815236e-01 8.03526163e-01 6.66586161e-02</_>
    <_>
      8.19497049e-01 2.43374798e-02 1.56165496e-01</_>
    <_>
      6.03569508e-01 3.73850733e-01 2.25797724e-02</_>
    <_>
      4.48753476e-01 3.37430745e-01 2.13815793e-01</_>
    <_>
      3.65966447e-02 9.54815686e-01 8.58766027e-03</_>
    <_>
      4.86668974e-01 3.62880886e-01 1.50450140e-01</_>
    <_>
      4.32125479e-01 3.81287187e-01 1.86587349e-01</_>
    <_>
      5.35089791e-01 1.92344040e-01 2.72566170e-01</_>
    <_>
      8.57954562e-01 1.11828513e-01 3.02169416e-02</_>
    <_>
      1.13303401e-01 8.27268422e-01 5.94281666e-02</_>
    <_>
      9.15414691e-01 0. 8.45852792e-02</_>
    <_>
      9.20178711e-01 5.65149151e-02 2.33063642e-02</_>
    <_>
      7.87993491e-01 8.51811748e-03 2.03488365e-01</_>
    <_>
      4.45019573e-01 2.25097835e-01 3.29882592e-01</_>
    <_>
      5.00945188e-02 8.73700380e-01 7.62051046e-02</_>
    <_>
      9.38433111e-01 3.96353542e-04 6.11705631e-02</_>
    <_>
      1.59220040e-01 8.28254104e-01 1.25258267e-02</_>
    <_>
      9.93129849e-01 1.32117851e-03 5.54894982e-03</_>
    <_>
      4.37838554e-01 3.78253400e-01 1.83908045e-01</_>
    <_>
      2.80836493e-01 5.56828916e-01 1.62334591e-01</_>
    <_>
      4.32825498e-02 7.20394731e-01 2.36322716e-01</_>
    <_>
      8.85884285e-01 5.94916157e-02 5.46241216e-02</_>
    <_>
      6.47598147e-01 2.56069213e-01 9.63326469e-02</_>
    <_>
      9.97159064e-01 3.87396693e-04 2.45351251e-03</_>
    <_>
      8.03804994e-01 2.10067388e-02 1.75188273e-01</_>
    <_>
      9.40857410e-01 3.87396687e-03 5.52685969e-02</_>
    <_>
      8.58033240e-01 4.44944613e-02 9.74723026e-02</_>
    <_>
      2.01677695e-01 6.91044450e-01 1.07277885e-01</_>
    <_>
      7.66068041e-01 8.55387524e-02 1.48393199e-01</_>
    <_>
      9.10996079e-01 2.15881839e-02 6.74157292e-02</_>
    <_>
      2.21957982e-01 7.34443128e-01 4.35988903e-02</_>
    <_>
      5.91411591e-01 3.15334469e-01 9.32539701e-02</_>
    <_>
      9.61011350e-01 1.07514178e-02 2.82372404e-02</_>
    <_>
      7.23741591e-01 1.40441269e-01 1.35817155e-01</_>
    <_>
      5.34349203e-01 4.23811972e-01 4.18388434e-02</_>
    <_>
      5.04371464e-01 3.57986778e-01 1.37641773e-01</_>
    <_>
      3.55258167e-01 5.13697743e-01 1.31044060e-01</_>
    <_>
      2.43265599e-01 5.05198479e-01 2.51535922e-01</_>
    <_>
      3.37074667e-01 1.08813800e-01 5.54111540e-01</_>
    <_>
      9.64859352e-02 8.86487126e-01 1.70269292e-02</_>
    <_>
      8.07733893e-01 9.11303386e-02 1.01135746e-01</_>
    <_>
      8.78615677e-01 1.30423550e-02 1.08341940e-01</_>
    <_>
      7.06728935e-01 2.31031440e-02 2.70167917e-01</_>
    <_>
      0. 9.99612629e-01 3.87396693e-04</_>
    <_>
      2.13846877e-01 7.43029296e-01 4.31238189e-02</_>
    <_>
      1.25588700e-02 9.76210594e-01 1.12305274e-02</_>
    <_>
      5.77063560e-02 8.35646451e-01 1.06647186e-01</_>
    <_>
      1.80785116e-02 9.54287171e-01 2.76342984e-02</_>
    <_>
      1.21621624e-01 7.96749473e-01 8.16289261e-02</_>
    <_>
      8.69335473e-01 5.64143211e-02 7.42502287e-02</_>
    <_>
      3.57378781e-01 5.24639964e-01 1.17981240e-01</_>
    <_>
      2.40193754e-01 7.06403613e-01 5.34026474e-02</_>
    <_>
      5.92627585e-01 8.32939520e-02 3.24078441e-01</_>
    <_>
      3.51488650e-01 3.00567120e-01 3.47944230e-01</_>
    <_>
      8.25905800e-01 1.10087112e-01 6.40070662e-02</_>
    <_>
      8.99338365e-01 6.60444200e-02 3.46172005e-02</_>
    <_>
      3.23270142e-01 5.26748002e-01 1.49981886e-01</_>
    <_>
      7.44997323e-01 1.47376964e-02 2.40265012e-01</_>
    <_>
      7.68529534e-01 8.79904851e-02 1.43479988e-01</_>
    <_>
      9.49398875e-01 9.24824970e-04 4.96763103e-02</_>
    <_>
      8.74797180e-02 8.70335340e-01 4.21849638e-02</_>
    <_>
      8.37665379e-01 1.43194705e-01 1.91398859e-02</_>
    <_>
      7.75796413e-01 4.50138515e-03 2.19702214e-01</_>
    <_>
      5.02077579e-01 1.48545712e-01 3.49376738e-01</_>
    <_>
      3.14909309e-01 5.58815181e-01 1.26275510e-01</_>
    <_>
      7.90676653e-01 1.64643601e-01 4.46797535e-02</_>
    <_>
      7.69628063e-02 9.03796494e-01 1.92407016e-02</_>
    <_>
      6.74586773e-01 3.03719014e-01 2.16942150e-02</_>
    <_>
      4.63451594e-01 2.02373445e-01 3.34174991e-01</_>
    <_>
      7.34250724e-01 9.72099453e-02 1.68539330e-01</_>
    <_>
      2.18690932e-01 7.77292073e-01 4.01701313e-03</_>
    <_>
      7.79773155e-03 9.87476349e-01 4.72589815e-03</_>
    <_>
      5.34607410e-01 3.76807839e-01 8.85847136e-02</_>
    <_>
      3.53604630e-02 9.48635876e-01 1.60036571e-02</_>
    <_>
      1.88745320e-01 8.03526163e-01 7.72853522e-03</_>
    <_>
      3.73893499e-01 6.08402669e-01 1.77037921e-02</_>
    <_>
      3.68974477e-01 3.07537794e-01 3.23487699e-01</_>
    <_>
      7.84863949e-01 1.42290249e-01 7.28458017e-02</_>
    <_>
      9.14140791e-02 8.40236664e-01 6.83492348e-02</_>
    <_>
      5.98409295e-01 1.11728318e-01 2.89862394e-01</_>
    <_>
      3.26095194e-01 6.57240272e-01 1.66645627e-02</_>
    <_>
      6.66666687e-01 2.80882537e-01 5.24507873e-02</_>
    <_>
      2.40454488e-02 9.75954533e-01 0.</_>
    <_>
      9.27930057e-01 6.48629516e-02 7.20699411e-03</_>
    <_>
      9.93922591e-01 0. 6.07742090e-03</_>
    <_>
      2.19399810e-01 4.19187158e-01 3.61413032e-01</_>
    <_>
      2.71766424e-01 7.05377221e-01 2.28563882e-02</_>
    <_>
      3.99220228e-01 5.95108688e-01 5.67107741e-03</_>
    <_>
      3.70407790e-01 3.21171582e-01 3.08420658e-01</_>
    <_>
      8.43572438e-01 1.53917298e-01 2.51023914e-03</_>
    <_>
      8.76654088e-02 4.40689981e-01 4.71644610e-01</_>
    <_>
      3.21597368e-01 4.79324192e-01 1.99078456e-01</_>
    <_>
      5.46358466e-01 1.49535120e-01 3.04106414e-01</_>
    <_>
      4.87712651e-01 1.84428170e-01 3.27859163e-01</_>
    <_>
      1.03142723e-01 6.81947052e-01 2.14910209e-01</_>
    <_>
      7.90156841e-01 9.89724174e-02 1.10870741e-01</_>
    <_>
      7.45144635e-02 9.00779486e-01 2.47060377e-02</_>
    <_>
      3.53434920e-01 6.35201454e-01 1.13636367e-02</_>
    <_>
      3.59877139e-01 2.64413983e-01 3.75708878e-01</_>
    <_>
      8.20982218e-01 1.08572152e-02 1.68160588e-01</_>
    <_>
      5.96606672e-01 1.90789476e-01 2.12603882e-01</_>
    <_>
      6.11058593e-01 2.09829867e-01 1.79111525e-01</_>
    <_>
      1.74976364e-01 4.76606816e-01 3.48416835e-01</_>
    <_>
      9.64143991e-01 1.88492071e-02 1.70068033e-02</_>
    <_>
      1.07396029e-01 5.66280723e-01 3.26323241e-01</_>
    <_>
      8.32939520e-02 7.53189981e-01 1.63516074e-01</_>
    <_>
      4.79442358e-01 2.39957467e-01 2.80600190e-01</_>
    <_>
      6.11187339e-01 2.19631150e-01 1.69181526e-01</_>
    <_>
      7.54392892e-02 9.12934363e-01 1.16263712e-02</_>
    <_>
      7.60588825e-01 2.24690080e-01 1.47210741e-02</_>
    <_>
      9.62378502e-01 2.52493378e-03 3.50965783e-02</_>
    <_>
      1.55990303e-01 8.43317151e-01 6.92520756e-04</_>
    <_>
      7.22255766e-01 1.66405022e-01 1.11339211e-01</_>
    <_>
      7.64602482e-01 7.95024335e-02 1.55895084e-01</_>
    <_>
      3.72352093e-01 4.88677859e-01 1.38970047e-01</_>
    <_>
      7.53109753e-02 8.86289895e-01 3.83991338e-02</_>
    <_>
      2.99149334e-01 1.45085067e-01 5.55765569e-01</_>
    <_>
      1.94727898e-01 7.82879829e-01 2.23922897e-02</_>
    <_>
      2.10860088e-01 7.56374657e-01 3.27652283e-02</_>
    <_>
      9.95996892e-01 0. 4.00309917e-03</_>
    <_>
      5.87792337e-01 2.10067388e-02 3.91200960e-01</_>
    <_>
      6.59003854e-01 2.39661783e-01 1.01334393e-01</_>
    <_>
      5.82375944e-01 1.80154026e-01 2.37470016e-01</_>
    <_>
      7.46484578e-01 5.27312048e-02 2.00784206e-01</_>
    <_>
      7.14792088e-02 6.85727775e-01 2.42793009e-01</_>
    <_>
      7.92310715e-01 1.46122336e-01 6.15669191e-02</_>
    <_>
      3.05769473e-01 3.70407790e-01 3.23822737e-01</_>
    <_>
      6.68728709e-01 1.11475825e-01 2.19795480e-01</_>
    <_>
      8.36734712e-01 1.25141725e-01 3.81235816e-02</_>
    <_>
      5.92752814e-01 1.94699839e-01 2.12547317e-01</_>
    <_>
      2.07633302e-01 5.29766262e-01 2.62600452e-01</_>
    <_>
      1.39384329e-01 8.23358417e-01 3.72572318e-02</_>
    <_>
      1.72413796e-01 7.76324511e-01 5.12617268e-02</_>
    <_>
      1.55363888e-01 4.37736303e-01 4.06899810e-01</_>
    <_>
      1.34628087e-01 8.24547470e-01 4.08244170e-02</_>
    <_>
      2.32632324e-01 7.16682434e-01 5.06852567e-02</_>
    <_>
      3.50661635e-01 3.92840266e-01 2.56498098e-01</_>
    <_>
      2.55912274e-01 6.81728125e-01 6.23596236e-02</_>
    <_>
      3.27091932e-01 6.70583665e-01 2.32438021e-03</_>
    <_>
      4.66564268e-01 1.62098303e-01 3.71337444e-01</_>
    <_>
      6.27125859e-01 3.27239215e-01 4.56349216e-02</_>
    <_>
      8.91632378e-01 3.79515328e-02 7.04160929e-02</_>
    <_>
      9.15642738e-01 4.58412096e-02 3.85160670e-02</_>
    <_>
      3.08719277e-01 3.19588840e-01 3.71691883e-01</_>
    <_>
      8.62707734e-01 8.53531882e-02 5.19390590e-02</_>
    <_>
      6.75448954e-01 1.56545371e-01 1.68005675e-01</_>
    <_>
      3.39230359e-01 6.40625000e-01 2.01446284e-02</_>
    <_>
      2.19183505e-01 7.53600240e-01 2.72162762e-02</_>
    <_>
      5.86247623e-01 1.68241963e-01 2.45510399e-01</_>
    <_>
      2.45510399e-01 5.29891312e-01 2.24598303e-01</_>
    <_>
      9.36715528e-02 7.92310715e-01 1.14017703e-01</_>
    <_>
      9.26246569e-02 8.24792266e-01 8.25830996e-02</_>
    <_>
      8.82618785e-01 9.85278934e-02 1.88533049e-02</_>
    <_>
      1.66064054e-01 8.25154960e-01 8.78099166e-03</_>
    <_>
      4.05624654e-04 9.97566223e-01 2.02812324e-03</_>
    <_>
      4.71910119e-01 3.20792824e-01 2.07297057e-01</_>
    <_>
      8.91795456e-01 1.16263712e-02 9.65781510e-02</_>
    <_>
      4.62504514e-02 8.65112901e-01 8.86366367e-02</_>
    <_>
      2.76329815e-01 7.02789187e-01 2.08809637e-02</_>
    <_>
      1.17786705e-01 8.15376163e-01 6.68371096e-02</_>
    <_>
      2.50903934e-01 6.74845040e-01 7.42510334e-02</_>
    <_>
      2.16209833e-02 9.48960304e-01 2.94187143e-02</_>
    <_>
      9.59843159e-01 0. 4.01568413e-02</_>
    <_>
      5.85942686e-01 4.12736148e-01 1.32117851e-03</_>
    <_>
      1.12035938e-01 8.31153393e-01 5.68106733e-02</_>
    <_>
      6.86079562e-01 3.03589880e-01 1.03305783e-02</_>
    <_>
      8.65673542e-01 4.92362073e-03 1.29402846e-01</_>
    <_>
      8.81886661e-01 9.06328410e-02 2.74805129e-02</_>
    <_>
      7.69850731e-01 1.28022194e-01 1.02127098e-01</_>
    <_>
      7.44683385e-01 1.21573724e-01 1.33742914e-01</_>
    <_>
      5.86037099e-01 9.07713696e-02 3.23191524e-01</_>
    <_>
      4.97400761e-02 9.43407357e-01 6.85255183e-03</_>
    <_>
      6.59971654e-01 1.01252362e-01 2.38775998e-01</_>
    <_>
      7.43509233e-01 2.05289219e-02 2.35961840e-01</_>
    <_>
      6.18905902e-01 2.36819729e-01 1.44274384e-01</_>
    <_>
      9.61871266e-01 6.35478646e-03 3.17739323e-02</_>
    <_>
      2.32277885e-01 4.00756150e-01 3.66965979e-01</_>
    <_>
      9.26275998e-02 8.75118136e-01 3.22542526e-02</_>
    <_>
      1.24501869e-01 8.60403359e-01 1.50947953e-02</_>
    <_>
      8.26058865e-01 1.73295453e-01 6.45661145e-04</_>
    <_>
      4.72707927e-01 2.83553869e-01 2.43738189e-01</_>
    <_>
      6.22873366e-01 1.54891297e-01 2.22235352e-01</_>
    <_>
      2.32868627e-01 6.53591692e-01 1.13539696e-01</_>
    <_>
      1.98647499e-01 7.71162927e-01 3.01895905e-02</_>
    <_>
      8.64807189e-01 1.06995888e-01 2.81969216e-02</_>
    <_>
      6.58081248e-02 8.42627585e-01 9.15642753e-02</_>
    <_>
      4.44312334e-01 2.44682252e-01 3.11005414e-01</_>
    <_>
      9.20454562e-01 4.39049583e-03 7.51549602e-02</_>
    <_>
      1.11111112e-01 8.87039244e-01 1.84964994e-03</_>
    <_>
      9.46187139e-01 7.16603547e-03 4.66468371e-02</_>
    <_>
      2.54489601e-01 7.32986748e-01 1.25236297e-02</_>
    <_>
      2.86100596e-01 5.88831782e-01 1.25067607e-01</_>
    <_>
      4.13516052e-02 9.46479201e-01 1.21691870e-02</_>
    <_>
      1.03497162e-01 8.62830818e-01 3.36720236e-02</_>
    <_>
      6.66006088e-01 5.06011359e-02 2.83392787e-01</_>
    <_>
      1.45726815e-01 8.26333106e-01 2.79401019e-02</_>
    <_>
      6.00464866e-02 8.76936972e-01 6.30165264e-02</_>
    <_>
      3.48653108e-01 2.47046307e-01 4.04300570e-01</_>
    <_>
      3.21022719e-01 6.16218984e-01 6.27582669e-02</_>
    <_>
      5.91425635e-02 9.33496892e-01 7.36053707e-03</_>
    <_>
      7.26724982e-01 1.29253313e-01 1.44021735e-01</_>
    <_>
      3.86578441e-01 3.72046322e-01 2.41375238e-01</_>
    <_>
      8.18144917e-01 8.22065994e-02 9.96484607e-02</_>
    <_>
      3.84684920e-01 6.03951454e-01 1.13636367e-02</_>
    <_>
      8.44993114e-01 1.08672455e-01 4.63344008e-02</_>
    <_>
      1.79680273e-01 6.91372693e-01 1.28947020e-01</_>
    <_>
      1.71626985e-01 6.11678004e-01 2.16695011e-01</_>
    <_>
      1.23926543e-01 7.62187898e-01 1.13885589e-01</_>
    <_>
      2.60734081e-01 5.76523542e-01 1.62742376e-01</_>
    <_>
      7.83486962e-01 5.28973602e-02 1.63615704e-01</_>
    <_>
      2.04028934e-02 9.69266534e-01 1.03305783e-02</_>
    <_>
      6.24526799e-01 1.60086527e-01 2.15386689e-01</_>
    <_>
      8.03402662e-01 9.31001902e-02 1.03497162e-01</_>
    <_>
      2.76342988e-01 7.22753108e-01 9.03925626e-04</_>
    <_>
      1.96833655e-01 4.43998098e-01 3.59168231e-01</_>
    <_>
      3.85611951e-02 9.40253019e-01 2.11857948e-02</_>
    <_>
      5.95567860e-02 7.75103867e-01 1.65339336e-01</_>
    <_>
      2.55113214e-01 5.56062818e-01 1.88823953e-01</_>
    <_>
      2.48936668e-01 7.11838365e-01 3.92249525e-02</_>
    <_>
      5.77091932e-01 1.90082639e-01 2.32825413e-01</_>
    <_>
      6.85640872e-01 2.81233098e-02 2.86235809e-01</_>
    <_>
      2.95417249e-01 4.05756861e-01 2.98825920e-01</_>
    <_>
      1.61034971e-01 6.69187129e-01 1.69777885e-01</_>
    <_>
      5.86803675e-01 6.77393153e-02 3.45457017e-01</_>
    <_>
      6.34297788e-01 2.99907506e-01 6.57946914e-02</_>
    <_>
      1.97542533e-01 4.88185257e-01 3.14272225e-01</_>
    <_>
      8.91196728e-01 4.19031531e-02 6.69001341e-02</_>
    <_>
      7.66415656e-01 2.15087861e-01 1.84964985e-02</_>
    <_>
      1.60391062e-01 7.60206103e-01 7.94028267e-02</_>
    <_>
      7.34504104e-01 1.06792353e-01 1.58703506e-01</_>
    <_>
      5.54349184e-01 1.69170558e-01 2.76480228e-01</_>
    <_>
      6.12234116e-01 3.63984674e-01 2.37812120e-02</_>
    <_>
      1.79151803e-01 7.50033021e-01 7.08151683e-02</_>
    <_>
      3.44163507e-01 4.45888460e-01 2.09948018e-01</_>
    <_>
      2.88016908e-02 9.66574192e-01 4.62412462e-03</_>
    <_>
      2.06134528e-01 6.07897580e-01 1.85967878e-01</_>
    <_>
      4.56462950e-01 3.36938888e-01 2.06598163e-01</_>
    <_>
      2.34720316e-02 9.65858877e-01 1.06691057e-02</_>
    <_>
      2.26757362e-01 6.92176878e-01 8.10657591e-02</_>
    <_>
      1.32592678e-01 8.39391351e-01 2.80159395e-02</_>
    <_>
      1.14149824e-01 8.68278503e-01 1.75716747e-02</_>
    <_>
      5.90619087e-01 3.15926284e-01 9.34546292e-02</_>
    <_>
      7.58979201e-01 2.02504724e-01 3.85160670e-02</_>
    <_>
      5.19376159e-01 4.02055770e-01 7.85680562e-02</_>
    <_>
      7.29989171e-01 9.03190896e-02 1.79691732e-01</_>
    <_>
      5.94662428e-01 1.70960501e-01 2.34377071e-01</_>
    <_>
      5.67225873e-01 1.42249525e-01 2.90524572e-01</_>
    <_>
      6.76007211e-01 3.09142560e-01 1.48502067e-02</_>
    <_>
      6.43281817e-01 2.17201740e-01 1.39516443e-01</_>
    <_>
      1.64643601e-01 7.93904960e-01 4.14514467e-02</_>
    <_>
      5.65711379e-01 1.54652193e-01 2.79636413e-01</_>
    <_>
      5.12498498e-01 2.15191409e-01 2.72310108e-01</_>
    <_>
      7.33914673e-01 1.80737212e-01 8.53481293e-02</_>
    <_>
      2.48015877e-02 9.64143991e-01 1.10544218e-02</_>
    <_>
      2.85593539e-01 5.13223052e-01 2.01183438e-01</_>
    <_>
      4.13868815e-01 5.03615677e-01 8.25154930e-02</_>
    <_>
      4.21229333e-01 4.07799602e-01 1.70971081e-01</_>
    <_>
      8.97106528e-01 9.87020042e-03 9.30232555e-02</_>
    <_>
      9.01464999e-01 1.72495283e-02 8.12854469e-02</_>
    <_>
      5.39569318e-01 3.51433486e-01 1.08997226e-01</_>
    <_>
      5.09734973e-02 8.35992455e-01 1.13034070e-01</_>
    <_>
      3.70864838e-01 3.08364838e-01 3.20770323e-01</_>
    <_>
      5.30557036e-01 3.39372642e-02 4.35505688e-01</_>
    <_>
      5.88374287e-02 8.85515094e-01 5.56474477e-02</_>
    <_>
      9.26748574e-01 1.41776940e-02 5.90737239e-02</_>
    <_>
      7.07128108e-01 2.86802679e-01 6.06921501e-03</_>
    <_>
      3.17889154e-01 3.00719619e-01 3.81391227e-01</_>
    <_>
      1.78146258e-01 7.49574840e-01 7.22789094e-02</_>
    <_>
      1.64913878e-01 8.14052761e-01 2.10333783e-02</_>
    <_>
      6.23227775e-01 1.86318532e-01 1.90453693e-01</_>
    <_>
      3.95429373e-01 2.62984753e-01 3.41585875e-01</_>
    <_>
      1.03852190e-02 9.24526036e-01 6.50887564e-02</_>
    <_>
      8.96430492e-01 3.71822603e-02 6.63872361e-02</_>
    <_>
      7.91819215e-01 3.78740049e-04 2.07802042e-01</_>
    <_>
      9.04214561e-01 7.08151683e-02 2.49702726e-02</_>
    <_>
      3.98038745e-01 3.32939506e-01 2.69021749e-01</_>
    <_>
      3.71455580e-01 4.01228726e-01 2.27315694e-01</_>
    <_>
      1.95798650e-01 7.73550034e-01 3.06513403e-02</_>
    <_>
      9.07541335e-01 6.26291335e-02 2.98295449e-02</_>
    <_>
      0. 9.99858260e-01 1.41723358e-04</_>
    <_>
      5.68181813e-01 3.25154960e-01 1.06663220e-01</_>
    <_>
      3.24121326e-01 6.24858260e-01 5.10204099e-02</_>
    <_>
      5.87585032e-01 3.12925160e-01 9.94897932e-02</_>
    <_>
      4.57247370e-04 9.98018622e-01 1.52415794e-03</_>
    <_>
      3.01394135e-01 4.85467851e-01 2.13137999e-01</_>
    <_>
      5.87159872e-01 3.25396836e-01 8.74433070e-02</_>
    <_>
      5.52040279e-01 4.38403934e-01 9.55578499e-03</_>
    <_>
      2.78768670e-02 9.60100412e-01 1.20227244e-02</_>
    <_>
      9.11877394e-01 4.09565344e-02 4.71660718e-02</_>
    <_>
      2.20226839e-01 4.19896036e-01 3.59877139e-01</_>
    <_>
      5.03486574e-01 2.97649801e-01 1.98863640e-01</_>
    <_>
      3.83645117e-01 3.84353727e-01 2.32001141e-01</_>
    <_>
      8.50865304e-01 1.78474858e-02 1.31287187e-01</_>
    <_>
      6.22576177e-01 4.74376716e-02 3.29986155e-01</_>
    <_>
      6.35222614e-01 7.35896453e-02 2.91187733e-01</_>
    <_>
      7.74930775e-01 2.00831033e-02 2.04986155e-01</_>
    <_>
      1.10149793e-01 8.57696295e-01 3.21539268e-02</_>
    <_>
      3.67251605e-01 4.57517982e-01 1.75230399e-01</_>
    <_>
      1.07453130e-01 8.16338956e-01 7.62078986e-02</_>
    <_>
      7.88669527e-01 1.98756084e-02 1.91454843e-01</_>
    <_>
      6.76445603e-01 2.68990934e-01 5.45634925e-02</_>
    <_>
      1.13403946e-01 8.49159956e-01 3.74360830e-02</_>
    <_>
      8.99194062e-01 3.83141749e-02 6.24917410e-02</_>
    <_>
      6.62571013e-01 3.24217200e-01 1.32117849e-02</_>
    <_>
      4.56537604e-02 6.61431730e-01 2.92914540e-01</_>
    <_>
      6.75798535e-01 1.26625419e-01 1.97576061e-01</_>
    <_>
      7.26965368e-01 7.01606050e-02 2.02874050e-01</_>
    <_>
      8.16205800e-01 1.50344163e-01 3.34500670e-02</_>
    <_>
      1.54183879e-01 7.99845040e-01 4.59710732e-02</_>
    <_>
      3.86305988e-01 5.83866656e-01 2.98273154e-02</_>
    <_>
      9.41015363e-01 0. 5.89846596e-02</_>
    <_>
      4.23810124e-01 2.58426964e-01 3.17762911e-01</_>
    <_>
      2.88397908e-01 4.06899810e-01 3.04702282e-01</_>
    <_>
      8.54080558e-01 7.63171464e-02 6.96022734e-02</_>
    <_>
      3.29501927e-01 5.21469176e-01 1.49028927e-01</_>
    <_>
      1.74012795e-01 8.00507188e-01 2.54800152e-02</_>
    <_>
      3.80631536e-01 6.16461873e-01 2.90659280e-03</_>
    <_>
      9.06976759e-01 2.73120608e-02 6.57111928e-02</_>
    <_>
      5.55697262e-01 2.51275510e-01 1.93027213e-01</_>
    <_>
      1.19189151e-01 7.88294494e-01 9.25163850e-02</_>
    <_>
      9.35526490e-01 6.60589256e-04 6.38129190e-02</_>
    <_>
      5.63746870e-01 3.07966709e-01 1.28286436e-01</_>
    <_>
      6.67914510e-01 4.09370847e-02 2.91148424e-01</_>
    <_>
      7.98558593e-01 3.41446139e-02 1.67296782e-01</_>
    <_>
      2.21591592e-01 7.57637978e-01 2.07704380e-02</_>
    <_>
      2.04782665e-01 7.64962375e-01 3.02549880e-02</_>
    <_>
      5.43646693e-01 2.34633267e-01 2.21720040e-01</_>
    <_>
      6.10120237e-01 8.60087201e-02 3.03871065e-01</_>
    <_>
      1.67387784e-01 8.03542435e-01 2.90697683e-02</_>
    <_>
      3.33175808e-01 4.13870513e-01 2.52953678e-01</_>
    <_>
      5.11031866e-01 3.88030112e-01 1.00938037e-01</_>
    <_>
      1.45557076e-01 7.62841046e-01 9.16018933e-02</_>
    <_>
      5.23026288e-01 2.41689757e-01 2.35283926e-01</_>
    <_>
      5.96546307e-02 9.30563927e-01 9.78142768e-03</_>
    <_>
      5.00590742e-01 2.45982990e-01 2.53426284e-01</_>
    <_>
      6.79327965e-01 3.02227914e-01 1.84441190e-02</_>
    <_>
      9.08509851e-01 1.09569030e-03 9.03944522e-02</_>
    <_>
      7.61923611e-01 1.00805916e-01 1.37270451e-01</_>
    <_>
      3.17867041e-01 6.78150952e-01 3.98199446e-03</_>
    <_>
      8.35180044e-01 5.64404428e-02 1.08379498e-01</_>
    <_>
      1.08062796e-01 8.28684628e-01 6.32525533e-02</_>
    <_>
      9.91051853e-01 8.76552239e-03 1.82615055e-04</_>
    <_>
      3.12112600e-01 5.88972092e-01 9.89152864e-02</_>
    <_>
      2.78591692e-01 6.60916805e-01 6.04914948e-02</_>
    <_>
      7.91205019e-02 8.23580325e-01 9.72991660e-02</_>
    <_>
      1.87363043e-01 7.00511336e-01 1.12125643e-01</_>
    <_>
      8.09356391e-01 8.51811748e-03 1.82125479e-01</_>
    <_>
      7.64549911e-01 1.33442745e-01 1.02007322e-01</_>
    <_>
      1.15444995e-01 8.61973166e-01 2.25818139e-02</_>
    <_>
      3.81143659e-01 3.29040647e-01 2.89815694e-01</_>
    <_>
      9.52216052e-03 9.88400280e-01 2.07756227e-03</_>
    <_>
      7.37746060e-01 2.53534138e-01 8.71977769e-03</_>
    <_>
      9.95508015e-01 2.90659280e-03 1.58541417e-03</_>
    <_>
      2.75689572e-01 6.02082193e-01 1.22228235e-01</_>
    <_>
      6.80908620e-01 1.49134666e-01 1.69956729e-01</_>
    <_>
      6.25608444e-01 2.54191458e-02 3.48972410e-01</_>
    <_>
      2.92769372e-01 3.84688079e-01 3.22542518e-01</_>
    <_>
      9.05991733e-01 8.93595070e-02 4.64876043e-03</_>
    <_>
      3.23842168e-01 3.39555770e-01 3.36602092e-01</_>
    <_>
      1.34451792e-01 6.93407357e-01 1.72140837e-01</_>
    <_>
      7.78310835e-01 4.31763679e-02 1.78512812e-01</_>
    <_>
      9.18775797e-01 7.23140463e-02 8.91012419e-03</_>
    <_>
      2.33418360e-01 6.56887770e-01 1.09693877e-01</_>
    <_>
      9.44159031e-01 1.21687399e-02 4.36722562e-02</_>
    <_>
      3.39278638e-01 2.37151533e-01 4.23569828e-01</_>
    <_>
      6.25313759e-01 9.92205068e-02 2.75465727e-01</_>
    <_>
      7.61337876e-01 5.05952388e-02 1.88066900e-01</_>
    <_>
      9.55381274e-01 2.29853974e-03 4.23201732e-02</_>
    <_>
      6.79702282e-01 3.02339315e-01 1.79584119e-02</_>
    <_>
      4.28166360e-01 3.66847813e-01 2.04985827e-01</_>
    <_>
      9.93060648e-01 6.93937158e-03 0.</_>
    <_>
      8.39643061e-01 5.81395347e-03 1.54542997e-01</_>
    <_>
      3.44754249e-01 5.27173936e-01 1.28071830e-01</_>
    <_>
      9.35262263e-01 2.51023914e-03 6.22275062e-02</_>
    <_>
      3.21286857e-01 6.44416094e-01 3.42970528e-02</_>
    <_>
      2.20581278e-01 1.48747638e-01 6.30671084e-01</_>
    <_>
      8.43962610e-01 1.22732423e-01 3.33049893e-02</_>
    <_>
      2.17273161e-01 4.65619087e-01 3.17107737e-01</_>
    <_>
      8.08561221e-02 9.15180326e-01 3.96353565e-03</_>
    <_>
      1.50637999e-01 7.33341217e-01 1.16020791e-01</_>
    <_>
      9.56758022e-01 9.33364872e-03 3.39083187e-02</_>
    <_>
      5.12056530e-01 3.76341373e-01 1.11602068e-01</_>
    <_>
      2.90406436e-01 1.39532134e-01 5.70061445e-01</_>
    <_>
      9.48350489e-01 3.10978899e-03 4.85397503e-02</_>
    <_>
      8.73563230e-01 5.99815026e-02 6.64552748e-02</_>
    <_>
      5.59020340e-01 1.74851656e-01 2.66128004e-01</_>
    <_>
      9.57722306e-01 9.11613181e-03 3.31615806e-02</_>
    <_>
      9.90702659e-02 8.79439116e-01 2.14906260e-02</_>
    <_>
      4.70268905e-01 2.72945344e-01 2.56785750e-01</_>
    <_>
      3.20492685e-01 1.00953989e-01 5.78553319e-01</_>
    <_>
      1.81710780e-01 6.75094545e-01 1.43194705e-01</_>
    <_>
      7.73931861e-01 1.36425093e-01 8.96430537e-02</_>
    <_>
      4.90847111e-01 2.32420146e-01 2.76732743e-01</_>
    <_>
      8.50984156e-01 1.94420964e-02 1.29573718e-01</_>
    <_>
      5.68106771e-03 9.87713039e-01 6.60589244e-03</_>
    <_>
      3.91916335e-01 4.09478307e-01 1.98605374e-01</_>
    <_>
      9.16369379e-01 2.40454488e-02 5.95851503e-02</_>
    <_>
      2.45037809e-01 4.14343089e-01 3.40619087e-01</_>
    <_>
      5.58010340e-01 8.76151994e-02 3.54374439e-01</_>
    <_>
      4.69163507e-01 3.16635162e-01 2.14201316e-01</_>
    <_>
      4.85260785e-01 3.74007940e-01 1.40731290e-01</_>
    <_>
      4.09036875e-01 2.39529654e-01 3.51433486e-01</_>
    <_>
      4.63455588e-01 4.02505159e-01 1.34039253e-01</_>
    <_>
      1.01351351e-01 8.03871453e-01 9.47772115e-02</_>
    <_>
      9.54466760e-01 1.02146817e-02 3.53185609e-02</_>
    <_>
      5.77063560e-02 9.03214037e-01 3.90796214e-02</_>
    <_>
      4.79323566e-01 1.12432286e-01 4.08244163e-01</_>
    <_>
      1.01466507e-01 8.97080183e-01 1.45329640e-03</_>
    <_>
      2.08275616e-01 4.15512472e-01 3.76211911e-01</_>
    <_>
      1.85902119e-01 6.91197932e-01 1.22899927e-01</_>
    <_>
      8.55867326e-01 9.80725586e-02 4.60600890e-02</_>
    <_>
      1.13067105e-01 7.62878060e-01 1.24054819e-01</_>
    <_>
      1.16213150e-02 9.63577092e-01 2.48015877e-02</_>
    <_>
      2.73865789e-01 5.41469753e-01 1.84664458e-01</_>
    <_>
      9.64988768e-01 0. 3.50112282e-02</_>
    <_>
      2.84799159e-01 4.47714686e-01 2.67486155e-01</_>
    <_>
      2.68400460e-01 5.88435829e-01 1.43163741e-01</_>
    <_>
      2.32438013e-01 7.42639482e-01 2.49225199e-02</_>
    <_>
      3.21995467e-01 5.67318618e-01 1.10685945e-01</_>
    <_>
      8.91022146e-01 2.00108159e-02 8.89670104e-02</_>
    <_>
      2.16197938e-01 6.61573827e-01 1.22228235e-01</_>
    <_>
      5.42872250e-01 2.18522921e-01 2.38604829e-01</_>
    <_>
      8.94021749e-01 2.25661620e-02 8.34120959e-02</_>
    <_>
      1.53393358e-01 6.07340693e-01 2.39265934e-01</_>
    <_>
      2.58928567e-01 7.03514755e-01 3.75566892e-02</_>
    <_>
      3.15901369e-01 6.23015881e-01 6.10827655e-02</_>
    <_>
      7.93367326e-01 1.66950107e-01 3.96825410e-02</_>
    <_>
      2.24732459e-01 6.83445632e-01 9.18219015e-02</_>
    <_>
      6.66361809e-01 2.73281515e-01 6.03566542e-02</_>
    <_>
      7.95217335e-01 5.29792570e-02 1.51803404e-01</_>
    <_>
      7.39724159e-01 1.67658199e-02 2.43510008e-01</_>
    <_>
      5.00228643e-01 2.72671849e-01 2.27099523e-01</_>
    <_>
      1.57721609e-01 5.54016650e-01 2.88261771e-01</_>
    <_>
      7.64158905e-01 5.68771884e-02 1.78963900e-01</_>
    <_>
      8.43927205e-01 4.80860099e-02 1.07986771e-01</_>
    <_>
      5.16901016e-01 2.53921032e-01 2.29177937e-01</_>
    <_>
      2.12301582e-01 6.56179130e-01 1.31519273e-01</_>
    <_>
      8.26441407e-01 3.79253291e-02 1.35633275e-01</_>
    <_>
      1.57928720e-01 7.95583665e-01 4.64876033e-02</_>
    <_>
      6.23332024e-01 2.43096843e-01 1.33571148e-01</_>
    <_>
      6.19092643e-01 1.84900761e-01 1.96006611e-01</_>
    <_>
      1.90571830e-01 5.58837414e-01 2.50590742e-01</_>
    <_>
      6.09934255e-02 8.81300211e-01 5.77063560e-02</_>
    <_>
      3.85219194e-02 9.21386302e-01 4.00917754e-02</_>
    <_>
      2.24071875e-01 7.38274515e-01 3.76535878e-02</_>
    <_>
      1.14358172e-01 8.80569994e-01 5.07185142e-03</_>
    <_>
      9.54867661e-01 1.60680525e-02 2.90642716e-02</_>
    <_>
      3.77196461e-01 5.50535083e-01 7.22684637e-02</_>
    <_>
      2.50827044e-01 3.80907387e-01 3.68265599e-01</_>
    <_>
      2.95959353e-01 6.99551046e-01 4.48960299e-03</_>
    <_>
      5.60787797e-01 2.62845606e-01 1.76366627e-01</_>
    <_>
      8.15563500e-01 1.53785169e-01 3.06513403e-02</_>
    <_>
      7.15521932e-01 1.66441321e-01 1.18036777e-01</_>
    <_>
      3.30640584e-01 4.92205203e-01 1.77154198e-01</_>
    <_>
      1.80292234e-01 7.43992269e-01 7.57154897e-02</_>
    <_>
      2.05836773e-01 7.54390478e-01 3.97727266e-02</_>
    <_>
      9.16967988e-01 3.43491733e-02 4.86828499e-02</_>
    <_>
      8.09626818e-01 1.33856134e-02 1.76987559e-01</_>
    <_>
      6.62655473e-01 1.32368848e-01 2.04975665e-01</_>
    <_>
      2.53515422e-01 6.25608444e-01 1.20876148e-01</_>
    <_>
      8.60457063e-01 7.01177269e-02 6.94252104e-02</_>
    <_>
      2.05651492e-01 7.79857516e-01 1.44910039e-02</_>
    <_>
      1.54842123e-01 8.23754787e-01 2.14030910e-02</_>
    <_>
      8.86105895e-02 7.17509449e-01 1.93879962e-01</_>
    <_>
      2.09636524e-01 7.32037187e-01 5.83262891e-02</_>
    <_>
      7.37534612e-02 8.98372591e-01 2.78739613e-02</_>
    <_>
      8.41806352e-01 2.97458074e-03 1.55219033e-01</_>
    <_>
      5.67974627e-01 3.38485926e-01 9.35394391e-02</_>
    <_>
      1.77631572e-01 5.15235484e-01 3.07132959e-01</_>
    <_>
      1.38459504e-01 8.13185334e-01 4.83551323e-02</_>
    <_>
      4.42816645e-01 1.90217391e-01 3.66965979e-01</_>
    <_>
      7.52675414e-01 2.45078608e-01 2.24600337e-03</_>
    <_>
      9.35130119e-01 2.64235685e-04 6.46056309e-02</_>
    <_>
      7.53313959e-01 1.07688420e-01 1.38997599e-01</_>
    <_>
      2.29206055e-01 4.07844990e-01 3.62948954e-01</_>
    <_>
      9.44970250e-01 1.09518655e-02 4.40778807e-02</_>
    <_>
      3.15759629e-01 3.99659872e-01 2.84580499e-01</_>
    <_>
      1.78146258e-01 5.44359386e-01 2.77494341e-01</_>
    <_>
      7.58829653e-01 3.44529077e-02 2.06717446e-01</_>
    <_>
      7.64413998e-02 8.45108688e-01 7.84499049e-02</_>
    <_>
      6.93599284e-01 4.93624546e-02 2.57038265e-01</_>
    <_>
      9.62505698e-01 3.30742262e-02 4.42005787e-03</_>
    <_>
      2.31017560e-01 5.77479362e-01 1.91503093e-01</_>
    <_>
      3.90291035e-01 3.95362884e-01 2.14346096e-01</_>
    <_>
      7.96538532e-01 1.09789930e-01 9.36715528e-02</_>
    <_>
      3.51281166e-01 4.72818553e-01 1.75900280e-01</_>
    <_>
      1.97188094e-01 6.55127585e-01 1.47684306e-01</_>
    <_>
      9.47704077e-01 0. 5.22959195e-02</_>
    <_>
      3.44161332e-01 3.36070538e-01 3.19768131e-01</_>
    <_>
      1.83601141e-01 4.15642709e-01 4.00756150e-01</_>
    <_>
      6.56037390e-01 1.87074825e-01 1.56887755e-01</_>
    <_>
      5.15259616e-02 9.44906831e-01 3.56718199e-03</_>
    <_>
      4.49787349e-01 1.13421552e-01 4.36791122e-01</_>
    <_>
      9.22989547e-01 4.67112754e-03 7.23393485e-02</_>
    <_>
      1.42722115e-01 7.30033100e-01 1.27244800e-01</_>
    <_>
      9.19359386e-01 6.27834499e-02 1.78571437e-02</_>
    <_>
      1.09261461e-01 8.21112454e-01 6.96261078e-02</_>
    <_>
      2.47023806e-01 6.51218832e-01 1.01757370e-01</_>
    <_>
      7.56596386e-01 4.75950018e-02 1.95808604e-01</_>
    <_>
      4.41043079e-01 3.03429693e-01 2.55527198e-01</_>
    <_>
      7.72974253e-01 7.20927417e-02 1.54932976e-01</_>
    <_>
      5.14913678e-01 2.54437864e-01 2.30648473e-01</_>
    <_>
      7.41573036e-01 4.19139005e-02 2.16513067e-01</_>
    <_>
      7.50284076e-01 1.07435927e-01 1.42280012e-01</_>
    <_>
      9.32619870e-01 1.20227244e-02 5.53573780e-02</_>
    <_>
      4.99684393e-01 3.02992046e-01 1.97323576e-01</_>
    <_>
      1.73742563e-01 7.12952971e-01 1.13304488e-01</_>
    <_>
      3.32057834e-01 3.15759629e-01 3.52182537e-01</_>
    <_>
      7.34045446e-01 1.79826934e-02 2.47971877e-01</_>
    <_>
      6.97572291e-01 6.06921501e-02 2.41735533e-01</_>
    <_>
      9.58049893e-01 3.54308379e-03 3.84070277e-02</_>
    <_>
      9.42396641e-01 6.60589256e-04 5.69427945e-02</_>
    <_>
      6.08577490e-01 1.96361065e-01 1.95061430e-01</_>
    <_>
      1.51935527e-02 9.82956827e-01 1.84964994e-03</_>
    <_>
      2.86980152e-01 5.29064298e-01 1.83955580e-01</_>
    <_>
      5.65305591e-01 2.58382916e-01 1.76311523e-01</_>
    <_>
      5.02126634e-01 1.07277885e-01 3.90595466e-01</_>
    <_>
      8.33175778e-01 7.24243820e-02 9.43998098e-02</_>
    <_>
      3.41918707e-01 3.57277870e-01 3.00803393e-01</_>
    <_>
      1.21416301e-01 7.37746060e-01 1.40837625e-01</_>
    <_>
      5.58726370e-01 4.17492390e-01 2.37812120e-02</_>
    <_>
      1.84951395e-01 7.73134708e-01 4.19139005e-02</_>
    <_>
      9.94665444e-01 1.52415794e-03 3.81039479e-03</_>
    <_>
      9.30367768e-01 1.36560304e-02 5.59762046e-02</_>
    <_>
      1.61743850e-01 5.90973556e-01 2.47282609e-01</_>
    <_>
      7.23398745e-01 9.40082669e-02 1.82592973e-01</_>
    <_>
      2.60043830e-01 6.73119068e-01 6.68371096e-02</_>
    <_>
      2.66633004e-01 3.39982331e-01 3.93384665e-01</_>
    <_>
      4.75537255e-02 9.39795792e-01 1.26505103e-02</_>
    <_>
      6.84238315e-01 3.05192232e-01 1.05694281e-02</_>
    <_>
      4.39626664e-01 4.08908308e-01 1.51465029e-01</_>
    <_>
      7.04160929e-02 8.64502370e-01 6.50815442e-02</_>
    <_>
      9.34099257e-01 1.13622018e-03 6.47645518e-02</_>
    <_>
      7.12868452e-01 2.28599772e-01 5.85317463e-02</_>
    <_>
      5.12654968e-02 9.25232410e-01 2.35020667e-02</_>
    <_>
      6.86511278e-01 9.53991059e-03 3.03948790e-01</_>
    <_>
      3.15335542e-01 4.85704154e-01 1.98960304e-01</_>
    <_>
      7.79053271e-01 1.23441041e-01 9.75056663e-02</_>
    <_>
      4.32708442e-01 2.03475073e-01 3.63816500e-01</_>
    <_>
      7.82798231e-01 1.46650806e-01 7.05509335e-02</_>
    <_>
      7.57563770e-01 4.08244170e-02 2.01611832e-01</_>
    <_>
      8.46133053e-01 8.93726349e-02 6.44943193e-02</_>
    <_>
      3.81802708e-01 3.60402495e-01 2.57794797e-01</_>
    <_>
      9.92337167e-01 3.30294622e-03 4.35988884e-03</_>
    <_>
      8.08825493e-01 2.40454488e-02 1.67129084e-01</_>
    <_>
      2.34522685e-01 3.72755200e-01 3.92722130e-01</_>
    <_>
      5.77224977e-02 9.28994060e-01 1.32834194e-02</_>
    <_>
      1.62637070e-01 8.21112454e-01 1.62504949e-02</_>
    <_>
      5.31336777e-02 9.01461184e-01 4.54051457e-02</_>
    <_>
      8.59522700e-01 1.34806246e-01 5.67107741e-03</_>
    <_>
      9.29235518e-01 3.37035134e-02 3.70609500e-02</_>
    <_>
      3.23133260e-01 3.04465979e-01 3.72400761e-01</_>
    <_>
      3.60231578e-01 5.78922510e-01 6.08459376e-02</_>
    <_>
      7.12817729e-01 5.15143313e-02 2.35667929e-01</_>
    <_>
      3.22660685e-01 3.91895086e-01 2.85444230e-01</_>
    <_>
      2.36058608e-01 5.67580342e-01 1.96361065e-01</_>
    <_>
      7.02470601e-01 2.52080858e-01 4.54485416e-02</_>
    <_>
      7.45510399e-01 7.89224952e-02 1.75567105e-01</_>
    <_>
      9.59824681e-01 2.97662523e-02 1.04090581e-02</_>
    <_>
      9.43441510e-01 2.39868695e-03 5.41598275e-02</_>
    <_>
      5.00189364e-01 3.91743481e-01 1.08067162e-01</_>
    <_>
      3.92464660e-02 6.53302729e-01 3.07450801e-01</_>
    <_>
      1.27114773e-01 8.66788626e-01 6.09663175e-03</_>
    <_>
      1.02787688e-01 8.85057449e-01 1.21548418e-02</_>
    <_>
      3.34379911e-01 4.70957607e-01 1.94662482e-01</_>
    <_>
      9.30526853e-01 5.75929768e-02 1.18801650e-02</_>
    <_>
      9.33837414e-01 2.43383739e-02 4.18241955e-02</_>
    <_>
      8.55195045e-01 4.55750525e-02 9.92298946e-02</_>
    <_>
      2.54458964e-01 6.72876179e-01 7.26648197e-02</_>
    <_>
      4.46822554e-01 3.86312604e-01 1.66864842e-01</_>
    <_>
      3.43506396e-01 6.48962855e-01 7.53071718e-03</_>
    <_>
      9.91426185e-02 8.57867420e-01 4.29899767e-02</_>
    <_>
      8.63067091e-01 6.76984861e-02 6.92344010e-02</_>
    <_>
      7.30460219e-04 9.96530294e-01 2.73922575e-03</_>
    <_>
      7.09506392e-01 1.49728566e-01 1.40765056e-01</_>
    <_>
      7.28233576e-01 2.66613811e-01 5.15259616e-03</_>
    <_>
      7.04008520e-01 1.90062493e-01 1.05928972e-01</_>
    <_>
      1.66864842e-01 8.09486091e-01 2.36490946e-02</_>
    <_>
      8.68856311e-01 1.94943286e-02 1.11649342e-01</_>
    <_>
      1.72957957e-01 4.89079654e-01 3.37962389e-01</_>
    <_>
      5.39540827e-01 3.16609979e-01 1.43849209e-01</_>
    <_>
      5.15949905e-01 1.55954631e-02 4.68454629e-01</_>
    <_>
      2.01323256e-01 6.47448003e-01 1.51228741e-01</_>
    <_>
      6.76157832e-01 2.49645561e-01 7.41965994e-02</_>
    <_>
      9.65619087e-01 0. 3.43809091e-02</_>
    <_>
      3.83522734e-02 9.59323347e-01 2.32438021e-03</_>
    <_>
      8.53564024e-01 1.32747933e-01 1.36880167e-02</_>
    <_>
      1.70068024e-03 9.94047642e-01 4.25170083e-03</_>
    <_>
      9.43643689e-01 4.08790186e-02 1.54773155e-02</_>
    <_>
      8.13016534e-01 1.83496907e-01 3.48657020e-03</_>
    <_>
      7.89276659e-01 2.64460817e-02 1.84277266e-01</_>
    <_>
      9.00165379e-01 3.41446139e-02 6.56899810e-02</_>
    <_>
      8.84297550e-01 1.91115700e-02 9.65909064e-02</_>
    <_>
      2.50182617e-02 9.18736279e-01 5.62454350e-02</_>
    <_>
      8.46999168e-01 3.92464660e-02 1.13754377e-01</_>
    <_>
      5.96332669e-01 3.61441106e-01 4.22262400e-02</_>
    <_>
      6.00213408e-01 2.17649743e-01 1.82136863e-01</_>
    <_>
      3.48653108e-01 4.19541597e-01 2.31805295e-01</_>
    <_>
      8.84989262e-01 4.06514332e-02 7.43592978e-02</_>
    <_>
      8.13681483e-01 8.42391327e-02 1.02079391e-01</_>
    <_>
      2.43974477e-01 3.15453671e-02 7.24480152e-01</_>
    <_>
      3.32660019e-01 2.85443753e-01 3.81896228e-01</_>
    <_>
      7.14002252e-01 1.39739230e-01 1.46258503e-01</_>
    <_>
      4.75624241e-02 8.37759256e-01 1.14678293e-01</_>
    <_>
      4.65737253e-01 7.93950856e-02 4.54867661e-01</_>
    <_>
      7.33369410e-01 2.50135213e-02 2.41617084e-01</_>
    <_>
      2.81014651e-01 4.11943465e-01 3.07041883e-01</_>
    <_>
      5.99952757e-01 1.92107752e-01 2.07939506e-01</_>
    <_>
      8.75903904e-01 2.59555783e-02 9.81404930e-02</_>
    <_>
      1.69896036e-01 1.89035922e-01 6.41068041e-01</_>
    <_>
      4.97991502e-01 6.88799620e-02 4.33128536e-01</_>
    <_>
      6.37040794e-01 3.25463951e-01 3.74952666e-02</_>
    <_>
      1.39413988e-02 9.82868612e-01 3.18998098e-03</_>
    <_>
      7.43427157e-01 6.20953878e-03 2.50363320e-01</_>
    <_>
      9.40096974e-01 1.74861494e-02 4.24168967e-02</_>
    <_>
      8.42970550e-01 6.64682537e-02 9.05612260e-02</_>
    <_>
      3.10941815e-01 5.48822701e-01 1.40235454e-01</_>
    <_>
      9.40778792e-01 5.94916148e-03 5.32720387e-02</_>
    <_>
      7.88031816e-01 1.26246683e-04 2.11841941e-01</_>
    <_>
      3.81734401e-01 2.75992453e-01 3.42273146e-01</_>
    <_>
      6.41304374e-01 1.89862952e-01 1.68832704e-01</_>
    <_>
      1.77437648e-01 7.79478431e-01 4.30838987e-02</_>
    <_>
      2.26053640e-01 5.16712904e-01 2.57233441e-01</_>
    <_>
      2.55671084e-01 6.09286368e-01 1.35042533e-01</_>
    <_>
      6.02789283e-01 3.91399801e-01 5.81095042e-03</_>
    <_>
      5.41193187e-01 3.06043386e-01 1.52763426e-01</_>
    <_>
      5.22684336e-01 3.27977329e-01 1.49338380e-01</_>
    <_>
      6.17915154e-01 3.27123791e-01 5.49610257e-02</_>
    <_>
      4.54221159e-01 2.75465727e-01 2.70313114e-01</_>
    <_>
      2.18572635e-02 9.63047922e-01 1.50947953e-02</_>
    <_>
      8.86621892e-01 1.08341940e-01 5.03615709e-03</_>
    <_>
      2.94292361e-01 6.28228307e-01 7.74793401e-02</_>
    <_>
      5.77350199e-01 1.01627067e-01 3.21022719e-01</_>
    <_>
      6.17650926e-01 3.08891535e-01 7.34575242e-02</_>
    <_>
      7.76636004e-01 1.32368848e-01 9.09951329e-02</_>
    <_>
      5.05907357e-01 2.84262747e-01 2.09829867e-01</_>
    <_>
      7.79951513e-01 2.92590037e-02 1.90789476e-01</_>
    <_>
      7.93537021e-01 8.84261727e-02 1.18036777e-01</_>
    <_>
      3.31615806e-02 9.48474050e-01 1.83643810e-02</_>
    <_>
      2.31882095e-01 5.17171443e-01 2.50946462e-01</_>
    <_>
      7.46117890e-01 7.97879025e-02 1.74094185e-01</_>
    <_>
      9.94801521e-01 2.36294902e-04 4.96219285e-03</_>
    <_>
      6.79614186e-01 5.89245595e-02 2.61461228e-01</_>
    <_>
      3.17580342e-01 4.89366740e-01 1.93052933e-01</_>
    <_>
      5.75369596e-01 2.69166291e-01 1.55464113e-01</_>
    <_>
      9.04195011e-01 1.41723358e-04 9.56632644e-02</_>
    <_>
      3.23734492e-01 5.91167331e-01 8.50981399e-02</_>
    <_>
      6.06685162e-01 5.82639724e-02 3.35050851e-01</_>
    <_>
      9.01465043e-02 8.18643689e-01 9.12098289e-02</_>
    <_>
      3.90144020e-01 5.88320792e-01 2.15352103e-02</_>
    <_>
      7.25712180e-01 2.57304609e-01 1.69831999e-02</_>
    <_>
      6.09404564e-01 3.21833640e-01 6.87618181e-02</_>
    <_>
      6.34532154e-01 2.83937268e-02 3.37074101e-01</_>
    <_>
      6.09829724e-02 9.36601877e-01 2.41516717e-03</_>
    <_>
      8.60615671e-01 6.94939867e-02 6.98903427e-02</_>
    <_>
      2.09475428e-01 6.68832719e-01 1.21691875e-01</_>
    <_>
      6.57240272e-01 6.88044429e-02 2.73955315e-01</_>
    <_>
      3.32348764e-01 5.26701331e-01 1.40949905e-01</_>
    <_>
      1.62098303e-01 6.04678631e-01 2.33223066e-01</_>
    <_>
      4.83524799e-01 1.30412832e-01 3.86062354e-01</_>
    <_>
      8.09917331e-01 1.20092973e-01 6.99896663e-02</_>
    <_>
      6.10194683e-01 6.24661967e-02 3.27339113e-01</_>
    <_>
      9.48724002e-02 8.70510399e-01 3.46172005e-02</_>
    <_>
      6.34165704e-01 3.07834595e-02 3.35050851e-01</_>
    <_>
      5.64577579e-01 1.11149587e-01 3.24272841e-01</_>
    <_>
      9.40453708e-01 7.08884699e-03 5.24574667e-02</_>
    <_>
      8.19869637e-01 1.26984134e-01 5.31462580e-02</_>
    <_>
      7.84994841e-01 2.01704547e-01 1.33006200e-02</_>
    <_>
      3.59072030e-01 4.67278391e-01 1.73649579e-01</_>
    <_>
      4.11564618e-01 3.36876422e-01 2.51558959e-01</_>
    <_>
      4.20091927e-01 2.38777712e-01 3.41130346e-01</_>
    <_>
      7.59329379e-01 6.58464059e-02 1.74824223e-01</_>
    <_>
      3.83152187e-01 2.23298684e-01 3.93549144e-01</_>
    <_>
      7.67432868e-01 7.72210732e-02 1.55346081e-01</_>
    <_>
      1.76587299e-01 7.18962610e-01 1.04450114e-01</_>
    <_>
      7.39048123e-01 1.28447816e-01 1.32504061e-01</_>
    <_>
      1.94058686e-01 6.33981407e-01 1.71959907e-01</_>
    <_>
      2.69376189e-01 3.42391312e-01 3.88232499e-01</_>
    <_>
      3.30836773e-01 5.92329562e-01 7.68336803e-02</_>
    <_>
      7.11365759e-01 1.57844990e-01 1.30789220e-01</_>
    <_>
      4.17060494e-01 2.16682419e-01 3.66257101e-01</_>
    <_>
      4.27631587e-02 9.48580325e-01 8.65651015e-03</_>
    <_>
      1.19038180e-01 8.32606673e-01 4.83551323e-02</_>
    <_>
      9.38791335e-01 3.53822298e-02 2.58264467e-02</_>
    <_>
      2.98558593e-01 4.79678631e-01 2.21762761e-01</_>
    <_>
      3.02040279e-01 6.09504104e-01 8.84555802e-02</_>
    <_>
      9.52380970e-02 8.57993186e-01 4.67687063e-02</_>
    <_>
      2.67832398e-01 6.12707734e-01 1.19459830e-01</_>
    <_>
      5.35207950e-02 8.81379962e-01 6.50992468e-02</_>
    <_>
      7.71039784e-01 5.25829047e-02 1.76377326e-01</_>
    <_>
      2.30860114e-01 4.87948954e-01 2.81190932e-01</_>
    <_>
      7.29853988e-01 8.85613859e-02 1.81584641e-01</_>
    <_>
      6.97765410e-01 4.16614069e-03 2.98068434e-01</_>
    <_>
      3.92013222e-01 1.80293009e-01 4.27693754e-01</_>
    <_>
      5.37983894e-01 2.98057854e-01 1.63958251e-01</_>
    <_>
      2.99461454e-01 6.61989808e-01 3.85487527e-02</_>
    <_>
      2.86415279e-01 6.89566135e-01 2.40185950e-02</_>
    <_>
      2.65495867e-01 6.91503108e-01 4.30010334e-02</_>
    <_>
      3.74950469e-01 2.23279163e-01 4.01770383e-01</_>
    <_>
      6.22755170e-01 9.33364872e-03 3.67911160e-01</_>
    <_>
      1.00307181e-01 7.48227775e-01 1.51465029e-01</_>
    <_>
      9.53667462e-01 4.03989386e-03 4.22926396e-02</_>
    <_>
      5.34971654e-01 2.60160685e-01 2.04867676e-01</_>
    <_>
      8.83868411e-02 9.06724811e-01 4.88836039e-03</_>
    <_>
      2.12868482e-01 6.30385458e-01 1.56746030e-01</_>
    <_>
      1.77930057e-01 5.70179582e-01 2.51890361e-01</_>
    <_>
      3.64909500e-01 3.93050611e-01 2.42039904e-01</_>
    <_>
      7.84090936e-01 1.75361574e-01 4.05475199e-02</_>
    <_>
      3.38610590e-01 4.75779772e-01 1.85609639e-01</_>
    <_>
      4.42747116e-01 2.44161084e-01 3.13091785e-01</_>
    <_>
      5.59365936e-02 9.42691684e-01 1.37174211e-03</_>
    <_>
      8.34041953e-01 5.04535139e-02 1.15504533e-01</_>
    <_>
      8.39873195e-01 1.98176783e-02 1.40309155e-01</_>
    <_>
      2.41493389e-01 3.81970704e-01 3.76535922e-01</_>
    <_>
      8.44875351e-02 8.37777019e-01 7.77354538e-02</_>
    <_>
      2.71384686e-01 4.76606816e-01 2.52008498e-01</_>
    <_>
      7.07360208e-01 1.17156923e-01 1.75482899e-01</_>
    <_>
      8.89805317e-01 1.55489454e-02 9.46457535e-02</_>
    <_>
      4.83158045e-02 9.31260467e-01 2.04237159e-02</_>
    <_>
      9.54545438e-01 4.13223123e-03 4.13223132e-02</_>
    <_>
      1.09891526e-01 7.68465936e-01 1.21642560e-01</_>
    <_>
      1.28486574e-01 8.45428705e-01 2.60847099e-02</_>
    <_>
      7.15419531e-01 1.07993200e-01 1.76587299e-01</_>
    <_>
      1.20628543e-01 7.13610590e-01 1.65760875e-01</_>
    <_>
      4.09279764e-01 3.51454288e-01 2.39265934e-01</_>
    <_>
      3.98100801e-02 9.31154132e-01 2.90357918e-02</_>
    <_>
      9.93265569e-01 5.90737269e-04 6.14366727e-03</_>
    <_>
      7.60383785e-01 8.98876414e-02 1.49728566e-01</_>
    <_>
      2.06521735e-01 5.51157832e-01 2.42320418e-01</_>
    <_>
      3.09782594e-01 5.40524602e-01 1.49692819e-01</_>
    <_>
      7.65307426e-01 4.83524799e-02 1.86340109e-01</_>
    <_>
      1.82183370e-01 7.01323271e-01 1.16493382e-01</_>
    <_>
      9.20091927e-01 2.27149818e-02 5.71930781e-02</_>
    <_>
      9.11216795e-01 3.17082833e-03 8.56123641e-02</_>
    <_>
      8.90949905e-01 7.85680562e-02 3.04820407e-02</_>
    <_>
      4.90702465e-02 9.27040279e-01 2.38894634e-02</_>
    <_>
      8.07655931e-01 3.72164473e-02 1.55127600e-01</_>
    <_>
      0. 9.99747515e-01 2.52493366e-04</_>
    <_>
      7.02470601e-01 2.66349584e-01 3.11798118e-02</_>
    <_>
      7.19517946e-01 3.93431000e-02 2.41138935e-01</_>
    <_>
      3.65646273e-01 4.19359416e-01 2.14994326e-01</_>
    <_>
      7.19529450e-01 1.29251704e-01 1.51218817e-01</_>
    <_>
      2.14910209e-01 3.35656911e-01 4.49432880e-01</_>
    <_>
      3.82401198e-01 2.79383928e-01 3.38214874e-01</_>
    <_>
      3.32902879e-01 6.36751056e-01 3.03460751e-02</_>
    <_>
      1.86200380e-01 5.27173936e-01 2.86625713e-01</_>
    <_>
      9.15934920e-01 7.63171464e-02 7.74793373e-03</_>
    <_>
      8.41209814e-02 9.00637984e-01 1.52410204e-02</_>
    <_>
      1.98979586e-01 6.14937663e-01 1.86082765e-01</_>
    <_>
      6.39670074e-01 1.20605730e-01 2.39724174e-01</_>
    <_>
      9.57939506e-01 2.95368629e-03 3.91068049e-02</_>
    <_>
      6.61625713e-02 8.81025493e-01 5.28119095e-02</_>
    <_>
      2.50723988e-01 6.02042377e-01 1.47233650e-01</_>
    <_>
      9.30139482e-01 3.89979333e-02 3.08626033e-02</_>
    <_>
      6.10827684e-01 9.01360512e-02 2.99036294e-01</_>
    <_>
      5.97040534e-01 1.68053910e-01 2.34905541e-01</_>
    <_>
      5.12996197e-01 1.31025523e-01 3.55978251e-01</_>
    <_>
      6.09897733e-01 1.67908087e-01 2.22194165e-01</_>
    <_>
      7.76365578e-01 9.05895084e-02 1.33044884e-01</_>
    <_>
      9.56902862e-01 1.82615055e-04 4.29145359e-02</_>
    <_>
      1.67887524e-01 7.15382814e-01 1.16729677e-01</_>
    <_>
      2.10333794e-01 6.65904582e-01 1.23761624e-01</_>
    <_>
      1.49136573e-01 8.45791578e-01 5.07185142e-03</_>
    <_>
      6.55624688e-01 2.67712269e-02 3.17604125e-01</_>
    <_>
      1.19646393e-01 7.69242465e-01 1.11111112e-01</_>
    <_>
      8.93574059e-01 3.91364750e-03 1.02512307e-01</_>
    <_>
      8.83726811e-04 9.98485029e-01 6.31233444e-04</_>
    <_>
      6.40616536e-01 3.17739323e-02 3.27609509e-01</_>
    <_>
      6.65418386e-01 6.77944198e-02 2.66787201e-01</_>
    <_>
      7.80461311e-01 2.01666467e-02 1.99372053e-01</_>
    <_>
      6.36758864e-01 1.27279311e-01 2.35961840e-01</_>
    <_>
      1.50826439e-01 8.10821295e-01 3.83522734e-02</_>
    <_>
      4.82514173e-01 1.50874287e-01 3.66611540e-01</_>
    <_>
      2.03331754e-01 3.37192804e-01 4.59475428e-01</_>
    <_>
      7.26110518e-01 8.65185931e-02 1.87370867e-01</_>
    <_>
      5.23186699e-02 9.41603899e-01 6.07742090e-03</_>
    <_>
      1.20359361e-01 8.72242033e-01 7.39859976e-03</_>
    <_>
      4.86554742e-01 1.88738793e-01 3.24706465e-01</_>
    <_>
      6.77040279e-01 8.31611603e-02 2.39798561e-01</_>
    <_>
      6.33180082e-01 3.61005962e-02 3.30719322e-01</_>
    <_>
      2.53544420e-01 6.17084146e-01 1.29371449e-01</_>
    <_>
      6.72624111e-02 7.82634974e-01 1.50102645e-01</_>
    <_>
      5.40156841e-01 2.22687945e-01 2.37155214e-01</_>
    <_>
      8.29232037e-01 9.04543027e-02 8.03136826e-02</_>
    <_>
      5.49267471e-01 1.18383743e-01 3.32348764e-01</_>
    <_>
      6.85911298e-01 3.19091417e-02 2.82179564e-01</_>
    <_>
      6.03969753e-01 3.77599239e-01 1.84310023e-02</_>
    <_>
      8.88605416e-01 9.49546508e-03 1.01899095e-01</_>
    <_>
      9.63610590e-01 1.27599239e-02 2.36294903e-02</_>
    <_>
      6.01565480e-01 4.38075997e-02 3.54626954e-01</_>
    <_>
      7.43421078e-01 4.60526310e-02 2.10526317e-01</_>
    <_>
      7.47443378e-01 5.53323589e-02 1.97224244e-01</_>
    <_>
      9.03289735e-01 3.56718199e-03 9.31430832e-02</_>
    <_>
      2.88870513e-01 5.59310019e-01 1.51819468e-01</_>
    <_>
      5.07706881e-01 1.65765285e-01 3.26527864e-01</_>
    <_>
      4.75950018e-02 8.58982444e-01 9.34225470e-02</_>
    <_>
      7.48390377e-01 1.66645627e-02 2.34945089e-01</_>
    <_>
      7.34046757e-01 1.34760201e-01 1.31193027e-01</_>
    <_>
      6.85014546e-01 5.46648167e-02 2.60320663e-01</_>
    <_>
      7.63287485e-01 4.63325344e-02 1.90380007e-01</_>
    <_>
      4.27040279e-01 3.61570239e-01 2.11389467e-01</_>
    <_>
      1.70167789e-01 7.36160636e-01 9.36715528e-02</_>
    <_>
      1.83010399e-01 4.02292073e-01 4.14697528e-01</_>
    <_>
      1.94873825e-01 7.85969079e-01 1.91570874e-02</_>
    <_>
      4.61956523e-02 8.45817566e-01 1.07986771e-01</_>
    <_>
      2.17144400e-01 7.14034617e-01 6.88209832e-02</_>
    <_>
      3.70335311e-01 5.03921032e-01 1.25743642e-01</_>
    <_>
      4.28331614e-01 3.21280986e-01 2.50387400e-01</_>
    <_>
      5.35077304e-02 9.27070975e-01 1.94213241e-02</_>
    <_>
      6.51935712e-02 8.75821769e-01 5.89846596e-02</_>
    <_>
      1.64353549e-01 7.69357204e-01 6.62892610e-02</_>
    <_>
      8.63980532e-01 6.90914020e-02 6.69280663e-02</_>
    <_>
      3.54338855e-01 4.61647719e-01 1.84013426e-01</_>
    <_>
      1.58057854e-01 4.22778934e-01 4.19163227e-01</_>
    <_>
      2.86034971e-01 6.67060494e-01 4.69045378e-02</_>
    <_>
      1.62170395e-01 8.24264586e-01 1.35650057e-02</_>
    <_>
      9.51460242e-01 2.43374798e-03 4.61060032e-02</_>
    <_>
      6.63300097e-01 1.08698398e-01 2.28001520e-01</_>
    <_>
      1.23995617e-01 2.21694663e-01 6.54309690e-01</_>
    <_>
      9.77670133e-01 4.84404527e-03 1.74858216e-02</_>
    <_>
      7.59058952e-01 1.30746350e-01 1.10194698e-01</_>
    <_>
      9.00277030e-03 9.73337948e-01 1.76592804e-02</_>
    <_>
      5.29604852e-01 2.13104412e-01 2.57290751e-01</_>
    <_>
      4.91082042e-01 3.53415251e-01 1.55502707e-01</_>
    <_>
      1.32117842e-04 9.99471545e-01 3.96353542e-04</_>
    <_>
      2.25270540e-01 5.52049994e-01 2.22679466e-01</_>
    <_>
      8.68801653e-01 1.25903919e-01 5.29442169e-03</_>
    <_>
      6.25141740e-01 2.40079358e-01 1.34778917e-01</_>
    <_>
      5.46616733e-01 4.30139452e-01 2.32438017e-02</_>
    <_>
      2.99149334e-01 6.92462206e-01 8.38846900e-03</_>
    <_>
      3.82231414e-01 5.16270638e-01 1.01497933e-01</_>
    <_>
      2.31338352e-01 6.51473105e-01 1.17188536e-01</_>
    <_>
      5.93336463e-01 2.20935732e-01 1.85727790e-01</_>
    <_>
      5.89555763e-02 9.21550095e-01 1.94943286e-02</_>
    <_>
      3.51470798e-01 3.05746078e-01 3.42783123e-01</_>
    <_>
      5.84065080e-01 3.67122948e-01 4.88119833e-02</_>
    <_>
      1.03851609e-01 4.56285447e-01 4.39862937e-01</_>
    <_>
      1.86571673e-01 8.07994187e-01 5.43412613e-03</_>
    <_>
      4.95441943e-01 1.63561895e-01 3.40996176e-01</_>
    <_>
      5.00945151e-01 1.22755200e-01 3.76299620e-01</_>
    <_>
      4.08599257e-01 3.70064914e-01 2.21335858e-01</_>
    <_>
      5.39115667e-01 1.09552152e-01 3.51332188e-01</_>
    <_>
      3.30576569e-01 5.50212681e-01 1.19210772e-01</_>
    <_>
      3.23270142e-01 2.90303111e-01 3.86426747e-01</_>
    <_>
      5.56301653e-01 4.06508267e-01 3.71900834e-02</_>
    <_>
      8.29513252e-01 5.15122861e-02 1.18974477e-01</_>
    <_>
      2.56261826e-01 5.28946102e-01 2.14792058e-01</_>
    <_>
      5.71660340e-01 2.71092474e-01 1.57247156e-01</_>
    <_>
      6.75675645e-02 8.65960538e-01 6.64718747e-02</_>
    <_>
      7.36536264e-01 1.04450114e-01 1.59013599e-01</_>
    <_>
      6.26654088e-01 1.81828916e-01 1.91517010e-01</_>
    <_>
      1.47448018e-01 8.35775018e-01 1.67769380e-02</_>
    <_>
      5.84362149e-01 3.30437422e-01 8.52004290e-02</_>
    <_>
      5.07596791e-01 2.04254195e-01 2.88149029e-01</_>
    <_>
      9.45699573e-01 0. 5.43004349e-02</_>
    <_>
      7.97850490e-01 3.16386893e-02 1.70510814e-01</_>
    <_>
      1.47160664e-01 8.04362893e-01 4.84764539e-02</_>
    <_>
      9.03055727e-01 2.29853969e-02 7.39588961e-02</_>
    <_>
      9.08832669e-01 8.03202465e-02 1.08471075e-02</_>
    <_>
      1.02315687e-01 8.89295816e-01 8.38846900e-03</_>
    <_>
      8.68307173e-01 1.40616549e-02 1.17631152e-01</_>
    <_>
      8.63422275e-01 4.95109288e-03 1.31626621e-01</_>
    <_>
      3.97278368e-01 5.83432436e-01 1.92892067e-02</_>
    <_>
      5.53573780e-02 9.30109680e-01 1.45329637e-02</_>
    <_>
      2.99603164e-01 4.75198418e-01 2.25198418e-01</_>
    <_>
      5.40288270e-01 4.16115314e-01 4.35964093e-02</_>
    <_>
      9.42401290e-01 8.65332596e-03 4.89453748e-02</_>
    <_>
      4.52859163e-01 1.56309068e-01 3.90831769e-01</_>
    <_>
      2.84262747e-01 3.43218327e-01 3.72518897e-01</_>
    <_>
      3.08106571e-01 4.27437633e-01 2.64455795e-01</_>
    <_>
      1.17555402e-01 6.27250671e-01 2.55193919e-01</_>
    <_>
      2.45181412e-01 4.80017006e-01 2.74801582e-01</_>
    <_>
      8.15563500e-01 1.58541417e-03 1.82851106e-01</_>
    <_>
      5.67314029e-01 4.10622269e-01 2.20636800e-02</_>
    <_>
      9.40345347e-01 9.66066867e-03 4.99939620e-02</_>
    <_>
      1.40200466e-01 8.28643858e-01 3.11556570e-02</_>
    <_>
      2.73865789e-01 7.12310970e-01 1.38232512e-02</_>
    <_>
      2.90547520e-01 6.97443187e-01 1.20092975e-02</_>
    <_>
      7.49768794e-01 8.33663642e-02 1.66864842e-01</_>
    <_>
      3.50897908e-02 8.46053898e-01 1.18856333e-01</_>
    <_>
      3.63720447e-01 6.06024563e-01 3.02549880e-02</_>
    <_>
      3.77481103e-01 2.30860114e-01 3.91658783e-01</_>
    <_>
      5.90749919e-01 2.50211328e-01 1.59038767e-01</_>
    <_>
      7.00224578e-01 3.67287621e-02 2.63046652e-01</_>
    <_>
      8.40650797e-01 8.83264467e-02 7.10227266e-02</_>
    <_>
      2.78591692e-01 5.33553898e-01 1.87854439e-01</_>
    <_>
      6.81100845e-01 1.84320156e-02 3.00467104e-01</_>
    <_>
      2.14163035e-01 6.85163140e-01 1.00673802e-01</_>
    <_>
      1.18501887e-01 5.14295816e-01 3.67202282e-01</_>
    <_>
      6.67517006e-01 1.31377548e-01 2.01105446e-01</_>
    <_>
      2.44210780e-01 2.04395086e-01 5.51394165e-01</_>
    <_>
      4.34623808e-02 8.97735596e-01 5.88020459e-02</_>
    <_>
      9.95111644e-01 3.69929988e-03 1.18906063e-03</_>
    <_>
      5.35965383e-01 3.01243901e-01 1.62790701e-01</_>
    <_>
      4.05601785e-02 9.55079913e-01 4.35988884e-03</_>
    <_>
      8.65504563e-01 7.25623593e-02 6.19331077e-02</_>
    <_>
      9.16035712e-01 2.29853969e-02 6.09789081e-02</_>
    <_>
      1.94473147e-01 7.10872948e-01 9.46539268e-02</_>
    <_>
      1.21642560e-01 8.63765478e-01 1.45919425e-02</_>
    <_>
      4.74218100e-01 1.92851111e-01 3.32930803e-01</_>
    <_>
      4.77961600e-01 4.96316887e-02 4.72406715e-01</_>
    <_>
      5.62029302e-01 1.09129347e-01 3.28841329e-01</_>
    <_>
      7.76342988e-01 1.56766534e-01 6.68904930e-02</_>
    <_>
      4.88520414e-01 3.69331062e-01 1.42148525e-01</_>
    <_>
      3.27479333e-01 6.41916335e-01 3.06043383e-02</_>
    <_>
      7.13137984e-01 2.44447067e-01 4.24149334e-02</_>
    <_>
      4.06009346e-01 2.20931694e-01 3.73058945e-01</_>
    <_>
      8.16224098e-01 2.40454488e-02 1.59730479e-01</_>
    <_>
      4.54485387e-01 2.80882537e-01 2.64632046e-01</_>
    <_>
      2.32580602e-01 7.40369499e-01 2.70498730e-02</_>
    <_>
      8.72093022e-01 2.13628989e-02 1.06544077e-01</_>
    <_>
      4.58401710e-01 2.75091529e-01 2.66506761e-01</_>
    <_>
      5.43004349e-02 8.81226063e-01 6.44735098e-02</_>
    <_>
      3.47080499e-01 4.17375296e-01 2.35544220e-01</_>
    <_>
      3.64248574e-01 5.20675778e-01 1.15075618e-01</_>
    <_>
      7.76346862e-01 1.59499049e-02 2.07703218e-01</_>
    <_>
      8.64134431e-01 1.30387142e-01 5.47845149e-03</_>
    <_>
      8.12216580e-01 9.75056663e-02 9.02777761e-02</_>
    <_>
      1.96566090e-01 7.66443610e-01 3.69902775e-02</_>
    <_>
      1.66895285e-01 7.72900462e-01 6.02042377e-02</_>
    <_>
      4.50521857e-02 9.51116383e-01 3.83141753e-03</_>
    <_>
      3.57656866e-01 2.38353744e-01 4.03989404e-01</_>
    <_>
      6.00765288e-01 3.09382081e-01 8.98526087e-02</_>
    <_>
      1.98902607e-01 7.18183219e-01 8.29141885e-02</_>
    <_>
      2.55423546e-01 4.44085747e-01 3.00490707e-01</_>
    <_>
      7.99621403e-01 6.89561944e-03 1.93482965e-01</_>
    <_>
      6.90192729e-02 9.15532887e-01 1.54478457e-02</_>
    <_>
      4.05954629e-01 2.16327980e-01 3.77717406e-01</_>
    <_>
      7.12293386e-01 2.00025827e-01 8.76807868e-02</_>
    <_>
      3.51606816e-01 4.74362016e-01 1.74031198e-01</_>
    <_>
      5.32699168e-01 1.87343106e-01 2.79957712e-01</_>
    <_>
      8.30624938e-01 8.32342431e-02 8.61408412e-02</_>
    <_>
      1.53591678e-01 8.30222130e-01 1.61862001e-02</_>
    <_>
      9.29752085e-03 9.78564024e-01 1.21384300e-02</_>
    <_>
      1.41658783e-01 7.37240076e-01 1.21101134e-01</_>
    <_>
      7.80954659e-02 8.79607737e-01 4.22967859e-02</_>
    <_>
      8.19467247e-01 2.24719103e-02 1.58060849e-01</_>
    <_>
      3.09023649e-01 4.53428447e-01 2.37547889e-01</_>
    <_>
      6.36275828e-01 2.46950850e-01 1.16773337e-01</_>
    <_>
      6.81831062e-01 1.36763036e-01 1.81405902e-01</_>
    <_>
      5.53309560e-01 3.70722681e-01 7.59677663e-02</_>
    <_>
      8.91317487e-01 1.02644609e-02 9.84180644e-02</_>
    <_>
      1.38677284e-01 8.55782568e-01 5.54016605e-03</_>
    <_>
      9.09380913e-01 6.06096424e-02 3.00094523e-02</_>
    <_>
      5.62381856e-02 8.44872415e-01 9.88894105e-02</_>
    <_>
      1.00541681e-01 8.76073480e-01 2.33848598e-02</_>
    <_>
      6.82822764e-02 8.95595193e-01 3.61225419e-02</_>
    <_>
      3.03749532e-01 5.49551845e-01 1.46698654e-01</_>
    <_>
      6.09504104e-01 3.34581614e-01 5.59142567e-02</_>
    <_>
      3.54879439e-01 2.16513067e-01 4.28607494e-01</_>
    <_>
      2.22589791e-01 4.14933830e-01 3.62476379e-01</_>
    <_>
      2.58686751e-01 6.68384194e-01 7.29290545e-02</_>
    <_>
      1.05319314e-01 8.55204999e-01 3.94756906e-02</_>
    <_>
      5.85538745e-01 1.01724952e-01 3.12736303e-01</_>
    <_>
      2.03514740e-01 6.24858260e-01 1.71626985e-01</_>
    <_>
      7.01112598e-02 9.01996672e-01 2.78920904e-02</_>
    <_>
      5.64824402e-01 3.46978307e-01 8.81973132e-02</_>
    <_>
      7.37217590e-02 9.07913864e-01 1.83643810e-02</_>
    <_>
      3.10304761e-01 6.50955558e-01 3.87396701e-02</_>
    <_>
      9.12970603e-02 8.43468964e-01 6.52339607e-02</_>
    <_>
      1.08732991e-01 8.60615671e-01 3.06513403e-02</_>
    <_>
      5.71124792e-01 1.25708878e-01 3.03166360e-01</_>
    <_>
      6.76116467e-01 1.49824724e-01 1.74058840e-01</_>
    <_>
      4.23204154e-01 2.46219277e-01 3.30576569e-01</_>
    <_>
      4.80371900e-02 9.15289283e-01 3.66735533e-02</_>
    <_>
      2.07802042e-01 6.43353105e-01 1.48844838e-01</_>
    <_>
      4.71088439e-01 3.65079373e-01 1.63832203e-01</_>
    <_>
      1.28943756e-01 8.12376142e-01 5.86800799e-02</_>
    <_>
      4.93265599e-01 1.17438562e-01 3.89295846e-01</_>
    <_>
      7.72096694e-01 1.01334393e-01 1.26568899e-01</_>
    <_>
      8.05918872e-02 9.08838689e-01 1.05694281e-02</_>
    <_>
      9.03818190e-01 9.77672078e-03 8.64050761e-02</_>
    <_>
      8.95972729e-01 4.54488071e-03 9.94823873e-02</_>
    <_>
      6.11278832e-01 3.62999648e-01 2.57215314e-02</_>
    <_>
      8.97684336e-01 5.87192811e-02 4.35964093e-02</_>
    <_>
      4.33601141e-02 9.19896007e-01 3.67438570e-02</_>
    <_>
      2.47282609e-01 4.03709829e-01 3.49007547e-01</_>
    <_>
      8.19588840e-01 1.18147448e-01 6.22637048e-02</_>
    <_>
      8.51407647e-01 7.68842325e-02 7.17081204e-02</_>
    <_>
      6.75122216e-02 9.10159886e-01 2.23279167e-02</_>
    <_>
      3.69929988e-03 9.95904326e-01 3.96353542e-04</_>
    <_>
      1.26417771e-01 8.54206026e-01 1.93761811e-02</_>
    <_>
      2.82372404e-02 9.70345020e-01 1.41776935e-03</_>
    <_>
      9.81687129e-01 4.60775057e-03 1.37051037e-02</_>
    <_>
      9.19280708e-01 1.59545708e-02 6.47647381e-02</_>
    <_>
      9.97753978e-01 0. 2.24600337e-03</_>
    <_>
      4.58049893e-01 2.07766443e-01 3.34183663e-01</_>
    <_>
      5.92475712e-01 1.88865036e-01 2.18659267e-01</_>
    <_>
      2.71030247e-01 5.66635132e-01 1.62334591e-01</_>
    <_>
      7.11718857e-01 1.01334393e-01 1.86946750e-01</_>
    <_>
      7.51294017e-01 2.90367380e-02 2.19669238e-01</_>
    <_>
      2.33104914e-01 7.29087889e-01 3.78071852e-02</_>
    <_>
      7.04835236e-01 3.76215130e-02 2.57543236e-01</_>
    <_>
      8.12925160e-01 1.25141725e-01 6.19331077e-02</_>
    <_>
      3.49055350e-01 5.74184179e-01 7.67604709e-02</_>
    <_>
      8.30854535e-01 3.25851813e-02 1.36560306e-01</_>
    <_>
      7.68809319e-02 8.67786705e-01 5.53323589e-02</_>
    <_>
      8.61957669e-01 7.91580603e-02 5.88842966e-02</_>
    <_>
      2.02702694e-02 9.29693222e-01 5.00365235e-02</_>
    <_>
      6.44044340e-01 9.12396088e-02 2.64716059e-01</_>
    <_>
      1.21073775e-01 7.32468963e-01 1.46457270e-01</_>
    <_>
      1.79584116e-01 7.23180532e-01 9.72353518e-02</_>
    <_>
      5.64154088e-01 3.55505675e-01 8.03402662e-02</_>
    <_>
      1.87263712e-01 5.41824222e-01 2.70912111e-01</_>
    <_>
      7.62980580e-01 7.64962360e-02 1.60523191e-01</_>
    <_>
      3.16609979e-01 5.66326559e-01 1.17063493e-01</_>
    <_>
      6.64115667e-01 2.38520414e-01 9.73639488e-02</_>
    <_>
      2.53898859e-01 6.66942358e-01 7.91587904e-02</_>
    <_>
      2.68076569e-01 3.30931008e-01 4.00992453e-01</_>
    <_>
      1.98842153e-01 5.54465950e-01 2.46691868e-01</_>
    <_>
      6.67339981e-01 9.35487971e-02 2.39111230e-01</_>
    <_>
      1.38586953e-01 8.35775018e-01 2.56379955e-02</_>
    <_>
      4.00713444e-01 1.99894309e-01 3.99392247e-01</_>
    <_>
      2.80245751e-01 1.45203218e-01 5.74551046e-01</_>
    <_>
      8.74620140e-01 4.37310077e-02 8.16488340e-02</_>
    <_>
      1.54085875e-01 8.14058185e-01 3.18559557e-02</_>
    <_>
      6.32747933e-02 9.20971096e-01 1.57541316e-02</_>
    <_>
      9.32619870e-01 5.81318559e-03 6.15669191e-02</_>
    <_>
      2.37812120e-02 9.75161850e-01 1.05694274e-03</_>
    <_>
      8.25504184e-01 3.50199244e-03 1.70993835e-01</_>
    <_>
      4.22377139e-01 3.03520799e-01 2.74102092e-01</_>
    <_>
      6.87413216e-01 2.61204392e-01 5.13824001e-02</_>
    <_>
      8.31876159e-01 2.00850666e-02 1.48038745e-01</_>
    <_>
      2.15657115e-01 5.56517065e-01 2.27825850e-01</_>
    <_>
      2.10614666e-01 4.72623974e-01 3.16761374e-01</_>
    <_>
      7.48051286e-01 1.52199760e-01 9.97489765e-02</_>
    <_>
      7.96401381e-01 8.45308509e-03 1.95145518e-01</_>
    <_>
      5.39172947e-01 9.69744995e-02 3.63852561e-01</_>
    <_>
      9.58175808e-02 7.99621940e-01 1.04560494e-01</_>
    <_>
      1.70197219e-01 7.81957626e-01 4.78451438e-02</_>
    <_>
      6.19253665e-02 8.88318002e-01 4.97566238e-02</_>
    <_>
      3.95213634e-01 4.97701466e-01 1.07084908e-01</_>
    <_>
      2.11647734e-01 7.38248944e-01 5.01033068e-02</_>
    <_>
      5.83564520e-01 3.20253670e-01 9.61817950e-02</_>
    <_>
      6.55387901e-03 9.89483297e-01 3.96281062e-03</_>
    <_>
      9.30943072e-01 6.31233444e-03 6.27446026e-02</_>
    <_>
      7.68809319e-02 9.04127121e-01 1.89919658e-02</_>
    <_>
      2.16764063e-01 6.36048198e-01 1.47187725e-01</_>
    <_>
      1.44996345e-01 7.58400321e-01 9.66033638e-02</_>
    <_>
      4.66800570e-01 3.34711730e-01 1.98487714e-01</_>
    <_>
      8.81886661e-01 2.62914523e-02 9.18219015e-02</_>
    <_>
      5.65170348e-01 5.85451610e-02 3.76284480e-01</_>
    <_>
      4.83158045e-02 9.38119173e-01 1.35650057e-02</_>
    <_>
      7.20663249e-01 4.64852601e-02 2.32851475e-01</_>
    <_>
      6.68119967e-01 2.29356587e-01 1.02523454e-01</_>
    <_>
      5.32024801e-02 9.34917331e-01 1.18801650e-02</_>
    <_>
      3.42587799e-01 6.19963825e-01 3.74483466e-02</_>
    <_>
      5.43136477e-01 2.93169498e-01 1.63694009e-01</_>
    <_>
      7.82137662e-02 9.20200825e-01 1.58541417e-03</_>
    <_>
      4.51696664e-01 2.80470908e-01 2.67832398e-01</_>
    <_>
      6.90051556e-01 9.56533253e-02 2.14295149e-01</_>
    <_>
      6.46848977e-01 2.28696004e-01 1.24455012e-01</_>
    <_>
      7.98636556e-01 8.78676921e-02 1.13495767e-01</_>
    <_>
      2.16430426e-02 9.77747321e-01 6.09663140e-04</_>
    <_>
      1.10113420e-01 3.94139886e-01 4.95746702e-01</_>
    <_>
      5.10415375e-01 1.69549301e-01 3.20035338e-01</_>
    <_>
      9.67200398e-01 1.39462808e-02 1.88533049e-02</_>
    <_>
      6.97944820e-01 8.34234729e-02 2.18631700e-01</_>
    <_>
      3.42451513e-01 3.34833801e-01 3.22714686e-01</_>
    <_>
      1.31839663e-01 8.65721703e-01 2.43865256e-03</_>
    <_>
      1.29725903e-01 6.81356311e-01 1.88917771e-01</_>
    <_>
      7.93103456e-01 1.41233981e-01 6.56625703e-02</_>
    <_>
      3.05747926e-01 3.67901653e-01 3.26350421e-01</_>
    <_>
      3.62087607e-01 5.73282838e-01 6.46295324e-02</_>
    <_>
      1.38114363e-01 3.64957482e-01 4.96928155e-01</_>
    <_>
      1.93998113e-01 6.82065189e-01 1.23936675e-01</_>
    <_>
      2.80131489e-01 6.80423677e-01 3.94448489e-02</_>
    <_>
      8.98269236e-01 6.83049262e-02 3.34258154e-02</_>
    <_>
      1.40108466e-01 6.78460717e-01 1.81430787e-01</_>
    <_>
      4.44160998e-01 2.67006814e-01 2.88832188e-01</_>
    <_>
      6.53957844e-01 4.94887009e-02 2.96553463e-01</_>
    <_>
      5.80340266e-01 2.33695656e-01 1.85964078e-01</_>
    <_>
      7.20699411e-03 9.63137984e-01 2.96550095e-02</_>
    <_>
      6.68119967e-01 4.61091287e-02 2.85770893e-01</_>
    <_>
      4.14643586e-01 5.70247948e-01 1.51084708e-02</_>
    <_>
      5.79254925e-01 3.86048198e-01 3.46968584e-02</_>
    <_>
      1.94330126e-01 7.97439396e-01 8.23045243e-03</_>
    <_>
      2.78237253e-01 1.81710780e-01 5.40051997e-01</_>
    <_>
      9.37243998e-01 6.20953878e-03 5.65464385e-02</_>
    <_>
      9.12049890e-01 7.09833810e-03 8.08518007e-02</_>
    <_>
      6.43731833e-01 2.05024615e-01 1.51243523e-01</_>
    <_>
      7.01606095e-01 1.66646540e-02 2.81729251e-01</_>
    <_>
      3.23952973e-01 6.37600720e-01 3.84462923e-02</_>
    <_>
      3.63095224e-01 4.85119045e-01 1.51785716e-01</_>
    <_>
      9.56167281e-01 3.07183359e-02 1.31143667e-02</_>
    <_>
      8.35045993e-01 1.64954029e-02 1.48458630e-01</_>
    <_>
      3.04820418e-01 3.25732499e-01 3.69447082e-01</_>
    <_>
      2.18537420e-01 6.25850320e-01 1.55612245e-01</_>
    <_>
      1.99551046e-01 6.97542548e-01 1.02906428e-01</_>
    <_>
      3.10080588e-01 6.68384194e-01 2.15352103e-02</_>
    <_>
      2.32050613e-01 6.38300598e-01 1.29648760e-01</_>
    <_>
      5.53284526e-01 2.34050095e-01 2.12665409e-01</_>
    <_>
      6.45775646e-02 5.74619114e-01 3.60803336e-01</_>
    <_>
      9.98628259e-01 3.04831570e-04 1.06691057e-03</_>
    <_>
      7.33121932e-01 8.31021294e-02 1.83775932e-01</_>
    <_>
      2.82372415e-01 5.72660685e-01 1.44966915e-01</_>
    <_>
      7.27315664e-01 1.28189981e-01 1.44494325e-01</_>
    <_>
      4.01843190e-01 2.44034842e-01 3.54121953e-01</_>
    <_>
      6.65257812e-01 1.42011836e-01 1.92730352e-01</_>
    <_>
      7.60734558e-01 1.70432031e-02 2.22222224e-01</_>
    <_>
      2.45982990e-01 7.25897908e-01 2.81190928e-02</_>
    <_>
      8.08496892e-01 5.74638434e-02 1.34039253e-01</_>
    <_>
      7.68868506e-01 1.08199492e-01 1.22932009e-01</_>
    <_>
      8.06315243e-01 1.34628087e-01 5.90566769e-02</_>
    <_>
      1.84310023e-02 9.69636083e-01 1.19328918e-02</_>
    <_>
      6.49338365e-01 1.87972590e-01 1.62689030e-01</_>
    <_>
      8.70152354e-01 3.68767306e-02 9.29709151e-02</_>
    <_>
      1.76630437e-01 6.61035001e-01 1.62334591e-01</_>
    <_>
      5.53441644e-01 1.78226978e-01 2.68331349e-01</_>
    <_>
      7.45808542e-01 2.19037309e-02 2.32287720e-01</_>
    <_>
      2.25415513e-01 6.61184192e-01 1.13400280e-01</_>
    <_>
      5.61368763e-01 1.26701012e-01 3.11930239e-01</_>
    <_>
      4.70773906e-01 2.19164252e-01 3.10061872e-01</_>
    <_>
      1.40370369e-01 8.37654293e-01 2.19753087e-02</_>
    <_>
      2.04506800e-01 6.58588409e-01 1.36904761e-01</_>
    <_>
      6.17093801e-01 1.96692333e-01 1.86213866e-01</_>
    <_>
      6.84240341e-01 1.72902495e-02 2.98469394e-01</_>
    <_>
      2.18679145e-01 7.37670064e-01 4.36507948e-02</_>
    <_>
      1.32514209e-01 8.35381150e-01 3.21046375e-02</_>
    <_>
      2.53968269e-01 5.99206328e-01 1.46825403e-01</_>
    <_>
      2.70635486e-01 5.84368169e-01 1.44996345e-01</_>
    <_>
      1.52764648e-01 8.12381864e-01 3.48534957e-02</_>
    <_>
      2.29442343e-01 7.21880913e-01 4.86767478e-02</_>
    <_>
      2.46913591e-03 9.97160494e-01 3.70370370e-04</_>
    <_>
      3.01765919e-01 4.67970908e-01 2.30263159e-01</_>
    <_>
      9.04557526e-01 1.67908091e-02 7.86516890e-02</_>
    <_>
      2.71183342e-01 5.92037976e-01 1.36778668e-01</_>
    <_>
      2.66070127e-01 5.85281253e-01 1.48648649e-01</_>
    <_>
      2.02239230e-01 6.99688196e-01 9.80725586e-02</_>
    <_>
      7.63539970e-01 8.54690075e-02 1.50991037e-01</_>
    <_>
      3.45308632e-01 5.19259274e-01 1.35432094e-01</_>
    <_>
      1.93684772e-01 6.97714388e-01 1.08600870e-01</_>
    <_>
      4.46913272e-01 9.19075906e-02 4.61179137e-01</_>
    <_>
      3.08071584e-01 5.67932785e-01 1.23995617e-01</_>
    <_>
      7.17796266e-01 2.43361071e-01 3.88426483e-02</_>
    <_>
      5.92440546e-01 1.23898081e-01 2.83661395e-01</_>
    <_>
      2.55283177e-01 4.31952655e-01 3.12764168e-01</_>
    <_>
      4.97282922e-01 3.94517571e-01 1.08199492e-01</_>
    <_>
      5.77995896e-01 3.68285120e-01 5.37190065e-02</_>
    <_>
      5.38043499e-01 1.68714553e-01 2.93241978e-01</_>
    <_>
      2.81246215e-01 5.75292826e-01 1.43460929e-01</_>
    <_>
      5.79881668e-01 1.43098652e-01 2.77019680e-01</_>
    <_>
      6.65997088e-01 2.25712195e-01 1.08290724e-01</_>
    <_>
      3.23270977e-01 6.52777791e-01 2.39512473e-02</_>
    <_>
      9.76350904e-02 8.06579471e-01 9.57854390e-02</_>
    <_>
      1.51958540e-01 7.96829760e-01 5.12117073e-02</_>
    <_>
      5.83419442e-01 2.32050613e-01 1.84529960e-01</_>
    <_>
      7.70247057e-02 8.98665607e-01 2.43096836e-02</_>
    <_>
      7.78310835e-01 1.80532765e-02 2.03635901e-01</_>
    <_>
      7.09041953e-01 2.67715424e-01 2.32426301e-02</_>
    <_>
      1.89737037e-01 6.37874365e-01 1.72388598e-01</_>
    <_>
      6.07372820e-01 2.32420146e-01 1.60207048e-01</_>
    <_>
      8.52160156e-02 8.72770488e-01 4.20134775e-02</_>
    <_>
      9.04431283e-01 6.43858081e-03 8.91301632e-02</_>
    <_>
      3.93913776e-01 3.71331960e-01 2.34754249e-01</_>
    <_>
      2.43764166e-02 9.63435352e-01 1.21882083e-02</_>
    <_>
      6.30907342e-02 8.86932909e-01 4.99763712e-02</_>
    <_>
      7.24173546e-01 2.54648775e-01 2.11776868e-02</_>
    <_>
      3.27622861e-01 6.17084146e-01 5.52930050e-02</_>
    <_>
      3.77008498e-01 3.23487699e-01 2.99503773e-01</_>
    <_>
      2.45351240e-01 7.40960717e-01 1.36880167e-02</_>
    <_>
      3.09729904e-01 4.46675897e-01 2.43594185e-01</_>
    <_>
      1.50226755e-02 9.72080469e-01 1.28968256e-02</_>
    <_>
      8.77551019e-01 6.19331077e-02 6.05158731e-02</_>
    <_>
      6.05442166e-01 3.23979586e-01 7.05782324e-02</_>
    <_>
      5.69116235e-01 3.44399810e-01 8.64839330e-02</_>
    <_>
      7.96077490e-01 1.10822305e-01 9.31001902e-02</_>
    <_>
      2.49486774e-01 6.07293785e-01 1.43219411e-01</_>
    <_>
      2.42436260e-01 7.01017320e-01 5.65464385e-02</_>
    <_>
      8.14273655e-01 7.47494251e-02 1.10976934e-01</_>
    <_>
      3.20987664e-02 9.44814801e-01 2.30864193e-02</_>
    <_>
      7.89473653e-02 8.25311661e-01 9.57409963e-02</_>
    <_>
      6.71506107e-01 1.54020950e-01 1.74472913e-01</_>
    <_>
      3.81261826e-01 3.08010399e-01 3.10727775e-01</_>
    <_>
      1.21337429e-01 8.25496197e-01 5.31663522e-02</_>
    <_>
      5.83987415e-01 1.80412993e-01 2.35599563e-01</_>
    <_>
      2.17994452e-02 9.56136882e-01 2.20636800e-02</_>
    <_>
      5.52298546e-01 3.68414253e-01 7.92871937e-02</_>
    <_>
      1.16913579e-01 8.74814808e-01 8.27160478e-03</_>
    <_>
      6.69486165e-01 1.30791560e-01 1.99722260e-01</_>
    <_>
      6.06689990e-01 3.52131397e-01 4.11786027e-02</_>
    <_>
      1.97539210e-01 7.28501916e-01 7.39588961e-02</_>
    <_>
      3.75590742e-01 3.25141788e-01 2.99267501e-01</_>
    <_>
      1.88019395e-01 5.55401683e-01 2.56578952e-01</_>
    <_>
      5.88010192e-01 3.20578218e-01 9.14115682e-02</_>
    <_>
      1.54773161e-01 7.40311921e-01 1.04914933e-01</_>
    <_>
      6.84018373e-01 3.00432652e-01 1.55489454e-02</_>
    <_>
      7.66453326e-01 1.04939014e-01 1.28607661e-01</_>
    <_>
      3.28691185e-01 6.38858855e-01 3.24499719e-02</_>
    <_>
      2.27538347e-01 4.02483553e-01 3.69978100e-01</_>
    <_>
      6.87145531e-01 2.14437619e-01 9.84168276e-02</_>
    <_>
      7.10656881e-01 1.24645561e-01 1.64697543e-01</_>
    <_>
      7.87274361e-01 1.76492870e-01 3.62327993e-02</_>
    <_>
      2.48818532e-01 7.24480152e-01 2.67013237e-02</_>
    <_>
      1.91162571e-01 6.18501902e-01 1.90335542e-01</_>
    <_>
      2.93456793e-01 6.87037051e-01 1.95061732e-02</_>
    <_>
      2.93792516e-01 6.50368452e-01 5.58390021e-02</_>
    <_>
      6.89655185e-01 2.59083092e-01 5.12617268e-02</_>
    <_>
      4.92614567e-01 1.26751676e-01 3.80633771e-01</_>
    <_>
      3.55860114e-01 5.13941407e-01 1.30198494e-01</_>
    <_>
      6.31261826e-01 2.14201316e-01 1.54536858e-01</_>
    <_>
      3.23960304e-01 6.37641788e-01 3.83979194e-02</_>
    <_>
      1.58512428e-01 6.20027423e-01 2.21460149e-01</_>
    <_>
      6.31235838e-01 3.10090691e-01 5.86734712e-02</_>
    <_>
      3.34862947e-01 5.57782888e-01 1.07354186e-01</_>
    <_>
      3.24613541e-01 6.35222614e-01 4.01638262e-02</_>
    <_>
      2.45555550e-01 6.04321003e-01 1.50123462e-01</_>
    <_>
      6.40019327e-02 7.35901475e-01 2.00096607e-01</_>
    <_>
      7.82670438e-01 1.84917361e-01 3.24121900e-02</_>
    <_>
      2.45799854e-01 6.75493062e-01 7.87070841e-02</_>
    <_>
      6.47989392e-01 3.11315060e-01 4.06955667e-02</_>
    <_>
      3.42627585e-01 4.15051997e-01 2.42320418e-01</_>
    <_>
      4.41130310e-01 4.13355887e-01 1.45513833e-01</_>
    <_>
      2.08911970e-02 9.71138775e-01 7.97005184e-03</_>
    <_>
      6.08382761e-01 3.22307795e-01 6.93094283e-02</_>
    <_>
      4.17651236e-01 3.06001902e-01 2.76346892e-01</_>
    <_>
      7.33745754e-01 2.26991534e-01 3.92627195e-02</_>
    <_>
      8.32345665e-01 5.04938290e-02 1.17160492e-01</_>
    <_>
      6.56666696e-01 1.12222224e-01 2.31111109e-01</_>
    <_>
      2.77261198e-01 5.55488467e-01 1.67250335e-01</_>
    <_>
      1.80765122e-01 7.20774293e-01 9.84605998e-02</_>
    <_>
      8.37159872e-01 9.76473913e-02 6.51927441e-02</_>
    <_>
      1.55588016e-01 7.21512079e-01 1.22899927e-01</_>
    <_>
      6.12592578e-01 3.37283939e-01 5.01234569e-02</_>
    <_>
      3.25323015e-01 3.90291035e-01 2.84385949e-01</_>
    <_>
      1.99688211e-01 6.59438789e-01 1.40873015e-01</_>
    <_>
      2.18233466e-01 7.52840936e-01 2.89256200e-02</_>
    <_>
      9.64859352e-02 8.58471215e-01 4.50428687e-02</_>
    <_>
      2.84748524e-01 4.83775020e-01 2.31476471e-01</_>
    <_>
      2.57571667e-01 4.93780434e-01 2.48647913e-01</_>
    <_>
      5.59532523e-01 3.70891154e-01 6.95763305e-02</_>
    <_>
      3.39681447e-01 4.71779764e-01 1.88538775e-01</_>
    <_>
      7.40221083e-01 2.00963721e-01 5.88151924e-02</_>
    <_>
      3.44938278e-01 6.46790147e-01 8.27160478e-03</_>
    <_>
      2.94659734e-01 6.35869563e-01 6.94706962e-02</_>
    <_>
      6.49160445e-01 1.00366116e-01 2.50473440e-01</_>
    <_>
      6.55599058e-01 1.08445905e-01 2.35955060e-01</_>
    <_>
      2.51234561e-01 6.50864184e-01 9.79012325e-02</_>
    <_>
      3.78071843e-03 9.90548193e-01 5.67107741e-03</_>
    <_>
      1.74814820e-01 7.43333340e-01 8.18518549e-02</_>
    <_>
      7.28317142e-01 2.36712530e-01 3.49703319e-02</_>
    <_>
      7.13580251e-02 8.70864213e-01 5.77777773e-02</_>
    <_>
      1.10283934e-01 8.45221579e-01 4.44944613e-02</_>
    <_>
      3.42469126e-01 6.38271630e-01 1.92592591e-02</_>
    <_>
      4.29150879e-01 1.75500274e-01 3.95348847e-01</_>
    <_>
      3.33548546e-01 5.49715936e-01 1.16735540e-01</_>
    <_>
      1.35633275e-01 8.37547243e-01 2.68194713e-02</_>
    <_>
      1.91039726e-01 5.65994442e-01 2.42965832e-01</_>
    <_>
      7.61105359e-01 1.60123974e-01 7.87706599e-02</_>
    <_>
      6.67459369e-01 1.21284187e-01 2.11256444e-01</_>
    <_>
      6.77815080e-01 3.01136374e-01 2.10485533e-02</_>
    <_>
      2.50346273e-01 4.24168974e-01 3.25484753e-01</_>
    <_>
      1.61573827e-01 7.92184949e-01 4.62412126e-02</_>
    <_>
      6.77896678e-01 2.48513669e-01 7.35896453e-02</_>
    <_>
      2.16585875e-01 5.18351793e-01 2.65062332e-01</_>
    <_>
      3.78357433e-02 9.12835717e-01 4.93285134e-02</_>
    <_>
      1.32794783e-01 7.21230149e-01 1.45975053e-01</_>
    <_>
      2.74653018e-01 7.00511336e-01 2.48356462e-02</_>
    <_>
      2.43625313e-01 7.25459099e-01 3.09155770e-02</_>
    <_>
      8.03938925e-01 8.93826559e-02 1.06678449e-01</_>
    <_>
      5.60318828e-01 3.11677337e-01 1.28003865e-01</_>
    <_>
      6.82237089e-01 2.22825408e-01 9.49375108e-02</_>
    <_>
      2.92517006e-01 6.12811804e-01 9.46712047e-02</_>
    <_>
      3.59492660e-01 3.57114553e-01 2.83392787e-01</_>
    <_>
      3.30458403e-01 5.82112491e-01 8.74291137e-02</_>
    <_>
      3.79135162e-01 3.28449905e-01 2.92414933e-01</_>
    <_>
      5.88309586e-01 3.05264473e-01 1.06425956e-01</_>
    <_>
      3.52614433e-01 3.86064500e-01 2.61321098e-01</_>
    <_>
      1.13746539e-01 4.21745151e-01 4.64508325e-01</_>
    <_>
      5.33790171e-01 2.70675808e-01 1.95534021e-01</_>
    <_>
      5.01234569e-02 9.29876566e-01 1.99999996e-02</_>
    <_>
      1.70250475e-01 7.68076539e-01 6.16729669e-02</_>
    <_>
      2.57819116e-01 6.83009326e-01 5.91715984e-02</_>
    <_>
      3.24217200e-01 6.42092764e-01 3.36900502e-02</_>
    <_>
      6.71416521e-02 8.02439332e-01 1.30419031e-01</_>
    <_>
      1.36830717e-01 7.54597068e-01 1.08572200e-01</_>
    <_>
      1.74691364e-01 6.13209903e-01 2.12098762e-01</_>
    <_>
      2.33813792e-01 7.45155931e-01 2.10302453e-02</_>
    <_>
      7.48390377e-01 1.30539075e-01 1.21070571e-01</_>
    <_>
      5.52721089e-03 9.84126985e-01 1.03458054e-02</_>
    <_>
      3.20849121e-01 5.61114132e-01 1.18036777e-01</_>
    <_>
      2.78946131e-01 6.09050095e-01 1.12003781e-01</_>
    <_>
      6.48402989e-01 2.08054543e-01 1.43542483e-01</_>
    <_>
      1.61604941e-01 5.60987651e-01 2.77407408e-01</_>
    <_>
      5.52834213e-01 2.83676296e-01 1.63489461e-01</_>
    <_>
      7.17459917e-01 8.15553591e-02 2.00984731e-01</_>
    <_>
      5.23166239e-01 3.21171582e-01 1.55662164e-01</_>
    <_>
      9.00770128e-01 3.15616727e-02 6.76682219e-02</_>
    <_>
      2.38248974e-01 7.09323347e-01 5.24276868e-02</_>
    <_>
      3.14937800e-01 5.82779884e-01 1.02282330e-01</_>
    <_>
      3.35311204e-01 5.28721094e-01 1.35967687e-01</_>
    <_>
      3.02549880e-02 9.43321466e-01 2.64235698e-02</_>
    <_>
      1.77575618e-01 6.72140837e-01 1.50283560e-01</_>
    <_>
      6.77060962e-01 1.85456380e-01 1.37482643e-01</_>
    <_>
      2.38472715e-01 7.09869206e-01 5.16580790e-02</_>
    <_>
      3.81728381e-01 6.12098753e-01 6.17283955e-03</_>
    <_>
      4.90193754e-01 3.18998098e-01 1.90808132e-01</_>
    <_>
      3.09135795e-01 6.69012368e-01 2.18518525e-02</_>
    <_>
      1.68053910e-01 7.42370188e-01 8.95759016e-02</_>
    <_>
      6.90476179e-01 2.97193885e-01 1.23299323e-02</_>
    <_>
      4.83395725e-01 2.27629513e-01 2.88974762e-01</_>
    <_>
      3.26323241e-01 3.26795846e-01 3.46880913e-01</_>
    <_>
      7.71887481e-01 1.17618643e-01 1.10493898e-01</_>
    <_>
      5.61419010e-01 3.11829329e-01 1.26751676e-01</_>
    <_>
      4.38917220e-01 2.80470520e-01 2.80612230e-01</_>
    <_>
      9.93561447e-02 8.66052270e-01 3.45915928e-02</_>
    <_>
      4.61179137e-01 2.39111230e-01 2.99709618e-01</_>
    <_>
      2.90123448e-02 9.68395054e-01 2.59259250e-03</_>
    <_>
      2.31728390e-01 7.53456771e-01 1.48148146e-02</_>
    <_>
      2.53315032e-01 7.05532670e-01 4.11522649e-02</_>
    <_>
      2.97530860e-01 6.89012349e-01 1.34567898e-02</_>
    <_>
      8.40419531e-02 8.76842380e-01 3.91156450e-02</_>
    <_>
      6.70370385e-02 9.16296303e-01 1.66666675e-02</_>
    <_>
      3.34814817e-01 5.77407420e-01 8.77777785e-02</_>
    <_>
      5.65464385e-02 9.27731514e-01 1.57220233e-02</_>
    <_>
      9.88573432e-02 6.41793609e-01 2.59349018e-01</_>
    <_>
      2.61880159e-01 6.15573347e-01 1.22546487e-01</_>
    <_>
      3.07328284e-01 6.05192006e-01 8.74797180e-02</_>
    <_>
      6.54084086e-01 3.26978922e-01 1.89370029e-02</_>
    <_>
      8.27454090e-01 1.52199760e-01 2.03461479e-02</_>
    <_>
      4.95518237e-01 3.11576813e-01 1.92904934e-01</_>
    <_>
      6.81405902e-01 2.75085032e-01 4.35090698e-02</_>
    <_>
      5.73605835e-01 1.74858227e-01 2.51535922e-01</_>
    <_>
      3.10373336e-01 6.46975398e-01 4.26512286e-02</_>
    <_>
      1.79563493e-01 7.85714269e-01 3.47222239e-02</_>
    <_>
      7.48976111e-01 1.15470998e-01 1.35552913e-01</_>
    <_>
      7.83480227e-01 1.08199492e-01 1.08320251e-01</_>
    <_>
      1.67590022e-01 7.65581727e-01 6.68282583e-02</_>
    <_>
      5.84108174e-01 1.19550779e-01 2.96341032e-01</_>
    <_>
      9.68491733e-02 7.58006215e-01 1.45144626e-01</_>
    <_>
      1.89853355e-01 4.78398740e-01 3.31747919e-01</_>
    <_>
      6.90976322e-01 2.09538907e-01 9.94847417e-02</_>
    <_>
      9.57833588e-01 9.21600778e-03 3.29503864e-02</_>
    <_>
      2.67249525e-01 6.98015094e-01 3.47353481e-02</_>
    <_>
      7.45924413e-01 1.96111575e-01 5.79640158e-02</_>
    <_>
      4.55076694e-01 3.75273913e-01 1.69649377e-01</_>
    <_>
      2.15802476e-01 5.39135814e-01 2.45061725e-01</_>
    <_>
      4.38454747e-01 1.93031177e-01 3.68514091e-01</_>
    <_>
      6.83342338e-01 2.52163321e-01 6.44943193e-02</_>
    <_>
      2.16519743e-01 5.84591210e-01 1.98889017e-01</_>
    <_>
      7.91819215e-01 9.21600834e-02 1.16020702e-01</_>
    <_>
      4.47544515e-01 3.51470768e-01 2.00984731e-01</_>
    <_>
      1.92520782e-01 6.15304708e-01 1.92174509e-01</_>
    <_>
      1.46694213e-01 8.24121892e-01 2.91838851e-02</_>
    <_>
      4.71923679e-01 1.77273273e-01 3.50803047e-01</_>
    <_>
      2.01604933e-01 7.09012330e-01 8.93827155e-02</_>
    <_>
      7.53945231e-01 8.04191381e-02 1.65635645e-01</_>
    <_>
      7.36557007e-01 2.15352088e-01 4.80908975e-02</_>
    <_>
      4.25310940e-01 3.11677337e-01 2.63011724e-01</_>
    <_>
      3.54788065e-01 4.14925724e-01 2.30286196e-01</_>
    <_>
      6.45439506e-01 1.86554819e-01 1.68005675e-01</_>
    <_>
      7.14051247e-01 1.52253509e-01 1.33695245e-01</_>
    <_>
      3.17611307e-01 6.33769333e-01 4.86193672e-02</_>
    <_>
      8.89889225e-02 8.33102465e-01 7.79085904e-02</_>
    <_>
      1.50617287e-01 7.84938276e-01 6.44444451e-02</_>
    <_>
      3.17460328e-01 5.71428597e-01 1.11111112e-01</_>
    <_>
      1.59799173e-01 4.72991675e-01 3.67209136e-01</_>
    <_>
      6.00429237e-01 2.51483411e-01 1.48087367e-01</_>
    <_>
      2.95922220e-01 6.24668598e-01 7.94091672e-02</_>
    <_>
      2.46078968e-01 6.02893472e-01 1.51027575e-01</_>
    <_>
      2.75383502e-01 4.07414168e-01 3.17202330e-01</_>
    <_>
      4.78727430e-01 3.25463951e-01 1.95808604e-01</_>
    <_>
      2.80612230e-01 1.60997733e-01 5.58390021e-01</_>
    <_>
      2.82816082e-01 5.85436523e-01 1.31747380e-01</_>
    <_>
      4.55924034e-01 6.36337847e-02 4.80442166e-01</_>
    <_>
      2.86389261e-01 5.59061110e-01 1.54549614e-01</_>
    <_>
      2.99876541e-01 6.56296313e-01 4.38271612e-02</_>
    <_>
      1.20560892e-01 8.35848212e-01 4.35909145e-02</_>
    <_>
      2.07766443e-01 5.85034013e-01 2.07199544e-01</_>
    <_>
      7.95354128e-01 1.32180274e-01 7.24655986e-02</_>
    <_>
      5.01704335e-01 3.56899381e-01 1.41396284e-01</_>
    <_>
      1.00481860e-01 8.73441041e-01 2.60770973e-02</_>
    <_>
      9.24691334e-02 8.96790147e-01 1.07407412e-02</_>
    <_>
      2.54229546e-01 6.68190837e-01 7.75796399e-02</_>
    <_>
      2.82024801e-01 6.89178705e-01 2.87964884e-02</_>
    <_>
      5.96762776e-01 1.61625713e-01 2.41611525e-01</_>
    <_>
      5.66398859e-01 2.76465029e-01 1.57136112e-01</_>
    <_>
      3.38296413e-01 6.18940473e-01 4.27631587e-02</_>
    <_>
      2.11389467e-01 7.42510319e-01 4.61002067e-02</_>
    <_>
      2.52599239e-01 6.85845912e-01 6.15548193e-02</_>
    <_>
      7.46191144e-02 8.15443218e-01 1.09937675e-01</_>
    <_>
      7.11983085e-01 1.13357112e-01 1.74659804e-01</_>
    <_>
      3.91481489e-01 6.01604939e-01 6.91358047e-03</_>
    <_>
      1.18826225e-01 7.69351542e-01 1.11822240e-01</_>
    <_>
      2.06774384e-01 7.35827684e-01 5.73979579e-02</_>
    <_>
      2.20946714e-01 7.04081655e-01 7.49716535e-02</_>
    <_>
      5.23923747e-02 8.80823135e-01 6.67844936e-02</_>
    <_>
      6.29592240e-01 3.07158202e-01 6.32495880e-02</_>
    <_>
      7.95732856e-01 8.69839638e-02 1.17283173e-01</_>
    <_>
      2.34050095e-01 6.91044450e-01 7.49054849e-02</_>
    <_>
      2.62045652e-01 6.52940452e-01 8.50138888e-02</_>
    <_>
      9.17763561e-02 8.62697721e-01 4.55259010e-02</_>
    <_>
      3.34452480e-01 5.24535120e-01 1.41012400e-01</_>
    <_>
      6.36808053e-02 8.98929834e-01 3.73893529e-02</_>
    <_>
      2.91524947e-01 5.36706328e-01 1.71768710e-01</_>
    <_>
      3.41918707e-01 3.28213602e-01 3.29867661e-01</_>
    <_>
      6.72839507e-02 9.28024709e-01 4.69135819e-03</_>
    <_>
      9.12396088e-02 6.61876738e-01 2.46883661e-01</_>
    <_>
      2.99149334e-01 6.30080342e-01 7.07703233e-02</_>
    <_>
      1.68792516e-01 7.76643991e-01 5.45634925e-02</_>
    <_>
      3.16290140e-01 6.43678188e-01 4.00317088e-02</_>
    <_>
      5.76442361e-01 2.46686026e-01 1.76871613e-01</_>
    <_>
      2.54535139e-01 6.75736964e-01 6.97278902e-02</_>
    <_>
      3.48064274e-01 4.55807149e-01 1.96128562e-01</_>
    <_>
      5.33317566e-01 2.94896036e-01 1.71786383e-01</_>
    <_>
      3.20493817e-01 5.63950598e-01 1.15555555e-01</_>
    <_>
      3.58379483e-02 7.00311661e-01 2.63850421e-01</_>
    <_>
      3.38214874e-01 5.41977048e-01 1.19808108e-01</_>
    <_>
      7.10179925e-01 2.56732285e-01 3.30877900e-02</_>
    <_>
      4.23607349e-01 2.59058952e-01 3.17333698e-01</_>
    <_>
      3.20719957e-01 5.28344691e-01 1.50935367e-01</_>
    <_>
      3.64864856e-01 4.06683713e-01 2.28451431e-01</_>
    <_>
      5.57379127e-01 3.77856344e-01 6.47645518e-02</_>
    <_>
      3.69472802e-01 5.60799301e-01 6.97278902e-02</_>
    <_>
      2.76353985e-01 7.12031305e-01 1.16146952e-02</_>
    <_>
      5.60409069e-01 3.94520909e-01 4.50700670e-02</_>
    <_>
      2.39140376e-01 6.20027423e-01 1.40832186e-01</_>
    <_>
      2.29356587e-01 7.42898643e-01 2.77447477e-02</_>
    <_>
      8.43706608e-01 5.80734760e-02 9.82199237e-02</_>
    <_>
      8.42444122e-01 4.43125851e-02 1.13243274e-01</_>
    <_>
      5.51157832e-01 2.52244800e-01 1.96597353e-01</_>
    <_>
      4.42999631e-01 3.61696750e-01 1.95303619e-01</_>
    <_>
      1.28022194e-01 8.48196566e-01 2.37812120e-02</_>
    <_>
      7.35896409e-01 2.09671021e-01 5.44325523e-02</_>
    <_>
      7.70609796e-01 4.93624546e-02 1.80027768e-01</_>
    <_>
      6.13333344e-01 3.12592596e-01 7.40740746e-02</_>
    <_>
      1.95802465e-01 6.74444437e-01 1.29753083e-01</_>
    <_>
      2.67137975e-01 6.00050509e-01 1.32811517e-01</_>
    <_>
      2.22469136e-01 6.92592621e-01 8.49382728e-02</_>
    <_>
      8.83095562e-01 6.26183599e-02 5.42860739e-02</_>
    <_>
      6.50944650e-01 2.75994182e-01 7.30611682e-02</_>
    <_>
      3.07681412e-01 4.98866200e-01 1.93452388e-01</_>
    <_>
      2.56069213e-01 6.65934920e-01 7.79958665e-02</_>
    <_>
      2.79297143e-01 6.82917178e-01 3.77857052e-02</_>
    <_>
      7.14757562e-01 1.01862863e-01 1.83379576e-01</_>
    <_>
      5.97150087e-01 2.36807153e-01 1.66042745e-01</_>
    <_>
      6.35278821e-01 1.62334591e-01 2.02386573e-01</_>
    <_>
      5.78676164e-01 3.12062353e-01 1.09261461e-01</_>
    <_>
      1.00442007e-01 8.87364745e-01 1.21932635e-02</_>
    <_>
      4.55332398e-02 8.60803306e-01 9.36634317e-02</_>
    <_>
      1.72849715e-01 6.11294925e-01 2.15855390e-01</_>
    <_>
      1.61862001e-01 7.75874317e-01 6.22637048e-02</_>
    <_>
      2.46882081e-01 6.65391147e-01 8.77267569e-02</_>
    <_>
      2.70257205e-01 4.12269056e-01 3.17473739e-01</_>
    <_>
      1.22569740e-01 8.57988179e-01 1.94420964e-02</_>
    <_>
      1.56509697e-01 7.63677299e-01 7.98130184e-02</_>
    <_>
      1.15603119e-01 8.29700112e-01 5.46967909e-02</_>
    <_>
      8.78099203e-02 7.21074402e-01 1.91115707e-01</_>
    <_>
      2.09803149e-01 7.22420394e-01 6.77764565e-02</_>
    <_>
      1.65166199e-01 5.91066480e-01 2.43767306e-01</_>
    <_>
      1.37759924e-01 7.97022700e-01 6.52173907e-02</_>
    <_>
      1.54137373e-01 7.46619821e-01 9.92428362e-02</_>
    <_>
      9.92469311e-01 4.88836039e-03 2.64235702e-03</_>
    <_>
      5.23511350e-01 3.32348764e-01 1.44139886e-01</_>
    <_>
      2.86579970e-02 9.59096074e-01 1.22459289e-02</_>
    <_>
      2.71604925e-01 5.84938288e-01 1.43456787e-01</_>
    <_>
      2.62469143e-01 7.00123429e-01 3.74074057e-02</_>
    <_>
      9.00277019e-01 7.82548487e-02 2.14681439e-02</_>
    <_>
      3.49159956e-01 4.45580721e-01 2.05259308e-01</_>
    <_>
      5.69727905e-02 9.08021569e-01 3.50056700e-02</_>
    <_>
      5.02126664e-02 9.12098289e-01 3.76890376e-02</_>
    <_>
      1.05609417e-01 5.81024945e-01 3.13365638e-01</_>
    <_>
      3.71900827e-01 6.14411175e-01 1.36880167e-02</_>
    <_>
      2.15674430e-01 5.43533385e-01 2.40792170e-01</_>
    <_>
      6.41347647e-01 2.37893969e-01 1.20758362e-01</_>
    <_>
      4.08587269e-02 7.70775616e-01 1.88365653e-01</_>
    <_>
      7.28822112e-01 6.56482801e-02 2.05529600e-01</_>
    <_>
      5.41587889e-01 1.61507562e-01 2.96904534e-01</_>
    <_>
      2.92098761e-01 5.01358032e-01 2.06543207e-01</_>
    <_>
      3.57308894e-01 6.09116733e-01 3.35743800e-02</_>
    <_>
      3.16655129e-01 4.32306081e-01 2.51038790e-01</_>
    <_>
      4.01506156e-01 5.83564520e-01 1.49293169e-02</_>
    <_>
      7.19984829e-01 2.47317255e-01 3.26978900e-02</_>
    <_>
      1.46928817e-01 6.96082890e-01 1.56988263e-01</_>
    <_>
      8.29674602e-01 1.42303720e-01 2.80216951e-02</_>
    <_>
      1.61544427e-01 6.78718984e-01 1.59736574e-01</_>
    <_>
      2.80827463e-01 6.82801485e-01 3.63710113e-02</_>
    <_>
      3.23753469e-02 6.82479203e-01 2.85145432e-01</_>
    <_>
      2.87284136e-01 5.63700020e-01 1.49015814e-01</_>
    <_>
      2.12551653e-01 6.65934920e-01 1.21513426e-01</_>
    <_>
      3.07158500e-01 5.64280510e-01 1.28560990e-01</_>
    <_>
      7.78834701e-01 2.06235960e-01 1.49293169e-02</_>
    <_>
      1.14237413e-01 7.39041150e-01 1.46721408e-01</_>
    <_>
      4.57391739e-01 3.81896228e-01 1.60712034e-01</_>
    <_>
      2.30149299e-01 6.17518842e-01 1.52331874e-01</_>
    <_>
      1.30467921e-01 7.99878061e-01 6.96540177e-02</_>
    <_>
      5.44501960e-01 2.32041404e-01 2.23456636e-01</_>
    <_>
      3.11649650e-01 5.89143991e-01 9.92063507e-02</_>
    <_>
      5.44137180e-01 2.47796163e-01 2.08066657e-01</_>
    <_>
      9.17055905e-01 0. 8.29440728e-02</_>
    <_>
      1.55921355e-01 7.59640276e-01 8.44383463e-02</_>
    <_>
      2.78591692e-01 6.25000000e-01 9.64083150e-02</_>
    <_>
      8.47333819e-02 7.20051110e-01 1.95215479e-01</_>
    <_>
      5.56238174e-01 2.78000951e-01 1.65760875e-01</_>
    <_>
      8.57142866e-01 4.54051457e-02 9.74519998e-02</_>
    <_>
      8.62769842e-01 2.33556367e-02 1.13874510e-01</_>
    <_>
      2.01054618e-01 6.81990266e-01 1.16955109e-01</_>
    <_>
      7.28379011e-01 1.42485827e-01 1.29135162e-01</_>
    <_>
      1.48236230e-01 8.28907371e-01 2.28563882e-02</_>
    <_>
      5.73842168e-01 2.60987699e-01 1.65170133e-01</_>
    <_>
      7.53468096e-01 1.15603119e-01 1.30928785e-01</_>
    <_>
      1.15807272e-01 8.00144911e-01 8.40478167e-02</_>
    <_>
      2.16276914e-01 7.40520537e-01 4.32025380e-02</_>
    <_>
      2.50283450e-01 7.03798175e-01 4.59183678e-02</_>
    <_>
      1.70368627e-01 7.99149334e-01 3.04820407e-02</_>
    <_>
      7.19357550e-01 1.17980920e-01 1.62661508e-01</_>
    <_>
      7.10895061e-01 7.24655986e-02 2.16639310e-01</_>
    <_>
      2.49149665e-01 5.69019258e-01 1.81831062e-01</_>
    <_>
      3.76063317e-01 2.88516074e-01 3.35420609e-01</_>
    <_>
      3.57160509e-01 4.04567897e-01 2.38271609e-01</_>
    <_>
      5.72394654e-02 8.40719700e-01 1.02040820e-01</_>
    <_>
      5.91339469e-01 3.66115391e-01 4.25451323e-02</_>
    <_>
      1.27599239e-01 7.97022700e-01 7.53780752e-02</_>
    <_>
      6.78702176e-01 2.97184706e-01 2.41131168e-02</_>
    <_>
      4.47288960e-01 3.36191267e-01 2.16519743e-01</_>
    <_>
      2.64886588e-01 6.07514203e-01 1.27599239e-01</_>
    <_>
      5.95758140e-01 3.76720101e-01 2.75217779e-02</_>
    <_>
      2.45671749e-01 5.42416871e-01 2.11911350e-01</_>
    <_>
      7.30968297e-01 1.92904934e-01 7.61267543e-02</_>
    <_>
      3.17024857e-01 5.75217187e-01 1.07757963e-01</_>
    <_>
      8.45600307e-01 2.70167906e-02 1.27382904e-01</_>
    <_>
      6.11053705e-01 3.65702480e-01 2.32438017e-02</_>
    <_>
      2.57629808e-02 9.46228027e-01 2.80089844e-02</_>
    <_>
      3.73497158e-01 6.13951623e-01 1.25511959e-02</_>
    <_>
      1.45213634e-01 8.13818276e-01 4.09680903e-02</_>
    <_>
      8.19989666e-02 8.33806813e-01 8.41942132e-02</_>
    <_>
      1.36363640e-01 8.26575398e-01 3.70609500e-02</_>
    <_>
      7.34124482e-01 1.34957701e-01 1.30917817e-01</_>
    <_>
      3.99018601e-02 9.32076454e-01 2.80216951e-02</_>
    <_>
      2.18112245e-01 6.67800426e-01 1.14087299e-01</_>
    <_>
      9.09354866e-01 4.87312190e-02 4.19139005e-02</_>
    <_>
      5.87006390e-01 1.40925005e-01 2.72068590e-01</_>
    <_>
      8.00595224e-01 1.56179145e-01 4.32256237e-02</_>
    <_>
      1.76303849e-01 7.79903650e-01 4.37925160e-02</_>
    <_>
      1.90373167e-01 6.68604672e-01 1.41022176e-01</_>
    <_>
      4.39952426e-02 9.20729280e-01 3.52754667e-02</_>
    <_>
      6.25000000e-02 9.18478251e-01 1.90217383e-02</_>
    <_>
      1.28177390e-01 7.79881001e-01 9.19415876e-02</_>
    <_>
      6.47771776e-01 2.23330393e-01 1.28897861e-01</_>
    <_>
      5.13350666e-01 3.94139886e-01 9.25094485e-02</_>
    <_>
      5.90136051e-01 3.34183663e-01 7.56802708e-02</_>
    <_>
      5.28342366e-01 3.73690188e-01 9.79674309e-02</_>
    <_>
      8.38277996e-01 9.92298946e-02 6.24921098e-02</_>
    <_>
      7.64197528e-01 1.93086416e-01 4.27160487e-02</_>
    <_>
      8.11672986e-01 1.03142723e-01 8.51843134e-02</_>
    <_>
      3.31351578e-01 6.01004124e-01 6.76443353e-02</_>
    <_>
      6.02954149e-01 3.40866059e-01 5.61797768e-02</_>
    <_>
      3.64669412e-01 5.20532012e-01 1.14798553e-01</_>
    <_>
      7.24550188e-01 2.25093588e-01 5.03562354e-02</_>
    <_>
      7.00025797e-01 1.80526853e-01 1.19447313e-01</_>
    <_>
      1.17901236e-01 8.55432093e-01 2.66666673e-02</_>
    <_>
      2.26542681e-01 7.20323622e-01 5.31336777e-02</_>
    <_>
      1.23294286e-01 7.49064147e-01 1.27641588e-01</_>
    <_>
      5.07325113e-01 1.99196592e-01 2.93478251e-01</_>
    <_>
      2.12084487e-01 6.23268723e-01 1.64646819e-01</_>
    <_>
      1.13657847e-01 5.72542548e-01 3.13799620e-01</_>
    <_>
      2.55810648e-01 5.75821996e-01 1.68367341e-01</_>
    <_>
      3.09816360e-01 6.65345490e-01 2.48381551e-02</_>
    <_>
      5.52775741e-01 3.47516447e-01 9.97078195e-02</_>
    <_>
      4.63492453e-01 4.07963127e-01 1.28544420e-01</_>
    <_>
      2.37953514e-01 7.37103164e-01 2.49433108e-02</_>
    <_>
      6.11212552e-01 3.02958369e-01 8.58290717e-02</_>
    <_>
      1.94706991e-01 6.97778821e-01 1.07514180e-01</_>
    <_>
      1.92730352e-01 6.82284772e-01 1.24984905e-01</_>
    <_>
